nelements=1
elements: Si

lmax=6

2 FS parameters:  1.000000 1.000000
core energy-cutoff parameters: 100000.000000000000000000 1.000000000000000000
E0: -158.54496821

radbasename=ACE.jl.Basic
haspair: t

transform parameters: p=2 r0=2.35126
cutoff parameters: rcut=5.5 xl=0.2658211500023669 xr=1.5487220113012286 pl=2 pr=2
recursion coefficients: maxn=18
 9.266119311006687 0.0 0.0
 5.1705083228294235 -4.691055258826728 0.0
 4.168597078837373 -3.7820496608172487 -0.8062257748298534
 3.7896337080340072 -3.438226964379348 -0.9090909090909217
 3.5932411986843027 -3.260045621993467 -0.9481763873554935
 3.4752134291182384 -3.1529623809384595 -0.9671528397232924
 3.39768962282057 -3.0826272346606283 -0.9776923610941068
 3.343611534852333 -3.0335637223110594 -0.984083864634069
 3.3041962690513644 -2.997803371806005 -0.9882117688044445
 3.274485487413821 -2.9708476239873103 -0.9910081668223422
 3.25148329759699 -2.94997839087374 -0.9929753269925161
 3.233282128606573 -2.9334649875140966 -0.9944021951446416
 3.218615474679855 -2.9201583492231262 -0.9954638496291512
 3.2066131379181058 -2.9092689701777825 -0.996270962823565
 3.196659840085058 -2.9002386259200907 -0.9968960091520341
 3.1883098223407638 -2.8926628921227593 -0.9973878929376332
 3.1812332930457825 -2.8862425582037683 -0.9977804762744767
 3.175181755655251 -2.880752170310094 -0.9980977385708435
tests: ntests=0

begin repulsive potential
begin polypairpot
transform parameters: p=2 r0=2.35126
cutoff parameters: rcut=6.5 xl=0.1996612193351111 xr=2.372718237344682 pl=1 pr=0
recursion coefficients: maxn=12
 0.7970573297067717 0.0 0.0
 2.376367709542944 -4.34745440267418 0.0
 2.0418559725718572 -2.995966854134438 -0.8592340168452226
 1.9480476778224152 -2.681936866317767 -0.9540573399840271
 1.9078222609703708 -2.5574563760872424 -0.9793509074187542
 1.886748315849131 -2.495034632578643 -0.9889539263943145
 1.8742963773986112 -2.4591670723032424 -0.993400318237512
 1.866316576065074 -2.4366198138466846 -0.9957425082661575
 1.8608930506513033 -2.4215074267961136 -0.9970939949399162
 1.8570386598035467 -2.4108779791252912 -0.9979287413393189
 1.8542016942313906 -2.403114852882332 -0.9984723174409026
 1.8520537771868926 -2.39727103366407 -0.9988415947136803
tests: ntests=0
coefficients
399.50651070064623
262.1991233670053
88.63645504038315
-2.7626706651247344
-13.580329017782422
-1.889347964480279
1.232991690115211
0.04132021480680695
-0.061075866337737955
0.008813314182253475
-0.0005127321325421764
1.091775125432685e-5
end polypairpot
spline parameters
   e_0 + B  exp(-A*(r/ri-1)) * (ri/r)
ri=0.5
e0=0.0
A=1.3724613908601144
B=2319.3985877007435
end repulsive potential

rankmax=5
ndensitymax=1

num_c_tilde_max=5181
num_ms_combinations_max=97
total_basis_size_rank1: 18
ctilde_basis_func: rank=1 ndens=1 mu0=0 mu=( 0 )
n=( 17 )
l=( 0 )
num_ms=1
< 0 >:  0.08817214154157574
ctilde_basis_func: rank=1 ndens=1 mu0=0 mu=( 0 )
n=( 9 )
l=( 0 )
num_ms=1
< 0 >:  8.823643266219987
ctilde_basis_func: rank=1 ndens=1 mu0=0 mu=( 0 )
n=( 16 )
l=( 0 )
num_ms=1
< 0 >:  -0.10373580676422621
ctilde_basis_func: rank=1 ndens=1 mu0=0 mu=( 0 )
n=( 8 )
l=( 0 )
num_ms=1
< 0 >:  13.58102641654341
ctilde_basis_func: rank=1 ndens=1 mu0=0 mu=( 0 )
n=( 5 )
l=( 0 )
num_ms=1
< 0 >:  12.019237976903806
ctilde_basis_func: rank=1 ndens=1 mu0=0 mu=( 0 )
n=( 3 )
l=( 0 )
num_ms=1
< 0 >:  3.283847781505515
ctilde_basis_func: rank=1 ndens=1 mu0=0 mu=( 0 )
n=( 6 )
l=( 0 )
num_ms=1
< 0 >:  5.546719793000604
ctilde_basis_func: rank=1 ndens=1 mu0=0 mu=( 0 )
n=( 13 )
l=( 0 )
num_ms=1
< 0 >:  -1.7307835114289287
ctilde_basis_func: rank=1 ndens=1 mu0=0 mu=( 0 )
n=( 12 )
l=( 0 )
num_ms=1
< 0 >:  -2.116650558455449
ctilde_basis_func: rank=1 ndens=1 mu0=0 mu=( 0 )
n=( 10 )
l=( 0 )
num_ms=1
< 0 >:  5.404483600960983
ctilde_basis_func: rank=1 ndens=1 mu0=0 mu=( 0 )
n=( 2 )
l=( 0 )
num_ms=1
< 0 >:  1.3010477982659174
ctilde_basis_func: rank=1 ndens=1 mu0=0 mu=( 0 )
n=( 7 )
l=( 0 )
num_ms=1
< 0 >:  8.475994122414686
ctilde_basis_func: rank=1 ndens=1 mu0=0 mu=( 0 )
n=( 14 )
l=( 0 )
num_ms=1
< 0 >:  -0.7532807906811196
ctilde_basis_func: rank=1 ndens=1 mu0=0 mu=( 0 )
n=( 1 )
l=( 0 )
num_ms=1
< 0 >:  9.389732245671947
ctilde_basis_func: rank=1 ndens=1 mu0=0 mu=( 0 )
n=( 11 )
l=( 0 )
num_ms=1
< 0 >:  3.736557967192932
ctilde_basis_func: rank=1 ndens=1 mu0=0 mu=( 0 )
n=( 15 )
l=( 0 )
num_ms=1
< 0 >:  -0.6145232831632285
ctilde_basis_func: rank=1 ndens=1 mu0=0 mu=( 0 )
n=( 4 )
l=( 0 )
num_ms=1
< 0 >:  9.671792256695888
ctilde_basis_func: rank=1 ndens=1 mu0=0 mu=( 0 )
n=( 18 )
l=( 0 )
num_ms=1
< 0 >:  0.02983971635054376
total_basis_size: 5163
ctilde_basis_func: rank=2 ndens=1 mu0=0 mu=( 0  0 )
n=( 1  2 )
l=( 3  3 )
num_ms=7
< -3  3 >:  -0.5900912325881222
< -2  2 >:  0.5900912325881222
< -1  1 >:  -0.5900912325881222
< 0  0 >:  0.5900912325881222
< 1  -1 >:  -0.5900912325881222
< 2  -2 >:  0.5900912325881222
< 3  -3 >:  -0.5900912325881222
ctilde_basis_func: rank=2 ndens=1 mu0=0 mu=( 0  0 )
n=( 4  4 )
l=( 3  3 )
num_ms=4
< -3  3 >:  0.19614623965796624
< -2  2 >:  -0.19614623965796624
< -1  1 >:  0.19614623965796624
< 0  0 >:  -0.09807311982898312
ctilde_basis_func: rank=2 ndens=1 mu0=0 mu=( 0  0 )
n=( 6  6 )
l=( 1  1 )
num_ms=2
< -1  1 >:  -0.14006926771438583
< 0  0 >:  0.07003463385719291
ctilde_basis_func: rank=2 ndens=1 mu0=0 mu=( 0  0 )
n=( 3  9 )
l=( 1  1 )
num_ms=3
< -1  1 >:  -0.24997656357951312
< 0  0 >:  0.24997656357951312
< 1  -1 >:  -0.24997656357951312
ctilde_basis_func: rank=2 ndens=1 mu0=0 mu=( 0  0 )
n=( 1  4 )
l=( 4  4 )
num_ms=9
< -4  4 >:  -0.6836267654525124
< -3  3 >:  0.6836267654525122
< -2  2 >:  -0.6836267654525122
< -1  1 >:  0.6836267654525122
< 0  0 >:  -0.6836267654525122
< 1  -1 >:  0.6836267654525122
< 2  -2 >:  -0.6836267654525122
< 3  -3 >:  0.6836267654525122
< 4  -4 >:  -0.6836267654525122
ctilde_basis_func: rank=2 ndens=1 mu0=0 mu=( 0  0 )
n=( 1  11 )
l=( 0  0 )
num_ms=1
< 0  0 >:  -1.071343414851244
ctilde_basis_func: rank=2 ndens=1 mu0=0 mu=( 0  0 )
n=( 1  4 )
l=( 2  2 )
num_ms=5
< -2  2 >:  -1.2191287102845516
< -1  1 >:  1.2191287102845516
< 0  0 >:  -1.2191287102845516
< 1  -1 >:  1.2191287102845516
< 2  -2 >:  -1.2191287102845516
ctilde_basis_func: rank=2 ndens=1 mu0=0 mu=( 0  0 )
n=( 1  9 )
l=( 3  3 )
num_ms=7
< -3  3 >:  0.039983173197608156
< -2  2 >:  -0.039983173197608156
< -1  1 >:  0.039983173197608156
< 0  0 >:  -0.039983173197608156
< 1  -1 >:  0.039983173197608156
< 2  -2 >:  -0.039983173197608156
< 3  -3 >:  0.039983173197608156
ctilde_basis_func: rank=2 ndens=1 mu0=0 mu=( 0  0 )
n=( 7  7 )
l=( 1  1 )
num_ms=2
< -1  1 >:  -0.06916938258426508
< 0  0 >:  0.03458469129213254
ctilde_basis_func: rank=2 ndens=1 mu0=0 mu=( 0  0 )
n=( 1  6 )
l=( 4  4 )
num_ms=9
< -4  4 >:  -0.03214558228912148
< -3  3 >:  0.032145582289121476
< -2  2 >:  -0.032145582289121476
< -1  1 >:  0.032145582289121476
< 0  0 >:  -0.032145582289121476
< 1  -1 >:  0.032145582289121476
< 2  -2 >:  -0.032145582289121476
< 3  -3 >:  0.032145582289121476
< 4  -4 >:  -0.032145582289121476
ctilde_basis_func: rank=2 ndens=1 mu0=0 mu=( 0  0 )
n=( 1  7 )
l=( 3  3 )
num_ms=7
< -3  3 >:  0.616723357071044
< -2  2 >:  -0.616723357071044
< -1  1 >:  0.616723357071044
< 0  0 >:  -0.616723357071044
< 1  -1 >:  0.616723357071044
< 2  -2 >:  -0.616723357071044
< 3  -3 >:  0.616723357071044
ctilde_basis_func: rank=2 ndens=1 mu0=0 mu=( 0  0 )
n=( 2  3 )
l=( 2  2 )
num_ms=5
< -2  2 >:  1.9486119129066288
< -1  1 >:  -1.9486119129066288
< 0  0 >:  1.9486119129066288
< 1  -1 >:  -1.9486119129066288
< 2  -2 >:  1.9486119129066288
ctilde_basis_func: rank=2 ndens=1 mu0=0 mu=( 0  0 )
n=( 4  8 )
l=( 1  1 )
num_ms=3
< -1  1 >:  -0.16854801833900426
< 0  0 >:  0.16854801833900426
< 1  -1 >:  -0.16854801833900426
ctilde_basis_func: rank=2 ndens=1 mu0=0 mu=( 0  0 )
n=( 2  7 )
l=( 2  2 )
num_ms=5
< -2  2 >:  0.9451174105124329
< -1  1 >:  -0.9451174105124329
< 0  0 >:  0.9451174105124329
< 1  -1 >:  -0.9451174105124329
< 2  -2 >:  0.9451174105124329
ctilde_basis_func: rank=2 ndens=1 mu0=0 mu=( 0  0 )
n=( 1  8 )
l=( 1  1 )
num_ms=3
< -1  1 >:  0.9260335341862805
< 0  0 >:  -0.9260335341862805
< 1  -1 >:  0.9260335341862805
ctilde_basis_func: rank=2 ndens=1 mu0=0 mu=( 0  0 )
n=( 4  7 )
l=( 2  2 )
num_ms=5
< -2  2 >:  0.08007572609920158
< -1  1 >:  -0.08007572609920158
< 0  0 >:  0.08007572609920158
< 1  -1 >:  -0.08007572609920158
< 2  -2 >:  0.08007572609920158
ctilde_basis_func: rank=2 ndens=1 mu0=0 mu=( 0  0 )
n=( 3  4 )
l=( 1  1 )
num_ms=3
< -1  1 >:  -1.751907600346905
< 0  0 >:  1.751907600346905
< 1  -1 >:  -1.751907600346905
ctilde_basis_func: rank=2 ndens=1 mu0=0 mu=( 0  0 )
n=( 1  2 )
l=( 5  5 )
num_ms=11
< -5  5 >:  0.001614849917612432
< -4  4 >:  -0.0016148499176124329
< -3  3 >:  0.0016148499176124329
< -2  2 >:  -0.0016148499176124329
< -1  1 >:  0.0016148499176124329
< 0  0 >:  -0.0016148499176124329
< 1  -1 >:  0.0016148499176124329
< 2  -2 >:  -0.0016148499176124329
< 3  -3 >:  0.0016148499176124329
< 4  -4 >:  -0.0016148499176124329
< 5  -5 >:  0.0016148499176124329
ctilde_basis_func: rank=2 ndens=1 mu0=0 mu=( 0  0 )
n=( 1  7 )
l=( 2  2 )
num_ms=5
< -2  2 >:  -1.259704137368689
< -1  1 >:  1.259704137368689
< 0  0 >:  -1.259704137368689
< 1  -1 >:  1.259704137368689
< 2  -2 >:  -1.259704137368689
ctilde_basis_func: rank=2 ndens=1 mu0=0 mu=( 0  0 )
n=( 3  3 )
l=( 4  4 )
num_ms=5
< -4  4 >:  0.07901265085909846
< -3  3 >:  -0.07901265085909845
< -2  2 >:  0.07901265085909845
< -1  1 >:  -0.07901265085909845
< 0  0 >:  0.039506325429549224
ctilde_basis_func: rank=2 ndens=1 mu0=0 mu=( 0  0 )
n=( 3  3 )
l=( 2  2 )
num_ms=3
< -2  2 >:  3.0394007123058233
< -1  1 >:  -3.0394007123058233
< 0  0 >:  1.5197003561529117
ctilde_basis_func: rank=2 ndens=1 mu0=0 mu=( 0  0 )
n=( 2  7 )
l=( 3  3 )
num_ms=7
< -3  3 >:  -0.07764513009083443
< -2  2 >:  0.07764513009083443
< -1  1 >:  -0.07764513009083443
< 0  0 >:  0.07764513009083443
< 1  -1 >:  -0.07764513009083443
< 2  -2 >:  0.07764513009083443
< 3  -3 >:  -0.07764513009083443
ctilde_basis_func: rank=2 ndens=1 mu0=0 mu=( 0  0 )
n=( 4  5 )
l=( 0  0 )
num_ms=1
< 0  0 >:  0.5076502097762282
ctilde_basis_func: rank=2 ndens=1 mu0=0 mu=( 0  0 )
n=( 5  5 )
l=( 1  1 )
num_ms=2
< -1  1 >:  0.5499181222630597
< 0  0 >:  -0.27495906113152985
ctilde_basis_func: rank=2 ndens=1 mu0=0 mu=( 0  0 )
n=( 2  2 )
l=( 3  3 )
num_ms=4
< -3  3 >:  -1.4513592517239193
< -2  2 >:  1.4513592517239193
< -1  1 >:  -1.4513592517239193
< 0  0 >:  0.7256796258619597
ctilde_basis_func: rank=2 ndens=1 mu0=0 mu=( 0  0 )
n=( 1  9 )
l=( 2  2 )
num_ms=5
< -2  2 >:  -0.5715321376967473
< -1  1 >:  0.5715321376967473
< 0  0 >:  -0.5715321376967473
< 1  -1 >:  0.5715321376967473
< 2  -2 >:  -0.5715321376967473
ctilde_basis_func: rank=2 ndens=1 mu0=0 mu=( 0  0 )
n=( 1  5 )
l=( 4  4 )
num_ms=9
< -4  4 >:  -0.21029929062588365
< -3  3 >:  0.21029929062588362
< -2  2 >:  -0.21029929062588362
< -1  1 >:  0.21029929062588362
< 0  0 >:  -0.21029929062588362
< 1  -1 >:  0.21029929062588362
< 2  -2 >:  -0.21029929062588362
< 3  -3 >:  0.21029929062588362
< 4  -4 >:  -0.21029929062588362
ctilde_basis_func: rank=2 ndens=1 mu0=0 mu=( 0  0 )
n=( 3  3 )
l=( 0  0 )
num_ms=1
< 0  0 >:  1.4142736642182867
ctilde_basis_func: rank=2 ndens=1 mu0=0 mu=( 0  0 )
n=( 4  6 )
l=( 3  3 )
num_ms=7
< -3  3 >:  0.006722408096376843
< -2  2 >:  -0.006722408096376843
< -1  1 >:  0.006722408096376843
< 0  0 >:  -0.006722408096376843
< 1  -1 >:  0.006722408096376843
< 2  -2 >:  -0.006722408096376843
< 3  -3 >:  0.006722408096376843
ctilde_basis_func: rank=2 ndens=1 mu0=0 mu=( 0  0 )
n=( 1  12 )
l=( 1  1 )
num_ms=3
< -1  1 >:  -0.1958061649048258
< 0  0 >:  0.1958061649048258
< 1  -1 >:  -0.1958061649048258
ctilde_basis_func: rank=2 ndens=1 mu0=0 mu=( 0  0 )
n=( 4  11 )
l=( 1  1 )
num_ms=3
< -1  1 >:  -0.007911808727392432
< 0  0 >:  0.007911808727392432
< 1  -1 >:  -0.007911808727392432
ctilde_basis_func: rank=2 ndens=1 mu0=0 mu=( 0  0 )
n=( 3  7 )
l=( 0  0 )
num_ms=1
< 0  0 >:  1.0173683245210376
ctilde_basis_func: rank=2 ndens=1 mu0=0 mu=( 0  0 )
n=( 1  1 )
l=( 4  4 )
num_ms=5
< -4  4 >:  -1.7545193826455134
< -3  3 >:  1.7545193826455132
< -2  2 >:  -1.7545193826455132
< -1  1 >:  1.7545193826455132
< 0  0 >:  -0.8772596913227566
ctilde_basis_func: rank=2 ndens=1 mu0=0 mu=( 0  0 )
n=( 2  3 )
l=( 1  1 )
num_ms=3
< -1  1 >:  -0.37980800515554763
< 0  0 >:  0.37980800515554763
< 1  -1 >:  -0.37980800515554763
ctilde_basis_func: rank=2 ndens=1 mu0=0 mu=( 0  0 )
n=( 1  4 )
l=( 5  5 )
num_ms=11
< -5  5 >:  0.01874796073310332
< -4  4 >:  -0.018747960733103333
< -3  3 >:  0.018747960733103333
< -2  2 >:  -0.018747960733103333
< -1  1 >:  0.018747960733103333
< 0  0 >:  -0.018747960733103333
< 1  -1 >:  0.018747960733103333
< 2  -2 >:  -0.018747960733103333
< 3  -3 >:  0.018747960733103333
< 4  -4 >:  -0.018747960733103333
< 5  -5 >:  0.018747960733103333
ctilde_basis_func: rank=2 ndens=1 mu0=0 mu=( 0  0 )
n=( 1  3 )
l=( 4  4 )
num_ms=9
< -4  4 >:  -1.3253539420140654
< -3  3 >:  1.3253539420140652
< -2  2 >:  -1.3253539420140652
< -1  1 >:  1.3253539420140652
< 0  0 >:  -1.3253539420140652
< 1  -1 >:  1.3253539420140652
< 2  -2 >:  -1.3253539420140652
< 3  -3 >:  1.3253539420140652
< 4  -4 >:  -1.3253539420140652
ctilde_basis_func: rank=2 ndens=1 mu0=0 mu=( 0  0 )
n=( 6  9 )
l=( 1  1 )
num_ms=3
< -1  1 >:  0.00204059635464456
< 0  0 >:  -0.00204059635464456
< 1  -1 >:  0.00204059635464456
ctilde_basis_func: rank=2 ndens=1 mu0=0 mu=( 0  0 )
n=( 3  4 )
l=( 3  3 )
num_ms=7
< -3  3 >:  -0.3751005350704778
< -2  2 >:  0.3751005350704778
< -1  1 >:  -0.3751005350704778
< 0  0 >:  0.3751005350704778
< 1  -1 >:  -0.3751005350704778
< 2  -2 >:  0.3751005350704778
< 3  -3 >:  -0.3751005350704778
ctilde_basis_func: rank=2 ndens=1 mu0=0 mu=( 0  0 )
n=( 3  11 )
l=( 1  1 )
num_ms=3
< -1  1 >:  -0.03754015623139341
< 0  0 >:  0.03754015623139341
< 1  -1 >:  -0.03754015623139341
ctilde_basis_func: rank=2 ndens=1 mu0=0 mu=( 0  0 )
n=( 1  2 )
l=( 4  4 )
num_ms=9
< -4  4 >:  -0.39883475406462826
< -3  3 >:  0.3988347540646282
< -2  2 >:  -0.3988347540646282
< -1  1 >:  0.3988347540646282
< 0  0 >:  -0.3988347540646282
< 1  -1 >:  0.3988347540646282
< 2  -2 >:  -0.3988347540646282
< 3  -3 >:  0.3988347540646282
< 4  -4 >:  -0.3988347540646282
ctilde_basis_func: rank=2 ndens=1 mu0=0 mu=( 0  0 )
n=( 1  3 )
l=( 5  5 )
num_ms=11
< -5  5 >:  0.055888773702120406
< -4  4 >:  -0.05588877370212043
< -3  3 >:  0.05588877370212043
< -2  2 >:  -0.05588877370212043
< -1  1 >:  0.05588877370212043
< 0  0 >:  -0.05588877370212043
< 1  -1 >:  0.05588877370212043
< 2  -2 >:  -0.05588877370212043
< 3  -3 >:  0.05588877370212043
< 4  -4 >:  -0.05588877370212043
< 5  -5 >:  0.05588877370212043
ctilde_basis_func: rank=2 ndens=1 mu0=0 mu=( 0  0 )
n=( 2  8 )
l=( 3  3 )
num_ms=7
< -3  3 >:  -0.008730326150069623
< -2  2 >:  0.008730326150069623
< -1  1 >:  -0.008730326150069623
< 0  0 >:  0.008730326150069623
< 1  -1 >:  -0.008730326150069623
< 2  -2 >:  0.008730326150069623
< 3  -3 >:  -0.008730326150069623
ctilde_basis_func: rank=2 ndens=1 mu0=0 mu=( 0  0 )
n=( 1  14 )
l=( 0  0 )
num_ms=1
< 0  0 >:  0.3201322622155401
ctilde_basis_func: rank=2 ndens=1 mu0=0 mu=( 0  0 )
n=( 8  8 )
l=( 0  0 )
num_ms=1
< 0  0 >:  -0.0493692937015353
ctilde_basis_func: rank=2 ndens=1 mu0=0 mu=( 0  0 )
n=( 5  5 )
l=( 3  3 )
num_ms=4
< -3  3 >:  -0.009763931947547284
< -2  2 >:  0.009763931947547284
< -1  1 >:  -0.009763931947547284
< 0  0 >:  0.004881965973773642
ctilde_basis_func: rank=2 ndens=1 mu0=0 mu=( 0  0 )
n=( 3  3 )
l=( 3  3 )
num_ms=4
< -3  3 >:  -1.329112782232255
< -2  2 >:  1.329112782232255
< -1  1 >:  -1.329112782232255
< 0  0 >:  0.6645563911161275
ctilde_basis_func: rank=2 ndens=1 mu0=0 mu=( 0  0 )
n=( 4  5 )
l=( 3  3 )
num_ms=7
< -3  3 >:  0.01937901418444555
< -2  2 >:  -0.01937901418444555
< -1  1 >:  0.01937901418444555
< 0  0 >:  -0.01937901418444555
< 1  -1 >:  0.01937901418444555
< 2  -2 >:  -0.01937901418444555
< 3  -3 >:  0.01937901418444555
ctilde_basis_func: rank=2 ndens=1 mu0=0 mu=( 0  0 )
n=( 3  6 )
l=( 2  2 )
num_ms=5
< -2  2 >:  1.3316970021519576
< -1  1 >:  -1.3316970021519576
< 0  0 >:  1.3316970021519576
< 1  -1 >:  -1.3316970021519576
< 2  -2 >:  1.3316970021519576
ctilde_basis_func: rank=2 ndens=1 mu0=0 mu=( 0  0 )
n=( 4  11 )
l=( 0  0 )
num_ms=1
< 0  0 >:  -0.03134770431776151
ctilde_basis_func: rank=2 ndens=1 mu0=0 mu=( 0  0 )
n=( 4  6 )
l=( 2  2 )
num_ms=5
< -2  2 >:  0.3158443474177358
< -1  1 >:  -0.3158443474177358
< 0  0 >:  0.3158443474177358
< 1  -1 >:  -0.3158443474177358
< 2  -2 >:  0.3158443474177358
ctilde_basis_func: rank=2 ndens=1 mu0=0 mu=( 0  0 )
n=( 2  4 )
l=( 4  4 )
num_ms=9
< -4  4 >:  0.007129520071322737
< -3  3 >:  -0.007129520071322736
< -2  2 >:  0.007129520071322736
< -1  1 >:  -0.007129520071322736
< 0  0 >:  0.007129520071322736
< 1  -1 >:  -0.007129520071322736
< 2  -2 >:  0.007129520071322736
< 3  -3 >:  -0.007129520071322736
< 4  -4 >:  0.007129520071322736
ctilde_basis_func: rank=2 ndens=1 mu0=0 mu=( 0  0 )
n=( 1  8 )
l=( 3  3 )
num_ms=7
< -3  3 >:  0.24004280376886938
< -2  2 >:  -0.24004280376886938
< -1  1 >:  0.24004280376886938
< 0  0 >:  -0.24004280376886938
< 1  -1 >:  0.24004280376886938
< 2  -2 >:  -0.24004280376886938
< 3  -3 >:  0.24004280376886938
ctilde_basis_func: rank=2 ndens=1 mu0=0 mu=( 0  0 )
n=( 3  12 )
l=( 1  1 )
num_ms=3
< -1  1 >:  -0.0029432189359961587
< 0  0 >:  0.0029432189359961587
< 1  -1 >:  -0.0029432189359961587
ctilde_basis_func: rank=2 ndens=1 mu0=0 mu=( 0  0 )
n=( 6  12 )
l=( 0  0 )
num_ms=1
< 0  0 >:  0.0018972122484015013
ctilde_basis_func: rank=2 ndens=1 mu0=0 mu=( 0  0 )
n=( 7  11 )
l=( 0  0 )
num_ms=1
< 0  0 >:  0.00818993963327338
ctilde_basis_func: rank=2 ndens=1 mu0=0 mu=( 0  0 )
n=( 4  8 )
l=( 2  2 )
num_ms=5
< -2  2 >:  0.006612933876548213
< -1  1 >:  -0.006612933876548213
< 0  0 >:  0.006612933876548213
< 1  -1 >:  -0.006612933876548213
< 2  -2 >:  0.006612933876548213
ctilde_basis_func: rank=2 ndens=1 mu0=0 mu=( 0  0 )
n=( 1  2 )
l=( 1  1 )
num_ms=3
< -1  1 >:  -0.6328124124067228
< 0  0 >:  0.6328124124067228
< 1  -1 >:  -0.6328124124067228
ctilde_basis_func: rank=2 ndens=1 mu0=0 mu=( 0  0 )
n=( 6  8 )
l=( 1  1 )
num_ms=3
< -1  1 >:  0.0018020505355069204
< 0  0 >:  -0.0018020505355069204
< 1  -1 >:  0.0018020505355069204
ctilde_basis_func: rank=2 ndens=1 mu0=0 mu=( 0  0 )
n=( 3  12 )
l=( 0  0 )
num_ms=1
< 0  0 >:  0.07224017197504203
ctilde_basis_func: rank=2 ndens=1 mu0=0 mu=( 0  0 )
n=( 5  9 )
l=( 1  1 )
num_ms=3
< -1  1 >:  0.009288340351848163
< 0  0 >:  -0.009288340351848163
< 1  -1 >:  0.009288340351848163
ctilde_basis_func: rank=2 ndens=1 mu0=0 mu=( 0  0 )
n=( 1  5 )
l=( 1  1 )
num_ms=3
< -1  1 >:  0.8308309973399912
< 0  0 >:  -0.8308309973399912
< 1  -1 >:  0.8308309973399912
ctilde_basis_func: rank=2 ndens=1 mu0=0 mu=( 0  0 )
n=( 2  3 )
l=( 4  4 )
num_ms=9
< -4  4 >:  0.15005422461848233
< -3  3 >:  -0.15005422461848233
< -2  2 >:  0.15005422461848233
< -1  1 >:  -0.15005422461848233
< 0  0 >:  0.15005422461848233
< 1  -1 >:  -0.15005422461848233
< 2  -2 >:  0.15005422461848233
< 3  -3 >:  -0.15005422461848233
< 4  -4 >:  0.15005422461848233
ctilde_basis_func: rank=2 ndens=1 mu0=0 mu=( 0  0 )
n=( 4  5 )
l=( 2  2 )
num_ms=5
< -2  2 >:  0.34149331211036094
< -1  1 >:  -0.34149331211036094
< 0  0 >:  0.34149331211036094
< 1  -1 >:  -0.34149331211036094
< 2  -2 >:  0.34149331211036094
ctilde_basis_func: rank=2 ndens=1 mu0=0 mu=( 0  0 )
n=( 3  4 )
l=( 4  4 )
num_ms=9
< -4  4 >:  0.011712619605914782
< -3  3 >:  -0.01171261960591478
< -2  2 >:  0.01171261960591478
< -1  1 >:  -0.01171261960591478
< 0  0 >:  0.01171261960591478
< 1  -1 >:  -0.01171261960591478
< 2  -2 >:  0.01171261960591478
< 3  -3 >:  -0.01171261960591478
< 4  -4 >:  0.01171261960591478
ctilde_basis_func: rank=2 ndens=1 mu0=0 mu=( 0  0 )
n=( 3  6 )
l=( 0  0 )
num_ms=1
< 0  0 >:  0.6359762617238346
ctilde_basis_func: rank=2 ndens=1 mu0=0 mu=( 0  0 )
n=( 9  9 )
l=( 0  0 )
num_ms=1
< 0  0 >:  -0.0006813711079750231
ctilde_basis_func: rank=2 ndens=1 mu0=0 mu=( 0  0 )
n=( 2  5 )
l=( 4  4 )
num_ms=9
< -4  4 >:  -0.0007906973844011877
< -3  3 >:  0.0007906973844011876
< -2  2 >:  -0.0007906973844011876
< -1  1 >:  0.0007906973844011876
< 0  0 >:  -0.0007906973844011876
< 1  -1 >:  0.0007906973844011876
< 2  -2 >:  -0.0007906973844011876
< 3  -3 >:  0.0007906973844011876
< 4  -4 >:  -0.0007906973844011876
ctilde_basis_func: rank=2 ndens=1 mu0=0 mu=( 0  0 )
n=( 5  10 )
l=( 1  1 )
num_ms=3
< -1  1 >:  -0.001851794514697161
< 0  0 >:  0.001851794514697161
< 1  -1 >:  -0.001851794514697161
ctilde_basis_func: rank=2 ndens=1 mu0=0 mu=( 0  0 )
n=( 1  10 )
l=( 1  1 )
num_ms=3
< -1  1 >:  -0.5128347493898447
< 0  0 >:  0.5128347493898447
< 1  -1 >:  -0.5128347493898447
ctilde_basis_func: rank=2 ndens=1 mu0=0 mu=( 0  0 )
n=( 3  4 )
l=( 2  2 )
num_ms=5
< -2  2 >:  1.566338360250805
< -1  1 >:  -1.566338360250805
< 0  0 >:  1.566338360250805
< 1  -1 >:  -1.566338360250805
< 2  -2 >:  1.566338360250805
ctilde_basis_func: rank=2 ndens=1 mu0=0 mu=( 0  0 )
n=( 2  6 )
l=( 2  2 )
num_ms=5
< -2  2 >:  1.4475178114392524
< -1  1 >:  -1.4475178114392524
< 0  0 >:  1.4475178114392524
< 1  -1 >:  -1.4475178114392524
< 2  -2 >:  1.4475178114392524
ctilde_basis_func: rank=2 ndens=1 mu0=0 mu=( 0  0 )
n=( 1  5 )
l=( 2  2 )
num_ms=5
< -2  2 >:  -1.9698548330137216
< -1  1 >:  1.9698548330137216
< 0  0 >:  -1.9698548330137216
< 1  -1 >:  1.9698548330137216
< 2  -2 >:  -1.9698548330137216
ctilde_basis_func: rank=2 ndens=1 mu0=0 mu=( 0  0 )
n=( 4  9 )
l=( 1  1 )
num_ms=3
< -1  1 >:  -0.2099744670124856
< 0  0 >:  0.2099744670124856
< 1  -1 >:  -0.2099744670124856
ctilde_basis_func: rank=2 ndens=1 mu0=0 mu=( 0  0 )
n=( 4  13 )
l=( 0  0 )
num_ms=1
< 0  0 >:  -0.001047023706925461
ctilde_basis_func: rank=2 ndens=1 mu0=0 mu=( 0  0 )
n=( 3  7 )
l=( 3  3 )
num_ms=7
< -3  3 >:  -0.007045471155376386
< -2  2 >:  0.007045471155376386
< -1  1 >:  -0.007045471155376386
< 0  0 >:  0.007045471155376386
< 1  -1 >:  -0.007045471155376386
< 2  -2 >:  0.007045471155376386
< 3  -3 >:  -0.007045471155376386
ctilde_basis_func: rank=2 ndens=1 mu0=0 mu=( 0  0 )
n=( 1  11 )
l=( 2  2 )
num_ms=5
< -2  2 >:  -0.020102508391263513
< -1  1 >:  0.020102508391263513
< 0  0 >:  -0.020102508391263513
< 1  -1 >:  0.020102508391263513
< 2  -2 >:  -0.020102508391263513
ctilde_basis_func: rank=2 ndens=1 mu0=0 mu=( 0  0 )
n=( 3  6 )
l=( 3  3 )
num_ms=7
< -3  3 >:  -0.06752670389808475
< -2  2 >:  0.06752670389808475
< -1  1 >:  -0.06752670389808475
< 0  0 >:  0.06752670389808475
< 1  -1 >:  -0.06752670389808475
< 2  -2 >:  0.06752670389808475
< 3  -3 >:  -0.06752670389808475
ctilde_basis_func: rank=2 ndens=1 mu0=0 mu=( 0  0 )
n=( 1  3 )
l=( 3  3 )
num_ms=7
< -3  3 >:  1.8682618811908143
< -2  2 >:  -1.8682618811908143
< -1  1 >:  1.8682618811908143
< 0  0 >:  -1.8682618811908143
< 1  -1 >:  1.8682618811908143
< 2  -2 >:  -1.8682618811908143
< 3  -3 >:  1.8682618811908143
ctilde_basis_func: rank=2 ndens=1 mu0=0 mu=( 0  0 )
n=( 4  10 )
l=( 1  1 )
num_ms=3
< -1  1 >:  -0.08095760866575297
< 0  0 >:  0.08095760866575297
< 1  -1 >:  -0.08095760866575297
ctilde_basis_func: rank=2 ndens=1 mu0=0 mu=( 0  0 )
n=( 2  4 )
l=( 2  2 )
num_ms=5
< -2  2 >:  0.5660405235948572
< -1  1 >:  -0.5660405235948572
< 0  0 >:  0.5660405235948572
< 1  -1 >:  -0.5660405235948572
< 2  -2 >:  0.5660405235948572
ctilde_basis_func: rank=2 ndens=1 mu0=0 mu=( 0  0 )
n=( 2  10 )
l=( 1  1 )
num_ms=3
< -1  1 >:  0.005498662724050913
< 0  0 >:  -0.005498662724050913
< 1  -1 >:  0.005498662724050913
ctilde_basis_func: rank=2 ndens=1 mu0=0 mu=( 0  0 )
n=( 1  4 )
l=( 1  1 )
num_ms=3
< -1  1 >:  -0.38066106736451444
< 0  0 >:  0.38066106736451444
< 1  -1 >:  -0.38066106736451444
ctilde_basis_func: rank=2 ndens=1 mu0=0 mu=( 0  0 )
n=( 4  6 )
l=( 1  1 )
num_ms=3
< -1  1 >:  -0.8376107381821757
< 0  0 >:  0.8376107381821757
< 1  -1 >:  -0.8376107381821757
ctilde_basis_func: rank=2 ndens=1 mu0=0 mu=( 0  0 )
n=( 1  1 )
l=( 6  6 )
num_ms=7
< -6  6 >:  -0.03948926989817968
< -5  5 >:  0.039489269898179656
< -4  4 >:  -0.039489269898179656
< -3  3 >:  0.039489269898179656
< -2  2 >:  -0.039489269898179656
< -1  1 >:  0.039489269898179656
< 0  0 >:  -0.019744634949089828
ctilde_basis_func: rank=2 ndens=1 mu0=0 mu=( 0  0 )
n=( 2  6 )
l=( 3  3 )
num_ms=7
< -3  3 >:  -0.28171307538798024
< -2  2 >:  0.28171307538798024
< -1  1 >:  -0.28171307538798024
< 0  0 >:  0.28171307538798024
< 1  -1 >:  -0.28171307538798024
< 2  -2 >:  0.28171307538798024
< 3  -3 >:  -0.28171307538798024
ctilde_basis_func: rank=2 ndens=1 mu0=0 mu=( 0  0 )
n=( 2  4 )
l=( 3  3 )
num_ms=7
< -3  3 >:  -0.4345773948115463
< -2  2 >:  0.4345773948115463
< -1  1 >:  -0.4345773948115463
< 0  0 >:  0.4345773948115463
< 1  -1 >:  -0.4345773948115463
< 2  -2 >:  0.4345773948115463
< 3  -3 >:  -0.4345773948115463
ctilde_basis_func: rank=2 ndens=1 mu0=0 mu=( 0  0 )
n=( 3  8 )
l=( 2  2 )
num_ms=5
< -2  2 >:  0.0982383653357193
< -1  1 >:  -0.0982383653357193
< 0  0 >:  0.0982383653357193
< 1  -1 >:  -0.0982383653357193
< 2  -2 >:  0.0982383653357193
ctilde_basis_func: rank=2 ndens=1 mu0=0 mu=( 0  0 )
n=( 1  1 )
l=( 2  2 )
num_ms=3
< -2  2 >:  -0.9736275378042226
< -1  1 >:  0.9736275378042226
< 0  0 >:  -0.4868137689021113
ctilde_basis_func: rank=2 ndens=1 mu0=0 mu=( 0  0 )
n=( 6  10 )
l=( 0  0 )
num_ms=1
< 0  0 >:  0.011168478637688366
ctilde_basis_func: rank=2 ndens=1 mu0=0 mu=( 0  0 )
n=( 3  15 )
l=( 0  0 )
num_ms=1
< 0  0 >:  0.0016579555418961328
ctilde_basis_func: rank=2 ndens=1 mu0=0 mu=( 0  0 )
n=( 1  3 )
l=( 1  1 )
num_ms=3
< -1  1 >:  0.2892527728499643
< 0  0 >:  -0.2892527728499643
< 1  -1 >:  0.2892527728499643
ctilde_basis_func: rank=2 ndens=1 mu0=0 mu=( 0  0 )
n=( 3  5 )
l=( 3  3 )
num_ms=7
< -3  3 >:  -0.29443099638891346
< -2  2 >:  0.29443099638891346
< -1  1 >:  -0.29443099638891346
< 0  0 >:  0.29443099638891346
< 1  -1 >:  -0.29443099638891346
< 2  -2 >:  0.29443099638891346
< 3  -3 >:  -0.29443099638891346
ctilde_basis_func: rank=2 ndens=1 mu0=0 mu=( 0  0 )
n=( 2  3 )
l=( 3  3 )
num_ms=7
< -3  3 >:  -1.3725305745305443
< -2  2 >:  1.3725305745305443
< -1  1 >:  -1.3725305745305443
< 0  0 >:  1.3725305745305443
< 1  -1 >:  -1.3725305745305443
< 2  -2 >:  1.3725305745305443
< 3  -3 >:  -1.3725305745305443
ctilde_basis_func: rank=2 ndens=1 mu0=0 mu=( 0  0 )
n=( 2  2 )
l=( 5  5 )
num_ms=6
< -5  5 >:  -0.034451974333792296
< -4  4 >:  0.0344519743337923
< -3  3 >:  -0.0344519743337923
< -2  2 >:  0.0344519743337923
< -1  1 >:  -0.0344519743337923
< 0  0 >:  0.01722598716689615
ctilde_basis_func: rank=2 ndens=1 mu0=0 mu=( 0  0 )
n=( 7  8 )
l=( 1  1 )
num_ms=3
< -1  1 >:  -0.0053693621367350884
< 0  0 >:  0.0053693621367350884
< 1  -1 >:  -0.0053693621367350884
ctilde_basis_func: rank=2 ndens=1 mu0=0 mu=( 0  0 )
n=( 5  8 )
l=( 1  1 )
num_ms=3
< -1  1 >:  0.1569378917142826
< 0  0 >:  -0.1569378917142826
< 1  -1 >:  0.1569378917142826
ctilde_basis_func: rank=2 ndens=1 mu0=0 mu=( 0  0 )
n=( 3  10 )
l=( 1  1 )
num_ms=3
< -1  1 >:  -0.16160314965877218
< 0  0 >:  0.16160314965877218
< 1  -1 >:  -0.16160314965877218
ctilde_basis_func: rank=2 ndens=1 mu0=0 mu=( 0  0 )
n=( 4  7 )
l=( 1  1 )
num_ms=3
< -1  1 >:  -0.7229496331577957
< 0  0 >:  0.7229496331577957
< 1  -1 >:  -0.7229496331577957
ctilde_basis_func: rank=2 ndens=1 mu0=0 mu=( 0  0 )
n=( 5  6 )
l=( 1  1 )
num_ms=3
< -1  1 >:  0.19460568676235243
< 0  0 >:  -0.19460568676235243
< 1  -1 >:  0.19460568676235243
ctilde_basis_func: rank=2 ndens=1 mu0=0 mu=( 0  0 )
n=( 1  9 )
l=( 1  1 )
num_ms=3
< -1  1 >:  -0.08953012174675375
< 0  0 >:  0.08953012174675375
< 1  -1 >:  -0.08953012174675375
ctilde_basis_func: rank=2 ndens=1 mu0=0 mu=( 0  0 )
n=( 1  5 )
l=( 3  3 )
num_ms=7
< -3  3 >:  1.0449491102280004
< -2  2 >:  -1.0449491102280004
< -1  1 >:  1.0449491102280004
< 0  0 >:  -1.0449491102280004
< 1  -1 >:  1.0449491102280004
< 2  -2 >:  -1.0449491102280004
< 3  -3 >:  1.0449491102280004
ctilde_basis_func: rank=2 ndens=1 mu0=0 mu=( 0  0 )
n=( 1  8 )
l=( 2  2 )
num_ms=5
< -2  2 >:  -0.9383784410735113
< -1  1 >:  0.9383784410735113
< 0  0 >:  -0.9383784410735113
< 1  -1 >:  0.9383784410735113
< 2  -2 >:  -0.9383784410735113
ctilde_basis_func: rank=2 ndens=1 mu0=0 mu=( 0  0 )
n=( 3  5 )
l=( 1  1 )
num_ms=3
< -1  1 >:  -0.23946365972801542
< 0  0 >:  0.23946365972801542
< 1  -1 >:  -0.23946365972801542
ctilde_basis_func: rank=2 ndens=1 mu0=0 mu=( 0  0 )
n=( 2  7 )
l=( 1  1 )
num_ms=3
< -1  1 >:  -0.29530690311312147
< 0  0 >:  0.29530690311312147
< 1  -1 >:  -0.29530690311312147
ctilde_basis_func: rank=2 ndens=1 mu0=0 mu=( 0  0 )
n=( 2  4 )
l=( 1  1 )
num_ms=3
< -1  1 >:  -0.6222845114746692
< 0  0 >:  0.6222845114746692
< 1  -1 >:  -0.6222845114746692
ctilde_basis_func: rank=2 ndens=1 mu0=0 mu=( 0  0 )
n=( 1  6 )
l=( 1  1 )
num_ms=3
< -1  1 >:  1.039799365805677
< 0  0 >:  -1.039799365805677
< 1  -1 >:  1.039799365805677
ctilde_basis_func: rank=2 ndens=1 mu0=0 mu=( 0  0 )
n=( 1  14 )
l=( 1  1 )
num_ms=3
< -1  1 >:  -0.008270375861099246
< 0  0 >:  0.008270375861099246
< 1  -1 >:  -0.008270375861099246
ctilde_basis_func: rank=2 ndens=1 mu0=0 mu=( 0  0 )
n=( 5  5 )
l=( 2  2 )
num_ms=3
< -2  2 >:  0.03442244858973781
< -1  1 >:  -0.03442244858973781
< 0  0 >:  0.017211224294868904
ctilde_basis_func: rank=2 ndens=1 mu0=0 mu=( 0  0 )
n=( 1  6 )
l=( 2  2 )
num_ms=5
< -2  2 >:  -1.132817890300794
< -1  1 >:  1.132817890300794
< 0  0 >:  -1.132817890300794
< 1  -1 >:  1.132817890300794
< 2  -2 >:  -1.132817890300794
ctilde_basis_func: rank=2 ndens=1 mu0=0 mu=( 0  0 )
n=( 2  9 )
l=( 2  2 )
num_ms=5
< -2  2 >:  0.044006040427693786
< -1  1 >:  -0.044006040427693786
< 0  0 >:  0.044006040427693786
< 1  -1 >:  -0.044006040427693786
< 2  -2 >:  0.044006040427693786
ctilde_basis_func: rank=2 ndens=1 mu0=0 mu=( 0  0 )
n=( 1  6 )
l=( 3  3 )
num_ms=7
< -3  3 >:  0.8964304806449258
< -2  2 >:  -0.8964304806449258
< -1  1 >:  0.8964304806449258
< 0  0 >:  -0.8964304806449258
< 1  -1 >:  0.8964304806449258
< 2  -2 >:  -0.8964304806449258
< 3  -3 >:  0.8964304806449258
ctilde_basis_func: rank=2 ndens=1 mu0=0 mu=( 0  0 )
n=( 2  2 )
l=( 4  4 )
num_ms=5
< -4  4 >:  0.4482563867803481
< -3  3 >:  -0.44825638678034807
< -2  2 >:  0.44825638678034807
< -1  1 >:  -0.44825638678034807
< 0  0 >:  0.22412819339017404
ctilde_basis_func: rank=2 ndens=1 mu0=0 mu=( 0  0 )
n=( 1  10 )
l=( 0  0 )
num_ms=1
< 0  0 >:  0.2334857590791727
ctilde_basis_func: rank=2 ndens=1 mu0=0 mu=( 0  0 )
n=( 8  9 )
l=( 0  0 )
num_ms=1
< 0  0 >:  -0.007415151303339733
ctilde_basis_func: rank=2 ndens=1 mu0=0 mu=( 0  0 )
n=( 1  13 )
l=( 1  1 )
num_ms=3
< -1  1 >:  -0.03193672547072673
< 0  0 >:  0.03193672547072673
< 1  -1 >:  -0.03193672547072673
ctilde_basis_func: rank=2 ndens=1 mu0=0 mu=( 0  0 )
n=( 5  7 )
l=( 2  2 )
num_ms=5
< -2  2 >:  0.004153595457929612
< -1  1 >:  -0.004153595457929612
< 0  0 >:  0.004153595457929612
< 1  -1 >:  -0.004153595457929612
< 2  -2 >:  0.004153595457929612
ctilde_basis_func: rank=2 ndens=1 mu0=0 mu=( 0  0 )
n=( 3  8 )
l=( 1  1 )
num_ms=3
< -1  1 >:  -0.2634416435864082
< 0  0 >:  0.2634416435864082
< 1  -1 >:  -0.2634416435864082
ctilde_basis_func: rank=2 ndens=1 mu0=0 mu=( 0  0 )
n=( 5  6 )
l=( 0  0 )
num_ms=1
< 0  0 >:  -0.3272412863378536
ctilde_basis_func: rank=2 ndens=1 mu0=0 mu=( 0  0 )
n=( 6  9 )
l=( 0  0 )
num_ms=1
< 0  0 >:  -0.21922028586398298
ctilde_basis_func: rank=2 ndens=1 mu0=0 mu=( 0  0 )
n=( 4  14 )
l=( 0  0 )
num_ms=1
< 0  0 >:  -0.0010410733821279354
ctilde_basis_func: rank=2 ndens=1 mu0=0 mu=( 0  0 )
n=( 1  1 )
l=( 3  3 )
num_ms=4
< -3  3 >:  1.9729684086274233
< -2  2 >:  -1.9729684086274233
< -1  1 >:  1.9729684086274233
< 0  0 >:  -0.9864842043137116
ctilde_basis_func: rank=2 ndens=1 mu0=0 mu=( 0  0 )
n=( 2  9 )
l=( 0  0 )
num_ms=1
< 0  0 >:  -0.014664044834737341
ctilde_basis_func: rank=2 ndens=1 mu0=0 mu=( 0  0 )
n=( 3  4 )
l=( 0  0 )
num_ms=1
< 0  0 >:  0.9875818016796923
ctilde_basis_func: rank=2 ndens=1 mu0=0 mu=( 0  0 )
n=( 5  10 )
l=( 0  0 )
num_ms=1
< 0  0 >:  -0.010157649025640699
ctilde_basis_func: rank=2 ndens=1 mu0=0 mu=( 0  0 )
n=( 2  3 )
l=( 5  5 )
num_ms=11
< -5  5 >:  -0.0015517810569389296
< -4  4 >:  0.0015517810569389305
< -3  3 >:  -0.0015517810569389305
< -2  2 >:  0.0015517810569389305
< -1  1 >:  -0.0015517810569389305
< 0  0 >:  0.0015517810569389305
< 1  -1 >:  -0.0015517810569389305
< 2  -2 >:  0.0015517810569389305
< 3  -3 >:  -0.0015517810569389305
< 4  -4 >:  0.0015517810569389305
< 5  -5 >:  -0.0015517810569389305
ctilde_basis_func: rank=2 ndens=1 mu0=0 mu=( 0  0 )
n=( 1  13 )
l=( 0  0 )
num_ms=1
< 0  0 >:  0.19502525798251014
ctilde_basis_func: rank=2 ndens=1 mu0=0 mu=( 0  0 )
n=( 3  11 )
l=( 0  0 )
num_ms=1
< 0  0 >:  -0.22607447311499093
ctilde_basis_func: rank=2 ndens=1 mu0=0 mu=( 0  0 )
n=( 4  12 )
l=( 0  0 )
num_ms=1
< 0  0 >:  0.0061276588030034366
ctilde_basis_func: rank=2 ndens=1 mu0=0 mu=( 0  0 )
n=( 1  4 )
l=( 0  0 )
num_ms=1
< 0  0 >:  0.5641539481270561
ctilde_basis_func: rank=2 ndens=1 mu0=0 mu=( 0  0 )
n=( 3  7 )
l=( 1  1 )
num_ms=3
< -1  1 >:  -1.1410909989341536
< 0  0 >:  1.1410909989341536
< 1  -1 >:  -1.1410909989341536
ctilde_basis_func: rank=2 ndens=1 mu0=0 mu=( 0  0 )
n=( 3  5 )
l=( 0  0 )
num_ms=1
< 0  0 >:  0.29120716761871007
ctilde_basis_func: rank=2 ndens=1 mu0=0 mu=( 0  0 )
n=( 3  7 )
l=( 2  2 )
num_ms=5
< -2  2 >:  0.5746530011855574
< -1  1 >:  -0.5746530011855574
< 0  0 >:  0.5746530011855574
< 1  -1 >:  -0.5746530011855574
< 2  -2 >:  0.5746530011855574
ctilde_basis_func: rank=2 ndens=1 mu0=0 mu=( 0  0 )
n=( 2  8 )
l=( 2  2 )
num_ms=5
< -2  2 >:  0.318038198737878
< -1  1 >:  -0.318038198737878
< 0  0 >:  0.318038198737878
< 1  -1 >:  -0.318038198737878
< 2  -2 >:  0.318038198737878
ctilde_basis_func: rank=2 ndens=1 mu0=0 mu=( 0  0 )
n=( 2  10 )
l=( 2  2 )
num_ms=5
< -2  2 >:  0.002690611316025834
< -1  1 >:  -0.002690611316025834
< 0  0 >:  0.002690611316025834
< 1  -1 >:  -0.002690611316025834
< 2  -2 >:  0.002690611316025834
ctilde_basis_func: rank=2 ndens=1 mu0=0 mu=( 0  0 )
n=( 5  6 )
l=( 2  2 )
num_ms=5
< -2  2 >:  0.011760739490515157
< -1  1 >:  -0.011760739490515157
< 0  0 >:  0.011760739490515157
< 1  -1 >:  -0.011760739490515157
< 2  -2 >:  0.011760739490515157
ctilde_basis_func: rank=2 ndens=1 mu0=0 mu=( 0  0 )
n=( 3  9 )
l=( 2  2 )
num_ms=5
< -2  2 >:  0.0054755739249654775
< -1  1 >:  -0.0054755739249654775
< 0  0 >:  0.0054755739249654775
< 1  -1 >:  -0.0054755739249654775
< 2  -2 >:  0.0054755739249654775
ctilde_basis_func: rank=2 ndens=1 mu0=0 mu=( 0  0 )
n=( 2  10 )
l=( 0  0 )
num_ms=1
< 0  0 >:  0.19348997965995932
ctilde_basis_func: rank=2 ndens=1 mu0=0 mu=( 0  0 )
n=( 1  1 )
l=( 5  5 )
num_ms=6
< -5  5 >:  0.5182680225173493
< -4  4 >:  -0.5182680225173495
< -3  3 >:  0.5182680225173495
< -2  2 >:  -0.5182680225173495
< -1  1 >:  0.5182680225173495
< 0  0 >:  -0.25913401125867475
ctilde_basis_func: rank=2 ndens=1 mu0=0 mu=( 0  0 )
n=( 2  11 )
l=( 0  0 )
num_ms=1
< 0  0 >:  -0.5353109657019438
ctilde_basis_func: rank=2 ndens=1 mu0=0 mu=( 0  0 )
n=( 2  3 )
l=( 0  0 )
num_ms=1
< 0  0 >:  0.005479557830738102
ctilde_basis_func: rank=2 ndens=1 mu0=0 mu=( 0  0 )
n=( 1  4 )
l=( 3  3 )
num_ms=7
< -3  3 >:  1.261254515928724
< -2  2 >:  -1.261254515928724
< -1  1 >:  1.261254515928724
< 0  0 >:  -1.261254515928724
< 1  -1 >:  1.261254515928724
< 2  -2 >:  -1.261254515928724
< 3  -3 >:  1.261254515928724
ctilde_basis_func: rank=2 ndens=1 mu0=0 mu=( 0  0 )
n=( 2  15 )
l=( 0  0 )
num_ms=1
< 0  0 >:  0.04285169910452958
ctilde_basis_func: rank=2 ndens=1 mu0=0 mu=( 0  0 )
n=( 2  14 )
l=( 0  0 )
num_ms=1
< 0  0 >:  -0.009647251578820308
ctilde_basis_func: rank=2 ndens=1 mu0=0 mu=( 0  0 )
n=( 6  6 )
l=( 2  2 )
num_ms=3
< -2  2 >:  0.0007615405267539592
< -1  1 >:  -0.0007615405267539592
< 0  0 >:  0.0003807702633769796
ctilde_basis_func: rank=2 ndens=1 mu0=0 mu=( 0  0 )
n=( 2  4 )
l=( 0  0 )
num_ms=1
< 0  0 >:  -1.6943898705229767
ctilde_basis_func: rank=2 ndens=1 mu0=0 mu=( 0  0 )
n=( 2  5 )
l=( 3  3 )
num_ms=7
< -3  3 >:  -0.575477124934596
< -2  2 >:  0.575477124934596
< -1  1 >:  -0.575477124934596
< 0  0 >:  0.575477124934596
< 1  -1 >:  -0.575477124934596
< 2  -2 >:  0.575477124934596
< 3  -3 >:  -0.575477124934596
ctilde_basis_func: rank=2 ndens=1 mu0=0 mu=( 0  0 )
n=( 5  12 )
l=( 0  0 )
num_ms=1
< 0  0 >:  -0.013165699779396195
ctilde_basis_func: rank=2 ndens=1 mu0=0 mu=( 0  0 )
n=( 2  5 )
l=( 2  2 )
num_ms=5
< -2  2 >:  1.3891327187896485
< -1  1 >:  -1.3891327187896485
< 0  0 >:  1.3891327187896485
< 1  -1 >:  -1.3891327187896485
< 2  -2 >:  1.3891327187896485
ctilde_basis_func: rank=2 ndens=1 mu0=0 mu=( 0  0 )
n=( 1  11 )
l=( 1  1 )
num_ms=3
< -1  1 >:  -0.429657751179513
< 0  0 >:  0.429657751179513
< 1  -1 >:  -0.429657751179513
ctilde_basis_func: rank=2 ndens=1 mu0=0 mu=( 0  0 )
n=( 6  8 )
l=( 0  0 )
num_ms=1
< 0  0 >:  -0.7630129310246152
ctilde_basis_func: rank=2 ndens=1 mu0=0 mu=( 0  0 )
n=( 1  3 )
l=( 2  2 )
num_ms=5
< -2  2 >:  -1.4552243959399225
< -1  1 >:  1.4552243959399225
< 0  0 >:  -1.4552243959399225
< 1  -1 >:  1.4552243959399225
< 2  -2 >:  -1.4552243959399225
ctilde_basis_func: rank=2 ndens=1 mu0=0 mu=( 0  0 )
n=( 3  5 )
l=( 2  2 )
num_ms=5
< -2  2 >:  1.441322553738467
< -1  1 >:  -1.441322553738467
< 0  0 >:  1.441322553738467
< 1  -1 >:  -1.441322553738467
< 2  -2 >:  1.441322553738467
ctilde_basis_func: rank=2 ndens=1 mu0=0 mu=( 0  0 )
n=( 2  8 )
l=( 0  0 )
num_ms=1
< 0  0 >:  -1.1622148534673884
ctilde_basis_func: rank=2 ndens=1 mu0=0 mu=( 0  0 )
n=( 4  4 )
l=( 2  2 )
num_ms=3
< -2  2 >:  0.4819139905479692
< -1  1 >:  -0.4819139905479692
< 0  0 >:  0.2409569952739846
ctilde_basis_func: rank=2 ndens=1 mu0=0 mu=( 0  0 )
n=( 1  10 )
l=( 2  2 )
num_ms=5
< -2  2 >:  -0.21604718157737482
< -1  1 >:  0.21604718157737482
< 0  0 >:  -0.21604718157737482
< 1  -1 >:  0.21604718157737482
< 2  -2 >:  -0.21604718157737482
ctilde_basis_func: rank=2 ndens=1 mu0=0 mu=( 0  0 )
n=( 2  5 )
l=( 1  1 )
num_ms=3
< -1  1 >:  0.0484481135213304
< 0  0 >:  -0.0484481135213304
< 1  -1 >:  0.0484481135213304
ctilde_basis_func: rank=2 ndens=1 mu0=0 mu=( 0  0 )
n=( 2  9 )
l=( 1  1 )
num_ms=3
< -1  1 >:  0.26622936343029174
< 0  0 >:  -0.26622936343029174
< 1  -1 >:  0.26622936343029174
ctilde_basis_func: rank=2 ndens=1 mu0=0 mu=( 0  0 )
n=( 1  8 )
l=( 0  0 )
num_ms=1
< 0  0 >:  -0.6223979219864578
ctilde_basis_func: rank=2 ndens=1 mu0=0 mu=( 0  0 )
n=( 5  7 )
l=( 1  1 )
num_ms=3
< -1  1 >:  -0.06091091302820886
< 0  0 >:  0.06091091302820886
< 1  -1 >:  -0.06091091302820886
ctilde_basis_func: rank=2 ndens=1 mu0=0 mu=( 0  0 )
n=( 3  6 )
l=( 1  1 )
num_ms=3
< -1  1 >:  -0.8265134911911756
< 0  0 >:  0.8265134911911756
< 1  -1 >:  -0.8265134911911756
ctilde_basis_func: rank=2 ndens=1 mu0=0 mu=( 0  0 )
n=( 4  5 )
l=( 1  1 )
num_ms=3
< -1  1 >:  -1.005534235959223
< 0  0 >:  1.005534235959223
< 1  -1 >:  -1.005534235959223
ctilde_basis_func: rank=2 ndens=1 mu0=0 mu=( 0  0 )
n=( 1  2 )
l=( 2  2 )
num_ms=5
< -2  2 >:  0.1404668468592999
< -1  1 >:  -0.1404668468592999
< 0  0 >:  0.1404668468592999
< 1  -1 >:  -0.1404668468592999
< 2  -2 >:  0.1404668468592999
ctilde_basis_func: rank=2 ndens=1 mu0=0 mu=( 0  0 )
n=( 2  2 )
l=( 2  2 )
num_ms=3
< -2  2 >:  2.0711233030557077
< -1  1 >:  -2.0711233030557077
< 0  0 >:  1.0355616515278538
ctilde_basis_func: rank=2 ndens=1 mu0=0 mu=( 0  0 )
n=( 1  3 )
l=( 0  0 )
num_ms=1
< 0  0 >:  -0.7372727804143357
ctilde_basis_func: rank=2 ndens=1 mu0=0 mu=( 0  0 )
n=( 6  7 )
l=( 1  1 )
num_ms=3
< -1  1 >:  -0.17732772517435905
< 0  0 >:  0.17732772517435905
< 1  -1 >:  -0.17732772517435905
ctilde_basis_func: rank=2 ndens=1 mu0=0 mu=( 0  0 )
n=( 8  10 )
l=( 0  0 )
num_ms=1
< 0  0 >:  0.005119981597900129
ctilde_basis_func: rank=2 ndens=1 mu0=0 mu=( 0  0 )
n=( 2  6 )
l=( 1  1 )
num_ms=3
< -1  1 >:  -0.4066125022872865
< 0  0 >:  0.4066125022872865
< 1  -1 >:  -0.4066125022872865
ctilde_basis_func: rank=2 ndens=1 mu0=0 mu=( 0  0 )
n=( 3  9 )
l=( 0  0 )
num_ms=1
< 0  0 >:  -0.04525216782441678
ctilde_basis_func: rank=2 ndens=1 mu0=0 mu=( 0  0 )
n=( 3  3 )
l=( 1  1 )
num_ms=2
< -1  1 >:  -1.7127195551803513
< 0  0 >:  0.8563597775901757
ctilde_basis_func: rank=2 ndens=1 mu0=0 mu=( 0  0 )
n=( 5  11 )
l=( 0  0 )
num_ms=1
< 0  0 >:  -0.11543009697905511
ctilde_basis_func: rank=2 ndens=1 mu0=0 mu=( 0  0 )
n=( 2  8 )
l=( 1  1 )
num_ms=3
< -1  1 >:  0.5211764793031608
< 0  0 >:  -0.5211764793031608
< 1  -1 >:  0.5211764793031608
ctilde_basis_func: rank=2 ndens=1 mu0=0 mu=( 0  0 )
n=( 4  6 )
l=( 0  0 )
num_ms=1
< 0  0 >:  -0.16507369452829146
ctilde_basis_func: rank=2 ndens=1 mu0=0 mu=( 0  0 )
n=( 6  11 )
l=( 0  0 )
num_ms=1
< 0  0 >:  0.002413264182776286
ctilde_basis_func: rank=2 ndens=1 mu0=0 mu=( 0  0 )
n=( 2  11 )
l=( 1  1 )
num_ms=3
< -1  1 >:  -0.06086728635776223
< 0  0 >:  0.06086728635776223
< 1  -1 >:  -0.06086728635776223
ctilde_basis_func: rank=2 ndens=1 mu0=0 mu=( 0  0 )
n=( 4  4 )
l=( 1  1 )
num_ms=2
< -1  1 >:  -2.6783822419721934
< 0  0 >:  1.3391911209860967
ctilde_basis_func: rank=2 ndens=1 mu0=0 mu=( 0  0 )
n=( 5  9 )
l=( 0  0 )
num_ms=1
< 0  0 >:  -0.17720870222646196
ctilde_basis_func: rank=2 ndens=1 mu0=0 mu=( 0  0 )
n=( 2  7 )
l=( 0  0 )
num_ms=1
< 0  0 >:  -0.3895458761295999
ctilde_basis_func: rank=2 ndens=1 mu0=0 mu=( 0  0 )
n=( 1  12 )
l=( 0  0 )
num_ms=1
< 0  0 >:  0.10128748836378641
ctilde_basis_func: rank=2 ndens=1 mu0=0 mu=( 0  0 )
n=( 1  9 )
l=( 0  0 )
num_ms=1
< 0  0 >:  0.6755138606298058
ctilde_basis_func: rank=2 ndens=1 mu0=0 mu=( 0  0 )
n=( 1  1 )
l=( 1  1 )
num_ms=2
< -1  1 >:  0.6194177195293656
< 0  0 >:  -0.3097088597646828
ctilde_basis_func: rank=2 ndens=1 mu0=0 mu=( 0  0 )
n=( 3  8 )
l=( 0  0 )
num_ms=1
< 0  0 >:  -0.7582066852073769
ctilde_basis_func: rank=2 ndens=1 mu0=0 mu=( 0  0 )
n=( 1  7 )
l=( 1  1 )
num_ms=3
< -1  1 >:  0.8221359822369714
< 0  0 >:  -0.8221359822369714
< 1  -1 >:  0.8221359822369714
ctilde_basis_func: rank=2 ndens=1 mu0=0 mu=( 0  0 )
n=( 4  4 )
l=( 0  0 )
num_ms=1
< 0  0 >:  0.0002059270184668405
ctilde_basis_func: rank=2 ndens=1 mu0=0 mu=( 0  0 )
n=( 4  10 )
l=( 0  0 )
num_ms=1
< 0  0 >:  0.2834777486106603
ctilde_basis_func: rank=2 ndens=1 mu0=0 mu=( 0  0 )
n=( 3  13 )
l=( 0  0 )
num_ms=1
< 0  0 >:  0.05073459980809988
ctilde_basis_func: rank=2 ndens=1 mu0=0 mu=( 0  0 )
n=( 2  2 )
l=( 1  1 )
num_ms=2
< -1  1 >:  -0.10313530437808266
< 0  0 >:  0.05156765218904133
ctilde_basis_func: rank=2 ndens=1 mu0=0 mu=( 0  0 )
n=( 2  13 )
l=( 1  1 )
num_ms=3
< -1  1 >:  0.00020022971729592362
< 0  0 >:  -0.00020022971729592362
< 1  -1 >:  0.00020022971729592362
ctilde_basis_func: rank=2 ndens=1 mu0=0 mu=( 0  0 )
n=( 2  12 )
l=( 1  1 )
num_ms=3
< -1  1 >:  -0.027578010640732814
< 0  0 >:  0.027578010640732814
< 1  -1 >:  -0.027578010640732814
ctilde_basis_func: rank=2 ndens=1 mu0=0 mu=( 0  0 )
n=( 1  15 )
l=( 0  0 )
num_ms=1
< 0  0 >:  0.32126084309616015
ctilde_basis_func: rank=2 ndens=1 mu0=0 mu=( 0  0 )
n=( 1  2 )
l=( 0  0 )
num_ms=1
< 0  0 >:  -1.1005383569626783
ctilde_basis_func: rank=2 ndens=1 mu0=0 mu=( 0  0 )
n=( 2  6 )
l=( 0  0 )
num_ms=1
< 0  0 >:  -0.692643691463531
ctilde_basis_func: rank=2 ndens=1 mu0=0 mu=( 0  0 )
n=( 4  7 )
l=( 0  0 )
num_ms=1
< 0  0 >:  0.4120439569991885
ctilde_basis_func: rank=2 ndens=1 mu0=0 mu=( 0  0 )
n=( 1  7 )
l=( 0  0 )
num_ms=1
< 0  0 >:  -0.37312271108922945
ctilde_basis_func: rank=2 ndens=1 mu0=0 mu=( 0  0 )
n=( 1  6 )
l=( 0  0 )
num_ms=1
< 0  0 >:  -0.6492670074648489
ctilde_basis_func: rank=2 ndens=1 mu0=0 mu=( 0  0 )
n=( 3  10 )
l=( 0  0 )
num_ms=1
< 0  0 >:  0.0459396246012698
ctilde_basis_func: rank=2 ndens=1 mu0=0 mu=( 0  0 )
n=( 6  7 )
l=( 0  0 )
num_ms=1
< 0  0 >:  -0.130583115352553
ctilde_basis_func: rank=2 ndens=1 mu0=0 mu=( 0  0 )
n=( 6  6 )
l=( 0  0 )
num_ms=1
< 0  0 >:  -0.6206549953661555
ctilde_basis_func: rank=2 ndens=1 mu0=0 mu=( 0  0 )
n=( 5  8 )
l=( 0  0 )
num_ms=1
< 0  0 >:  -0.7385031579085629
ctilde_basis_func: rank=2 ndens=1 mu0=0 mu=( 0  0 )
n=( 7  8 )
l=( 0  0 )
num_ms=1
< 0  0 >:  -0.09799592348261055
ctilde_basis_func: rank=2 ndens=1 mu0=0 mu=( 0  0 )
n=( 5  7 )
l=( 0  0 )
num_ms=1
< 0  0 >:  0.6349976833775676
ctilde_basis_func: rank=2 ndens=1 mu0=0 mu=( 0  0 )
n=( 1  5 )
l=( 0  0 )
num_ms=1
< 0  0 >:  -0.3881831207972032
ctilde_basis_func: rank=2 ndens=1 mu0=0 mu=( 0  0 )
n=( 2  13 )
l=( 0  0 )
num_ms=1
< 0  0 >:  -0.1731980526766158
ctilde_basis_func: rank=2 ndens=1 mu0=0 mu=( 0  0 )
n=( 1  16 )
l=( 0  0 )
num_ms=1
< 0  0 >:  0.09866407733043686
ctilde_basis_func: rank=2 ndens=1 mu0=0 mu=( 0  0 )
n=( 1  17 )
l=( 0  0 )
num_ms=1
< 0  0 >:  0.007602574468967002
ctilde_basis_func: rank=2 ndens=1 mu0=0 mu=( 0  0 )
n=( 2  12 )
l=( 0  0 )
num_ms=1
< 0  0 >:  -0.17750393462502922
ctilde_basis_func: rank=2 ndens=1 mu0=0 mu=( 0  0 )
n=( 2  16 )
l=( 0  0 )
num_ms=1
< 0  0 >:  0.015321826127877334
ctilde_basis_func: rank=2 ndens=1 mu0=0 mu=( 0  0 )
n=( 2  5 )
l=( 0  0 )
num_ms=1
< 0  0 >:  -1.558695891269315
ctilde_basis_func: rank=2 ndens=1 mu0=0 mu=( 0  0 )
n=( 4  8 )
l=( 0  0 )
num_ms=1
< 0  0 >:  -1.0281882961035422
ctilde_basis_func: rank=2 ndens=1 mu0=0 mu=( 0  0 )
n=( 4  9 )
l=( 0  0 )
num_ms=1
< 0  0 >:  0.02585473758430744
ctilde_basis_func: rank=2 ndens=1 mu0=0 mu=( 0  0 )
n=( 5  5 )
l=( 0  0 )
num_ms=1
< 0  0 >:  0.23331158368343827
ctilde_basis_func: rank=2 ndens=1 mu0=0 mu=( 0  0 )
n=( 2  2 )
l=( 0  0 )
num_ms=1
< 0  0 >:  -0.12370844103638061
ctilde_basis_func: rank=2 ndens=1 mu0=0 mu=( 0  0 )
n=( 7  9 )
l=( 0  0 )
num_ms=1
< 0  0 >:  0.021315368834488695
ctilde_basis_func: rank=2 ndens=1 mu0=0 mu=( 0  0 )
n=( 3  14 )
l=( 0  0 )
num_ms=1
< 0  0 >:  0.01482049246940426
ctilde_basis_func: rank=2 ndens=1 mu0=0 mu=( 0  0 )
n=( 5  13 )
l=( 0  0 )
num_ms=1
< 0  0 >:  -0.0015430256225115381
ctilde_basis_func: rank=2 ndens=1 mu0=0 mu=( 0  0 )
n=( 7  10 )
l=( 0  0 )
num_ms=1
< 0  0 >:  0.05630417041376452
ctilde_basis_func: rank=2 ndens=1 mu0=0 mu=( 0  0 )
n=( 7  7 )
l=( 0  0 )
num_ms=1
< 0  0 >:  0.26594004004078087
ctilde_basis_func: rank=2 ndens=1 mu0=0 mu=( 0  0 )
n=( 1  1 )
l=( 0  0 )
num_ms=1
< 0  0 >:  2.418371631984214
ctilde_basis_func: rank=3 ndens=1 mu0=0 mu=( 0  0  0 )
n=( 1  3  3 )
l=( 3  1  4 )
num_ms=21
< -3  -1  4 >:  -0.0003324147603319285
< -3  0  3 >:  0.00016620738016596414
< -3  1  2 >:  -6.282048485467294e-5
< -2  -1  3 >:  0.00028787962704036565
< -2  0  2 >:  -0.00021761654304880933
< -2  1  1 >:  0.00010880827152440466
< -1  -1  2 >:  -0.0002433026916428235
< -1  0  1 >:  0.0002433026916428235
< -1  1  0 >:  -0.00015387813328818735
< 0  -1  1 >:  0.00019865581585687823
< 0  0  0 >:  -0.00025128193941869177
< 0  1  -1 >:  0.00019865581585687823
< 1  -1  0 >:  -0.00015387813328818735
< 1  0  -1 >:  0.0002433026916428235
< 1  1  -2 >:  -0.0002433026916428235
< 2  -1  -1 >:  0.00010880827152440466
< 2  0  -2 >:  -0.00021761654304880933
< 2  1  -3 >:  0.00028787962704036565
< 3  -1  -2 >:  -6.282048485467294e-5
< 3  0  -3 >:  0.00016620738016596414
< 3  1  -4 >:  -0.0003324147603319283
ctilde_basis_func: rank=3 ndens=1 mu0=0 mu=( 0  0  0 )
n=( 1  2  6 )
l=( 1  1  2 )
num_ms=9
< -1  -1  2 >:  -0.08527836194400618
< -1  0  1 >:  0.06030090801908757
< -1  1  0 >:  -0.03481474547719908
< 0  -1  1 >:  0.06030090801908757
< 0  0  0 >:  -0.06962949095439816
< 0  1  -1 >:  0.06030090801908757
< 1  -1  0 >:  -0.03481474547719908
< 1  0  -1 >:  0.06030090801908757
< 1  1  -2 >:  -0.08527836194400618
ctilde_basis_func: rank=3 ndens=1 mu0=0 mu=( 0  0  0 )
n=( 1  2  7 )
l=( 0  3  3 )
num_ms=7
< 0  -3  3 >:  0.0025648256926204802
< 0  -2  2 >:  -0.0025648256926204802
< 0  -1  1 >:  0.0025648256926204802
< 0  0  0 >:  -0.0025648256926204802
< 0  1  -1 >:  0.0025648256926204802
< 0  2  -2 >:  -0.0025648256926204802
< 0  3  -3 >:  0.0025648256926204802
ctilde_basis_func: rank=3 ndens=1 mu0=0 mu=( 0  0  0 )
n=( 2  3  3 )
l=( 0  3  3 )
num_ms=4
< 0  -3  3 >:  0.03606602820595201
< 0  -2  2 >:  -0.03606602820595201
< 0  -1  1 >:  0.03606602820595201
< 0  0  0 >:  -0.018033014102976006
ctilde_basis_func: rank=3 ndens=1 mu0=0 mu=( 0  0  0 )
n=( 1  4  8 )
l=( 1  1  0 )
num_ms=3
< -1  1  0 >:  -0.04508600104832663
< 0  0  0 >:  0.04508600104832663
< 1  -1  0 >:  -0.04508600104832663
ctilde_basis_func: rank=3 ndens=1 mu0=0 mu=( 0  0  0 )
n=( 1  2  4 )
l=( 2  2  2 )
num_ms=19
< -2  0  2 >:  -0.02493803443762765
< -2  1  1 >:  0.0305427297800713
< -2  2  0 >:  -0.02493803443762765
< -1  -1  2 >:  0.0305427297800713
< -1  0  1 >:  -0.012469017218813825
< -1  1  0 >:  -0.012469017218813825
< -1  2  -1 >:  0.0305427297800713
< 0  -2  2 >:  -0.02493803443762763
< 0  -1  1 >:  -0.012469017218813825
< 0  0  0 >:  0.02493803443762765
< 0  1  -1 >:  -0.012469017218813825
< 0  2  -2 >:  -0.02493803443762765
< 1  -2  1 >:  0.0305427297800713
< 1  -1  0 >:  -0.012469017218813825
< 1  0  -1 >:  -0.012469017218813825
< 1  1  -2 >:  0.0305427297800713
< 2  -2  0 >:  -0.02493803443762765
< 2  -1  -1 >:  0.0305427297800713
< 2  0  -2 >:  -0.02493803443762765
ctilde_basis_func: rank=3 ndens=1 mu0=0 mu=( 0  0  0 )
n=( 2  3  5 )
l=( 3  2  1 )
num_ms=15
< -3  2  1 >:  0.00017942746222153087
< -2  1  1 >:  -0.00014650190942841875
< -2  2  0 >:  -0.00010359249361361227
< -1  0  1 >:  0.0001134798910807706
< -1  1  0 >:  0.00013103529132618463
< -1  2  -1 >:  4.632797153574998e-5
< 0  -1  1 >:  -8.02424005115237e-5
< 0  0  0 >:  -0.00013898391460724993
< 0  1  -1 >:  -8.02424005115237e-5
< 1  -2  1 >:  4.632797153574993e-5
< 1  -1  0 >:  0.00013103529132618463
< 1  0  -1 >:  0.0001134798910807706
< 2  -2  0 >:  -0.00010359249361361227
< 2  -1  -1 >:  -0.00014650190942841875
< 3  -2  -1 >:  0.00017942746222153087
ctilde_basis_func: rank=3 ndens=1 mu0=0 mu=( 0  0  0 )
n=( 1  3  8 )
l=( 2  0  2 )
num_ms=5
< -2  0  2 >:  -2.466289627403274e-5
< -1  0  1 >:  2.466289627403274e-5
< 0  0  0 >:  -2.466289627403274e-5
< 1  0  -1 >:  2.466289627403274e-5
< 2  0  -2 >:  -2.466289627403274e-5
ctilde_basis_func: rank=3 ndens=1 mu0=0 mu=( 0  0  0 )
n=( 1  1  5 )
l=( 3  3  2 )
num_ms=15
< -3  1  2 >:  -0.0005721322206195645
< -3  2  1 >:  0.000904620469963888
< -3  3  0 >:  -0.000904620469963888
< -2  0  2 >:  0.0008091171458708241
< -2  1  1 >:  -0.0007007160029616931
< -2  3  -1 >:  0.000904620469963888
< -1  -1  2 >:  -0.00044317171245764834
< -1  0  1 >:  0.0002558653074846506
< -1  1  0 >:  0.0005427722819783328
< -1  2  -1 >:  -0.0007007160029616931
< -1  3  -2 >:  -0.0005721322206195647
< 0  0  0 >:  -0.0003618481879855553
< 0  1  -1 >:  0.0002558653074846506
< 0  2  -2 >:  0.0008091171458708241
< 1  1  -2 >:  -0.00044317171245764834
ctilde_basis_func: rank=3 ndens=1 mu0=0 mu=( 0  0  0 )
n=( 2  3  5 )
l=( 2  0  2 )
num_ms=5
< -2  0  2 >:  -0.026843248725149205
< -1  0  1 >:  0.026843248725149205
< 0  0  0 >:  -0.026843248725149205
< 1  0  -1 >:  0.026843248725149205
< 2  0  -2 >:  -0.026843248725149205
ctilde_basis_func: rank=3 ndens=1 mu0=0 mu=( 0  0  0 )
n=( 1  3  8 )
l=( 0  2  2 )
num_ms=5
< 0  -2  2 >:  -0.003489638359937558
< 0  -1  1 >:  0.003489638359937557
< 0  0  0 >:  -0.003489638359937557
< 0  1  -1 >:  0.003489638359937557
< 0  2  -2 >:  -0.003489638359937557
ctilde_basis_func: rank=3 ndens=1 mu0=0 mu=( 0  0  0 )
n=( 1  1  4 )
l=( 0  4  4 )
num_ms=9
< 0  -4  4 >:  0.03529591583534766
< 0  -3  3 >:  -0.035295915835347656
< 0  -2  2 >:  0.035295915835347656
< 0  -1  1 >:  -0.035295915835347656
< 0  0  0 >:  0.035295915835347656
< 0  1  -1 >:  -0.035295915835347656
< 0  2  -2 >:  0.035295915835347656
< 0  3  -3 >:  -0.035295915835347656
< 0  4  -4 >:  0.035295915835347656
ctilde_basis_func: rank=3 ndens=1 mu0=0 mu=( 0  0  0 )
n=( 1  3  5 )
l=( 2  1  3 )
num_ms=15
< -2  -1  3 >:  0.0152151721905929
< -2  0  2 >:  -0.008784483760005318
< -2  1  1 >:  0.003928540566922967
< -1  -1  2 >:  -0.012423136071845722
< -1  0  1 >:  0.011111590700150697
< -1  1  0 >:  -0.006804431861506021
< 0  -1  1 >:  0.00962291982278542
< 0  0  0 >:  -0.011785621700768903
< 0  1  -1 >:  0.00962291982278542
< 1  -1  0 >:  -0.006804431861506021
< 1  0  -1 >:  0.011111590700150697
< 1  1  -2 >:  -0.012423136071845722
< 2  -1  -1 >:  0.003928540566922967
< 2  0  -2 >:  -0.008784483760005318
< 2  1  -3 >:  0.015215172190592896
ctilde_basis_func: rank=3 ndens=1 mu0=0 mu=( 0  0  0 )
n=( 1  2  3 )
l=( 3  1  2 )
num_ms=15
< -3  1  2 >:  0.010288013465676642
< -2  0  2 >:  -0.0059397873438349034
< -2  1  1 >:  -0.008400127819263385
< -1  -1  2 >:  0.0026563536545415496
< -1  0  1 >:  0.007513302729423997
< -1  1  0 >:  0.0065067110300041425
< 0  -1  1 >:  -0.004600939492537234
< 0  0  0 >:  -0.00796906096362466
< 0  1  -1 >:  -0.004600939492537234
< 1  -1  0 >:  0.0065067110300041425
< 1  0  -1 >:  0.007513302729423997
< 1  1  -2 >:  0.0026563536545415527
< 2  -1  -1 >:  -0.008400127819263385
< 2  0  -2 >:  -0.0059397873438349034
< 3  -1  -2 >:  0.010288013465676642
ctilde_basis_func: rank=3 ndens=1 mu0=0 mu=( 0  0  0 )
n=( 1  1  2 )
l=( 1  4  5 )
num_ms=27
< -1  -4  5 >:  0.009868643619543023
< -1  -3  4 >:  -0.008826783191607117
< -1  -2  3 >:  0.0077844910672258075
< -1  -1  2 >:  -0.006741567019750586
< -1  0  1 >:  0.005697664050279652
< -1  1  0 >:  -0.004652123216328157
< -1  2  -1 >:  0.0036035191482687665
< -1  3  -2 >:  -0.002548072825876417
< -1  4  -3 >:  0.0014711305319345196
< 0  -4  4 >:  -0.004413391595803558
< 0  -3  3 >:  0.0058845221277380785
< 0  -2  2 >:  -0.006741567019750586
< 0  -1  1 >:  0.007207038296537533
< 0  0  0 >:  -0.007355652659672598
< 0  1  -1 >:  0.007207038296537533
< 0  2  -2 >:  -0.006741567019750586
< 0  3  -3 >:  0.0058845221277380785
< 0  4  -4 >:  -0.004413391595803558
< 1  -4  3 >:  0.0014711305319345196
< 1  -3  2 >:  -0.002548072825876417
< 1  -2  1 >:  0.0036035191482687665
< 1  -1  0 >:  -0.004652123216328157
< 1  0  -1 >:  0.005697664050279652
< 1  1  -2 >:  -0.006741567019750586
< 1  2  -3 >:  0.0077844910672258075
< 1  3  -4 >:  -0.008826783191607117
< 1  4  -5 >:  0.009868643619543031
ctilde_basis_func: rank=3 ndens=1 mu0=0 mu=( 0  0  0 )
n=( 1  5  5 )
l=( 0  1  1 )
num_ms=2
< 0  -1  1 >:  -0.10360644711753264
< 0  0  0 >:  0.051803223558766306
ctilde_basis_func: rank=3 ndens=1 mu0=0 mu=( 0  0  0 )
n=( 1  3  7 )
l=( 2  2  0 )
num_ms=5
< -2  2  0 >:  -0.002825694563984587
< -1  1  0 >:  0.002825694563984587
< 0  0  0 >:  -0.002825694563984587
< 1  -1  0 >:  0.002825694563984587
< 2  -2  0 >:  -0.002825694563984587
ctilde_basis_func: rank=3 ndens=1 mu0=0 mu=( 0  0  0 )
n=( 1  1  2 )
l=( 2  4  2 )
num_ms=25
< -2  0  2 >:  -0.0004619319555360921
< -2  1  1 >:  0.0010329112535581123
< -2  2  0 >:  -0.0017890547708723098
< -2  3  -1 >:  0.0027328263033147447
< -2  4  -2 >:  -0.003864800021757642
< -1  -1  2 >:  0.0010329112535581123
< -1  0  1 >:  -0.0018477278221443684
< -1  1  0 >:  0.0025301055207959102
< -1  2  -1 >:  -0.0029215142070193535
< -1  3  -2 >:  0.0027328263033147447
< 0  -2  2 >:  -0.0017890547708723098
< 0  -1  1 >:  0.0025301055207959102
< 0  0  0 >:  -0.0027715917332165525
< 0  1  -1 >:  0.0025301055207959102
< 0  2  -2 >:  -0.0017890547708723098
< 1  -3  2 >:  0.0027328263033147447
< 1  -2  1 >:  -0.0029215142070193535
< 1  -1  0 >:  0.0025301055207959102
< 1  0  -1 >:  -0.0018477278221443684
< 1  1  -2 >:  0.0010329112535581123
< 2  -4  2 >:  -0.0038648000217576437
< 2  -3  1 >:  0.0027328263033147447
< 2  -2  0 >:  -0.0017890547708723098
< 2  -1  -1 >:  0.0010329112535581123
< 2  0  -2 >:  -0.0004619319555360921
ctilde_basis_func: rank=3 ndens=1 mu0=0 mu=( 0  0  0 )
n=( 1  2  3 )
l=( 4  3  1 )
num_ms=21
< -4  3  1 >:  0.0072873348989804815
< -3  2  1 >:  -0.006311017148402004
< -3  3  0 >:  -0.0036436674494902408
< -2  1  1 >:  0.005333782994636584
< -2  2  0 >:  0.004770680541295918
< -2  3  -1 >:  0.0013771768473674541
< -1  0  1 >:  -0.004355015578531217
< -1  1  0 >:  -0.005333782994636584
< -1  2  -1 >:  -0.002385340270647959
< 0  -1  1 >:  0.0033733805616250525
< 0  0  0 >:  0.0055087073894698165
< 0  1  -1 >:  0.0033733805616250525
< 1  -2  1 >:  -0.002385340270647959
< 1  -1  0 >:  -0.005333782994636584
< 1  0  -1 >:  -0.004355015578531217
< 2  -3  1 >:  0.0013771768473674559
< 2  -2  0 >:  0.004770680541295918
< 2  -1  -1 >:  0.005333782994636584
< 3  -3  0 >:  -0.0036436674494902408
< 3  -2  -1 >:  -0.006311017148402004
< 4  -3  -1 >:  0.0072873348989804815
ctilde_basis_func: rank=3 ndens=1 mu0=0 mu=( 0  0  0 )
n=( 1  3  3 )
l=( 1  1  2 )
num_ms=9
< -1  -1  2 >:  0.11750086034648012
< -1  0  1 >:  -0.0830856551462496
< -1  1  0 >:  0.04796952536448363
< 0  -1  1 >:  -0.0830856551462496
< 0  0  0 >:  0.09593905072896726
< 0  1  -1 >:  -0.0830856551462496
< 1  -1  0 >:  0.04796952536448363
< 1  0  -1 >:  -0.0830856551462496
< 1  1  -2 >:  0.11750086034648012
ctilde_basis_func: rank=3 ndens=1 mu0=0 mu=( 0  0  0 )
n=( 1  2  4 )
l=( 0  4  4 )
num_ms=9
< 0  -4  4 >:  0.0008179216275131072
< 0  -3  3 >:  -0.0008179216275131071
< 0  -2  2 >:  0.0008179216275131071
< 0  -1  1 >:  -0.0008179216275131071
< 0  0  0 >:  0.0008179216275131071
< 0  1  -1 >:  -0.0008179216275131071
< 0  2  -2 >:  0.0008179216275131071
< 0  3  -3 >:  -0.0008179216275131071
< 0  4  -4 >:  0.0008179216275131071
ctilde_basis_func: rank=3 ndens=1 mu0=0 mu=( 0  0  0 )
n=( 2  6  8 )
l=( 0  0  0 )
num_ms=1
< 0  0  0 >:  -0.06313669548301463
ctilde_basis_func: rank=3 ndens=1 mu0=0 mu=( 0  0  0 )
n=( 1  3  4 )
l=( 0  0  0 )
num_ms=1
< 0  0  0 >:  0.09573986697092732
ctilde_basis_func: rank=3 ndens=1 mu0=0 mu=( 0  0  0 )
n=( 1  1  4 )
l=( 1  4  3 )
num_ms=21
< -1  -2  3 >:  0.0011505441533710718
< -1  -1  2 >:  -0.001992800929990015
< -1  0  1 >:  0.0028182461023015964
< -1  1  0 >:  -0.0036383400732426813
< -1  2  -1 >:  0.004456038345082473
< -1  3  -2 >:  -0.005272455673211818
< -1  4  -3 >:  0.006088107404438425
< 0  -3  3 >:  -0.0030440537022192126
< 0  -2  2 >:  0.00398560185998003
< 0  -1  1 >:  -0.004456038345082473
< 0  0  0 >:  0.004602176613484287
< 0  1  -1 >:  -0.004456038345082473
< 0  2  -2 >:  0.00398560185998003
< 0  3  -3 >:  -0.0030440537022192126
< 1  -4  3 >:  0.006088107404438428
< 1  -3  2 >:  -0.005272455673211818
< 1  -2  1 >:  0.004456038345082473
< 1  -1  0 >:  -0.0036383400732426813
< 1  0  -1 >:  0.0028182461023015964
< 1  1  -2 >:  -0.001992800929990015
< 1  2  -3 >:  0.0011505441533710718
ctilde_basis_func: rank=3 ndens=1 mu0=0 mu=( 0  0  0 )
n=( 1  4  5 )
l=( 3  1  2 )
num_ms=15
< -3  1  2 >:  -0.0016149201681248232
< -2  0  2 >:  0.0009323745937866222
< -2  1  1 >:  0.0013185767957451468
< -1  -1  2 >:  -0.0004169705944401277
< -1  0  1 >:  -0.0011793709395360012
< -1  1  0 >:  -0.0010213651941232984
< 0  -1  1 >:  0.0007222142548324986
< 0  0  0 >:  0.0012509117833203844
< 0  1  -1 >:  0.0007222142548324986
< 1  -1  0 >:  -0.0010213651941232984
< 1  0  -1 >:  -0.0011793709395360012
< 1  1  -2 >:  -0.00041697059444012816
< 2  -1  -1 >:  0.0013185767957451468
< 2  0  -2 >:  0.0009323745937866222
< 3  -1  -2 >:  -0.0016149201681248232
ctilde_basis_func: rank=3 ndens=1 mu0=0 mu=( 0  0  0 )
n=( 1  2  3 )
l=( 3  3  2 )
num_ms=27
< -3  1  2 >:  0.000720516810721627
< -3  2  1 >:  -0.0011392371071603847
< -3  3  0 >:  0.0011392371071603847
< -2  0  2 >:  -0.0010189646456403329
< -2  1  1 >:  0.0008824492686827368
< -2  3  -1 >:  -0.0011392371071603847
< -1  -1  2 >:  0.001116219843434937
< -1  0  1 >:  -0.00032222491354098133
< -1  1  0 >:  -0.0006835422642962308
< -1  2  -1 >:  0.0008824492686827368
< -1  3  -2 >:  0.000720516810721627
< 0  -2  2 >:  -0.0010189646456403329
< 0  -1  1 >:  -0.00032222491354098133
< 0  0  0 >:  0.000911389685728308
< 0  1  -1 >:  -0.00032222491354098133
< 0  2  -2 >:  -0.0010189646456403329
< 1  -3  2 >:  0.0007205168107216265
< 1  -2  1 >:  0.0008824492686827368
< 1  -1  0 >:  -0.0006835422642962308
< 1  0  -1 >:  -0.00032222491354098133
< 1  1  -2 >:  0.001116219843434937
< 2  -3  1 >:  -0.0011392371071603847
< 2  -1  -1 >:  0.0008824492686827368
< 2  0  -2 >:  -0.0010189646456403329
< 3  -3  0 >:  0.0011392371071603847
< 3  -2  -1 >:  -0.0011392371071603847
< 3  -1  -2 >:  0.000720516810721627
ctilde_basis_func: rank=3 ndens=1 mu0=0 mu=( 0  0  0 )
n=( 1  4  7 )
l=( 1  2  1 )
num_ms=9
< -1  0  1 >:  -0.00044748615941592526
< -1  1  0 >:  0.0007750687637922485
< -1  2  -1 >:  -0.001096112757526747
< 0  -1  1 >:  0.0007750687637922485
< 0  0  0 >:  -0.0008949723188318505
< 0  1  -1 >:  0.0007750687637922485
< 1  -2  1 >:  -0.0010961127575267466
< 1  -1  0 >:  0.0007750687637922485
< 1  0  -1 >:  -0.00044748615941592526
ctilde_basis_func: rank=3 ndens=1 mu0=0 mu=( 0  0  0 )
n=( 1  1  1 )
l=( 2  3  5 )
num_ms=35
< -2  -3  5 >:  0.014272700598272889
< -2  -2  4 >:  -0.011055586344503104
< -2  -1  3 >:  0.008240347532475786
< -2  0  2 >:  -0.005826805619547461
< -2  1  1 >:  0.0038145396873386144
< -2  2  0 >:  -0.0022023255153194596
< -2  3  -1 >:  0.0009849099121673132
< -1  -3  4 >:  -0.009026848450438042
< -1  -2  3 >:  0.010423306765588721
< -1  -1  2 >:  -0.010092323378884053
< -1  0  1 >:  0.008809302061277838
< -1  1  0 >:  -0.006964364777513541
< -1  2  -1 >:  0.00482505345483863
< -1  3  -2 >:  -0.0026058266913971803
< 0  -3  3 >:  0.0052116533827943606
< 0  -2  2 >:  -0.00781748007419154
< 0  -1  1 >:  0.009343675837575286
< 0  0  0 >:  -0.009849099121673133
< 0  1  -1 >:  0.009343675837575286
< 0  2  -2 >:  -0.00781748007419154
< 0  3  -3 >:  0.0052116533827943606
< 1  -3  2 >:  -0.0026058266913971803
< 1  -2  1 >:  0.00482505345483863
< 1  -1  0 >:  -0.006964364777513541
< 1  0  -1 >:  0.008809302061277838
< 1  1  -2 >:  -0.010092323378884053
< 1  2  -3 >:  0.010423306765588721
< 1  3  -4 >:  -0.009026848450438042
< 2  -3  1 >:  0.0009849099121673132
< 2  -2  0 >:  -0.0022023255153194596
< 2  -1  -1 >:  0.0038145396873386144
< 2  0  -2 >:  -0.005826805619547461
< 2  1  -3 >:  0.008240347532475786
< 2  2  -4 >:  -0.011055586344503104
< 2  3  -5 >:  0.014272700598272884
ctilde_basis_func: rank=3 ndens=1 mu0=0 mu=( 0  0  0 )
n=( 1  2  5 )
l=( 2  1  3 )
num_ms=15
< -2  -1  3 >:  -0.023090131075694274
< -2  0  2 >:  0.013331093392175832
< -2  1  1 >:  -0.005961846207860684
< -1  -1  2 >:  0.01885301307647741
< -1  0  1 >:  -0.01686264752787837
< -1  1  0 >:  0.010326220538926546
< 0  -1  1 >:  -0.014603481134205534
< 0  0  0 >:  0.01788553862358205
< 0  1  -1 >:  -0.014603481134205534
< 1  -1  0 >:  0.010326220538926546
< 1  0  -1 >:  -0.01686264752787837
< 1  1  -2 >:  0.01885301307647741
< 2  -1  -1 >:  -0.005961846207860684
< 2  0  -2 >:  0.013331093392175832
< 2  1  -3 >:  -0.02309013107569427
ctilde_basis_func: rank=3 ndens=1 mu0=0 mu=( 0  0  0 )
n=( 1  2  3 )
l=( 2  3  3 )
num_ms=27
< -2  -1  3 >:  0.0010514978026999904
< -2  0  2 >:  -0.0014870424533838353
< -2  1  1 >:  0.0016289733913723021
< -2  2  0 >:  -0.0014870424533838353
< -2  3  -1 >:  0.0010514978026999904
< -1  -2  3 >:  -0.001662564005597159
< -1  -1  2 >:  0.0012878165411363382
< -1  0  1 >:  -0.00047024411300576813
< -1  1  0 >:  -0.00047024411300576813
< -1  2  -1 >:  0.0012878165411363382
< -1  3  -2 >:  -0.001662564005597159
< 0  -3  3 >:  0.0016625640055971595
< 0  -1  1 >:  -0.0009975384033582954
< 0  0  0 >:  0.0013300512044777271
< 0  1  -1 >:  -0.0009975384033582954
< 0  3  -3 >:  0.001662564005597159
< 1  -3  2 >:  -0.001662564005597159
< 1  -2  1 >:  0.0012878165411363382
< 1  -1  0 >:  -0.00047024411300576813
< 1  0  -1 >:  -0.00047024411300576813
< 1  1  -2 >:  0.0012878165411363382
< 1  2  -3 >:  -0.001662564005597159
< 2  -3  1 >:  0.0010514978026999904
< 2  -2  0 >:  -0.0014870424533838353
< 2  -1  -1 >:  0.0016289733913723021
< 2  0  -2 >:  -0.0014870424533838353
< 2  1  -3 >:  0.0010514978026999904
ctilde_basis_func: rank=3 ndens=1 mu0=0 mu=( 0  0  0 )
n=( 1  8  9 )
l=( 0  0  0 )
num_ms=1
< 0  0  0 >:  0.0016876097276677848
ctilde_basis_func: rank=3 ndens=1 mu0=0 mu=( 0  0  0 )
n=( 1  2  4 )
l=( 2  3  3 )
num_ms=27
< -2  -1  3 >:  6.618020414670665e-5
< -2  0  2 >:  -9.359294226489268e-5
< -2  1  1 >:  0.00010252593140352074
< -2  2  0 >:  -9.359294226489268e-5
< -2  3  -1 >:  6.618020414670665e-5
< -1  -2  3 >:  -0.00010464009055925657
< -1  -1  2 >:  8.105386561632733e-5
< -1  0  1 >:  -2.9596687047369906e-5
< -1  1  0 >:  -2.9596687047369906e-5
< -1  2  -1 >:  8.105386561632733e-5
< -1  3  -2 >:  -0.00010464009055925657
< 0  -3  3 >:  0.00010464009055925663
< 0  -1  1 >:  -6.278405433555395e-5
< 0  0  0 >:  8.371207244740527e-5
< 0  1  -1 >:  -6.278405433555395e-5
< 0  3  -3 >:  0.00010464009055925657
< 1  -3  2 >:  -0.00010464009055925657
< 1  -2  1 >:  8.105386561632733e-5
< 1  -1  0 >:  -2.9596687047369906e-5
< 1  0  -1 >:  -2.9596687047369906e-5
< 1  1  -2 >:  8.105386561632733e-5
< 1  2  -3 >:  -0.00010464009055925657
< 2  -3  1 >:  6.618020414670665e-5
< 2  -2  0 >:  -9.359294226489268e-5
< 2  -1  -1 >:  0.00010252593140352074
< 2  0  -2 >:  -9.359294226489268e-5
< 2  1  -3 >:  6.618020414670665e-5
ctilde_basis_func: rank=3 ndens=1 mu0=0 mu=( 0  0  0 )
n=( 1  1  1 )
l=( 1  4  5 )
num_ms=27
< -1  -4  5 >:  -0.026361492129653913
< -1  -3  4 >:  0.02357843535609276
< -1  -2  3 >:  -0.02079422541874471
< -1  -1  2 >:  0.018008327464653022
< -1  0  1 >:  -0.015219814577295902
< -1  1  0 >:  0.01242692656471607
< -1  2  -1 >:  -0.009625855925937576
< -1  3  -2 >:  0.006806507999955174
< -1  4  -3 >:  -0.0039297392260154605
< 0  -4  4 >:  0.01178921767804638
< 0  -3  3 >:  -0.015718956904061842
< 0  -2  2 >:  0.018008327464653022
< 0  -1  1 >:  -0.01925171185187515
< 0  0  0 >:  0.019648696130077303
< 0  1  -1 >:  -0.01925171185187515
< 0  2  -2 >:  0.018008327464653022
< 0  3  -3 >:  -0.015718956904061842
< 0  4  -4 >:  0.01178921767804638
< 1  -4  3 >:  -0.0039297392260154605
< 1  -3  2 >:  0.006806507999955174
< 1  -2  1 >:  -0.009625855925937576
< 1  -1  0 >:  0.01242692656471607
< 1  0  -1 >:  -0.015219814577295902
< 1  1  -2 >:  0.018008327464653022
< 1  2  -3 >:  -0.02079422541874471
< 1  3  -4 >:  0.02357843535609276
< 1  4  -5 >:  -0.026361492129653934
ctilde_basis_func: rank=3 ndens=1 mu0=0 mu=( 0  0  0 )
n=( 1  1  9 )
l=( 0  1  1 )
num_ms=3
< 0  -1  1 >:  0.3620859309843513
< 0  0  0 >:  -0.36208593098435116
< 0  1  -1 >:  0.36208593098435116
ctilde_basis_func: rank=3 ndens=1 mu0=0 mu=( 0  0  0 )
n=( 1  1  3 )
l=( 3  4  1 )
num_ms=21
< -3  2  1 >:  0.003498564963963112
< -3  3  0 >:  -0.009256332840250044
< -3  4  -1 >:  0.018512665680500088
< -2  1  1 >:  -0.006059692271164487
< -2  2  0 >:  0.012119384542328974
< -2  3  -1 >:  -0.01603243877108141
< -1  0  1 >:  0.008569698993688242
< -1  1  0 >:  -0.013549883841053883
< -1  2  -1 >:  0.013549883841053883
< 0  -1  1 >:  -0.011063433828188342
< 0  0  0 >:  0.013994259855852448
< 0  1  -1 >:  -0.011063433828188342
< 1  -2  1 >:  0.013549883841053883
< 1  -1  0 >:  -0.013549883841053883
< 1  0  -1 >:  0.008569698993688242
< 2  -3  1 >:  -0.01603243877108141
< 2  -2  0 >:  0.012119384542328974
< 2  -1  -1 >:  -0.006059692271164487
< 3  -4  1 >:  0.0185126656805001
< 3  -3  0 >:  -0.009256332840250044
< 3  -2  -1 >:  0.003498564963963112
ctilde_basis_func: rank=3 ndens=1 mu0=0 mu=( 0  0  0 )
n=( 2  2  8 )
l=( 2  2  0 )
num_ms=3
< -2  2  0 >:  -0.0005501976888574037
< -1  1  0 >:  0.0005501976888574037
< 0  0  0 >:  -0.00027509884442870186
ctilde_basis_func: rank=3 ndens=1 mu0=0 mu=( 0  0  0 )
n=( 1  3  6 )
l=( 1  1  2 )
num_ms=9
< -1  -1  2 >:  -0.00637327736016379
< -1  0  1 >:  0.004506587639754514
< -1  1  0 >:  -0.0026018795869389095
< 0  -1  1 >:  0.004506587639754514
< 0  0  0 >:  -0.005203759173877819
< 0  1  -1 >:  0.004506587639754514
< 1  -1  0 >:  -0.0026018795869389095
< 1  0  -1 >:  0.004506587639754514
< 1  1  -2 >:  -0.00637327736016379
ctilde_basis_func: rank=3 ndens=1 mu0=0 mu=( 0  0  0 )
n=( 1  3  3 )
l=( 2  3  3 )
num_ms=15
< -2  -1  3 >:  -0.00010224411596193529
< -2  0  2 >:  0.00014459501546621633
< -2  1  1 >:  -7.919795167365505e-5
< -1  -2  3 >:  0.00016166214189504655
< -1  -1  2 >:  -0.0001252229566543471
< -1  0  1 >:  4.572495871805172e-5
< 0  -3  3 >:  -0.00016166214189504657
< 0  -1  1 >:  9.699728513702793e-5
< 0  0  0 >:  -6.466485675801863e-5
< 1  -3  2 >:  0.00016166214189504655
< 1  -2  1 >:  -0.0001252229566543471
< 1  -1  0 >:  4.572495871805172e-5
< 2  -3  1 >:  -0.00010224411596193529
< 2  -2  0 >:  0.00014459501546621633
< 2  -1  -1 >:  -7.919795167365505e-5
ctilde_basis_func: rank=3 ndens=1 mu0=0 mu=( 0  0  0 )
n=( 1  4  7 )
l=( 2  2  0 )
num_ms=5
< -2  2  0 >:  0.0005707615385025295
< -1  1  0 >:  -0.0005707615385025295
< 0  0  0 >:  0.0005707615385025295
< 1  -1  0 >:  -0.0005707615385025295
< 2  -2  0 >:  0.0005707615385025295
ctilde_basis_func: rank=3 ndens=1 mu0=0 mu=( 0  0  0 )
n=( 2  3  7 )
l=( 2  1  1 )
num_ms=9
< -2  1  1 >:  -0.00028317867565436593
< -1  0  1 >:  0.00020023756184262806
< -1  1  0 >:  0.00020023756184262806
< 0  -1  1 >:  -0.00011560721023171552
< 0  0  0 >:  -0.0002312144204634313
< 0  1  -1 >:  -0.00011560721023171566
< 1  -1  0 >:  0.00020023756184262806
< 1  0  -1 >:  0.00020023756184262806
< 2  -1  -1 >:  -0.00028317867565436593
ctilde_basis_func: rank=3 ndens=1 mu0=0 mu=( 0  0  0 )
n=( 1  4  5 )
l=( 3  3  0 )
num_ms=7
< -3  3  0 >:  -0.00037676620073823377
< -2  2  0 >:  0.00037676620073823377
< -1  1  0 >:  -0.00037676620073823377
< 0  0  0 >:  0.00037676620073823377
< 1  -1  0 >:  -0.00037676620073823377
< 2  -2  0 >:  0.00037676620073823377
< 3  -3  0 >:  -0.00037676620073823377
ctilde_basis_func: rank=3 ndens=1 mu0=0 mu=( 0  0  0 )
n=( 1  3  5 )
l=( 1  2  1 )
num_ms=9
< -1  0  1 >:  0.004924044911733225
< -1  1  0 >:  -0.008528695965872952
< -1  2  -1 >:  0.012061397504294236
< 0  -1  1 >:  -0.008528695965872952
< 0  0  0 >:  0.00984808982346645
< 0  1  -1 >:  -0.008528695965872952
< 1  -2  1 >:  0.012061397504294231
< 1  -1  0 >:  -0.008528695965872952
< 1  0  -1 >:  0.004924044911733225
ctilde_basis_func: rank=3 ndens=1 mu0=0 mu=( 0  0  0 )
n=( 1  1  8 )
l=( 1  1  2 )
num_ms=6
< -1  -1  2 >:  -0.03255044294156689
< -1  0  1 >:  0.04603327786921549
< -1  1  0 >:  -0.026577325369472403
< 0  0  0 >:  -0.026577325369472403
< 0  1  -1 >:  0.04603327786921549
< 1  1  -2 >:  -0.03255044294156689
ctilde_basis_func: rank=3 ndens=1 mu0=0 mu=( 0  0  0 )
n=( 1  1  3 )
l=( 4  4  2 )
num_ms=21
< -4  2  2 >:  -0.0001083403797612483
< -4  3  1 >:  0.00020268629110978433
< -4  4  0 >:  -0.00023404196946656163
< -3  1  2 >:  0.00016251056964187242
< -3  2  1 >:  -0.0001915205430137611
< -3  3  0 >:  5.8510492366640406e-5
< -3  4  -1 >:  0.00020268629110978433
< -2  0  2 >:  -0.00019423728215519528
< -2  1  1 >:  0.00013029832999914703
< -2  2  0 >:  6.686913413330333e-5
< -2  3  -1 >:  -0.0001915205430137611
< -2  4  -2 >:  -0.00010834037976124827
< -1  -1  2 >:  0.00010237203635519938
< -1  0  1 >:  -4.5782166457061124e-5
< -1  1  0 >:  -0.00014209691003326956
< -1  2  -1 >:  0.00013029832999914703
< -1  3  -2 >:  0.00016251056964187242
< 0  0  0 >:  8.358641766662916e-5
< 0  1  -1 >:  -4.5782166457061124e-5
< 0  2  -2 >:  -0.00019423728215519528
< 1  1  -2 >:  0.00010237203635519938
ctilde_basis_func: rank=3 ndens=1 mu0=0 mu=( 0  0  0 )
n=( 1  2  4 )
l=( 1  2  3 )
num_ms=15
< -1  -2  3 >:  -0.11331766250415587
< -1  -1  2 >:  0.09252348399336523
< -1  0  1 >:  -0.07166838252787841
< -1  1  0 >:  0.05067719928213431
< -1  2  -1 >:  -0.02925849464731655
< 0  -2  2 >:  0.06542398295071356
< 0  -1  1 >:  -0.08275551988971135
< 0  0  0 >:  0.08777548394194966
< 0  1  -1 >:  -0.08275551988971135
< 0  2  -2 >:  0.06542398295071356
< 1  -2  1 >:  -0.02925849464731655
< 1  -1  0 >:  0.05067719928213431
< 1  0  -1 >:  -0.07166838252787841
< 1  1  -2 >:  0.09252348399336523
< 1  2  -3 >:  -0.11331766250415587
ctilde_basis_func: rank=3 ndens=1 mu0=0 mu=( 0  0  0 )
n=( 1  1  2 )
l=( 1  5  4 )
num_ms=27
< -1  -3  4 >:  -0.00022758526545103933
< -1  -2  3 >:  0.00039418924281525003
< -1  -1  2 >:  -0.0005574677733309076
< -1  0  1 >:  0.0007196878007193122
< -1  1  0 >:  -0.0008814339429340695
< -1  2  -1 >:  0.001042926705986006
< -1  3  -2 >:  -0.0012042680288921405
< -1  4  -3 >:  0.001365511592706236
< -1  5  -4 >:  -0.0015266883726775748
< 0  -4  4 >:  0.000682755796353118
< 0  -3  3 >:  -0.0009103410618041573
< 0  -2  2 >:  0.001042926705986006
< 0  -1  1 >:  -0.0011149355466618153
< 0  0  0 >:  0.0011379263272551967
< 0  1  -1 >:  -0.0011149355466618153
< 0  2  -2 >:  0.001042926705986006
< 0  3  -3 >:  -0.0009103410618041573
< 0  4  -4 >:  0.000682755796353118
< 1  -5  4 >:  -0.0015266883726775733
< 1  -4  3 >:  0.001365511592706236
< 1  -3  2 >:  -0.0012042680288921405
< 1  -2  1 >:  0.001042926705986006
< 1  -1  0 >:  -0.0008814339429340695
< 1  0  -1 >:  0.0007196878007193122
< 1  1  -2 >:  -0.0005574677733309076
< 1  2  -3 >:  0.00039418924281525003
< 1  3  -4 >:  -0.00022758526545103933
ctilde_basis_func: rank=3 ndens=1 mu0=0 mu=( 0  0  0 )
n=( 2  2  2 )
l=( 2  2  4 )
num_ms=15
< -2  -2  4 >:  0.0003572924295141685
< -2  -1  3 >:  -0.00050528779955217
< -2  0  2 >:  0.00033078851274078466
< -2  1  1 >:  -0.00019098083687572797
< -2  2  0 >:  8.540922673078525e-5
< -1  -1  2 >:  0.0002700876896630182
< -1  0  1 >:  -0.000467805600995243
< -1  1  0 >:  0.000341636906923141
< -1  2  -1 >:  -0.00019098083687572797
< 0  0  0 >:  0.00025622768019235577
< 0  1  -1 >:  -0.000467805600995243
< 0  2  -2 >:  0.00033078851274078466
< 1  1  -2 >:  0.0002700876896630182
< 1  2  -3 >:  -0.00050528779955217
< 2  2  -4 >:  0.0003572924295141683
ctilde_basis_func: rank=3 ndens=1 mu0=0 mu=( 0  0  0 )
n=( 1  1  6 )
l=( 1  3  2 )
num_ms=15
< -1  -1  2 >:  -0.012314186832157698
< -1  0  1 >:  0.02132879724719278
< -1  1  0 >:  -0.030163474336085957
< -1  2  -1 >:  0.03894087792247192
< -1  3  -2 >:  -0.047692640523033444
< 0  -2  2 >:  0.027535358844337415
< 0  -1  1 >:  -0.0348297800552672
< 0  0  0 >:  0.0369425604964731
< 0  1  -1 >:  -0.0348297800552672
< 0  2  -2 >:  0.027535358844337415
< 1  -3  2 >:  -0.047692640523033444
< 1  -2  1 >:  0.03894087792247192
< 1  -1  0 >:  -0.030163474336085957
< 1  0  -1 >:  0.02132879724719278
< 1  1  -2 >:  -0.012314186832157698
ctilde_basis_func: rank=3 ndens=1 mu0=0 mu=( 0  0  0 )
n=( 1  2  3 )
l=( 4  0  4 )
num_ms=9
< -4  0  4 >:  0.01622877087869816
< -3  0  3 >:  -0.016228770878698156
< -2  0  2 >:  0.016228770878698156
< -1  0  1 >:  -0.016228770878698156
< 0  0  0 >:  0.016228770878698156
< 1  0  -1 >:  -0.016228770878698156
< 2  0  -2 >:  0.016228770878698156
< 3  0  -3 >:  -0.016228770878698156
< 4  0  -4 >:  0.016228770878698156
ctilde_basis_func: rank=3 ndens=1 mu0=0 mu=( 0  0  0 )
n=( 1  3  5 )
l=( 2  2  0 )
num_ms=5
< -2  2  0 >:  -0.05272969760288955
< -1  1  0 >:  0.05272969760288955
< 0  0  0 >:  -0.05272969760288955
< 1  -1  0 >:  0.05272969760288955
< 2  -2  0 >:  -0.05272969760288955
ctilde_basis_func: rank=3 ndens=1 mu0=0 mu=( 0  0  0 )
n=( 1  1  2 )
l=( 4  4  2 )
num_ms=21
< -4  2  2 >:  -0.0003773417944879012
< -4  3  1 >:  0.0007059418563420949
< -4  4  0 >:  -0.000815151441582665
< -3  1  2 >:  0.0005660126917318518
< -3  2  1 >:  -0.0006670523542687387
< -3  3  0 >:  0.00020378786039566626
< -3  4  -1 >:  0.0007059418563420949
< -2  0  2 >:  -0.0006765145624042779
< -2  1  1 >:  0.0004538197647913467
< -2  2  0 >:  0.00023290041188076148
< -2  3  -1 >:  -0.0006670523542687387
< -2  4  -2 >:  -0.00037734179448790104
< -1  -1  2 >:  0.0003565544812449392
< -1  0  1 >:  -0.00015945601154917157
< -1  1  0 >:  -0.0004949133752466182
< -1  2  -1 >:  0.0004538197647913467
< -1  3  -2 >:  0.0005660126917318518
< 0  0  0 >:  0.00029112551485095184
< 0  1  -1 >:  -0.00015945601154917157
< 0  2  -2 >:  -0.0006765145624042779
< 1  1  -2 >:  0.0003565544812449392
ctilde_basis_func: rank=3 ndens=1 mu0=0 mu=( 0  0  0 )
n=( 2  2  2 )
l=( 1  3  4 )
num_ms=21
< -1  -3  4 >:  0.0016690031429106376
< -1  -2  3 >:  -0.0014453991207566816
< -1  -1  2 >:  0.0012215852166883665
< -1  0  1 >:  -0.0009974201527379065
< -1  1  0 >:  0.000772598328145114
< -1  2  -1 >:  -0.0005463095169647996
< -1  3  -2 >:  0.00031541194668048154
< 0  -3  3 >:  -0.0008345015714553185
< 0  -2  2 >:  0.0010926190339295991
< 0  -1  1 >:  -0.0012215852166883665
< 0  0  0 >:  0.0012616477867219262
< 0  1  -1 >:  -0.0012215852166883665
< 0  2  -2 >:  0.0010926190339295991
< 0  3  -3 >:  -0.0008345015714553185
< 1  -3  2 >:  0.00031541194668048154
< 1  -2  1 >:  -0.0005463095169647996
< 1  -1  0 >:  0.000772598328145114
< 1  0  -1 >:  -0.0009974201527379065
< 1  1  -2 >:  0.0012215852166883665
< 1  2  -3 >:  -0.0014453991207566816
< 1  3  -4 >:  0.001669003142910637
ctilde_basis_func: rank=3 ndens=1 mu0=0 mu=( 0  0  0 )
n=( 1  2  2 )
l=( 0  5  5 )
num_ms=6
< 0  -5  5 >:  0.0024184473884298462
< 0  -4  4 >:  -0.0024184473884298467
< 0  -3  3 >:  0.0024184473884298467
< 0  -2  2 >:  -0.0024184473884298467
< 0  -1  1 >:  0.0024184473884298467
< 0  0  0 >:  -0.0012092236942149233
ctilde_basis_func: rank=3 ndens=1 mu0=0 mu=( 0  0  0 )
n=( 1  2  3 )
l=( 4  2  2 )
num_ms=25
< -4  2  2 >:  0.005775872855717486
< -3  1  2 >:  -0.004084158863549143
< -3  2  1 >:  -0.004084158863549143
< -2  0  2 >:  0.0026737095917769666
< -2  1  1 >:  0.004366149480159118
< -2  2  0 >:  0.0026737095917769666
< -1  -1  2 >:  -0.0015436669525473162
< -1  0  1 >:  -0.003781196366538018
< -1  1  0 >:  -0.003781196366538018
< -1  2  -1 >:  -0.0015436669525473162
< 0  -2  2 >:  0.000690348848103147
< 0  -1  1 >:  0.002761395392412593
< 0  0  0 >:  0.004142093088618889
< 0  1  -1 >:  0.002761395392412593
< 0  2  -2 >:  0.0006903488481031483
< 1  -2  1 >:  -0.0015436669525473162
< 1  -1  0 >:  -0.003781196366538018
< 1  0  -1 >:  -0.003781196366538018
< 1  1  -2 >:  -0.0015436669525473162
< 2  -2  0 >:  0.0026737095917769666
< 2  -1  -1 >:  0.004366149480159118
< 2  0  -2 >:  0.0026737095917769666
< 3  -2  -1 >:  -0.004084158863549143
< 3  -1  -2 >:  -0.004084158863549143
< 4  -2  -2 >:  0.005775872855717486
ctilde_basis_func: rank=3 ndens=1 mu0=0 mu=( 0  0  0 )
n=( 1  2  4 )
l=( 4  1  3 )
num_ms=21
< -4  1  3 >:  0.0008003973082727451
< -3  0  3 >:  -0.00040019865413637256
< -3  1  2 >:  -0.000693164402084882
< -2  -1  3 >:  0.00015126087340965627
< -2  0  2 >:  0.0005239830358855371
< -2  1  1 >:  0.0005858308436483863
< -1  -1  2 >:  -0.00026199151794276853
< -1  0  1 >:  -0.0005858308436483863
< -1  1  0 >:  -0.00047832888084091256
< 0  -1  1 >:  0.00037051195790137727
< 0  0  0 >:  0.0006050434936386243
< 0  1  -1 >:  0.00037051195790137727
< 1  -1  0 >:  -0.00047832888084091256
< 1  0  -1 >:  -0.0005858308436483863
< 1  1  -2 >:  -0.00026199151794276853
< 2  -1  -1 >:  0.0005858308436483863
< 2  0  -2 >:  0.0005239830358855371
< 2  1  -3 >:  0.00015126087340965608
< 3  -1  -2 >:  -0.000693164402084882
< 3  0  -3 >:  -0.00040019865413637256
< 4  -1  -3 >:  0.0008003973082727451
ctilde_basis_func: rank=3 ndens=1 mu0=0 mu=( 0  0  0 )
n=( 1  1  7 )
l=( 1  3  2 )
num_ms=15
< -1  -1  2 >:  -0.0060284168324843896
< -1  0  1 >:  0.010441524243066403
< -1  1  0 >:  -0.01476654519639197
< -1  2  -1 >:  0.019063527875548412
< -1  3  -2 >:  -0.02334795799620851
< 0  -2  2 >:  0.013479949834139061
< 0  -1  1 >:  -0.01705093768827536
< 0  0  0 >:  0.01808525049745317
< 0  1  -1 >:  -0.01705093768827536
< 0  2  -2 >:  0.013479949834139061
< 1  -3  2 >:  -0.023347957996208514
< 1  -2  1 >:  0.019063527875548412
< 1  -1  0 >:  -0.01476654519639197
< 1  0  -1 >:  0.010441524243066403
< 1  1  -2 >:  -0.0060284168324843896
ctilde_basis_func: rank=3 ndens=1 mu0=0 mu=( 0  0  0 )
n=( 1  2  2 )
l=( 4  2  2 )
num_ms=15
< -4  2  2 >:  0.010482161402998538
< -3  1  2 >:  -0.01482401481910432
< -2  0  2 >:  0.009704595715956091
< -2  1  1 >:  0.007923769221364006
< -1  -1  2 >:  -0.00560295094898374
< -1  0  1 >:  -0.013724370878852945
< 0  -2  2 >:  0.0025057158393049167
< 0  -1  1 >:  0.010022863357219677
< 0  0  0 >:  0.007517147517914757
< 1  -2  1 >:  -0.00560295094898374
< 1  -1  0 >:  -0.013724370878852945
< 2  -2  0 >:  0.009704595715956091
< 2  -1  -1 >:  0.007923769221364006
< 3  -2  -1 >:  -0.01482401481910432
< 4  -2  -2 >:  0.010482161402998538
ctilde_basis_func: rank=3 ndens=1 mu0=0 mu=( 0  0  0 )
n=( 1  2  8 )
l=( 1  0  1 )
num_ms=3
< -1  0  1 >:  -0.2823931468242242
< 0  0  0 >:  0.2823931468242242
< 1  0  -1 >:  -0.2823931468242242
ctilde_basis_func: rank=3 ndens=1 mu0=0 mu=( 0  0  0 )
n=( 1  1  3 )
l=( 2  3  5 )
num_ms=35
< -2  -3  5 >:  5.5109703330229896e-5
< -2  -2  4 >:  -4.268779264248236e-5
< -2  -1  3 >:  3.181760205266865e-5
< -2  0  2 >:  -2.2498442172537013e-5
< -2  1  1 >:  1.472868775346251e-5
< -2  2  0 >:  -8.503611839271525e-6
< -2  3  -1 >:  3.802930825376629e-6
< -1  -3  4 >:  -3.4854436739938575e-5
< -1  -2  3 >:  4.024643686851265e-5
< -1  -1  2 >:  -3.8968444933984415e-5
< -1  0  1 >:  3.40144473570861e-5
< -1  1  0 >:  -2.6890781750071685e-5
< -1  2  -1 >:  1.8630480098548037e-5
< -1  3  -2 >:  -1.0061609217128163e-5
< 0  -3  3 >:  2.0123218434256326e-5
< 0  -2  2 >:  -3.0184827651384484e-5
< 0  -1  1 >:  3.607776957676263e-5
< 0  0  0 >:  -3.802930825376629e-5
< 0  1  -1 >:  3.607776957676263e-5
< 0  2  -2 >:  -3.0184827651384484e-5
< 0  3  -3 >:  2.0123218434256326e-5
< 1  -3  2 >:  -1.0061609217128163e-5
< 1  -2  1 >:  1.8630480098548037e-5
< 1  -1  0 >:  -2.6890781750071685e-5
< 1  0  -1 >:  3.40144473570861e-5
< 1  1  -2 >:  -3.8968444933984415e-5
< 1  2  -3 >:  4.024643686851265e-5
< 1  3  -4 >:  -3.4854436739938575e-5
< 2  -3  1 >:  3.802930825376629e-6
< 2  -2  0 >:  -8.503611839271525e-6
< 2  -1  -1 >:  1.472868775346251e-5
< 2  0  -2 >:  -2.2498442172537013e-5
< 2  1  -3 >:  3.181760205266865e-5
< 2  2  -4 >:  -4.268779264248236e-5
< 2  3  -5 >:  5.510970333022988e-5
ctilde_basis_func: rank=3 ndens=1 mu0=0 mu=( 0  0  0 )
n=( 3  4  6 )
l=( 1  1  0 )
num_ms=3
< -1  1  0 >:  0.02820605407360999
< 0  0  0 >:  -0.02820605407360999
< 1  -1  0 >:  0.02820605407360999
ctilde_basis_func: rank=3 ndens=1 mu0=0 mu=( 0  0  0 )
n=( 1  4  5 )
l=( 0  3  3 )
num_ms=7
< 0  -3  3 >:  -0.0007809495002833177
< 0  -2  2 >:  0.0007809495002833177
< 0  -1  1 >:  -0.0007809495002833177
< 0  0  0 >:  0.0007809495002833177
< 0  1  -1 >:  -0.0007809495002833177
< 0  2  -2 >:  0.0007809495002833177
< 0  3  -3 >:  -0.0007809495002833177
ctilde_basis_func: rank=3 ndens=1 mu0=0 mu=( 0  0  0 )
n=( 1  2  2 )
l=( 1  4  5 )
num_ms=27
< -1  -4  5 >:  0.001896446469112019
< -1  -3  4 >:  -0.0016962332882495734
< -1  -2  3 >:  0.0014959371487525703
< -1  -1  2 >:  -0.0012955195732845867
< -1  0  1 >:  0.0010949138794455404
< -1  1  0 >:  -0.0008939934389775964
< -1  2  -1 >:  0.0006924843401557854
< -1  3  -2 >:  -0.0004896603727896476
< -1  4  -3 >:  0.00028270554804159557
< 0  -4  4 >:  -0.0008481166441247867
< 0  -3  3 >:  0.0011308221921663823
< 0  -2  2 >:  -0.0012955195732845867
< 0  -1  1 >:  0.0013849686803115708
< 0  0  0 >:  -0.001413527740207978
< 0  1  -1 >:  0.0013849686803115708
< 0  2  -2 >:  -0.0012955195732845867
< 0  3  -3 >:  0.0011308221921663823
< 0  4  -4 >:  -0.0008481166441247867
< 1  -4  3 >:  0.00028270554804159557
< 1  -3  2 >:  -0.0004896603727896476
< 1  -2  1 >:  0.0006924843401557854
< 1  -1  0 >:  -0.0008939934389775964
< 1  0  -1 >:  0.0010949138794455404
< 1  1  -2 >:  -0.0012955195732845867
< 1  2  -3 >:  0.0014959371487525703
< 1  3  -4 >:  -0.0016962332882495734
< 1  4  -5 >:  0.0018964464691120205
ctilde_basis_func: rank=3 ndens=1 mu0=0 mu=( 0  0  0 )
n=( 1  2  9 )
l=( 2  1  1 )
num_ms=9
< -2  1  1 >:  -0.0037878529840587385
< -1  0  1 >:  0.0026784165311656335
< -1  1  0 >:  0.0026784165311656335
< 0  -1  1 >:  -0.0015463845052704206
< 0  0  0 >:  -0.0030927690105408447
< 0  1  -1 >:  -0.0015463845052704223
< 1  -1  0 >:  0.0026784165311656335
< 1  0  -1 >:  0.0026784165311656335
< 2  -1  -1 >:  -0.0037878529840587385
ctilde_basis_func: rank=3 ndens=1 mu0=0 mu=( 0  0  0 )
n=( 2  2  7 )
l=( 1  1  2 )
num_ms=6
< -1  -1  2 >:  -0.012207099745547807
< -1  0  1 >:  0.017263446017394865
< -1  1  0 >:  -0.009967055205283498
< 0  0  0 >:  -0.009967055205283498
< 0  1  -1 >:  0.017263446017394865
< 1  1  -2 >:  -0.012207099745547807
ctilde_basis_func: rank=3 ndens=1 mu0=0 mu=( 0  0  0 )
n=( 2  2  6 )
l=( 1  2  3 )
num_ms=15
< -1  -2  3 >:  0.0001470627361281017
< -1  -1  2 >:  -0.00012007622123047138
< -1  0  1 >:  9.301064102022661e-5
< -1  1  0 >:  -6.576845498790992e-5
< -1  2  -1 >:  3.7971435191455565e-5
< 0  -2  2 >:  -8.490671029132241e-5
< 0  -1  1 >:  0.00010739943726105498
< 0  0  0 >:  -0.00011391430557436672
< 0  1  -1 >:  0.00010739943726105498
< 0  2  -2 >:  -8.490671029132241e-5
< 1  -2  1 >:  3.7971435191455565e-5
< 1  -1  0 >:  -6.576845498790992e-5
< 1  0  -1 >:  9.301064102022661e-5
< 1  1  -2 >:  -0.00012007622123047138
< 1  2  -3 >:  0.00014706273612810167
ctilde_basis_func: rank=3 ndens=1 mu0=0 mu=( 0  0  0 )
n=( 1  3  5 )
l=( 0  2  2 )
num_ms=5
< 0  -2  2 >:  -0.03569791927757272
< 0  -1  1 >:  0.03569791927757271
< 0  0  0 >:  -0.03569791927757271
< 0  1  -1 >:  0.03569791927757271
< 0  2  -2 >:  -0.03569791927757271
ctilde_basis_func: rank=3 ndens=1 mu0=0 mu=( 0  0  0 )
n=( 1  3  3 )
l=( 3  2  3 )
num_ms=27
< -3  0  3 >:  0.0002773319111668452
< -3  1  2 >:  -0.0002773319111668452
< -3  2  1 >:  0.0001754001014269433
< -2  -1  3 >:  -0.0002773319111668452
< -2  1  1 >:  0.00021482037466421326
< -2  2  0 >:  -0.00024805320227959957
< -1  -2  3 >:  0.00017540010142694332
< -1  -1  2 >:  0.00021482037466421326
< -1  0  1 >:  -0.00016639914670010718
< -1  1  0 >:  -7.844131001020059e-5
< -1  2  -1 >:  0.0002717286686998572
< 0  -2  2 >:  -0.00024805320227959957
< 0  -1  1 >:  -7.844131001020059e-5
< 0  0  0 >:  0.00022186552893347627
< 0  1  -1 >:  -7.844131001020059e-5
< 0  2  -2 >:  -0.00024805320227959957
< 1  -2  1 >:  0.0002717286686998572
< 1  -1  0 >:  -7.844131001020059e-5
< 1  0  -1 >:  -0.00016639914670010718
< 1  1  -2 >:  0.00021482037466421326
< 1  2  -3 >:  0.0001754001014269433
< 2  -2  0 >:  -0.00024805320227959957
< 2  -1  -1 >:  0.00021482037466421326
< 2  1  -3 >:  -0.0002773319111668452
< 3  -2  -1 >:  0.0001754001014269433
< 3  -1  -2 >:  -0.0002773319111668452
< 3  0  -3 >:  0.0002773319111668452
ctilde_basis_func: rank=3 ndens=1 mu0=0 mu=( 0  0  0 )
n=( 2  3  4 )
l=( 2  2  2 )
num_ms=19
< -2  0  2 >:  -0.006907484626869889
< -2  1  1 >:  0.008459906370975141
< -2  2  0 >:  -0.006907484626869889
< -1  -1  2 >:  0.008459906370975141
< -1  0  1 >:  -0.0034537423134349443
< -1  1  0 >:  -0.0034537423134349443
< -1  2  -1 >:  0.008459906370975141
< 0  -2  2 >:  -0.006907484626869883
< 0  -1  1 >:  -0.0034537423134349443
< 0  0  0 >:  0.006907484626869889
< 0  1  -1 >:  -0.0034537423134349443
< 0  2  -2 >:  -0.006907484626869889
< 1  -2  1 >:  0.008459906370975141
< 1  -1  0 >:  -0.0034537423134349443
< 1  0  -1 >:  -0.0034537423134349443
< 1  1  -2 >:  0.008459906370975141
< 2  -2  0 >:  -0.006907484626869889
< 2  -1  -1 >:  0.008459906370975141
< 2  0  -2 >:  -0.006907484626869889
ctilde_basis_func: rank=3 ndens=1 mu0=0 mu=( 0  0  0 )
n=( 1  3  3 )
l=( 1  3  4 )
num_ms=21
< -1  -3  4 >:  -0.0017300233226048847
< -1  -2  3 >:  0.0014982441465153909
< -1  -1  2 >:  -0.0012662474150495777
< -1  0  1 >:  0.0010338866849965514
< -1  1  0 >:  -0.0008008451825714474
< -1  2  -1 >:  0.0005662830592768492
< -1  3  -2 >:  -0.0003269436767110137
< 0  -3  3 >:  0.0008650116613024419
< 0  -2  2 >:  -0.0011325661185536983
< 0  -1  1 >:  0.0012662474150495777
< 0  0  0 >:  -0.001307774706844055
< 0  1  -1 >:  0.0012662474150495777
< 0  2  -2 >:  -0.0011325661185536983
< 0  3  -3 >:  0.0008650116613024419
< 1  -3  2 >:  -0.0003269436767110137
< 1  -2  1 >:  0.0005662830592768492
< 1  -1  0 >:  -0.0008008451825714474
< 1  0  -1 >:  0.0010338866849965514
< 1  1  -2 >:  -0.0012662474150495777
< 1  2  -3 >:  0.0014982441465153909
< 1  3  -4 >:  -0.0017300233226048838
ctilde_basis_func: rank=3 ndens=1 mu0=0 mu=( 0  0  0 )
n=( 1  2  7 )
l=( 2  1  1 )
num_ms=9
< -2  1  1 >:  -0.07483483652097428
< -1  0  1 >:  0.052916220372967615
< -1  1  0 >:  0.052916220372967615
< 0  -1  1 >:  -0.03055119407683038
< 0  0  0 >:  -0.06110238815366083
< 0  1  -1 >:  -0.030551194076830414
< 1  -1  0 >:  0.052916220372967615
< 1  0  -1 >:  0.052916220372967615
< 2  -1  -1 >:  -0.07483483652097428
ctilde_basis_func: rank=3 ndens=1 mu0=0 mu=( 0  0  0 )
n=( 1  1  2 )
l=( 1  4  3 )
num_ms=21
< -1  -2  3 >:  0.004420686377222465
< -1  -1  2 >:  -0.007656853409676905
< -1  0  1 >:  0.010828425937067754
< -1  1  0 >:  -0.013979437773301285
< -1  2  -1 >:  0.017121244717788607
< -1  3  -2 >:  -0.020258129947282055
< -1  4  -3 >:  0.02339207355668342
< 0  -3  3 >:  -0.01169603677834171
< 0  -2  2 >:  0.01531370681935381
< 0  -1  1 >:  -0.017121244717788607
< 0  0  0 >:  0.01768274550888986
< 0  1  -1 >:  -0.017121244717788607
< 0  2  -2 >:  0.01531370681935381
< 0  3  -3 >:  -0.01169603677834171
< 1  -4  3 >:  0.023392073556683435
< 1  -3  2 >:  -0.020258129947282055
< 1  -2  1 >:  0.017121244717788607
< 1  -1  0 >:  -0.013979437773301285
< 1  0  -1 >:  0.010828425937067754
< 1  1  -2 >:  -0.007656853409676905
< 1  2  -3 >:  0.004420686377222465
ctilde_basis_func: rank=3 ndens=1 mu0=0 mu=( 0  0  0 )
n=( 2  3  6 )
l=( 1  1  2 )
num_ms=9
< -1  -1  2 >:  -0.0021413773716239823
< -1  0  1 >:  0.0015141824605547436
< -1  1  0 >:  -0.0008742136512034913
< 0  -1  1 >:  0.0015141824605547436
< 0  0  0 >:  -0.0017484273024069826
< 0  1  -1 >:  0.0015141824605547436
< 1  -1  0 >:  -0.0008742136512034913
< 1  0  -1 >:  0.0015141824605547436
< 1  1  -2 >:  -0.0021413773716239823
ctilde_basis_func: rank=3 ndens=1 mu0=0 mu=( 0  0  0 )
n=( 2  3  5 )
l=( 2  1  3 )
num_ms=15
< -2  -1  3 >:  -0.00011697107169665632
< -2  0  2 >:  6.753327973146352e-5
< -2  1  1 >:  -3.0201800844612235e-5
< -1  -1  2 >:  9.550648010777177e-5
< -1  0  1 >:  -8.542359272508364e-5
< -1  1  0 >:  5.231105354294502e-5
< 0  -1  1 >:  -7.3979001382458e-5
< 0  0  0 >:  9.06054025338367e-5
< 0  1  -1 >:  -7.3979001382458e-5
< 1  -1  0 >:  5.231105354294502e-5
< 1  0  -1 >:  -8.542359272508364e-5
< 1  1  -2 >:  9.550648010777177e-5
< 2  -1  -1 >:  -3.0201800844612235e-5
< 2  0  -2 >:  6.753327973146352e-5
< 2  1  -3 >:  -0.00011697107169665628
ctilde_basis_func: rank=3 ndens=1 mu0=0 mu=( 0  0  0 )
n=( 2  2  4 )
l=( 2  2  2 )
num_ms=11
< -2  0  2 >:  -0.014655074527478287
< -2  1  1 >:  0.017948727367390557
< -2  2  0 >:  -0.014655074527478293
< -1  -1  2 >:  0.008974363683695278
< -1  0  1 >:  -0.007327537263739146
< -1  1  0 >:  -0.007327537263739146
< -1  2  -1 >:  0.017948727367390557
< 0  0  0 >:  0.007327537263739146
< 0  1  -1 >:  -0.007327537263739146
< 0  2  -2 >:  -0.014655074527478293
< 1  1  -2 >:  0.008974363683695278
ctilde_basis_func: rank=3 ndens=1 mu0=0 mu=( 0  0  0 )
n=( 1  5  7 )
l=( 1  0  1 )
num_ms=3
< -1  0  1 >:  0.06549263778728692
< 0  0  0 >:  -0.06549263778728692
< 1  0  -1 >:  0.06549263778728692
ctilde_basis_func: rank=3 ndens=1 mu0=0 mu=( 0  0  0 )
n=( 2  3  3 )
l=( 2  1  1 )
num_ms=6
< -2  1  1 >:  0.047573434295424204
< -1  0  1 >:  -0.06727899598925423
< 0  -1  1 >:  0.03884354644520366
< 0  0  0 >:  0.03884354644520369
< 1  -1  0 >:  -0.06727899598925423
< 2  -1  -1 >:  0.047573434295424204
ctilde_basis_func: rank=3 ndens=1 mu0=0 mu=( 0  0  0 )
n=( 1  1  2 )
l=( 4  5  1 )
num_ms=27
< -4  3  1 >:  -8.422759612423956e-5
< -4  4  0 >:  0.0002526827883727186
< -4  5  -1 >:  -0.0005650158915455925
< -3  2  1 >:  0.0001458864758865744
< -3  3  0 >:  -0.00033691038449695825
< -3  4  -1 >:  0.0005053655767454372
< -2  1  1 >:  -0.00020631463276560898
< -2  2  0 >:  0.00038597933484349695
< -2  3  -1 >:  -0.0004456905457470513
< -1  0  1 >:  0.0002663510455933675
< -1  1  0 >:  -0.00041262926553121797
< -1  2  -1 >:  0.00038597933484349695
< 0  -1  1 >:  -0.0003262120770802642
< 0  0  0 >:  0.00042113798062119777
< 0  1  -1 >:  -0.0003262120770802642
< 1  -2  1 >:  0.00038597933484349695
< 1  -1  0 >:  -0.00041262926553121797
< 1  0  -1 >:  0.0002663510455933675
< 2  -3  1 >:  -0.0004456905457470513
< 2  -2  0 >:  0.00038597933484349695
< 2  -1  -1 >:  -0.00020631463276560898
< 3  -4  1 >:  0.0005053655767454372
< 3  -3  0 >:  -0.00033691038449695825
< 3  -2  -1 >:  0.0001458864758865744
< 4  -5  1 >:  -0.0005650158915455922
< 4  -4  0 >:  0.0002526827883727186
< 4  -3  -1 >:  -8.422759612423956e-5
ctilde_basis_func: rank=3 ndens=1 mu0=0 mu=( 0  0  0 )
n=( 1  3  4 )
l=( 1  2  1 )
num_ms=9
< -1  0  1 >:  0.04221764252075855
< -1  1  0 >:  -0.073123101821734
< -1  2  -1 >:  0.10341168231908504
< 0  -1  1 >:  -0.073123101821734
< 0  0  0 >:  0.0844352850415171
< 0  1  -1 >:  -0.073123101821734
< 1  -2  1 >:  0.10341168231908501
< 1  -1  0 >:  -0.073123101821734
< 1  0  -1 >:  0.04221764252075855
ctilde_basis_func: rank=3 ndens=1 mu0=0 mu=( 0  0  0 )
n=( 1  2  7 )
l=( 2  1  3 )
num_ms=15
< -2  -1  3 >:  0.0010195804850197689
< -2  0  2 >:  -0.0005886550674866527
< -2  1  1 >:  0.00026325454923997635
< -1  -1  2 >:  -0.0008324839799992736
< -1  0  1 >:  0.0007445963077831805
< -1  1  0 >:  -0.0004559702546072817
< 0  -1  1 >:  0.0006448393181043311
< 0  0  0 >:  -0.0007897636477199289
< 0  1  -1 >:  0.0006448393181043311
< 1  -1  0 >:  -0.0004559702546072817
< 1  0  -1 >:  0.0007445963077831805
< 1  1  -2 >:  -0.0008324839799992736
< 2  -1  -1 >:  0.00026325454923997635
< 2  0  -2 >:  -0.0005886550674866527
< 2  1  -3 >:  0.0010195804850197687
ctilde_basis_func: rank=3 ndens=1 mu0=0 mu=( 0  0  0 )
n=( 1  2  4 )
l=( 2  2  4 )
num_ms=25
< -2  -2  4 >:  0.0002957931339043698
< -2  -1  3 >:  -0.00020915733081220027
< -2  0  2 >:  0.0001369256143716896
< -2  1  1 >:  -7.905404031644989e-5
< -2  2  0 >:  3.535404160871819e-5
< -1  -2  3 >:  -0.00020915733081220027
< -1  -1  2 >:  0.00022359859195182576
< -1  0  1 >:  -0.0001936420608807118
< -1  1  0 >:  0.00014141616643487275
< -1  2  -1 >:  -7.905404031644989e-5
< 0  -2  2 >:  0.0001369256143716896
< 0  -1  1 >:  -0.0001936420608807118
< 0  0  0 >:  0.00021212424965230908
< 0  1  -1 >:  -0.0001936420608807118
< 0  2  -2 >:  0.0001369256143716896
< 1  -2  1 >:  -7.905404031644989e-5
< 1  -1  0 >:  0.00014141616643487275
< 1  0  -1 >:  -0.0001936420608807118
< 1  1  -2 >:  0.00022359859195182576
< 1  2  -3 >:  -0.00020915733081220027
< 2  -2  0 >:  3.535404160871819e-5
< 2  -1  -1 >:  -7.905404031644989e-5
< 2  0  -2 >:  0.0001369256143716896
< 2  1  -3 >:  -0.00020915733081220027
< 2  2  -4 >:  0.00029579313390436967
ctilde_basis_func: rank=3 ndens=1 mu0=0 mu=( 0  0  0 )
n=( 2  2  6 )
l=( 0  1  1 )
num_ms=3
< 0  -1  1 >:  0.1829771583267736
< 0  0  0 >:  -0.18297715832677353
< 0  1  -1 >:  0.18297715832677353
ctilde_basis_func: rank=3 ndens=1 mu0=0 mu=( 0  0  0 )
n=( 3  3  4 )
l=( 1  3  2 )
num_ms=15
< -1  -1  2 >:  1.3960096780866176e-6
< -1  0  1 >:  -2.4179596903038947e-6
< -1  1  0 >:  3.4195113872992165e-6
< -1  2  -1 >:  -4.414570218392162e-6
< -1  3  -2 >:  5.406722234373848e-6
< 0  -2  2 >:  -3.121572537449276e-6
< 0  -1  1 >:  3.948511639908386e-6
< 0  0  0 >:  -4.188029034259853e-6
< 0  1  -1 >:  3.948511639908386e-6
< 0  2  -2 >:  -3.121572537449276e-6
< 1  -3  2 >:  5.406722234373848e-6
< 1  -2  1 >:  -4.414570218392162e-6
< 1  -1  0 >:  3.4195113872992165e-6
< 1  0  -1 >:  -2.4179596903038947e-6
< 1  1  -2 >:  1.3960096780866176e-6
ctilde_basis_func: rank=3 ndens=1 mu0=0 mu=( 0  0  0 )
n=( 1  2  6 )
l=( 1  2  3 )
num_ms=15
< -1  -2  3 >:  -0.019428533565661384
< -1  -1  2 >:  0.01586333122880208
< -1  0  1 >:  -0.012287683532904495
< -1  1  0 >:  0.008688704351191043
< -1  2  -1 >:  -0.0050164257960692215
< 0  -2  2 >:  0.01121706908409428
< 0  -1  1 >:  -0.014188594790878686
< 0  0  0 >:  0.015049277388207665
< 0  1  -1 >:  -0.014188594790878686
< 0  2  -2 >:  0.01121706908409428
< 1  -2  1 >:  -0.0050164257960692215
< 1  -1  0 >:  0.008688704351191043
< 1  0  -1 >:  -0.012287683532904495
< 1  1  -2 >:  0.01586333122880208
< 1  2  -3 >:  -0.01942853356566138
ctilde_basis_func: rank=3 ndens=1 mu0=0 mu=( 0  0  0 )
n=( 2  2  8 )
l=( 1  1  2 )
num_ms=6
< -1  -1  2 >:  -0.0016758244022028778
< -1  0  1 >:  0.0023699735977510943
< -1  1  0 >:  -0.0013683048946339
< 0  0  0 >:  -0.0013683048946339
< 0  1  -1 >:  0.0023699735977510943
< 1  1  -2 >:  -0.0016758244022028778
ctilde_basis_func: rank=3 ndens=1 mu0=0 mu=( 0  0  0 )
n=( 2  4  4 )
l=( 2  1  3 )
num_ms=15
< -2  -1  3 >:  -0.0008550904104294372
< -2  0  2 >:  0.0004936866786429031
< -2  1  1 >:  -0.00022078339460632494
< -1  -1  2 >:  0.0006981783964997213
< -1  0  1 >:  -0.0006244697419980712
< -1  1  0 >:  0.00038240805692568323
< 0  -1  1 >:  -0.0005408066604650438
< 0  0  0 >:  0.0006623501838189748
< 0  1  -1 >:  -0.0005408066604650438
< 1  -1  0 >:  0.00038240805692568323
< 1  0  -1 >:  -0.0006244697419980712
< 1  1  -2 >:  0.0006981783964997213
< 2  -1  -1 >:  -0.00022078339460632494
< 2  0  -2 >:  0.0004936866786429031
< 2  1  -3 >:  -0.0008550904104294369
ctilde_basis_func: rank=3 ndens=1 mu0=0 mu=( 0  0  0 )
n=( 1  1  5 )
l=( 2  4  2 )
num_ms=25
< -2  0  2 >:  -2.9155790394724654e-5
< -2  1  1 >:  6.519432926033976e-5
< -2  2  0 >:  -0.00011291989064428277
< -2  3  -1 >:  0.0001724879821145205
< -2  4  -2 >:  -0.00024393484365272275
< -1  -1  2 >:  6.519432926033976e-5
< -1  0  1 >:  -0.00011662316157889861
< -1  1  0 >:  0.00015969284081083146
< -1  2  -1 >:  -0.00018439740925957918
< -1  3  -2 >:  0.0001724879821145205
< 0  -2  2 >:  -0.00011291989064428277
< 0  -1  1 >:  0.00015969284081083146
< 0  0  0 >:  -0.00017493474236834794
< 0  1  -1 >:  0.00015969284081083146
< 0  2  -2 >:  -0.00011291989064428277
< 1  -3  2 >:  0.0001724879821145205
< 1  -2  1 >:  -0.00018439740925957918
< 1  -1  0 >:  0.00015969284081083146
< 1  0  -1 >:  -0.00011662316157889861
< 1  1  -2 >:  6.519432926033976e-5
< 2  -4  2 >:  -0.00024393484365272286
< 2  -3  1 >:  0.0001724879821145205
< 2  -2  0 >:  -0.00011291989064428277
< 2  -1  -1 >:  6.519432926033976e-5
< 2  0  -2 >:  -2.9155790394724654e-5
ctilde_basis_func: rank=3 ndens=1 mu0=0 mu=( 0  0  0 )
n=( 2  4  4 )
l=( 2  2  2 )
num_ms=11
< -2  0  2 >:  -0.000694660289413047
< -2  1  1 >:  0.00042539081340901315
< -1  -1  2 >:  0.0008507816268180263
< -1  0  1 >:  -0.0003473301447065235
< 0  -2  2 >:  -0.0006946602894130467
< 0  -1  1 >:  -0.0003473301447065235
< 0  0  0 >:  0.0003473301447065235
< 1  -2  1 >:  0.0008507816268180263
< 1  -1  0 >:  -0.0003473301447065235
< 2  -2  0 >:  -0.000694660289413047
< 2  -1  -1 >:  0.00042539081340901315
ctilde_basis_func: rank=3 ndens=1 mu0=0 mu=( 0  0  0 )
n=( 2  2  3 )
l=( 1  3  2 )
num_ms=15
< -1  -1  2 >:  -0.005017003005760383
< -1  0  1 >:  0.00868970410770276
< -1  1  0 >:  -0.012289097402122433
< -1  2  -1 >:  0.015865156526113675
< -1  3  -2 >:  -0.01943076908918252
< 0  -2  2 >:  0.01121835976420099
< 0  -1  1 >:  -0.014190227386425835
< 0  0  0 >:  0.015051009017281153
< 0  1  -1 >:  -0.014190227386425835
< 0  2  -2 >:  0.01121835976420099
< 1  -3  2 >:  -0.019430769089182523
< 1  -2  1 >:  0.015865156526113675
< 1  -1  0 >:  -0.012289097402122433
< 1  0  -1 >:  0.00868970410770276
< 1  1  -2 >:  -0.005017003005760383
ctilde_basis_func: rank=3 ndens=1 mu0=0 mu=( 0  0  0 )
n=( 1  4  7 )
l=( 1  1  2 )
num_ms=9
< -1  -1  2 >:  -0.0012723924517809935
< -1  0  1 >:  0.0008997173309849177
< -1  1  0 >:  -0.0005194520432387139
< 0  -1  1 >:  0.0008997173309849177
< 0  0  0 >:  -0.0010389040864774279
< 0  1  -1 >:  0.0008997173309849177
< 1  -1  0 >:  -0.0005194520432387139
< 1  0  -1 >:  0.0008997173309849177
< 1  1  -2 >:  -0.0012723924517809937
ctilde_basis_func: rank=3 ndens=1 mu0=0 mu=( 0  0  0 )
n=( 1  2  12 )
l=( 1  0  1 )
num_ms=3
< -1  0  1 >:  0.006989659542964037
< 0  0  0 >:  -0.006989659542964037
< 1  0  -1 >:  0.006989659542964037
ctilde_basis_func: rank=3 ndens=1 mu0=0 mu=( 0  0  0 )
n=( 1  2  4 )
l=( 4  2  2 )
num_ms=25
< -4  2  2 >:  0.001162595030759214
< -3  1  2 >:  -0.0008220788300236229
< -3  2  1 >:  -0.0008220788300236229
< -2  0  2 >:  0.0005381769236862838
< -2  1  1 >:  0.000878839236248105
< -2  2  0 >:  0.0005381769236862838
< -1  -1  2 >:  -0.0003107165917619207
< -1  0  1 >:  -0.0007610971044333728
< -1  1  0 >:  -0.0007610971044333728
< -1  2  -1 >:  -0.0003107165917619207
< 0  -2  2 >:  0.0001389566841833409
< 0  -1  1 >:  0.0005558267367333647
< 0  0  0 >:  0.0008337401051000469
< 0  1  -1 >:  0.0005558267367333647
< 0  2  -2 >:  0.00013895668418334117
