nelements=1
elements: Si

lmax=6

2 FS parameters:  1.000000 1.000000
core energy-cutoff parameters: 100000.000000000000000000 1.000000000000000000
E0: -158.54496821

radbasename=ACE.jl.Basic
haspair: t

transform parameters: p=2 r0=2.35126
cutoff parameters: rcut=5.5 xl=0.2658211500023669 xr=1.6042620210695941 pl=2 pr=2
recursion coefficients: maxn=18
 7.821202223493647 0.0 0.0
 4.955952649160867 -4.634021822912618 0.0
 3.9956167645897973 -3.736067834756193 -0.8062257748298656
 3.632378876899846 -3.396425304323833 -0.9090909090909028
 3.4441358810053155 -3.220410274976574 -0.9481763873555078
 3.331005797707162 -3.114628942517647 -0.9671528397232808
 3.256698923178486 -3.0451489247421324 -0.9776923610941147
 3.2048648622710894 -2.9966819222465113 -0.9840838646340656
 3.167085174324123 -2.9613563429275254 -0.988211768804444
 3.138607272777173 -2.9347283207123276 -0.9910081668223445
 3.1165595829870045 -2.9141128138935235 -0.9929753269925177
 3.0991136906213357 -2.8978001790348364 -0.9944021951446367
 3.08505564490434 -2.884655321678083 -0.995463849629161
 3.0735513577131024 -2.8738983347423233 -0.9962709628235525
 3.0640110824280233 -2.864977780613316 -0.9968960091520438
 3.05600755744042 -2.857494151919029 -0.9973878929376229
 3.049224676161325 -2.8511518758533216 -0.9977804762744855
 3.043424253671011 -2.8457282396112 -0.9980977385708372
tests: ntests=0

begin repulsive potential
begin polypairpot
transform parameters: p=2 r0=2.35126
cutoff parameters: rcut=6.5 xl=0.1996612193351111 xr=2.372718237344682 pl=1 pr=0
recursion coefficients: maxn=8
 0.7970573297067717 0.0 0.0
 2.376367709542944 -4.34745440267418 0.0
 2.0418559725718572 -2.995966854134438 -0.8592340168452226
 1.9480476778224156 -2.6819368663177676 -0.9540573399840273
 1.9078222609703703 -2.557456376087243 -0.979350907418754
 1.886748315849131 -2.495034632578642 -0.9889539263943126
 1.8742963773986112 -2.459167072303244 -0.9934003182375156
 1.866316576065074 -2.436619813846683 -0.9957425082661538
tests: ntests=0
coefficients
0.5146231829737969
0.5916709287165399
-1.2338874394428236
-0.8191232126090058
0.6772396820204049
0.9791888401240606
0.5479490065326692
0.1407645296947044
end polypairpot
spline parameters
   e_0 + B  exp(-A*(r/ri-1)) * (ri/r)
ri=1.6223693999999997
e0=0.0
A=10.130412793908434
B=2.690736552485544
end repulsive potential

rankmax=4
ndensitymax=1

num_c_tilde_max=3200
num_ms_combinations_max=97
total_basis_size_rank1: 18
ctilde_basis_func: rank=1 ndens=1 mu0=0 mu=( 0 )
n=( 2 )
l=( 0 )
num_ms=1
< 0 >:  0.014330714317783709
ctilde_basis_func: rank=1 ndens=1 mu0=0 mu=( 0 )
n=( 9 )
l=( 0 )
num_ms=1
< 0 >:  -2.6989168029851452e-5
ctilde_basis_func: rank=1 ndens=1 mu0=0 mu=( 0 )
n=( 14 )
l=( 0 )
num_ms=1
< 0 >:  1.1809583517509666e-5
ctilde_basis_func: rank=1 ndens=1 mu0=0 mu=( 0 )
n=( 7 )
l=( 0 )
num_ms=1
< 0 >:  -6.032878261735083e-5
ctilde_basis_func: rank=1 ndens=1 mu0=0 mu=( 0 )
n=( 6 )
l=( 0 )
num_ms=1
< 0 >:  0.00021863268553624161
ctilde_basis_func: rank=1 ndens=1 mu0=0 mu=( 0 )
n=( 15 )
l=( 0 )
num_ms=1
< 0 >:  -7.114625244767767e-5
ctilde_basis_func: rank=1 ndens=1 mu0=0 mu=( 0 )
n=( 13 )
l=( 0 )
num_ms=1
< 0 >:  -7.99998655394442e-5
ctilde_basis_func: rank=1 ndens=1 mu0=0 mu=( 0 )
n=( 12 )
l=( 0 )
num_ms=1
< 0 >:  -2.3837124479873145e-5
ctilde_basis_func: rank=1 ndens=1 mu0=0 mu=( 0 )
n=( 17 )
l=( 0 )
num_ms=1
< 0 >:  -2.9127767697247722e-5
ctilde_basis_func: rank=1 ndens=1 mu0=0 mu=( 0 )
n=( 5 )
l=( 0 )
num_ms=1
< 0 >:  -0.0009363686961519508
ctilde_basis_func: rank=1 ndens=1 mu0=0 mu=( 0 )
n=( 18 )
l=( 0 )
num_ms=1
< 0 >:  -7.422836928006092e-5
ctilde_basis_func: rank=1 ndens=1 mu0=0 mu=( 0 )
n=( 8 )
l=( 0 )
num_ms=1
< 0 >:  -0.00011427974919518361
ctilde_basis_func: rank=1 ndens=1 mu0=0 mu=( 0 )
n=( 3 )
l=( 0 )
num_ms=1
< 0 >:  -0.003212292486097413
ctilde_basis_func: rank=1 ndens=1 mu0=0 mu=( 0 )
n=( 4 )
l=( 0 )
num_ms=1
< 0 >:  0.0018010754169113451
ctilde_basis_func: rank=1 ndens=1 mu0=0 mu=( 0 )
n=( 10 )
l=( 0 )
num_ms=1
< 0 >:  -0.00011967686078132295
ctilde_basis_func: rank=1 ndens=1 mu0=0 mu=( 0 )
n=( 1 )
l=( 0 )
num_ms=1
< 0 >:  -0.13625548750829822
ctilde_basis_func: rank=1 ndens=1 mu0=0 mu=( 0 )
n=( 16 )
l=( 0 )
num_ms=1
< 0 >:  2.7554710266947136e-5
ctilde_basis_func: rank=1 ndens=1 mu0=0 mu=( 0 )
n=( 11 )
l=( 0 )
num_ms=1
< 0 >:  -2.651322685588188e-5
total_basis_size: 3182
ctilde_basis_func: rank=2 ndens=1 mu0=0 mu=( 0  0 )
n=( 1  1 )
l=( 5  5 )
num_ms=6
< -5  5 >:  0.00020522762483513325
< -4  4 >:  -0.00020522762483513333
< -3  3 >:  0.00020522762483513333
< -2  2 >:  -0.00020522762483513333
< -1  1 >:  0.00020522762483513333
< 0  0 >:  -0.00010261381241756667
ctilde_basis_func: rank=2 ndens=1 mu0=0 mu=( 0  0 )
n=( 3  3 )
l=( 4  4 )
num_ms=5
< -4  4 >:  -5.774079164637314e-5
< -3  3 >:  5.774079164637313e-5
< -2  2 >:  -5.774079164637313e-5
< -1  1 >:  5.774079164637313e-5
< 0  0 >:  -2.8870395823186564e-5
ctilde_basis_func: rank=2 ndens=1 mu0=0 mu=( 0  0 )
n=( 1  3 )
l=( 5  5 )
num_ms=11
< -5  5 >:  4.831249054479162e-5
< -4  4 >:  -4.8312490544791644e-5
< -3  3 >:  4.8312490544791644e-5
< -2  2 >:  -4.8312490544791644e-5
< -1  1 >:  4.8312490544791644e-5
< 0  0 >:  -4.8312490544791644e-5
< 1  -1 >:  4.8312490544791644e-5
< 2  -2 >:  -4.8312490544791644e-5
< 3  -3 >:  4.8312490544791644e-5
< 4  -4 >:  -4.8312490544791644e-5
< 5  -5 >:  4.8312490544791644e-5
ctilde_basis_func: rank=2 ndens=1 mu0=0 mu=( 0  0 )
n=( 4  5 )
l=( 1  1 )
num_ms=3
< -1  1 >:  -0.00016686306415080227
< 0  0 >:  0.00016686306415080227
< 1  -1 >:  -0.00016686306415080227
ctilde_basis_func: rank=2 ndens=1 mu0=0 mu=( 0  0 )
n=( 2  7 )
l=( 3  3 )
num_ms=7
< -3  3 >:  3.2765683181354264e-5
< -2  2 >:  -3.2765683181354264e-5
< -1  1 >:  3.2765683181354264e-5
< 0  0 >:  -3.2765683181354264e-5
< 1  -1 >:  3.2765683181354264e-5
< 2  -2 >:  -3.2765683181354264e-5
< 3  -3 >:  3.2765683181354264e-5
ctilde_basis_func: rank=2 ndens=1 mu0=0 mu=( 0  0 )
n=( 2  9 )
l=( 2  2 )
num_ms=5
< -2  2 >:  4.890069645210976e-5
< -1  1 >:  -4.890069645210976e-5
< 0  0 >:  4.890069645210976e-5
< 1  -1 >:  -4.890069645210976e-5
< 2  -2 >:  4.890069645210976e-5
ctilde_basis_func: rank=2 ndens=1 mu0=0 mu=( 0  0 )
n=( 4  6 )
l=( 3  3 )
num_ms=7
< -3  3 >:  2.82955707048453e-5
< -2  2 >:  -2.82955707048453e-5
< -1  1 >:  2.82955707048453e-5
< 0  0 >:  -2.82955707048453e-5
< 1  -1 >:  2.82955707048453e-5
< 2  -2 >:  -2.82955707048453e-5
< 3  -3 >:  2.82955707048453e-5
ctilde_basis_func: rank=2 ndens=1 mu0=0 mu=( 0  0 )
n=( 1  5 )
l=( 3  3 )
num_ms=7
< -3  3 >:  0.00019638502370686117
< -2  2 >:  -0.00019638502370686117
< -1  1 >:  0.00019638502370686117
< 0  0 >:  -0.00019638502370686117
< 1  -1 >:  0.00019638502370686117
< 2  -2 >:  -0.00019638502370686117
< 3  -3 >:  0.00019638502370686117
ctilde_basis_func: rank=2 ndens=1 mu0=0 mu=( 0  0 )
n=( 5  5 )
l=( 0  0 )
num_ms=1
< 0  0 >:  -0.00015782340353487072
ctilde_basis_func: rank=2 ndens=1 mu0=0 mu=( 0  0 )
n=( 3  5 )
l=( 3  3 )
num_ms=7
< -3  3 >:  -0.00012430191336496168
< -2  2 >:  0.00012430191336496168
< -1  1 >:  -0.00012430191336496168
< 0  0 >:  0.00012430191336496168
< 1  -1 >:  -0.00012430191336496168
< 2  -2 >:  0.00012430191336496168
< 3  -3 >:  -0.00012430191336496168
ctilde_basis_func: rank=2 ndens=1 mu0=0 mu=( 0  0 )
n=( 5  5 )
l=( 3  3 )
num_ms=4
< -3  3 >:  0.00016213610941090374
< -2  2 >:  -0.00016213610941090374
< -1  1 >:  0.00016213610941090374
< 0  0 >:  -8.106805470545187e-5
ctilde_basis_func: rank=2 ndens=1 mu0=0 mu=( 0  0 )
n=( 4  9 )
l=( 1  1 )
num_ms=3
< -1  1 >:  1.2984542173484007e-5
< 0  0 >:  -1.2984542173484007e-5
< 1  -1 >:  1.2984542173484007e-5
ctilde_basis_func: rank=2 ndens=1 mu0=0 mu=( 0  0 )
n=( 3  3 )
l=( 3  3 )
num_ms=4
< -3  3 >:  0.0003379708663175656
< -2  2 >:  -0.0003379708663175656
< -1  1 >:  0.0003379708663175656
< 0  0 >:  -0.0001689854331587828
ctilde_basis_func: rank=2 ndens=1 mu0=0 mu=( 0  0 )
n=( 3  5 )
l=( 1  1 )
num_ms=3
< -1  1 >:  -0.00014843911994556663
< 0  0 >:  0.00014843911994556663
< 1  -1 >:  -0.00014843911994556663
ctilde_basis_func: rank=2 ndens=1 mu0=0 mu=( 0  0 )
n=( 1  3 )
l=( 4  4 )
num_ms=9
< -4  4 >:  -1.858716124389664e-5
< -3  3 >:  1.8587161243896636e-5
< -2  2 >:  -1.8587161243896636e-5
< -1  1 >:  1.8587161243896636e-5
< 0  0 >:  -1.8587161243896636e-5
< 1  -1 >:  1.8587161243896636e-5
< 2  -2 >:  -1.8587161243896636e-5
< 3  -3 >:  1.8587161243896636e-5
< 4  -4 >:  -1.8587161243896636e-5
ctilde_basis_func: rank=2 ndens=1 mu0=0 mu=( 0  0 )
n=( 2  5 )
l=( 3  3 )
num_ms=7
< -3  3 >:  8.12255729122919e-5
< -2  2 >:  -8.12255729122919e-5
< -1  1 >:  8.12255729122919e-5
< 0  0 >:  -8.12255729122919e-5
< 1  -1 >:  8.12255729122919e-5
< 2  -2 >:  -8.12255729122919e-5
< 3  -3 >:  8.12255729122919e-5
ctilde_basis_func: rank=2 ndens=1 mu0=0 mu=( 0  0 )
n=( 1  13 )
l=( 1  1 )
num_ms=3
< -1  1 >:  2.2338039551021716e-7
< 0  0 >:  -2.2338039551021716e-7
< 1  -1 >:  2.2338039551021716e-7
ctilde_basis_func: rank=2 ndens=1 mu0=0 mu=( 0  0 )
n=( 2  3 )
l=( 5  5 )
num_ms=11
< -5  5 >:  -0.00018201736742921713
< -4  4 >:  0.00018201736742921724
< -3  3 >:  -0.00018201736742921724
< -2  2 >:  0.00018201736742921724
< -1  1 >:  -0.00018201736742921724
< 0  0 >:  0.00018201736742921724
< 1  -1 >:  -0.00018201736742921724
< 2  -2 >:  0.00018201736742921724
< 3  -3 >:  -0.00018201736742921724
< 4  -4 >:  0.00018201736742921724
< 5  -5 >:  -0.00018201736742921724
ctilde_basis_func: rank=2 ndens=1 mu0=0 mu=( 0  0 )
n=( 6  8 )
l=( 1  1 )
num_ms=3
< -1  1 >:  4.753746618477907e-6
< 0  0 >:  -4.753746618477907e-6
< 1  -1 >:  4.753746618477907e-6
ctilde_basis_func: rank=2 ndens=1 mu0=0 mu=( 0  0 )
n=( 1  2 )
l=( 5  5 )
num_ms=11
< -5  5 >:  -8.84059614417293e-5
< -4  4 >:  8.840596144172935e-5
< -3  3 >:  -8.840596144172935e-5
< -2  2 >:  8.840596144172935e-5
< -1  1 >:  -8.840596144172935e-5
< 0  0 >:  8.840596144172935e-5
< 1  -1 >:  -8.840596144172935e-5
< 2  -2 >:  8.840596144172935e-5
< 3  -3 >:  -8.840596144172935e-5
< 4  -4 >:  8.840596144172935e-5
< 5  -5 >:  -8.840596144172935e-5
ctilde_basis_func: rank=2 ndens=1 mu0=0 mu=( 0  0 )
n=( 1  10 )
l=( 2  2 )
num_ms=5
< -2  2 >:  -1.7530264435526607e-5
< -1  1 >:  1.7530264435526607e-5
< 0  0 >:  -1.7530264435526607e-5
< 1  -1 >:  1.7530264435526607e-5
< 2  -2 >:  -1.7530264435526607e-5
ctilde_basis_func: rank=2 ndens=1 mu0=0 mu=( 0  0 )
n=( 2  8 )
l=( 2  2 )
num_ms=5
< -2  2 >:  4.489992741745563e-5
< -1  1 >:  -4.489992741745563e-5
< 0  0 >:  4.489992741745563e-5
< 1  -1 >:  -4.489992741745563e-5
< 2  -2 >:  4.489992741745563e-5
ctilde_basis_func: rank=2 ndens=1 mu0=0 mu=( 0  0 )
n=( 2  3 )
l=( 3  3 )
num_ms=7
< -3  3 >:  -0.0001483725956110446
< -2  2 >:  0.0001483725956110446
< -1  1 >:  -0.0001483725956110446
< 0  0 >:  0.0001483725956110446
< 1  -1 >:  -0.0001483725956110446
< 2  -2 >:  0.0001483725956110446
< 3  -3 >:  -0.0001483725956110446
ctilde_basis_func: rank=2 ndens=1 mu0=0 mu=( 0  0 )
n=( 3  6 )
l=( 3  3 )
num_ms=7
< -3  3 >:  5.1639692466987415e-5
< -2  2 >:  -5.1639692466987415e-5
< -1  1 >:  5.1639692466987415e-5
< 0  0 >:  -5.1639692466987415e-5
< 1  -1 >:  5.1639692466987415e-5
< 2  -2 >:  -5.1639692466987415e-5
< 3  -3 >:  5.1639692466987415e-5
ctilde_basis_func: rank=2 ndens=1 mu0=0 mu=( 0  0 )
n=( 3  4 )
l=( 3  3 )
num_ms=7
< -3  3 >:  7.699719878775756e-5
< -2  2 >:  -7.699719878775756e-5
< -1  1 >:  7.699719878775756e-5
< 0  0 >:  -7.699719878775756e-5
< 1  -1 >:  7.699719878775756e-5
< 2  -2 >:  -7.699719878775756e-5
< 3  -3 >:  7.699719878775756e-5
ctilde_basis_func: rank=2 ndens=1 mu0=0 mu=( 0  0 )
n=( 6  6 )
l=( 1  1 )
num_ms=2
< -1  1 >:  0.000391009331903389
< 0  0 >:  -0.0001955046659516945
ctilde_basis_func: rank=2 ndens=1 mu0=0 mu=( 0  0 )
n=( 2  6 )
l=( 0  0 )
num_ms=1
< 0  0 >:  -6.387998282431916e-5
ctilde_basis_func: rank=2 ndens=1 mu0=0 mu=( 0  0 )
n=( 3  9 )
l=( 0  0 )
num_ms=1
< 0  0 >:  2.8354635916455687e-5
ctilde_basis_func: rank=2 ndens=1 mu0=0 mu=( 0  0 )
n=( 3  12 )
l=( 1  1 )
num_ms=3
< -1  1 >:  -1.6367256811379858e-5
< 0  0 >:  1.6367256811379858e-5
< 1  -1 >:  -1.6367256811379858e-5
ctilde_basis_func: rank=2 ndens=1 mu0=0 mu=( 0  0 )
n=( 2  6 )
l=( 1  1 )
num_ms=3
< -1  1 >:  -3.047962576546934e-6
< 0  0 >:  3.047962576546934e-6
< 1  -1 >:  -3.047962576546934e-6
ctilde_basis_func: rank=2 ndens=1 mu0=0 mu=( 0  0 )
n=( 2  5 )
l=( 4  4 )
num_ms=9
< -4  4 >:  4.905429731491413e-5
< -3  3 >:  -4.9054297314914125e-5
< -2  2 >:  4.9054297314914125e-5
< -1  1 >:  -4.9054297314914125e-5
< 0  0 >:  4.9054297314914125e-5
< 1  -1 >:  -4.9054297314914125e-5
< 2  -2 >:  4.9054297314914125e-5
< 3  -3 >:  -4.9054297314914125e-5
< 4  -4 >:  4.9054297314914125e-5
ctilde_basis_func: rank=2 ndens=1 mu0=0 mu=( 0  0 )
n=( 6  6 )
l=( 0  0 )
num_ms=1
< 0  0 >:  -0.00015594924039183158
ctilde_basis_func: rank=2 ndens=1 mu0=0 mu=( 0  0 )
n=( 1  4 )
l=( 2  2 )
num_ms=5
< -2  2 >:  0.0004644345507017866
< -1  1 >:  -0.0004644345507017866
< 0  0 >:  0.0004644345507017866
< 1  -1 >:  -0.0004644345507017866
< 2  -2 >:  0.0004644345507017866
ctilde_basis_func: rank=2 ndens=1 mu0=0 mu=( 0  0 )
n=( 2  6 )
l=( 3  3 )
num_ms=7
< -3  3 >:  -8.070466225004154e-5
< -2  2 >:  8.070466225004154e-5
< -1  1 >:  -8.070466225004154e-5
< 0  0 >:  8.070466225004154e-5
< 1  -1 >:  -8.070466225004154e-5
< 2  -2 >:  8.070466225004154e-5
< 3  -3 >:  -8.070466225004154e-5
ctilde_basis_func: rank=2 ndens=1 mu0=0 mu=( 0  0 )
n=( 2  4 )
l=( 1  1 )
num_ms=3
< -1  1 >:  8.101260434061998e-5
< 0  0 >:  -8.101260434061998e-5
< 1  -1 >:  8.101260434061998e-5
ctilde_basis_func: rank=2 ndens=1 mu0=0 mu=( 0  0 )
n=( 1  9 )
l=( 3  3 )
num_ms=7
< -3  3 >:  1.9034037371926328e-5
< -2  2 >:  -1.9034037371926328e-5
< -1  1 >:  1.9034037371926328e-5
< 0  0 >:  -1.9034037371926328e-5
< 1  -1 >:  1.9034037371926328e-5
< 2  -2 >:  -1.9034037371926328e-5
< 3  -3 >:  1.9034037371926328e-5
ctilde_basis_func: rank=2 ndens=1 mu0=0 mu=( 0  0 )
n=( 1  6 )
l=( 1  1 )
num_ms=3
< -1  1 >:  -9.067693037557134e-5
< 0  0 >:  9.067693037557134e-5
< 1  -1 >:  -9.067693037557134e-5
ctilde_basis_func: rank=2 ndens=1 mu0=0 mu=( 0  0 )
n=( 2  4 )
l=( 4  4 )
num_ms=9
< -4  4 >:  -3.968160055162807e-5
< -3  3 >:  3.968160055162806e-5
< -2  2 >:  -3.968160055162806e-5
< -1  1 >:  3.968160055162806e-5
< 0  0 >:  -3.968160055162806e-5
< 1  -1 >:  3.968160055162806e-5
< 2  -2 >:  -3.968160055162806e-5
< 3  -3 >:  3.968160055162806e-5
< 4  -4 >:  -3.968160055162806e-5
ctilde_basis_func: rank=2 ndens=1 mu0=0 mu=( 0  0 )
n=( 1  6 )
l=( 4  4 )
num_ms=9
< -4  4 >:  3.9371939425466386e-5
< -3  3 >:  -3.937193942546638e-5
< -2  2 >:  3.937193942546638e-5
< -1  1 >:  -3.937193942546638e-5
< 0  0 >:  3.937193942546638e-5
< 1  -1 >:  -3.937193942546638e-5
< 2  -2 >:  3.937193942546638e-5
< 3  -3 >:  -3.937193942546638e-5
< 4  -4 >:  3.937193942546638e-5
ctilde_basis_func: rank=2 ndens=1 mu0=0 mu=( 0  0 )
n=( 4  7 )
l=( 2  2 )
num_ms=5
< -2  2 >:  -9.082574846525143e-5
< -1  1 >:  9.082574846525143e-5
< 0  0 >:  -9.082574846525143e-5
< 1  -1 >:  9.082574846525143e-5
< 2  -2 >:  -9.082574846525143e-5
ctilde_basis_func: rank=2 ndens=1 mu0=0 mu=( 0  0 )
n=( 1  4 )
l=( 5  5 )
num_ms=11
< -5  5 >:  0.00010881376901036678
< -4  4 >:  -0.00010881376901036685
< -3  3 >:  0.00010881376901036685
< -2  2 >:  -0.00010881376901036685
< -1  1 >:  0.00010881376901036685
< 0  0 >:  -0.00010881376901036685
< 1  -1 >:  0.00010881376901036685
< 2  -2 >:  -0.00010881376901036685
< 3  -3 >:  0.00010881376901036685
< 4  -4 >:  -0.00010881376901036685
< 5  -5 >:  0.00010881376901036685
ctilde_basis_func: rank=2 ndens=1 mu0=0 mu=( 0  0 )
n=( 1  10 )
l=( 0  0 )
num_ms=1
< 0  0 >:  -3.789270588785696e-5
ctilde_basis_func: rank=2 ndens=1 mu0=0 mu=( 0  0 )
n=( 1  6 )
l=( 3  3 )
num_ms=7
< -3  3 >:  -3.092898295449807e-5
< -2  2 >:  3.092898295449807e-5
< -1  1 >:  -3.092898295449807e-5
< 0  0 >:  3.092898295449807e-5
< 1  -1 >:  -3.092898295449807e-5
< 2  -2 >:  3.092898295449807e-5
< 3  -3 >:  -3.092898295449807e-5
ctilde_basis_func: rank=2 ndens=1 mu0=0 mu=( 0  0 )
n=( 5  6 )
l=( 0  0 )
num_ms=1
< 0  0 >:  0.00011524617048481374
ctilde_basis_func: rank=2 ndens=1 mu0=0 mu=( 0  0 )
n=( 2  8 )
l=( 3  3 )
num_ms=7
< -3  3 >:  7.397400868420849e-6
< -2  2 >:  -7.397400868420849e-6
< -1  1 >:  7.397400868420849e-6
< 0  0 >:  -7.397400868420849e-6
< 1  -1 >:  7.397400868420849e-6
< 2  -2 >:  -7.397400868420849e-6
< 3  -3 >:  7.397400868420849e-6
ctilde_basis_func: rank=2 ndens=1 mu0=0 mu=( 0  0 )
n=( 2  6 )
l=( 2  2 )
num_ms=5
< -2  2 >:  3.4572296635266196e-5
< -1  1 >:  -3.4572296635266196e-5
< 0  0 >:  3.4572296635266196e-5
< 1  -1 >:  -3.4572296635266196e-5
< 2  -2 >:  3.4572296635266196e-5
ctilde_basis_func: rank=2 ndens=1 mu0=0 mu=( 0  0 )
n=( 1  5 )
l=( 2  2 )
num_ms=5
< -2  2 >:  -8.954665243996765e-5
< -1  1 >:  8.954665243996765e-5
< 0  0 >:  -8.954665243996765e-5
< 1  -1 >:  8.954665243996765e-5
< 2  -2 >:  -8.954665243996765e-5
ctilde_basis_func: rank=2 ndens=1 mu0=0 mu=( 0  0 )
n=( 1  4 )
l=( 4  4 )
num_ms=9
< -4  4 >:  2.382943624428653e-5
< -3  3 >:  -2.3829436244286526e-5
< -2  2 >:  2.3829436244286526e-5
< -1  1 >:  -2.3829436244286526e-5
< 0  0 >:  2.3829436244286526e-5
< 1  -1 >:  -2.3829436244286526e-5
< 2  -2 >:  2.3829436244286526e-5
< 3  -3 >:  -2.3829436244286526e-5
< 4  -4 >:  2.3829436244286526e-5
ctilde_basis_func: rank=2 ndens=1 mu0=0 mu=( 0  0 )
n=( 1  7 )
l=( 2  2 )
num_ms=5
< -2  2 >:  8.437984910181683e-5
< -1  1 >:  -8.437984910181683e-5
< 0  0 >:  8.437984910181683e-5
< 1  -1 >:  -8.437984910181683e-5
< 2  -2 >:  8.437984910181683e-5
ctilde_basis_func: rank=2 ndens=1 mu0=0 mu=( 0  0 )
n=( 3  8 )
l=( 2  2 )
num_ms=5
< -2  2 >:  -0.00012733746040193347
< -1  1 >:  0.00012733746040193347
< 0  0 >:  -0.00012733746040193347
< 1  -1 >:  0.00012733746040193347
< 2  -2 >:  -0.00012733746040193347
ctilde_basis_func: rank=2 ndens=1 mu0=0 mu=( 0  0 )
n=( 3  9 )
l=( 2  2 )
num_ms=5
< -2  2 >:  -2.3727310972102244e-5
< -1  1 >:  2.3727310972102244e-5
< 0  0 >:  -2.3727310972102244e-5
< 1  -1 >:  2.3727310972102244e-5
< 2  -2 >:  -2.3727310972102244e-5
ctilde_basis_func: rank=2 ndens=1 mu0=0 mu=( 0  0 )
n=( 4  10 )
l=( 1  1 )
num_ms=3
< -1  1 >:  5.273190227550654e-6
< 0  0 >:  -5.273190227550654e-6
< 1  -1 >:  5.273190227550654e-6
ctilde_basis_func: rank=2 ndens=1 mu0=0 mu=( 0  0 )
n=( 1  3 )
l=( 3  3 )
num_ms=7
< -3  3 >:  -3.461418017155574e-5
< -2  2 >:  3.461418017155574e-5
< -1  1 >:  -3.461418017155574e-5
< 0  0 >:  3.461418017155574e-5
< 1  -1 >:  -3.461418017155574e-5
< 2  -2 >:  3.461418017155574e-5
< 3  -3 >:  -3.461418017155574e-5
ctilde_basis_func: rank=2 ndens=1 mu0=0 mu=( 0  0 )
n=( 1  2 )
l=( 1  1 )
num_ms=3
< -1  1 >:  -0.0008090290881191986
< 0  0 >:  0.0008090290881191986
< 1  -1 >:  -0.0008090290881191986
ctilde_basis_func: rank=2 ndens=1 mu0=0 mu=( 0  0 )
n=( 2  7 )
l=( 2  2 )
num_ms=5
< -2  2 >:  3.997323176382324e-5
< -1  1 >:  -3.997323176382324e-5
< 0  0 >:  3.997323176382324e-5
< 1  -1 >:  -3.997323176382324e-5
< 2  -2 >:  3.997323176382324e-5
ctilde_basis_func: rank=2 ndens=1 mu0=0 mu=( 0  0 )
n=( 2  2 )
l=( 4  4 )
num_ms=5
< -4  4 >:  -0.0001681073098743283
< -3  3 >:  0.0001681073098743283
< -2  2 >:  -0.0001681073098743283
< -1  1 >:  0.0001681073098743283
< 0  0 >:  -8.405365493716416e-5
ctilde_basis_func: rank=2 ndens=1 mu0=0 mu=( 0  0 )
n=( 1  7 )
l=( 3  3 )
num_ms=7
< -3  3 >:  -4.906876873760932e-6
< -2  2 >:  4.906876873760932e-6
< -1  1 >:  -4.906876873760932e-6
< 0  0 >:  4.906876873760932e-6
< 1  -1 >:  -4.906876873760932e-6
< 2  -2 >:  4.906876873760932e-6
< 3  -3 >:  -4.906876873760932e-6
ctilde_basis_func: rank=2 ndens=1 mu0=0 mu=( 0  0 )
n=( 1  11 )
l=( 2  2 )
num_ms=5
< -2  2 >:  -2.7208739735224584e-5
< -1  1 >:  2.7208739735224584e-5
< 0  0 >:  -2.7208739735224584e-5
< 1  -1 >:  2.7208739735224584e-5
< 2  -2 >:  -2.7208739735224584e-5
ctilde_basis_func: rank=2 ndens=1 mu0=0 mu=( 0  0 )
n=( 2  9 )
l=( 0  0 )
num_ms=1
< 0  0 >:  -2.660712205745662e-5
ctilde_basis_func: rank=2 ndens=1 mu0=0 mu=( 0  0 )
n=( 4  7 )
l=( 0  0 )
num_ms=1
< 0  0 >:  2.2990889911446906e-5
ctilde_basis_func: rank=2 ndens=1 mu0=0 mu=( 0  0 )
n=( 2  4 )
l=( 2  2 )
num_ms=5
< -2  2 >:  -8.97694381473935e-5
< -1  1 >:  8.97694381473935e-5
< 0  0 >:  -8.97694381473935e-5
< 1  -1 >:  8.97694381473935e-5
< 2  -2 >:  -8.97694381473935e-5
ctilde_basis_func: rank=2 ndens=1 mu0=0 mu=( 0  0 )
n=( 3  5 )
l=( 2  2 )
num_ms=5
< -2  2 >:  -0.00020064427463595665
< -1  1 >:  0.00020064427463595665
< 0  0 >:  -0.00020064427463595665
< 1  -1 >:  0.00020064427463595665
< 2  -2 >:  -0.00020064427463595665
ctilde_basis_func: rank=2 ndens=1 mu0=0 mu=( 0  0 )
n=( 1  7 )
l=( 1  1 )
num_ms=3
< -1  1 >:  2.691291236640824e-6
< 0  0 >:  -2.691291236640824e-6
< 1  -1 >:  2.691291236640824e-6
ctilde_basis_func: rank=2 ndens=1 mu0=0 mu=( 0  0 )
n=( 2  3 )
l=( 1  1 )
num_ms=3
< -1  1 >:  -0.0004890288471488446
< 0  0 >:  0.0004890288471488446
< 1  -1 >:  -0.0004890288471488446
ctilde_basis_func: rank=2 ndens=1 mu0=0 mu=( 0  0 )
n=( 7  10 )
l=( 0  0 )
num_ms=1
< 0  0 >:  3.179389491889795e-5
ctilde_basis_func: rank=2 ndens=1 mu0=0 mu=( 0  0 )
n=( 1  1 )
l=( 2  2 )
num_ms=3
< -2  2 >:  -0.0009589269985821588
< -1  1 >:  0.0009589269985821588
< 0  0 >:  -0.0004794634992910794
ctilde_basis_func: rank=2 ndens=1 mu0=0 mu=( 0  0 )
n=( 2  5 )
l=( 2  2 )
num_ms=5
< -2  2 >:  0.00010228014009234918
< -1  1 >:  -0.00010228014009234918
< 0  0 >:  0.00010228014009234918
< 1  -1 >:  -0.00010228014009234918
< 2  -2 >:  0.00010228014009234918
ctilde_basis_func: rank=2 ndens=1 mu0=0 mu=( 0  0 )
n=( 1  2 )
l=( 3  3 )
num_ms=7
< -3  3 >:  3.076495424860731e-5
< -2  2 >:  -3.076495424860731e-5
< -1  1 >:  3.076495424860731e-5
< 0  0 >:  -3.076495424860731e-5
< 1  -1 >:  3.076495424860731e-5
< 2  -2 >:  -3.076495424860731e-5
< 3  -3 >:  3.076495424860731e-5
ctilde_basis_func: rank=2 ndens=1 mu0=0 mu=( 0  0 )
n=( 4  10 )
l=( 0  0 )
num_ms=1
< 0  0 >:  4.660203304300642e-5
ctilde_basis_func: rank=2 ndens=1 mu0=0 mu=( 0  0 )
n=( 3  7 )
l=( 2  2 )
num_ms=5
< -2  2 >:  -1.3494338308807399e-5
< -1  1 >:  1.3494338308807399e-5
< 0  0 >:  -1.3494338308807399e-5
< 1  -1 >:  1.3494338308807399e-5
< 2  -2 >:  -1.3494338308807399e-5
ctilde_basis_func: rank=2 ndens=1 mu0=0 mu=( 0  0 )
n=( 1  9 )
l=( 0  0 )
num_ms=1
< 0  0 >:  3.333062509854891e-5
ctilde_basis_func: rank=2 ndens=1 mu0=0 mu=( 0  0 )
n=( 3  7 )
l=( 3  3 )
num_ms=7
< -3  3 >:  -3.895608601486691e-5
< -2  2 >:  3.895608601486691e-5
< -1  1 >:  -3.895608601486691e-5
< 0  0 >:  3.895608601486691e-5
< 1  -1 >:  -3.895608601486691e-5
< 2  -2 >:  3.895608601486691e-5
< 3  -3 >:  -3.895608601486691e-5
ctilde_basis_func: rank=2 ndens=1 mu0=0 mu=( 0  0 )
n=( 6  7 )
l=( 1  1 )
num_ms=3
< -1  1 >:  -3.592072236575168e-5
< 0  0 >:  3.592072236575168e-5
< 1  -1 >:  -3.592072236575168e-5
ctilde_basis_func: rank=2 ndens=1 mu0=0 mu=( 0  0 )
n=( 3  6 )
l=( 2  2 )
num_ms=5
< -2  2 >:  -6.59221859153991e-5
< -1  1 >:  6.59221859153991e-5
< 0  0 >:  -6.59221859153991e-5
< 1  -1 >:  6.59221859153991e-5
< 2  -2 >:  -6.59221859153991e-5
ctilde_basis_func: rank=2 ndens=1 mu0=0 mu=( 0  0 )
n=( 1  1 )
l=( 0  0 )
num_ms=1
< 0  0 >:  0.026200968824087012
ctilde_basis_func: rank=2 ndens=1 mu0=0 mu=( 0  0 )
n=( 1  8 )
l=( 3  3 )
num_ms=7
< -3  3 >:  1.3708122617428773e-5
< -2  2 >:  -1.3708122617428773e-5
< -1  1 >:  1.3708122617428773e-5
< 0  0 >:  -1.3708122617428773e-5
< 1  -1 >:  1.3708122617428773e-5
< 2  -2 >:  -1.3708122617428773e-5
< 3  -3 >:  1.3708122617428773e-5
ctilde_basis_func: rank=2 ndens=1 mu0=0 mu=( 0  0 )
n=( 1  1 )
l=( 1  1 )
num_ms=2
< -1  1 >:  0.0026992634248417043
< 0  0 >:  -0.0013496317124208521
ctilde_basis_func: rank=2 ndens=1 mu0=0 mu=( 0  0 )
n=( 3  7 )
l=( 0  0 )
num_ms=1
< 0  0 >:  -1.8965368121756865e-5
ctilde_basis_func: rank=2 ndens=1 mu0=0 mu=( 0  0 )
n=( 3  11 )
l=( 1  1 )
num_ms=3
< -1  1 >:  1.4972611188727343e-5
< 0  0 >:  -1.4972611188727343e-5
< 1  -1 >:  1.4972611188727343e-5
ctilde_basis_func: rank=2 ndens=1 mu0=0 mu=( 0  0 )
n=( 5  6 )
l=( 2  2 )
num_ms=5
< -2  2 >:  -0.00015625088480185857
< -1  1 >:  0.00015625088480185857
< 0  0 >:  -0.00015625088480185857
< 1  -1 >:  0.00015625088480185857
< 2  -2 >:  -0.00015625088480185857
ctilde_basis_func: rank=2 ndens=1 mu0=0 mu=( 0  0 )
n=( 1  7 )
l=( 0  0 )
num_ms=1
< 0  0 >:  4.11014627807082e-5
ctilde_basis_func: rank=2 ndens=1 mu0=0 mu=( 0  0 )
n=( 3  4 )
l=( 2  2 )
num_ms=5
< -2  2 >:  0.0003024655076649131
< -1  1 >:  -0.0003024655076649131
< 0  0 >:  0.0003024655076649131
< 1  -1 >:  -0.0003024655076649131
< 2  -2 >:  0.0003024655076649131
ctilde_basis_func: rank=2 ndens=1 mu0=0 mu=( 0  0 )
n=( 1  10 )
l=( 1  1 )
num_ms=3
< -1  1 >:  1.3668875179135704e-5
< 0  0 >:  -1.3668875179135704e-5
< 1  -1 >:  1.3668875179135704e-5
ctilde_basis_func: rank=2 ndens=1 mu0=0 mu=( 0  0 )
n=( 1  2 )
l=( 2  2 )
num_ms=5
< -2  2 >:  0.0005637911868064411
< -1  1 >:  -0.0005637911868064411
< 0  0 >:  0.0005637911868064411
< 1  -1 >:  -0.0005637911868064411
< 2  -2 >:  0.0005637911868064411
ctilde_basis_func: rank=2 ndens=1 mu0=0 mu=( 0  0 )
n=( 6  8 )
l=( 0  0 )
num_ms=1
< 0  0 >:  -4.644541498908489e-5
ctilde_basis_func: rank=2 ndens=1 mu0=0 mu=( 0  0 )
n=( 3  13 )
l=( 0  0 )
num_ms=1
< 0  0 >:  -2.11394658768896e-5
ctilde_basis_func: rank=2 ndens=1 mu0=0 mu=( 0  0 )
n=( 4  8 )
l=( 1  1 )
num_ms=3
< -1  1 >:  -3.095895111977858e-6
< 0  0 >:  3.095895111977858e-6
< 1  -1 >:  -3.095895111977858e-6
ctilde_basis_func: rank=2 ndens=1 mu0=0 mu=( 0  0 )
n=( 1  8 )
l=( 2  2 )
num_ms=5
< -2  2 >:  -0.00010934067596974568
< -1  1 >:  0.00010934067596974568
< 0  0 >:  -0.00010934067596974568
< 1  -1 >:  0.00010934067596974568
< 2  -2 >:  -0.00010934067596974568
ctilde_basis_func: rank=2 ndens=1 mu0=0 mu=( 0  0 )
n=( 4  4 )
l=( 2  2 )
num_ms=3
< -2  2 >:  -0.000450938240118288
< -1  1 >:  0.000450938240118288
< 0  0 >:  -0.000225469120059144
ctilde_basis_func: rank=2 ndens=1 mu0=0 mu=( 0  0 )
n=( 4  5 )
l=( 2  2 )
num_ms=5
< -2  2 >:  0.00018936680400508343
< -1  1 >:  -0.00018936680400508343
< 0  0 >:  0.00018936680400508343
< 1  -1 >:  -0.00018936680400508343
< 2  -2 >:  0.00018936680400508343
ctilde_basis_func: rank=2 ndens=1 mu0=0 mu=( 0  0 )
n=( 4  8 )
l=( 2  2 )
num_ms=5
< -2  2 >:  -7.325661721046062e-6
< -1  1 >:  7.325661721046062e-6
< 0  0 >:  -7.325661721046062e-6
< 1  -1 >:  7.325661721046062e-6
< 2  -2 >:  -7.325661721046062e-6
ctilde_basis_func: rank=2 ndens=1 mu0=0 mu=( 0  0 )
n=( 1  4 )
l=( 1  1 )
num_ms=3
< -1  1 >:  -0.00016502449836727442
< 0  0 >:  0.00016502449836727442
< 1  -1 >:  -0.00016502449836727442
ctilde_basis_func: rank=2 ndens=1 mu0=0 mu=( 0  0 )
n=( 2  2 )
l=( 2  2 )
num_ms=3
< -2  2 >:  -0.0002327215533694616
< -1  1 >:  0.0002327215533694616
< 0  0 >:  -0.0001163607766847308
ctilde_basis_func: rank=2 ndens=1 mu0=0 mu=( 0  0 )
n=( 2  13 )
l=( 0  0 )
num_ms=1
< 0  0 >:  8.491690194148154e-6
ctilde_basis_func: rank=2 ndens=1 mu0=0 mu=( 0  0 )
n=( 1  14 )
l=( 0  0 )
num_ms=1
< 0  0 >:  -3.640188192993587e-6
ctilde_basis_func: rank=2 ndens=1 mu0=0 mu=( 0  0 )
n=( 1  9 )
l=( 1  1 )
num_ms=3
< -1  1 >:  2.0111476198715257e-5
< 0  0 >:  -2.0111476198715257e-5
< 1  -1 >:  2.0111476198715257e-5
ctilde_basis_func: rank=2 ndens=1 mu0=0 mu=( 0  0 )
n=( 4  6 )
l=( 1  1 )
num_ms=3
< -1  1 >:  0.00014154547385938397
< 0  0 >:  -0.00014154547385938397
< 1  -1 >:  0.00014154547385938397
ctilde_basis_func: rank=2 ndens=1 mu0=0 mu=( 0  0 )
n=( 1  1 )
l=( 6  6 )
num_ms=7
< -6  6 >:  -3.0973265700858786e-5
< -5  5 >:  3.097326570085877e-5
< -4  4 >:  -3.097326570085877e-5
< -3  3 >:  3.097326570085877e-5
< -2  2 >:  -3.097326570085877e-5
< -1  1 >:  3.097326570085877e-5
< 0  0 >:  -1.5486632850429386e-5
ctilde_basis_func: rank=2 ndens=1 mu0=0 mu=( 0  0 )
n=( 5  7 )
l=( 1  1 )
num_ms=3
< -1  1 >:  4.6788981086026174e-5
< 0  0 >:  -4.6788981086026174e-5
< 1  -1 >:  4.6788981086026174e-5
ctilde_basis_func: rank=2 ndens=1 mu0=0 mu=( 0  0 )
n=( 2  4 )
l=( 3  3 )
num_ms=7
< -3  3 >:  2.7482771809483758e-5
< -2  2 >:  -2.7482771809483758e-5
< -1  1 >:  2.7482771809483758e-5
< 0  0 >:  -2.7482771809483758e-5
< 1  -1 >:  2.7482771809483758e-5
< 2  -2 >:  -2.7482771809483758e-5
< 3  -3 >:  2.7482771809483758e-5
ctilde_basis_func: rank=2 ndens=1 mu0=0 mu=( 0  0 )
n=( 1  3 )
l=( 1  1 )
num_ms=3
< -1  1 >:  0.0001967092212841223
< 0  0 >:  -0.0001967092212841223
< 1  -1 >:  0.0001967092212841223
ctilde_basis_func: rank=2 ndens=1 mu0=0 mu=( 0  0 )
n=( 4  6 )
l=( 2  2 )
num_ms=5
< -2  2 >:  0.00010571436646576934
< -1  1 >:  -0.00010571436646576934
< 0  0 >:  0.00010571436646576934
< 1  -1 >:  -0.00010571436646576934
< 2  -2 >:  0.00010571436646576934
ctilde_basis_func: rank=2 ndens=1 mu0=0 mu=( 0  0 )
n=( 1  4 )
l=( 3  3 )
num_ms=7
< -3  3 >:  -8.020353395944207e-5
< -2  2 >:  8.020353395944207e-5
< -1  1 >:  -8.020353395944207e-5
< 0  0 >:  8.020353395944207e-5
< 1  -1 >:  -8.020353395944207e-5
< 2  -2 >:  8.020353395944207e-5
< 3  -3 >:  -8.020353395944207e-5
ctilde_basis_func: rank=2 ndens=1 mu0=0 mu=( 0  0 )
n=( 5  5 )
l=( 2  2 )
num_ms=3
< -2  2 >:  0.00024790059896839686
< -1  1 >:  -0.00024790059896839686
< 0  0 >:  0.00012395029948419843
ctilde_basis_func: rank=2 ndens=1 mu0=0 mu=( 0  0 )
n=( 5  8 )
l=( 1  1 )
num_ms=3
< -1  1 >:  -8.025939333254113e-5
< 0  0 >:  8.025939333254113e-5
< 1  -1 >:  -8.025939333254113e-5
ctilde_basis_func: rank=2 ndens=1 mu0=0 mu=( 0  0 )
n=( 2  10 )
l=( 2  2 )
num_ms=5
< -2  2 >:  2.7316662937316795e-5
< -1  1 >:  -2.7316662937316795e-5
< 0  0 >:  2.7316662937316795e-5
< 1  -1 >:  -2.7316662937316795e-5
< 2  -2 >:  2.7316662937316795e-5
ctilde_basis_func: rank=2 ndens=1 mu0=0 mu=( 0  0 )
n=( 2  15 )
l=( 0  0 )
num_ms=1
< 0  0 >:  1.1929814753909749e-5
ctilde_basis_func: rank=2 ndens=1 mu0=0 mu=( 0  0 )
n=( 2  3 )
l=( 2  2 )
num_ms=5
< -2  2 >:  0.0005310594987919058
< -1  1 >:  -0.0005310594987919058
< 0  0 >:  0.0005310594987919058
< 1  -1 >:  -0.0005310594987919058
< 2  -2 >:  0.0005310594987919058
ctilde_basis_func: rank=2 ndens=1 mu0=0 mu=( 0  0 )
n=( 1  14 )
l=( 1  1 )
num_ms=3
< -1  1 >:  -3.998475580324323e-6
< 0  0 >:  3.998475580324323e-6
< 1  -1 >:  -3.998475580324323e-6
ctilde_basis_func: rank=2 ndens=1 mu0=0 mu=( 0  0 )
n=( 3  5 )
l=( 0  0 )
num_ms=1
< 0  0 >:  1.7578173086107662e-5
ctilde_basis_func: rank=2 ndens=1 mu0=0 mu=( 0  0 )
n=( 3  3 )
l=( 2  2 )
num_ms=3
< -2  2 >:  -0.001550377779127278
< -1  1 >:  0.001550377779127278
< 0  0 >:  -0.000775188889563639
ctilde_basis_func: rank=2 ndens=1 mu0=0 mu=( 0  0 )
n=( 2  11 )
l=( 1  1 )
num_ms=3
< -1  1 >:  -1.1793453425171132e-5
< 0  0 >:  1.1793453425171132e-5
< 1  -1 >:  -1.1793453425171132e-5
ctilde_basis_func: rank=2 ndens=1 mu0=0 mu=( 0  0 )
n=( 2  3 )
l=( 4  4 )
num_ms=9
< -4  4 >:  0.0001473760364634827
< -3  3 >:  -0.00014737603646348268
< -2  2 >:  0.00014737603646348268
< -1  1 >:  -0.00014737603646348268
< 0  0 >:  0.00014737603646348268
< 1  -1 >:  -0.00014737603646348268
< 2  -2 >:  0.00014737603646348268
< 3  -3 >:  -0.00014737603646348268
< 4  -4 >:  0.00014737603646348268
ctilde_basis_func: rank=2 ndens=1 mu0=0 mu=( 0  0 )
n=( 2  2 )
l=( 5  5 )
num_ms=6
< -5  5 >:  8.19298255599148e-5
< -4  4 >:  -8.192982555991483e-5
< -3  3 >:  8.192982555991483e-5
< -2  2 >:  -8.192982555991483e-5
< -1  1 >:  8.192982555991483e-5
< 0  0 >:  -4.0964912779957415e-5
ctilde_basis_func: rank=2 ndens=1 mu0=0 mu=( 0  0 )
n=( 4  4 )
l=( 3  3 )
num_ms=4
< -3  3 >:  0.0002337130638994189
< -2  2 >:  -0.0002337130638994189
< -1  1 >:  0.0002337130638994189
< 0  0 >:  -0.00011685653194970945
ctilde_basis_func: rank=2 ndens=1 mu0=0 mu=( 0  0 )
n=( 1  6 )
l=( 2  2 )
num_ms=5
< -2  2 >:  -9.150659372268353e-5
< -1  1 >:  9.150659372268353e-5
< 0  0 >:  -9.150659372268353e-5
< 1  -1 >:  9.150659372268353e-5
< 2  -2 >:  -9.150659372268353e-5
ctilde_basis_func: rank=2 ndens=1 mu0=0 mu=( 0  0 )
n=( 5  5 )
l=( 1  1 )
num_ms=2
< -1  1 >:  0.0001751978297373802
< 0  0 >:  -8.75989148686901e-5
ctilde_basis_func: rank=2 ndens=1 mu0=0 mu=( 0  0 )
n=( 4  8 )
l=( 0  0 )
num_ms=1
< 0  0 >:  1.0796474581035497e-5
ctilde_basis_func: rank=2 ndens=1 mu0=0 mu=( 0  0 )
n=( 4  6 )
l=( 0  0 )
num_ms=1
< 0  0 >:  -3.6128434414466724e-5
ctilde_basis_func: rank=2 ndens=1 mu0=0 mu=( 0  0 )
n=( 3  9 )
l=( 1  1 )
num_ms=3
< -1  1 >:  3.4630698547362335e-5
< 0  0 >:  -3.4630698547362335e-5
< 1  -1 >:  3.4630698547362335e-5
ctilde_basis_func: rank=2 ndens=1 mu0=0 mu=( 0  0 )
n=( 4  5 )
l=( 0  0 )
num_ms=1
< 0  0 >:  0.00012224634912313292
ctilde_basis_func: rank=2 ndens=1 mu0=0 mu=( 0  0 )
n=( 1  5 )
l=( 4  4 )
num_ms=9
< -4  4 >:  -4.693820767178854e-5
< -3  3 >:  4.6938207671788535e-5
< -2  2 >:  -4.6938207671788535e-5
< -1  1 >:  4.6938207671788535e-5
< 0  0 >:  -4.6938207671788535e-5
< 1  -1 >:  4.6938207671788535e-5
< 2  -2 >:  -4.6938207671788535e-5
< 3  -3 >:  4.6938207671788535e-5
< 4  -4 >:  -4.6938207671788535e-5
ctilde_basis_func: rank=2 ndens=1 mu0=0 mu=( 0  0 )
n=( 3  4 )
l=( 1  1 )
num_ms=3
< -1  1 >:  8.480910639883695e-5
< 0  0 >:  -8.480910639883695e-5
< 1  -1 >:  8.480910639883695e-5
ctilde_basis_func: rank=2 ndens=1 mu0=0 mu=( 0  0 )
n=( 1  17 )
l=( 0  0 )
num_ms=1
< 0  0 >:  -3.4040111406871916e-6
ctilde_basis_func: rank=2 ndens=1 mu0=0 mu=( 0  0 )
n=( 5  11 )
l=( 0  0 )
num_ms=1
< 0  0 >:  2.6729608794525485e-7
ctilde_basis_func: rank=2 ndens=1 mu0=0 mu=( 0  0 )
n=( 1  2 )
l=( 4  4 )
num_ms=9
< -4  4 >:  0.0001901035459811092
< -3  3 >:  -0.00019010354598110915
< -2  2 >:  0.00019010354598110915
< -1  1 >:  -0.00019010354598110915
< 0  0 >:  0.00019010354598110915
< 1  -1 >:  -0.00019010354598110915
< 2  -2 >:  0.00019010354598110915
< 3  -3 >:  -0.00019010354598110915
< 4  -4 >:  0.00019010354598110915
ctilde_basis_func: rank=2 ndens=1 mu0=0 mu=( 0  0 )
n=( 1  1 )
l=( 4  4 )
num_ms=5
< -4  4 >:  -0.00013191707024950015
< -3  3 >:  0.00013191707024950015
< -2  2 >:  -0.00013191707024950015
< -1  1 >:  0.00013191707024950015
< 0  0 >:  -6.595853512475008e-5
ctilde_basis_func: rank=2 ndens=1 mu0=0 mu=( 0  0 )
n=( 7  8 )
l=( 1  1 )
num_ms=3
< -1  1 >:  -5.38453621917916e-6
< 0  0 >:  5.38453621917916e-6
< 1  -1 >:  -5.38453621917916e-6
ctilde_basis_func: rank=2 ndens=1 mu0=0 mu=( 0  0 )
n=( 3  12 )
l=( 0  0 )
num_ms=1
< 0  0 >:  -4.942013538603943e-7
ctilde_basis_func: rank=2 ndens=1 mu0=0 mu=( 0  0 )
n=( 3  8 )
l=( 1  1 )
num_ms=3
< -1  1 >:  -6.790519223330724e-5
< 0  0 >:  6.790519223330724e-5
< 1  -1 >:  -6.790519223330724e-5
ctilde_basis_func: rank=2 ndens=1 mu0=0 mu=( 0  0 )
n=( 4  7 )
l=( 1  1 )
num_ms=3
< -1  1 >:  -6.81729114829254e-5
< 0  0 >:  6.81729114829254e-5
< 1  -1 >:  -6.81729114829254e-5
ctilde_basis_func: rank=2 ndens=1 mu0=0 mu=( 0  0 )
n=( 3  7 )
l=( 1  1 )
num_ms=3
< -1  1 >:  3.7406165290229245e-6
< 0  0 >:  -3.7406165290229245e-6
< 1  -1 >:  3.7406165290229245e-6
ctilde_basis_func: rank=2 ndens=1 mu0=0 mu=( 0  0 )
n=( 1  5 )
l=( 1  1 )
num_ms=3
< -1  1 >:  0.00011723444539499286
< 0  0 >:  -0.00011723444539499286
< 1  -1 >:  0.00011723444539499286
ctilde_basis_func: rank=2 ndens=1 mu0=0 mu=( 0  0 )
n=( 2  2 )
l=( 3  3 )
num_ms=4
< -3  3 >:  0.00040586346410589945
< -2  2 >:  -0.00040586346410589945
< -1  1 >:  0.00040586346410589945
< 0  0 >:  -0.00020293173205294972
ctilde_basis_func: rank=2 ndens=1 mu0=0 mu=( 0  0 )
n=( 1  3 )
l=( 2  2 )
num_ms=5
< -2  2 >:  -0.0006751797532593718
< -1  1 >:  0.0006751797532593718
< 0  0 >:  -0.0006751797532593718
< 1  -1 >:  0.0006751797532593718
< 2  -2 >:  -0.0006751797532593718
ctilde_basis_func: rank=2 ndens=1 mu0=0 mu=( 0  0 )
n=( 2  11 )
l=( 0  0 )
num_ms=1
< 0  0 >:  2.374069027553545e-6
ctilde_basis_func: rank=2 ndens=1 mu0=0 mu=( 0  0 )
n=( 6  6 )
l=( 2  2 )
num_ms=3
< -2  2 >:  -4.1087651817410886e-5
< -1  1 >:  4.1087651817410886e-5
< 0  0 >:  -2.0543825908705443e-5
ctilde_basis_func: rank=2 ndens=1 mu0=0 mu=( 0  0 )
n=( 6  9 )
l=( 1  1 )
num_ms=3
< -1  1 >:  4.066545776964233e-5
< 0  0 >:  -4.066545776964233e-5
< 1  -1 >:  4.066545776964233e-5
ctilde_basis_func: rank=2 ndens=1 mu0=0 mu=( 0  0 )
n=( 3  6 )
l=( 1  1 )
num_ms=3
< -1  1 >:  4.583260052326713e-5
< 0  0 >:  -4.583260052326713e-5
< 1  -1 >:  4.583260052326713e-5
ctilde_basis_func: rank=2 ndens=1 mu0=0 mu=( 0  0 )
n=( 9  9 )
l=( 0  0 )
num_ms=1
< 0  0 >:  -5.608439614035189e-6
ctilde_basis_func: rank=2 ndens=1 mu0=0 mu=( 0  0 )
n=( 8  8 )
l=( 0  0 )
num_ms=1
< 0  0 >:  -3.910469418737082e-7
ctilde_basis_func: rank=2 ndens=1 mu0=0 mu=( 0  0 )
n=( 3  10 )
l=( 1  1 )
num_ms=3
< -1  1 >:  -4.2142410660898276e-5
< 0  0 >:  4.2142410660898276e-5
< 1  -1 >:  -4.2142410660898276e-5
ctilde_basis_func: rank=2 ndens=1 mu0=0 mu=( 0  0 )
n=( 2  5 )
l=( 1  1 )
num_ms=3
< -1  1 >:  -0.00014030029603510915
< 0  0 >:  0.00014030029603510915
< 1  -1 >:  -0.00014030029603510915
ctilde_basis_func: rank=2 ndens=1 mu0=0 mu=( 0  0 )
n=( 5  10 )
l=( 0  0 )
num_ms=1
< 0  0 >:  -4.169456281817538e-5
ctilde_basis_func: rank=2 ndens=1 mu0=0 mu=( 0  0 )
n=( 3  4 )
l=( 4  4 )
num_ms=9
< -4  4 >:  0.0001314052232148599
< -3  3 >:  -0.00013140522321485986
< -2  2 >:  0.00013140522321485986
< -1  1 >:  -0.00013140522321485986
< 0  0 >:  0.00013140522321485986
< 1  -1 >:  -0.00013140522321485986
< 2  -2 >:  0.00013140522321485986
< 3  -3 >:  -0.00013140522321485986
< 4  -4 >:  0.00013140522321485986
ctilde_basis_func: rank=2 ndens=1 mu0=0 mu=( 0  0 )
n=( 1  11 )
l=( 1  1 )
num_ms=3
< -1  1 >:  -2.5715241870758045e-5
< 0  0 >:  2.5715241870758045e-5
< 1  -1 >:  -2.5715241870758045e-5
ctilde_basis_func: rank=2 ndens=1 mu0=0 mu=( 0  0 )
n=( 2  8 )
l=( 1  1 )
num_ms=3
< -1  1 >:  -1.0934548989655177e-5
< 0  0 >:  1.0934548989655177e-5
< 1  -1 >:  -1.0934548989655177e-5
ctilde_basis_func: rank=2 ndens=1 mu0=0 mu=( 0  0 )
n=( 1  2 )
l=( 0  0 )
num_ms=1
< 0  0 >:  -0.0008074624536426418
ctilde_basis_func: rank=2 ndens=1 mu0=0 mu=( 0  0 )
n=( 4  5 )
l=( 3  3 )
num_ms=7
< -3  3 >:  -0.00010548482030035001
< -2  2 >:  0.00010548482030035001
< -1  1 >:  -0.00010548482030035001
< 0  0 >:  0.00010548482030035001
< 1  -1 >:  -0.00010548482030035001
< 2  -2 >:  0.00010548482030035001
< 3  -3 >:  -0.00010548482030035001
ctilde_basis_func: rank=2 ndens=1 mu0=0 mu=( 0  0 )
n=( 2  2 )
l=( 1  1 )
num_ms=2
< -1  1 >:  0.0011552586168227057
< 0  0 >:  -0.0005776293084113528
ctilde_basis_func: rank=2 ndens=1 mu0=0 mu=( 0  0 )
n=( 1  16 )
l=( 0  0 )
num_ms=1
< 0  0 >:  4.7618434035796194e-6
ctilde_basis_func: rank=2 ndens=1 mu0=0 mu=( 0  0 )
n=( 2  7 )
l=( 1  1 )
num_ms=3
< -1  1 >:  -3.983252705213539e-5
< 0  0 >:  3.983252705213539e-5
< 1  -1 >:  -3.983252705213539e-5
ctilde_basis_func: rank=2 ndens=1 mu0=0 mu=( 0  0 )
n=( 1  12 )
l=( 1  1 )
num_ms=3
< -1  1 >:  5.519767313446587e-6
< 0  0 >:  -5.519767313446587e-6
< 1  -1 >:  5.519767313446587e-6
ctilde_basis_func: rank=2 ndens=1 mu0=0 mu=( 0  0 )
n=( 7  9 )
l=( 0  0 )
num_ms=1
< 0  0 >:  -7.092661978619389e-6
ctilde_basis_func: rank=2 ndens=1 mu0=0 mu=( 0  0 )
n=( 3  8 )
l=( 0  0 )
num_ms=1
< 0  0 >:  -4.7326955455559276e-5
ctilde_basis_func: rank=2 ndens=1 mu0=0 mu=( 0  0 )
n=( 3  3 )
l=( 1  1 )
num_ms=2
< -1  1 >:  0.000291942204450002
< 0  0 >:  -0.000145971102225001
ctilde_basis_func: rank=2 ndens=1 mu0=0 mu=( 0  0 )
n=( 7  7 )
l=( 1  1 )
num_ms=2
< -1  1 >:  4.2010473174702016e-5
< 0  0 >:  -2.1005236587351008e-5
ctilde_basis_func: rank=2 ndens=1 mu0=0 mu=( 0  0 )
n=( 2  10 )
l=( 0  0 )
num_ms=1
< 0  0 >:  1.9835471773505077e-5
ctilde_basis_func: rank=2 ndens=1 mu0=0 mu=( 0  0 )
n=( 1  8 )
l=( 1  1 )
num_ms=3
< -1  1 >:  -3.187469826160015e-5
< 0  0 >:  3.187469826160015e-5
< 1  -1 >:  -3.187469826160015e-5
ctilde_basis_func: rank=2 ndens=1 mu0=0 mu=( 0  0 )
n=( 5  13 )
l=( 0  0 )
num_ms=1
< 0  0 >:  -1.0522247836247644e-5
ctilde_basis_func: rank=2 ndens=1 mu0=0 mu=( 0  0 )
n=( 6  7 )
l=( 0  0 )
num_ms=1
< 0  0 >:  8.883384138684797e-5
ctilde_basis_func: rank=2 ndens=1 mu0=0 mu=( 0  0 )
n=( 2  14 )
l=( 0  0 )
num_ms=1
< 0  0 >:  5.953942465940416e-7
ctilde_basis_func: rank=2 ndens=1 mu0=0 mu=( 0  0 )
n=( 6  10 )
l=( 0  0 )
num_ms=1
< 0  0 >:  -7.60634362560911e-6
ctilde_basis_func: rank=2 ndens=1 mu0=0 mu=( 0  0 )
n=( 4  4 )
l=( 0  0 )
num_ms=1
< 0  0 >:  -2.5303797700628986e-5
ctilde_basis_func: rank=2 ndens=1 mu0=0 mu=( 0  0 )
n=( 2  9 )
l=( 1  1 )
num_ms=3
< -1  1 >:  -3.657073857164976e-5
< 0  0 >:  3.657073857164976e-5
< 1  -1 >:  -3.657073857164976e-5
ctilde_basis_func: rank=2 ndens=1 mu0=0 mu=( 0  0 )
n=( 1  1 )
l=( 3  3 )
num_ms=4
< -3  3 >:  0.0011626540967424946
< -2  2 >:  -0.0011626540967424946
< -1  1 >:  0.0011626540967424946
< 0  0 >:  -0.0005813270483712473
ctilde_basis_func: rank=2 ndens=1 mu0=0 mu=( 0  0 )
n=( 2  4 )
l=( 0  0 )
num_ms=1
< 0  0 >:  -9.401793318021947e-6
ctilde_basis_func: rank=2 ndens=1 mu0=0 mu=( 0  0 )
n=( 3  15 )
l=( 0  0 )
num_ms=1
< 0  0 >:  -3.236221848500372e-6
ctilde_basis_func: rank=2 ndens=1 mu0=0 mu=( 0  0 )
n=( 2  10 )
l=( 1  1 )
num_ms=3
< -1  1 >:  -8.060106026055886e-6
< 0  0 >:  8.060106026055886e-6
< 1  -1 >:  -8.060106026055886e-6
ctilde_basis_func: rank=2 ndens=1 mu0=0 mu=( 0  0 )
n=( 3  14 )
l=( 0  0 )
num_ms=1
< 0  0 >:  2.833435259733394e-6
ctilde_basis_func: rank=2 ndens=1 mu0=0 mu=( 0  0 )
n=( 2  13 )
l=( 1  1 )
num_ms=3
< -1  1 >:  2.2783531019497432e-5
< 0  0 >:  -2.2783531019497432e-5
< 1  -1 >:  2.2783531019497432e-5
ctilde_basis_func: rank=2 ndens=1 mu0=0 mu=( 0  0 )
n=( 6  11 )
l=( 0  0 )
num_ms=1
< 0  0 >:  2.553405677131235e-5
ctilde_basis_func: rank=2 ndens=1 mu0=0 mu=( 0  0 )
n=( 5  7 )
l=( 2  2 )
num_ms=5
< -2  2 >:  5.59557533972513e-5
< -1  1 >:  -5.59557533972513e-5
< 0  0 >:  5.59557533972513e-5
< 1  -1 >:  -5.59557533972513e-5
< 2  -2 >:  5.59557533972513e-5
ctilde_basis_func: rank=2 ndens=1 mu0=0 mu=( 0  0 )
n=( 5  8 )
l=( 0  0 )
num_ms=1
< 0  0 >:  1.1528515534620934e-5
ctilde_basis_func: rank=2 ndens=1 mu0=0 mu=( 0  0 )
n=( 7  11 )
l=( 0  0 )
num_ms=1
< 0  0 >:  2.6009672099453283e-6
ctilde_basis_func: rank=2 ndens=1 mu0=0 mu=( 0  0 )
n=( 1  4 )
l=( 0  0 )
num_ms=1
< 0  0 >:  -0.0002654879920294348
ctilde_basis_func: rank=2 ndens=1 mu0=0 mu=( 0  0 )
n=( 5  10 )
l=( 1  1 )
num_ms=3
< -1  1 >:  -3.771629683460922e-5
< 0  0 >:  3.771629683460922e-5
< 1  -1 >:  -3.771629683460922e-5
ctilde_basis_func: rank=2 ndens=1 mu0=0 mu=( 0  0 )
n=( 1  3 )
l=( 0  0 )
num_ms=1
< 0  0 >:  0.0010499825051522034
ctilde_basis_func: rank=2 ndens=1 mu0=0 mu=( 0  0 )
n=( 5  9 )
l=( 0  0 )
num_ms=1
< 0  0 >:  2.5174715397080232e-5
ctilde_basis_func: rank=2 ndens=1 mu0=0 mu=( 0  0 )
n=( 4  9 )
l=( 0  0 )
num_ms=1
< 0  0 >:  -3.7400477908361764e-5
ctilde_basis_func: rank=2 ndens=1 mu0=0 mu=( 0  0 )
n=( 2  3 )
l=( 0  0 )
num_ms=1
< 0  0 >:  -0.00044941928534485446
ctilde_basis_func: rank=2 ndens=1 mu0=0 mu=( 0  0 )
n=( 2  12 )
l=( 1  1 )
num_ms=3
< -1  1 >:  -7.826927782061705e-6
< 0  0 >:  7.826927782061705e-6
< 1  -1 >:  -7.826927782061705e-6
ctilde_basis_func: rank=2 ndens=1 mu0=0 mu=( 0  0 )
n=( 2  7 )
l=( 0  0 )
num_ms=1
< 0  0 >:  4.1104110581809956e-5
ctilde_basis_func: rank=2 ndens=1 mu0=0 mu=( 0  0 )
n=( 1  11 )
l=( 0  0 )
num_ms=1
< 0  0 >:  3.216450985048834e-6
ctilde_basis_func: rank=2 ndens=1 mu0=0 mu=( 0  0 )
n=( 2  8 )
l=( 0  0 )
num_ms=1
< 0  0 >:  1.9684263667760317e-5
ctilde_basis_func: rank=2 ndens=1 mu0=0 mu=( 0  0 )
n=( 8  9 )
l=( 0  0 )
num_ms=1
< 0  0 >:  5.8851075700306625e-6
ctilde_basis_func: rank=2 ndens=1 mu0=0 mu=( 0  0 )
n=( 5  6 )
l=( 1  1 )
num_ms=3
< -1  1 >:  -0.00018485607171804614
< 0  0 >:  0.00018485607171804614
< 1  -1 >:  -0.00018485607171804614
ctilde_basis_func: rank=2 ndens=1 mu0=0 mu=( 0  0 )
n=( 2  16 )
l=( 0  0 )
num_ms=1
< 0  0 >:  -5.160253384571248e-6
ctilde_basis_func: rank=2 ndens=1 mu0=0 mu=( 0  0 )
n=( 3  6 )
l=( 0  0 )
num_ms=1
< 0  0 >:  -6.328045965496458e-5
ctilde_basis_func: rank=2 ndens=1 mu0=0 mu=( 0  0 )
n=( 4  4 )
l=( 1  1 )
num_ms=2
< -1  1 >:  -0.00010910245035779584
< 0  0 >:  5.455122517889792e-5
ctilde_basis_func: rank=2 ndens=1 mu0=0 mu=( 0  0 )
n=( 1  9 )
l=( 2  2 )
num_ms=5
< -2  2 >:  -2.083597127643238e-5
< -1  1 >:  2.083597127643238e-5
< 0  0 >:  -2.083597127643238e-5
< 1  -1 >:  2.083597127643238e-5
< 2  -2 >:  -2.083597127643238e-5
ctilde_basis_func: rank=2 ndens=1 mu0=0 mu=( 0  0 )
n=( 4  11 )
l=( 1  1 )
num_ms=3
< -1  1 >:  -8.957766192382403e-6
< 0  0 >:  8.957766192382403e-6
< 1  -1 >:  -8.957766192382403e-6
ctilde_basis_func: rank=2 ndens=1 mu0=0 mu=( 0  0 )
n=( 2  12 )
l=( 0  0 )
num_ms=1
< 0  0 >:  5.557690015286633e-6
ctilde_basis_func: rank=2 ndens=1 mu0=0 mu=( 0  0 )
n=( 6  12 )
l=( 0  0 )
num_ms=1
< 0  0 >:  -1.334981138578236e-5
ctilde_basis_func: rank=2 ndens=1 mu0=0 mu=( 0  0 )
n=( 1  12 )
l=( 0  0 )
num_ms=1
< 0  0 >:  -8.888092499369254e-6
ctilde_basis_func: rank=2 ndens=1 mu0=0 mu=( 0  0 )
n=( 5  9 )
l=( 1  1 )
num_ms=3
< -1  1 >:  -1.0657192720705647e-5
< 0  0 >:  1.0657192720705647e-5
< 1  -1 >:  -1.0657192720705647e-5
ctilde_basis_func: rank=2 ndens=1 mu0=0 mu=( 0  0 )
n=( 3  10 )
l=( 0  0 )
num_ms=1
< 0  0 >:  -6.003377971930173e-5
ctilde_basis_func: rank=2 ndens=1 mu0=0 mu=( 0  0 )
n=( 5  7 )
l=( 0  0 )
num_ms=1
< 0  0 >:  -7.864943815008025e-5
ctilde_basis_func: rank=2 ndens=1 mu0=0 mu=( 0  0 )
n=( 3  4 )
l=( 0  0 )
num_ms=1
< 0  0 >:  -0.00016013723347546658
ctilde_basis_func: rank=2 ndens=1 mu0=0 mu=( 0  0 )
n=( 1  6 )
l=( 0  0 )
num_ms=1
< 0  0 >:  -6.587069264302025e-5
ctilde_basis_func: rank=2 ndens=1 mu0=0 mu=( 0  0 )
n=( 7  7 )
l=( 0  0 )
num_ms=1
< 0  0 >:  -4.555293313638919e-5
ctilde_basis_func: rank=2 ndens=1 mu0=0 mu=( 0  0 )
n=( 1  8 )
l=( 0  0 )
num_ms=1
< 0  0 >:  -5.14552977299694e-5
ctilde_basis_func: rank=2 ndens=1 mu0=0 mu=( 0  0 )
n=( 7  8 )
l=( 0  0 )
num_ms=1
< 0  0 >:  4.801383296551425e-5
ctilde_basis_func: rank=2 ndens=1 mu0=0 mu=( 0  0 )
n=( 4  13 )
l=( 0  0 )
num_ms=1
< 0  0 >:  3.699427488555097e-6
ctilde_basis_func: rank=2 ndens=1 mu0=0 mu=( 0  0 )
n=( 2  2 )
l=( 0  0 )
num_ms=1
< 0  0 >:  -2.0128032655367005e-5
ctilde_basis_func: rank=2 ndens=1 mu0=0 mu=( 0  0 )
n=( 1  15 )
l=( 0  0 )
num_ms=1
< 0  0 >:  -4.6422245632505215e-6
ctilde_basis_func: rank=2 ndens=1 mu0=0 mu=( 0  0 )
n=( 4  14 )
l=( 0  0 )
num_ms=1
< 0  0 >:  -1.1059443592804467e-5
ctilde_basis_func: rank=2 ndens=1 mu0=0 mu=( 0  0 )
n=( 1  5 )
l=( 0  0 )
num_ms=1
< 0  0 >:  6.070345820595718e-5
ctilde_basis_func: rank=2 ndens=1 mu0=0 mu=( 0  0 )
n=( 6  9 )
l=( 0  0 )
num_ms=1
< 0  0 >:  4.445552169975956e-6
ctilde_basis_func: rank=2 ndens=1 mu0=0 mu=( 0  0 )
n=( 4  12 )
l=( 0  0 )
num_ms=1
< 0  0 >:  -5.3279548601226264e-6
ctilde_basis_func: rank=2 ndens=1 mu0=0 mu=( 0  0 )
n=( 5  12 )
l=( 0  0 )
num_ms=1
< 0  0 >:  4.7728002890600825e-6
ctilde_basis_func: rank=2 ndens=1 mu0=0 mu=( 0  0 )
n=( 1  13 )
l=( 0  0 )
num_ms=1
< 0  0 >:  -7.926224487679739e-6
ctilde_basis_func: rank=2 ndens=1 mu0=0 mu=( 0  0 )
n=( 8  10 )
l=( 0  0 )
num_ms=1
< 0  0 >:  6.631875718851005e-6
ctilde_basis_func: rank=2 ndens=1 mu0=0 mu=( 0  0 )
n=( 2  5 )
l=( 0  0 )
num_ms=1
< 0  0 >:  0.0001581979575262012
ctilde_basis_func: rank=2 ndens=1 mu0=0 mu=( 0  0 )
n=( 3  11 )
l=( 0  0 )
num_ms=1
< 0  0 >:  7.080674133886153e-6
ctilde_basis_func: rank=2 ndens=1 mu0=0 mu=( 0  0 )
n=( 3  3 )
l=( 0  0 )
num_ms=1
< 0  0 >:  0.00020466429885640367
ctilde_basis_func: rank=2 ndens=1 mu0=0 mu=( 0  0 )
n=( 4  11 )
l=( 0  0 )
num_ms=1
< 0  0 >:  -1.3310461184717314e-5
ctilde_basis_func: rank=3 ndens=1 mu0=0 mu=( 0  0  0 )
n=( 1  3  3 )
l=( 4  2  2 )
num_ms=15
< -4  2  2 >:  -2.32320037432048e-5
< -3  1  2 >:  3.285501477474274e-5
< -2  0  2 >:  -2.150865602345015e-5
< -2  1  1 >:  -1.756174410349759e-5
< -1  -1  2 >:  1.2418028345046014e-5
< -1  0  1 >:  3.0417833056780975e-5
< 0  -2  2 >:  -5.553511105208414e-6
< 0  -1  1 >:  -2.2214044420833674e-5
< 0  0  0 >:  -1.6660533315625257e-5
< 1  -2  1 >:  1.2418028345046014e-5
< 1  -1  0 >:  3.0417833056780975e-5
< 2  -2  0 >:  -2.150865602345015e-5
< 2  -1  -1 >:  -1.756174410349759e-5
< 3  -2  -1 >:  3.285501477474274e-5
< 4  -2  -2 >:  -2.32320037432048e-5
ctilde_basis_func: rank=3 ndens=1 mu0=0 mu=( 0  0  0 )
n=( 2  4  6 )
l=( 0  1  1 )
num_ms=3
< 0  -1  1 >:  2.170451716408534e-6
< 0  0  0 >:  -2.1704517164085333e-6
< 0  1  -1 >:  2.1704517164085333e-6
ctilde_basis_func: rank=3 ndens=1 mu0=0 mu=( 0  0  0 )
n=( 1  2  4 )
l=( 1  3  2 )
num_ms=15
< -1  -1  2 >:  -7.97389324250131e-6
< -1  0  1 >:  1.381118823014241e-5
< -1  1  0 >:  -1.9531969707555055e-5
< -1  2  -1 >:  2.5215664465329498e-5
< -1  3  -2 >:  -3.0882755732643444e-5
< 0  -2  2 >:  1.783016733555915e-5
< 0  -1  1 >:  -2.2553575936921058e-5
< 0  0  0 >:  2.3921679727503934e-5
< 0  1  -1 >:  -2.2553575936921058e-5
< 0  2  -2 >:  1.783016733555915e-5
< 1  -3  2 >:  -3.0882755732643444e-5
< 1  -2  1 >:  2.5215664465329498e-5
< 1  -1  0 >:  -1.9531969707555055e-5
< 1  0  -1 >:  1.381118823014241e-5
< 1  1  -2 >:  -7.97389324250131e-6
ctilde_basis_func: rank=3 ndens=1 mu0=0 mu=( 0  0  0 )
n=( 1  2  4 )
l=( 0  1  1 )
num_ms=3
< 0  -1  1 >:  8.835045197742429e-6
< 0  0  0 >:  -8.835045197742426e-6
< 0  1  -1 >:  8.835045197742426e-6
ctilde_basis_func: rank=3 ndens=1 mu0=0 mu=( 0  0  0 )
n=( 1  3  3 )
l=( 0  4  4 )
num_ms=5
< 0  -4  4 >:  2.7633267903615404e-5
< 0  -3  3 >:  -2.7633267903615404e-5
< 0  -2  2 >:  2.7633267903615404e-5
< 0  -1  1 >:  -2.7633267903615404e-5
< 0  0  0 >:  1.3816633951807702e-5
ctilde_basis_func: rank=3 ndens=1 mu0=0 mu=( 0  0  0 )
n=( 1  1  2 )
l=( 3  4  3 )
num_ms=43
< -3  0  3 >:  1.7376604451450083e-6
< -3  1  2 >:  -3.1725194103012977e-6
< -3  2  1 >:  4.256381436822747e-6
< -3  3  0 >:  -4.597417400927484e-6
< -3  4  -1 >:  3.7537755889549245e-6
< -2  -1  3 >:  -3.1725194103012977e-6
< -2  0  2 >:  4.054541038671684e-6
< -2  1  1 >:  -3.2765639577644537e-6
< -2  2  0 >:  1.0032387257646352e-6
< -2  3  -1 >:  2.1672433467605713e-6
< -2  4  -2 >:  -4.846103447140787e-6
< -1  -2  3 >:  4.256381436822747e-6
< -1  -1  2 >:  -3.2765639577644537e-6
< -1  0  1 >:  5.792201483816692e-7
< -1  1  0 >:  2.243309988469994e-6
< -1  2  -1 >:  -3.663309871093534e-6
< -1  3  -2 >:  2.1672433467605713e-6
< -1  4  -3 >:  3.7537755889549245e-6
< 0  -3  3 >:  -4.597417400927484e-6
< 0  -2  2 >:  1.0032387257646352e-6
< 0  -1  1 >:  2.243309988469994e-6
< 0  0  0 >:  -3.4753208902900166e-6
< 0  1  -1 >:  2.243309988469994e-6
< 0  2  -2 >:  1.0032387257646352e-6
< 0  3  -3 >:  -4.597417400927484e-6
< 1  -4  3 >:  3.753775588954919e-6
< 1  -3  2 >:  2.1672433467605713e-6
< 1  -2  1 >:  -3.663309871093534e-6
< 1  -1  0 >:  2.243309988469994e-6
< 1  0  -1 >:  5.792201483816692e-7
< 1  1  -2 >:  -3.2765639577644537e-6
< 1  2  -3 >:  4.256381436822747e-6
< 2  -4  2 >:  -4.846103447140787e-6
< 2  -3  1 >:  2.1672433467605713e-6
< 2  -2  0 >:  1.0032387257646352e-6
< 2  -1  -1 >:  -3.2765639577644537e-6
< 2  0  -2 >:  4.054541038671684e-6
< 2  1  -3 >:  -3.1725194103012977e-6
< 3  -4  1 >:  3.7537755889549245e-6
< 3  -3  0 >:  -4.597417400927484e-6
< 3  -2  -1 >:  4.256381436822747e-6
< 3  -1  -2 >:  -3.1725194103012977e-6
< 3  0  -3 >:  1.7376604451450083e-6
ctilde_basis_func: rank=3 ndens=1 mu0=0 mu=( 0  0  0 )
n=( 1  2  3 )
l=( 1  2  1 )
num_ms=9
< -1  0  1 >:  9.614675909838768e-7
< -1  1  0 >:  -1.6653107174149263e-6
< -1  2  -1 >:  2.3551050021334588e-6
< 0  -1  1 >:  -1.6653107174149263e-6
< 0  0  0 >:  1.9229351819677536e-6
< 0  1  -1 >:  -1.6653107174149263e-6
< 1  -2  1 >:  2.3551050021334575e-6
< 1  -1  0 >:  -1.6653107174149263e-6
< 1  0  -1 >:  9.614675909838768e-7
ctilde_basis_func: rank=3 ndens=1 mu0=0 mu=( 0  0  0 )
n=( 1  2  6 )
l=( 2  1  3 )
num_ms=15
< -2  -1  3 >:  -9.748837372340983e-6
< -2  0  2 >:  5.6284938812069485e-6
< -2  1  1 >:  -2.5171389858640726e-6
< -1  -1  2 >:  7.959892382536846e-6
< -1  0  1 >:  -7.1195441843740594e-6
< -1  1  0 >:  4.359812613228972e-6
< 0  -1  1 >:  -6.165706127033697e-6
< 0  0  0 >:  7.551416957592217e-6
< 0  1  -1 >:  -6.165706127033697e-6
< 1  -1  0 >:  4.359812613228972e-6
< 1  0  -1 >:  -7.1195441843740594e-6
< 1  1  -2 >:  7.959892382536846e-6
< 2  -1  -1 >:  -2.5171389858640726e-6
< 2  0  -2 >:  5.6284938812069485e-6
< 2  1  -3 >:  -9.74883737234098e-6
ctilde_basis_func: rank=3 ndens=1 mu0=0 mu=( 0  0  0 )
n=( 1  1  6 )
l=( 2  3  1 )
num_ms=15
< -2  1  1 >:  1.5350438409210945e-6
< -2  2  0 >:  -3.432462376741941e-6
< -2  3  -1 >:  5.945199231585666e-6
< -1  0  1 >:  -2.658773924321013e-6
< -1  1  0 >:  4.341759637335799e-6
< -1  2  -1 >:  -4.854234845523841e-6
< 0  -1  1 >:  3.760074143058714e-6
< 0  0  0 >:  -4.6051315227632825e-6
< 0  1  -1 >:  3.760074143058714e-6
< 1  -2  1 >:  -4.854234845523841e-6
< 1  -1  0 >:  4.341759637335799e-6
< 1  0  -1 >:  -2.658773924321013e-6
< 2  -3  1 >:  5.945199231585667e-6
< 2  -2  0 >:  -3.432462376741941e-6
< 2  -1  -1 >:  1.5350438409210945e-6
ctilde_basis_func: rank=3 ndens=1 mu0=0 mu=( 0  0  0 )
n=( 2  3  7 )
l=( 2  1  1 )
num_ms=9
< -2  1  1 >:  2.0656821307235705e-5
< -1  0  1 >:  -1.4606578424105134e-5
< -1  1  0 >:  -1.4606578424105134e-5
< 0  -1  1 >:  8.433111985096467e-6
< 0  0  0 >:  1.6866223970192958e-5
< 0  1  -1 >:  8.433111985096479e-6
< 1  -1  0 >:  -1.4606578424105134e-5
< 1  0  -1 >:  -1.4606578424105134e-5
< 2  -1  -1 >:  2.0656821307235705e-5
ctilde_basis_func: rank=3 ndens=1 mu0=0 mu=( 0  0  0 )
n=( 1  3  4 )
l=( 3  1  2 )
num_ms=15
< -3  1  2 >:  6.926669785868442e-5
< -2  0  2 >:  -3.9991146654587925e-5
< -2  1  1 >:  -5.6556021973769686e-5
< -1  -1  2 >:  1.7884584483564365e-5
< -1  0  1 >:  5.0585243868128326e-5
< -1  1  0 >:  4.3808106246430136e-5
< 0  -1  1 >:  -3.0977008997791504e-5
< 0  0  0 >:  -5.3653753450693156e-5
< 0  1  -1 >:  -3.0977008997791504e-5
< 1  -1  0 >:  4.3808106246430136e-5
< 1  0  -1 >:  5.0585243868128326e-5
< 1  1  -2 >:  1.7884584483564385e-5
< 2  -1  -1 >:  -5.6556021973769686e-5
< 2  0  -2 >:  -3.9991146654587925e-5
< 3  -1  -2 >:  6.926669785868442e-5
ctilde_basis_func: rank=3 ndens=1 mu0=0 mu=( 0  0  0 )
n=( 1  2  5 )
l=( 2  1  3 )
num_ms=15
< -2  -1  3 >:  -7.414930985944883e-6
< -2  0  2 >:  4.2810124007577746e-6
< -2  1  1 >:  -1.914526948122791e-6
< -1  -1  2 >:  6.054265797839048e-6
< -1  0  1 >:  -5.415099951128045e-6
< -1  1  0 >:  3.316057946608458e-6
< 0  -1  1 >:  -4.689614121708759e-6
< 0  0  0 >:  5.743580844368373e-6
< 0  1  -1 >:  -4.689614121708759e-6
< 1  -1  0 >:  3.316057946608458e-6
< 1  0  -1 >:  -5.415099951128045e-6
< 1  1  -2 >:  6.054265797839048e-6
< 2  -1  -1 >:  -1.914526948122791e-6
< 2  0  -2 >:  4.2810124007577746e-6
< 2  1  -3 >:  -7.4149309859448805e-6
ctilde_basis_func: rank=3 ndens=1 mu0=0 mu=( 0  0  0 )
n=( 2  2  2 )
l=( 0  3  3 )
num_ms=4
< 0  -3  3 >:  6.965309998975128e-5
< 0  -2  2 >:  -6.965309998975128e-5
< 0  -1  1 >:  6.965309998975128e-5
< 0  0  0 >:  -3.482654999487564e-5
ctilde_basis_func: rank=3 ndens=1 mu0=0 mu=( 0  0  0 )
n=( 1  3  4 )
l=( 1  2  3 )
num_ms=15
< -1  -2  3 >:  -0.0001187407079980725
< -1  -1  2 >:  9.695138209736366e-5
< -1  0  1 >:  -7.509821765097627e-5
< -1  1  0 >:  5.310245895602861e-5
< -1  2  -1 >:  -3.0658718972894163e-5
< 0  -2  2 >:  6.85549797264539e-5
< 0  -1  1 >:  -8.671595235290452e-5
< 0  0  0 >:  9.19761569186825e-5
< 0  1  -1 >:  -8.671595235290452e-5
< 0  2  -2 >:  6.85549797264539e-5
< 1  -2  1 >:  -3.0658718972894163e-5
< 1  -1  0 >:  5.310245895602861e-5
< 1  0  -1 >:  -7.509821765097627e-5
< 1  1  -2 >:  9.695138209736366e-5
< 1  2  -3 >:  -0.00011874070799807247
ctilde_basis_func: rank=3 ndens=1 mu0=0 mu=( 0  0  0 )
n=( 1  1  3 )
l=( 2  4  2 )
num_ms=25
< -2  0  2 >:  4.320725147629476e-6
< -2  1  1 >:  -9.661435142192323e-6
< -2  2  0 >:  1.6734096540308543e-5
< -2  3  -1 >:  -2.5561754694220845e-5
< -2  4  -2 >:  3.614978016662125e-5
< -1  -1  2 >:  -9.661435142192323e-6
< -1  0  1 >:  1.7282900590517903e-5
< -1  1  0 >:  -2.366558628136503e-5
< -1  2  -1 >:  2.7326665220152826e-5
< -1  3  -2 >:  -2.5561754694220845e-5
< 0  -2  2 >:  1.6734096540308543e-5
< 0  -1  1 >:  -2.366558628136503e-5
< 0  0  0 >:  2.592435088577686e-5
< 0  1  -1 >:  -2.366558628136503e-5
< 0  2  -2 >:  1.6734096540308543e-5
< 1  -3  2 >:  -2.5561754694220845e-5
< 1  -2  1 >:  2.7326665220152826e-5
< 1  -1  0 >:  -2.366558628136503e-5
< 1  0  -1 >:  1.7282900590517903e-5
< 1  1  -2 >:  -9.661435142192323e-6
< 2  -4  2 >:  3.614978016662126e-5
< 2  -3  1 >:  -2.5561754694220845e-5
< 2  -2  0 >:  1.6734096540308543e-5
< 2  -1  -1 >:  -9.661435142192323e-6
< 2  0  -2 >:  4.320725147629476e-6
ctilde_basis_func: rank=3 ndens=1 mu0=0 mu=( 0  0  0 )
n=( 1  1  4 )
l=( 2  4  2 )
num_ms=25
< -2  0  2 >:  8.982959229606215e-6
< -2  1  1 >:  -2.008650747650864e-5
< -2  2  0 >:  3.479085149592508e-5
< -2  3  -1 >:  -5.314390349068143e-5
< -2  4  -2 >:  7.515682907396855e-5
< -1  -1  2 >:  -2.008650747650864e-5
< -1  0  1 >:  3.593183691842486e-5
< -1  1  0 >:  -4.920169403204553e-5
< -1  2  -1 >:  5.6813222587974175e-5
< -1  3  -2 >:  -5.314390349068143e-5
< 0  -2  2 >:  3.479085149592508e-5
< 0  -1  1 >:  -4.920169403204553e-5
< 0  0  0 >:  5.3897755377637294e-5
< 0  1  -1 >:  -4.920169403204553e-5
< 0  2  -2 >:  3.479085149592508e-5
< 1  -3  2 >:  -5.314390349068143e-5
< 1  -2  1 >:  5.6813222587974175e-5
< 1  -1  0 >:  -4.920169403204553e-5
< 1  0  -1 >:  3.593183691842486e-5
< 1  1  -2 >:  -2.008650747650864e-5
< 2  -4  2 >:  7.515682907396859e-5
< 2  -3  1 >:  -5.314390349068143e-5
< 2  -2  0 >:  3.479085149592508e-5
< 2  -1  -1 >:  -2.008650747650864e-5
< 2  0  -2 >:  8.982959229606215e-6
ctilde_basis_func: rank=3 ndens=1 mu0=0 mu=( 0  0  0 )
n=( 1  2  3 )
l=( 2  4  2 )
num_ms=25
< -2  0  2 >:  4.3303450381697e-6
< -2  1  1 >:  -9.68294587137637e-6
< -2  2  0 >:  1.6771354216163168e-5
< -2  3  -1 >:  -2.5618666734161493e-5
< -2  4  -2 >:  3.623026594536763e-5
< -1  -1  2 >:  -9.68294587137637e-6
< -1  0  1 >:  1.73213801526788e-5
< -1  1  0 >:  -2.3718276591861142e-5
< -1  2  -1 >:  2.7387506750050055e-5
< -1  3  -2 >:  -2.5618666734161493e-5
< 0  -2  2 >:  1.6771354216163168e-5
< 0  -1  1 >:  -2.3718276591861142e-5
< 0  0  0 >:  2.5982070229018198e-5
< 0  1  -1 >:  -2.3718276591861142e-5
< 0  2  -2 >:  1.6771354216163168e-5
< 1  -3  2 >:  -2.5618666734161493e-5
< 1  -2  1 >:  2.7387506750050055e-5
< 1  -1  0 >:  -2.3718276591861142e-5
< 1  0  -1 >:  1.73213801526788e-5
< 1  1  -2 >:  -9.68294587137637e-6
< 2  -4  2 >:  3.6230265945367654e-5
< 2  -3  1 >:  -2.5618666734161493e-5
< 2  -2  0 >:  1.6771354216163168e-5
< 2  -1  -1 >:  -9.68294587137637e-6
< 2  0  -2 >:  4.3303450381697e-6
ctilde_basis_func: rank=3 ndens=1 mu0=0 mu=( 0  0  0 )
n=( 1  2  3 )
l=( 1  3  4 )
num_ms=21
< -1  -3  4 >:  -8.157785712068673e-6
< -1  -2  3 >:  7.064849665281195e-6
< -1  -1  2 >:  -5.970887753629738e-6
< -1  0  1 >:  4.875209435941911e-6
< -1  1  0 >:  -3.7763209909352564e-6
< -1  2  -1 >:  2.670262180627422e-6
< -1  3  -2 >:  -1.5416765887921198e-6
< 0  -3  3 >:  4.078892856034335e-6
< 0  -2  2 >:  -5.340524361254844e-6
< 0  -1  1 >:  5.970887753629738e-6
< 0  0  0 >:  -6.166706355168479e-6
< 0  1  -1 >:  5.970887753629738e-6
< 0  2  -2 >:  -5.340524361254844e-6
< 0  3  -3 >:  4.078892856034335e-6
< 1  -3  2 >:  -1.5416765887921198e-6
< 1  -2  1 >:  2.670262180627422e-6
< 1  -1  0 >:  -3.7763209909352564e-6
< 1  0  -1 >:  4.875209435941911e-6
< 1  1  -2 >:  -5.970887753629738e-6
< 1  2  -3 >:  7.064849665281195e-6
< 1  3  -4 >:  -8.15778571206867e-6
ctilde_basis_func: rank=3 ndens=1 mu0=0 mu=( 0  0  0 )
n=( 1  2  4 )
l=( 3  4  1 )
num_ms=21
< -3  2  1 >:  -1.2165990777690242e-6
< -3  3  0 >:  3.2188186050473674e-6
< -3  4  -1 >:  -6.437637210094735e-6
< -2  1  1 >:  2.1072114151373895e-6
< -2  2  0 >:  -4.214422830274779e-6
< -2  3  -1 >:  5.57515736429002e-6
< -1  0  1 >:  -2.9800469620746987e-6
< -1  1  0 >:  4.711867967210733e-6
< -1  2  -1 >:  -4.711867967210733e-6
< 0  -1  1 >:  3.847224085010439e-6
< 0  0  0 >:  -4.866396311076097e-6
< 0  1  -1 >:  3.847224085010439e-6
< 1  -2  1 >:  -4.711867967210733e-6
< 1  -1  0 >:  4.711867967210733e-6
< 1  0  -1 >:  -2.9800469620746987e-6
< 2  -3  1 >:  5.57515736429002e-6
< 2  -2  0 >:  -4.214422830274779e-6
< 2  -1  -1 >:  2.1072114151373895e-6
< 3  -4  1 >:  -6.437637210094738e-6
< 3  -3  0 >:  3.2188186050473674e-6
< 3  -2  -1 >:  -1.2165990777690242e-6
ctilde_basis_func: rank=3 ndens=1 mu0=0 mu=( 0  0  0 )
n=( 1  2  5 )
l=( 1  2  3 )
num_ms=15
< -1  -2  3 >:  -3.808373505904325e-5
< -1  -1  2 >:  3.1095239464666175e-5
< -1  0  1 >:  -2.4086268918596744e-5
< -1  1  0 >:  1.7031564085822533e-5
< -1  2  -1 >:  -9.83317810967e-6
< 0  -2  2 >:  2.1987654688085006e-5
< 0  -1  1 >:  -2.7812427687851095e-5
< 0  0  0 >:  2.949953432901e-5
< 0  1  -1 >:  -2.7812427687851095e-5
< 0  2  -2 >:  2.1987654688085006e-5
< 1  -2  1 >:  -9.83317810967e-6
< 1  -1  0 >:  1.7031564085822533e-5
< 1  0  -1 >:  -2.4086268918596744e-5
< 1  1  -2 >:  3.1095239464666175e-5
< 1  2  -3 >:  -3.808373505904324e-5
ctilde_basis_func: rank=3 ndens=1 mu0=0 mu=( 0  0  0 )
n=( 1  2  4 )
l=( 4  2  2 )
num_ms=25
< -4  2  2 >:  4.554732460932964e-5
< -3  1  2 >:  -3.22068220961619e-5
< -3  2  1 >:  -3.22068220961619e-5
< -2  0  2 >:  2.1084314307091174e-5
< -2  1  1 >:  3.443054108589096e-5
< -2  2  0 >:  2.1084314307091174e-5
< -1  -1  2 >:  -1.2173034540877769e-5
< -1  0  1 >:  -2.9817723246425426e-5
< -1  1  0 >:  -2.9817723246425426e-5
< -1  2  -1 >:  -1.2173034540877769e-5
< 0  -2  2 >:  5.443946545171116e-6
< 0  -1  1 >:  2.1775786180684505e-5
< 0  0  0 >:  3.266367927102676e-5
< 0  1  -1 >:  2.1775786180684505e-5
< 0  2  -2 >:  5.443946545171126e-6
< 1  -2  1 >:  -1.2173034540877769e-5
< 1  -1  0 >:  -2.9817723246425426e-5
< 1  0  -1 >:  -2.9817723246425426e-5
< 1  1  -2 >:  -1.2173034540877769e-5
< 2  -2  0 >:  2.1084314307091174e-5
< 2  -1  -1 >:  3.443054108589096e-5
< 2  0  -2 >:  2.1084314307091174e-5
< 3  -2  -1 >:  -3.22068220961619e-5
< 3  -1  -2 >:  -3.22068220961619e-5
< 4  -2  -2 >:  4.554732460932964e-5
ctilde_basis_func: rank=3 ndens=1 mu0=0 mu=( 0  0  0 )
n=( 1  2  8 )
l=( 2  0  2 )
num_ms=5
< -2  0  2 >:  8.158073619800611e-6
< -1  0  1 >:  -8.158073619800611e-6
< 0  0  0 >:  8.158073619800611e-6
< 1  0  -1 >:  -8.158073619800611e-6
< 2  0  -2 >:  8.158073619800611e-6
ctilde_basis_func: rank=3 ndens=1 mu0=0 mu=( 0  0  0 )
n=( 1  2  5 )
l=( 1  2  1 )
num_ms=9
< -1  0  1 >:  -1.1349758765326334e-5
< -1  1  0 >:  1.9658358835195418e-5
< -1  2  -1 >:  -2.7801117678730327e-5
< 0  -1  1 >:  1.9658358835195418e-5
< 0  0  0 >:  -2.269951753065267e-5
< 0  1  -1 >:  1.9658358835195418e-5
< 1  -2  1 >:  -2.7801117678730317e-5
< 1  -1  0 >:  1.9658358835195418e-5
< 1  0  -1 >:  -1.1349758765326334e-5
ctilde_basis_func: rank=3 ndens=1 mu0=0 mu=( 0  0  0 )
n=( 1  3  6 )
l=( 1  3  2 )
num_ms=15
< -1  -1  2 >:  2.412901568149509e-6
< -1  0  1 >:  -4.179268109697568e-6
< -1  1  0 >:  5.9103776415276675e-6
< -1  2  -1 >:  -7.630264725144442e-6
< -1  3  -2 >:  9.34512758948081e-6
< 0  -2  2 >:  -5.395411929398145e-6
< 0  -1  1 >:  6.824716244696689e-6
< 0  0  0 >:  -7.238704704448528e-6
< 0  1  -1 >:  6.824716244696689e-6
< 0  2  -2 >:  -5.395411929398145e-6
< 1  -3  2 >:  9.345127589480811e-6
< 1  -2  1 >:  -7.630264725144442e-6
< 1  -1  0 >:  5.9103776415276675e-6
< 1  0  -1 >:  -4.179268109697568e-6
< 1  1  -2 >:  2.412901568149509e-6
ctilde_basis_func: rank=3 ndens=1 mu0=0 mu=( 0  0  0 )
n=( 1  4  5 )
l=( 3  1  2 )
num_ms=15
< -3  1  2 >:  -1.510134210226346e-5
< -2  0  2 >:  8.718763927866437e-6
< -2  1  1 >:  1.2330194193918037e-5
< -1  -1  2 >:  -3.899149764496483e-6
< -1  0  1 >:  -1.1028460957349578e-5
< -1  1  0 >:  -9.550927353709587e-6
< 0  -1  1 >:  6.753525498428135e-6
< 0  0  0 >:  1.1697449293489459e-5
< 0  1  -1 >:  6.753525498428135e-6
< 1  -1  0 >:  -9.550927353709587e-6
< 1  0  -1 >:  -1.1028460957349578e-5
< 1  1  -2 >:  -3.899149764496487e-6
< 2  -1  -1 >:  1.2330194193918037e-5
< 2  0  -2 >:  8.718763927866437e-6
< 3  -1  -2 >:  -1.510134210226346e-5
ctilde_basis_func: rank=3 ndens=1 mu0=0 mu=( 0  0  0 )
n=( 1  3  3 )
l=( 4  0  4 )
num_ms=9
< -4  0  4 >:  -2.473451263266793e-5
< -3  0  3 >:  2.4734512632667924e-5
< -2  0  2 >:  -2.4734512632667924e-5
< -1  0  1 >:  2.4734512632667924e-5
< 0  0  0 >:  -2.4734512632667924e-5
< 1  0  -1 >:  2.4734512632667924e-5
< 2  0  -2 >:  -2.4734512632667924e-5
< 3  0  -3 >:  2.4734512632667924e-5
< 4  0  -4 >:  -2.4734512632667924e-5
ctilde_basis_func: rank=3 ndens=1 mu0=0 mu=( 0  0  0 )
n=( 1  1  4 )
l=( 3  3  2 )
num_ms=15
< -3  1  2 >:  0.000253339004975683
< -3  2  1 >:  -0.00040056413794194417
< -3  3  0 >:  0.00040056413794194417
< -2  0  2 >:  -0.0003582754567147159
< -2  1  1 >:  0.000310275647067416
< -2  3  -1 >:  -0.00040056413794194417
< -1  -1  2 >:  0.00019623554944311566
< -1  0  1 >:  -0.00011329664729555692
< -1  1  0 >:  -0.0002403384827651665
< -1  2  -1 >:  0.000310275647067416
< -1  3  -2 >:  0.00025333900497568305
< 0  0  0 >:  0.0001602256551767777
< 0  1  -1 >:  -0.00011329664729555692
< 0  2  -2 >:  -0.0003582754567147159
< 1  1  -2 >:  0.00019623554944311566
ctilde_basis_func: rank=3 ndens=1 mu0=0 mu=( 0  0  0 )
n=( 1  2  3 )
l=( 3  3  2 )
num_ms=27
< -3  1  2 >:  -1.3819956917573134e-5
< -3  2  1 >:  2.185127051246549e-5
< -3  3  0 >:  -2.185127051246549e-5
< -2  0  2 >:  1.95443705042438e-5
< -2  1  1 >:  -1.692592135765041e-5
< -2  3  -1 >:  2.185127051246549e-5
< -1  -1  2 >:  -2.1409785194825898e-5
< -1  0  1 >:  6.180472622762397e-6
< -1  1  0 >:  1.3110762307479295e-5
< -1  2  -1 >:  -1.692592135765041e-5
< -1  3  -2 >:  -1.3819956917573134e-5
< 0  -2  2 >:  1.95443705042438e-5
< 0  -1  1 >:  6.180472622762397e-6
< 0  0  0 >:  -1.7481016409972394e-5
< 0  1  -1 >:  6.180472622762397e-6
< 0  2  -2 >:  1.95443705042438e-5
< 1  -3  2 >:  -1.3819956917573127e-5
< 1  -2  1 >:  -1.692592135765041e-5
< 1  -1  0 >:  1.3110762307479295e-5
< 1  0  -1 >:  6.180472622762397e-6
< 1  1  -2 >:  -2.1409785194825898e-5
< 2  -3  1 >:  2.185127051246549e-5
< 2  -1  -1 >:  -1.692592135765041e-5
< 2  0  -2 >:  1.95443705042438e-5
< 3  -3  0 >:  -2.185127051246549e-5
< 3  -2  -1 >:  2.185127051246549e-5
< 3  -1  -2 >:  -1.3819956917573134e-5
ctilde_basis_func: rank=3 ndens=1 mu0=0 mu=( 0  0  0 )
n=( 2  6  6 )
l=( 1  0  1 )
num_ms=3
< -1  0  1 >:  1.3492888995419383e-6
< 0  0  0 >:  -1.3492888995419383e-6
< 1  0  -1 >:  1.3492888995419383e-6
ctilde_basis_func: rank=3 ndens=1 mu0=0 mu=( 0  0  0 )
n=( 1  2  4 )
l=( 2  3  3 )
num_ms=27
< -2  -1  3 >:  -2.3879085308470994e-5
< -2  0  2 >:  3.37701263003038e-5
< -2  1  1 >:  -3.6993319888949744e-5
< -2  2  0 >:  3.37701263003038e-5
< -2  3  -1 >:  -2.3879085308470994e-5
< -1  -2  3 >:  3.775614900811638e-5
< -1  -1  2 >:  -2.924578726507209e-5
< -1  0  1 >:  1.0679051598051536e-5
< -1  1  0 >:  1.0679051598051536e-5
< -1  2  -1 >:  -2.924578726507209e-5
< -1  3  -2 >:  3.775614900811638e-5
< 0  -3  3 >:  -3.77561490081164e-5
< 0  -1  1 >:  2.2653689404869832e-5
< 0  0  0 >:  -3.0204919206493112e-5
< 0  1  -1 >:  2.2653689404869832e-5
< 0  3  -3 >:  -3.775614900811638e-5
< 1  -3  2 >:  3.775614900811638e-5
< 1  -2  1 >:  -2.924578726507209e-5
< 1  -1  0 >:  1.0679051598051536e-5
< 1  0  -1 >:  1.0679051598051536e-5
< 1  1  -2 >:  -2.924578726507209e-5
< 1  2  -3 >:  3.775614900811638e-5
< 2  -3  1 >:  -2.3879085308470994e-5
< 2  -2  0 >:  3.37701263003038e-5
< 2  -1  -1 >:  -3.6993319888949744e-5
< 2  0  -2 >:  3.37701263003038e-5
< 2  1  -3 >:  -2.3879085308470994e-5
ctilde_basis_func: rank=3 ndens=1 mu0=0 mu=( 0  0  0 )
n=( 1  1  5 )
l=( 1  3  4 )
num_ms=21
< -1  -3  4 >:  6.6626926583180355e-6
< -1  -2  3 >:  -5.77006109971149e-6
< -1  -1  2 >:  4.87659168846467e-6
< -1  0  1 >:  -3.981720440211969e-6
< -1  1  0 >:  3.0842273908389244e-6
< -1  2  -1 >:  -2.1808781027834954e-6
< -1  3  -2 >:  1.2591305597118117e-6
< 0  -3  3 >:  -3.3313463291590165e-6
< 0  -2  2 >:  4.361756205566991e-6
< 0  -1  1 >:  -4.87659168846467e-6
< 0  0  0 >:  5.036522238847247e-6
< 0  1  -1 >:  -4.87659168846467e-6
< 0  2  -2 >:  4.361756205566991e-6
< 0  3  -3 >:  -3.3313463291590165e-6
< 1  -3  2 >:  1.2591305597118117e-6
< 1  -2  1 >:  -2.1808781027834954e-6
< 1  -1  0 >:  3.0842273908389244e-6
< 1  0  -1 >:  -3.981720440211969e-6
< 1  1  -2 >:  4.87659168846467e-6
< 1  2  -3 >:  -5.77006109971149e-6
< 1  3  -4 >:  6.662692658318033e-6
ctilde_basis_func: rank=3 ndens=1 mu0=0 mu=( 0  0  0 )
n=( 1  2  4 )
l=( 1  1  2 )
num_ms=9
< -1  -1  2 >:  4.972495954179832e-5
< -1  0  1 >:  -3.516085608623231e-5
< -1  1  0 >:  2.030012972632392e-5
< 0  -1  1 >:  -3.516085608623231e-5
< 0  0  0 >:  4.060025945264784e-5
< 0  1  -1 >:  -3.516085608623231e-5
< 1  -1  0 >:  2.030012972632392e-5
< 1  0  -1 >:  -3.516085608623231e-5
< 1  1  -2 >:  4.972495954179832e-5
ctilde_basis_func: rank=3 ndens=1 mu0=0 mu=( 0  0  0 )
n=( 1  1  3 )
l=( 3  4  1 )
num_ms=21
< -3  2  1 >:  1.2920425380238002e-5
< -3  3  0 >:  -3.41842323892769e-5
< -3  4  -1 >:  6.83684647785538e-5
< -2  1  1 >:  -2.2378833213974644e-5
< -2  2  0 >:  4.475766642794929e-5
< -2  3  -1 >:  -5.920882731596922e-5
< -1  0  1 >:  3.1648449441288425e-5
< -1  1  0 >:  -5.00405923235774e-5
< -1  2  -1 >:  5.00405923235774e-5
< 0  -1  1 >:  -4.085797253979917e-5
< 0  0  0 >:  5.168170152095201e-5
< 0  1  -1 >:  -4.085797253979917e-5
< 1  -2  1 >:  5.00405923235774e-5
< 1  -1  0 >:  -5.00405923235774e-5
< 1  0  -1 >:  3.1648449441288425e-5
< 2  -3  1 >:  -5.920882731596922e-5
< 2  -2  0 >:  4.475766642794929e-5
< 2  -1  -1 >:  -2.2378833213974644e-5
< 3  -4  1 >:  6.836846477855383e-5
< 3  -3  0 >:  -3.41842323892769e-5
< 3  -2  -1 >:  1.2920425380238002e-5
ctilde_basis_func: rank=3 ndens=1 mu0=0 mu=( 0  0  0 )
n=( 1  2  4 )
l=( 2  2  4 )
num_ms=25
< -2  -2  4 >:  -8.164526028010272e-5
< -2  -1  3 >:  5.773191719580129e-5
< -2  0  2 >:  -3.77944115092403e-5
< -2  1  1 >:  2.182061365872338e-5
< -2  2  0 >:  -9.758475090333174e-6
< -1  -2  3 >:  5.773191719580129e-5
< -1  -1  2 >:  -6.171801555094041e-5
< -1  0  1 >:  5.344936933827743e-5
< -1  1  0 >:  -3.9033900361332694e-5
< -1  2  -1 >:  2.182061365872338e-5
< 0  -2  2 >:  -3.77944115092403e-5
< 0  -1  1 >:  5.344936933827743e-5
< 0  0  0 >:  -5.855085054199904e-5
< 0  1  -1 >:  5.344936933827743e-5
< 0  2  -2 >:  -3.77944115092403e-5
< 1  -2  1 >:  2.182061365872338e-5
< 1  -1  0 >:  -3.9033900361332694e-5
< 1  0  -1 >:  5.344936933827743e-5
< 1  1  -2 >:  -6.171801555094041e-5
< 1  2  -3 >:  5.773191719580129e-5
< 2  -2  0 >:  -9.758475090333174e-6
< 2  -1  -1 >:  2.182061365872338e-5
< 2  0  -2 >:  -3.77944115092403e-5
< 2  1  -3 >:  5.773191719580129e-5
< 2  2  -4 >:  -8.16452602801027e-5
ctilde_basis_func: rank=3 ndens=1 mu0=0 mu=( 0  0  0 )
n=( 2  2  3 )
l=( 2  2  4 )
num_ms=15
< -2  -2  4 >:  2.31962807633359e-5
< -2  -1  3 >:  -3.280449485212374e-5
< -2  0  2 >:  2.1475582970663747e-5
< -2  1  1 >:  -1.2398933609116859e-5
< -2  2  0 >:  5.54497167969842e-6
< -1  -1  2 >:  1.753474006897665e-5
< -1  0  1 >:  -3.0371060696981354e-5
< -1  1  0 >:  2.217988671879368e-5
< -1  2  -1 >:  -1.2398933609116859e-5
< 0  0  0 >:  1.663491503909526e-5
< 0  1  -1 >:  -3.0371060696981354e-5
< 0  2  -2 >:  2.1475582970663747e-5
< 1  1  -2 >:  1.753474006897665e-5
< 1  2  -3 >:  -3.280449485212374e-5
< 2  2  -4 >:  2.319628076333589e-5
ctilde_basis_func: rank=3 ndens=1 mu0=0 mu=( 0  0  0 )
n=( 1  2  2 )
l=( 4  1  3 )
num_ms=21
< -4  1  3 >:  3.072041699592104e-5
< -3  0  3 >:  -1.536020849796052e-5
< -3  1  2 >:  -2.660466153331885e-5
< -2  -1  3 >:  5.80561311024351e-6
< -2  0  2 >:  2.011123375205944e-5
< -2  1  1 >:  2.248504289049653e-5
< -1  -1  2 >:  -1.005561687602972e-5
< -1  0  1 >:  -2.248504289049653e-5
< -1  1  0 >:  -1.8358960642103685e-5
< 0  -1  1 >:  1.4220789764109e-5
< 0  0  0 >:  2.322245244097401e-5
< 0  1  -1 >:  1.4220789764109e-5
< 1  -1  0 >:  -1.8358960642103685e-5
< 1  0  -1 >:  -2.248504289049653e-5
< 1  1  -2 >:  -1.005561687602972e-5
< 2  -1  -1 >:  2.248504289049653e-5
< 2  0  -2 >:  2.011123375205944e-5
< 2  1  -3 >:  5.805613110243503e-6
< 3  -1  -2 >:  -2.660466153331885e-5
< 3  0  -3 >:  -1.536020849796052e-5
< 4  -1  -3 >:  3.072041699592104e-5
ctilde_basis_func: rank=3 ndens=1 mu0=0 mu=( 0  0  0 )
n=( 3  4  5 )
l=( 0  0  0 )
num_ms=1
< 0  0  0 >:  -8.871390586586525e-6
ctilde_basis_func: rank=3 ndens=1 mu0=0 mu=( 0  0  0 )
n=( 1  2  3 )
l=( 4  4  0 )
num_ms=9
< -4  4  0 >:  3.444852592855905e-5
< -3  3  0 >:  -3.444852592855905e-5
< -2  2  0 >:  3.444852592855905e-5
< -1  1  0 >:  -3.444852592855905e-5
< 0  0  0 >:  3.444852592855905e-5
< 1  -1  0 >:  -3.444852592855905e-5
< 2  -2  0 >:  3.444852592855905e-5
< 3  -3  0 >:  -3.444852592855905e-5
< 4  -4  0 >:  3.444852592855905e-5
ctilde_basis_func: rank=3 ndens=1 mu0=0 mu=( 0  0  0 )
n=( 1  1  2 )
l=( 2  4  4 )
num_ms=39
< -2  -2  4 >:  -6.393554085605417e-5
< -2  -1  3 >:  9.590331128408125e-5
< -2  0  2 >:  -0.0001146263813766359
< -2  1  1 >:  0.00012082681503109213
< -2  2  0 >:  -0.0001146263813766359
< -2  3  -1 >:  9.590331128408125e-5
< -2  4  -2 >:  -6.393554085605417e-5
< -1  -3  4 >:  0.00011961244436072112
< -1  -2  3 >:  -0.00011302313624536366
< -1  -1  2 >:  7.689371423189212e-5
< -1  0  1 >:  -2.7017697191431542e-5
< -1  1  0 >:  -2.7017697191431542e-5
< -1  2  -1 >:  7.689371423189212e-5
< -1  3  -2 >:  -0.00011302313624536366
< -1  4  -3 >:  0.00011961244436072112
< 0  -4  4 >:  -0.0001381165539001828
< 0  -3  3 >:  3.4529138475045735e-5
< 0  -2  2 >:  3.94618725429094e-5
< 0  -1  1 >:  -8.385647915368246e-5
< 0  0  0 >:  9.865468135727351e-5
< 0  1  -1 >:  -8.385647915368246e-5
< 0  2  -2 >:  3.94618725429094e-5
< 0  3  -3 >:  3.4529138475045735e-5
< 0  4  -4 >:  -0.00013811655390018294
< 1  -4  3 >:  0.00011961244436072112
< 1  -3  2 >:  -0.00011302313624536366
< 1  -2  1 >:  7.689371423189212e-5
< 1  -1  0 >:  -2.7017697191431542e-5
< 1  0  -1 >:  -2.7017697191431542e-5
< 1  1  -2 >:  7.689371423189212e-5
< 1  2  -3 >:  -0.00011302313624536366
< 1  3  -4 >:  0.00011961244436072112
< 2  -4  2 >:  -6.393554085605417e-5
< 2  -3  1 >:  9.590331128408125e-5
< 2  -2  0 >:  -0.0001146263813766359
< 2  -1  -1 >:  0.00012082681503109213
< 2  0  -2 >:  -0.0001146263813766359
< 2  1  -3 >:  9.590331128408125e-5
< 2  2  -4 >:  -6.393554085605417e-5
ctilde_basis_func: rank=3 ndens=1 mu0=0 mu=( 0  0  0 )
n=( 1  1  3 )
l=( 3  3  4 )
num_ms=24
< -3  -1  4 >:  5.9707107688169806e-5
< -3  0  3 >:  -7.312597392671132e-5
< -3  1  2 >:  6.770149647679287e-5
< -3  2  1 >:  -5.046171610019046e-5
< -3  3  0 >:  2.763902019849594e-5
< -2  -2  4 >:  -3.8540772287749105e-5
< -2  -1  3 >:  3.4471914696298836e-5
< -2  0  2 >:  1.5957395751739132e-5
< -2  1  1 >:  -5.21166362872225e-5
< -2  2  0 >:  6.449104712982384e-5
< -2  3  -1 >:  -5.046171610019046e-5
< -1  -1  2 >:  -2.9134085374215438e-5
< -1  0  1 >:  3.568182164475506e-5
< -1  1  0 >:  9.213006732831977e-6
< -1  2  -1 >:  -5.21166362872225e-5
< -1  3  -2 >:  6.770149647679287e-5
< 0  0  0 >:  -2.763902019849594e-5
< 0  1  -1 >:  3.568182164475506e-5
< 0  2  -2 >:  1.5957395751739132e-5
< 0  3  -3 >:  -7.312597392671132e-5
< 1  1  -2 >:  -2.9134085374215438e-5
< 1  2  -3 >:  3.4471914696298836e-5
< 1  3  -4 >:  5.970710768816984e-5
< 2  2  -4 >:  -3.8540772287749105e-5
ctilde_basis_func: rank=3 ndens=1 mu0=0 mu=( 0  0  0 )
n=( 1  4  5 )
l=( 3  3  0 )
num_ms=7
< -3  3  0 >:  -1.0862490865486667e-5
< -2  2  0 >:  1.0862490865486667e-5
< -1  1  0 >:  -1.0862490865486667e-5
< 0  0  0 >:  1.0862490865486667e-5
< 1  -1  0 >:  -1.0862490865486667e-5
< 2  -2  0 >:  1.0862490865486667e-5
< 3  -3  0 >:  -1.0862490865486667e-5
ctilde_basis_func: rank=3 ndens=1 mu0=0 mu=( 0  0  0 )
n=( 1  2  8 )
l=( 2  1  1 )
num_ms=9
< -2  1  1 >:  2.578879651402526e-5
< -1  0  1 >:  -1.823543289370726e-5
< -1  1  0 >:  -1.823543289370726e-5
< 0  -1  1 >:  1.0528232089971233e-5
< 0  0  0 >:  2.105646417994249e-5
< 0  1  -1 >:  1.0528232089971244e-5
< 1  -1  0 >:  -1.823543289370726e-5
< 1  0  -1 >:  -1.823543289370726e-5
< 2  -1  -1 >:  2.578879651402526e-5
ctilde_basis_func: rank=3 ndens=1 mu0=0 mu=( 0  0  0 )
n=( 1  5  6 )
l=( 1  2  1 )
num_ms=9
< -1  0  1 >:  -9.142151783072896e-6
< -1  1  0 >:  1.583467137878866e-5
< -1  2  -1 >:  -2.2393607019604006e-5
< 0  -1  1 >:  1.583467137878866e-5
< 0  0  0 >:  -1.8284303566145792e-5
< 0  1  -1 >:  1.583467137878866e-5
< 1  -2  1 >:  -2.2393607019603996e-5
< 1  -1  0 >:  1.583467137878866e-5
< 1  0  -1 >:  -9.142151783072896e-6
ctilde_basis_func: rank=3 ndens=1 mu0=0 mu=( 0  0  0 )
n=( 2  4  4 )
l=( 0  1  1 )
num_ms=2
< 0  -1  1 >:  -2.4926837787275926e-5
< 0  0  0 >:  1.2463418893637958e-5
ctilde_basis_func: rank=3 ndens=1 mu0=0 mu=( 0  0  0 )
n=( 1  2  3 )
l=( 1  2  3 )
num_ms=15
< -1  -2  3 >:  -0.0001325815161698936
< -1  -1  2 >:  0.00010825235464693212
< -1  0  1 >:  -8.385191334706143e-5
< -1  1  0 >:  5.929225654317392e-5
< -1  2  -1 >:  -3.423240027606181e-5
< 0  -2  2 >:  7.654597405025679e-5
< 0  -1  1 >:  -9.682384948598219e-5
< 0  0  0 >:  0.00010269720082818543
< 0  1  -1 >:  -9.682384948598219e-5
< 0  2  -2 >:  7.654597405025679e-5
< 1  -2  1 >:  -3.423240027606181e-5
< 1  -1  0 >:  5.929225654317392e-5
< 1  0  -1 >:  -8.385191334706143e-5
< 1  1  -2 >:  0.00010825235464693212
< 1  2  -3 >:  -0.00013258151616989358
ctilde_basis_func: rank=3 ndens=1 mu0=0 mu=( 0  0  0 )
n=( 2  4  4 )
l=( 1  0  1 )
num_ms=3
< -1  0  1 >:  1.4111909520224508e-5
< 0  0  0 >:  -1.4111909520224508e-5
< 1  0  -1 >:  1.4111909520224508e-5
ctilde_basis_func: rank=3 ndens=1 mu0=0 mu=( 0  0  0 )
n=( 1  2  3 )
l=( 3  2  3 )
num_ms=27
< -3  0  3 >:  1.4695238725563552e-5
< -3  1  2 >:  -1.4695238725563552e-5
< -3  2  1 >:  9.294085026538176e-6
< -2  -1  3 >:  -1.4695238725563552e-5
< -2  1  1 >:  1.1382882970529988e-5
< -2  2  0 >:  -1.314382109437899e-5
< -1  -2  3 >:  9.29408502653818e-6
< -1  -1  2 >:  1.1382882970529988e-5
< -1  0  1 >:  -8.817143235338133e-6
< -1  1  0 >:  -4.156441181600458e-6
< -1  2  -1 >:  1.4398334610407226e-5
< 0  -2  2 >:  -1.314382109437899e-5
< 0  -1  1 >:  -4.156441181600458e-6
< 0  0  0 >:  1.1756190980450845e-5
< 0  1  -1 >:  -4.156441181600458e-6
< 0  2  -2 >:  -1.314382109437899e-5
< 1  -2  1 >:  1.4398334610407226e-5
< 1  -1  0 >:  -4.156441181600458e-6
< 1  0  -1 >:  -8.817143235338133e-6
< 1  1  -2 >:  1.1382882970529988e-5
< 1  2  -3 >:  9.294085026538176e-6
< 2  -2  0 >:  -1.314382109437899e-5
< 2  -1  -1 >:  1.1382882970529988e-5
< 2  1  -3 >:  -1.4695238725563552e-5
< 3  -2  -1 >:  9.294085026538176e-6
< 3  -1  -2 >:  -1.4695238725563552e-5
< 3  0  -3 >:  1.4695238725563552e-5
ctilde_basis_func: rank=3 ndens=1 mu0=0 mu=( 0  0  0 )
n=( 1  2  8 )
l=( 0  2  2 )
num_ms=5
< 0  -2  2 >:  8.512053222606628e-7
< 0  -1  1 >:  -8.512053222606626e-7
< 0  0  0 >:  8.512053222606626e-7
< 0  1  -1 >:  -8.512053222606626e-7
< 0  2  -2 >:  8.512053222606626e-7
ctilde_basis_func: rank=3 ndens=1 mu0=0 mu=( 0  0  0 )
n=( 1  2  3 )
l=( 3  1  4 )
num_ms=21
< -3  -1  4 >:  -0.00013031135362878119
< -3  0  3 >:  6.515567681439055e-5
< -3  1  2 >:  -2.4626531050710657e-5
< -2  -1  3 >:  0.00011285294264406195
< -2  0  2 >:  -8.530880598800682e-5
< -2  1  1 >:  4.265440299400341e-5
< -1  -1  2 >:  -9.537814463426219e-5
< -1  0  1 >:  9.537814463426219e-5
< -1  1  0 >:  -6.032243520904719e-5
< 0  -1  1 >:  7.787592898910523e-5
< 0  0  0 >:  -9.850612420284263e-5
< 0  1  -1 >:  7.787592898910523e-5
< 1  -1  0 >:  -6.032243520904719e-5
< 1  0  -1 >:  9.537814463426219e-5
< 1  1  -2 >:  -9.537814463426219e-5
< 2  -1  -1 >:  4.265440299400341e-5
< 2  0  -2 >:  -8.530880598800682e-5
< 2  1  -3 >:  0.00011285294264406195
< 3  -1  -2 >:  -2.4626531050710657e-5
< 3  0  -3 >:  6.515567681439055e-5
< 3  1  -4 >:  -0.0001303113536287811
ctilde_basis_func: rank=3 ndens=1 mu0=0 mu=( 0  0  0 )
n=( 1  1  2 )
l=( 4  5  1 )
num_ms=27
< -4  3  1 >:  1.1169615302521337e-5
< -4  4  0 >:  -3.3508845907564005e-5
< -4  5  -1 >:  7.492805729687877e-5
< -3  2  1 >:  -1.934634120496577e-5
< -3  3  0 >:  4.467846121008535e-5
< -3  4  -1 >:  -6.701769181512801e-5
< -2  1  1 >:  2.735985811436004e-5
< -2  2  0 >:  -5.11856076073411e-5
< -2  3  -1 >:  5.910404866146588e-5
< -1  0  1 >:  -3.5321424943838096e-5
< -1  1  0 >:  5.471971622872008e-5
< -1  2  -1 >:  -5.11856076073411e-5
< 0  -1  1 >:  4.325973405020865e-5
< 0  0  0 >:  -5.584807651260667e-5
< 0  1  -1 >:  4.325973405020865e-5
< 1  -2  1 >:  -5.11856076073411e-5
< 1  -1  0 >:  5.471971622872008e-5
< 1  0  -1 >:  -3.5321424943838096e-5
< 2  -3  1 >:  5.910404866146588e-5
< 2  -2  0 >:  -5.11856076073411e-5
< 2  -1  -1 >:  2.735985811436004e-5
< 3  -4  1 >:  -6.701769181512801e-5
< 3  -3  0 >:  4.467846121008535e-5
< 3  -2  -1 >:  -1.934634120496577e-5
< 4  -5  1 >:  7.492805729687873e-5
< 4  -4  0 >:  -3.3508845907564005e-5
< 4  -3  -1 >:  1.1169615302521337e-5
ctilde_basis_func: rank=3 ndens=1 mu0=0 mu=( 0  0  0 )
n=( 1  1  1 )
l=( 2  2  2 )
num_ms=5
< -2  0  2 >:  0.0008350005865050918
< -2  1  1 >:  -0.0005113313429655403
< -1  -1  2 >:  -0.0005113313429655403
< -1  0  1 >:  0.00041750029325254596
< 0  0  0 >:  -0.00013916676441751532
ctilde_basis_func: rank=3 ndens=1 mu0=0 mu=( 0  0  0 )
n=( 1  4  4 )
l=( 1  2  3 )
num_ms=15
< -1  -2  3 >:  1.9005557201447544e-5
< -1  -1  2 >:  -1.5517972473608236e-5
< -1  0  1 >:  1.2020169791437963e-5
< -1  1  0 >:  -8.499543570539474e-6
< -1  2  -1 >:  4.907213768439917e-6
< 0  -2  2 >:  -1.0972863566354569e-5
< 0  -1  1 >:  1.387969652958343e-5
< 0  0  0 >:  -1.4721641305319752e-5
< 0  1  -1 >:  1.387969652958343e-5
< 0  2  -2 >:  -1.0972863566354569e-5
< 1  -2  1 >:  4.907213768439917e-6
< 1  -1  0 >:  -8.499543570539474e-6
< 1  0  -1 >:  1.2020169791437963e-5
< 1  1  -2 >:  -1.5517972473608236e-5
< 1  2  -3 >:  1.900555720144754e-5
ctilde_basis_func: rank=3 ndens=1 mu0=0 mu=( 0  0  0 )
n=( 1  1  7 )
l=( 1  2  3 )
num_ms=15
< -1  -2  3 >:  1.9355492611944383e-5
< -1  -1  2 >:  -1.5803693539824448e-5
< -1  0  1 >:  1.2241488377661164e-5
< -1  1  0 >:  -8.65603944366052e-6
< -1  2  -1 >:  4.997566702913418e-6
< 0  -2  2 >:  -1.1174898869803903e-5
< 0  -1  1 >:  1.4135253220248697e-5
< 0  0  0 >:  -1.4992700108740256e-5
< 0  1  -1 >:  1.4135253220248697e-5
< 0  2  -2 >:  -1.1174898869803903e-5
< 1  -2  1 >:  4.997566702913418e-6
< 1  -1  0 >:  -8.65603944366052e-6
< 1  0  -1 >:  1.2241488377661164e-5
< 1  1  -2 >:  -1.5803693539824448e-5
< 1  2  -3 >:  1.935549261194438e-5
ctilde_basis_func: rank=3 ndens=1 mu0=0 mu=( 0  0  0 )
n=( 1  2  6 )
l=( 2  0  2 )
num_ms=5
< -2  0  2 >:  2.466623391278024e-5
< -1  0  1 >:  -2.466623391278024e-5
< 0  0  0 >:  2.466623391278024e-5
< 1  0  -1 >:  -2.466623391278024e-5
< 2  0  -2 >:  2.466623391278024e-5
ctilde_basis_func: rank=3 ndens=1 mu0=0 mu=( 0  0  0 )
n=( 2  2  4 )
l=( 2  2  2 )
num_ms=11
< -2  0  2 >:  -6.664982154245774e-6
< -2  1  1 >:  8.16290271132898e-6
< -2  2  0 >:  -6.664982154245777e-6
< -1  -1  2 >:  4.08145135566449e-6
< -1  0  1 >:  -3.3324910771228884e-6
< -1  1  0 >:  -3.3324910771228884e-6
< -1  2  -1 >:  8.16290271132898e-6
< 0  0  0 >:  3.3324910771228884e-6
< 0  1  -1 >:  -3.3324910771228884e-6
< 0  2  -2 >:  -6.664982154245777e-6
< 1  1  -2 >:  4.08145135566449e-6
ctilde_basis_func: rank=3 ndens=1 mu0=0 mu=( 0  0  0 )
n=( 1  2  7 )
l=( 2  1  3 )
num_ms=15
< -2  -1  3 >:  4.273614684274309e-5
< -2  0  2 >:  -2.4673725883785093e-5
< -2  1  1 >:  1.1034425666867908e-5
< -1  -1  2 >:  -3.4893917779124955e-5
< -1  0  1 >:  3.121006886216476e-5
< -1  1  0 >:  -1.9112185887357305e-5
< 0  -1  1 >:  2.7028712488496373e-5
< 0  0  0 >:  -3.310327700060372e-5
< 0  1  -1 >:  2.7028712488496373e-5
< 1  -1  0 >:  -1.9112185887357305e-5
< 1  0  -1 >:  3.121006886216476e-5
< 1  1  -2 >:  -3.4893917779124955e-5
< 2  -1  -1 >:  1.1034425666867908e-5
< 2  0  -2 >:  -2.4673725883785093e-5
< 2  1  -3 >:  4.273614684274307e-5
ctilde_basis_func: rank=3 ndens=1 mu0=0 mu=( 0  0  0 )
n=( 2  2  11 )
l=( 0  1  1 )
num_ms=3
< 0  -1  1 >:  6.441378358958332e-6
< 0  0  0 >:  -6.441378358958329e-6
< 0  1  -1 >:  6.441378358958329e-6
ctilde_basis_func: rank=3 ndens=1 mu0=0 mu=( 0  0  0 )
n=( 1  2  3 )
l=( 1  1  2 )
num_ms=9
< -1  -1  2 >:  4.20103168044438e-5
< -1  0  1 >:  -2.9705779892217383e-5
< -1  1  0 >:  1.7150640017259483e-5
< 0  -1  1 >:  -2.9705779892217383e-5
< 0  0  0 >:  3.4301280034518966e-5
< 0  1  -1 >:  -2.9705779892217383e-5
< 1  -1  0 >:  1.7150640017259483e-5
< 1  0  -1 >:  -2.9705779892217383e-5
< 1  1  -2 >:  4.201031680444381e-5
ctilde_basis_func: rank=3 ndens=1 mu0=0 mu=( 0  0  0 )
n=( 1  1  3 )
l=( 2  3  1 )
num_ms=15
< -2  1  1 >:  -3.9153177608592326e-5
< -2  2  0 >:  8.75491666679351e-5
< -2  3  -1 >:  -0.0001516396048291792
< -1  0  1 >:  6.781529289585002e-5
< -1  1  0 >:  -0.0001107419095681477
< -1  2  -1 >:  0.00012381321887625633
< 0  -1  1 >:  -9.59053069496149e-5
< 0  0  0 >:  0.00011745953282577696
< 0  1  -1 >:  -9.59053069496149e-5
< 1  -2  1 >:  0.00012381321887625633
< 1  -1  0 >:  -0.0001107419095681477
< 1  0  -1 >:  6.781529289585002e-5
< 2  -3  1 >:  -0.00015163960482917924
< 2  -2  0 >:  8.75491666679351e-5
< 2  -1  -1 >:  -3.9153177608592326e-5
ctilde_basis_func: rank=3 ndens=1 mu0=0 mu=( 0  0  0 )
n=( 1  3  6 )
l=( 2  3  1 )
num_ms=15
< -2  1  1 >:  -5.740994312678477e-6
< -2  2  0 >:  1.2837253541588758e-5
< -2  3  -1 >:  -2.223477536367524e-5
< -1  0  1 >:  9.943693835523088e-6
< -1  1  0 >:  -1.6237984036993418e-5
< -1  2  -1 >:  1.815461806213687e-5
< 0  -1  1 >:  -1.4062506682282492e-5
< 0  0  0 >:  1.7222982938035428e-5
< 0  1  -1 >:  -1.4062506682282492e-5
< 1  -2  1 >:  1.815461806213687e-5
< 1  -1  0 >:  -1.6237984036993418e-5
< 1  0  -1 >:  9.943693835523088e-6
< 2  -3  1 >:  -2.2234775363675243e-5
< 2  -2  0 >:  1.2837253541588758e-5
< 2  -1  -1 >:  -5.740994312678477e-6
ctilde_basis_func: rank=3 ndens=1 mu0=0 mu=( 0  0  0 )
n=( 1  1  4 )
l=( 2  3  3 )
num_ms=27
< -2  -1  3 >:  -9.523975453928302e-5
< -2  0  2 >:  0.00013468935254653858
< -2  1  1 >:  -0.00014754479329101013
< -2  2  0 >:  0.00013468935254653858
< -2  3  -1 >:  -9.523975453928302e-5
< -1  -2  3 >:  0.00015058727406974733
< -1  -1  2 >:  -0.00011664440092458067
< -1  0  1 >:  4.25925130620462e-5
< -1  1  0 >:  4.25925130620462e-5
< -1  2  -1 >:  -0.00011664440092458067
< -1  3  -2 >:  0.00015058727406974733
< 0  -3  3 >:  -0.00015058727406974738
< 0  -1  1 >:  9.03523644418484e-5
< 0  0  0 >:  -0.00012046981925579786
< 0  1  -1 >:  9.03523644418484e-5
< 0  3  -3 >:  -0.00015058727406974733
< 1  -3  2 >:  0.00015058727406974733
< 1  -2  1 >:  -0.00011664440092458067
< 1  -1  0 >:  4.25925130620462e-5
< 1  0  -1 >:  4.25925130620462e-5
< 1  1  -2 >:  -0.00011664440092458067
< 1  2  -3 >:  0.00015058727406974733
< 2  -3  1 >:  -9.523975453928302e-5
< 2  -2  0 >:  0.00013468935254653858
< 2  -1  -1 >:  -0.00014754479329101013
< 2  0  -2 >:  0.00013468935254653858
< 2  1  -3 >:  -9.523975453928302e-5
ctilde_basis_func: rank=3 ndens=1 mu0=0 mu=( 0  0  0 )
n=( 1  3  3 )
l=( 2  2  4 )
num_ms=25
< -2  -2  4 >:  1.1968020741625688e-5
< -2  -1  3 >:  -8.462668623784775e-6
< -2  0  2 >:  5.540117078545928e-6
< -2  1  1 >:  -3.1985880866405347e-6
< -2  2  0 >:  1.4304520787498445e-6
< -1  -2  3 >:  -8.462668623784775e-6
< -1  -1  2 >:  9.046973305144105e-6
< -1  0  1 >:  -7.83490870961446e-6
< -1  1  0 >:  5.721808314999378e-6
< -1  2  -1 >:  -3.1985880866405347e-6
< 0  -2  2 >:  5.540117078545928e-6
< 0  -1  1 >:  -7.83490870961446e-6
< 0  0  0 >:  8.582712472499065e-6
< 0  1  -1 >:  -7.83490870961446e-6
< 0  2  -2 >:  5.540117078545928e-6
< 1  -2  1 >:  -3.1985880866405347e-6
< 1  -1  0 >:  5.721808314999378e-6
< 1  0  -1 >:  -7.83490870961446e-6
< 1  1  -2 >:  9.046973305144105e-6
< 1  2  -3 >:  -8.462668623784775e-6
< 2  -2  0 >:  1.4304520787498445e-6
< 2  -1  -1 >:  -3.1985880866405347e-6
< 2  0  -2 >:  5.540117078545928e-6
< 2  1  -3 >:  -8.462668623784775e-6
< 2  2  -4 >:  1.1968020741625681e-5
ctilde_basis_func: rank=3 ndens=1 mu0=0 mu=( 0  0  0 )
n=( 1  1  1 )
l=( 1  4  5 )
num_ms=27
< -1  -4  5 >:  0.00015652621553272466
< -1  -3  4 >:  -0.00014000130327678243
< -1  -2  3 >:  0.00012346954389843288
< -1  -1  2 >:  -0.0001069277616097208
< -1  0  1 >:  9.037045267305204e-5
< -1  1  0 >:  -7.37871656244379e-5
< -1  2  -1 >:  5.715529272545927e-5
< -1  3  -2 >:  -4.04148950668744e-5
< -1  4  -3 >:  2.333355054613041e-5
< 0  -4  4 >:  -7.000065163839122e-5
< 0  -3  3 >:  9.333420218452165e-5
< 0  -2  2 >:  -0.0001069277616097208
< 0  -1  1 >:  0.00011431058545091853
< 0  0  0 >:  -0.00011666775273065206
< 0  1  -1 >:  0.00011431058545091853
< 0  2  -2 >:  -0.0001069277616097208
< 0  3  -3 >:  9.333420218452165e-5
< 0  4  -4 >:  -7.000065163839122e-5
< 1  -4  3 >:  2.333355054613041e-5
< 1  -3  2 >:  -4.04148950668744e-5
< 1  -2  1 >:  5.715529272545927e-5
< 1  -1  0 >:  -7.37871656244379e-5
< 1  0  -1 >:  9.037045267305204e-5
< 1  1  -2 >:  -0.0001069277616097208
< 1  2  -3 >:  0.00012346954389843288
< 1  3  -4 >:  -0.00014000130327678243
< 1  4  -5 >:  0.00015652621553272482
ctilde_basis_func: rank=3 ndens=1 mu0=0 mu=( 0  0  0 )
n=( 1  3  4 )
l=( 0  3  3 )
num_ms=7
< 0  -3  3 >:  3.110928751826886e-5
< 0  -2  2 >:  -3.110928751826886e-5
< 0  -1  1 >:  3.110928751826886e-5
< 0  0  0 >:  -3.110928751826886e-5
< 0  1  -1 >:  3.110928751826886e-5
< 0  2  -2 >:  -3.110928751826886e-5
< 0  3  -3 >:  3.110928751826886e-5
ctilde_basis_func: rank=3 ndens=1 mu0=0 mu=( 0  0  0 )
n=( 2  2  2 )
l=( 0  2  2 )
num_ms=3
< 0  -2  2 >:  -9.056654198453572e-5
< 0  -1  1 >:  9.056654198453572e-5
< 0  0  0 >:  -4.528327099226786e-5
ctilde_basis_func: rank=3 ndens=1 mu0=0 mu=( 0  0  0 )
n=( 2  2  4 )
l=( 1  3  2 )
num_ms=15
< -1  -1  2 >:  -8.073837851762635e-6
< -1  0  1 >:  1.3984297371325642e-5
< -1  1  0 >:  -1.9776783002787142e-5
< -1  2  -1 >:  2.553171707045084e-5
< -1  3  -2 >:  -3.1269839539855754e-5
< 0  -2  2 >:  1.8053650275852125e-5
< 0  -1  1 >:  -2.2836261980727947e-5
< 0  0  0 >:  2.422151355528791e-5
< 0  1  -1 >:  -2.2836261980727947e-5
< 0  2  -2 >:  1.8053650275852125e-5
< 1  -3  2 >:  -3.126983953985576e-5
< 1  -2  1 >:  2.553171707045084e-5
< 1  -1  0 >:  -1.9776783002787142e-5
< 1  0  -1 >:  1.3984297371325642e-5
< 1  1  -2 >:  -8.073837851762635e-6
ctilde_basis_func: rank=3 ndens=1 mu0=0 mu=( 0  0  0 )
n=( 1  3  8 )
l=( 2  1  1 )
num_ms=9
< -2  1  1 >:  -8.78842372643111e-6
< -1  0  1 >:  6.214354012900186e-6
< -1  1  0 >:  6.214354012900186e-6
< 0  -1  1 >:  -3.5878589621875496e-6
< 0  0  0 >:  -7.175717924375108e-6
< 0  1  -1 >:  -3.587858962187554e-6
< 1  -1  0 >:  6.214354012900186e-6
< 1  0  -1 >:  6.214354012900186e-6
< 2  -1  -1 >:  -8.78842372643111e-6
ctilde_basis_func: rank=3 ndens=1 mu0=0 mu=( 0  0  0 )
n=( 2  3  4 )
l=( 3  3  0 )
num_ms=7
< -3  3  0 >:  2.7642222590251458e-5
< -2  2  0 >:  -2.7642222590251458e-5
< -1  1  0 >:  2.7642222590251458e-5
< 0  0  0 >:  -2.7642222590251458e-5
< 1  -1  0 >:  2.7642222590251458e-5
< 2  -2  0 >:  -2.7642222590251458e-5
< 3  -3  0 >:  2.7642222590251458e-5
ctilde_basis_func: rank=3 ndens=1 mu0=0 mu=( 0  0  0 )
n=( 1  4  4 )
l=( 2  1  3 )
num_ms=15
< -2  -1  3 >:  -2.994259270680472e-5
< -2  0  2 >:  1.7287363959509028e-5
< -2  1  1 >:  -7.73114419304842e-6
< -1  -1  2 >:  2.4448024569217517e-5
< -1  0  1 >:  -2.186697794094215e-5
< -1  1  0 >:  1.3390734543000954e-5
< 0  -1  1 >:  -1.893735840084984e-5
< 0  0  0 >:  2.319343257914526e-5
< 0  1  -1 >:  -1.893735840084984e-5
< 1  -1  0 >:  1.3390734543000954e-5
< 1  0  -1 >:  -2.186697794094215e-5
< 1  1  -2 >:  2.4448024569217517e-5
< 2  -1  -1 >:  -7.73114419304842e-6
< 2  0  -2 >:  1.7287363959509028e-5
< 2  1  -3 >:  -2.994259270680471e-5
ctilde_basis_func: rank=3 ndens=1 mu0=0 mu=( 0  0  0 )
n=( 1  1  6 )
l=( 1  3  2 )
num_ms=15
< -1  -1  2 >:  1.0550511519694917e-5
< -1  0  1 >:  -1.8274021997952327e-5
< -1  1  0 >:  2.5843369748608453e-5
< -1  2  -1 >:  -3.336364688208038e-5
< -1  3  -2 >:  4.086195540974792e-5
< 0  -2  2 >:  -2.359166095543245e-5
< 0  -1  1 >:  2.9841352962252248e-5
< 0  0  0 >:  -3.1651534559084754e-5
< 0  1  -1 >:  2.9841352962252248e-5
< 0  2  -2 >:  -2.359166095543245e-5
< 1  -3  2 >:  4.0861955409747926e-5
< 1  -2  1 >:  -3.336364688208038e-5
< 1  -1  0 >:  2.5843369748608453e-5
< 1  0  -1 >:  -1.8274021997952327e-5
< 1  1  -2 >:  1.0550511519694917e-5
ctilde_basis_func: rank=3 ndens=1 mu0=0 mu=( 0  0  0 )
n=( 1  2  4 )
l=( 2  4  2 )
num_ms=25
< -2  0  2 >:  -4.315600047300004e-6
< -2  1  1 >:  9.649975069464117e-6
< -2  2  0 >:  -1.671424711208486e-5
< -2  3  -1 >:  2.5531434191775297e-5
< -2  4  -2 >:  -3.610690050084479e-5
< -1  -1  2 >:  9.649975069464117e-6
< -1  0  1 >:  -1.7262400189200017e-5
< -1  1  0 >:  2.3637514950765742e-5
< -1  2  -1 >:  -2.7294251239596805e-5
< -1  3  -2 >:  2.5531434191775297e-5
< 0  -2  2 >:  -1.671424711208486e-5
< 0  -1  1 >:  2.3637514950765742e-5
< 0  0  0 >:  -2.5893600283800024e-5
< 0  1  -1 >:  2.3637514950765742e-5
< 0  2  -2 >:  -1.671424711208486e-5
< 1  -3  2 >:  2.5531434191775297e-5
< 1  -2  1 >:  -2.7294251239596805e-5
< 1  -1  0 >:  2.3637514950765742e-5
< 1  0  -1 >:  -1.7262400189200017e-5
< 1  1  -2 >:  9.649975069464117e-6
< 2  -4  2 >:  -3.6106900500844806e-5
< 2  -3  1 >:  2.5531434191775297e-5
< 2  -2  0 >:  -1.671424711208486e-5
< 2  -1  -1 >:  9.649975069464117e-6
< 2  0  -2 >:  -4.315600047300004e-6
ctilde_basis_func: rank=3 ndens=1 mu0=0 mu=( 0  0  0 )
n=( 1  1  3 )
l=( 2  5  3 )
num_ms=35
< -2  -1  3 >:  2.572403770129731e-7
< -2  0  2 >:  -5.752069695586821e-7
< -2  1  1 >:  9.96287696143362e-7
< -2  2  0 >:  -1.5218545938433735e-6
< -2  3  -1 >:  2.152227406573097e-6
< -2  4  -2 >:  -2.8875160704813133e-6
< -2  5  -3 >:  3.7277672176268024e-6
< -1  -2  3 >:  -6.805940647408232e-7
< -1  -1  2 >:  1.2602153298459105e-6
< -1  0  1 >:  -1.8189641498085738e-6
< -1  1  0 >:  2.3008278782347283e-6
< -1  2  -1 >:  -2.6359294782688208e-6
< -1  3  -2 >:  2.722376258963293e-6
< -1  4  -3 >:  -2.357646998921855e-6
< 0  -3  3 >:  1.3611881294816465e-6
< 0  -2  2 >:  -2.0417821942224695e-6
< 0  -1  1 >:  2.4403964925642492e-6
< 0  0  0 >:  -2.5724037701297308e-6
< 0  1  -1 >:  2.4403964925642492e-6
< 0  2  -2 >:  -2.0417821942224695e-6
< 0  3  -3 >:  1.3611881294816465e-6
< 1  -4  3 >:  -2.357646998921855e-6
< 1  -3  2 >:  2.722376258963293e-6
< 1  -2  1 >:  -2.6359294782688208e-6
< 1  -1  0 >:  2.3008278782347283e-6
< 1  0  -1 >:  -1.8189641498085738e-6
< 1  1  -2 >:  1.2602153298459105e-6
< 1  2  -3 >:  -6.805940647408232e-7
< 2  -5  3 >:  3.727767217626804e-6
< 2  -4  2 >:  -2.8875160704813133e-6
< 2  -3  1 >:  2.152227406573097e-6
< 2  -2  0 >:  -1.5218545938433735e-6
< 2  -1  -1 >:  9.96287696143362e-7
< 2  0  -2 >:  -5.752069695586821e-7
< 2  1  -3 >:  2.572403770129731e-7
ctilde_basis_func: rank=3 ndens=1 mu0=0 mu=( 0  0  0 )
n=( 1  1  2 )
l=( 2  2  2 )
num_ms=11
< -2  0  2 >:  -1.5270864132707637e-6
< -2  1  1 >:  1.8702912528251453e-6
< -2  2  0 >:  -1.527086413270764e-6
< -1  -1  2 >:  9.351456264125727e-7
< -1  0  1 >:  -7.63543206635382e-7
< -1  1  0 >:  -7.63543206635382e-7
< -1  2  -1 >:  1.8702912528251453e-6
< 0  0  0 >:  7.63543206635382e-7
< 0  1  -1 >:  -7.63543206635382e-7
< 0  2  -2 >:  -1.527086413270764e-6
< 1  1  -2 >:  9.351456264125727e-7
ctilde_basis_func: rank=3 ndens=1 mu0=0 mu=( 0  0  0 )
n=( 1  3  3 )
l=( 1  0  1 )
num_ms=3
< -1  0  1 >:  -4.888101915566344e-6
< 0  0  0 >:  4.888101915566344e-6
< 1  0  -1 >:  -4.888101915566344e-6
ctilde_basis_func: rank=3 ndens=1 mu0=0 mu=( 0  0  0 )
n=( 1  2  2 )
l=( 2  2  4 )
num_ms=25
< -2  -2  4 >:  6.427252364098395e-5
< -2  -1  3 >:  -4.544753731051243e-5
< -2  0  2 >:  2.9752397124964707e-5
< -2  1  1 >:  -1.717755448913502e-5
< -2  2  0 >:  7.682035904982514e-6
< -1  -2  3 >:  -4.544753731051243e-5
< -1  -1  2 >:  4.8585461053875176e-5
< -1  0  1 >:  -4.2076243527235366e-5
< -1  1  0 >:  3.072814361993006e-5
< -1  2  -1 >:  -1.717755448913502e-5
< 0  -2  2 >:  2.9752397124964707e-5
< 0  -1  1 >:  -4.2076243527235366e-5
< 0  0  0 >:  4.609221542989509e-5
< 0  1  -1 >:  -4.2076243527235366e-5
< 0  2  -2 >:  2.9752397124964707e-5
< 1  -2  1 >:  -1.717755448913502e-5
< 1  -1  0 >:  3.072814361993006e-5
< 1  0  -1 >:  -4.2076243527235366e-5
< 1  1  -2 >:  4.8585461053875176e-5
< 1  2  -3 >:  -4.544753731051243e-5
< 2  -2  0 >:  7.682035904982514e-6
< 2  -1  -1 >:  -1.717755448913502e-5
< 2  0  -2 >:  2.9752397124964707e-5
< 2  1  -3 >:  -4.544753731051243e-5
< 2  2  -4 >:  6.427252364098392e-5
ctilde_basis_func: rank=3 ndens=1 mu0=0 mu=( 0  0  0 )
n=( 1  1  3 )
l=( 2  4  4 )
num_ms=39
< -2  -2  4 >:  -2.8235661129948327e-5
< -2  -1  3 >:  4.2353491694922495e-5
< -2  0  2 >:  -5.062210497897801e-5
< -2  1  1 >:  5.3360383895240206e-5
< -2  2  0 >:  -5.062210497897801e-5
< -2  3  -1 >:  4.2353491694922495e-5
< -2  4  -2 >:  -2.8235661129948327e-5
< -1  -3  4 >:  5.282408501865851e-5
< -1  -2  3 >:  -4.99140686406797e-5
< -1  -1  2 >:  3.395834036913761e-5
< -1  0  1 >:  -1.1931744569524212e-5
< -1  1  0 >:  -1.1931744569524212e-5
< -1  2  -1 >:  3.395834036913761e-5
< -1  3  -2 >:  -4.99140686406797e-5
< -1  4  -3 >:  5.282408501865851e-5
< 0  -4  4 >:  -6.099599941043628e-5
< 0  -3  3 >:  1.5248999852609087e-5
< 0  -2  2 >:  1.7427428402981808e-5
< 0  -1  1 >:  -3.7033285356336335e-5
< 0  0  0 >:  4.356857100745453e-5
< 0  1  -1 >:  -3.7033285356336335e-5
< 0  2  -2 >:  1.7427428402981808e-5
< 0  3  -3 >:  1.5248999852609087e-5
< 0  4  -4 >:  -6.099599941043635e-5
< 1  -4  3 >:  5.282408501865851e-5
< 1  -3  2 >:  -4.99140686406797e-5
< 1  -2  1 >:  3.395834036913761e-5
< 1  -1  0 >:  -1.1931744569524212e-5
< 1  0  -1 >:  -1.1931744569524212e-5
< 1  1  -2 >:  3.395834036913761e-5
< 1  2  -3 >:  -4.99140686406797e-5
< 1  3  -4 >:  5.282408501865851e-5
< 2  -4  2 >:  -2.8235661129948327e-5
< 2  -3  1 >:  4.2353491694922495e-5
< 2  -2  0 >:  -5.062210497897801e-5
< 2  -1  -1 >:  5.3360383895240206e-5
< 2  0  -2 >:  -5.062210497897801e-5
< 2  1  -3 >:  4.2353491694922495e-5
< 2  2  -4 >:  -2.8235661129948327e-5
ctilde_basis_func: rank=3 ndens=1 mu0=0 mu=( 0  0  0 )
n=( 3  4  5 )
l=( 0  1  1 )
num_ms=3
< 0  -1  1 >:  -7.87542092145438e-6
< 0  0  0 >:  7.875420921454377e-6
< 0  1  -1 >:  -7.875420921454377e-6
ctilde_basis_func: rank=3 ndens=1 mu0=0 mu=( 0  0  0 )
n=( 2  3  4 )
l=( 2  1  3 )
num_ms=15
< -2  -1  3 >:  1.506854753675212e-5
< -2  0  2 >:  -8.699829976640508e-6
< -2  1  1 >:  3.890682244091716e-6
< -1  -1  2 >:  -1.2303417543305013e-5
< -1  0  1 >:  1.100451119295739e-5
< -1  1  0 >:  -6.738859322872948e-6
< 0  -1  1 >:  9.530186249331296e-6
< 0  0  0 >:  -1.1672046732275148e-5
< 0  1  -1 >:  9.530186249331296e-6
< 1  -1  0 >:  -6.738859322872948e-6
< 1  0  -1 >:  1.100451119295739e-5
< 1  1  -2 >:  -1.2303417543305013e-5
< 2  -1  -1 >:  3.890682244091716e-6
< 2  0  -2 >:  -8.699829976640508e-6
< 2  1  -3 >:  1.5068547536752116e-5
ctilde_basis_func: rank=3 ndens=1 mu0=0 mu=( 0  0  0 )
n=( 1  1  5 )
l=( 1  4  3 )
num_ms=21
< -1  -2  3 >:  -1.0526483333008869e-5
< -1  -1  2 >:  1.8232403957798338e-5
< -1  0  1 >:  -2.5784512951783306e-5
< -1  1  0 >:  3.328766308410873e-5
< -1  2  -1 >:  -4.076889464287329e-5
< -1  3  -2 >:  4.823840667520419e-5
< -1  4  -3 >:  -5.570091415841555e-5
< 0  -3  3 >:  2.7850457079207775e-5
< 0  -2  2 >:  -3.6464807915596676e-5
< 0  -1  1 >:  4.076889464287329e-5
< 0  0  0 >:  -4.2105933332035475e-5
< 0  1  -1 >:  4.076889464287329e-5
< 0  2  -2 >:  -3.6464807915596676e-5
< 0  3  -3 >:  2.7850457079207775e-5
< 1  -4  3 >:  -5.5700914158415584e-5
< 1  -3  2 >:  4.823840667520419e-5
< 1  -2  1 >:  -4.076889464287329e-5
< 1  -1  0 >:  3.328766308410873e-5
< 1  0  -1 >:  -2.5784512951783306e-5
< 1  1  -2 >:  1.8232403957798338e-5
< 1  2  -3 >:  -1.0526483333008869e-5
ctilde_basis_func: rank=3 ndens=1 mu0=0 mu=( 0  0  0 )
n=( 2  4  4 )
l=( 2  1  3 )
num_ms=15
< -2  -1  3 >:  -2.4828040706167336e-5
< -2  0  2 >:  1.4334475985156694e-5
< -2  1  1 >:  -6.410572544929726e-6
< -1  -1  2 >:  2.0272010347720028e-5
< -1  0  1 >:  -1.813183727123245e-5
< -1  1  0 >:  1.1103437353424405e-5
< 0  -1  1 >:  -1.5702631694172817e-5
< 0  0  0 >:  1.923171763478918e-5
< 0  1  -1 >:  -1.5702631694172817e-5
< 1  -1  0 >:  1.1103437353424405e-5
< 1  0  -1 >:  -1.813183727123245e-5
< 1  1  -2 >:  2.0272010347720028e-5
< 2  -1  -1 >:  -6.410572544929726e-6
< 2  0  -2 >:  1.4334475985156694e-5
< 2  1  -3 >:  -2.4828040706167326e-5
ctilde_basis_func: rank=3 ndens=1 mu0=0 mu=( 0  0  0 )
n=( 2  2  2 )
l=( 2  3  3 )
num_ms=15
< -2  -1  3 >:  6.552357811701213e-6
