nelements=1
elements: Si

lmax=6

2 FS parameters:  1.000000 1.000000
core energy-cutoff parameters: 100000.000000000000000000 1.000000000000000000
E0: -158.54496821

radbasename=ACE.jl.Basic
haspair: t

transform parameters: p=2 r0=2.35126
cutoff parameters: rcut=5.5 xl=0.2658211500023669 xr=1.6042620210695941 pl=2 pr=2
recursion coefficients: maxn=18
 7.821202223493647 0.0 0.0
 4.955952649160867 -4.634021822912618 0.0
 3.9956167645897973 -3.736067834756193 -0.8062257748298656
 3.632378876899846 -3.396425304323833 -0.9090909090909028
 3.4441358810053155 -3.220410274976574 -0.9481763873555078
 3.331005797707162 -3.114628942517647 -0.9671528397232808
 3.256698923178486 -3.0451489247421324 -0.9776923610941147
 3.2048648622710894 -2.9966819222465113 -0.9840838646340656
 3.167085174324123 -2.9613563429275254 -0.988211768804444
 3.138607272777173 -2.9347283207123276 -0.9910081668223445
 3.1165595829870045 -2.9141128138935235 -0.9929753269925177
 3.0991136906213357 -2.8978001790348364 -0.9944021951446367
 3.08505564490434 -2.884655321678083 -0.995463849629161
 3.0735513577131024 -2.8738983347423233 -0.9962709628235525
 3.0640110824280233 -2.864977780613316 -0.9968960091520438
 3.05600755744042 -2.857494151919029 -0.9973878929376229
 3.049224676161325 -2.8511518758533216 -0.9977804762744855
 3.043424253671011 -2.8457282396112 -0.9980977385708372
tests: ntests=0

begin repulsive potential
begin polypairpot
transform parameters: p=2 r0=2.35126
cutoff parameters: rcut=6.5 xl=0.1996612193351111 xr=2.372718237344682 pl=1 pr=0
recursion coefficients: maxn=8
 0.7970573297067717 0.0 0.0
 2.376367709542944 -4.34745440267418 0.0
 2.0418559725718572 -2.995966854134438 -0.8592340168452226
 1.9480476778224156 -2.6819368663177676 -0.9540573399840273
 1.9078222609703703 -2.557456376087243 -0.979350907418754
 1.886748315849131 -2.495034632578642 -0.9889539263943126
 1.8742963773986112 -2.459167072303244 -0.9934003182375156
 1.866316576065074 -2.436619813846683 -0.9957425082661538
tests: ntests=0
coefficients
0.5146650314252852
0.5914823321993926
-1.233383283560514
-0.819127575670297
0.6767572307775822
0.9785880581818649
0.5469038301305722
0.14020724137458693
end polypairpot
spline parameters
   e_0 + B  exp(-A*(r/ri-1)) * (ri/r)
ri=1.6223693999999997
e0=0.0
A=10.124034391651447
B=2.6906519084041136
end repulsive potential

rankmax=4
ndensitymax=1

num_c_tilde_max=3200
num_ms_combinations_max=97
total_basis_size_rank1: 18
ctilde_basis_func: rank=1 ndens=1 mu0=0 mu=( 0 )
n=( 2 )
l=( 0 )
num_ms=1
< 0 >:  0.01452473757881734
ctilde_basis_func: rank=1 ndens=1 mu0=0 mu=( 0 )
n=( 9 )
l=( 0 )
num_ms=1
< 0 >:  -2.693894421288612e-5
ctilde_basis_func: rank=1 ndens=1 mu0=0 mu=( 0 )
n=( 14 )
l=( 0 )
num_ms=1
< 0 >:  1.023844846046218e-5
ctilde_basis_func: rank=1 ndens=1 mu0=0 mu=( 0 )
n=( 7 )
l=( 0 )
num_ms=1
< 0 >:  -5.8057915615944015e-5
ctilde_basis_func: rank=1 ndens=1 mu0=0 mu=( 0 )
n=( 6 )
l=( 0 )
num_ms=1
< 0 >:  0.00022045460886666252
ctilde_basis_func: rank=1 ndens=1 mu0=0 mu=( 0 )
n=( 15 )
l=( 0 )
num_ms=1
< 0 >:  -7.192084027106565e-5
ctilde_basis_func: rank=1 ndens=1 mu0=0 mu=( 0 )
n=( 13 )
l=( 0 )
num_ms=1
< 0 >:  -8.007439030603476e-5
ctilde_basis_func: rank=1 ndens=1 mu0=0 mu=( 0 )
n=( 12 )
l=( 0 )
num_ms=1
< 0 >:  -2.4178783178643406e-5
ctilde_basis_func: rank=1 ndens=1 mu0=0 mu=( 0 )
n=( 17 )
l=( 0 )
num_ms=1
< 0 >:  -2.865285460562324e-5
ctilde_basis_func: rank=1 ndens=1 mu0=0 mu=( 0 )
n=( 5 )
l=( 0 )
num_ms=1
< 0 >:  -0.0009378152491689454
ctilde_basis_func: rank=1 ndens=1 mu0=0 mu=( 0 )
n=( 18 )
l=( 0 )
num_ms=1
< 0 >:  -7.732303286600689e-5
ctilde_basis_func: rank=1 ndens=1 mu0=0 mu=( 0 )
n=( 8 )
l=( 0 )
num_ms=1
< 0 >:  -0.00011869804539439767
ctilde_basis_func: rank=1 ndens=1 mu0=0 mu=( 0 )
n=( 3 )
l=( 0 )
num_ms=1
< 0 >:  -0.0032492459170936966
ctilde_basis_func: rank=1 ndens=1 mu0=0 mu=( 0 )
n=( 4 )
l=( 0 )
num_ms=1
< 0 >:  0.0018209895245067554
ctilde_basis_func: rank=1 ndens=1 mu0=0 mu=( 0 )
n=( 10 )
l=( 0 )
num_ms=1
< 0 >:  -0.00012086265016595515
ctilde_basis_func: rank=1 ndens=1 mu0=0 mu=( 0 )
n=( 1 )
l=( 0 )
num_ms=1
< 0 >:  -0.13715598886101105
ctilde_basis_func: rank=1 ndens=1 mu0=0 mu=( 0 )
n=( 16 )
l=( 0 )
num_ms=1
< 0 >:  2.6730138728265403e-5
ctilde_basis_func: rank=1 ndens=1 mu0=0 mu=( 0 )
n=( 11 )
l=( 0 )
num_ms=1
< 0 >:  -2.619300326680603e-5
total_basis_size: 3182
ctilde_basis_func: rank=2 ndens=1 mu0=0 mu=( 0  0 )
n=( 1  1 )
l=( 5  5 )
num_ms=6
< -5  5 >:  0.00019998519297403203
< -4  4 >:  -0.00019998519297403206
< -3  3 >:  0.00019998519297403206
< -2  2 >:  -0.00019998519297403206
< -1  1 >:  0.00019998519297403206
< 0  0 >:  -9.999259648701603e-5
ctilde_basis_func: rank=2 ndens=1 mu0=0 mu=( 0  0 )
n=( 3  3 )
l=( 4  4 )
num_ms=5
< -4  4 >:  -4.9318610955560283e-5
< -3  3 >:  4.931861095556028e-5
< -2  2 >:  -4.931861095556028e-5
< -1  1 >:  4.931861095556028e-5
< 0  0 >:  -2.465930547778014e-5
ctilde_basis_func: rank=2 ndens=1 mu0=0 mu=( 0  0 )
n=( 1  3 )
l=( 5  5 )
num_ms=11
< -5  5 >:  4.490802252197951e-5
< -4  4 >:  -4.490802252197954e-5
< -3  3 >:  4.490802252197954e-5
< -2  2 >:  -4.490802252197954e-5
< -1  1 >:  4.490802252197954e-5
< 0  0 >:  -4.490802252197954e-5
< 1  -1 >:  4.490802252197954e-5
< 2  -2 >:  -4.490802252197954e-5
< 3  -3 >:  4.490802252197954e-5
< 4  -4 >:  -4.490802252197954e-5
< 5  -5 >:  4.490802252197954e-5
ctilde_basis_func: rank=2 ndens=1 mu0=0 mu=( 0  0 )
n=( 4  5 )
l=( 1  1 )
num_ms=3
< -1  1 >:  -0.00016628690375719527
< 0  0 >:  0.00016628690375719527
< 1  -1 >:  -0.00016628690375719527
ctilde_basis_func: rank=2 ndens=1 mu0=0 mu=( 0  0 )
n=( 2  7 )
l=( 3  3 )
num_ms=7
< -3  3 >:  2.844555772034758e-5
< -2  2 >:  -2.844555772034758e-5
< -1  1 >:  2.844555772034758e-5
< 0  0 >:  -2.844555772034758e-5
< 1  -1 >:  2.844555772034758e-5
< 2  -2 >:  -2.844555772034758e-5
< 3  -3 >:  2.844555772034758e-5
ctilde_basis_func: rank=2 ndens=1 mu0=0 mu=( 0  0 )
n=( 2  9 )
l=( 2  2 )
num_ms=5
< -2  2 >:  4.845186503410656e-5
< -1  1 >:  -4.845186503410656e-5
< 0  0 >:  4.845186503410656e-5
< 1  -1 >:  -4.845186503410656e-5
< 2  -2 >:  4.845186503410656e-5
ctilde_basis_func: rank=2 ndens=1 mu0=0 mu=( 0  0 )
n=( 4  6 )
l=( 3  3 )
num_ms=7
< -3  3 >:  2.393509218505738e-5
< -2  2 >:  -2.393509218505738e-5
< -1  1 >:  2.393509218505738e-5
< 0  0 >:  -2.393509218505738e-5
< 1  -1 >:  2.393509218505738e-5
< 2  -2 >:  -2.393509218505738e-5
< 3  -3 >:  2.393509218505738e-5
ctilde_basis_func: rank=2 ndens=1 mu0=0 mu=( 0  0 )
n=( 1  5 )
l=( 3  3 )
num_ms=7
< -3  3 >:  0.0001986759160651359
< -2  2 >:  -0.0001986759160651359
< -1  1 >:  0.0001986759160651359
< 0  0 >:  -0.0001986759160651359
< 1  -1 >:  0.0001986759160651359
< 2  -2 >:  -0.0001986759160651359
< 3  -3 >:  0.0001986759160651359
ctilde_basis_func: rank=2 ndens=1 mu0=0 mu=( 0  0 )
n=( 5  5 )
l=( 0  0 )
num_ms=1
< 0  0 >:  -0.00015937030456476963
ctilde_basis_func: rank=2 ndens=1 mu0=0 mu=( 0  0 )
n=( 3  5 )
l=( 3  3 )
num_ms=7
< -3  3 >:  -0.00012395934047214292
< -2  2 >:  0.00012395934047214292
< -1  1 >:  -0.00012395934047214292
< 0  0 >:  0.00012395934047214292
< 1  -1 >:  -0.00012395934047214292
< 2  -2 >:  0.00012395934047214292
< 3  -3 >:  -0.00012395934047214292
ctilde_basis_func: rank=2 ndens=1 mu0=0 mu=( 0  0 )
n=( 5  5 )
l=( 3  3 )
num_ms=4
< -3  3 >:  0.00016004591842507052
< -2  2 >:  -0.00016004591842507052
< -1  1 >:  0.00016004591842507052
< 0  0 >:  -8.002295921253526e-5
ctilde_basis_func: rank=2 ndens=1 mu0=0 mu=( 0  0 )
n=( 4  9 )
l=( 1  1 )
num_ms=3
< -1  1 >:  1.2020946995886134e-5
< 0  0 >:  -1.2020946995886134e-5
< 1  -1 >:  1.2020946995886134e-5
ctilde_basis_func: rank=2 ndens=1 mu0=0 mu=( 0  0 )
n=( 3  3 )
l=( 3  3 )
num_ms=4
< -3  3 >:  0.00034860922707878817
< -2  2 >:  -0.00034860922707878817
< -1  1 >:  0.00034860922707878817
< 0  0 >:  -0.00017430461353939408
ctilde_basis_func: rank=2 ndens=1 mu0=0 mu=( 0  0 )
n=( 3  5 )
l=( 1  1 )
num_ms=3
< -1  1 >:  -0.0001502820596217727
< 0  0 >:  0.0001502820596217727
< 1  -1 >:  -0.0001502820596217727
ctilde_basis_func: rank=2 ndens=1 mu0=0 mu=( 0  0 )
n=( 1  3 )
l=( 4  4 )
num_ms=9
< -4  4 >:  -1.9199309889988955e-5
< -3  3 >:  1.919930988998895e-5
< -2  2 >:  -1.919930988998895e-5
< -1  1 >:  1.919930988998895e-5
< 0  0 >:  -1.919930988998895e-5
< 1  -1 >:  1.919930988998895e-5
< 2  -2 >:  -1.919930988998895e-5
< 3  -3 >:  1.919930988998895e-5
< 4  -4 >:  -1.919930988998895e-5
ctilde_basis_func: rank=2 ndens=1 mu0=0 mu=( 0  0 )
n=( 2  5 )
l=( 3  3 )
num_ms=7
< -3  3 >:  7.84600490985819e-5
< -2  2 >:  -7.84600490985819e-5
< -1  1 >:  7.84600490985819e-5
< 0  0 >:  -7.84600490985819e-5
< 1  -1 >:  7.84600490985819e-5
< 2  -2 >:  -7.84600490985819e-5
< 3  -3 >:  7.84600490985819e-5
ctilde_basis_func: rank=2 ndens=1 mu0=0 mu=( 0  0 )
n=( 1  13 )
l=( 1  1 )
num_ms=3
< -1  1 >:  1.8647389628260063e-7
< 0  0 >:  -1.8647389628260063e-7
< 1  -1 >:  1.8647389628260063e-7
ctilde_basis_func: rank=2 ndens=1 mu0=0 mu=( 0  0 )
n=( 2  3 )
l=( 5  5 )
num_ms=11
< -5  5 >:  -0.00018704051196740133
< -4  4 >:  0.00018704051196740144
< -3  3 >:  -0.00018704051196740144
< -2  2 >:  0.00018704051196740144
< -1  1 >:  -0.00018704051196740144
< 0  0 >:  0.00018704051196740144
< 1  -1 >:  -0.00018704051196740144
< 2  -2 >:  0.00018704051196740144
< 3  -3 >:  -0.00018704051196740144
< 4  -4 >:  0.00018704051196740144
< 5  -5 >:  -0.00018704051196740144
ctilde_basis_func: rank=2 ndens=1 mu0=0 mu=( 0  0 )
n=( 6  8 )
l=( 1  1 )
num_ms=3
< -1  1 >:  4.0687966710655335e-6
< 0  0 >:  -4.0687966710655335e-6
< 1  -1 >:  4.0687966710655335e-6
ctilde_basis_func: rank=2 ndens=1 mu0=0 mu=( 0  0 )
n=( 1  2 )
l=( 5  5 )
num_ms=11
< -5  5 >:  -8.67017624461181e-5
< -4  4 >:  8.670176244611816e-5
< -3  3 >:  -8.670176244611816e-5
< -2  2 >:  8.670176244611816e-5
< -1  1 >:  -8.670176244611816e-5
< 0  0 >:  8.670176244611816e-5
< 1  -1 >:  -8.670176244611816e-5
< 2  -2 >:  8.670176244611816e-5
< 3  -3 >:  -8.670176244611816e-5
< 4  -4 >:  8.670176244611816e-5
< 5  -5 >:  -8.670176244611816e-5
ctilde_basis_func: rank=2 ndens=1 mu0=0 mu=( 0  0 )
n=( 1  10 )
l=( 2  2 )
num_ms=5
< -2  2 >:  -1.6865703971801315e-5
< -1  1 >:  1.6865703971801315e-5
< 0  0 >:  -1.6865703971801315e-5
< 1  -1 >:  1.6865703971801315e-5
< 2  -2 >:  -1.6865703971801315e-5
ctilde_basis_func: rank=2 ndens=1 mu0=0 mu=( 0  0 )
n=( 2  8 )
l=( 2  2 )
num_ms=5
< -2  2 >:  4.5172851102924175e-5
< -1  1 >:  -4.5172851102924175e-5
< 0  0 >:  4.5172851102924175e-5
< 1  -1 >:  -4.5172851102924175e-5
< 2  -2 >:  4.5172851102924175e-5
ctilde_basis_func: rank=2 ndens=1 mu0=0 mu=( 0  0 )
n=( 2  3 )
l=( 3  3 )
num_ms=7
< -3  3 >:  -0.00014944886094141524
< -2  2 >:  0.00014944886094141524
< -1  1 >:  -0.00014944886094141524
< 0  0 >:  0.00014944886094141524
< 1  -1 >:  -0.00014944886094141524
< 2  -2 >:  0.00014944886094141524
< 3  -3 >:  -0.00014944886094141524
ctilde_basis_func: rank=2 ndens=1 mu0=0 mu=( 0  0 )
n=( 3  6 )
l=( 3  3 )
num_ms=7
< -3  3 >:  5.732812898518618e-5
< -2  2 >:  -5.732812898518618e-5
< -1  1 >:  5.732812898518618e-5
< 0  0 >:  -5.732812898518618e-5
< 1  -1 >:  5.732812898518618e-5
< 2  -2 >:  -5.732812898518618e-5
< 3  -3 >:  5.732812898518618e-5
ctilde_basis_func: rank=2 ndens=1 mu0=0 mu=( 0  0 )
n=( 3  4 )
l=( 3  3 )
num_ms=7
< -3  3 >:  7.370055981065464e-5
< -2  2 >:  -7.370055981065464e-5
< -1  1 >:  7.370055981065464e-5
< 0  0 >:  -7.370055981065464e-5
< 1  -1 >:  7.370055981065464e-5
< 2  -2 >:  -7.370055981065464e-5
< 3  -3 >:  7.370055981065464e-5
ctilde_basis_func: rank=2 ndens=1 mu0=0 mu=( 0  0 )
n=( 6  6 )
l=( 1  1 )
num_ms=2
< -1  1 >:  0.00038711693009960265
< 0  0 >:  -0.00019355846504980133
ctilde_basis_func: rank=2 ndens=1 mu0=0 mu=( 0  0 )
n=( 2  6 )
l=( 0  0 )
num_ms=1
< 0  0 >:  -6.504470690861027e-5
ctilde_basis_func: rank=2 ndens=1 mu0=0 mu=( 0  0 )
n=( 3  9 )
l=( 0  0 )
num_ms=1
< 0  0 >:  2.8504160117934438e-5
ctilde_basis_func: rank=2 ndens=1 mu0=0 mu=( 0  0 )
n=( 3  12 )
l=( 1  1 )
num_ms=3
< -1  1 >:  -1.3048908074638812e-5
< 0  0 >:  1.3048908074638812e-5
< 1  -1 >:  -1.3048908074638812e-5
ctilde_basis_func: rank=2 ndens=1 mu0=0 mu=( 0  0 )
n=( 2  6 )
l=( 1  1 )
num_ms=3
< -1  1 >:  -3.616785603626226e-6
< 0  0 >:  3.616785603626226e-6
< 1  -1 >:  -3.616785603626226e-6
ctilde_basis_func: rank=2 ndens=1 mu0=0 mu=( 0  0 )
n=( 2  5 )
l=( 4  4 )
num_ms=9
< -4  4 >:  4.498624633345442e-5
< -3  3 >:  -4.4986246333454414e-5
< -2  2 >:  4.4986246333454414e-5
< -1  1 >:  -4.4986246333454414e-5
< 0  0 >:  4.4986246333454414e-5
< 1  -1 >:  -4.4986246333454414e-5
< 2  -2 >:  4.4986246333454414e-5
< 3  -3 >:  -4.4986246333454414e-5
< 4  -4 >:  4.4986246333454414e-5
ctilde_basis_func: rank=2 ndens=1 mu0=0 mu=( 0  0 )
n=( 6  6 )
l=( 0  0 )
num_ms=1
< 0  0 >:  -0.00016048031772495925
ctilde_basis_func: rank=2 ndens=1 mu0=0 mu=( 0  0 )
n=( 1  4 )
l=( 2  2 )
num_ms=5
< -2  2 >:  0.0004668436273884639
< -1  1 >:  -0.0004668436273884639
< 0  0 >:  0.0004668436273884639
< 1  -1 >:  -0.0004668436273884639
< 2  -2 >:  0.0004668436273884639
ctilde_basis_func: rank=2 ndens=1 mu0=0 mu=( 0  0 )
n=( 2  6 )
l=( 3  3 )
num_ms=7
< -3  3 >:  -8.073605455295312e-5
< -2  2 >:  8.073605455295312e-5
< -1  1 >:  -8.073605455295312e-5
< 0  0 >:  8.073605455295312e-5
< 1  -1 >:  -8.073605455295312e-5
< 2  -2 >:  8.073605455295312e-5
< 3  -3 >:  -8.073605455295312e-5
ctilde_basis_func: rank=2 ndens=1 mu0=0 mu=( 0  0 )
n=( 2  4 )
l=( 1  1 )
num_ms=3
< -1  1 >:  7.803117582012578e-5
< 0  0 >:  -7.803117582012578e-5
< 1  -1 >:  7.803117582012578e-5
ctilde_basis_func: rank=2 ndens=1 mu0=0 mu=( 0  0 )
n=( 1  9 )
l=( 3  3 )
num_ms=7
< -3  3 >:  1.8508806238183376e-5
< -2  2 >:  -1.8508806238183376e-5
< -1  1 >:  1.8508806238183376e-5
< 0  0 >:  -1.8508806238183376e-5
< 1  -1 >:  1.8508806238183376e-5
< 2  -2 >:  -1.8508806238183376e-5
< 3  -3 >:  1.8508806238183376e-5
ctilde_basis_func: rank=2 ndens=1 mu0=0 mu=( 0  0 )
n=( 1  6 )
l=( 1  1 )
num_ms=3
< -1  1 >:  -9.151465982219689e-5
< 0  0 >:  9.151465982219689e-5
< 1  -1 >:  -9.151465982219689e-5
ctilde_basis_func: rank=2 ndens=1 mu0=0 mu=( 0  0 )
n=( 2  4 )
l=( 4  4 )
num_ms=9
< -4  4 >:  -3.610681756116383e-5
< -3  3 >:  3.610681756116383e-5
< -2  2 >:  -3.610681756116383e-5
< -1  1 >:  3.610681756116383e-5
< 0  0 >:  -3.610681756116383e-5
< 1  -1 >:  3.610681756116383e-5
< 2  -2 >:  -3.610681756116383e-5
< 3  -3 >:  3.610681756116383e-5
< 4  -4 >:  -3.610681756116383e-5
ctilde_basis_func: rank=2 ndens=1 mu0=0 mu=( 0  0 )
n=( 1  6 )
l=( 4  4 )
num_ms=9
< -4  4 >:  3.9315735398739604e-5
< -3  3 >:  -3.931573539873959e-5
< -2  2 >:  3.931573539873959e-5
< -1  1 >:  -3.931573539873959e-5
< 0  0 >:  3.931573539873959e-5
< 1  -1 >:  -3.931573539873959e-5
< 2  -2 >:  3.931573539873959e-5
< 3  -3 >:  -3.931573539873959e-5
< 4  -4 >:  3.931573539873959e-5
ctilde_basis_func: rank=2 ndens=1 mu0=0 mu=( 0  0 )
n=( 4  7 )
l=( 2  2 )
num_ms=5
< -2  2 >:  -9.134854605074974e-5
< -1  1 >:  9.134854605074974e-5
< 0  0 >:  -9.134854605074974e-5
< 1  -1 >:  9.134854605074974e-5
< 2  -2 >:  -9.134854605074974e-5
ctilde_basis_func: rank=2 ndens=1 mu0=0 mu=( 0  0 )
n=( 1  4 )
l=( 5  5 )
num_ms=11
< -5  5 >:  0.00011230279379299609
< -4  4 >:  -0.00011230279379299616
< -3  3 >:  0.00011230279379299616
< -2  2 >:  -0.00011230279379299616
< -1  1 >:  0.00011230279379299616
< 0  0 >:  -0.00011230279379299616
< 1  -1 >:  0.00011230279379299616
< 2  -2 >:  -0.00011230279379299616
< 3  -3 >:  0.00011230279379299616
< 4  -4 >:  -0.00011230279379299616
< 5  -5 >:  0.00011230279379299616
ctilde_basis_func: rank=2 ndens=1 mu0=0 mu=( 0  0 )
n=( 1  10 )
l=( 0  0 )
num_ms=1
< 0  0 >:  -3.828436876309047e-5
ctilde_basis_func: rank=2 ndens=1 mu0=0 mu=( 0  0 )
n=( 1  6 )
l=( 3  3 )
num_ms=7
< -3  3 >:  -3.2112738237211223e-5
< -2  2 >:  3.2112738237211223e-5
< -1  1 >:  -3.2112738237211223e-5
< 0  0 >:  3.2112738237211223e-5
< 1  -1 >:  -3.2112738237211223e-5
< 2  -2 >:  3.2112738237211223e-5
< 3  -3 >:  -3.2112738237211223e-5
ctilde_basis_func: rank=2 ndens=1 mu0=0 mu=( 0  0 )
n=( 5  6 )
l=( 0  0 )
num_ms=1
< 0  0 >:  0.00011977393015323457
ctilde_basis_func: rank=2 ndens=1 mu0=0 mu=( 0  0 )
n=( 2  8 )
l=( 3  3 )
num_ms=7
< -3  3 >:  5.243753038516801e-6
< -2  2 >:  -5.243753038516801e-6
< -1  1 >:  5.243753038516801e-6
< 0  0 >:  -5.243753038516801e-6
< 1  -1 >:  5.243753038516801e-6
< 2  -2 >:  -5.243753038516801e-6
< 3  -3 >:  5.243753038516801e-6
ctilde_basis_func: rank=2 ndens=1 mu0=0 mu=( 0  0 )
n=( 2  6 )
l=( 2  2 )
num_ms=5
< -2  2 >:  3.612660654001701e-5
< -1  1 >:  -3.612660654001701e-5
< 0  0 >:  3.612660654001701e-5
< 1  -1 >:  -3.612660654001701e-5
< 2  -2 >:  3.612660654001701e-5
ctilde_basis_func: rank=2 ndens=1 mu0=0 mu=( 0  0 )
n=( 1  5 )
l=( 2  2 )
num_ms=5
< -2  2 >:  -9.245295299106456e-5
< -1  1 >:  9.245295299106456e-5
< 0  0 >:  -9.245295299106456e-5
< 1  -1 >:  9.245295299106456e-5
< 2  -2 >:  -9.245295299106456e-5
ctilde_basis_func: rank=2 ndens=1 mu0=0 mu=( 0  0 )
n=( 1  4 )
l=( 4  4 )
num_ms=9
< -4  4 >:  2.0595308906074218e-5
< -3  3 >:  -2.0595308906074214e-5
< -2  2 >:  2.0595308906074214e-5
< -1  1 >:  -2.0595308906074214e-5
< 0  0 >:  2.0595308906074214e-5
< 1  -1 >:  -2.0595308906074214e-5
< 2  -2 >:  2.0595308906074214e-5
< 3  -3 >:  -2.0595308906074214e-5
< 4  -4 >:  2.0595308906074214e-5
ctilde_basis_func: rank=2 ndens=1 mu0=0 mu=( 0  0 )
n=( 1  7 )
l=( 2  2 )
num_ms=5
< -2  2 >:  8.367892959521285e-5
< -1  1 >:  -8.367892959521285e-5
< 0  0 >:  8.367892959521285e-5
< 1  -1 >:  -8.367892959521285e-5
< 2  -2 >:  8.367892959521285e-5
ctilde_basis_func: rank=2 ndens=1 mu0=0 mu=( 0  0 )
n=( 3  8 )
l=( 2  2 )
num_ms=5
< -2  2 >:  -0.0001279665720996832
< -1  1 >:  0.0001279665720996832
< 0  0 >:  -0.0001279665720996832
< 1  -1 >:  0.0001279665720996832
< 2  -2 >:  -0.0001279665720996832
ctilde_basis_func: rank=2 ndens=1 mu0=0 mu=( 0  0 )
n=( 3  9 )
l=( 2  2 )
num_ms=5
< -2  2 >:  -2.2467584225919338e-5
< -1  1 >:  2.2467584225919338e-5
< 0  0 >:  -2.2467584225919338e-5
< 1  -1 >:  2.2467584225919338e-5
< 2  -2 >:  -2.2467584225919338e-5
ctilde_basis_func: rank=2 ndens=1 mu0=0 mu=( 0  0 )
n=( 4  10 )
l=( 1  1 )
num_ms=3
< -1  1 >:  4.827298012995529e-6
< 0  0 >:  -4.827298012995529e-6
< 1  -1 >:  4.827298012995529e-6
ctilde_basis_func: rank=2 ndens=1 mu0=0 mu=( 0  0 )
n=( 1  3 )
l=( 3  3 )
num_ms=7
< -3  3 >:  -3.6731404794472205e-5
< -2  2 >:  3.6731404794472205e-5
< -1  1 >:  -3.6731404794472205e-5
< 0  0 >:  3.6731404794472205e-5
< 1  -1 >:  -3.6731404794472205e-5
< 2  -2 >:  3.6731404794472205e-5
< 3  -3 >:  -3.6731404794472205e-5
ctilde_basis_func: rank=2 ndens=1 mu0=0 mu=( 0  0 )
n=( 1  2 )
l=( 1  1 )
num_ms=3
< -1  1 >:  -0.000805860109697318
< 0  0 >:  0.000805860109697318
< 1  -1 >:  -0.000805860109697318
ctilde_basis_func: rank=2 ndens=1 mu0=0 mu=( 0  0 )
n=( 2  7 )
l=( 2  2 )
num_ms=5
< -2  2 >:  4.252284270756546e-5
< -1  1 >:  -4.252284270756546e-5
< 0  0 >:  4.252284270756546e-5
< 1  -1 >:  -4.252284270756546e-5
< 2  -2 >:  4.252284270756546e-5
ctilde_basis_func: rank=2 ndens=1 mu0=0 mu=( 0  0 )
n=( 2  2 )
l=( 4  4 )
num_ms=5
< -4  4 >:  -0.00016907116154880357
< -3  3 >:  0.00016907116154880357
< -2  2 >:  -0.00016907116154880357
< -1  1 >:  0.00016907116154880357
< 0  0 >:  -8.453558077440179e-5
ctilde_basis_func: rank=2 ndens=1 mu0=0 mu=( 0  0 )
n=( 1  7 )
l=( 3  3 )
num_ms=7
< -3  3 >:  -1.5051306149908825e-6
< -2  2 >:  1.5051306149908825e-6
< -1  1 >:  -1.5051306149908825e-6
< 0  0 >:  1.5051306149908825e-6
< 1  -1 >:  -1.5051306149908825e-6
< 2  -2 >:  1.5051306149908825e-6
< 3  -3 >:  -1.5051306149908825e-6
ctilde_basis_func: rank=2 ndens=1 mu0=0 mu=( 0  0 )
n=( 1  11 )
l=( 2  2 )
num_ms=5
< -2  2 >:  -2.713888671011747e-5
< -1  1 >:  2.713888671011747e-5
< 0  0 >:  -2.713888671011747e-5
< 1  -1 >:  2.713888671011747e-5
< 2  -2 >:  -2.713888671011747e-5
ctilde_basis_func: rank=2 ndens=1 mu0=0 mu=( 0  0 )
n=( 2  9 )
l=( 0  0 )
num_ms=1
< 0  0 >:  -2.6658475075372557e-5
ctilde_basis_func: rank=2 ndens=1 mu0=0 mu=( 0  0 )
n=( 4  7 )
l=( 0  0 )
num_ms=1
< 0  0 >:  2.17018834254737e-5
ctilde_basis_func: rank=2 ndens=1 mu0=0 mu=( 0  0 )
n=( 2  4 )
l=( 2  2 )
num_ms=5
< -2  2 >:  -8.341197488867935e-5
< -1  1 >:  8.341197488867935e-5
< 0  0 >:  -8.341197488867935e-5
< 1  -1 >:  8.341197488867935e-5
< 2  -2 >:  -8.341197488867935e-5
ctilde_basis_func: rank=2 ndens=1 mu0=0 mu=( 0  0 )
n=( 3  5 )
l=( 2  2 )
num_ms=5
< -2  2 >:  -0.00019849685802080972
< -1  1 >:  0.00019849685802080972
< 0  0 >:  -0.00019849685802080972
< 1  -1 >:  0.00019849685802080972
< 2  -2 >:  -0.00019849685802080972
ctilde_basis_func: rank=2 ndens=1 mu0=0 mu=( 0  0 )
n=( 1  7 )
l=( 1  1 )
num_ms=3
< -1  1 >:  1.961732794528329e-6
< 0  0 >:  -1.961732794528329e-6
< 1  -1 >:  1.961732794528329e-6
ctilde_basis_func: rank=2 ndens=1 mu0=0 mu=( 0  0 )
n=( 2  3 )
l=( 1  1 )
num_ms=3
< -1  1 >:  -0.00048632971630217754
< 0  0 >:  0.00048632971630217754
< 1  -1 >:  -0.00048632971630217754
ctilde_basis_func: rank=2 ndens=1 mu0=0 mu=( 0  0 )
n=( 7  10 )
l=( 0  0 )
num_ms=1
< 0  0 >:  3.420440092229333e-5
ctilde_basis_func: rank=2 ndens=1 mu0=0 mu=( 0  0 )
n=( 1  1 )
l=( 2  2 )
num_ms=3
< -2  2 >:  -0.0009412047682916181
< -1  1 >:  0.0009412047682916181
< 0  0 >:  -0.00047060238414580905
ctilde_basis_func: rank=2 ndens=1 mu0=0 mu=( 0  0 )
n=( 2  5 )
l=( 2  2 )
num_ms=5
< -2  2 >:  0.0001030840744250938
< -1  1 >:  -0.0001030840744250938
< 0  0 >:  0.0001030840744250938
< 1  -1 >:  -0.0001030840744250938
< 2  -2 >:  0.0001030840744250938
ctilde_basis_func: rank=2 ndens=1 mu0=0 mu=( 0  0 )
n=( 1  2 )
l=( 3  3 )
num_ms=7
< -3  3 >:  3.4401619504659836e-5
< -2  2 >:  -3.4401619504659836e-5
< -1  1 >:  3.4401619504659836e-5
< 0  0 >:  -3.4401619504659836e-5
< 1  -1 >:  3.4401619504659836e-5
< 2  -2 >:  -3.4401619504659836e-5
< 3  -3 >:  3.4401619504659836e-5
ctilde_basis_func: rank=2 ndens=1 mu0=0 mu=( 0  0 )
n=( 4  10 )
l=( 0  0 )
num_ms=1
< 0  0 >:  4.778478273497477e-5
ctilde_basis_func: rank=2 ndens=1 mu0=0 mu=( 0  0 )
n=( 3  7 )
l=( 2  2 )
num_ms=5
< -2  2 >:  -1.7806726353968514e-5
< -1  1 >:  1.7806726353968514e-5
< 0  0 >:  -1.7806726353968514e-5
< 1  -1 >:  1.7806726353968514e-5
< 2  -2 >:  -1.7806726353968514e-5
ctilde_basis_func: rank=2 ndens=1 mu0=0 mu=( 0  0 )
n=( 1  9 )
l=( 0  0 )
num_ms=1
< 0  0 >:  3.30271844514009e-5
ctilde_basis_func: rank=2 ndens=1 mu0=0 mu=( 0  0 )
n=( 3  7 )
l=( 3  3 )
num_ms=7
< -3  3 >:  -4.139784074308809e-5
< -2  2 >:  4.139784074308809e-5
< -1  1 >:  -4.139784074308809e-5
< 0  0 >:  4.139784074308809e-5
< 1  -1 >:  -4.139784074308809e-5
< 2  -2 >:  4.139784074308809e-5
< 3  -3 >:  -4.139784074308809e-5
ctilde_basis_func: rank=2 ndens=1 mu0=0 mu=( 0  0 )
n=( 6  7 )
l=( 1  1 )
num_ms=3
< -1  1 >:  -3.550762507545018e-5
< 0  0 >:  3.550762507545018e-5
< 1  -1 >:  -3.550762507545018e-5
ctilde_basis_func: rank=2 ndens=1 mu0=0 mu=( 0  0 )
n=( 3  6 )
l=( 2  2 )
num_ms=5
< -2  2 >:  -6.606524343619359e-5
< -1  1 >:  6.606524343619359e-5
< 0  0 >:  -6.606524343619359e-5
< 1  -1 >:  6.606524343619359e-5
< 2  -2 >:  -6.606524343619359e-5
ctilde_basis_func: rank=2 ndens=1 mu0=0 mu=( 0  0 )
n=( 1  1 )
l=( 0  0 )
num_ms=1
< 0  0 >:  0.026178516652578684
ctilde_basis_func: rank=2 ndens=1 mu0=0 mu=( 0  0 )
n=( 1  8 )
l=( 3  3 )
num_ms=7
< -3  3 >:  1.2621686466330345e-5
< -2  2 >:  -1.2621686466330345e-5
< -1  1 >:  1.2621686466330345e-5
< 0  0 >:  -1.2621686466330345e-5
< 1  -1 >:  1.2621686466330345e-5
< 2  -2 >:  -1.2621686466330345e-5
< 3  -3 >:  1.2621686466330345e-5
ctilde_basis_func: rank=2 ndens=1 mu0=0 mu=( 0  0 )
n=( 1  1 )
l=( 1  1 )
num_ms=2
< -1  1 >:  0.00271643947314143
< 0  0 >:  -0.001358219736570715
ctilde_basis_func: rank=2 ndens=1 mu0=0 mu=( 0  0 )
n=( 3  7 )
l=( 0  0 )
num_ms=1
< 0  0 >:  -1.713725879453117e-5
ctilde_basis_func: rank=2 ndens=1 mu0=0 mu=( 0  0 )
n=( 3  11 )
l=( 1  1 )
num_ms=3
< -1  1 >:  1.543378142860701e-5
< 0  0 >:  -1.543378142860701e-5
< 1  -1 >:  1.543378142860701e-5
ctilde_basis_func: rank=2 ndens=1 mu0=0 mu=( 0  0 )
n=( 5  6 )
l=( 2  2 )
num_ms=5
< -2  2 >:  -0.00015493678889133387
< -1  1 >:  0.00015493678889133387
< 0  0 >:  -0.00015493678889133387
< 1  -1 >:  0.00015493678889133387
< 2  -2 >:  -0.00015493678889133387
ctilde_basis_func: rank=2 ndens=1 mu0=0 mu=( 0  0 )
n=( 1  7 )
l=( 0  0 )
num_ms=1
< 0  0 >:  4.4174034329127615e-5
ctilde_basis_func: rank=2 ndens=1 mu0=0 mu=( 0  0 )
n=( 3  4 )
l=( 2  2 )
num_ms=5
< -2  2 >:  0.00030201558790881813
< -1  1 >:  -0.00030201558790881813
< 0  0 >:  0.00030201558790881813
< 1  -1 >:  -0.00030201558790881813
< 2  -2 >:  0.00030201558790881813
ctilde_basis_func: rank=2 ndens=1 mu0=0 mu=( 0  0 )
n=( 1  10 )
l=( 1  1 )
num_ms=3
< -1  1 >:  1.3920992242678765e-5
< 0  0 >:  -1.3920992242678765e-5
< 1  -1 >:  1.3920992242678765e-5
ctilde_basis_func: rank=2 ndens=1 mu0=0 mu=( 0  0 )
n=( 1  2 )
l=( 2  2 )
num_ms=5
< -2  2 >:  0.0005638172460165939
< -1  1 >:  -0.0005638172460165939
< 0  0 >:  0.0005638172460165939
< 1  -1 >:  -0.0005638172460165939
< 2  -2 >:  0.0005638172460165939
ctilde_basis_func: rank=2 ndens=1 mu0=0 mu=( 0  0 )
n=( 6  8 )
l=( 0  0 )
num_ms=1
< 0  0 >:  -4.753345597116166e-5
ctilde_basis_func: rank=2 ndens=1 mu0=0 mu=( 0  0 )
n=( 3  13 )
l=( 0  0 )
num_ms=1
< 0  0 >:  -2.1504323413263793e-5
ctilde_basis_func: rank=2 ndens=1 mu0=0 mu=( 0  0 )
n=( 4  8 )
l=( 1  1 )
num_ms=3
< -1  1 >:  -2.2206788772141067e-6
< 0  0 >:  2.2206788772141067e-6
< 1  -1 >:  -2.2206788772141067e-6
ctilde_basis_func: rank=2 ndens=1 mu0=0 mu=( 0  0 )
n=( 1  8 )
l=( 2  2 )
num_ms=5
< -2  2 >:  -0.00011004648166926803
< -1  1 >:  0.00011004648166926803
< 0  0 >:  -0.00011004648166926803
< 1  -1 >:  0.00011004648166926803
< 2  -2 >:  -0.00011004648166926803
ctilde_basis_func: rank=2 ndens=1 mu0=0 mu=( 0  0 )
n=( 4  4 )
l=( 2  2 )
num_ms=3
< -2  2 >:  -0.00044944149112241354
< -1  1 >:  0.00044944149112241354
< 0  0 >:  -0.00022472074556120677
ctilde_basis_func: rank=2 ndens=1 mu0=0 mu=( 0  0 )
n=( 4  5 )
l=( 2  2 )
num_ms=5
< -2  2 >:  0.00019096409219870826
< -1  1 >:  -0.00019096409219870826
< 0  0 >:  0.00019096409219870826
< 1  -1 >:  -0.00019096409219870826
< 2  -2 >:  0.00019096409219870826
ctilde_basis_func: rank=2 ndens=1 mu0=0 mu=( 0  0 )
n=( 4  8 )
l=( 2  2 )
num_ms=5
< -2  2 >:  -1.2360304503310013e-5
< -1  1 >:  1.2360304503310013e-5
< 0  0 >:  -1.2360304503310013e-5
< 1  -1 >:  1.2360304503310013e-5
< 2  -2 >:  -1.2360304503310013e-5
ctilde_basis_func: rank=2 ndens=1 mu0=0 mu=( 0  0 )
n=( 1  4 )
l=( 1  1 )
num_ms=3
< -1  1 >:  -0.0001660533855765495
< 0  0 >:  0.0001660533855765495
< 1  -1 >:  -0.0001660533855765495
ctilde_basis_func: rank=2 ndens=1 mu0=0 mu=( 0  0 )
n=( 2  2 )
l=( 2  2 )
num_ms=3
< -2  2 >:  -0.00021320025650559913
< -1  1 >:  0.00021320025650559913
< 0  0 >:  -0.00010660012825279956
ctilde_basis_func: rank=2 ndens=1 mu0=0 mu=( 0  0 )
n=( 2  13 )
l=( 0  0 )
num_ms=1
< 0  0 >:  8.746303638688603e-6
ctilde_basis_func: rank=2 ndens=1 mu0=0 mu=( 0  0 )
n=( 1  14 )
l=( 0  0 )
num_ms=1
< 0  0 >:  -3.279133420196065e-6
ctilde_basis_func: rank=2 ndens=1 mu0=0 mu=( 0  0 )
n=( 1  9 )
l=( 1  1 )
num_ms=3
< -1  1 >:  1.998084836619998e-5
< 0  0 >:  -1.998084836619998e-5
< 1  -1 >:  1.998084836619998e-5
ctilde_basis_func: rank=2 ndens=1 mu0=0 mu=( 0  0 )
n=( 4  6 )
l=( 1  1 )
num_ms=3
< -1  1 >:  0.0001402993458829858
< 0  0 >:  -0.0001402993458829858
< 1  -1 >:  0.0001402993458829858
ctilde_basis_func: rank=2 ndens=1 mu0=0 mu=( 0  0 )
n=( 1  1 )
l=( 6  6 )
num_ms=7
< -6  6 >:  -3.228189566349663e-5
< -5  5 >:  3.2281895663496615e-5
< -4  4 >:  -3.2281895663496615e-5
< -3  3 >:  3.2281895663496615e-5
< -2  2 >:  -3.2281895663496615e-5
< -1  1 >:  3.2281895663496615e-5
< 0  0 >:  -1.6140947831748307e-5
ctilde_basis_func: rank=2 ndens=1 mu0=0 mu=( 0  0 )
n=( 5  7 )
l=( 1  1 )
num_ms=3
< -1  1 >:  4.656245816112633e-5
< 0  0 >:  -4.656245816112633e-5
< 1  -1 >:  4.656245816112633e-5
ctilde_basis_func: rank=2 ndens=1 mu0=0 mu=( 0  0 )
n=( 2  4 )
l=( 3  3 )
num_ms=7
< -3  3 >:  2.545738200481114e-5
< -2  2 >:  -2.545738200481114e-5
< -1  1 >:  2.545738200481114e-5
< 0  0 >:  -2.545738200481114e-5
< 1  -1 >:  2.545738200481114e-5
< 2  -2 >:  -2.545738200481114e-5
< 3  -3 >:  2.545738200481114e-5
ctilde_basis_func: rank=2 ndens=1 mu0=0 mu=( 0  0 )
n=( 1  3 )
l=( 1  1 )
num_ms=3
< -1  1 >:  0.00020530360699856154
< 0  0 >:  -0.00020530360699856154
< 1  -1 >:  0.00020530360699856154
ctilde_basis_func: rank=2 ndens=1 mu0=0 mu=( 0  0 )
n=( 4  6 )
l=( 2  2 )
num_ms=5
< -2  2 >:  0.00010255004861660541
< -1  1 >:  -0.00010255004861660541
< 0  0 >:  0.00010255004861660541
< 1  -1 >:  -0.00010255004861660541
< 2  -2 >:  0.00010255004861660541
ctilde_basis_func: rank=2 ndens=1 mu0=0 mu=( 0  0 )
n=( 1  4 )
l=( 3  3 )
num_ms=7
< -3  3 >:  -8.058398585980632e-5
< -2  2 >:  8.058398585980632e-5
< -1  1 >:  -8.058398585980632e-5
< 0  0 >:  8.058398585980632e-5
< 1  -1 >:  -8.058398585980632e-5
< 2  -2 >:  8.058398585980632e-5
< 3  -3 >:  -8.058398585980632e-5
ctilde_basis_func: rank=2 ndens=1 mu0=0 mu=( 0  0 )
n=( 5  5 )
l=( 2  2 )
num_ms=3
< -2  2 >:  0.000250483029969759
< -1  1 >:  -0.000250483029969759
< 0  0 >:  0.0001252415149848795
ctilde_basis_func: rank=2 ndens=1 mu0=0 mu=( 0  0 )
n=( 5  8 )
l=( 1  1 )
num_ms=3
< -1  1 >:  -7.895376731798758e-5
< 0  0 >:  7.895376731798758e-5
< 1  -1 >:  -7.895376731798758e-5
ctilde_basis_func: rank=2 ndens=1 mu0=0 mu=( 0  0 )
n=( 2  10 )
l=( 2  2 )
num_ms=5
< -2  2 >:  2.7005671600836894e-5
< -1  1 >:  -2.7005671600836894e-5
< 0  0 >:  2.7005671600836894e-5
< 1  -1 >:  -2.7005671600836894e-5
< 2  -2 >:  2.7005671600836894e-5
ctilde_basis_func: rank=2 ndens=1 mu0=0 mu=( 0  0 )
n=( 2  15 )
l=( 0  0 )
num_ms=1
< 0  0 >:  1.1859515715115745e-5
ctilde_basis_func: rank=2 ndens=1 mu0=0 mu=( 0  0 )
n=( 2  3 )
l=( 2  2 )
num_ms=5
< -2  2 >:  0.0005258082461145115
< -1  1 >:  -0.0005258082461145115
< 0  0 >:  0.0005258082461145115
< 1  -1 >:  -0.0005258082461145115
< 2  -2 >:  0.0005258082461145115
ctilde_basis_func: rank=2 ndens=1 mu0=0 mu=( 0  0 )
n=( 1  14 )
l=( 1  1 )
num_ms=3
< -1  1 >:  -4.595098445343219e-6
< 0  0 >:  4.595098445343219e-6
< 1  -1 >:  -4.595098445343219e-6
ctilde_basis_func: rank=2 ndens=1 mu0=0 mu=( 0  0 )
n=( 3  5 )
l=( 0  0 )
num_ms=1
< 0  0 >:  2.2108377671567023e-5
ctilde_basis_func: rank=2 ndens=1 mu0=0 mu=( 0  0 )
n=( 3  3 )
l=( 2  2 )
num_ms=3
< -2  2 >:  -0.001545861343629336
< -1  1 >:  0.001545861343629336
< 0  0 >:  -0.000772930671814668
ctilde_basis_func: rank=2 ndens=1 mu0=0 mu=( 0  0 )
n=( 2  11 )
l=( 1  1 )
num_ms=3
< -1  1 >:  -1.3997058764409014e-5
< 0  0 >:  1.3997058764409014e-5
< 1  -1 >:  -1.3997058764409014e-5
ctilde_basis_func: rank=2 ndens=1 mu0=0 mu=( 0  0 )
n=( 2  3 )
l=( 4  4 )
num_ms=9
< -4  4 >:  0.00014535608069816863
< -3  3 >:  -0.0001453560806981686
< -2  2 >:  0.0001453560806981686
< -1  1 >:  -0.0001453560806981686
< 0  0 >:  0.0001453560806981686
< 1  -1 >:  -0.0001453560806981686
< 2  -2 >:  0.0001453560806981686
< 3  -3 >:  -0.0001453560806981686
< 4  -4 >:  0.0001453560806981686
ctilde_basis_func: rank=2 ndens=1 mu0=0 mu=( 0  0 )
n=( 2  2 )
l=( 5  5 )
num_ms=6
< -5  5 >:  8.397616816258149e-5
< -4  4 >:  -8.397616816258153e-5
< -3  3 >:  8.397616816258153e-5
< -2  2 >:  -8.397616816258153e-5
< -1  1 >:  8.397616816258153e-5
< 0  0 >:  -4.198808408129076e-5
ctilde_basis_func: rank=2 ndens=1 mu0=0 mu=( 0  0 )
n=( 4  4 )
l=( 3  3 )
num_ms=4
< -3  3 >:  0.00023964229874689496
< -2  2 >:  -0.00023964229874689496
< -1  1 >:  0.00023964229874689496
< 0  0 >:  -0.00011982114937344748
ctilde_basis_func: rank=2 ndens=1 mu0=0 mu=( 0  0 )
n=( 1  6 )
l=( 2  2 )
num_ms=5
< -2  2 >:  -9.138620019134752e-5
< -1  1 >:  9.138620019134752e-5
< 0  0 >:  -9.138620019134752e-5
< 1  -1 >:  9.138620019134752e-5
< 2  -2 >:  -9.138620019134752e-5
ctilde_basis_func: rank=2 ndens=1 mu0=0 mu=( 0  0 )
n=( 5  5 )
l=( 1  1 )
num_ms=2
< -1  1 >:  0.00017138116360232395
< 0  0 >:  -8.569058180116198e-5
ctilde_basis_func: rank=2 ndens=1 mu0=0 mu=( 0  0 )
n=( 4  8 )
l=( 0  0 )
num_ms=1
< 0  0 >:  1.1260188352714433e-5
ctilde_basis_func: rank=2 ndens=1 mu0=0 mu=( 0  0 )
n=( 4  6 )
l=( 0  0 )
num_ms=1
< 0  0 >:  -3.9386883872129315e-5
ctilde_basis_func: rank=2 ndens=1 mu0=0 mu=( 0  0 )
n=( 3  9 )
l=( 1  1 )
num_ms=3
< -1  1 >:  3.612729449218939e-5
< 0  0 >:  -3.612729449218939e-5
< 1  -1 >:  3.612729449218939e-5
ctilde_basis_func: rank=2 ndens=1 mu0=0 mu=( 0  0 )
n=( 4  5 )
l=( 0  0 )
num_ms=1
< 0  0 >:  0.00012129550626738812
ctilde_basis_func: rank=2 ndens=1 mu0=0 mu=( 0  0 )
n=( 1  5 )
l=( 4  4 )
num_ms=9
< -4  4 >:  -4.247191765848774e-5
< -3  3 >:  4.2471917658487725e-5
< -2  2 >:  -4.2471917658487725e-5
< -1  1 >:  4.2471917658487725e-5
< 0  0 >:  -4.2471917658487725e-5
< 1  -1 >:  4.2471917658487725e-5
< 2  -2 >:  -4.2471917658487725e-5
< 3  -3 >:  4.2471917658487725e-5
< 4  -4 >:  -4.2471917658487725e-5
ctilde_basis_func: rank=2 ndens=1 mu0=0 mu=( 0  0 )
n=( 3  4 )
l=( 1  1 )
num_ms=3
< -1  1 >:  8.568432371424126e-5
< 0  0 >:  -8.568432371424126e-5
< 1  -1 >:  8.568432371424126e-5
ctilde_basis_func: rank=2 ndens=1 mu0=0 mu=( 0  0 )
n=( 1  17 )
l=( 0  0 )
num_ms=1
< 0  0 >:  -4.137362269787138e-6
ctilde_basis_func: rank=2 ndens=1 mu0=0 mu=( 0  0 )
n=( 5  11 )
l=( 0  0 )
num_ms=1
< 0  0 >:  6.445476476490549e-7
ctilde_basis_func: rank=2 ndens=1 mu0=0 mu=( 0  0 )
n=( 1  2 )
l=( 4  4 )
num_ms=9
< -4  4 >:  0.00018909491580783511
< -3  3 >:  -0.00018909491580783506
< -2  2 >:  0.00018909491580783506
< -1  1 >:  -0.00018909491580783506
< 0  0 >:  0.00018909491580783506
< 1  -1 >:  -0.00018909491580783506
< 2  -2 >:  0.00018909491580783506
< 3  -3 >:  -0.00018909491580783506
< 4  -4 >:  0.00018909491580783506
ctilde_basis_func: rank=2 ndens=1 mu0=0 mu=( 0  0 )
n=( 1  1 )
l=( 4  4 )
num_ms=5
< -4  4 >:  -0.0001266441134913716
< -3  3 >:  0.0001266441134913716
< -2  2 >:  -0.0001266441134913716
< -1  1 >:  0.0001266441134913716
< 0  0 >:  -6.33220567456858e-5
ctilde_basis_func: rank=2 ndens=1 mu0=0 mu=( 0  0 )
n=( 7  8 )
l=( 1  1 )
num_ms=3
< -1  1 >:  -1.1760563689534321e-6
< 0  0 >:  1.1760563689534321e-6
< 1  -1 >:  -1.1760563689534321e-6
ctilde_basis_func: rank=2 ndens=1 mu0=0 mu=( 0  0 )
n=( 3  12 )
l=( 0  0 )
num_ms=1
< 0  0 >:  -7.337741921251556e-7
ctilde_basis_func: rank=2 ndens=1 mu0=0 mu=( 0  0 )
n=( 3  8 )
l=( 1  1 )
num_ms=3
< -1  1 >:  -6.722517467909139e-5
< 0  0 >:  6.722517467909139e-5
< 1  -1 >:  -6.722517467909139e-5
ctilde_basis_func: rank=2 ndens=1 mu0=0 mu=( 0  0 )
n=( 4  7 )
l=( 1  1 )
num_ms=3
< -1  1 >:  -6.64964542856886e-5
< 0  0 >:  6.64964542856886e-5
< 1  -1 >:  -6.64964542856886e-5
ctilde_basis_func: rank=2 ndens=1 mu0=0 mu=( 0  0 )
n=( 3  7 )
l=( 1  1 )
num_ms=3
< -1  1 >:  1.493740509603778e-6
< 0  0 >:  -1.493740509603778e-6
< 1  -1 >:  1.493740509603778e-6
ctilde_basis_func: rank=2 ndens=1 mu0=0 mu=( 0  0 )
n=( 1  5 )
l=( 1  1 )
num_ms=3
< -1  1 >:  0.00012286400606543768
< 0  0 >:  -0.00012286400606543768
< 1  -1 >:  0.00012286400606543768
ctilde_basis_func: rank=2 ndens=1 mu0=0 mu=( 0  0 )
n=( 2  2 )
l=( 3  3 )
num_ms=4
< -3  3 >:  0.0003996751846292658
< -2  2 >:  -0.0003996751846292658
< -1  1 >:  0.0003996751846292658
< 0  0 >:  -0.0001998375923146329
ctilde_basis_func: rank=2 ndens=1 mu0=0 mu=( 0  0 )
n=( 1  3 )
l=( 2  2 )
num_ms=5
< -2  2 >:  -0.0006828956181727006
< -1  1 >:  0.0006828956181727006
< 0  0 >:  -0.0006828956181727006
< 1  -1 >:  0.0006828956181727006
< 2  -2 >:  -0.0006828956181727006
ctilde_basis_func: rank=2 ndens=1 mu0=0 mu=( 0  0 )
n=( 2  11 )
l=( 0  0 )
num_ms=1
< 0  0 >:  2.6986480911348434e-6
ctilde_basis_func: rank=2 ndens=1 mu0=0 mu=( 0  0 )
n=( 6  6 )
l=( 2  2 )
num_ms=3
< -2  2 >:  -3.766499148788439e-5
< -1  1 >:  3.766499148788439e-5
< 0  0 >:  -1.8832495743942196e-5
ctilde_basis_func: rank=2 ndens=1 mu0=0 mu=( 0  0 )
n=( 6  9 )
l=( 1  1 )
num_ms=3
< -1  1 >:  3.998535295759269e-5
< 0  0 >:  -3.998535295759269e-5
< 1  -1 >:  3.998535295759269e-5
ctilde_basis_func: rank=2 ndens=1 mu0=0 mu=( 0  0 )
n=( 3  6 )
l=( 1  1 )
num_ms=3
< -1  1 >:  4.493119272658569e-5
< 0  0 >:  -4.493119272658569e-5
< 1  -1 >:  4.493119272658569e-5
ctilde_basis_func: rank=2 ndens=1 mu0=0 mu=( 0  0 )
n=( 9  9 )
l=( 0  0 )
num_ms=1
< 0  0 >:  -7.30621164975687e-6
ctilde_basis_func: rank=2 ndens=1 mu0=0 mu=( 0  0 )
n=( 8  8 )
l=( 0  0 )
num_ms=1
< 0  0 >:  -6.8959093492198e-7
ctilde_basis_func: rank=2 ndens=1 mu0=0 mu=( 0  0 )
n=( 3  10 )
l=( 1  1 )
num_ms=3
< -1  1 >:  -4.359496013662165e-5
< 0  0 >:  4.359496013662165e-5
< 1  -1 >:  -4.359496013662165e-5
ctilde_basis_func: rank=2 ndens=1 mu0=0 mu=( 0  0 )
n=( 2  5 )
l=( 1  1 )
num_ms=3
< -1  1 >:  -0.00014304421928745578
< 0  0 >:  0.00014304421928745578
< 1  -1 >:  -0.00014304421928745578
ctilde_basis_func: rank=2 ndens=1 mu0=0 mu=( 0  0 )
n=( 5  10 )
l=( 0  0 )
num_ms=1
< 0  0 >:  -4.3941301538511105e-5
ctilde_basis_func: rank=2 ndens=1 mu0=0 mu=( 0  0 )
n=( 3  4 )
l=( 4  4 )
num_ms=9
< -4  4 >:  0.00013225538008765106
< -3  3 >:  -0.00013225538008765104
< -2  2 >:  0.00013225538008765104
< -1  1 >:  -0.00013225538008765104
< 0  0 >:  0.00013225538008765104
< 1  -1 >:  -0.00013225538008765104
< 2  -2 >:  0.00013225538008765104
< 3  -3 >:  -0.00013225538008765104
< 4  -4 >:  0.00013225538008765104
ctilde_basis_func: rank=2 ndens=1 mu0=0 mu=( 0  0 )
n=( 1  11 )
l=( 1  1 )
num_ms=3
< -1  1 >:  -2.6059133435004283e-5
< 0  0 >:  2.6059133435004283e-5
< 1  -1 >:  -2.6059133435004283e-5
ctilde_basis_func: rank=2 ndens=1 mu0=0 mu=( 0  0 )
n=( 2  8 )
l=( 1  1 )
num_ms=3
< -1  1 >:  -1.0970237421865745e-5
< 0  0 >:  1.0970237421865745e-5
< 1  -1 >:  -1.0970237421865745e-5
ctilde_basis_func: rank=2 ndens=1 mu0=0 mu=( 0  0 )
n=( 1  2 )
l=( 0  0 )
num_ms=1
< 0  0 >:  -0.000771630253953862
ctilde_basis_func: rank=2 ndens=1 mu0=0 mu=( 0  0 )
n=( 4  5 )
l=( 3  3 )
num_ms=7
< -3  3 >:  -0.00010692256972623441
< -2  2 >:  0.00010692256972623441
< -1  1 >:  -0.00010692256972623441
< 0  0 >:  0.00010692256972623441
< 1  -1 >:  -0.00010692256972623441
< 2  -2 >:  0.00010692256972623441
< 3  -3 >:  -0.00010692256972623441
ctilde_basis_func: rank=2 ndens=1 mu0=0 mu=( 0  0 )
n=( 2  2 )
l=( 1  1 )
num_ms=2
< -1  1 >:  0.0011531518802735932
< 0  0 >:  -0.0005765759401367966
ctilde_basis_func: rank=2 ndens=1 mu0=0 mu=( 0  0 )
n=( 1  16 )
l=( 0  0 )
num_ms=1
< 0  0 >:  4.6406527755955774e-6
ctilde_basis_func: rank=2 ndens=1 mu0=0 mu=( 0  0 )
n=( 2  7 )
l=( 1  1 )
num_ms=3
< -1  1 >:  -4.053169027011621e-5
< 0  0 >:  4.053169027011621e-5
< 1  -1 >:  -4.053169027011621e-5
ctilde_basis_func: rank=2 ndens=1 mu0=0 mu=( 0  0 )
n=( 1  12 )
l=( 1  1 )
num_ms=3
< -1  1 >:  5.078253940873852e-6
< 0  0 >:  -5.078253940873852e-6
< 1  -1 >:  5.078253940873852e-6
ctilde_basis_func: rank=2 ndens=1 mu0=0 mu=( 0  0 )
n=( 7  9 )
l=( 0  0 )
num_ms=1
< 0  0 >:  -7.177443120177265e-6
ctilde_basis_func: rank=2 ndens=1 mu0=0 mu=( 0  0 )
n=( 3  8 )
l=( 0  0 )
num_ms=1
< 0  0 >:  -4.878143012410603e-5
ctilde_basis_func: rank=2 ndens=1 mu0=0 mu=( 0  0 )
n=( 3  3 )
l=( 1  1 )
num_ms=2
< -1  1 >:  0.0002691986707764542
< 0  0 >:  -0.0001345993353882271
ctilde_basis_func: rank=2 ndens=1 mu0=0 mu=( 0  0 )
n=( 7  7 )
l=( 1  1 )
num_ms=2
< -1  1 >:  4.5291693705877684e-5
< 0  0 >:  -2.2645846852938842e-5
ctilde_basis_func: rank=2 ndens=1 mu0=0 mu=( 0  0 )
n=( 2  10 )
l=( 0  0 )
num_ms=1
< 0  0 >:  2.1056011677066113e-5
ctilde_basis_func: rank=2 ndens=1 mu0=0 mu=( 0  0 )
n=( 1  8 )
l=( 1  1 )
num_ms=3
< -1  1 >:  -3.141962384230404e-5
< 0  0 >:  3.141962384230404e-5
< 1  -1 >:  -3.141962384230404e-5
ctilde_basis_func: rank=2 ndens=1 mu0=0 mu=( 0  0 )
n=( 5  13 )
l=( 0  0 )
num_ms=1
< 0  0 >:  -1.1970481198896304e-5
ctilde_basis_func: rank=2 ndens=1 mu0=0 mu=( 0  0 )
n=( 6  7 )
l=( 0  0 )
num_ms=1
< 0  0 >:  9.019843999359755e-5
ctilde_basis_func: rank=2 ndens=1 mu0=0 mu=( 0  0 )
n=( 2  14 )
l=( 0  0 )
num_ms=1
< 0  0 >:  -1.3765947912530001e-7
ctilde_basis_func: rank=2 ndens=1 mu0=0 mu=( 0  0 )
n=( 6  10 )
l=( 0  0 )
num_ms=1
< 0  0 >:  -8.227276164873414e-6
ctilde_basis_func: rank=2 ndens=1 mu0=0 mu=( 0  0 )
n=( 4  4 )
l=( 0  0 )
num_ms=1
< 0  0 >:  -3.18904122840217e-5
ctilde_basis_func: rank=2 ndens=1 mu0=0 mu=( 0  0 )
n=( 2  9 )
l=( 1  1 )
num_ms=3
< -1  1 >:  -3.6007034413160394e-5
< 0  0 >:  3.6007034413160394e-5
< 1  -1 >:  -3.6007034413160394e-5
ctilde_basis_func: rank=2 ndens=1 mu0=0 mu=( 0  0 )
n=( 1  1 )
l=( 3  3 )
num_ms=4
< -3  3 >:  0.001158252536238476
< -2  2 >:  -0.001158252536238476
< -1  1 >:  0.001158252536238476
< 0  0 >:  -0.000579126268119238
ctilde_basis_func: rank=2 ndens=1 mu0=0 mu=( 0  0 )
n=( 2  4 )
l=( 0  0 )
num_ms=1
< 0  0 >:  -2.0437888375058464e-5
ctilde_basis_func: rank=2 ndens=1 mu0=0 mu=( 0  0 )
n=( 3  15 )
l=( 0  0 )
num_ms=1
< 0  0 >:  -2.4682994461564754e-6
ctilde_basis_func: rank=2 ndens=1 mu0=0 mu=( 0  0 )
n=( 2  10 )
l=( 1  1 )
num_ms=3
< -1  1 >:  -7.664449294977479e-6
< 0  0 >:  7.664449294977479e-6
< 1  -1 >:  -7.664449294977479e-6
ctilde_basis_func: rank=2 ndens=1 mu0=0 mu=( 0  0 )
n=( 3  14 )
l=( 0  0 )
num_ms=1
< 0  0 >:  3.645062053262945e-6
ctilde_basis_func: rank=2 ndens=1 mu0=0 mu=( 0  0 )
n=( 2  13 )
l=( 1  1 )
num_ms=3
< -1  1 >:  2.2391635570406674e-5
< 0  0 >:  -2.2391635570406674e-5
< 1  -1 >:  2.2391635570406674e-5
ctilde_basis_func: rank=2 ndens=1 mu0=0 mu=( 0  0 )
n=( 6  11 )
l=( 0  0 )
num_ms=1
< 0  0 >:  2.7814298390767236e-5
ctilde_basis_func: rank=2 ndens=1 mu0=0 mu=( 0  0 )
n=( 5  7 )
l=( 2  2 )
num_ms=5
< -2  2 >:  5.790762723668693e-5
< -1  1 >:  -5.790762723668693e-5
< 0  0 >:  5.790762723668693e-5
< 1  -1 >:  -5.790762723668693e-5
< 2  -2 >:  5.790762723668693e-5
ctilde_basis_func: rank=2 ndens=1 mu0=0 mu=( 0  0 )
n=( 5  8 )
l=( 0  0 )
num_ms=1
< 0  0 >:  1.2741390409801239e-5
ctilde_basis_func: rank=2 ndens=1 mu0=0 mu=( 0  0 )
n=( 7  11 )
l=( 0  0 )
num_ms=1
< 0  0 >:  3.3194343115404638e-6
ctilde_basis_func: rank=2 ndens=1 mu0=0 mu=( 0  0 )
n=( 1  4 )
l=( 0  0 )
num_ms=1
< 0  0 >:  -0.00026393444029675555
ctilde_basis_func: rank=2 ndens=1 mu0=0 mu=( 0  0 )
n=( 5  10 )
l=( 1  1 )
num_ms=3
< -1  1 >:  -3.559488928037286e-5
< 0  0 >:  3.559488928037286e-5
< 1  -1 >:  -3.559488928037286e-5
ctilde_basis_func: rank=2 ndens=1 mu0=0 mu=( 0  0 )
n=( 1  3 )
l=( 0  0 )
num_ms=1
< 0  0 >:  0.001053403408637397
ctilde_basis_func: rank=2 ndens=1 mu0=0 mu=( 0  0 )
n=( 5  9 )
l=( 0  0 )
num_ms=1
< 0  0 >:  2.542883657724009e-5
ctilde_basis_func: rank=2 ndens=1 mu0=0 mu=( 0  0 )
n=( 4  9 )
l=( 0  0 )
num_ms=1
< 0  0 >:  -3.7236360527034923e-5
ctilde_basis_func: rank=2 ndens=1 mu0=0 mu=( 0  0 )
n=( 2  3 )
l=( 0  0 )
num_ms=1
< 0  0 >:  -0.0004377517298206224
ctilde_basis_func: rank=2 ndens=1 mu0=0 mu=( 0  0 )
n=( 2  12 )
l=( 1  1 )
num_ms=3
< -1  1 >:  -6.730205073716477e-6
< 0  0 >:  6.730205073716477e-6
< 1  -1 >:  -6.730205073716477e-6
ctilde_basis_func: rank=2 ndens=1 mu0=0 mu=( 0  0 )
n=( 2  7 )
l=( 0  0 )
num_ms=1
< 0  0 >:  3.7507656011176884e-5
ctilde_basis_func: rank=2 ndens=1 mu0=0 mu=( 0  0 )
n=( 1  11 )
l=( 0  0 )
num_ms=1
< 0  0 >:  2.8165503271004206e-6
ctilde_basis_func: rank=2 ndens=1 mu0=0 mu=( 0  0 )
n=( 2  8 )
l=( 0  0 )
num_ms=1
< 0  0 >:  2.0975132104015374e-5
ctilde_basis_func: rank=2 ndens=1 mu0=0 mu=( 0  0 )
n=( 8  9 )
l=( 0  0 )
num_ms=1
< 0  0 >:  6.503523698998837e-6
ctilde_basis_func: rank=2 ndens=1 mu0=0 mu=( 0  0 )
n=( 5  6 )
l=( 1  1 )
num_ms=3
< -1  1 >:  -0.000183619174975648
< 0  0 >:  0.000183619174975648
< 1  -1 >:  -0.000183619174975648
ctilde_basis_func: rank=2 ndens=1 mu0=0 mu=( 0  0 )
n=( 2  16 )
l=( 0  0 )
num_ms=1
< 0  0 >:  -3.4564799952112926e-6
ctilde_basis_func: rank=2 ndens=1 mu0=0 mu=( 0  0 )
n=( 3  6 )
l=( 0  0 )
num_ms=1
< 0  0 >:  -6.222795744400217e-5
ctilde_basis_func: rank=2 ndens=1 mu0=0 mu=( 0  0 )
n=( 4  4 )
l=( 1  1 )
num_ms=2
< -1  1 >:  -0.00011059233186598924
< 0  0 >:  5.529616593299462e-5
ctilde_basis_func: rank=2 ndens=1 mu0=0 mu=( 0  0 )
n=( 1  9 )
l=( 2  2 )
num_ms=5
< -2  2 >:  -2.1724970403291953e-5
< -1  1 >:  2.1724970403291953e-5
< 0  0 >:  -2.1724970403291953e-5
< 1  -1 >:  2.1724970403291953e-5
< 2  -2 >:  -2.1724970403291953e-5
ctilde_basis_func: rank=2 ndens=1 mu0=0 mu=( 0  0 )
n=( 4  11 )
l=( 1  1 )
num_ms=3
< -1  1 >:  -9.259353659032161e-6
< 0  0 >:  9.259353659032161e-6
< 1  -1 >:  -9.259353659032161e-6
ctilde_basis_func: rank=2 ndens=1 mu0=0 mu=( 0  0 )
n=( 2  12 )
l=( 0  0 )
num_ms=1
< 0  0 >:  5.575994391418444e-6
ctilde_basis_func: rank=2 ndens=1 mu0=0 mu=( 0  0 )
n=( 6  12 )
l=( 0  0 )
num_ms=1
< 0  0 >:  -1.213280957670535e-5
ctilde_basis_func: rank=2 ndens=1 mu0=0 mu=( 0  0 )
n=( 1  12 )
l=( 0  0 )
num_ms=1
< 0  0 >:  -9.042322264069538e-6
ctilde_basis_func: rank=2 ndens=1 mu0=0 mu=( 0  0 )
n=( 5  9 )
l=( 1  1 )
num_ms=3
< -1  1 >:  -1.3623964222735281e-5
< 0  0 >:  1.3623964222735281e-5
< 1  -1 >:  -1.3623964222735281e-5
ctilde_basis_func: rank=2 ndens=1 mu0=0 mu=( 0  0 )
n=( 3  10 )
l=( 0  0 )
num_ms=1
< 0  0 >:  -6.13049020532349e-5
ctilde_basis_func: rank=2 ndens=1 mu0=0 mu=( 0  0 )
n=( 5  7 )
l=( 0  0 )
num_ms=1
< 0  0 >:  -7.974455787795268e-5
ctilde_basis_func: rank=2 ndens=1 mu0=0 mu=( 0  0 )
n=( 3  4 )
l=( 0  0 )
num_ms=1
< 0  0 >:  -0.00015174950401109825
ctilde_basis_func: rank=2 ndens=1 mu0=0 mu=( 0  0 )
n=( 1  6 )
l=( 0  0 )
num_ms=1
< 0  0 >:  -6.566521819956793e-5
ctilde_basis_func: rank=2 ndens=1 mu0=0 mu=( 0  0 )
n=( 7  7 )
l=( 0  0 )
num_ms=1
< 0  0 >:  -4.666878513838398e-5
ctilde_basis_func: rank=2 ndens=1 mu0=0 mu=( 0  0 )
n=( 1  8 )
l=( 0  0 )
num_ms=1
< 0  0 >:  -5.332674031058484e-5
ctilde_basis_func: rank=2 ndens=1 mu0=0 mu=( 0  0 )
n=( 7  8 )
l=( 0  0 )
num_ms=1
< 0  0 >:  5.050598413337998e-5
ctilde_basis_func: rank=2 ndens=1 mu0=0 mu=( 0  0 )
n=( 4  13 )
l=( 0  0 )
num_ms=1
< 0  0 >:  4.312717386169498e-6
ctilde_basis_func: rank=2 ndens=1 mu0=0 mu=( 0  0 )
n=( 2  2 )
l=( 0  0 )
num_ms=1
< 0  0 >:  -6.276160521819414e-5
ctilde_basis_func: rank=2 ndens=1 mu0=0 mu=( 0  0 )
n=( 1  15 )
l=( 0  0 )
num_ms=1
< 0  0 >:  -4.7773711000876255e-6
ctilde_basis_func: rank=2 ndens=1 mu0=0 mu=( 0  0 )
n=( 4  14 )
l=( 0  0 )
num_ms=1
< 0  0 >:  -1.0597904992579054e-5
ctilde_basis_func: rank=2 ndens=1 mu0=0 mu=( 0  0 )
n=( 1  5 )
l=( 0  0 )
num_ms=1
< 0  0 >:  6.756930521242372e-5
ctilde_basis_func: rank=2 ndens=1 mu0=0 mu=( 0  0 )
n=( 6  9 )
l=( 0  0 )
num_ms=1
< 0  0 >:  3.817937217289173e-6
ctilde_basis_func: rank=2 ndens=1 mu0=0 mu=( 0  0 )
n=( 4  12 )
l=( 0  0 )
num_ms=1
< 0  0 >:  -5.374005469402688e-6
ctilde_basis_func: rank=2 ndens=1 mu0=0 mu=( 0  0 )
n=( 5  12 )
l=( 0  0 )
num_ms=1
< 0  0 >:  5.109634729885854e-6
ctilde_basis_func: rank=2 ndens=1 mu0=0 mu=( 0  0 )
n=( 1  13 )
l=( 0  0 )
num_ms=1
< 0  0 >:  -7.686083833101055e-6
ctilde_basis_func: rank=2 ndens=1 mu0=0 mu=( 0  0 )
n=( 8  10 )
l=( 0  0 )
num_ms=1
< 0  0 >:  5.699762516003405e-6
ctilde_basis_func: rank=2 ndens=1 mu0=0 mu=( 0  0 )
n=( 2  5 )
l=( 0  0 )
num_ms=1
< 0  0 >:  0.0001547780179271111
ctilde_basis_func: rank=2 ndens=1 mu0=0 mu=( 0  0 )
n=( 3  11 )
l=( 0  0 )
num_ms=1
< 0  0 >:  6.966671658179451e-6
ctilde_basis_func: rank=2 ndens=1 mu0=0 mu=( 0  0 )
n=( 3  3 )
l=( 0  0 )
num_ms=1
< 0  0 >:  0.00019694332887807128
ctilde_basis_func: rank=2 ndens=1 mu0=0 mu=( 0  0 )
n=( 4  11 )
l=( 0  0 )
num_ms=1
< 0  0 >:  -1.2804025125146392e-5
ctilde_basis_func: rank=3 ndens=1 mu0=0 mu=( 0  0  0 )
n=( 1  3  3 )
l=( 4  2  2 )
num_ms=15
< -4  2  2 >:  -2.1959754214584247e-5
< -3  1  2 >:  3.105578223664477e-5
< -2  0  2 >:  -2.0330781837927085e-5
< -2  1  1 >:  -1.6600013858254974e-5
< -1  -1  2 >:  1.1737982366962761e-5
< -1  0  1 >:  2.875206740884509e-5
< 0  -2  2 >:  -5.249385298244517e-6
< 0  -1  1 >:  -2.099754119297809e-5
< 0  0  0 >:  -1.5748155894733567e-5
< 1  -2  1 >:  1.1737982366962761e-5
< 1  -1  0 >:  2.875206740884509e-5
< 2  -2  0 >:  -2.0330781837927085e-5
< 2  -1  -1 >:  -1.6600013858254974e-5
< 3  -2  -1 >:  3.105578223664477e-5
< 4  -2  -2 >:  -2.1959754214584247e-5
ctilde_basis_func: rank=3 ndens=1 mu0=0 mu=( 0  0  0 )
n=( 2  4  6 )
l=( 0  1  1 )
num_ms=3
< 0  -1  1 >:  3.7910982015819893e-6
< 0  0  0 >:  -3.7910982015819876e-6
< 0  1  -1 >:  3.7910982015819876e-6
ctilde_basis_func: rank=3 ndens=1 mu0=0 mu=( 0  0  0 )
n=( 1  2  4 )
l=( 1  3  2 )
num_ms=15
< -1  -1  2 >:  -8.08719864956041e-6
< -1  0  1 >:  1.4007438951941044e-5
< -1  1  0 >:  -1.980951013994819e-5
< -1  2  -1 >:  2.557396762284877e-5
< -1  3  -2 >:  -3.132158568721858e-5
< 0  -2  2 >:  1.8083525927961578e-5
< 0  -1  1 >:  -2.287405202362742e-5
< 0  0  0 >:  2.426159594868123e-5
< 0  1  -1 >:  -2.287405202362742e-5
< 0  2  -2 >:  1.8083525927961578e-5
< 1  -3  2 >:  -3.1321585687218587e-5
< 1  -2  1 >:  2.557396762284877e-5
< 1  -1  0 >:  -1.980951013994819e-5
< 1  0  -1 >:  1.4007438951941044e-5
< 1  1  -2 >:  -8.08719864956041e-6
ctilde_basis_func: rank=3 ndens=1 mu0=0 mu=( 0  0  0 )
n=( 1  2  4 )
l=( 0  1  1 )
num_ms=3
< 0  -1  1 >:  7.985232864991396e-6
< 0  0  0 >:  -7.985232864991393e-6
< 0  1  -1 >:  7.985232864991393e-6
ctilde_basis_func: rank=3 ndens=1 mu0=0 mu=( 0  0  0 )
n=( 1  3  3 )
l=( 0  4  4 )
num_ms=5
< 0  -4  4 >:  2.7027884366011087e-5
< 0  -3  3 >:  -2.7027884366011084e-5
< 0  -2  2 >:  2.7027884366011084e-5
< 0  -1  1 >:  -2.7027884366011084e-5
< 0  0  0 >:  1.3513942183005542e-5
ctilde_basis_func: rank=3 ndens=1 mu0=0 mu=( 0  0  0 )
n=( 1  1  2 )
l=( 3  4  3 )
num_ms=43
< -3  0  3 >:  8.923694470945313e-7
< -3  1  2 >:  -1.6292362526736256e-6
< -3  2  1 >:  2.1858498074311493e-6
< -3  3  0 >:  -2.360987634604339e-6
< -3  4  -1 >:  1.9277383312670826e-6
< -2  -1  3 >:  -1.6292362526736256e-6
< -2  0  2 >:  2.0821953765539057e-6
< -2  1  1 >:  -1.6826679663046215e-6
< -2  2  0 >:  5.152097404966251e-7
< -2  3  -1 >:  1.11298024448421e-6
< -2  4  -2 >:  -2.4886994842810293e-6
< -1  -2  3 >:  2.1858498074311493e-6
< -1  -1  2 >:  -1.6826679663046215e-6
< -1  0  1 >:  2.9745648236484363e-7
< -1  1  0 >:  1.1520440024204798e-6
< -1  2  -1 >:  -1.8812799781092297e-6
< -1  3  -2 >:  1.11298024448421e-6
< -1  4  -3 >:  1.9277383312670826e-6
< 0  -3  3 >:  -2.360987634604339e-6
< 0  -2  2 >:  5.152097404966251e-7
< 0  -1  1 >:  1.1520440024204798e-6
< 0  0  0 >:  -1.7847388941890625e-6
< 0  1  -1 >:  1.1520440024204798e-6
< 0  2  -2 >:  5.152097404966251e-7
< 0  3  -3 >:  -2.360987634604339e-6
< 1  -4  3 >:  1.9277383312670797e-6
< 1  -3  2 >:  1.11298024448421e-6
< 1  -2  1 >:  -1.8812799781092297e-6
< 1  -1  0 >:  1.1520440024204798e-6
< 1  0  -1 >:  2.9745648236484363e-7
< 1  1  -2 >:  -1.6826679663046215e-6
< 1  2  -3 >:  2.1858498074311493e-6
< 2  -4  2 >:  -2.4886994842810293e-6
< 2  -3  1 >:  1.11298024448421e-6
< 2  -2  0 >:  5.152097404966251e-7
< 2  -1  -1 >:  -1.6826679663046215e-6
< 2  0  -2 >:  2.0821953765539057e-6
< 2  1  -3 >:  -1.6292362526736256e-6
< 3  -4  1 >:  1.9277383312670826e-6
< 3  -3  0 >:  -2.360987634604339e-6
< 3  -2  -1 >:  2.1858498074311493e-6
< 3  -1  -2 >:  -1.6292362526736256e-6
< 3  0  -3 >:  8.923694470945313e-7
ctilde_basis_func: rank=3 ndens=1 mu0=0 mu=( 0  0  0 )
n=( 1  2  3 )
l=( 1  2  1 )
num_ms=9
< -1  0  1 >:  1.1965242729976907e-6
< -1  1  0 >:  -2.0724408333214135e-6
< -1  2  -1 >:  2.9308739336989427e-6
< 0  -1  1 >:  -2.0724408333214135e-6
< 0  0  0 >:  2.3930485459953815e-6
< 0  1  -1 >:  -2.0724408333214135e-6
< 1  -2  1 >:  2.930873933698942e-6
< 1  -1  0 >:  -2.0724408333214135e-6
< 1  0  -1 >:  1.1965242729976907e-6
ctilde_basis_func: rank=3 ndens=1 mu0=0 mu=( 0  0  0 )
n=( 1  2  6 )
l=( 2  1  3 )
num_ms=15
< -2  -1  3 >:  -1.054736218070872e-5
< -2  0  2 >:  6.089522394272658e-6
< -2  1  1 >:  -2.7233172048201875e-6
< -1  -1  2 >:  8.611885158355075e-6
< -1  0  1 >:  -7.702704251401396e-6
< -1  1  0 >:  4.716923763875024e-6
< 0  -1  1 >:  -6.670737559552005e-6
< 0  0  0 >:  8.169951614460562e-6
< 0  1  -1 >:  -6.670737559552005e-6
< 1  -1  0 >:  4.716923763875024e-6
< 1  0  -1 >:  -7.702704251401396e-6
< 1  1  -2 >:  8.611885158355075e-6
< 2  -1  -1 >:  -2.7233172048201875e-6
< 2  0  -2 >:  6.089522394272658e-6
< 2  1  -3 >:  -1.0547362180708719e-5
ctilde_basis_func: rank=3 ndens=1 mu0=0 mu=( 0  0  0 )
n=( 1  1  6 )
l=( 2  3  1 )
num_ms=15
< -2  1  1 >:  1.5485325246084779e-6
< -2  2  0 >:  -3.4626239903939225e-6
< -2  3  -1 >:  5.997440678869162e-6
< -1  0  1 >:  -2.6821370097947863e-6
< -1  1  0 >:  4.379911396154316e-6
< -1  2  -1 >:  -4.896889808613531e-6
< 0  -1  1 >:  3.7931145353946056e-6
< 0  0  0 >:  -4.645597573825433e-6
< 0  1  -1 >:  3.7931145353946056e-6
< 1  -2  1 >:  -4.896889808613531e-6
< 1  -1  0 >:  4.379911396154316e-6
< 1  0  -1 >:  -2.6821370097947863e-6
< 2  -3  1 >:  5.997440678869164e-6
< 2  -2  0 >:  -3.4626239903939225e-6
< 2  -1  -1 >:  1.5485325246084779e-6
ctilde_basis_func: rank=3 ndens=1 mu0=0 mu=( 0  0  0 )
n=( 2  3  7 )
l=( 2  1  1 )
num_ms=9
< -2  1  1 >:  2.0819738003624292e-5
< -1  0  1 >:  -1.4721777924890012e-5
< -1  1  0 >:  -1.4721777924890012e-5
< 0  -1  1 >:  8.49962244788513e-6
< 0  0  0 >:  1.699924489577028e-5
< 0  1  -1 >:  8.49962244788514e-6
< 1  -1  0 >:  -1.4721777924890012e-5
< 1  0  -1 >:  -1.4721777924890012e-5
< 2  -1  -1 >:  2.0819738003624292e-5
ctilde_basis_func: rank=3 ndens=1 mu0=0 mu=( 0  0  0 )
n=( 1  3  4 )
l=( 3  1  2 )
num_ms=15
< -3  1  2 >:  6.872413589009807e-5
< -2  0  2 >:  -3.967789835597254e-5
< -2  1  1 >:  -5.611302198147751e-5
< -1  -1  2 >:  1.7744495585656336e-5
< -1  0  1 >:  5.018901262940945e-5
< -1  1  0 >:  4.346495992792661e-5
< 0  -1  1 >:  -3.073436790903846e-5
< 0  0  0 >:  -5.3233486756969065e-5
< 0  1  -1 >:  -3.073436790903846e-5
< 1  -1  0 >:  4.346495992792661e-5
< 1  0  -1 >:  5.018901262940945e-5
< 1  1  -2 >:  1.7744495585656356e-5
< 2  -1  -1 >:  -5.611302198147751e-5
< 2  0  -2 >:  -3.967789835597254e-5
< 3  -1  -2 >:  6.872413589009807e-5
ctilde_basis_func: rank=3 ndens=1 mu0=0 mu=( 0  0  0 )
n=( 1  2  5 )
l=( 2  1  3 )
num_ms=15
< -2  -1  3 >:  -6.998418246977343e-6
< -2  0  2 >:  4.040538658793957e-6
< -2  1  1 >:  -1.8069838213558232e-6
< -1  -1  2 >:  5.7141845705592095e-6
< -1  0  1 >:  -5.1109220543003335e-6
< -1  1  0 >:  3.1297877870432494e-6
< 0  -1  1 >:  -4.4261883357862395e-6
< 0  0  0 >:  5.420951464067469e-6
< 0  1  -1 >:  -4.4261883357862395e-6
< 1  -1  0 >:  3.1297877870432494e-6
< 1  0  -1 >:  -5.1109220543003335e-6
< 1  1  -2 >:  5.7141845705592095e-6
< 2  -1  -1 >:  -1.8069838213558232e-6
< 2  0  -2 >:  4.040538658793957e-6
< 2  1  -3 >:  -6.998418246977341e-6
ctilde_basis_func: rank=3 ndens=1 mu0=0 mu=( 0  0  0 )
n=( 2  2  2 )
l=( 0  3  3 )
num_ms=4
< 0  -3  3 >:  7.296887294843444e-5
< 0  -2  2 >:  -7.296887294843444e-5
< 0  -1  1 >:  7.296887294843444e-5
< 0  0  0 >:  -3.648443647421722e-5
ctilde_basis_func: rank=3 ndens=1 mu0=0 mu=( 0  0  0 )
n=( 1  3  4 )
l=( 1  2  3 )
num_ms=15
< -1  -2  3 >:  -0.00011848850257823103
< -1  -1  2 >:  9.674545723437166e-5
< -1  0  1 >:  -7.493870893798864e-5
< -1  1  0 >:  5.2989669263416723e-5
< -1  2  -1 >:  -3.059359981350288e-5
< 0  -2  2 >:  6.840936885941735e-5
< 0  -1  1 >:  -8.653176755614153e-5
< 0  0  0 >:  9.178079944050864e-5
< 0  1  -1 >:  -8.653176755614153e-5
< 0  2  -2 >:  6.840936885941735e-5
< 1  -2  1 >:  -3.059359981350288e-5
< 1  -1  0 >:  5.2989669263416723e-5
< 1  0  -1 >:  -7.493870893798864e-5
< 1  1  -2 >:  9.674545723437166e-5
< 1  2  -3 >:  -0.000118488502578231
ctilde_basis_func: rank=3 ndens=1 mu0=0 mu=( 0  0  0 )
n=( 1  1  3 )
l=( 2  4  2 )
num_ms=25
< -2  0  2 >:  4.466799152612081e-6
< -2  1  1 >:  -9.98806654707907e-6
< -2  2  0 >:  1.729983872891999e-5
< -2  3  -1 >:  -2.6425940161934827e-5
< -2  4  -2 >:  3.73719229754681e-5
< -1  -1  2 >:  -9.98806654707907e-6
< -1  0  1 >:  1.7867196610448324e-5
< -1  1  0 >:  -2.4465666557305974e-5
< -1  2  -1 >:  2.825051834552846e-5
< -1  3  -2 >:  -2.6425940161934827e-5
< 0  -2  2 >:  1.729983872891999e-5
< 0  -1  1 >:  -2.4465666557305974e-5
< 0  0  0 >:  2.6800794915672485e-5
< 0  1  -1 >:  -2.4465666557305974e-5
< 0  2  -2 >:  1.729983872891999e-5
< 1  -3  2 >:  -2.6425940161934827e-5
< 1  -2  1 >:  2.825051834552846e-5
< 1  -1  0 >:  -2.4465666557305974e-5
< 1  0  -1 >:  1.7867196610448324e-5
< 1  1  -2 >:  -9.98806654707907e-6
< 2  -4  2 >:  3.737192297546812e-5
< 2  -3  1 >:  -2.6425940161934827e-5
< 2  -2  0 >:  1.729983872891999e-5
< 2  -1  -1 >:  -9.98806654707907e-6
< 2  0  -2 >:  4.466799152612081e-6
ctilde_basis_func: rank=3 ndens=1 mu0=0 mu=( 0  0  0 )
n=( 1  1  4 )
l=( 2  4  2 )
num_ms=25
< -2  0  2 >:  9.177850648678503e-6
< -2  1  1 >:  -2.0522297937785673e-5
< -2  2  0 >:  3.554566271631078e-5
< -2  3  -1 >:  -5.4296896674954586e-5
< -2  4  -2 >:  7.67874076724914e-5
< -1  -1  2 >:  -2.0522297937785673e-5
< -1  0  1 >:  3.671140259471401e-5
< -1  1  0 >:  -5.0269158296946375e-5
< -1  2  -1 >:  5.804582414935579e-5
< -1  3  -2 >:  -5.4296896674954586e-5
< 0  -2  2 >:  3.554566271631078e-5
< 0  -1  1 >:  -5.0269158296946375e-5
< 0  0  0 >:  5.5067103892071026e-5
< 0  1  -1 >:  -5.0269158296946375e-5
< 0  2  -2 >:  3.554566271631078e-5
< 1  -3  2 >:  -5.4296896674954586e-5
< 1  -2  1 >:  5.804582414935579e-5
< 1  -1  0 >:  -5.0269158296946375e-5
< 1  0  -1 >:  3.671140259471401e-5
< 1  1  -2 >:  -2.0522297937785673e-5
< 2  -4  2 >:  7.678740767249144e-5
< 2  -3  1 >:  -5.4296896674954586e-5
< 2  -2  0 >:  3.554566271631078e-5
< 2  -1  -1 >:  -2.0522297937785673e-5
< 2  0  -2 >:  9.177850648678503e-6
ctilde_basis_func: rank=3 ndens=1 mu0=0 mu=( 0  0  0 )
n=( 1  2  3 )
l=( 2  4  2 )
num_ms=25
< -2  0  2 >:  4.259770700773067e-6
< -2  1  1 >:  -9.525136855490493e-6
< -2  2  0 >:  1.649802098275639e-5
< -2  3  -1 >:  -2.5201143323483623e-5
< -2  4  -2 >:  3.563979867537872e-5
< -1  -1  2 >:  -9.525136855490493e-6
< -1  0  1 >:  1.7039082803092268e-5
< -1  1  0 >:  -2.3331725026129978e-5
< -1  2  -1 >:  2.694115544898894e-5
< -1  3  -2 >:  -2.5201143323483623e-5
< 0  -2  2 >:  1.649802098275639e-5
< 0  -1  1 >:  -2.3331725026129978e-5
< 0  0  0 >:  2.5558624204638405e-5
< 0  1  -1 >:  -2.3331725026129978e-5
< 0  2  -2 >:  1.649802098275639e-5
< 1  -3  2 >:  -2.5201143323483623e-5
< 1  -2  1 >:  2.694115544898894e-5
< 1  -1  0 >:  -2.3331725026129978e-5
< 1  0  -1 >:  1.7039082803092268e-5
< 1  1  -2 >:  -9.525136855490493e-6
< 2  -4  2 >:  3.563979867537874e-5
< 2  -3  1 >:  -2.5201143323483623e-5
< 2  -2  0 >:  1.649802098275639e-5
< 2  -1  -1 >:  -9.525136855490493e-6
< 2  0  -2 >:  4.259770700773067e-6
ctilde_basis_func: rank=3 ndens=1 mu0=0 mu=( 0  0  0 )
n=( 1  2  3 )
l=( 1  3  4 )
num_ms=21
< -1  -3  4 >:  -6.1912595235074915e-6
< -1  -2  3 >:  5.3617880287798245e-6
< -1  -1  2 >:  -4.5315379654756955e-6
< -1  0  1 >:  3.699985255155088e-6
< -1  1  0 >:  -2.8659962548857317e-6
< -1  2  -1 >:  2.0265653866849496e-6
< -1  3  -2 >:  -1.170038071532934e-6
< 0  -3  3 >:  3.0956297617537445e-6
< 0  -2  2 >:  -4.053130773369899e-6
< 0  -1  1 >:  4.5315379654756955e-6
< 0  0  0 >:  -4.680152286131736e-6
< 0  1  -1 >:  4.5315379654756955e-6
< 0  2  -2 >:  -4.053130773369899e-6
< 0  3  -3 >:  3.0956297617537445e-6
< 1  -3  2 >:  -1.170038071532934e-6
< 1  -2  1 >:  2.0265653866849496e-6
< 1  -1  0 >:  -2.8659962548857317e-6
< 1  0  -1 >:  3.699985255155088e-6
< 1  1  -2 >:  -4.5315379654756955e-6
< 1  2  -3 >:  5.3617880287798245e-6
< 1  3  -4 >:  -6.191259523507489e-6
ctilde_basis_func: rank=3 ndens=1 mu0=0 mu=( 0  0  0 )
n=( 1  2  4 )
l=( 3  4  1 )
num_ms=21
< -3  2  1 >:  -1.4188249143272641e-6
< -3  3  0 >:  3.7538578772524634e-6
< -3  4  -1 >:  -7.507715754504927e-6
< -2  1  1 >:  2.4574768386593802e-6
< -2  2  0 >:  -4.9149536773187605e-6
< -2  3  -1 >:  6.501872567793921e-6
< -1  0  1 >:  -3.4753970744498545e-6
< -1  1  0 >:  5.495085264373658e-6
< -1  2  -1 >:  -5.495085264373658e-6
< 0  -1  1 >:  4.486718330267423e-6
< 0  0  0 >:  -5.6752996573090565e-6
< 0  1  -1 >:  4.486718330267423e-6
< 1  -2  1 >:  -5.495085264373658e-6
< 1  -1  0 >:  5.495085264373658e-6
< 1  0  -1 >:  -3.4753970744498545e-6
< 2  -3  1 >:  6.501872567793921e-6
< 2  -2  0 >:  -4.9149536773187605e-6
< 2  -1  -1 >:  2.4574768386593802e-6
< 3  -4  1 >:  -7.507715754504931e-6
< 3  -3  0 >:  3.7538578772524634e-6
< 3  -2  -1 >:  -1.4188249143272641e-6
ctilde_basis_func: rank=3 ndens=1 mu0=0 mu=( 0  0  0 )
n=( 1  2  5 )
l=( 1  2  3 )
num_ms=15
< -1  -2  3 >:  -3.791434171765063e-5
< -1  -1  2 >:  3.095693038058718e-5
< -1  0  1 >:  -2.397913516274331e-5
< -1  1  0 >:  1.6955809080564586e-5
< -1  2  -1 >:  -9.789440936991864e-6
< 0  -2  2 >:  2.1889855396833047e-5
< 0  -1  1 >:  -2.768872028228855e-5
< 0  0  0 >:  2.9368322810975597e-5
< 0  1  -1 >:  -2.768872028228855e-5
< 0  2  -2 >:  2.1889855396833047e-5
< 1  -2  1 >:  -9.789440936991864e-6
< 1  -1  0 >:  1.6955809080564586e-5
< 1  0  -1 >:  -2.397913516274331e-5
< 1  1  -2 >:  3.095693038058718e-5
< 1  2  -3 >:  -3.791434171765062e-5
ctilde_basis_func: rank=3 ndens=1 mu0=0 mu=( 0  0  0 )
n=( 1  2  4 )
l=( 4  2  2 )
num_ms=25
< -4  2  2 >:  4.670327648894792e-5
< -3  1  2 >:  -3.3024203508965316e-5
< -3  2  1 >:  -3.3024203508965316e-5
< -2  0  2 >:  2.16194160493514e-5
< -2  1  1 >:  3.5304358571898843e-5
< -2  2  0 >:  2.16194160493514e-5
< -1  -1  2 >:  -1.248197567581555e-5
< -1  0  1 >:  -3.0574471387579316e-5
< -1  1  0 >:  -3.0574471387579316e-5
< -1  2  -1 >:  -1.248197567581555e-5
< 0  -2  2 >:  5.582109220924478e-6
< 0  -1  1 >:  2.2328436883697957e-5
< 0  0  0 >:  3.349265532554693e-5
< 0  1  -1 >:  2.2328436883697957e-5
< 0  2  -2 >:  5.582109220924489e-6
< 1  -2  1 >:  -1.248197567581555e-5
< 1  -1  0 >:  -3.0574471387579316e-5
< 1  0  -1 >:  -3.0574471387579316e-5
< 1  1  -2 >:  -1.248197567581555e-5
< 2  -2  0 >:  2.16194160493514e-5
< 2  -1  -1 >:  3.5304358571898843e-5
< 2  0  -2 >:  2.16194160493514e-5
< 3  -2  -1 >:  -3.3024203508965316e-5
< 3  -1  -2 >:  -3.3024203508965316e-5
< 4  -2  -2 >:  4.670327648894792e-5
ctilde_basis_func: rank=3 ndens=1 mu0=0 mu=( 0  0  0 )
n=( 1  2  8 )
l=( 2  0  2 )
num_ms=5
< -2  0  2 >:  7.899852293404275e-6
< -1  0  1 >:  -7.899852293404275e-6
< 0  0  0 >:  7.899852293404275e-6
< 1  0  -1 >:  -7.899852293404275e-6
< 2  0  -2 >:  7.899852293404275e-6
ctilde_basis_func: rank=3 ndens=1 mu0=0 mu=( 0  0  0 )
n=( 1  2  5 )
l=( 1  2  1 )
num_ms=9
< -1  0  1 >:  -1.1562488862723084e-5
< -1  1  0 >:  2.0026818172185666e-5
< -1  2  -1 >:  -2.8322197870284937e-5
< 0  -1  1 >:  2.0026818172185666e-5
< 0  0  0 >:  -2.312497772544617e-5
< 0  1  -1 >:  2.0026818172185666e-5
< 1  -2  1 >:  -2.8322197870284926e-5
< 1  -1  0 >:  2.0026818172185666e-5
< 1  0  -1 >:  -1.1562488862723084e-5
ctilde_basis_func: rank=3 ndens=1 mu0=0 mu=( 0  0  0 )
n=( 1  3  6 )
l=( 1  3  2 )
num_ms=15
< -1  -1  2 >:  2.5513270079938147e-6
< -1  0  1 >:  -4.419028004567975e-6
< -1  1  0 >:  6.249449336566544e-6
< -1  2  -1 >:  -8.068004401163073e-6
< -1  3  -2 >:  9.881247012689243e-6
< 0  -2  2 >:  -5.7049406227053205e-6
< 0  -1  1 >:  7.216242513507246e-6
< 0  0  0 >:  -7.653981023981445e-6
< 0  1  -1 >:  7.216242513507246e-6
< 0  2  -2 >:  -5.7049406227053205e-6
< 1  -3  2 >:  9.881247012689244e-6
< 1  -2  1 >:  -8.068004401163073e-6
< 1  -1  0 >:  6.249449336566544e-6
< 1  0  -1 >:  -4.419028004567975e-6
< 1  1  -2 >:  2.5513270079938147e-6
ctilde_basis_func: rank=3 ndens=1 mu0=0 mu=( 0  0  0 )
n=( 1  4  5 )
l=( 3  1  2 )
num_ms=15
< -3  1  2 >:  -1.3637731317983976e-5
< -2  0  2 >:  7.873747847573838e-6
< -2  1  1 >:  1.1135160992744888e-5
< -1  -1  2 >:  -3.5212470849735474e-6
< -1  0  1 >:  -9.959590768072642e-6
< -1  1  0 >:  -8.625258616447879e-6
< 0  -1  1 >:  6.098978857177993e-6
< 0  0  0 >:  1.0563741254920655e-5
< 0  1  -1 >:  6.098978857177993e-6
< 1  -1  0 >:  -8.625258616447879e-6
< 1  0  -1 >:  -9.959590768072642e-6
< 1  1  -2 >:  -3.5212470849735513e-6
< 2  -1  -1 >:  1.1135160992744888e-5
< 2  0  -2 >:  7.873747847573838e-6
< 3  -1  -2 >:  -1.3637731317983976e-5
ctilde_basis_func: rank=3 ndens=1 mu0=0 mu=( 0  0  0 )
n=( 1  3  3 )
l=( 4  0  4 )
num_ms=9
< -4  0  4 >:  -2.4025901595943965e-5
< -3  0  3 >:  2.402590159594396e-5
< -2  0  2 >:  -2.402590159594396e-5
< -1  0  1 >:  2.402590159594396e-5
< 0  0  0 >:  -2.402590159594396e-5
< 1  0  -1 >:  2.402590159594396e-5
< 2  0  -2 >:  -2.402590159594396e-5
< 3  0  -3 >:  2.402590159594396e-5
< 4  0  -4 >:  -2.402590159594396e-5
ctilde_basis_func: rank=3 ndens=1 mu0=0 mu=( 0  0  0 )
n=( 1  1  4 )
l=( 3  3  2 )
num_ms=15
< -3  1  2 >:  0.0002570231717403209
< -3  2  1 >:  -0.0004063893170700188
< -3  3  0 >:  0.0004063893170700188
< -2  0  2 >:  -0.00036348565531931106
< -2  1  1 >:  0.00031478781141775766
< -2  3  -1 >:  -0.0004063893170700188
< -1  -1  2 >:  0.00019908929274793435
< -1  0  1 >:  -0.0001149442567607921
< -1  1  0 >:  -0.0002438335902420113
< -1  2  -1 >:  0.00031478781141775766
< -1  3  -2 >:  0.0002570231717403209
< 0  0  0 >:  0.00016255572682800755
< 0  1  -1 >:  -0.0001149442567607921
< 0  2  -2 >:  -0.00036348565531931106
< 1  1  -2 >:  0.00019908929274793435
ctilde_basis_func: rank=3 ndens=1 mu0=0 mu=( 0  0  0 )
n=( 1  2  3 )
l=( 3  3  2 )
num_ms=27
< -3  1  2 >:  -1.3832109793242537e-5
< -3  2  1 >:  2.1870485896083567e-5
< -3  3  0 >:  -2.1870485896083567e-5
< -2  0  2 >:  1.9561557265837304e-5
< -2  1  1 >:  -1.694080552979917e-5
< -2  3  -1 >:  2.1870485896083567e-5
< -1  -1  2 >:  -2.1428612348856347e-5
< -1  0  1 >:  6.1859075539861735e-6
< -1  1  0 >:  1.3122291537650142e-5
< -1  2  -1 >:  -1.694080552979917e-5
< -1  3  -2 >:  -1.3832109793242537e-5
< 0  -2  2 >:  1.9561557265837304e-5
< 0  -1  1 >:  6.1859075539861735e-6
< 0  0  0 >:  -1.7496388716866858e-5
< 0  1  -1 >:  6.1859075539861735e-6
< 0  2  -2 >:  1.9561557265837304e-5
< 1  -3  2 >:  -1.3832109793242529e-5
< 1  -2  1 >:  -1.694080552979917e-5
< 1  -1  0 >:  1.3122291537650142e-5
< 1  0  -1 >:  6.1859075539861735e-6
< 1  1  -2 >:  -2.1428612348856347e-5
< 2  -3  1 >:  2.1870485896083567e-5
< 2  -1  -1 >:  -1.694080552979917e-5
< 2  0  -2 >:  1.9561557265837304e-5
< 3  -3  0 >:  -2.1870485896083567e-5
< 3  -2  -1 >:  2.1870485896083567e-5
< 3  -1  -2 >:  -1.3832109793242537e-5
ctilde_basis_func: rank=3 ndens=1 mu0=0 mu=( 0  0  0 )
n=( 2  6  6 )
l=( 1  0  1 )
num_ms=3
< -1  0  1 >:  2.6733823794253e-6
< 0  0  0 >:  -2.6733823794253e-6
< 1  0  -1 >:  2.6733823794253e-6
ctilde_basis_func: rank=3 ndens=1 mu0=0 mu=( 0  0  0 )
n=( 1  2  4 )
l=( 2  3  3 )
num_ms=27
< -2  -1  3 >:  -2.3976380099332463e-5
< -2  0  2 >:  3.390772191308834e-5
< -2  1  1 >:  -3.7144048330821416e-5
< -2  2  0 >:  3.390772191308834e-5
< -2  3  -1 >:  -2.3976380099332463e-5
< -1  -2  3 >:  3.7909985579912366e-5
< -1  -1  2 >:  -2.9364948561192787e-5
< -1  0  1 >:  1.072256315129611e-5
< -1  1  0 >:  1.072256315129611e-5
< -1  2  -1 >:  -2.9364948561192787e-5
< -1  3  -2 >:  3.7909985579912366e-5
< 0  -3  3 >:  -3.7909985579912386e-5
< 0  -1  1 >:  2.2745991347947424e-5
< 0  0  0 >:  -3.0327988463929902e-5
< 0  1  -1 >:  2.2745991347947424e-5
< 0  3  -3 >:  -3.7909985579912366e-5
< 1  -3  2 >:  3.7909985579912366e-5
< 1  -2  1 >:  -2.9364948561192787e-5
< 1  -1  0 >:  1.072256315129611e-5
< 1  0  -1 >:  1.072256315129611e-5
< 1  1  -2 >:  -2.9364948561192787e-5
< 1  2  -3 >:  3.7909985579912366e-5
< 2  -3  1 >:  -2.3976380099332463e-5
< 2  -2  0 >:  3.390772191308834e-5
< 2  -1  -1 >:  -3.7144048330821416e-5
< 2  0  -2 >:  3.390772191308834e-5
< 2  1  -3 >:  -2.3976380099332463e-5
ctilde_basis_func: rank=3 ndens=1 mu0=0 mu=( 0  0  0 )
n=( 1  1  5 )
l=( 1  3  4 )
num_ms=21
< -1  -3  4 >:  7.484063866187795e-6
< -1  -2  3 >:  -6.48138943166381e-6
< -1  -1  2 >:  5.477773854723112e-6
< -1  0  1 >:  -4.47258362347671e-6
< -1  1  0 >:  3.464448377649065e-6
< -1  2  -1 >:  -2.449734940906387e-6
< -1  3  -2 >:  1.4143551275755347e-6
< 0  -3  3 >:  -3.7420319330938957e-6
< 0  -2  2 >:  4.899469881812774e-6
< 0  -1  1 >:  -5.477773854723112e-6
< 0  0  0 >:  5.657420510302139e-6
< 0  1  -1 >:  -5.477773854723112e-6
< 0  2  -2 >:  4.899469881812774e-6
< 0  3  -3 >:  -3.7420319330938957e-6
< 1  -3  2 >:  1.4143551275755347e-6
< 1  -2  1 >:  -2.449734940906387e-6
< 1  -1  0 >:  3.464448377649065e-6
< 1  0  -1 >:  -4.47258362347671e-6
< 1  1  -2 >:  5.477773854723112e-6
< 1  2  -3 >:  -6.48138943166381e-6
< 1  3  -4 >:  7.4840638661877915e-6
ctilde_basis_func: rank=3 ndens=1 mu0=0 mu=( 0  0  0 )
n=( 1  2  4 )
l=( 1  1  2 )
num_ms=9
< -1  -1  2 >:  5.028590163147063e-5
< -1  0  1 >:  -3.555750204169256e-5
< -1  1  0 >:  2.052913337548187e-5
< 0  -1  1 >:  -3.555750204169256e-5
< 0  0  0 >:  4.105826675096374e-5
< 0  1  -1 >:  -3.555750204169256e-5
< 1  -1  0 >:  2.052913337548187e-5
< 1  0  -1 >:  -3.555750204169256e-5
< 1  1  -2 >:  5.028590163147063e-5
ctilde_basis_func: rank=3 ndens=1 mu0=0 mu=( 0  0  0 )
n=( 1  1  3 )
l=( 3  4  1 )
num_ms=21
< -3  2  1 >:  1.279248510897231e-5
< -3  3  0 >:  -3.3845734248837734e-5
< -3  4  -1 >:  6.769146849767547e-5
< -2  1  1 >:  -2.215723416380832e-5
< -2  2  0 >:  4.431446832761664e-5
< -2  3  -1 >:  -5.862253133846101e-5
< -1  0  1 >:  3.133506105913422e-5
< -1  1  0 >:  -4.9545081783656115e-5
< -1  2  -1 >:  4.9545081783656115e-5
< 0  -1  1 >:  -4.045338987813979e-5
< 0  0  0 >:  5.116994043588924e-5
< 0  1  -1 >:  -4.045338987813979e-5
< 1  -2  1 >:  4.9545081783656115e-5
< 1  -1  0 >:  -4.9545081783656115e-5
< 1  0  -1 >:  3.133506105913422e-5
< 2  -3  1 >:  -5.862253133846101e-5
< 2  -2  0 >:  4.431446832761664e-5
< 2  -1  -1 >:  -2.215723416380832e-5
< 3  -4  1 >:  6.76914684976755e-5
< 3  -3  0 >:  -3.3845734248837734e-5
< 3  -2  -1 >:  1.279248510897231e-5
ctilde_basis_func: rank=3 ndens=1 mu0=0 mu=( 0  0  0 )
n=( 1  2  4 )
l=( 2  2  4 )
num_ms=25
< -2  -2  4 >:  -7.934180293659506e-5
< -2  -1  3 >:  5.610312688803306e-5
< -2  0  2 >:  -3.672811795544626e-5
< -2  1  1 >:  2.1204988788405225e-5
< -2  2  0 >:  -9.483159278598996e-6
< -1  -2  3 >:  5.610312688803306e-5
< -1  -1  2 >:  -5.9976765469064196e-5
< -1  0  1 >:  5.1941402533030884e-5
< -1  1  0 >:  -3.7932637114395985e-5
< -1  2  -1 >:  2.1204988788405225e-5
< 0  -2  2 >:  -3.672811795544626e-5
< 0  -1  1 >:  5.1941402533030884e-5
< 0  0  0 >:  -5.6898955671593974e-5
< 0  1  -1 >:  5.1941402533030884e-5
< 0  2  -2 >:  -3.672811795544626e-5
< 1  -2  1 >:  2.1204988788405225e-5
< 1  -1  0 >:  -3.7932637114395985e-5
< 1  0  -1 >:  5.1941402533030884e-5
< 1  1  -2 >:  -5.9976765469064196e-5
< 1  2  -3 >:  5.610312688803306e-5
< 2  -2  0 >:  -9.483159278598996e-6
< 2  -1  -1 >:  2.1204988788405225e-5
< 2  0  -2 >:  -3.672811795544626e-5
< 2  1  -3 >:  5.610312688803306e-5
< 2  2  -4 >:  -7.934180293659502e-5
ctilde_basis_func: rank=3 ndens=1 mu0=0 mu=( 0  0  0 )
n=( 2  2  3 )
l=( 2  2  4 )
num_ms=15
< -2  -2  4 >:  2.2219487926426834e-5
< -2  -1  3 >:  -3.142310117453805e-5
< -2  0  2 >:  2.0571248528939484e-5
< -2  1  1 >:  -1.1876815875749902e-5
< -2  2  0 >:  5.3114735308850954e-6
< -1  -1  2 >:  1.67963540892936e-5
< -1  0  1 >:  -2.9092138664573796e-5
< -1  1  0 >:  2.1245894123540382e-5
< -1  2  -1 >:  -1.1876815875749902e-5
< 0  0  0 >:  1.5934420592655288e-5
< 0  1  -1 >:  -2.9092138664573796e-5
< 0  2  -2 >:  2.0571248528939484e-5
< 1  1  -2 >:  1.67963540892936e-5
< 1  2  -3 >:  -3.142310117453805e-5
< 2  2  -4 >:  2.2219487926426823e-5
ctilde_basis_func: rank=3 ndens=1 mu0=0 mu=( 0  0  0 )
n=( 1  2  2 )
l=( 4  1  3 )
num_ms=21
< -4  1  3 >:  3.148460228691824e-5
< -3  0  3 >:  -1.574230114345912e-5
< -3  1  2 >:  -2.7266465408520827e-5
< -2  -1  3 >:  5.950030555640089e-6
< -2  0  2 >:  2.0611510457911796e-5
< -2  1  1 >:  2.30443692514193e-5
< -1  -1  2 >:  -1.0305755228955898e-5
< -1  0  1 >:  -2.30443692514193e-5
< -1  1  0 >:  -1.8815648703419874e-5
< 0  -1  1 >:  1.4574538815286872e-5
< 0  0  0 >:  2.380012222256033e-5
< 0  1  -1 >:  1.4574538815286872e-5
< 1  -1  0 >:  -1.8815648703419874e-5
< 1  0  -1 >:  -2.30443692514193e-5
< 1  1  -2 >:  -1.0305755228955898e-5
< 2  -1  -1 >:  2.30443692514193e-5
< 2  0  -2 >:  2.0611510457911796e-5
< 2  1  -3 >:  5.950030555640082e-6
< 3  -1  -2 >:  -2.7266465408520827e-5
< 3  0  -3 >:  -1.574230114345912e-5
< 4  -1  -3 >:  3.148460228691824e-5
ctilde_basis_func: rank=3 ndens=1 mu0=0 mu=( 0  0  0 )
n=( 3  4  5 )
l=( 0  0  0 )
num_ms=1
< 0  0  0 >:  -1.0918129336376904e-5
ctilde_basis_func: rank=3 ndens=1 mu0=0 mu=( 0  0  0 )
n=( 1  2  3 )
l=( 4  4  0 )
num_ms=9
< -4  4  0 >:  3.2410374634533495e-5
< -3  3  0 >:  -3.2410374634533495e-5
< -2  2  0 >:  3.2410374634533495e-5
< -1  1  0 >:  -3.2410374634533495e-5
< 0  0  0 >:  3.2410374634533495e-5
< 1  -1  0 >:  -3.2410374634533495e-5
< 2  -2  0 >:  3.2410374634533495e-5
< 3  -3  0 >:  -3.2410374634533495e-5
< 4  -4  0 >:  3.24103746345335e-5
ctilde_basis_func: rank=3 ndens=1 mu0=0 mu=( 0  0  0 )
n=( 1  1  2 )
l=( 2  4  4 )
num_ms=39
< -2  -2  4 >:  -6.520945482202387e-5
< -2  -1  3 >:  9.781418223303583e-5
< -2  0  2 >:  -0.00011691030900357235
< -2  1  1 >:  0.00012323428613512631
< -2  2  0 >:  -0.00011691030900357235
< -2  3  -1 >:  9.781418223303583e-5
< -2  4  -2 >:  -6.520945482202387e-5
< -1  -3  4 >:  0.00012199571916116362
< -1  -2  3 >:  -0.00011527511925532724
< -1  -1  2 >:  7.842581946074803e-5
< -1  0  1 >:  -2.7556024095680233e-5
< -1  1  0 >:  -2.7556024095680233e-5
< -1  2  -1 >:  7.842581946074803e-5
< -1  3  -2 >:  -0.00011527511925532724
< -1  4  -3 >:  0.00012199571916116362
< 0  -4  4 >:  -0.00014086852259535948
< 0  -3  3 >:  3.52171306488399e-5
< 0  -2  2 >:  4.024814931295988e-5
< 0  -1  1 >:  -8.552731729003974e-5
< 0  0  0 >:  0.00010062037328239971
< 0  1  -1 >:  -8.552731729003974e-5
< 0  2  -2 >:  4.024814931295988e-5
< 0  3  -3 >:  3.52171306488399e-5
< 0  4  -4 >:  -0.0001408685225953596
< 1  -4  3 >:  0.00012199571916116362
< 1  -3  2 >:  -0.00011527511925532724
< 1  -2  1 >:  7.842581946074803e-5
< 1  -1  0 >:  -2.7556024095680233e-5
< 1  0  -1 >:  -2.7556024095680233e-5
< 1  1  -2 >:  7.842581946074803e-5
< 1  2  -3 >:  -0.00011527511925532724
< 1  3  -4 >:  0.00012199571916116362
< 2  -4  2 >:  -6.520945482202387e-5
< 2  -3  1 >:  9.781418223303583e-5
< 2  -2  0 >:  -0.00011691030900357235
< 2  -1  -1 >:  0.00012323428613512631
< 2  0  -2 >:  -0.00011691030900357235
< 2  1  -3 >:  9.781418223303583e-5
< 2  2  -4 >:  -6.520945482202387e-5
ctilde_basis_func: rank=3 ndens=1 mu0=0 mu=( 0  0  0 )
n=( 1  1  3 )
l=( 3  3  4 )
num_ms=24
< -3  -1  4 >:  5.9803445599899864e-5
< -3  0  3 >:  -7.324396329002327e-5
< -3  1  2 >:  6.781073340090646e-5
< -3  2  1 >:  -5.054313649618078e-5
< -3  3  0 >:  2.7683615986020843e-5
< -2  -2  4 >:  -3.8602958142372254e-5
< -2  -1  3 >:  3.4527535415569346e-5
< -2  0  2 >:  1.5983143141671357e-5
< -2  1  1 >:  -5.220072691061239e-5
< -2  2  0 >:  6.459510396738195e-5
< -2  3  -1 >:  -5.054313649618078e-5
< -1  -1  2 >:  -2.9181093461757973e-5
< -1  0  1 >:  3.573939455888671e-5
< -1  1  0 >:  9.227871995340277e-6
< -1  2  -1 >:  -5.220072691061239e-5
< -1  3  -2 >:  6.781073340090646e-5
< 0  0  0 >:  -2.7683615986020843e-5
< 0  1  -1 >:  3.573939455888671e-5
< 0  2  -2 >:  1.5983143141671357e-5
< 0  3  -3 >:  -7.324396329002327e-5
< 1  1  -2 >:  -2.9181093461757973e-5
< 1  2  -3 >:  3.4527535415569346e-5
< 1  3  -4 >:  5.9803445599899905e-5
< 2  2  -4 >:  -3.8602958142372254e-5
ctilde_basis_func: rank=3 ndens=1 mu0=0 mu=( 0  0  0 )
n=( 1  4  5 )
l=( 3  3  0 )
num_ms=7
< -3  3  0 >:  -1.0217176299131883e-5
< -2  2  0 >:  1.0217176299131883e-5
< -1  1  0 >:  -1.0217176299131883e-5
< 0  0  0 >:  1.0217176299131883e-5
< 1  -1  0 >:  -1.0217176299131883e-5
< 2  -2  0 >:  1.0217176299131883e-5
< 3  -3  0 >:  -1.0217176299131883e-5
ctilde_basis_func: rank=3 ndens=1 mu0=0 mu=( 0  0  0 )
n=( 1  2  8 )
l=( 2  1  1 )
num_ms=9
< -2  1  1 >:  2.630255969579438e-5
< -1  0  1 >:  -1.859871832346018e-5
< -1  1  0 >:  -1.859871832346018e-5
< 0  -1  1 >:  1.073797503063175e-5
< 0  0  0 >:  2.1475950061263527e-5
< 0  1  -1 >:  1.0737975030631764e-5
< 1  -1  0 >:  -1.859871832346018e-5
< 1  0  -1 >:  -1.859871832346018e-5
< 2  -1  -1 >:  2.630255969579438e-5
ctilde_basis_func: rank=3 ndens=1 mu0=0 mu=( 0  0  0 )
n=( 1  5  6 )
l=( 1  2  1 )
num_ms=9
< -1  0  1 >:  -9.160358627895972e-6
< -1  1  0 >:  1.586620655906775e-5
< -1  2  -1 >:  -2.2438204499246578e-5
< 0  -1  1 >:  1.586620655906775e-5
< 0  0  0 >:  -1.8320717255791945e-5
< 0  1  -1 >:  1.586620655906775e-5
< 1  -2  1 >:  -2.2438204499246568e-5
< 1  -1  0 >:  1.586620655906775e-5
< 1  0  -1 >:  -9.160358627895972e-6
ctilde_basis_func: rank=3 ndens=1 mu0=0 mu=( 0  0  0 )
n=( 2  4  4 )
l=( 0  1  1 )
num_ms=2
< 0  -1  1 >:  -2.3882871753207428e-5
< 0  0  0 >:  1.194143587660371e-5
ctilde_basis_func: rank=3 ndens=1 mu0=0 mu=( 0  0  0 )
n=( 1  2  3 )
l=( 1  2  3 )
num_ms=15
< -1  -2  3 >:  -0.0001330271121809719
< -1  -1  2 >:  0.00010861618226645257
< -1  0  1 >:  -8.413373300932003e-5
< -1  1  0 >:  5.949153313742868e-5
< -1  2  -1 >:  -3.434745267139799e-5
< 0  -2  2 >:  7.680323902720267e-5
< 0  -1  1 >:  -9.714926680171806e-5
< 0  0  0 >:  0.00010304235801419397
< 0  1  -1 >:  -9.714926680171806e-5
< 0  2  -2 >:  7.680323902720267e-5
< 1  -2  1 >:  -3.434745267139799e-5
< 1  -1  0 >:  5.949153313742868e-5
< 1  0  -1 >:  -8.413373300932003e-5
< 1  1  -2 >:  0.00010861618226645257
< 1  2  -3 >:  -0.00013302711218097187
ctilde_basis_func: rank=3 ndens=1 mu0=0 mu=( 0  0  0 )
n=( 2  4  4 )
l=( 1  0  1 )
num_ms=3
< -1  0  1 >:  1.4285202352557719e-5
< 0  0  0 >:  -1.4285202352557719e-5
< 1  0  -1 >:  1.4285202352557719e-5
ctilde_basis_func: rank=3 ndens=1 mu0=0 mu=( 0  0  0 )
n=( 1  2  3 )
l=( 3  2  3 )
num_ms=27
< -3  0  3 >:  1.9085020717587796e-5
< -3  1  2 >:  -1.9085020717587796e-5
< -3  2  1 >:  1.2070426931815717e-5
< -2  -1  3 >:  -1.9085020717587796e-5
< -2  1  1 >:  1.4783193480248211e-5
< -2  2  0 >:  -1.7070161470607248e-5
< -1  -2  3 >:  1.2070426931815722e-5
< -1  -1  2 >:  1.4783193480248211e-5
< -1  0  1 >:  -1.1451012430552679e-5
< -1  1  0 >:  -5.398059027396831e-6
< -1  2  -1 >:  1.86994249954143e-5
< 0  -2  2 >:  -1.7070161470607248e-5
< 0  -1  1 >:  -5.398059027396831e-6
< 0  0  0 >:  1.5268016574070238e-5
< 0  1  -1 >:  -5.398059027396831e-6
< 0  2  -2 >:  -1.7070161470607248e-5
< 1  -2  1 >:  1.86994249954143e-5
< 1  -1  0 >:  -5.398059027396831e-6
< 1  0  -1 >:  -1.1451012430552679e-5
< 1  1  -2 >:  1.4783193480248211e-5
< 1  2  -3 >:  1.2070426931815717e-5
< 2  -2  0 >:  -1.7070161470607248e-5
< 2  -1  -1 >:  1.4783193480248211e-5
< 2  1  -3 >:  -1.9085020717587796e-5
< 3  -2  -1 >:  1.2070426931815717e-5
< 3  -1  -2 >:  -1.9085020717587796e-5
< 3  0  -3 >:  1.9085020717587796e-5
ctilde_basis_func: rank=3 ndens=1 mu0=0 mu=( 0  0  0 )
n=( 1  2  8 )
l=( 0  2  2 )
num_ms=5
< 0  -2  2 >:  1.4293792196613588e-6
< 0  -1  1 >:  -1.4293792196613584e-6
< 0  0  0 >:  1.4293792196613584e-6
< 0  1  -1 >:  -1.4293792196613584e-6
< 0  2  -2 >:  1.4293792196613584e-6
ctilde_basis_func: rank=3 ndens=1 mu0=0 mu=( 0  0  0 )
n=( 1  2  3 )
l=( 3  1  4 )
num_ms=21
< -3  -1  4 >:  -0.00012897540356716195
< -3  0  3 >:  6.448770178358094e-5
< -3  1  2 >:  -2.437406022020738e-5
< -2  -1  3 >:  0.00011169597595251231
< -2  0  2 >:  -8.443422137628525e-5
< -2  1  1 >:  4.2217110688142624e-5
< -1  -1  2 >:  -9.440032931231985e-5
< -1  0  1 >:  9.440032931231985e-5
< -1  1  0 >:  -5.970401049937746e-5
< 0  -1  1 >:  7.707754612196055e-5
< 0  0  0 >:  -9.749624088082951e-5
< 0  1  -1 >:  7.707754612196055e-5
< 1  -1  0 >:  -5.970401049937746e-5
< 1  0  -1 >:  9.440032931231985e-5
< 1  1  -2 >:  -9.440032931231985e-5
< 2  -1  -1 >:  4.2217110688142624e-5
< 2  0  -2 >:  -8.443422137628525e-5
< 2  1  -3 >:  0.00011169597595251231
< 3  -1  -2 >:  -2.437406022020738e-5
< 3  0  -3 >:  6.448770178358094e-5
< 3  1  -4 >:  -0.00012897540356716187
ctilde_basis_func: rank=3 ndens=1 mu0=0 mu=( 0  0  0 )
n=( 1  1  2 )
l=( 4  5  1 )
num_ms=27
< -4  3  1 >:  1.1037945188342903e-5
< -4  4  0 >:  -3.3113835565028707e-5
< -4  5  -1 >:  7.404478731915437e-5
< -3  2  1 >:  -1.911828187737033e-5
< -3  3  0 >:  4.415178075337161e-5
< -3  4  -1 >:  -6.622767113005741e-5
< -2  1  1 >:  2.703733352024888e-5
< -2  2  0 >:  -5.058221934235495e-5
< -2  3  -1 >:  5.8407315907034654e-5
< -1  0  1 >:  -3.490504748325982e-5
< -1  1  0 >:  5.407466704049776e-5
< -1  2  -1 >:  -5.058221934235495e-5
< 0  -1  1 >:  4.274977789080236e-5
< 0  0  0 >:  -5.518972594171452e-5
< 0  1  -1 >:  4.274977789080236e-5
< 1  -2  1 >:  -5.058221934235495e-5
< 1  -1  0 >:  5.407466704049776e-5
< 1  0  -1 >:  -3.490504748325982e-5
< 2  -3  1 >:  5.8407315907034654e-5
< 2  -2  0 >:  -5.058221934235495e-5
< 2  -1  -1 >:  2.703733352024888e-5
< 3  -4  1 >:  -6.622767113005741e-5
< 3  -3  0 >:  4.415178075337161e-5
< 3  -2  -1 >:  -1.911828187737033e-5
< 4  -5  1 >:  7.404478731915433e-5
< 4  -4  0 >:  -3.3113835565028707e-5
< 4  -3  -1 >:  1.1037945188342903e-5
ctilde_basis_func: rank=3 ndens=1 mu0=0 mu=( 0  0  0 )
n=( 1  1  1 )
l=( 2  2  2 )
num_ms=5
< -2  0  2 >:  0.0008304693903063167
< -2  1  1 >:  -0.0005085565633126806
< -1  -1  2 >:  -0.0005085565633126806
< -1  0  1 >:  0.00041523469515315835
< 0  0  0 >:  -0.00013841156505105275
ctilde_basis_func: rank=3 ndens=1 mu0=0 mu=( 0  0  0 )
n=( 1  4  4 )
l=( 1  2  3 )
num_ms=15
< -1  -2  3 >:  1.8508080400666935e-5
< -1  -1  2 >:  -1.5111784366680008e-5
< -1  0  1 >:  1.1705537836725852e-5
< -1  1  0 >:  -8.277065181784561e-6
< -1  2  -1 >:  4.778765810803395e-6
< 0  -2  2 >:  -1.0685645201508292e-5
< 0  -1  1 >:  1.3516390842086042e-5
< 0  0  0 >:  -1.4336297432410186e-5
< 0  1  -1 >:  1.3516390842086042e-5
< 0  2  -2 >:  -1.0685645201508292e-5
< 1  -2  1 >:  4.778765810803395e-6
< 1  -1  0 >:  -8.277065181784561e-6
< 1  0  -1 >:  1.1705537836725852e-5
< 1  1  -2 >:  -1.5111784366680008e-5
< 1  2  -3 >:  1.8508080400666935e-5
ctilde_basis_func: rank=3 ndens=1 mu0=0 mu=( 0  0  0 )
n=( 1  1  7 )
l=( 1  2  3 )
num_ms=15
< -1  -2  3 >:  1.932157475978087e-5
< -1  -1  2 >:  -1.5775999729500526e-5
< -1  0  1 >:  1.2220036844425651e-5
< -1  1  0 >:  -8.640870919042838e-6
< -1  2  -1 >:  4.988809151142192e-6
< 0  -2  2 >:  -1.1155316388726965e-5
< 0  -1  1 >:  1.4110483123272591e-5
< 0  0  0 >:  -1.4966427453426574e-5
< 0  1  -1 >:  1.4110483123272591e-5
< 0  2  -2 >:  -1.1155316388726965e-5
< 1  -2  1 >:  4.988809151142192e-6
< 1  -1  0 >:  -8.640870919042838e-6
< 1  0  -1 >:  1.2220036844425651e-5
< 1  1  -2 >:  -1.5775999729500526e-5
< 1  2  -3 >:  1.932157475978087e-5
ctilde_basis_func: rank=3 ndens=1 mu0=0 mu=( 0  0  0 )
n=( 1  2  6 )
l=( 2  0  2 )
num_ms=5
< -2  0  2 >:  2.4636120449128362e-5
< -1  0  1 >:  -2.4636120449128362e-5
< 0  0  0 >:  2.4636120449128362e-5
< 1  0  -1 >:  -2.4636120449128362e-5
< 2  0  -2 >:  2.4636120449128362e-5
ctilde_basis_func: rank=3 ndens=1 mu0=0 mu=( 0  0  0 )
n=( 2  2  4 )
l=( 2  2  2 )
num_ms=11
< -2  0  2 >:  -6.303641948185832e-6
< -2  1  1 >:  7.720353147129487e-6
< -2  2  0 >:  -6.303641948185834e-6
< -1  -1  2 >:  3.8601765735647435e-6
< -1  0  1 >:  -3.151820974092917e-6
< -1  1  0 >:  -3.151820974092917e-6
< -1  2  -1 >:  7.720353147129487e-6
< 0  0  0 >:  3.151820974092917e-6
< 0  1  -1 >:  -3.151820974092917e-6
< 0  2  -2 >:  -6.303641948185834e-6
< 1  1  -2 >:  3.8601765735647435e-6
ctilde_basis_func: rank=3 ndens=1 mu0=0 mu=( 0  0  0 )
n=( 1  2  7 )
l=( 2  1  3 )
num_ms=15
< -2  -1  3 >:  4.3204109792772796e-5
< -2  0  2 >:  -2.4943904418955514e-5
< -2  1  1 >:  1.1155253181008384e-5
< -1  -1  2 >:  -3.527600792782506e-5
< -1  0  1 >:  3.155182068057534e-5
< -1  1  0 >:  -1.932146528080086e-5
< 0  -1  1 >:  2.7324678245029456e-5
< 0  0  0 >:  -3.3465759543025154e-5
< 0  1  -1 >:  2.7324678245029456e-5
< 1  -1  0 >:  -1.932146528080086e-5
< 1  0  -1 >:  3.155182068057534e-5
< 1  1  -2 >:  -3.527600792782506e-5
< 2  -1  -1 >:  1.1155253181008384e-5
< 2  0  -2 >:  -2.4943904418955514e-5
< 2  1  -3 >:  4.320410979277278e-5
ctilde_basis_func: rank=3 ndens=1 mu0=0 mu=( 0  0  0 )
n=( 2  2  11 )
l=( 0  1  1 )
num_ms=3
< 0  -1  1 >:  6.7191351609206564e-6
< 0  0  0 >:  -6.719135160920654e-6
< 0  1  -1 >:  6.719135160920654e-6
ctilde_basis_func: rank=3 ndens=1 mu0=0 mu=( 0  0  0 )
n=( 1  2  3 )
l=( 1  1  2 )
num_ms=9
< -1  -1  2 >:  3.949725089496628e-5
< -1  0  1 >:  -2.7928773946057095e-5
< -1  1  0 >:  1.612468515589227e-5
< 0  -1  1 >:  -2.7928773946057095e-5
< 0  0  0 >:  3.224937031178454e-5
< 0  1  -1 >:  -2.7928773946057095e-5
< 1  -1  0 >:  1.612468515589227e-5
< 1  0  -1 >:  -2.7928773946057095e-5
< 1  1  -2 >:  3.9497250894966286e-5
ctilde_basis_func: rank=3 ndens=1 mu0=0 mu=( 0  0  0 )
n=( 1  1  3 )
l=( 2  3  1 )
num_ms=15
< -2  1  1 >:  -3.889395583063035e-5
< -2  2  0 >:  8.696952915116378e-5
< -2  3  -1 >:  -0.0001506356432001582
< -1  0  1 >:  6.736630760599155e-5
< -1  1  0 >:  -0.00011000871966003513
< -1  2  -1 >:  0.00012299348763877805
< 0  -1  1 >:  -9.527034586339103e-5
< 0  0  0 >:  0.00011668186749189104
< 0  1  -1 >:  -9.527034586339103e-5
< 1  -2  1 >:  0.00012299348763877805
< 1  -1  0 >:  -0.00011000871966003513
< 1  0  -1 >:  6.736630760599155e-5
< 2  -3  1 >:  -0.00015063564320015824
< 2  -2  0 >:  8.696952915116378e-5
< 2  -1  -1 >:  -3.889395583063035e-5
ctilde_basis_func: rank=3 ndens=1 mu0=0 mu=( 0  0  0 )
n=( 1  3  6 )
l=( 2  3  1 )
num_ms=15
< -2  1  1 >:  -5.672740780438164e-6
< -2  2  0 >:  1.2684634003794947e-5
< -2  3  -1 >:  -2.1970430569988675e-5
< -1  0  1 >:  9.825475249886826e-6
< -1  1  0 >:  -1.6044933895045177e-5
< -1  2  -1 >:  1.7938781441905745e-5
< 0  -1  1 >:  -1.3895320355151123e-5
< 0  0  0 >:  1.7018222341314494e-5
< 0  1  -1 >:  -1.3895320355151123e-5
< 1  -2  1 >:  1.7938781441905745e-5
< 1  -1  0 >:  -1.6044933895045177e-5
< 1  0  -1 >:  9.825475249886826e-6
< 2  -3  1 >:  -2.1970430569988685e-5
< 2  -2  0 >:  1.2684634003794947e-5
< 2  -1  -1 >:  -5.672740780438164e-6
ctilde_basis_func: rank=3 ndens=1 mu0=0 mu=( 0  0  0 )
n=( 1  1  4 )
l=( 2  3  3 )
num_ms=27
< -2  -1  3 >:  -9.531430538893276e-5
< -2  0  2 >:  0.00013479478336919968
< -2  1  1 >:  -0.00014766028697066574
< -2  2  0 >:  0.00013479478336919968
< -2  3  -1 >:  -9.531430538893276e-5
< -1  -2  3 >:  0.00015070514931294428
< -1  -1  2 >:  -0.00011673570669534707
< -1  0  1 >:  4.2625853215565636e-5
< -1  1  0 >:  4.2625853215565636e-5
< -1  2  -1 >:  -0.00011673570669534707
< -1  3  -2 >:  0.00015070514931294428
< 0  -3  3 >:  -0.00015070514931294436
< 0  -1  1 >:  9.042308958776658e-5
< 0  0  0 >:  -0.00012056411945035543
< 0  1  -1 >:  9.042308958776658e-5
< 0  3  -3 >:  -0.00015070514931294428
< 1  -3  2 >:  0.00015070514931294428
< 1  -2  1 >:  -0.00011673570669534707
< 1  -1  0 >:  4.2625853215565636e-5
< 1  0  -1 >:  4.2625853215565636e-5
< 1  1  -2 >:  -0.00011673570669534707
< 1  2  -3 >:  0.00015070514931294428
< 2  -3  1 >:  -9.531430538893276e-5
< 2  -2  0 >:  0.00013479478336919968
< 2  -1  -1 >:  -0.00014766028697066574
< 2  0  -2 >:  0.00013479478336919968
< 2  1  -3 >:  -9.531430538893276e-5
ctilde_basis_func: rank=3 ndens=1 mu0=0 mu=( 0  0  0 )
n=( 1  3  3 )
l=( 2  2  4 )
num_ms=25
< -2  -2  4 >:  1.3523258770423855e-5
< -2  -1  3 >:  -9.562387980307157e-6
< -2  0  2 >:  6.26005239204192e-6
< -2  1  1 >:  -3.6142429336865632e-6
< -2  2  0 >:  1.616338577384284e-6
< -1  -2  3 >:  -9.562387980307157e-6
< -1  -1  2 >:  1.0222622749061323e-5
< -1  0  1 >:  -8.853050993991818e-6
< -1  1  0 >:  6.465354309537136e-6
< -1  2  -1 >:  -3.6142429336865632e-6
< 0  -2  2 >:  6.26005239204192e-6
< 0  -1  1 >:  -8.853050993991818e-6
< 0  0  0 >:  9.698031464305705e-6
< 0  1  -1 >:  -8.853050993991818e-6
< 0  2  -2 >:  6.26005239204192e-6
< 1  -2  1 >:  -3.6142429336865632e-6
< 1  -1  0 >:  6.465354309537136e-6
< 1  0  -1 >:  -8.853050993991818e-6
< 1  1  -2 >:  1.0222622749061323e-5
< 1  2  -3 >:  -9.562387980307157e-6
< 2  -2  0 >:  1.616338577384284e-6
< 2  -1  -1 >:  -3.6142429336865632e-6
< 2  0  -2 >:  6.26005239204192e-6
< 2  1  -3 >:  -9.562387980307157e-6
< 2  2  -4 >:  1.3523258770423848e-5
ctilde_basis_func: rank=3 ndens=1 mu0=0 mu=( 0  0  0 )
n=( 1  1  1 )
l=( 1  4  5 )
num_ms=27
< -1  -4  5 >:  0.00015674568925328112
< -1  -3  4 >:  -0.00014019760654015808
< -1  -2  3 >:  0.00012364266710391362
< -1  -1  2 >:  -0.00010707769070365172
< -1  0  1 >:  9.049716588469537e-5
< -1  1  0 >:  -7.389062652850303e-5
< -1  2  -1 >:  5.723543319714484e-5
< -1  3  -2 >:  -4.047156293785075e-5
< -1  4  -3 >:  2.336626775669301e-5
< 0  -4  4 >:  -7.009880327007904e-5
< 0  -3  3 >:  9.346507102677204e-5
< 0  -2  2 >:  -0.00010707769070365172
< 0  -1  1 >:  0.00011447086639428968
< 0  0  0 >:  -0.00011683133878346507
< 0  1  -1 >:  0.00011447086639428968
< 0  2  -2 >:  -0.00010707769070365172
< 0  3  -3 >:  9.346507102677204e-5
< 0  4  -4 >:  -7.009880327007904e-5
< 1  -4  3 >:  2.336626775669301e-5
< 1  -3  2 >:  -4.047156293785075e-5
< 1  -2  1 >:  5.723543319714484e-5
< 1  -1  0 >:  -7.389062652850303e-5
< 1  0  -1 >:  9.049716588469537e-5
< 1  1  -2 >:  -0.00010707769070365172
< 1  2  -3 >:  0.00012364266710391362
< 1  3  -4 >:  -0.00014019760654015808
< 1  4  -5 >:  0.00015674568925328129
ctilde_basis_func: rank=3 ndens=1 mu0=0 mu=( 0  0  0 )
n=( 1  3  4 )
l=( 0  3  3 )
num_ms=7
< 0  -3  3 >:  3.304825420290255e-5
< 0  -2  2 >:  -3.304825420290255e-5
< 0  -1  1 >:  3.304825420290255e-5
< 0  0  0 >:  -3.304825420290255e-5
< 0  1  -1 >:  3.304825420290255e-5
< 0  2  -2 >:  -3.304825420290255e-5
< 0  3  -3 >:  3.304825420290255e-5
ctilde_basis_func: rank=3 ndens=1 mu0=0 mu=( 0  0  0 )
n=( 2  2  2 )
l=( 0  2  2 )
num_ms=3
< 0  -2  2 >:  -8.758891423323855e-5
< 0  -1  1 >:  8.758891423323855e-5
< 0  0  0 >:  -4.379445711661928e-5
ctilde_basis_func: rank=3 ndens=1 mu0=0 mu=( 0  0  0 )
n=( 2  2  4 )
l=( 1  3  2 )
num_ms=15
< -1  -1  2 >:  -7.752212005994743e-6
< -1  0  1 >:  1.3427225065428343e-5
< -1  1  0 >:  -1.8988963792564727e-5
< -1  2  -1 >:  2.451464684344627e-5
< -1  3  -2 >:  -3.0024187995486836e-5
< 0  -2  2 >:  1.7334473021394257e-5
< 0  -1  1 >:  -2.192656671453861e-5
< 0  0  0 >:  2.325663601798423e-5
< 0  1  -1 >:  -2.192656671453861e-5
< 0  2  -2 >:  1.7334473021394257e-5
< 1  -3  2 >:  -3.002418799548684e-5
< 1  -2  1 >:  2.451464684344627e-5
< 1  -1  0 >:  -1.8988963792564727e-5
< 1  0  -1 >:  1.3427225065428343e-5
< 1  1  -2 >:  -7.752212005994743e-6
ctilde_basis_func: rank=3 ndens=1 mu0=0 mu=( 0  0  0 )
n=( 1  3  8 )
l=( 2  1  1 )
num_ms=9
< -2  1  1 >:  -9.096496531691366e-6
< -1  0  1 >:  6.432194382598875e-6
< -1  1  0 >:  6.432194382598875e-6
< 0  -1  1 >:  -3.7136291582734553e-6
< 0  0  0 >:  -7.427258316546919e-6
< 0  1  -1 >:  -3.7136291582734595e-6
< 1  -1  0 >:  6.432194382598875e-6
< 1  0  -1 >:  6.432194382598875e-6
< 2  -1  -1 >:  -9.096496531691366e-6
ctilde_basis_func: rank=3 ndens=1 mu0=0 mu=( 0  0  0 )
n=( 2  3  4 )
l=( 3  3  0 )
num_ms=7
< -3  3  0 >:  2.8562878296491873e-5
< -2  2  0 >:  -2.8562878296491873e-5
< -1  1  0 >:  2.8562878296491873e-5
< 0  0  0 >:  -2.8562878296491873e-5
< 1  -1  0 >:  2.8562878296491873e-5
< 2  -2  0 >:  -2.8562878296491873e-5
< 3  -3  0 >:  2.8562878296491873e-5
ctilde_basis_func: rank=3 ndens=1 mu0=0 mu=( 0  0  0 )
n=( 1  4  4 )
l=( 2  1  3 )
num_ms=15
< -2  -1  3 >:  -2.973367778960727e-5
< -2  0  2 >:  1.716674687582735e-5
< -2  1  1 >:  -7.67720259337642e-6
< -1  -1  2 >:  2.4277446253620995e-5
< -1  0  1 >:  -2.1714408057277657e-5
< -1  1  0 >:  1.3297304951727503e-5
< 0  -1  1 >:  -1.880522900574395e-5
< 0  0  0 >:  2.303160778012925e-5
< 0  1  -1 >:  -1.880522900574395e-5
< 1  -1  0 >:  1.3297304951727503e-5
< 1  0  -1 >:  -2.1714408057277657e-5
< 1  1  -2 >:  2.4277446253620995e-5
< 2  -1  -1 >:  -7.67720259337642e-6
< 2  0  -2 >:  1.716674687582735e-5
< 2  1  -3 >:  -2.973367778960726e-5
ctilde_basis_func: rank=3 ndens=1 mu0=0 mu=( 0  0  0 )
n=( 1  1  6 )
l=( 1  3  2 )
num_ms=15
< -1  -1  2 >:  1.0496887545007087e-5
< -1  0  1 >:  -1.8181142549289217e-5
< -1  1  0 >:  2.5712018372643353e-5
< -1  2  -1 >:  -3.319407298487562e-5
< -1  3  -2 >:  4.065427064882451e-5
< 0  -2  2 >:  -2.3471754102806735e-5
< 0  -1  1 >:  2.9689681457708493e-5
< 0  0  0 >:  -3.149066263502127e-5
< 0  1  -1 >:  2.9689681457708493e-5
< 0  2  -2 >:  -2.3471754102806735e-5
< 1  -3  2 >:  4.065427064882452e-5
< 1  -2  1 >:  -3.319407298487562e-5
< 1  -1  0 >:  2.5712018372643353e-5
< 1  0  -1 >:  -1.8181142549289217e-5
< 1  1  -2 >:  1.0496887545007087e-5
ctilde_basis_func: rank=3 ndens=1 mu0=0 mu=( 0  0  0 )
n=( 1  2  4 )
l=( 2  4  2 )
num_ms=25
< -2  0  2 >:  -4.380556157922135e-6
< -2  1  1 >:  9.795221348369198e-6
< -2  2  0 >:  -1.6965821046758777e-5
< -2  3  -1 >:  2.591571972461567e-5
< -2  4  -2 >:  -3.665036231321142e-5
< -1  -1  2 >:  9.795221348369198e-6
< -1  0  1 >:  -1.752222463168854e-5
< -1  1  0 >:  2.399329422112116e-5
< -1  2  -1 >:  -2.7705069754620384e-5
< -1  3  -2 >:  2.591571972461567e-5
< 0  -2  2 >:  -1.6965821046758777e-5
< 0  -1  1 >:  2.399329422112116e-5
< 0  0  0 >:  -2.6283336947532808e-5
< 0  1  -1 >:  2.399329422112116e-5
< 0  2  -2 >:  -1.6965821046758777e-5
< 1  -3  2 >:  2.591571972461567e-5
< 1  -2  1 >:  -2.7705069754620384e-5
< 1  -1  0 >:  2.399329422112116e-5
< 1  0  -1 >:  -1.752222463168854e-5
< 1  1  -2 >:  9.795221348369198e-6
< 2  -4  2 >:  -3.665036231321143e-5
< 2  -3  1 >:  2.591571972461567e-5
< 2  -2  0 >:  -1.6965821046758777e-5
< 2  -1  -1 >:  9.795221348369198e-6
< 2  0  -2 >:  -4.380556157922135e-6
ctilde_basis_func: rank=3 ndens=1 mu0=0 mu=( 0  0  0 )
n=( 1  1  3 )
l=( 2  5  3 )
num_ms=35
< -2  -1  3 >:  1.529574120775088e-7
< -2  0  2 >:  -3.42023171067757e-7
< -2  1  1 >:  5.924015096551768e-7
< -2  2  0 >:  -9.049082532669869e-7
< -2  3  -1 >:  1.2797335244735203e-6
< -2  4  -2 >:  -1.7169426922849094e-6
< -2  5  -3 >:  2.216563484537326e-6
< -1  -2  3 >:  -4.046872735411158e-7
< -1  -1  2 >:  7.493352239330352e-7
< -1  0  1 >:  -1.0815722331275159e-6
< -1  1  0 >:  1.368092684271028e-6
< -1  2  -1 >:  -1.5673470708468268e-6
< -1  3  -2 >:  1.6187490941644632e-6
< -1  4  -3 >:  -1.4018778378994734e-6
< 0  -3  3 >:  8.093745470822316e-7
< 0  -2  2 >:  -1.2140618206233472e-6
< 0  -1  1 >:  1.4510814215096252e-6
< 0  0  0 >:  -1.529574120775088e-6
< 0  1  -1 >:  1.4510814215096252e-6
< 0  2  -2 >:  -1.2140618206233472e-6
< 0  3  -3 >:  8.093745470822316e-7
< 1  -4  3 >:  -1.4018778378994734e-6
< 1  -3  2 >:  1.6187490941644632e-6
< 1  -2  1 >:  -1.5673470708468268e-6
< 1  -1  0 >:  1.368092684271028e-6
< 1  0  -1 >:  -1.0815722331275159e-6
< 1  1  -2 >:  7.493352239330352e-7
< 1  2  -3 >:  -4.046872735411158e-7
< 2  -5  3 >:  2.2165634845373274e-6
< 2  -4  2 >:  -1.7169426922849094e-6
< 2  -3  1 >:  1.2797335244735203e-6
< 2  -2  0 >:  -9.049082532669869e-7
< 2  -1  -1 >:  5.924015096551768e-7
< 2  0  -2 >:  -3.42023171067757e-7
< 2  1  -3 >:  1.529574120775088e-7
ctilde_basis_func: rank=3 ndens=1 mu0=0 mu=( 0  0  0 )
n=( 1  1  2 )
l=( 2  2  2 )
num_ms=11
< -2  0  2 >:  -5.870961237685858e-6
< -2  1  1 >:  7.190429665994574e-6
< -2  2  0 >:  -5.8709612376858605e-6
< -1  -1  2 >:  3.595214832997287e-6
< -1  0  1 >:  -2.9354806188429302e-6
< -1  1  0 >:  -2.9354806188429302e-6
< -1  2  -1 >:  7.190429665994574e-6
< 0  0  0 >:  2.9354806188429302e-6
< 0  1  -1 >:  -2.9354806188429302e-6
< 0  2  -2 >:  -5.8709612376858605e-6
< 1  1  -2 >:  3.595214832997287e-6
ctilde_basis_func: rank=3 ndens=1 mu0=0 mu=( 0  0  0 )
n=( 1  3  3 )
l=( 1  0  1 )
num_ms=3
< -1  0  1 >:  -5.286220771729267e-6
< 0  0  0 >:  5.286220771729267e-6
< 1  0  -1 >:  -5.286220771729267e-6
ctilde_basis_func: rank=3 ndens=1 mu0=0 mu=( 0  0  0 )
n=( 1  2  2 )
l=( 2  2  4 )
num_ms=25
< -2  -2  4 >:  6.367597437957507e-5
< -2  -1  3 >:  -4.5025713282458377e-5
< -2  0  2 >:  2.94762484766063e-5
< -2  1  1 >:  -1.701811999266894e-5
< -2  2  0 >:  7.610734630571195e-6
< -1  -2  3 >:  -4.5025713282458377e-5
< -1  -1  2 >:  4.8134512199450276e-5
< -1  0  1 >:  -4.16857103634959e-5
< -1  1  0 >:  3.044293852228478e-5
< -1  2  -1 >:  -1.701811999266894e-5
< 0  -2  2 >:  2.94762484766063e-5
< 0  -1  1 >:  -4.16857103634959e-5
< 0  0  0 >:  4.5664407783427165e-5
< 0  1  -1 >:  -4.16857103634959e-5
< 0  2  -2 >:  2.94762484766063e-5
< 1  -2  1 >:  -1.701811999266894e-5
< 1  -1  0 >:  3.044293852228478e-5
< 1  0  -1 >:  -4.16857103634959e-5
< 1  1  -2 >:  4.8134512199450276e-5
< 1  2  -3 >:  -4.5025713282458377e-5
< 2  -2  0 >:  7.610734630571195e-6
< 2  -1  -1 >:  -1.701811999266894e-5
< 2  0  -2 >:  2.94762484766063e-5
< 2  1  -3 >:  -4.5025713282458377e-5
< 2  2  -4 >:  6.367597437957503e-5
ctilde_basis_func: rank=3 ndens=1 mu0=0 mu=( 0  0  0 )
n=( 1  1  3 )
l=( 2  4  4 )
num_ms=39
< -2  -2  4 >:  -2.8936675275988737e-5
< -2  -1  3 >:  4.340501291398311e-5
< -2  0  2 >:  -5.187891322332143e-5
< -2  1  1 >:  5.468517610664109e-5
< -2  2  0 >:  -5.187891322332143e-5
< -2  3  -1 >:  4.340501291398311e-5
< -2  4  -2 >:  -2.8936675275988737e-5
< -1  -3  4 >:  5.413556239754107e-5
< -1  -2  3 >:  -5.115329828161187e-5
< -1  -1  2 >:  3.480143296984782e-5
< -1  0  1 >:  -1.2227977113599677e-5
< -1  1  0 >:  -1.2227977113599677e-5
< -1  2  -1 >:  3.480143296984782e-5
< -1  3  -2 >:  -5.115329828161187e-5
< -1  4  -3 >:  5.413556239754107e-5
< 0  -4  4 >:  -6.251036304590418e-5
< 0  -3  3 >:  1.5627590761476062e-5
< 0  -2  2 >:  1.786010372740121e-5
< 0  -1  1 >:  -3.795272042072756e-5
< 0  0  0 >:  4.465025931850302e-5
< 0  1  -1 >:  -3.795272042072756e-5
< 0  2  -2 >:  1.786010372740121e-5
< 0  3  -3 >:  1.5627590761476062e-5
< 0  4  -4 >:  -6.251036304590425e-5
< 1  -4  3 >:  5.413556239754107e-5
< 1  -3  2 >:  -5.115329828161187e-5
< 1  -2  1 >:  3.480143296984782e-5
< 1  -1  0 >:  -1.2227977113599677e-5
< 1  0  -1 >:  -1.2227977113599677e-5
< 1  1  -2 >:  3.480143296984782e-5
< 1  2  -3 >:  -5.115329828161187e-5
< 1  3  -4 >:  5.413556239754107e-5
< 2  -4  2 >:  -2.8936675275988737e-5
< 2  -3  1 >:  4.340501291398311e-5
< 2  -2  0 >:  -5.187891322332143e-5
< 2  -1  -1 >:  5.468517610664109e-5
< 2  0  -2 >:  -5.187891322332143e-5
< 2  1  -3 >:  4.340501291398311e-5
< 2  2  -4 >:  -2.8936675275988737e-5
ctilde_basis_func: rank=3 ndens=1 mu0=0 mu=( 0  0  0 )
n=( 3  4  5 )
l=( 0  1  1 )
num_ms=3
< 0  -1  1 >:  -7.1541363095880324e-6
< 0  0  0 >:  7.15413630958803e-6
< 0  1  -1 >:  -7.15413630958803e-6
ctilde_basis_func: rank=3 ndens=1 mu0=0 mu=( 0  0  0 )
n=( 2  3  4 )
l=( 2  1  3 )
num_ms=15
< -2  -1  3 >:  1.5231816021539153e-5
< -2  0  2 >:  -8.794093080282483e-6
< -2  1  1 >:  3.932837985594429e-6
< -1  -1  2 >:  -1.2436725702906875e-5
< -1  0  1 >:  1.1123745635687449e-5
< -1  1  0 >:  -6.811875208986387e-6
< 0  -1  1 >:  9.63344630574161e-6
< 0  0  0 >:  -1.1798513956783285e-5
< 0  1  -1 >:  9.63344630574161e-6
< 1  -1  0 >:  -6.811875208986387e-6
< 1  0  -1 >:  1.1123745635687449e-5
< 1  1  -2 >:  -1.2436725702906875e-5
< 2  -1  -1 >:  3.932837985594429e-6
< 2  0  -2 >:  -8.794093080282483e-6
< 2  1  -3 >:  1.523181602153915e-5
ctilde_basis_func: rank=3 ndens=1 mu0=0 mu=( 0  0  0 )
n=( 1  1  5 )
l=( 1  4  3 )
num_ms=21
< -1  -2  3 >:  -1.0241019437404818e-5
< -1  -1  2 >:  1.7737965986885588e-5
< -1  0  1 >:  -2.5085272067566258e-5
< -1  1  0 >:  3.23849469842554e-5
< -1  2  -1 >:  -3.9663297729255315e-5
< -1  3  -2 >:  4.6930246765421654e-5
< -1  4  -3 >:  -5.419038120630351e-5
< 0  -3  3 >:  2.7095190603151755e-5
< 0  -2  2 >:  -3.5475931973771175e-5
< 0  -1  1 >:  3.9663297729255315e-5
< 0  0  0 >:  -4.096407774961927e-5
< 0  1  -1 >:  3.9663297729255315e-5
< 0  2  -2 >:  -3.5475931973771175e-5
< 0  3  -3 >:  2.7095190603151755e-5
< 1  -4  3 >:  -5.419038120630353e-5
< 1  -3  2 >:  4.6930246765421654e-5
< 1  -2  1 >:  -3.9663297729255315e-5
< 1  -1  0 >:  3.23849469842554e-5
< 1  0  -1 >:  -2.5085272067566258e-5
< 1  1  -2 >:  1.7737965986885588e-5
< 1  2  -3 >:  -1.0241019437404818e-5
ctilde_basis_func: rank=3 ndens=1 mu0=0 mu=( 0  0  0 )
n=( 2  4  4 )
l=( 2  1  3 )
num_ms=15
< -2  -1  3 >:  -2.517494055634495e-5
< -2  0  2 >:  1.4534758707038581e-5
< -2  1  1 >:  -6.500141701099043e-6
< -1  -1  2 >:  2.0555252889314394e-5
< -1  0  1 >:  -1.8385177102082376e-5
< -1  1  0 >:  1.1258575682700735e-5
< 0  -1  1 >:  -1.5922030423479306e-5
< 0  0  0 >:  1.9500425103297127e-5
< 0  1  -1 >:  -1.5922030423479306e-5
< 1  -1  0 >:  1.1258575682700735e-5
< 1  0  -1 >:  -1.8385177102082376e-5
< 1  1  -2 >:  2.0555252889314394e-5
< 2  -1  -1 >:  -6.500141701099043e-6
< 2  0  -2 >:  1.4534758707038581e-5
< 2  1  -3 >:  -2.5174940556344946e-5
