nelements=1
elements: Si

lmax=6

2 FS parameters:  1.000000 1.000000
core energy-cutoff parameters: 100000.000000000000000000 1.000000000000000000
E0: -158.54496821

radbasename=ACE.jl.Basic
haspair: t

transform parameters: p=2 r0=2.35126
cutoff parameters: rcut=5.5 xl=0.2658211500023669 xr=1.6042620210695941 pl=2 pr=2
recursion coefficients: maxn=18
 7.821202223493647 0.0 0.0
 4.955952649160867 -4.634021822912618 0.0
 3.9956167645897973 -3.736067834756193 -0.8062257748298656
 3.632378876899846 -3.396425304323833 -0.9090909090909028
 3.4441358810053155 -3.220410274976574 -0.9481763873555078
 3.331005797707162 -3.114628942517647 -0.9671528397232808
 3.256698923178486 -3.0451489247421324 -0.9776923610941147
 3.2048648622710894 -2.9966819222465113 -0.9840838646340656
 3.167085174324123 -2.9613563429275254 -0.988211768804444
 3.138607272777173 -2.9347283207123276 -0.9910081668223445
 3.1165595829870045 -2.9141128138935235 -0.9929753269925177
 3.0991136906213357 -2.8978001790348364 -0.9944021951446367
 3.08505564490434 -2.884655321678083 -0.995463849629161
 3.0735513577131024 -2.8738983347423233 -0.9962709628235525
 3.0640110824280233 -2.864977780613316 -0.9968960091520438
 3.05600755744042 -2.857494151919029 -0.9973878929376229
 3.049224676161325 -2.8511518758533216 -0.9977804762744855
 3.043424253671011 -2.8457282396112 -0.9980977385708372
tests: ntests=0

begin repulsive potential
begin polypairpot
transform parameters: p=2 r0=2.35126
cutoff parameters: rcut=6.5 xl=0.1996612193351111 xr=2.372718237344682 pl=1 pr=0
recursion coefficients: maxn=8
 0.7970573297067717 0.0 0.0
 2.376367709542944 -4.34745440267418 0.0
 2.0418559725718572 -2.995966854134438 -0.8592340168452226
 1.9480476778224156 -2.6819368663177676 -0.9540573399840273
 1.9078222609703703 -2.557456376087243 -0.979350907418754
 1.886748315849131 -2.495034632578642 -0.9889539263943126
 1.8742963773986112 -2.459167072303244 -0.9934003182375156
 1.866316576065074 -2.436619813846683 -0.9957425082661538
tests: ntests=0
coefficients
0.2898263754352816
0.5403192466996225
-0.9756376904591941
-0.6006491519755235
0.6236876989684565
0.7331727341962949
0.31420028665428523
0.06064740585595409
end polypairpot
spline parameters
   e_0 + B  exp(-A*(r/ri-1)) * (ri/r)
ri=1.6223693999999997
e0=0.0
A=8.832110259140615
B=2.154379322799275
end repulsive potential

rankmax=4
ndensitymax=1

num_c_tilde_max=3200
num_ms_combinations_max=97
total_basis_size_rank1: 18
ctilde_basis_func: rank=1 ndens=1 mu0=0 mu=( 0 )
n=( 2 )
l=( 0 )
num_ms=1
< 0 >:  0.005986519718982848
ctilde_basis_func: rank=1 ndens=1 mu0=0 mu=( 0 )
n=( 9 )
l=( 0 )
num_ms=1
< 0 >:  -3.865812365995812e-5
ctilde_basis_func: rank=1 ndens=1 mu0=0 mu=( 0 )
n=( 14 )
l=( 0 )
num_ms=1
< 0 >:  2.597884129933943e-5
ctilde_basis_func: rank=1 ndens=1 mu0=0 mu=( 0 )
n=( 7 )
l=( 0 )
num_ms=1
< 0 >:  -5.6343204389948935e-5
ctilde_basis_func: rank=1 ndens=1 mu0=0 mu=( 0 )
n=( 6 )
l=( 0 )
num_ms=1
< 0 >:  4.913714823140635e-6
ctilde_basis_func: rank=1 ndens=1 mu0=0 mu=( 0 )
n=( 15 )
l=( 0 )
num_ms=1
< 0 >:  -1.4890950800294735e-5
ctilde_basis_func: rank=1 ndens=1 mu0=0 mu=( 0 )
n=( 13 )
l=( 0 )
num_ms=1
< 0 >:  -1.1508043309807521e-5
ctilde_basis_func: rank=1 ndens=1 mu0=0 mu=( 0 )
n=( 12 )
l=( 0 )
num_ms=1
< 0 >:  6.213998152530079e-6
ctilde_basis_func: rank=1 ndens=1 mu0=0 mu=( 0 )
n=( 17 )
l=( 0 )
num_ms=1
< 0 >:  2.431903809254266e-7
ctilde_basis_func: rank=1 ndens=1 mu0=0 mu=( 0 )
n=( 5 )
l=( 0 )
num_ms=1
< 0 >:  -0.0007903444295629184
ctilde_basis_func: rank=1 ndens=1 mu0=0 mu=( 0 )
n=( 18 )
l=( 0 )
num_ms=1
< 0 >:  -3.2987309430136076e-5
ctilde_basis_func: rank=1 ndens=1 mu0=0 mu=( 0 )
n=( 8 )
l=( 0 )
num_ms=1
< 0 >:  -0.00011350785646852706
ctilde_basis_func: rank=1 ndens=1 mu0=0 mu=( 0 )
n=( 3 )
l=( 0 )
num_ms=1
< 0 >:  -0.003709191231718189
ctilde_basis_func: rank=1 ndens=1 mu0=0 mu=( 0 )
n=( 4 )
l=( 0 )
num_ms=1
< 0 >:  0.0006625387842670381
ctilde_basis_func: rank=1 ndens=1 mu0=0 mu=( 0 )
n=( 10 )
l=( 0 )
num_ms=1
< 0 >:  -7.220601361776274e-5
ctilde_basis_func: rank=1 ndens=1 mu0=0 mu=( 0 )
n=( 1 )
l=( 0 )
num_ms=1
< 0 >:  -0.12023873484790822
ctilde_basis_func: rank=1 ndens=1 mu0=0 mu=( 0 )
n=( 16 )
l=( 0 )
num_ms=1
< 0 >:  1.8768478388862416e-5
ctilde_basis_func: rank=1 ndens=1 mu0=0 mu=( 0 )
n=( 11 )
l=( 0 )
num_ms=1
< 0 >:  -1.5581729165886303e-5
total_basis_size: 3182
ctilde_basis_func: rank=2 ndens=1 mu0=0 mu=( 0  0 )
n=( 1  1 )
l=( 5  5 )
num_ms=6
< -5  5 >:  8.153393595779114e-5
< -4  4 >:  -8.153393595779116e-5
< -3  3 >:  8.153393595779116e-5
< -2  2 >:  -8.153393595779116e-5
< -1  1 >:  8.153393595779116e-5
< 0  0 >:  -4.076696797889558e-5
ctilde_basis_func: rank=2 ndens=1 mu0=0 mu=( 0  0 )
n=( 3  3 )
l=( 4  4 )
num_ms=5
< -4  4 >:  -0.00017074659967465945
< -3  3 >:  0.00017074659967465942
< -2  2 >:  -0.00017074659967465942
< -1  1 >:  0.00017074659967465942
< 0  0 >:  -8.537329983732971e-5
ctilde_basis_func: rank=2 ndens=1 mu0=0 mu=( 0  0 )
n=( 1  3 )
l=( 5  5 )
num_ms=11
< -5  5 >:  6.7327838031997125e-6
< -4  4 >:  -6.732783803199717e-6
< -3  3 >:  6.732783803199717e-6
< -2  2 >:  -6.732783803199717e-6
< -1  1 >:  6.732783803199717e-6
< 0  0 >:  -6.732783803199717e-6
< 1  -1 >:  6.732783803199717e-6
< 2  -2 >:  -6.732783803199717e-6
< 3  -3 >:  6.732783803199717e-6
< 4  -4 >:  -6.732783803199717e-6
< 5  -5 >:  6.732783803199717e-6
ctilde_basis_func: rank=2 ndens=1 mu0=0 mu=( 0  0 )
n=( 4  5 )
l=( 1  1 )
num_ms=3
< -1  1 >:  -0.00011393624007828649
< 0  0 >:  0.00011393624007828649
< 1  -1 >:  -0.00011393624007828649
ctilde_basis_func: rank=2 ndens=1 mu0=0 mu=( 0  0 )
n=( 2  7 )
l=( 3  3 )
num_ms=7
< -3  3 >:  1.5845824770593562e-5
< -2  2 >:  -1.5845824770593562e-5
< -1  1 >:  1.5845824770593562e-5
< 0  0 >:  -1.5845824770593562e-5
< 1  -1 >:  1.5845824770593562e-5
< 2  -2 >:  -1.5845824770593562e-5
< 3  -3 >:  1.5845824770593562e-5
ctilde_basis_func: rank=2 ndens=1 mu0=0 mu=( 0  0 )
n=( 2  9 )
l=( 2  2 )
num_ms=5
< -2  2 >:  2.1043344839183614e-5
< -1  1 >:  -2.1043344839183614e-5
< 0  0 >:  2.1043344839183614e-5
< 1  -1 >:  -2.1043344839183614e-5
< 2  -2 >:  2.1043344839183614e-5
ctilde_basis_func: rank=2 ndens=1 mu0=0 mu=( 0  0 )
n=( 4  6 )
l=( 3  3 )
num_ms=7
< -3  3 >:  5.853644453365287e-5
< -2  2 >:  -5.853644453365287e-5
< -1  1 >:  5.853644453365287e-5
< 0  0 >:  -5.853644453365287e-5
< 1  -1 >:  5.853644453365287e-5
< 2  -2 >:  -5.853644453365287e-5
< 3  -3 >:  5.853644453365287e-5
ctilde_basis_func: rank=2 ndens=1 mu0=0 mu=( 0  0 )
n=( 1  5 )
l=( 3  3 )
num_ms=7
< -3  3 >:  0.00011355486220850725
< -2  2 >:  -0.00011355486220850725
< -1  1 >:  0.00011355486220850725
< 0  0 >:  -0.00011355486220850725
< 1  -1 >:  0.00011355486220850725
< 2  -2 >:  -0.00011355486220850725
< 3  -3 >:  0.00011355486220850725
ctilde_basis_func: rank=2 ndens=1 mu0=0 mu=( 0  0 )
n=( 5  5 )
l=( 0  0 )
num_ms=1
< 0  0 >:  -0.00011300692501280109
ctilde_basis_func: rank=2 ndens=1 mu0=0 mu=( 0  0 )
n=( 3  5 )
l=( 3  3 )
num_ms=7
< -3  3 >:  -3.942330753343269e-5
< -2  2 >:  3.942330753343269e-5
< -1  1 >:  -3.942330753343269e-5
< 0  0 >:  3.942330753343269e-5
< 1  -1 >:  -3.942330753343269e-5
< 2  -2 >:  3.942330753343269e-5
< 3  -3 >:  -3.942330753343269e-5
ctilde_basis_func: rank=2 ndens=1 mu0=0 mu=( 0  0 )
n=( 5  5 )
l=( 3  3 )
num_ms=4
< -3  3 >:  7.809464904745406e-5
< -2  2 >:  -7.809464904745406e-5
< -1  1 >:  7.809464904745406e-5
< 0  0 >:  -3.904732452372703e-5
ctilde_basis_func: rank=2 ndens=1 mu0=0 mu=( 0  0 )
n=( 4  9 )
l=( 1  1 )
num_ms=3
< -1  1 >:  1.4620240641285577e-5
< 0  0 >:  -1.4620240641285577e-5
< 1  -1 >:  1.4620240641285577e-5
ctilde_basis_func: rank=2 ndens=1 mu0=0 mu=( 0  0 )
n=( 3  3 )
l=( 3  3 )
num_ms=4
< -3  3 >:  0.0003382800198075276
< -2  2 >:  -0.0003382800198075276
< -1  1 >:  0.0003382800198075276
< 0  0 >:  -0.0001691400099037638
ctilde_basis_func: rank=2 ndens=1 mu0=0 mu=( 0  0 )
n=( 3  5 )
l=( 1  1 )
num_ms=3
< -1  1 >:  -8.182986389942379e-5
< 0  0 >:  8.182986389942379e-5
< 1  -1 >:  -8.182986389942379e-5
ctilde_basis_func: rank=2 ndens=1 mu0=0 mu=( 0  0 )
n=( 1  3 )
l=( 4  4 )
num_ms=9
< -4  4 >:  5.554756757919063e-5
< -3  3 >:  -5.5547567579190626e-5
< -2  2 >:  5.5547567579190626e-5
< -1  1 >:  -5.5547567579190626e-5
< 0  0 >:  5.5547567579190626e-5
< 1  -1 >:  -5.5547567579190626e-5
< 2  -2 >:  5.5547567579190626e-5
< 3  -3 >:  -5.5547567579190626e-5
< 4  -4 >:  5.5547567579190626e-5
ctilde_basis_func: rank=2 ndens=1 mu0=0 mu=( 0  0 )
n=( 2  5 )
l=( 3  3 )
num_ms=7
< -3  3 >:  3.854385621503637e-5
< -2  2 >:  -3.854385621503637e-5
< -1  1 >:  3.854385621503637e-5
< 0  0 >:  -3.854385621503637e-5
< 1  -1 >:  3.854385621503637e-5
< 2  -2 >:  -3.854385621503637e-5
< 3  -3 >:  3.854385621503637e-5
ctilde_basis_func: rank=2 ndens=1 mu0=0 mu=( 0  0 )
n=( 1  13 )
l=( 1  1 )
num_ms=3
< -1  1 >:  1.97606828550037e-6
< 0  0 >:  -1.97606828550037e-6
< 1  -1 >:  1.97606828550037e-6
ctilde_basis_func: rank=2 ndens=1 mu0=0 mu=( 0  0 )
n=( 2  3 )
l=( 5  5 )
num_ms=11
< -5  5 >:  -8.661309455734612e-5
< -4  4 >:  8.661309455734617e-5
< -3  3 >:  -8.661309455734617e-5
< -2  2 >:  8.661309455734617e-5
< -1  1 >:  -8.661309455734617e-5
< 0  0 >:  8.661309455734617e-5
< 1  -1 >:  -8.661309455734617e-5
< 2  -2 >:  8.661309455734617e-5
< 3  -3 >:  -8.661309455734617e-5
< 4  -4 >:  8.661309455734617e-5
< 5  -5 >:  -8.661309455734617e-5
ctilde_basis_func: rank=2 ndens=1 mu0=0 mu=( 0  0 )
n=( 6  8 )
l=( 1  1 )
num_ms=3
< -1  1 >:  2.0698659446848247e-5
< 0  0 >:  -2.0698659446848247e-5
< 1  -1 >:  2.0698659446848247e-5
ctilde_basis_func: rank=2 ndens=1 mu0=0 mu=( 0  0 )
n=( 1  2 )
l=( 5  5 )
num_ms=11
< -5  5 >:  -4.3552766698490705e-5
< -4  4 >:  4.355276669849073e-5
< -3  3 >:  -4.355276669849073e-5
< -2  2 >:  4.355276669849073e-5
< -1  1 >:  -4.355276669849073e-5
< 0  0 >:  4.355276669849073e-5
< 1  -1 >:  -4.355276669849073e-5
< 2  -2 >:  4.355276669849073e-5
< 3  -3 >:  -4.355276669849073e-5
< 4  -4 >:  4.355276669849073e-5
< 5  -5 >:  -4.355276669849073e-5
ctilde_basis_func: rank=2 ndens=1 mu0=0 mu=( 0  0 )
n=( 1  10 )
l=( 2  2 )
num_ms=5
< -2  2 >:  -1.3334322339346907e-5
< -1  1 >:  1.3334322339346907e-5
< 0  0 >:  -1.3334322339346907e-5
< 1  -1 >:  1.3334322339346907e-5
< 2  -2 >:  -1.3334322339346907e-5
ctilde_basis_func: rank=2 ndens=1 mu0=0 mu=( 0  0 )
n=( 2  8 )
l=( 2  2 )
num_ms=5
< -2  2 >:  5.960519511509711e-5
< -1  1 >:  -5.960519511509711e-5
< 0  0 >:  5.960519511509711e-5
< 1  -1 >:  -5.960519511509711e-5
< 2  -2 >:  5.960519511509711e-5
ctilde_basis_func: rank=2 ndens=1 mu0=0 mu=( 0  0 )
n=( 2  3 )
l=( 3  3 )
num_ms=7
< -3  3 >:  -1.4836494386476486e-5
< -2  2 >:  1.4836494386476486e-5
< -1  1 >:  -1.4836494386476486e-5
< 0  0 >:  1.4836494386476486e-5
< 1  -1 >:  -1.4836494386476486e-5
< 2  -2 >:  1.4836494386476486e-5
< 3  -3 >:  -1.4836494386476486e-5
ctilde_basis_func: rank=2 ndens=1 mu0=0 mu=( 0  0 )
n=( 3  6 )
l=( 3  3 )
num_ms=7
< -3  3 >:  2.2153345737263203e-5
< -2  2 >:  -2.2153345737263203e-5
< -1  1 >:  2.2153345737263203e-5
< 0  0 >:  -2.2153345737263203e-5
< 1  -1 >:  2.2153345737263203e-5
< 2  -2 >:  -2.2153345737263203e-5
< 3  -3 >:  2.2153345737263203e-5
ctilde_basis_func: rank=2 ndens=1 mu0=0 mu=( 0  0 )
n=( 3  4 )
l=( 3  3 )
num_ms=7
< -3  3 >:  7.164114375602918e-5
< -2  2 >:  -7.164114375602918e-5
< -1  1 >:  7.164114375602918e-5
< 0  0 >:  -7.164114375602918e-5
< 1  -1 >:  7.164114375602918e-5
< 2  -2 >:  -7.164114375602918e-5
< 3  -3 >:  7.164114375602918e-5
ctilde_basis_func: rank=2 ndens=1 mu0=0 mu=( 0  0 )
n=( 6  6 )
l=( 1  1 )
num_ms=2
< -1  1 >:  0.000256435293811613
< 0  0 >:  -0.0001282176469058065
ctilde_basis_func: rank=2 ndens=1 mu0=0 mu=( 0  0 )
n=( 2  6 )
l=( 0  0 )
num_ms=1
< 0  0 >:  -4.680846430222393e-6
ctilde_basis_func: rank=2 ndens=1 mu0=0 mu=( 0  0 )
n=( 3  9 )
l=( 0  0 )
num_ms=1
< 0  0 >:  1.1787965513707909e-5
ctilde_basis_func: rank=2 ndens=1 mu0=0 mu=( 0  0 )
n=( 3  12 )
l=( 1  1 )
num_ms=3
< -1  1 >:  -8.546019779731017e-6
< 0  0 >:  8.546019779731017e-6
< 1  -1 >:  -8.546019779731017e-6
ctilde_basis_func: rank=2 ndens=1 mu0=0 mu=( 0  0 )
n=( 2  6 )
l=( 1  1 )
num_ms=3
< -1  1 >:  6.508193634672426e-6
< 0  0 >:  -6.508193634672426e-6
< 1  -1 >:  6.508193634672426e-6
ctilde_basis_func: rank=2 ndens=1 mu0=0 mu=( 0  0 )
n=( 2  5 )
l=( 4  4 )
num_ms=9
< -4  4 >:  5.645050776328913e-5
< -3  3 >:  -5.645050776328912e-5
< -2  2 >:  5.645050776328912e-5
< -1  1 >:  -5.645050776328912e-5
< 0  0 >:  5.645050776328912e-5
< 1  -1 >:  -5.645050776328912e-5
< 2  -2 >:  5.645050776328912e-5
< 3  -3 >:  -5.645050776328912e-5
< 4  -4 >:  5.645050776328912e-5
ctilde_basis_func: rank=2 ndens=1 mu0=0 mu=( 0  0 )
n=( 6  6 )
l=( 0  0 )
num_ms=1
< 0  0 >:  -7.029460937338175e-5
ctilde_basis_func: rank=2 ndens=1 mu0=0 mu=( 0  0 )
n=( 1  4 )
l=( 2  2 )
num_ms=5
< -2  2 >:  0.0001966359297235705
< -1  1 >:  -0.0001966359297235705
< 0  0 >:  0.0001966359297235705
< 1  -1 >:  -0.0001966359297235705
< 2  -2 >:  0.0001966359297235705
ctilde_basis_func: rank=2 ndens=1 mu0=0 mu=( 0  0 )
n=( 2  6 )
l=( 3  3 )
num_ms=7
< -3  3 >:  -2.2812218831007627e-5
< -2  2 >:  2.2812218831007627e-5
< -1  1 >:  -2.2812218831007627e-5
< 0  0 >:  2.2812218831007627e-5
< 1  -1 >:  -2.2812218831007627e-5
< 2  -2 >:  2.2812218831007627e-5
< 3  -3 >:  -2.2812218831007627e-5
ctilde_basis_func: rank=2 ndens=1 mu0=0 mu=( 0  0 )
n=( 2  4 )
l=( 1  1 )
num_ms=3
< -1  1 >:  0.00010715704358786317
< 0  0 >:  -0.00010715704358786317
< 1  -1 >:  0.00010715704358786317
ctilde_basis_func: rank=2 ndens=1 mu0=0 mu=( 0  0 )
n=( 1  9 )
l=( 3  3 )
num_ms=7
< -3  3 >:  -6.369809011823505e-6
< -2  2 >:  6.369809011823505e-6
< -1  1 >:  -6.369809011823505e-6
< 0  0 >:  6.369809011823505e-6
< 1  -1 >:  -6.369809011823505e-6
< 2  -2 >:  6.369809011823505e-6
< 3  -3 >:  -6.369809011823505e-6
ctilde_basis_func: rank=2 ndens=1 mu0=0 mu=( 0  0 )
n=( 1  6 )
l=( 1  1 )
num_ms=3
< -1  1 >:  -4.9542793330446164e-5
< 0  0 >:  4.9542793330446164e-5
< 1  -1 >:  -4.9542793330446164e-5
ctilde_basis_func: rank=2 ndens=1 mu0=0 mu=( 0  0 )
n=( 2  4 )
l=( 4  4 )
num_ms=9
< -4  4 >:  -6.193108470544439e-5
< -3  3 >:  6.193108470544437e-5
< -2  2 >:  -6.193108470544437e-5
< -1  1 >:  6.193108470544437e-5
< 0  0 >:  -6.193108470544437e-5
< 1  -1 >:  6.193108470544437e-5
< 2  -2 >:  -6.193108470544437e-5
< 3  -3 >:  6.193108470544437e-5
< 4  -4 >:  -6.193108470544437e-5
ctilde_basis_func: rank=2 ndens=1 mu0=0 mu=( 0  0 )
n=( 1  6 )
l=( 4  4 )
num_ms=9
< -4  4 >:  1.2091973685122747e-5
< -3  3 >:  -1.2091973685122743e-5
< -2  2 >:  1.2091973685122743e-5
< -1  1 >:  -1.2091973685122743e-5
< 0  0 >:  1.2091973685122743e-5
< 1  -1 >:  -1.2091973685122743e-5
< 2  -2 >:  1.2091973685122743e-5
< 3  -3 >:  -1.2091973685122743e-5
< 4  -4 >:  1.2091973685122743e-5
ctilde_basis_func: rank=2 ndens=1 mu0=0 mu=( 0  0 )
n=( 4  7 )
l=( 2  2 )
num_ms=5
< -2  2 >:  -4.249978849286619e-5
< -1  1 >:  4.249978849286619e-5
< 0  0 >:  -4.249978849286619e-5
< 1  -1 >:  4.249978849286619e-5
< 2  -2 >:  -4.249978849286619e-5
ctilde_basis_func: rank=2 ndens=1 mu0=0 mu=( 0  0 )
n=( 1  4 )
l=( 5  5 )
num_ms=11
< -5  5 >:  7.499487929669353e-5
< -4  4 >:  -7.499487929669357e-5
< -3  3 >:  7.499487929669357e-5
< -2  2 >:  -7.499487929669357e-5
< -1  1 >:  7.499487929669357e-5
< 0  0 >:  -7.499487929669357e-5
< 1  -1 >:  7.499487929669357e-5
< 2  -2 >:  -7.499487929669357e-5
< 3  -3 >:  7.499487929669357e-5
< 4  -4 >:  -7.499487929669357e-5
< 5  -5 >:  7.499487929669357e-5
ctilde_basis_func: rank=2 ndens=1 mu0=0 mu=( 0  0 )
n=( 1  10 )
l=( 0  0 )
num_ms=1
< 0  0 >:  -2.3137675497597445e-5
ctilde_basis_func: rank=2 ndens=1 mu0=0 mu=( 0  0 )
n=( 1  6 )
l=( 3  3 )
num_ms=7
< -3  3 >:  -1.988287048087791e-5
< -2  2 >:  1.988287048087791e-5
< -1  1 >:  -1.988287048087791e-5
< 0  0 >:  1.988287048087791e-5
< 1  -1 >:  -1.988287048087791e-5
< 2  -2 >:  1.988287048087791e-5
< 3  -3 >:  -1.988287048087791e-5
ctilde_basis_func: rank=2 ndens=1 mu0=0 mu=( 0  0 )
n=( 5  6 )
l=( 0  0 )
num_ms=1
< 0  0 >:  4.459791671815059e-5
ctilde_basis_func: rank=2 ndens=1 mu0=0 mu=( 0  0 )
n=( 2  8 )
l=( 3  3 )
num_ms=7
< -3  3 >:  -1.5686953513223819e-6
< -2  2 >:  1.5686953513223819e-6
< -1  1 >:  -1.5686953513223819e-6
< 0  0 >:  1.5686953513223819e-6
< 1  -1 >:  -1.5686953513223819e-6
< 2  -2 >:  1.5686953513223819e-6
< 3  -3 >:  -1.5686953513223819e-6
ctilde_basis_func: rank=2 ndens=1 mu0=0 mu=( 0  0 )
n=( 2  6 )
l=( 2  2 )
num_ms=5
< -2  2 >:  7.761582307418999e-5
< -1  1 >:  -7.761582307418999e-5
< 0  0 >:  7.761582307418999e-5
< 1  -1 >:  -7.761582307418999e-5
< 2  -2 >:  7.761582307418999e-5
ctilde_basis_func: rank=2 ndens=1 mu0=0 mu=( 0  0 )
n=( 1  5 )
l=( 2  2 )
num_ms=5
< -2  2 >:  -8.192333066165131e-5
< -1  1 >:  8.192333066165131e-5
< 0  0 >:  -8.192333066165131e-5
< 1  -1 >:  8.192333066165131e-5
< 2  -2 >:  -8.192333066165131e-5
ctilde_basis_func: rank=2 ndens=1 mu0=0 mu=( 0  0 )
n=( 1  4 )
l=( 4  4 )
num_ms=9
< -4  4 >:  -3.6644925584855895e-5
< -3  3 >:  3.664492558485589e-5
< -2  2 >:  -3.664492558485589e-5
< -1  1 >:  3.664492558485589e-5
< 0  0 >:  -3.664492558485589e-5
< 1  -1 >:  3.664492558485589e-5
< 2  -2 >:  -3.664492558485589e-5
< 3  -3 >:  3.664492558485589e-5
< 4  -4 >:  -3.664492558485589e-5
ctilde_basis_func: rank=2 ndens=1 mu0=0 mu=( 0  0 )
n=( 1  7 )
l=( 2  2 )
num_ms=5
< -2  2 >:  3.518893845675628e-5
< -1  1 >:  -3.518893845675628e-5
< 0  0 >:  3.518893845675628e-5
< 1  -1 >:  -3.518893845675628e-5
< 2  -2 >:  3.518893845675628e-5
ctilde_basis_func: rank=2 ndens=1 mu0=0 mu=( 0  0 )
n=( 3  8 )
l=( 2  2 )
num_ms=5
< -2  2 >:  -8.815067012049161e-5
< -1  1 >:  8.815067012049161e-5
< 0  0 >:  -8.815067012049161e-5
< 1  -1 >:  8.815067012049161e-5
< 2  -2 >:  -8.815067012049161e-5
ctilde_basis_func: rank=2 ndens=1 mu0=0 mu=( 0  0 )
n=( 3  9 )
l=( 2  2 )
num_ms=5
< -2  2 >:  -2.5815809857424136e-5
< -1  1 >:  2.5815809857424136e-5
< 0  0 >:  -2.5815809857424136e-5
< 1  -1 >:  2.5815809857424136e-5
< 2  -2 >:  -2.5815809857424136e-5
ctilde_basis_func: rank=2 ndens=1 mu0=0 mu=( 0  0 )
n=( 4  10 )
l=( 1  1 )
num_ms=3
< -1  1 >:  5.782682088679482e-6
< 0  0 >:  -5.782682088679482e-6
< 1  -1 >:  5.782682088679482e-6
ctilde_basis_func: rank=2 ndens=1 mu0=0 mu=( 0  0 )
n=( 1  3 )
l=( 3  3 )
num_ms=7
< -3  3 >:  -2.175607725120804e-5
< -2  2 >:  2.175607725120804e-5
< -1  1 >:  -2.175607725120804e-5
< 0  0 >:  2.175607725120804e-5
< 1  -1 >:  -2.175607725120804e-5
< 2  -2 >:  2.175607725120804e-5
< 3  -3 >:  -2.175607725120804e-5
ctilde_basis_func: rank=2 ndens=1 mu0=0 mu=( 0  0 )
n=( 1  2 )
l=( 1  1 )
num_ms=3
< -1  1 >:  -0.0005317375864085232
< 0  0 >:  0.0005317375864085232
< 1  -1 >:  -0.0005317375864085232
ctilde_basis_func: rank=2 ndens=1 mu0=0 mu=( 0  0 )
n=( 2  7 )
l=( 2  2 )
num_ms=5
< -2  2 >:  3.340194105895169e-5
< -1  1 >:  -3.340194105895169e-5
< 0  0 >:  3.340194105895169e-5
< 1  -1 >:  -3.340194105895169e-5
< 2  -2 >:  3.340194105895169e-5
ctilde_basis_func: rank=2 ndens=1 mu0=0 mu=( 0  0 )
n=( 2  2 )
l=( 4  4 )
num_ms=5
< -4  4 >:  -0.0001748704357737415
< -3  3 >:  0.00017487043577374148
< -2  2 >:  -0.00017487043577374148
< -1  1 >:  0.00017487043577374148
< 0  0 >:  -8.743521788687074e-5
ctilde_basis_func: rank=2 ndens=1 mu0=0 mu=( 0  0 )
n=( 1  7 )
l=( 3  3 )
num_ms=7
< -3  3 >:  -1.9348851972104616e-5
< -2  2 >:  1.9348851972104616e-5
< -1  1 >:  -1.9348851972104616e-5
< 0  0 >:  1.9348851972104616e-5
< 1  -1 >:  -1.9348851972104616e-5
< 2  -2 >:  1.9348851972104616e-5
< 3  -3 >:  -1.9348851972104616e-5
ctilde_basis_func: rank=2 ndens=1 mu0=0 mu=( 0  0 )
n=( 1  11 )
l=( 2  2 )
num_ms=5
< -2  2 >:  -2.4180102463115465e-5
< -1  1 >:  2.4180102463115465e-5
< 0  0 >:  -2.4180102463115465e-5
< 1  -1 >:  2.4180102463115465e-5
< 2  -2 >:  -2.4180102463115465e-5
ctilde_basis_func: rank=2 ndens=1 mu0=0 mu=( 0  0 )
n=( 2  9 )
l=( 0  0 )
num_ms=1
< 0  0 >:  -1.530545418556349e-5
ctilde_basis_func: rank=2 ndens=1 mu0=0 mu=( 0  0 )
n=( 4  7 )
l=( 0  0 )
num_ms=1
< 0  0 >:  2.808133818224637e-6
ctilde_basis_func: rank=2 ndens=1 mu0=0 mu=( 0  0 )
n=( 2  4 )
l=( 2  2 )
num_ms=5
< -2  2 >:  -1.0576149587632927e-5
< -1  1 >:  1.0576149587632927e-5
< 0  0 >:  -1.0576149587632927e-5
< 1  -1 >:  1.0576149587632927e-5
< 2  -2 >:  -1.0576149587632927e-5
ctilde_basis_func: rank=2 ndens=1 mu0=0 mu=( 0  0 )
n=( 3  5 )
l=( 2  2 )
num_ms=5
< -2  2 >:  -0.0001628392004022305
< -1  1 >:  0.0001628392004022305
< 0  0 >:  -0.0001628392004022305
< 1  -1 >:  0.0001628392004022305
< 2  -2 >:  -0.0001628392004022305
ctilde_basis_func: rank=2 ndens=1 mu0=0 mu=( 0  0 )
n=( 1  7 )
l=( 1  1 )
num_ms=3
< -1  1 >:  -3.838524427545519e-6
< 0  0 >:  3.838524427545519e-6
< 1  -1 >:  -3.838524427545519e-6
ctilde_basis_func: rank=2 ndens=1 mu0=0 mu=( 0  0 )
n=( 2  3 )
l=( 1  1 )
num_ms=3
< -1  1 >:  -0.00034199924294647625
< 0  0 >:  0.00034199924294647625
< 1  -1 >:  -0.00034199924294647625
ctilde_basis_func: rank=2 ndens=1 mu0=0 mu=( 0  0 )
n=( 7  10 )
l=( 0  0 )
num_ms=1
< 0  0 >:  4.620588556785535e-6
ctilde_basis_func: rank=2 ndens=1 mu0=0 mu=( 0  0 )
n=( 1  1 )
l=( 2  2 )
num_ms=3
< -2  2 >:  -0.0004542785419892496
< -1  1 >:  0.0004542785419892496
< 0  0 >:  -0.0002271392709946248
ctilde_basis_func: rank=2 ndens=1 mu0=0 mu=( 0  0 )
n=( 2  5 )
l=( 2  2 )
num_ms=5
< -2  2 >:  7.586716536068662e-5
< -1  1 >:  -7.586716536068662e-5
< 0  0 >:  7.586716536068662e-5
< 1  -1 >:  -7.586716536068662e-5
< 2  -2 >:  7.586716536068662e-5
ctilde_basis_func: rank=2 ndens=1 mu0=0 mu=( 0  0 )
n=( 1  2 )
l=( 3  3 )
num_ms=7
< -3  3 >:  9.518441159185129e-5
< -2  2 >:  -9.518441159185129e-5
< -1  1 >:  9.518441159185129e-5
< 0  0 >:  -9.518441159185129e-5
< 1  -1 >:  9.518441159185129e-5
< 2  -2 >:  -9.518441159185129e-5
< 3  -3 >:  9.518441159185129e-5
ctilde_basis_func: rank=2 ndens=1 mu0=0 mu=( 0  0 )
n=( 4  10 )
l=( 0  0 )
num_ms=1
< 0  0 >:  2.2326626716427973e-5
ctilde_basis_func: rank=2 ndens=1 mu0=0 mu=( 0  0 )
n=( 3  7 )
l=( 2  2 )
num_ms=5
< -2  2 >:  -3.80930092329736e-5
< -1  1 >:  3.80930092329736e-5
< 0  0 >:  -3.80930092329736e-5
< 1  -1 >:  3.80930092329736e-5
< 2  -2 >:  -3.80930092329736e-5
ctilde_basis_func: rank=2 ndens=1 mu0=0 mu=( 0  0 )
n=( 1  9 )
l=( 0  0 )
num_ms=1
< 0  0 >:  1.4255809617981933e-5
ctilde_basis_func: rank=2 ndens=1 mu0=0 mu=( 0  0 )
n=( 3  7 )
l=( 3  3 )
num_ms=7
< -3  3 >:  -1.0947703357350183e-5
< -2  2 >:  1.0947703357350183e-5
< -1  1 >:  -1.0947703357350183e-5
< 0  0 >:  1.0947703357350183e-5
< 1  -1 >:  -1.0947703357350183e-5
< 2  -2 >:  1.0947703357350183e-5
< 3  -3 >:  -1.0947703357350183e-5
ctilde_basis_func: rank=2 ndens=1 mu0=0 mu=( 0  0 )
n=( 6  7 )
l=( 1  1 )
num_ms=3
< -1  1 >:  -5.787481336254739e-6
< 0  0 >:  5.787481336254739e-6
< 1  -1 >:  -5.787481336254739e-6
ctilde_basis_func: rank=2 ndens=1 mu0=0 mu=( 0  0 )
n=( 3  6 )
l=( 2  2 )
num_ms=5
< -2  2 >:  -7.815087011721702e-5
< -1  1 >:  7.815087011721702e-5
< 0  0 >:  -7.815087011721702e-5
< 1  -1 >:  7.815087011721702e-5
< 2  -2 >:  -7.815087011721702e-5
ctilde_basis_func: rank=2 ndens=1 mu0=0 mu=( 0  0 )
n=( 1  1 )
l=( 0  0 )
num_ms=1
< 0  0 >:  0.01485560249553773
ctilde_basis_func: rank=2 ndens=1 mu0=0 mu=( 0  0 )
n=( 1  8 )
l=( 3  3 )
num_ms=7
< -3  3 >:  1.908370316912034e-5
< -2  2 >:  -1.908370316912034e-5
< -1  1 >:  1.908370316912034e-5
< 0  0 >:  -1.908370316912034e-5
< 1  -1 >:  1.908370316912034e-5
< 2  -2 >:  -1.908370316912034e-5
< 3  -3 >:  1.908370316912034e-5
ctilde_basis_func: rank=2 ndens=1 mu0=0 mu=( 0  0 )
n=( 1  1 )
l=( 1  1 )
num_ms=2
< -1  1 >:  0.003291321713449037
< 0  0 >:  -0.0016456608567245185
ctilde_basis_func: rank=2 ndens=1 mu0=0 mu=( 0  0 )
n=( 3  7 )
l=( 0  0 )
num_ms=1
< 0  0 >:  -9.418185411122721e-6
ctilde_basis_func: rank=2 ndens=1 mu0=0 mu=( 0  0 )
n=( 3  11 )
l=( 1  1 )
num_ms=3
< -1  1 >:  1.223576177917453e-5
< 0  0 >:  -1.223576177917453e-5
< 1  -1 >:  1.223576177917453e-5
ctilde_basis_func: rank=2 ndens=1 mu0=0 mu=( 0  0 )
n=( 5  6 )
l=( 2  2 )
num_ms=5
< -2  2 >:  -0.00012611551300780884
< -1  1 >:  0.00012611551300780884
< 0  0 >:  -0.00012611551300780884
< 1  -1 >:  0.00012611551300780884
< 2  -2 >:  -0.00012611551300780884
ctilde_basis_func: rank=2 ndens=1 mu0=0 mu=( 0  0 )
n=( 1  7 )
l=( 0  0 )
num_ms=1
< 0  0 >:  3.2659676999766916e-5
ctilde_basis_func: rank=2 ndens=1 mu0=0 mu=( 0  0 )
n=( 3  4 )
l=( 2  2 )
num_ms=5
< -2  2 >:  0.00011179449181196348
< -1  1 >:  -0.00011179449181196348
< 0  0 >:  0.00011179449181196348
< 1  -1 >:  -0.00011179449181196348
< 2  -2 >:  0.00011179449181196348
ctilde_basis_func: rank=2 ndens=1 mu0=0 mu=( 0  0 )
n=( 1  10 )
l=( 1  1 )
num_ms=3
< -1  1 >:  8.434041135059606e-6
< 0  0 >:  -8.434041135059606e-6
< 1  -1 >:  8.434041135059606e-6
ctilde_basis_func: rank=2 ndens=1 mu0=0 mu=( 0  0 )
n=( 1  2 )
l=( 2  2 )
num_ms=5
< -2  2 >:  0.00021154545159521136
< -1  1 >:  -0.00021154545159521136
< 0  0 >:  0.00021154545159521136
< 1  -1 >:  -0.00021154545159521136
< 2  -2 >:  0.00021154545159521136
ctilde_basis_func: rank=2 ndens=1 mu0=0 mu=( 0  0 )
n=( 6  8 )
l=( 0  0 )
num_ms=1
< 0  0 >:  -1.664273097431642e-5
ctilde_basis_func: rank=2 ndens=1 mu0=0 mu=( 0  0 )
n=( 3  13 )
l=( 0  0 )
num_ms=1
< 0  0 >:  -6.147381748084462e-6
ctilde_basis_func: rank=2 ndens=1 mu0=0 mu=( 0  0 )
n=( 4  8 )
l=( 1  1 )
num_ms=3
< -1  1 >:  1.089649561029188e-5
< 0  0 >:  -1.089649561029188e-5
< 1  -1 >:  1.089649561029188e-5
ctilde_basis_func: rank=2 ndens=1 mu0=0 mu=( 0  0 )
n=( 1  8 )
l=( 2  2 )
num_ms=5
< -2  2 >:  -7.060015384832236e-5
< -1  1 >:  7.060015384832236e-5
< 0  0 >:  -7.060015384832236e-5
< 1  -1 >:  7.060015384832236e-5
< 2  -2 >:  -7.060015384832236e-5
ctilde_basis_func: rank=2 ndens=1 mu0=0 mu=( 0  0 )
n=( 4  4 )
l=( 2  2 )
num_ms=3
< -2  2 >:  -0.00019894225105044643
< -1  1 >:  0.00019894225105044643
< 0  0 >:  -9.947112552522321e-5
ctilde_basis_func: rank=2 ndens=1 mu0=0 mu=( 0  0 )
n=( 4  5 )
l=( 2  2 )
num_ms=5
< -2  2 >:  9.530410258668803e-5
< -1  1 >:  -9.530410258668803e-5
< 0  0 >:  9.530410258668803e-5
< 1  -1 >:  -9.530410258668803e-5
< 2  -2 >:  9.530410258668803e-5
ctilde_basis_func: rank=2 ndens=1 mu0=0 mu=( 0  0 )
n=( 4  8 )
l=( 2  2 )
num_ms=5
< -2  2 >:  5.045410102334816e-7
< -1  1 >:  -5.045410102334816e-7
< 0  0 >:  5.045410102334816e-7
< 1  -1 >:  -5.045410102334816e-7
< 2  -2 >:  5.045410102334816e-7
ctilde_basis_func: rank=2 ndens=1 mu0=0 mu=( 0  0 )
n=( 1  4 )
l=( 1  1 )
num_ms=3
< -1  1 >:  -4.768876523889482e-5
< 0  0 >:  4.768876523889482e-5
< 1  -1 >:  -4.768876523889482e-5
ctilde_basis_func: rank=2 ndens=1 mu0=0 mu=( 0  0 )
n=( 2  2 )
l=( 2  2 )
num_ms=3
< -2  2 >:  2.0919412351996492e-5
< -1  1 >:  -2.0919412351996492e-5
< 0  0 >:  1.0459706175998246e-5
ctilde_basis_func: rank=2 ndens=1 mu0=0 mu=( 0  0 )
n=( 2  13 )
l=( 0  0 )
num_ms=1
< 0  0 >:  1.3897165302114987e-6
ctilde_basis_func: rank=2 ndens=1 mu0=0 mu=( 0  0 )
n=( 1  14 )
l=( 0  0 )
num_ms=1
< 0  0 >:  1.1377232291386091e-6
ctilde_basis_func: rank=2 ndens=1 mu0=0 mu=( 0  0 )
n=( 1  9 )
l=( 1  1 )
num_ms=3
< -1  1 >:  8.077755946858344e-6
< 0  0 >:  -8.077755946858344e-6
< 1  -1 >:  8.077755946858344e-6
ctilde_basis_func: rank=2 ndens=1 mu0=0 mu=( 0  0 )
n=( 4  6 )
l=( 1  1 )
num_ms=3
< -1  1 >:  8.896265141759442e-5
< 0  0 >:  -8.896265141759442e-5
< 1  -1 >:  8.896265141759442e-5
ctilde_basis_func: rank=2 ndens=1 mu0=0 mu=( 0  0 )
n=( 1  1 )
l=( 6  6 )
num_ms=7
< -6  6 >:  -1.0529068201730086e-5
< -5  5 >:  1.0529068201730081e-5
< -4  4 >:  -1.0529068201730081e-5
< -3  3 >:  1.0529068201730081e-5
< -2  2 >:  -1.0529068201730081e-5
< -1  1 >:  1.0529068201730081e-5
< 0  0 >:  -5.264534100865041e-6
ctilde_basis_func: rank=2 ndens=1 mu0=0 mu=( 0  0 )
n=( 5  7 )
l=( 1  1 )
num_ms=3
< -1  1 >:  2.8502020675506482e-5
< 0  0 >:  -2.8502020675506482e-5
< 1  -1 >:  2.8502020675506482e-5
ctilde_basis_func: rank=2 ndens=1 mu0=0 mu=( 0  0 )
n=( 2  4 )
l=( 3  3 )
num_ms=7
< -3  3 >:  8.17044975640084e-5
< -2  2 >:  -8.17044975640084e-5
< -1  1 >:  8.17044975640084e-5
< 0  0 >:  -8.17044975640084e-5
< 1  -1 >:  8.17044975640084e-5
< 2  -2 >:  -8.17044975640084e-5
< 3  -3 >:  8.17044975640084e-5
ctilde_basis_func: rank=2 ndens=1 mu0=0 mu=( 0  0 )
n=( 1  3 )
l=( 1  1 )
num_ms=3
< -1  1 >:  0.00026889942825578903
< 0  0 >:  -0.00026889942825578903
< 1  -1 >:  0.00026889942825578903
ctilde_basis_func: rank=2 ndens=1 mu0=0 mu=( 0  0 )
n=( 4  6 )
l=( 2  2 )
num_ms=5
< -2  2 >:  5.685237568572825e-5
< -1  1 >:  -5.685237568572825e-5
< 0  0 >:  5.685237568572825e-5
< 1  -1 >:  -5.685237568572825e-5
< 2  -2 >:  5.685237568572825e-5
ctilde_basis_func: rank=2 ndens=1 mu0=0 mu=( 0  0 )
n=( 1  4 )
l=( 3  3 )
num_ms=7
< -3  3 >:  1.1545610621909082e-5
< -2  2 >:  -1.1545610621909082e-5
< -1  1 >:  1.1545610621909082e-5
< 0  0 >:  -1.1545610621909082e-5
< 1  -1 >:  1.1545610621909082e-5
< 2  -2 >:  -1.1545610621909082e-5
< 3  -3 >:  1.1545610621909082e-5
ctilde_basis_func: rank=2 ndens=1 mu0=0 mu=( 0  0 )
n=( 5  5 )
l=( 2  2 )
num_ms=3
< -2  2 >:  4.698215094165531e-6
< -1  1 >:  -4.698215094165531e-6
< 0  0 >:  2.3491075470827653e-6
ctilde_basis_func: rank=2 ndens=1 mu0=0 mu=( 0  0 )
n=( 5  8 )
l=( 1  1 )
num_ms=3
< -1  1 >:  -3.584496338790399e-5
< 0  0 >:  3.584496338790399e-5
< 1  -1 >:  -3.584496338790399e-5
ctilde_basis_func: rank=2 ndens=1 mu0=0 mu=( 0  0 )
n=( 2  10 )
l=( 2  2 )
num_ms=5
< -2  2 >:  1.5485313978968986e-5
< -1  1 >:  -1.5485313978968986e-5
< 0  0 >:  1.5485313978968986e-5
< 1  -1 >:  -1.5485313978968986e-5
< 2  -2 >:  1.5485313978968986e-5
ctilde_basis_func: rank=2 ndens=1 mu0=0 mu=( 0  0 )
n=( 2  15 )
l=( 0  0 )
num_ms=1
< 0  0 >:  3.938946014869538e-6
ctilde_basis_func: rank=2 ndens=1 mu0=0 mu=( 0  0 )
n=( 2  3 )
l=( 2  2 )
num_ms=5
< -2  2 >:  0.00025087465768989874
< -1  1 >:  -0.00025087465768989874
< 0  0 >:  0.00025087465768989874
< 1  -1 >:  -0.00025087465768989874
< 2  -2 >:  0.00025087465768989874
ctilde_basis_func: rank=2 ndens=1 mu0=0 mu=( 0  0 )
n=( 1  14 )
l=( 1  1 )
num_ms=3
< -1  1 >:  -6.249887748830845e-6
< 0  0 >:  6.249887748830845e-6
< 1  -1 >:  -6.249887748830845e-6
ctilde_basis_func: rank=2 ndens=1 mu0=0 mu=( 0  0 )
n=( 3  5 )
l=( 0  0 )
num_ms=1
< 0  0 >:  -5.279794685203585e-5
ctilde_basis_func: rank=2 ndens=1 mu0=0 mu=( 0  0 )
n=( 3  3 )
l=( 2  2 )
num_ms=3
< -2  2 >:  -0.0011229659056603157
< -1  1 >:  0.0011229659056603157
< 0  0 >:  -0.0005614829528301578
ctilde_basis_func: rank=2 ndens=1 mu0=0 mu=( 0  0 )
n=( 2  11 )
l=( 1  1 )
num_ms=3
< -1  1 >:  -3.540134365304969e-6
< 0  0 >:  3.540134365304969e-6
< 1  -1 >:  -3.540134365304969e-6
ctilde_basis_func: rank=2 ndens=1 mu0=0 mu=( 0  0 )
n=( 2  3 )
l=( 4  4 )
num_ms=9
< -4  4 >:  4.5959908718117625e-5
< -3  3 >:  -4.595990871811761e-5
< -2  2 >:  4.595990871811761e-5
< -1  1 >:  -4.595990871811761e-5
< 0  0 >:  4.595990871811761e-5
< 1  -1 >:  -4.595990871811761e-5
< 2  -2 >:  4.595990871811761e-5
< 3  -3 >:  -4.595990871811761e-5
< 4  -4 >:  4.595990871811761e-5
ctilde_basis_func: rank=2 ndens=1 mu0=0 mu=( 0  0 )
n=( 2  2 )
l=( 5  5 )
num_ms=6
< -5  5 >:  0.00013819077412570286
< -4  4 >:  -0.0001381907741257029
< -3  3 >:  0.0001381907741257029
< -2  2 >:  -0.0001381907741257029
< -1  1 >:  0.0001381907741257029
< 0  0 >:  -6.909538706285144e-5
ctilde_basis_func: rank=2 ndens=1 mu0=0 mu=( 0  0 )
n=( 4  4 )
l=( 3  3 )
num_ms=4
< -3  3 >:  0.00032130453213307763
< -2  2 >:  -0.00032130453213307763
< -1  1 >:  0.00032130453213307763
< 0  0 >:  -0.00016065226606653882
ctilde_basis_func: rank=2 ndens=1 mu0=0 mu=( 0  0 )
n=( 1  6 )
l=( 2  2 )
num_ms=5
< -2  2 >:  -8.689870212432947e-5
< -1  1 >:  8.689870212432947e-5
< 0  0 >:  -8.689870212432947e-5
< 1  -1 >:  8.689870212432947e-5
< 2  -2 >:  -8.689870212432947e-5
ctilde_basis_func: rank=2 ndens=1 mu0=0 mu=( 0  0 )
n=( 5  5 )
l=( 1  1 )
num_ms=2
< -1  1 >:  3.201708388782754e-5
< 0  0 >:  -1.600854194391377e-5
ctilde_basis_func: rank=2 ndens=1 mu0=0 mu=( 0  0 )
n=( 4  8 )
l=( 0  0 )
num_ms=1
< 0  0 >:  9.409413544907044e-6
ctilde_basis_func: rank=2 ndens=1 mu0=0 mu=( 0  0 )
n=( 4  6 )
l=( 0  0 )
num_ms=1
< 0  0 >:  -2.2141135056245298e-5
ctilde_basis_func: rank=2 ndens=1 mu0=0 mu=( 0  0 )
n=( 3  9 )
l=( 1  1 )
num_ms=3
< -1  1 >:  2.2234898430720486e-5
< 0  0 >:  -2.2234898430720486e-5
< 1  -1 >:  2.2234898430720486e-5
ctilde_basis_func: rank=2 ndens=1 mu0=0 mu=( 0  0 )
n=( 4  5 )
l=( 0  0 )
num_ms=1
< 0  0 >:  6.796201308301438e-5
ctilde_basis_func: rank=2 ndens=1 mu0=0 mu=( 0  0 )
n=( 1  5 )
l=( 4  4 )
num_ms=9
< -4  4 >:  -1.0333465234182863e-5
< -3  3 >:  1.0333465234182861e-5
< -2  2 >:  -1.0333465234182861e-5
< -1  1 >:  1.0333465234182861e-5
< 0  0 >:  -1.0333465234182861e-5
< 1  -1 >:  1.0333465234182861e-5
< 2  -2 >:  -1.0333465234182861e-5
< 3  -3 >:  1.0333465234182861e-5
< 4  -4 >:  -1.0333465234182861e-5
ctilde_basis_func: rank=2 ndens=1 mu0=0 mu=( 0  0 )
n=( 3  4 )
l=( 1  1 )
num_ms=3
< -1  1 >:  -1.2762851424749668e-6
< 0  0 >:  1.2762851424749668e-6
< 1  -1 >:  -1.2762851424749668e-6
ctilde_basis_func: rank=2 ndens=1 mu0=0 mu=( 0  0 )
n=( 1  17 )
l=( 0  0 )
num_ms=1
< 0  0 >:  1.7127200218510036e-6
ctilde_basis_func: rank=2 ndens=1 mu0=0 mu=( 0  0 )
n=( 5  11 )
l=( 0  0 )
num_ms=1
< 0  0 >:  2.677432408586732e-6
ctilde_basis_func: rank=2 ndens=1 mu0=0 mu=( 0  0 )
n=( 1  2 )
l=( 4  4 )
num_ms=9
< -4  4 >:  5.762575769553563e-5
< -3  3 >:  -5.7625757695535625e-5
< -2  2 >:  5.7625757695535625e-5
< -1  1 >:  -5.7625757695535625e-5
< 0  0 >:  5.7625757695535625e-5
< 1  -1 >:  -5.7625757695535625e-5
< 2  -2 >:  5.7625757695535625e-5
< 3  -3 >:  -5.7625757695535625e-5
< 4  -4 >:  5.7625757695535625e-5
ctilde_basis_func: rank=2 ndens=1 mu0=0 mu=( 0  0 )
n=( 1  1 )
l=( 4  4 )
num_ms=5
< -4  4 >:  -7.255501824146286e-5
< -3  3 >:  7.255501824146285e-5
< -2  2 >:  -7.255501824146285e-5
< -1  1 >:  7.255501824146285e-5
< 0  0 >:  -3.6277509120731425e-5
ctilde_basis_func: rank=2 ndens=1 mu0=0 mu=( 0  0 )
n=( 7  8 )
l=( 1  1 )
num_ms=3
< -1  1 >:  -2.1070914615660365e-6
< 0  0 >:  2.1070914615660365e-6
< 1  -1 >:  -2.1070914615660365e-6
ctilde_basis_func: rank=2 ndens=1 mu0=0 mu=( 0  0 )
n=( 3  12 )
l=( 0  0 )
num_ms=1
< 0  0 >:  1.350650762029689e-6
ctilde_basis_func: rank=2 ndens=1 mu0=0 mu=( 0  0 )
n=( 3  8 )
l=( 1  1 )
num_ms=3
< -1  1 >:  -3.355541969212782e-5
< 0  0 >:  3.355541969212782e-5
< 1  -1 >:  -3.355541969212782e-5
ctilde_basis_func: rank=2 ndens=1 mu0=0 mu=( 0  0 )
n=( 4  7 )
l=( 1  1 )
num_ms=3
< -1  1 >:  -3.063003896126953e-5
< 0  0 >:  3.063003896126953e-5
< 1  -1 >:  -3.063003896126953e-5
ctilde_basis_func: rank=2 ndens=1 mu0=0 mu=( 0  0 )
n=( 3  7 )
l=( 1  1 )
num_ms=3
< -1  1 >:  7.3181252676533925e-6
< 0  0 >:  -7.3181252676533925e-6
< 1  -1 >:  7.3181252676533925e-6
ctilde_basis_func: rank=2 ndens=1 mu0=0 mu=( 0  0 )
n=( 1  5 )
l=( 1  1 )
num_ms=3
< -1  1 >:  8.102711975899253e-5
< 0  0 >:  -8.102711975899253e-5
< 1  -1 >:  8.102711975899253e-5
ctilde_basis_func: rank=2 ndens=1 mu0=0 mu=( 0  0 )
n=( 2  2 )
l=( 3  3 )
num_ms=4
< -3  3 >:  0.00019541452307387933
< -2  2 >:  -0.00019541452307387933
< -1  1 >:  0.00019541452307387933
< 0  0 >:  -9.770726153693967e-5
ctilde_basis_func: rank=2 ndens=1 mu0=0 mu=( 0  0 )
n=( 1  3 )
l=( 2  2 )
num_ms=5
< -2  2 >:  -0.00048526039680399694
< -1  1 >:  0.00048526039680399694
< 0  0 >:  -0.00048526039680399694
< 1  -1 >:  0.00048526039680399694
< 2  -2 >:  -0.00048526039680399694
ctilde_basis_func: rank=2 ndens=1 mu0=0 mu=( 0  0 )
n=( 2  11 )
l=( 0  0 )
num_ms=1
< 0  0 >:  -4.380052199273332e-7
ctilde_basis_func: rank=2 ndens=1 mu0=0 mu=( 0  0 )
n=( 6  6 )
l=( 2  2 )
num_ms=3
< -2  2 >:  -3.106736500618956e-5
< -1  1 >:  3.106736500618956e-5
< 0  0 >:  -1.553368250309478e-5
ctilde_basis_func: rank=2 ndens=1 mu0=0 mu=( 0  0 )
n=( 6  9 )
l=( 1  1 )
num_ms=3
< -1  1 >:  2.588971340841103e-5
< 0  0 >:  -2.588971340841103e-5
< 1  -1 >:  2.588971340841103e-5
ctilde_basis_func: rank=2 ndens=1 mu0=0 mu=( 0  0 )
n=( 3  6 )
l=( 1  1 )
num_ms=3
< -1  1 >:  -1.2463828115082149e-5
< 0  0 >:  1.2463828115082149e-5
< 1  -1 >:  -1.2463828115082149e-5
ctilde_basis_func: rank=2 ndens=1 mu0=0 mu=( 0  0 )
n=( 9  9 )
l=( 0  0 )
num_ms=1
< 0  0 >:  -2.5546180607696107e-7
ctilde_basis_func: rank=2 ndens=1 mu0=0 mu=( 0  0 )
n=( 8  8 )
l=( 0  0 )
num_ms=1
< 0  0 >:  -1.2297484430001539e-6
ctilde_basis_func: rank=2 ndens=1 mu0=0 mu=( 0  0 )
n=( 3  10 )
l=( 1  1 )
num_ms=3
< -1  1 >:  -1.4220391486777482e-5
< 0  0 >:  1.4220391486777482e-5
< 1  -1 >:  -1.4220391486777482e-5
ctilde_basis_func: rank=2 ndens=1 mu0=0 mu=( 0  0 )
n=( 2  5 )
l=( 1  1 )
num_ms=3
< -1  1 >:  -0.0001454070395056321
< 0  0 >:  0.0001454070395056321
< 1  -1 >:  -0.0001454070395056321
ctilde_basis_func: rank=2 ndens=1 mu0=0 mu=( 0  0 )
n=( 5  10 )
l=( 0  0 )
num_ms=1
< 0  0 >:  -2.4510790204772473e-5
ctilde_basis_func: rank=2 ndens=1 mu0=0 mu=( 0  0 )
n=( 3  4 )
l=( 4  4 )
num_ms=9
< -4  4 >:  6.804071925773237e-5
< -3  3 >:  -6.804071925773237e-5
< -2  2 >:  6.804071925773237e-5
< -1  1 >:  -6.804071925773237e-5
< 0  0 >:  6.804071925773237e-5
< 1  -1 >:  -6.804071925773237e-5
< 2  -2 >:  6.804071925773237e-5
< 3  -3 >:  -6.804071925773237e-5
< 4  -4 >:  6.804071925773237e-5
ctilde_basis_func: rank=2 ndens=1 mu0=0 mu=( 0  0 )
n=( 1  11 )
l=( 1  1 )
num_ms=3
< -1  1 >:  -7.3395177937431345e-6
< 0  0 >:  7.3395177937431345e-6
< 1  -1 >:  -7.3395177937431345e-6
ctilde_basis_func: rank=2 ndens=1 mu0=0 mu=( 0  0 )
n=( 2  8 )
l=( 1  1 )
num_ms=3
< -1  1 >:  -6.932473371768412e-6
< 0  0 >:  6.932473371768412e-6
< 1  -1 >:  -6.932473371768412e-6
ctilde_basis_func: rank=2 ndens=1 mu0=0 mu=( 0  0 )
n=( 1  2 )
l=( 0  0 )
num_ms=1
< 0  0 >:  -0.0006789315269392209
ctilde_basis_func: rank=2 ndens=1 mu0=0 mu=( 0  0 )
n=( 4  5 )
l=( 3  3 )
num_ms=7
< -3  3 >:  -3.3906643675377664e-5
< -2  2 >:  3.3906643675377664e-5
< -1  1 >:  -3.3906643675377664e-5
< 0  0 >:  3.3906643675377664e-5
< 1  -1 >:  -3.3906643675377664e-5
< 2  -2 >:  3.3906643675377664e-5
< 3  -3 >:  -3.3906643675377664e-5
ctilde_basis_func: rank=2 ndens=1 mu0=0 mu=( 0  0 )
n=( 2  2 )
l=( 1  1 )
num_ms=2
< -1  1 >:  0.0006350306789001361
< 0  0 >:  -0.00031751533945006803
ctilde_basis_func: rank=2 ndens=1 mu0=0 mu=( 0  0 )
n=( 1  16 )
l=( 0  0 )
num_ms=1
< 0  0 >:  4.022960905561248e-6
ctilde_basis_func: rank=2 ndens=1 mu0=0 mu=( 0  0 )
n=( 2  7 )
l=( 1  1 )
num_ms=3
< -1  1 >:  -4.181768918123175e-5
< 0  0 >:  4.181768918123175e-5
< 1  -1 >:  -4.181768918123175e-5
ctilde_basis_func: rank=2 ndens=1 mu0=0 mu=( 0  0 )
n=( 1  12 )
l=( 1  1 )
num_ms=3
< -1  1 >:  1.033870742659715e-6
< 0  0 >:  -1.033870742659715e-6
< 1  -1 >:  1.033870742659715e-6
ctilde_basis_func: rank=2 ndens=1 mu0=0 mu=( 0  0 )
n=( 7  9 )
l=( 0  0 )
num_ms=1
< 0  0 >:  -6.592136777604308e-6
ctilde_basis_func: rank=2 ndens=1 mu0=0 mu=( 0  0 )
n=( 3  8 )
l=( 0  0 )
num_ms=1
< 0  0 >:  -3.7491341398503045e-5
ctilde_basis_func: rank=2 ndens=1 mu0=0 mu=( 0  0 )
n=( 3  3 )
l=( 1  1 )
num_ms=2
< -1  1 >:  0.0002658544834179724
< 0  0 >:  -0.0001329272417089862
ctilde_basis_func: rank=2 ndens=1 mu0=0 mu=( 0  0 )
n=( 7  7 )
l=( 1  1 )
num_ms=2
< -1  1 >:  5.569255315041395e-5
< 0  0 >:  -2.7846276575206975e-5
ctilde_basis_func: rank=2 ndens=1 mu0=0 mu=( 0  0 )
n=( 2  10 )
l=( 0  0 )
num_ms=1
< 0  0 >:  1.3209514949733779e-5
ctilde_basis_func: rank=2 ndens=1 mu0=0 mu=( 0  0 )
n=( 1  8 )
l=( 1  1 )
num_ms=3
< -1  1 >:  -1.2947550442173615e-5
< 0  0 >:  1.2947550442173615e-5
< 1  -1 >:  -1.2947550442173615e-5
ctilde_basis_func: rank=2 ndens=1 mu0=0 mu=( 0  0 )
n=( 5  13 )
l=( 0  0 )
num_ms=1
< 0  0 >:  -5.2023195056676975e-6
ctilde_basis_func: rank=2 ndens=1 mu0=0 mu=( 0  0 )
n=( 6  7 )
l=( 0  0 )
num_ms=1
< 0  0 >:  1.9331801164764418e-5
ctilde_basis_func: rank=2 ndens=1 mu0=0 mu=( 0  0 )
n=( 2  14 )
l=( 0  0 )
num_ms=1
< 0  0 >:  -2.013492109436876e-6
ctilde_basis_func: rank=2 ndens=1 mu0=0 mu=( 0  0 )
n=( 6  10 )
l=( 0  0 )
num_ms=1
< 0  0 >:  3.132673979861362e-7
ctilde_basis_func: rank=2 ndens=1 mu0=0 mu=( 0  0 )
n=( 4  4 )
l=( 0  0 )
num_ms=1
< 0  0 >:  -2.550258124158209e-5
ctilde_basis_func: rank=2 ndens=1 mu0=0 mu=( 0  0 )
n=( 2  9 )
l=( 1  1 )
num_ms=3
< -1  1 >:  -1.2690296883798731e-5
< 0  0 >:  1.2690296883798731e-5
< 1  -1 >:  -1.2690296883798731e-5
ctilde_basis_func: rank=2 ndens=1 mu0=0 mu=( 0  0 )
n=( 1  1 )
l=( 3  3 )
num_ms=4
< -3  3 >:  0.0008907850326855801
< -2  2 >:  -0.0008907850326855801
< -1  1 >:  0.0008907850326855801
< 0  0 >:  -0.00044539251634279005
ctilde_basis_func: rank=2 ndens=1 mu0=0 mu=( 0  0 )
n=( 2  4 )
l=( 0  0 )
num_ms=1
< 0  0 >:  -6.71816461209659e-5
ctilde_basis_func: rank=2 ndens=1 mu0=0 mu=( 0  0 )
n=( 3  15 )
l=( 0  0 )
num_ms=1
< 0  0 >:  -6.2528023399409365e-6
ctilde_basis_func: rank=2 ndens=1 mu0=0 mu=( 0  0 )
n=( 2  10 )
l=( 1  1 )
num_ms=3
< -1  1 >:  1.5435245909215466e-6
< 0  0 >:  -1.5435245909215466e-6
< 1  -1 >:  1.5435245909215466e-6
ctilde_basis_func: rank=2 ndens=1 mu0=0 mu=( 0  0 )
n=( 3  14 )
l=( 0  0 )
num_ms=1
< 0  0 >:  1.0546372974688054e-5
ctilde_basis_func: rank=2 ndens=1 mu0=0 mu=( 0  0 )
n=( 2  13 )
l=( 1  1 )
num_ms=3
< -1  1 >:  6.948170679979531e-6
< 0  0 >:  -6.948170679979531e-6
< 1  -1 >:  6.948170679979531e-6
ctilde_basis_func: rank=2 ndens=1 mu0=0 mu=( 0  0 )
n=( 6  11 )
l=( 0  0 )
num_ms=1
< 0  0 >:  9.756930340954148e-6
ctilde_basis_func: rank=2 ndens=1 mu0=0 mu=( 0  0 )
n=( 5  7 )
l=( 2  2 )
num_ms=5
< -2  2 >:  1.1361845933218333e-5
< -1  1 >:  -1.1361845933218333e-5
< 0  0 >:  1.1361845933218333e-5
< 1  -1 >:  -1.1361845933218333e-5
< 2  -2 >:  1.1361845933218333e-5
ctilde_basis_func: rank=2 ndens=1 mu0=0 mu=( 0  0 )
n=( 5  8 )
l=( 0  0 )
num_ms=1
< 0  0 >:  -9.247214305211441e-6
ctilde_basis_func: rank=2 ndens=1 mu0=0 mu=( 0  0 )
n=( 7  11 )
l=( 0  0 )
num_ms=1
< 0  0 >:  -1.678242093527071e-8
ctilde_basis_func: rank=2 ndens=1 mu0=0 mu=( 0  0 )
n=( 1  4 )
l=( 0  0 )
num_ms=1
< 0  0 >:  -0.0002382664270831626
ctilde_basis_func: rank=2 ndens=1 mu0=0 mu=( 0  0 )
n=( 5  10 )
l=( 1  1 )
num_ms=3
< -1  1 >:  -1.569234009885791e-5
< 0  0 >:  1.569234009885791e-5
< 1  -1 >:  -1.569234009885791e-5
ctilde_basis_func: rank=2 ndens=1 mu0=0 mu=( 0  0 )
n=( 1  3 )
l=( 0  0 )
num_ms=1
< 0  0 >:  0.000258922291689745
ctilde_basis_func: rank=2 ndens=1 mu0=0 mu=( 0  0 )
n=( 5  9 )
l=( 0  0 )
num_ms=1
< 0  0 >:  1.2577910254965966e-5
ctilde_basis_func: rank=2 ndens=1 mu0=0 mu=( 0  0 )
n=( 4  9 )
l=( 0  0 )
num_ms=1
< 0  0 >:  -2.957194357591498e-5
ctilde_basis_func: rank=2 ndens=1 mu0=0 mu=( 0  0 )
n=( 2  3 )
l=( 0  0 )
num_ms=1
< 0  0 >:  -0.00010207688460061286
ctilde_basis_func: rank=2 ndens=1 mu0=0 mu=( 0  0 )
n=( 2  12 )
l=( 1  1 )
num_ms=3
< -1  1 >:  2.386437846930374e-7
< 0  0 >:  -2.386437846930374e-7
< 1  -1 >:  2.386437846930374e-7
ctilde_basis_func: rank=2 ndens=1 mu0=0 mu=( 0  0 )
n=( 2  7 )
l=( 0  0 )
num_ms=1
< 0  0 >:  6.714692039454761e-6
ctilde_basis_func: rank=2 ndens=1 mu0=0 mu=( 0  0 )
n=( 1  11 )
l=( 0  0 )
num_ms=1
< 0  0 >:  7.369262119425438e-7
ctilde_basis_func: rank=2 ndens=1 mu0=0 mu=( 0  0 )
n=( 2  8 )
l=( 0  0 )
num_ms=1
< 0  0 >:  2.8279459551669503e-5
ctilde_basis_func: rank=2 ndens=1 mu0=0 mu=( 0  0 )
n=( 8  9 )
l=( 0  0 )
num_ms=1
< 0  0 >:  2.0763590420783883e-6
ctilde_basis_func: rank=2 ndens=1 mu0=0 mu=( 0  0 )
n=( 5  6 )
l=( 1  1 )
num_ms=3
< -1  1 >:  -9.828816925809108e-5
< 0  0 >:  9.828816925809108e-5
< 1  -1 >:  -9.828816925809108e-5
ctilde_basis_func: rank=2 ndens=1 mu0=0 mu=( 0  0 )
n=( 2  16 )
l=( 0  0 )
num_ms=1
< 0  0 >:  -8.388310520182511e-6
ctilde_basis_func: rank=2 ndens=1 mu0=0 mu=( 0  0 )
n=( 3  6 )
l=( 0  0 )
num_ms=1
< 0  0 >:  -4.659825043290833e-5
ctilde_basis_func: rank=2 ndens=1 mu0=0 mu=( 0  0 )
n=( 4  4 )
l=( 1  1 )
num_ms=2
< -1  1 >:  9.245328972393196e-5
< 0  0 >:  -4.622664486196598e-5
ctilde_basis_func: rank=2 ndens=1 mu0=0 mu=( 0  0 )
n=( 1  9 )
l=( 2  2 )
num_ms=5
< -2  2 >:  -3.0357673267956073e-5
< -1  1 >:  3.0357673267956073e-5
< 0  0 >:  -3.0357673267956073e-5
< 1  -1 >:  3.0357673267956073e-5
< 2  -2 >:  -3.0357673267956073e-5
ctilde_basis_func: rank=2 ndens=1 mu0=0 mu=( 0  0 )
n=( 4  11 )
l=( 1  1 )
num_ms=3
< -1  1 >:  -1.905238331125139e-6
< 0  0 >:  1.905238331125139e-6
< 1  -1 >:  -1.905238331125139e-6
ctilde_basis_func: rank=2 ndens=1 mu0=0 mu=( 0  0 )
n=( 2  12 )
l=( 0  0 )
num_ms=1
< 0  0 >:  5.379454820074417e-7
ctilde_basis_func: rank=2 ndens=1 mu0=0 mu=( 0  0 )
n=( 6  12 )
l=( 0  0 )
num_ms=1
< 0  0 >:  -8.115622744679886e-6
ctilde_basis_func: rank=2 ndens=1 mu0=0 mu=( 0  0 )
n=( 1  12 )
l=( 0  0 )
num_ms=1
< 0  0 >:  -3.845142253683875e-7
ctilde_basis_func: rank=2 ndens=1 mu0=0 mu=( 0  0 )
n=( 5  9 )
l=( 1  1 )
num_ms=3
< -1  1 >:  5.192986736452507e-6
< 0  0 >:  -5.192986736452507e-6
< 1  -1 >:  5.192986736452507e-6
ctilde_basis_func: rank=2 ndens=1 mu0=0 mu=( 0  0 )
n=( 3  10 )
l=( 0  0 )
num_ms=1
< 0  0 >:  -3.4605879228548737e-5
ctilde_basis_func: rank=2 ndens=1 mu0=0 mu=( 0  0 )
n=( 5  7 )
l=( 0  0 )
num_ms=1
< 0  0 >:  -4.100093616095378e-5
ctilde_basis_func: rank=2 ndens=1 mu0=0 mu=( 0  0 )
n=( 3  4 )
l=( 0  0 )
num_ms=1
< 0  0 >:  -0.00012630443724208844
ctilde_basis_func: rank=2 ndens=1 mu0=0 mu=( 0  0 )
n=( 1  6 )
l=( 0  0 )
num_ms=1
< 0  0 >:  -6.915407296692716e-5
ctilde_basis_func: rank=2 ndens=1 mu0=0 mu=( 0  0 )
n=( 7  7 )
l=( 0  0 )
num_ms=1
< 0  0 >:  -1.6924424333744567e-5
ctilde_basis_func: rank=2 ndens=1 mu0=0 mu=( 0  0 )
n=( 1  8 )
l=( 0  0 )
num_ms=1
< 0  0 >:  -3.683531400272607e-5
ctilde_basis_func: rank=2 ndens=1 mu0=0 mu=( 0  0 )
n=( 7  8 )
l=( 0  0 )
num_ms=1
< 0  0 >:  9.019031240427447e-6
ctilde_basis_func: rank=2 ndens=1 mu0=0 mu=( 0  0 )
n=( 4  13 )
l=( 0  0 )
num_ms=1
< 0  0 >:  5.161197623309723e-6
ctilde_basis_func: rank=2 ndens=1 mu0=0 mu=( 0  0 )
n=( 2  2 )
l=( 0  0 )
num_ms=1
< 0  0 >:  -0.00020257606789673887
ctilde_basis_func: rank=2 ndens=1 mu0=0 mu=( 0  0 )
n=( 1  15 )
l=( 0  0 )
num_ms=1
< 0  0 >:  -4.919580133069059e-7
ctilde_basis_func: rank=2 ndens=1 mu0=0 mu=( 0  0 )
n=( 4  14 )
l=( 0  0 )
num_ms=1
< 0  0 >:  -8.675547137442414e-6
ctilde_basis_func: rank=2 ndens=1 mu0=0 mu=( 0  0 )
n=( 1  5 )
l=( 0  0 )
num_ms=1
< 0  0 >:  8.994051951156698e-6
ctilde_basis_func: rank=2 ndens=1 mu0=0 mu=( 0  0 )
n=( 6  9 )
l=( 0  0 )
num_ms=1
< 0  0 >:  -5.095737502189908e-6
ctilde_basis_func: rank=2 ndens=1 mu0=0 mu=( 0  0 )
n=( 4  12 )
l=( 0  0 )
num_ms=1
< 0  0 >:  -4.1654993122748337e-7
ctilde_basis_func: rank=2 ndens=1 mu0=0 mu=( 0  0 )
n=( 5  12 )
l=( 0  0 )
num_ms=1
< 0  0 >:  1.3418212410046298e-6
ctilde_basis_func: rank=2 ndens=1 mu0=0 mu=( 0  0 )
n=( 1  13 )
l=( 0  0 )
num_ms=1
< 0  0 >:  2.0158013037048782e-7
ctilde_basis_func: rank=2 ndens=1 mu0=0 mu=( 0  0 )
n=( 8  10 )
l=( 0  0 )
num_ms=1
< 0  0 >:  2.3937019304158822e-6
ctilde_basis_func: rank=2 ndens=1 mu0=0 mu=( 0  0 )
n=( 2  5 )
l=( 0  0 )
num_ms=1
< 0  0 >:  0.00010455221800664637
ctilde_basis_func: rank=2 ndens=1 mu0=0 mu=( 0  0 )
n=( 3  11 )
l=( 0  0 )
num_ms=1
< 0  0 >:  4.1213512933775085e-6
ctilde_basis_func: rank=2 ndens=1 mu0=0 mu=( 0  0 )
n=( 3  3 )
l=( 0  0 )
num_ms=1
< 0  0 >:  -9.844458561789965e-5
ctilde_basis_func: rank=2 ndens=1 mu0=0 mu=( 0  0 )
n=( 4  11 )
l=( 0  0 )
num_ms=1
< 0  0 >:  -9.409319228060552e-6
ctilde_basis_func: rank=3 ndens=1 mu0=0 mu=( 0  0  0 )
n=( 1  3  3 )
l=( 4  2  2 )
num_ms=15
< -4  2  2 >:  -3.072570495868622e-5
< -3  1  2 >:  4.345270866604831e-5
< -2  0  2 >:  -2.8446475230432848e-5
< -2  1  1 >:  -2.322644976509367e-5
< -1  -1  2 >:  1.6423580131786433e-5
< -1  0  1 >:  4.022939107258846e-5
< 0  -2  2 >:  -7.3448483217178755e-6
< 0  -1  1 >:  -2.9379393286871532e-5
< 0  0  0 >:  -2.2034544965153648e-5
< 1  -2  1 >:  1.6423580131786433e-5
< 1  -1  0 >:  4.022939107258846e-5
< 2  -2  0 >:  -2.8446475230432848e-5
< 2  -1  -1 >:  -2.322644976509367e-5
< 3  -2  -1 >:  4.345270866604831e-5
< 4  -2  -2 >:  -3.072570495868622e-5
ctilde_basis_func: rank=3 ndens=1 mu0=0 mu=( 0  0  0 )
n=( 2  4  6 )
l=( 0  1  1 )
num_ms=3
< 0  -1  1 >:  -6.232786398808351e-6
< 0  0  0 >:  6.232786398808349e-6
< 0  1  -1 >:  -6.232786398808349e-6
ctilde_basis_func: rank=3 ndens=1 mu0=0 mu=( 0  0  0 )
n=( 1  2  4 )
l=( 1  3  2 )
num_ms=15
< -1  -1  2 >:  -1.834820018894739e-6
< -1  0  1 >:  3.1780014954701756e-6
< -1  1  0 >:  -4.4943728161359e-6
< -1  2  -1 >:  5.802210356180557e-6
< -1  3  -2 >:  -7.106227376467303e-6
< 0  -2  2 >:  4.102782288726086e-6
< 0  -1  1 >:  -5.189654710469197e-6
< 0  0  0 >:  5.5044600566842175e-6
< 0  1  -1 >:  -5.189654710469197e-6
< 0  2  -2 >:  4.102782288726086e-6
< 1  -3  2 >:  -7.106227376467304e-6
< 1  -2  1 >:  5.802210356180557e-6
< 1  -1  0 >:  -4.4943728161359e-6
< 1  0  -1 >:  3.1780014954701756e-6
< 1  1  -2 >:  -1.834820018894739e-6
ctilde_basis_func: rank=3 ndens=1 mu0=0 mu=( 0  0  0 )
n=( 1  2  4 )
l=( 0  1  1 )
num_ms=3
< 0  -1  1 >:  2.3916206765506364e-5
< 0  0  0 >:  -2.3916206765506354e-5
< 0  1  -1 >:  2.3916206765506354e-5
ctilde_basis_func: rank=3 ndens=1 mu0=0 mu=( 0  0  0 )
n=( 1  3  3 )
l=( 0  4  4 )
num_ms=5
< 0  -4  4 >:  5.5642453200181825e-6
< 0  -3  3 >:  -5.564245320018181e-6
< 0  -2  2 >:  5.564245320018181e-6
< 0  -1  1 >:  -5.564245320018181e-6
< 0  0  0 >:  2.7821226600090904e-6
ctilde_basis_func: rank=3 ndens=1 mu0=0 mu=( 0  0  0 )
n=( 1  1  2 )
l=( 3  4  3 )
num_ms=43
< -3  0  3 >:  -1.2362944988614396e-6
< -3  1  2 >:  2.257154615819851e-6
< -3  2  1 >:  -3.028290694020365e-6
< -3  3  0 >:  3.2709277912245938e-6
< -3  4  -1 >:  -2.6707013579963605e-6
< -2  -1  3 >:  2.257154615819851e-6
< -2  0  2 >:  -2.8846871640100248e-6
< -2  1  1 >:  2.331179263169462e-6
< -2  2  0 >:  -7.137749617153055e-7
< -2  3  -1 >:  -1.5419301479642977e-6
< -2  4  -2 >:  3.4478606274044786e-6
< -1  -2  3 >:  -3.028290694020365e-6
< -1  -1  2 >:  2.331179263169462e-6
< -1  0  1 >:  -4.1209816628714635e-7
< -1  1  0 >:  -1.596049335032733e-6
< -1  2  -1 >:  2.606337650092395e-6
< -1  3  -2 >:  -1.5419301479642977e-6
< -1  4  -3 >:  -2.6707013579963605e-6
< 0  -3  3 >:  3.2709277912245938e-6
< 0  -2  2 >:  -7.137749617153055e-7
< 0  -1  1 >:  -1.596049335032733e-6
< 0  0  0 >:  2.472588997722879e-6
< 0  1  -1 >:  -1.596049335032733e-6
< 0  2  -2 >:  -7.137749617153055e-7
< 0  3  -3 >:  3.2709277912245938e-6
< 1  -4  3 >:  -2.6707013579963567e-6
< 1  -3  2 >:  -1.5419301479642977e-6
< 1  -2  1 >:  2.606337650092395e-6
< 1  -1  0 >:  -1.596049335032733e-6
< 1  0  -1 >:  -4.1209816628714635e-7
< 1  1  -2 >:  2.331179263169462e-6
< 1  2  -3 >:  -3.028290694020365e-6
< 2  -4  2 >:  3.4478606274044786e-6
< 2  -3  1 >:  -1.5419301479642977e-6
< 2  -2  0 >:  -7.137749617153055e-7
< 2  -1  -1 >:  2.331179263169462e-6
< 2  0  -2 >:  -2.8846871640100248e-6
< 2  1  -3 >:  2.257154615819851e-6
< 3  -4  1 >:  -2.6707013579963605e-6
< 3  -3  0 >:  3.2709277912245938e-6
< 3  -2  -1 >:  -3.028290694020365e-6
< 3  -1  -2 >:  2.257154615819851e-6
< 3  0  -3 >:  -1.2362944988614396e-6
ctilde_basis_func: rank=3 ndens=1 mu0=0 mu=( 0  0  0 )
n=( 1  2  3 )
l=( 1  2  1 )
num_ms=9
< -1  0  1 >:  2.7394389513312195e-6
< -1  1  0 >:  -4.744847447938876e-6
< -1  2  -1 >:  6.710227612266529e-6
< 0  -1  1 >:  -4.744847447938876e-6
< 0  0  0 >:  5.478877902662439e-6
< 0  1  -1 >:  -4.744847447938876e-6
< 1  -2  1 >:  6.710227612266526e-6
< 1  -1  0 >:  -4.744847447938876e-6
< 1  0  -1 >:  2.7394389513312195e-6
ctilde_basis_func: rank=3 ndens=1 mu0=0 mu=( 0  0  0 )
n=( 1  2  6 )
l=( 2  1  3 )
num_ms=15
< -2  -1  3 >:  -1.0000308670592015e-5
< -2  0  2 >:  5.773680902945648e-6
< -2  1  1 >:  -2.5820685958757668e-6
< -1  -1  2 >:  8.165217837760272e-6
< -1  0  1 >:  -7.303192854530326e-6
< -1  1  0 >:  4.472273996684858e-6
< 0  -1  1 >:  -6.3247505407602524e-6
< 0  0  0 >:  7.746205787627299e-6
< 0  1  -1 >:  -6.3247505407602524e-6
< 1  -1  0 >:  4.472273996684858e-6
< 1  0  -1 >:  -7.303192854530326e-6
< 1  1  -2 >:  8.165217837760272e-6
< 2  -1  -1 >:  -2.5820685958757668e-6
< 2  0  -2 >:  5.773680902945648e-6
< 2  1  -3 >:  -1.0000308670592012e-5
ctilde_basis_func: rank=3 ndens=1 mu0=0 mu=( 0  0  0 )
n=( 1  1  6 )
l=( 2  3  1 )
num_ms=15
< -2  1  1 >:  -6.942340482668353e-8
< -2  2  0 >:  1.552354524219514e-7
< -2  3  -1 >:  -2.6887569073076094e-7
< -1  0  1 >:  1.202448643942383e-7
< -1  1  0 >:  -1.963590413040273e-7
< -1  2  -1 >:  2.1953608217624698e-7
< 0  -1  1 >:  -1.700519180320455e-7
< 0  0  0 >:  2.0827021448005058e-7
< 0  1  -1 >:  -1.700519180320455e-7
< 1  -2  1 >:  2.1953608217624698e-7
< 1  -1  0 >:  -1.963590413040273e-7
< 1  0  -1 >:  1.202448643942383e-7
< 2  -3  1 >:  -2.68875690730761e-7
< 2  -2  0 >:  1.552354524219514e-7
< 2  -1  -1 >:  -6.942340482668353e-8
ctilde_basis_func: rank=3 ndens=1 mu0=0 mu=( 0  0  0 )
n=( 2  3  7 )
l=( 2  1  1 )
num_ms=9
< -2  1  1 >:  8.321568320930754e-6
< -1  0  1 >:  -5.884237389837289e-6
< -1  1  0 >:  -5.884237389837289e-6
< 0  -1  1 >:  3.397266040998216e-6
< 0  0  0 >:  6.79453208199644e-6
< 0  1  -1 >:  3.39726604099822e-6
< 1  -1  0 >:  -5.884237389837289e-6
< 1  0  -1 >:  -5.884237389837289e-6
< 2  -1  -1 >:  8.321568320930754e-6
ctilde_basis_func: rank=3 ndens=1 mu0=0 mu=( 0  0  0 )
n=( 1  3  4 )
l=( 3  1  2 )
num_ms=15
< -3  1  2 >:  2.937786067338954e-5
< -2  0  2 >:  -1.696131576799677e-5
< -2  1  1 >:  -2.3986922794793667e-5
< -1  -1  2 >:  7.58533100901596e-6
< -1  0  1 >:  2.1454555976079145e-5
< -1  1  0 >:  1.8580190502199785e-5
< 0  -1  1 >:  -1.3138178699843353e-5
< 0  0  0 >:  -2.2755993027047904e-5
< 0  1  -1 >:  -1.3138178699843353e-5
< 1  -1  0 >:  1.8580190502199785e-5
< 1  0  -1 >:  2.1454555976079145e-5
< 1  1  -2 >:  7.5853310090159684e-6
< 2  -1  -1 >:  -2.3986922794793667e-5
< 2  0  -2 >:  -1.696131576799677e-5
< 3  -1  -2 >:  2.937786067338954e-5
ctilde_basis_func: rank=3 ndens=1 mu0=0 mu=( 0  0  0 )
n=( 1  2  5 )
l=( 2  1  3 )
num_ms=15
< -2  -1  3 >:  -2.297176856019434e-6
< -2  0  2 >:  1.326275676198998e-6
< -2  1  1 >:  -5.931285137770919e-7
< -1  -1  2 >:  1.8756370487261707e-6
< -1  0  1 >:  -1.6776207768275211e-6
< -1  1  0 >:  1.02732872127974e-6
< 0  -1  1 >:  -1.4528622106492175e-6
< 0  0  0 >:  1.7793855413312757e-6
< 0  1  -1 >:  -1.4528622106492175e-6
< 1  -1  0 >:  1.02732872127974e-6
< 1  0  -1 >:  -1.6776207768275211e-6
< 1  1  -2 >:  1.8756370487261707e-6
< 2  -1  -1 >:  -5.931285137770919e-7
< 2  0  -2 >:  1.326275676198998e-6
< 2  1  -3 >:  -2.297176856019433e-6
ctilde_basis_func: rank=3 ndens=1 mu0=0 mu=( 0  0  0 )
n=( 2  2  2 )
l=( 0  3  3 )
num_ms=4
< 0  -3  3 >:  6.068117502394499e-5
< 0  -2  2 >:  -6.068117502394499e-5
< 0  -1  1 >:  6.068117502394499e-5
< 0  0  0 >:  -3.0340587511972494e-5
ctilde_basis_func: rank=3 ndens=1 mu0=0 mu=( 0  0  0 )
n=( 1  3  4 )
l=( 1  2  3 )
num_ms=15
< -1  -2  3 >:  -3.835313875724189e-5
< -1  -1  2 >:  3.131520666313465e-5
< -1  0  1 >:  -2.4256654777872804e-5
< -1  1  0 >:  1.7152045082334934e-5
< -1  2  -1 >:  -9.902737845438669e-6
< 0  -2  2 >:  2.2143194985760673e-5
< 0  -1  1 >:  -2.8009172331289378e-5
< 0  0  0 >:  2.970821353631601e-5
< 0  1  -1 >:  -2.8009172331289378e-5
< 0  2  -2 >:  2.2143194985760673e-5
< 1  -2  1 >:  -9.902737845438669e-6
< 1  -1  0 >:  1.7152045082334934e-5
< 1  0  -1 >:  -2.4256654777872804e-5
< 1  1  -2 >:  3.131520666313465e-5
< 1  2  -3 >:  -3.8353138757241886e-5
ctilde_basis_func: rank=3 ndens=1 mu0=0 mu=( 0  0  0 )
n=( 1  1  3 )
l=( 2  4  2 )
num_ms=25
< -2  0  2 >:  -2.837772232736447e-7
< -2  1  1 >:  6.345451617060049e-7
< -2  2  0 >:  -1.0990644597718096e-6
< -2  3  -1 >:  1.6788486935133547e-6
< -2  4  -2 >:  -2.374250591538938e-6
< -1  -1  2 >:  6.345451617060049e-7
< -1  0  1 >:  -1.1351088930945788e-6
< -1  1  0 >:  1.554311864931552e-6
< -1  2  -1 >:  -1.7947647472457214e-6
< -1  3  -2 >:  1.6788486935133547e-6
< 0  -2  2 >:  -1.0990644597718096e-6
< 0  -1  1 >:  1.554311864931552e-6
< 0  0  0 >:  -1.7026633396418681e-6
< 0  1  -1 >:  1.554311864931552e-6
< 0  2  -2 >:  -1.0990644597718096e-6
< 1  -3  2 >:  1.6788486935133547e-6
< 1  -2  1 >:  -1.7947647472457214e-6
< 1  -1  0 >:  1.554311864931552e-6
< 1  0  -1 >:  -1.1351088930945788e-6
< 1  1  -2 >:  6.345451617060049e-7
< 2  -4  2 >:  -2.374250591538939e-6
< 2  -3  1 >:  1.6788486935133547e-6
< 2  -2  0 >:  -1.0990644597718096e-6
< 2  -1  -1 >:  6.345451617060049e-7
< 2  0  -2 >:  -2.837772232736447e-7
ctilde_basis_func: rank=3 ndens=1 mu0=0 mu=( 0  0  0 )
n=( 1  1  4 )
l=( 2  4  2 )
num_ms=25
< -2  0  2 >:  3.026206043525009e-6
< -2  1  1 >:  -6.7668024272426095e-6
< -2  2  0 >:  1.17204456087646e-5
< -2  3  -1 >:  -1.790327639359218e-5
< -2  4  -2 >:  2.531905628673214e-5
< -1  -1  2 >:  -6.7668024272426095e-6
< -1  0  1 >:  1.2104824174100037e-5
< -1  1  0 >:  -1.6575213136971085e-5
< -1  2  -1 >:  1.913940753301135e-5
< -1  3  -2 >:  -1.790327639359218e-5
< 0  -2  2 >:  1.17204456087646e-5
< 0  -1  1 >:  -1.6575213136971085e-5
< 0  0  0 >:  1.8157236261150058e-5
< 0  1  -1 >:  -1.6575213136971085e-5
< 0  2  -2 >:  1.17204456087646e-5
< 1  -3  2 >:  -1.790327639359218e-5
< 1  -2  1 >:  1.913940753301135e-5
< 1  -1  0 >:  -1.6575213136971085e-5
< 1  0  -1 >:  1.2104824174100037e-5
< 1  1  -2 >:  -6.7668024272426095e-6
< 2  -4  2 >:  2.5319056286732155e-5
< 2  -3  1 >:  -1.790327639359218e-5
< 2  -2  0 >:  1.17204456087646e-5
< 2  -1  -1 >:  -6.7668024272426095e-6
< 2  0  -2 >:  3.026206043525009e-6
ctilde_basis_func: rank=3 ndens=1 mu0=0 mu=( 0  0  0 )
n=( 1  2  3 )
l=( 2  4  2 )
num_ms=25
< -2  0  2 >:  6.277696916497093e-6
< -2  1  1 >:  -1.403735704742832e-5
< -2  2  0 >:  2.4313415610130894e-5
< -2  3  -1 >:  -3.713935581211525e-5
< -2  4  -2 >:  5.252298068729342e-5
< -1  -1  2 >:  -1.403735704742832e-5
< -1  0  1 >:  2.511078766598837e-5
< -1  1  0 >:  -3.438436210346083e-5
< -1  2  -1 >:  3.9703641432693346e-5
< -1  3  -2 >:  -3.713935581211525e-5
< 0  -2  2 >:  2.4313415610130894e-5
< 0  -1  1 >:  -3.438436210346083e-5
< 0  0  0 >:  3.766618149898256e-5
< 0  1  -1 >:  -3.438436210346083e-5
< 0  2  -2 >:  2.4313415610130894e-5
< 1  -3  2 >:  -3.713935581211525e-5
< 1  -2  1 >:  3.9703641432693346e-5
< 1  -1  0 >:  -3.438436210346083e-5
< 1  0  -1 >:  2.511078766598837e-5
< 1  1  -2 >:  -1.403735704742832e-5
< 2  -4  2 >:  5.252298068729344e-5
< 2  -3  1 >:  -3.713935581211525e-5
< 2  -2  0 >:  2.4313415610130894e-5
< 2  -1  -1 >:  -1.403735704742832e-5
< 2  0  -2 >:  6.277696916497093e-6
ctilde_basis_func: rank=3 ndens=1 mu0=0 mu=( 0  0  0 )
n=( 1  2  3 )
l=( 1  3  4 )
num_ms=21
< -1  -3  4 >:  -1.4611530473233697e-5
< -1  -2  3 >:  1.2653956577990839e-5
< -1  -1  2 >:  -1.0694545241038857e-5
< -1  0  1 >:  8.73205962388511e-6
< -1  1  0 >:  -6.763824300279447e-6
< -1  2  -1 >:  4.782746029481951e-6
< -1  3  -2 >:  -2.761319707587019e-6
< 0  -3  3 >:  7.305765236616844e-6
< 0  -2  2 >:  -9.565492058963901e-6
< 0  -1  1 >:  1.0694545241038857e-5
< 0  0  0 >:  -1.1045278830348076e-5
< 0  1  -1 >:  1.0694545241038857e-5
< 0  2  -2 >:  -9.565492058963901e-6
< 0  3  -3 >:  7.305765236616844e-6
< 1  -3  2 >:  -2.761319707587019e-6
< 1  -2  1 >:  4.782746029481951e-6
< 1  -1  0 >:  -6.763824300279447e-6
< 1  0  -1 >:  8.73205962388511e-6
< 1  1  -2 >:  -1.0694545241038857e-5
< 1  2  -3 >:  1.2653956577990839e-5
< 1  3  -4 >:  -1.4611530473233688e-5
ctilde_basis_func: rank=3 ndens=1 mu0=0 mu=( 0  0  0 )
n=( 1  2  4 )
l=( 3  4  1 )
num_ms=21
< -3  2  1 >:  1.95273826716808e-6
< -3  3  0 >:  -5.1664598305259445e-6
< -3  4  -1 >:  1.0332919661051889e-5
< -2  1  1 >:  -3.382241892619123e-6
< -2  2  0 >:  6.764483785238246e-6
< -2  3  -1 >:  -8.948570921734627e-6
< -1  0  1 >:  4.783212355768409e-6
< -1  1  0 >:  -7.562922788243902e-6
< -1  2  -1 >:  7.562922788243902e-6
< 0  -1  1 >:  -6.175100598421532e-6
< 0  0  0 >:  7.81095306867232e-6
< 0  1  -1 >:  -6.175100598421532e-6
< 1  -2  1 >:  7.562922788243902e-6
< 1  -1  0 >:  -7.562922788243902e-6
< 1  0  -1 >:  4.783212355768409e-6
< 2  -3  1 >:  -8.948570921734627e-6
< 2  -2  0 >:  6.764483785238246e-6
< 2  -1  -1 >:  -3.382241892619123e-6
< 3  -4  1 >:  1.0332919661051894e-5
< 3  -3  0 >:  -5.1664598305259445e-6
< 3  -2  -1 >:  1.95273826716808e-6
ctilde_basis_func: rank=3 ndens=1 mu0=0 mu=( 0  0  0 )
n=( 1  2  5 )
l=( 1  2  3 )
num_ms=15
< -1  -2  3 >:  -1.605697649521156e-5
< -1  -1  2 >:  1.3110466408377098e-5
< -1  0  1 >:  -1.0155323612131252e-5
< -1  1  0 >:  7.180898191281875e-6
< -1  2  -1 >:  -4.145893503759886e-6
< 0  -2  2 >:  9.270499701881888e-6
< 0  -1  1 >:  -1.1726357642343484e-5
< 0  0  0 >:  1.243768051127966e-5
< 0  1  -1 >:  -1.1726357642343484e-5
< 0  2  -2 >:  9.270499701881888e-6
< 1  -2  1 >:  -4.145893503759886e-6
< 1  -1  0 >:  7.180898191281875e-6
< 1  0  -1 >:  -1.0155323612131252e-5
< 1  1  -2 >:  1.3110466408377098e-5
< 1  2  -3 >:  -1.6056976495211558e-5
ctilde_basis_func: rank=3 ndens=1 mu0=0 mu=( 0  0  0 )
n=( 1  2  4 )
l=( 4  2  2 )
num_ms=25
< -4  2  2 >:  3.5646655126028435e-5
< -3  1  2 >:  -2.520599156623291e-5
< -3  2  1 >:  -2.520599156623291e-5
< -2  0  2 >:  1.6501194902668688e-5
< -2  1  1 >:  2.6946338438502e-5
< -2  2  0 >:  1.6501194902668688e-5
< -1  -1  2 >:  -9.526969319006247e-6
< -1  0  1 >:  -2.3336213626715843e-5
< -1  1  0 >:  -2.3336213626715843e-5
< -1  2  -1 >:  -9.526969319006247e-6
< 0  -2  2 >:  4.260590203370561e-6
< 0  -1  1 >:  1.704236081348228e-5
< 0  0  0 >:  2.5563541220223415e-5
< 0  1  -1 >:  1.704236081348228e-5
< 0  2  -2 >:  4.26059020337057e-6
< 1  -2  1 >:  -9.526969319006247e-6
< 1  -1  0 >:  -2.3336213626715843e-5
< 1  0  -1 >:  -2.3336213626715843e-5
< 1  1  -2 >:  -9.526969319006247e-6
< 2  -2  0 >:  1.6501194902668688e-5
< 2  -1  -1 >:  2.6946338438502e-5
< 2  0  -2 >:  1.6501194902668688e-5
< 3  -2  -1 >:  -2.520599156623291e-5
< 3  -1  -2 >:  -2.520599156623291e-5
< 4  -2  -2 >:  3.5646655126028435e-5
ctilde_basis_func: rank=3 ndens=1 mu0=0 mu=( 0  0  0 )
n=( 1  2  8 )
l=( 2  0  2 )
num_ms=5
< -2  0  2 >:  8.477004304860722e-6
< -1  0  1 >:  -8.477004304860722e-6
< 0  0  0 >:  8.477004304860722e-6
< 1  0  -1 >:  -8.477004304860722e-6
< 2  0  -2 >:  8.477004304860722e-6
ctilde_basis_func: rank=3 ndens=1 mu0=0 mu=( 0  0  0 )
n=( 1  2  5 )
l=( 1  2  1 )
num_ms=9
< -1  0  1 >:  -4.061816443727378e-6
< -1  1  0 >:  7.035272451554548e-6
< -1  2  -1 >:  -9.949377715978258e-6
< 0  -1  1 >:  7.035272451554548e-6
< 0  0  0 >:  -8.123632887454756e-6
< 0  1  -1 >:  7.035272451554548e-6
< 1  -2  1 >:  -9.949377715978255e-6
< 1  -1  0 >:  7.035272451554548e-6
< 1  0  -1 >:  -4.061816443727378e-6
ctilde_basis_func: rank=3 ndens=1 mu0=0 mu=( 0  0  0 )
n=( 1  3  6 )
l=( 1  3  2 )
num_ms=15
< -1  -1  2 >:  1.660944135861309e-6
< -1  0  1 >:  -2.8768396318453715e-6
< -1  1  0 >:  4.068465624128145e-6
< -1  2  -1 >:  -5.252366535621891e-6
< -1  3  -2 >:  6.432808977171719e-6
< 0  -2  2 >:  -3.713983994615534e-6
< 0  -1  1 >:  4.697859446558247e-6
< 0  0  0 >:  -4.982832407583927e-6
< 0  1  -1 >:  4.697859446558247e-6
< 0  2  -2 >:  -3.713983994615534e-6
< 1  -3  2 >:  6.43280897717172e-6
< 1  -2  1 >:  -5.252366535621891e-6
< 1  -1  0 >:  4.068465624128145e-6
< 1  0  -1 >:  -2.8768396318453715e-6
< 1  1  -2 >:  1.660944135861309e-6
ctilde_basis_func: rank=3 ndens=1 mu0=0 mu=( 0  0  0 )
n=( 1  4  5 )
l=( 3  1  2 )
num_ms=15
< -3  1  2 >:  -1.4677225799131271e-5
< -2  0  2 >:  8.47390026608536e-6
< -2  1  1 >:  1.1983904682494896e-5
< -1  -1  2 >:  -3.7896434059040805e-6
< -1  0  1 >:  -1.0718730202374647e-5
< -1  1  0 >:  -9.282692651567962e-6
< 0  -1  1 >:  6.56385492159424e-6
< 0  0  0 >:  1.1368930217712254e-5
< 0  1  -1 >:  6.56385492159424e-6
< 1  -1  0 >:  -9.282692651567962e-6
< 1  0  -1 >:  -1.0718730202374647e-5
< 1  1  -2 >:  -3.789643405904085e-6
< 2  -1  -1 >:  1.1983904682494896e-5
< 2  0  -2 >:  8.47390026608536e-6
< 3  -1  -2 >:  -1.4677225799131271e-5
ctilde_basis_func: rank=3 ndens=1 mu0=0 mu=( 0  0  0 )
n=( 1  3  3 )
l=( 4  0  4 )
num_ms=9
< -4  0  4 >:  -2.2858127226092204e-5
< -3  0  3 >:  2.2858127226092197e-5
< -2  0  2 >:  -2.2858127226092197e-5
< -1  0  1 >:  2.2858127226092197e-5
< 0  0  0 >:  -2.2858127226092197e-5
< 1  0  -1 >:  2.2858127226092197e-5
< 2  0  -2 >:  -2.2858127226092197e-5
< 3  0  -3 >:  2.2858127226092197e-5
< 4  0  -4 >:  -2.2858127226092197e-5
ctilde_basis_func: rank=3 ndens=1 mu0=0 mu=( 0  0  0 )
n=( 1  1  4 )
l=( 3  3  2 )
num_ms=15
< -3  1  2 >:  0.00017976416611525565
< -3  2  1 >:  -0.00028423210330253524
< -3  3  0 >:  0.00028423210330253524
< -2  0  2 >:  -0.0002542249217488845
< -2  1  1 >:  0.00022016524050964508
< -2  3  -1 >:  -0.00028423210330253524
< -1  -1  2 >:  0.00013924472432184977
< -1  0  1 >:  -8.039297907045517e-5
< -1  1  0 >:  -0.00017053926198152118
< -1  2  -1 >:  0.00022016524050964508
< -1  3  -2 >:  0.00017976416611525567
< 0  0  0 >:  0.00011369284132101414
< 0  1  -1 >:  -8.039297907045517e-5
< 0  2  -2 >:  -0.0002542249217488845
< 1  1  -2 >:  0.00013924472432184977
ctilde_basis_func: rank=3 ndens=1 mu0=0 mu=( 0  0  0 )
n=( 1  2  3 )
l=( 3  3  2 )
num_ms=27
< -3  1  2 >:  -2.4256676391131665e-5
< -3  2  1 >:  3.8353172930804696e-5
< -3  3  0 >:  -3.8353172930804696e-5
< -2  0  2 >:  3.430412073043366e-5
< -2  1  1 >:  -2.9708240007043944e-5
< -2  3  -1 >:  3.8353172930804696e-5
< -1  -1  2 >:  -3.757828147887822e-5
< -1  0  1 >:  1.0847915463756933e-5
< -1  1  0 >:  2.301190375848282e-5
< -1  2  -1 >:  -2.9708240007043944e-5
< -1  3  -2 >:  -2.4256676391131665e-5
< 0  -2  2 >:  3.430412073043366e-5
< 0  -1  1 >:  1.0847915463756933e-5
< 0  0  0 >:  -3.068253834464377e-5
< 0  1  -1 >:  1.0847915463756933e-5
< 0  2  -2 >:  3.430412073043366e-5
< 1  -3  2 >:  -2.4256676391131648e-5
< 1  -2  1 >:  -2.9708240007043944e-5
< 1  -1  0 >:  2.301190375848282e-5
< 1  0  -1 >:  1.0847915463756933e-5
< 1  1  -2 >:  -3.757828147887822e-5
< 2  -3  1 >:  3.8353172930804696e-5
< 2  -1  -1 >:  -2.9708240007043944e-5
< 2  0  -2 >:  3.430412073043366e-5
< 3  -3  0 >:  -3.8353172930804696e-5
< 3  -2  -1 >:  3.8353172930804696e-5
< 3  -1  -2 >:  -2.4256676391131665e-5
ctilde_basis_func: rank=3 ndens=1 mu0=0 mu=( 0  0  0 )
n=( 2  6  6 )
l=( 1  0  1 )
num_ms=3
< -1  0  1 >:  -3.5558526407771744e-7
< 0  0  0 >:  3.5558526407771744e-7
< 1  0  -1 >:  -3.5558526407771744e-7
ctilde_basis_func: rank=3 ndens=1 mu0=0 mu=( 0  0  0 )
n=( 1  2  4 )
l=( 2  3  3 )
num_ms=27
< -2  -1  3 >:  -1.9223664415535206e-5
< -2  0  2 >:  2.7186366934958946e-5
< -2  1  1 >:  -2.9781172853779194e-5
< -2  2  0 >:  2.7186366934958946e-5
< -2  3  -1 >:  -1.9223664415535206e-5
< -1  -2  3 >:  3.0395282263910395e-5
< -1  -1  2 >:  -2.3544084402279728e-5
< -1  0  1 >:  8.597084081956096e-6
< -1  1  0 >:  8.597084081956096e-6
< -1  2  -1 >:  -2.3544084402279728e-5
< -1  3  -2 >:  3.0395282263910395e-5
< 0  -3  3 >:  -3.0395282263910412e-5
< 0  -1  1 >:  1.823716935834624e-5
< 0  0  0 >:  -2.431622581112832e-5
< 0  1  -1 >:  1.823716935834624e-5
< 0  3  -3 >:  -3.0395282263910395e-5
< 1  -3  2 >:  3.0395282263910395e-5
< 1  -2  1 >:  -2.3544084402279728e-5
< 1  -1  0 >:  8.597084081956096e-6
< 1  0  -1 >:  8.597084081956096e-6
< 1  1  -2 >:  -2.3544084402279728e-5
< 1  2  -3 >:  3.0395282263910395e-5
< 2  -3  1 >:  -1.9223664415535206e-5
< 2  -2  0 >:  2.7186366934958946e-5
< 2  -1  -1 >:  -2.9781172853779194e-5
< 2  0  -2 >:  2.7186366934958946e-5
< 2  1  -3 >:  -1.9223664415535206e-5
ctilde_basis_func: rank=3 ndens=1 mu0=0 mu=( 0  0  0 )
n=( 1  1  5 )
l=( 1  3  4 )
num_ms=21
< -1  -3  4 >:  6.7204424097831235e-6
< -1  -2  3 >:  -5.820073851542494e-6
< -1  -1  2 >:  4.918860178465323e-6
< -1  0  1 >:  -4.016232517778481e-6
< -1  1  0 >:  3.110960331170548e-6
< -1  2  -1 >:  -2.199781146173042e-6
< -1  3  -2 >:  1.2700442369012696e-6
< 0  -3  3 >:  -3.36022120489156e-6
< 0  -2  2 >:  4.399562292346084e-6
< 0  -1  1 >:  -4.918860178465323e-6
< 0  0  0 >:  5.080176947605078e-6
< 0  1  -1 >:  -4.918860178465323e-6
< 0  2  -2 >:  4.399562292346084e-6
< 0  3  -3 >:  -3.36022120489156e-6
< 1  -3  2 >:  1.2700442369012696e-6
< 1  -2  1 >:  -2.199781146173042e-6
< 1  -1  0 >:  3.110960331170548e-6
< 1  0  -1 >:  -4.016232517778481e-6
< 1  1  -2 >:  4.918860178465323e-6
< 1  2  -3 >:  -5.820073851542494e-6
< 1  3  -4 >:  6.72044240978312e-6
ctilde_basis_func: rank=3 ndens=1 mu0=0 mu=( 0  0  0 )
n=( 1  2  4 )
l=( 1  1  2 )
num_ms=9
< -1  -1  2 >:  3.1104267731518446e-5
< -1  0  1 >:  -2.1994038636798608e-5
< -1  1  0 >:  1.2698264127522706e-5
< 0  -1  1 >:  -2.1994038636798608e-5
< 0  0  0 >:  2.539652825504541e-5
< 0  1  -1 >:  -2.1994038636798608e-5
< 1  -1  0 >:  1.2698264127522706e-5
< 1  0  -1 >:  -2.1994038636798608e-5
< 1  1  -2 >:  3.110426773151845e-5
ctilde_basis_func: rank=3 ndens=1 mu0=0 mu=( 0  0  0 )
n=( 1  1  3 )
l=( 3  4  1 )
num_ms=21
< -3  2  1 >:  4.945006957914702e-6
< -3  3  0 >:  -1.3083258642126347e-5
< -3  4  -1 >:  2.6166517284252694e-5
< -2  1  1 >:  -8.565003294889875e-6
< -2  2  0 >:  1.713000658977975e-5
< -2  3  -1 >:  -2.266086869672743e-5
< -1  0  1 >:  1.211274382140351e-5
< -1  1  0 >:  -1.915192959488344e-5
< -1  2  -1 >:  1.915192959488344e-5
< 0  -1  1 >:  -1.563748503239086e-5
< 0  0  0 >:  1.978002783165881e-5
< 0  1  -1 >:  -1.563748503239086e-5
< 1  -2  1 >:  1.915192959488344e-5
< 1  -1  0 >:  -1.915192959488344e-5
< 1  0  -1 >:  1.211274382140351e-5
< 2  -3  1 >:  -2.266086869672743e-5
< 2  -2  0 >:  1.713000658977975e-5
< 2  -1  -1 >:  -8.565003294889875e-6
< 3  -4  1 >:  2.6166517284252704e-5
< 3  -3  0 >:  -1.3083258642126347e-5
< 3  -2  -1 >:  4.945006957914702e-6
ctilde_basis_func: rank=3 ndens=1 mu0=0 mu=( 0  0  0 )
n=( 1  2  4 )
l=( 2  2  4 )
num_ms=25
< -2  -2  4 >:  -4.153662237602309e-5
< -2  -1  3 >:  2.93708273496708e-5
< -2  0  2 >:  -1.922771993619224e-5
< -2  1  1 >:  1.1101129281063322e-5
< -2  2  0 >:  -4.9645759398941914e-6
< -1  -2  3 >:  2.93708273496708e-5
< -1  -1  2 >:  -3.1398735173873676e-5
< -1  0  1 >:  2.7192102307274604e-5
< -1  1  0 >:  -1.9858303759576766e-5
< -1  2  -1 >:  1.1101129281063322e-5
< 0  -2  2 >:  -1.922771993619224e-5
< 0  -1  1 >:  2.7192102307274604e-5
< 0  0  0 >:  -2.978745563936515e-5
< 0  1  -1 >:  2.7192102307274604e-5
< 0  2  -2 >:  -1.922771993619224e-5
< 1  -2  1 >:  1.1101129281063322e-5
< 1  -1  0 >:  -1.9858303759576766e-5
< 1  0  -1 >:  2.7192102307274604e-5
< 1  1  -2 >:  -3.1398735173873676e-5
< 1  2  -3 >:  2.93708273496708e-5
< 2  -2  0 >:  -4.9645759398941914e-6
< 2  -1  -1 >:  1.1101129281063322e-5
< 2  0  -2 >:  -1.922771993619224e-5
< 2  1  -3 >:  2.93708273496708e-5
< 2  2  -4 >:  -4.153662237602307e-5
ctilde_basis_func: rank=3 ndens=1 mu0=0 mu=( 0  0  0 )
n=( 2  2  3 )
l=( 2  2  4 )
num_ms=15
< -2  -2  4 >:  2.8562872289346483e-5
< -2  -1  3 >:  -4.039400137192444e-5
< -2  0  2 >:  2.64440812727134e-5
< -2  1  1 >:  -1.5267497441273423e-5
< -2  2  0 >:  6.827832424998295e-6
< -1  -1  2 >:  2.15915019449454e-5
< -1  0  1 >:  -3.739757838036766e-5
< -1  1  0 >:  2.731132969999318e-5
< -1  2  -1 >:  -1.5267497441273423e-5
< 0  0  0 >:  2.0483497274994884e-5
< 0  1  -1 >:  -3.739757838036766e-5
< 0  2  -2 >:  2.64440812727134e-5
< 1  1  -2 >:  2.15915019449454e-5
< 1  2  -3 >:  -4.039400137192444e-5
< 2  2  -4 >:  2.8562872289346472e-5
ctilde_basis_func: rank=3 ndens=1 mu0=0 mu=( 0  0  0 )
n=( 1  2  2 )
l=( 4  1  3 )
num_ms=21
< -4  1  3 >:  1.7578885750974174e-5
< -3  0  3 >:  -8.789442875487087e-6
< -3  1  2 >:  -1.5223761630567924e-5
< -2  -1  3 >:  3.322097144478189e-6
< -2  0  2 >:  1.1508082083831401e-5
< -2  1  1 >:  1.286642691504722e-5
< -1  -1  2 >:  -5.754041041915701e-6
< -1  0  1 >:  -1.286642691504722e-5
< -1  1  0 >:  -1.0505393584892524e-5
< 0  -1  1 >:  8.137442879928596e-6
< 0  0  0 >:  1.3288388577912738e-5
< 0  1  -1 >:  8.137442879928596e-6
< 1  -1  0 >:  -1.0505393584892524e-5
< 1  0  -1 >:  -1.286642691504722e-5
< 1  1  -2 >:  -5.754041041915701e-6
< 2  -1  -1 >:  1.286642691504722e-5
< 2  0  -2 >:  1.1508082083831401e-5
< 2  1  -3 >:  3.3220971444781846e-6
< 3  -1  -2 >:  -1.5223761630567924e-5
< 3  0  -3 >:  -8.789442875487087e-6
< 4  -1  -3 >:  1.7578885750974174e-5
ctilde_basis_func: rank=3 ndens=1 mu0=0 mu=( 0  0  0 )
n=( 3  4  5 )
l=( 0  0  0 )
num_ms=1
< 0  0  0 >:  -6.5102781817498805e-6
ctilde_basis_func: rank=3 ndens=1 mu0=0 mu=( 0  0  0 )
n=( 1  2  3 )
l=( 4  4  0 )
num_ms=9
< -4  4  0 >:  2.2096034374687138e-5
< -3  3  0 >:  -2.2096034374687138e-5
< -2  2  0 >:  2.2096034374687138e-5
< -1  1  0 >:  -2.2096034374687138e-5
< 0  0  0 >:  2.2096034374687138e-5
< 1  -1  0 >:  -2.2096034374687138e-5
< 2  -2  0 >:  2.2096034374687138e-5
< 3  -3  0 >:  -2.2096034374687138e-5
< 4  -4  0 >:  2.209603437468714e-5
ctilde_basis_func: rank=3 ndens=1 mu0=0 mu=( 0  0  0 )
n=( 1  1  2 )
l=( 2  4  4 )
num_ms=39
< -2  -2  4 >:  -3.47441677978111e-5
< -2  -1  3 >:  5.211625169671665e-5
< -2  0  2 >:  -6.229083503918788e-5
< -2  1  1 >:  6.566030535921918e-5
< -2  2  0 >:  -6.229083503918788e-5
< -2  3  -1 >:  5.211625169671665e-5
< -2  4  -2 >:  -3.47441677978111e-5
< -1  -3  4 >:  6.500038604399661e-5
< -1  -2  3 >:  -6.141959164128877e-5
< -1  -1  2 >:  4.178596245685495e-5
< -1  0  1 >:  -1.4682090620660782e-5
< -1  1  0 >:  -1.4682090620660782e-5
< -1  2  -1 >:  4.178596245685495e-5
< -1  3  -2 >:  -6.141959164128877e-5
< -1  4  -3 >:  6.500038604399661e-5
< 0  -4  4 >:  -7.505598075986199e-5
< 0  -3  3 >:  1.8763995189965517e-5
< 0  -2  2 >:  2.144456593138916e-5
< 0  -1  1 >:  -4.556970260420196e-5
< 0  0  0 >:  5.361141482847291e-5
< 0  1  -1 >:  -4.556970260420196e-5
< 0  2  -2 >:  2.144456593138916e-5
< 0  3  -3 >:  1.8763995189965517e-5
< 0  4  -4 >:  -7.505598075986207e-5
< 1  -4  3 >:  6.500038604399661e-5
< 1  -3  2 >:  -6.141959164128877e-5
< 1  -2  1 >:  4.178596245685495e-5
< 1  -1  0 >:  -1.4682090620660782e-5
< 1  0  -1 >:  -1.4682090620660782e-5
< 1  1  -2 >:  4.178596245685495e-5
< 1  2  -3 >:  -6.141959164128877e-5
< 1  3  -4 >:  6.500038604399661e-5
< 2  -4  2 >:  -3.47441677978111e-5
< 2  -3  1 >:  5.211625169671665e-5
< 2  -2  0 >:  -6.229083503918788e-5
< 2  -1  -1 >:  6.566030535921918e-5
< 2  0  -2 >:  -6.229083503918788e-5
< 2  1  -3 >:  5.211625169671665e-5
< 2  2  -4 >:  -3.47441677978111e-5
ctilde_basis_func: rank=3 ndens=1 mu0=0 mu=( 0  0  0 )
n=( 1  1  3 )
l=( 3  3  4 )
num_ms=24
< -3  -1  4 >:  4.785302259948514e-5
< -3  0  3 >:  -5.860774400930525e-5
< -3  1  2 >:  5.4260227406139145e-5
< -3  2  1 >:  -4.0443185651574746e-5
< -3  3  0 >:  2.215164507873676e-5
< -2  -2  4 >:  -3.08889932655822e-5
< -2  -1  3 >:  2.7627955479350006e-5
< -2  0  2 >:  1.2789258249201714e-5
< -2  1  1 >:  -4.176954253229967e-5
< -2  2  0 >:  5.1687171850385764e-5
< -2  3  -1 >:  -4.0443185651574746e-5
< -1  -1  2 >:  -2.3349884122822692e-5
< -1  0  1 >:  2.8597650827014983e-5
< -1  1  0 >:  7.383881692912251e-6
< -1  2  -1 >:  -4.176954253229967e-5
< -1  3  -2 >:  5.4260227406139145e-5
< 0  0  0 >:  -2.215164507873676e-5
< 0  1  -1 >:  2.8597650827014983e-5
< 0  2  -2 >:  1.2789258249201714e-5
< 0  3  -3 >:  -5.860774400930525e-5
< 1  1  -2 >:  -2.3349884122822692e-5
< 1  2  -3 >:  2.7627955479350006e-5
< 1  3  -4 >:  4.785302259948517e-5
< 2  2  -4 >:  -3.08889932655822e-5
ctilde_basis_func: rank=3 ndens=1 mu0=0 mu=( 0  0  0 )
n=( 1  4  5 )
l=( 3  3  0 )
num_ms=7
< -3  3  0 >:  -5.394880199448478e-6
< -2  2  0 >:  5.394880199448478e-6
< -1  1  0 >:  -5.394880199448478e-6
< 0  0  0 >:  5.394880199448478e-6
< 1  -1  0 >:  -5.394880199448478e-6
< 2  -2  0 >:  5.394880199448478e-6
< 3  -3  0 >:  -5.394880199448478e-6
ctilde_basis_func: rank=3 ndens=1 mu0=0 mu=( 0  0  0 )
n=( 1  2  8 )
l=( 2  1  1 )
num_ms=9
< -2  1  1 >:  1.3247587099885872e-5
< -1  0  1 >:  -9.36745867268873e-6
< -1  1  0 >:  -9.36745867268873e-6
< 0  -1  1 >:  5.408304786299526e-6
< 0  0  0 >:  1.0816609572599065e-5
< 0  1  -1 >:  5.408304786299533e-6
< 1  -1  0 >:  -9.36745867268873e-6
< 1  0  -1 >:  -9.36745867268873e-6
< 2  -1  -1 >:  1.3247587099885872e-5
ctilde_basis_func: rank=3 ndens=1 mu0=0 mu=( 0  0  0 )
n=( 1  5  6 )
l=( 1  2  1 )
num_ms=9
< -1  0  1 >:  -3.889260457199287e-6
< -1  1  0 >:  6.736396715737724e-6
< -1  2  -1 >:  -9.526703596921868e-6
< 0  -1  1 >:  6.736396715737724e-6
< 0  0  0 >:  -7.778520914398573e-6
< 0  1  -1 >:  6.736396715737724e-6
< 1  -2  1 >:  -9.526703596921865e-6
< 1  -1  0 >:  6.736396715737724e-6
< 1  0  -1 >:  -3.889260457199287e-6
ctilde_basis_func: rank=3 ndens=1 mu0=0 mu=( 0  0  0 )
n=( 2  4  4 )
l=( 0  1  1 )
num_ms=2
< 0  -1  1 >:  -3.134423958289974e-5
< 0  0  0 >:  1.5672119791449867e-5
ctilde_basis_func: rank=3 ndens=1 mu0=0 mu=( 0  0  0 )
n=( 1  2  3 )
l=( 1  2  3 )
num_ms=15
< -1  -2  3 >:  -6.082518432758988e-5
< -1  -1  2 >:  4.966355503777584e-5
< -1  0  1 >:  -3.846922431495225e-5
< -1  1  0 >:  2.720184938008916e-5
< -1  2  -1 >:  -1.5704995062050126e-5
< 0  -2  2 >:  3.5117436545042624e-5
< 0  -1  1 >:  -4.442043402750756e-5
< 0  0  0 >:  4.711498518615039e-5
< 0  1  -1 >:  -4.442043402750756e-5
< 0  2  -2 >:  3.5117436545042624e-5
< 1  -2  1 >:  -1.5704995062050126e-5
< 1  -1  0 >:  2.720184938008916e-5
< 1  0  -1 >:  -3.846922431495225e-5
< 1  1  -2 >:  4.966355503777584e-5
< 1  2  -3 >:  -6.082518432758987e-5
ctilde_basis_func: rank=3 ndens=1 mu0=0 mu=( 0  0  0 )
n=( 2  4  4 )
l=( 1  0  1 )
num_ms=3
< -1  0  1 >:  2.819474351202068e-6
< 0  0  0 >:  -2.819474351202068e-6
< 1  0  -1 >:  2.819474351202068e-6
ctilde_basis_func: rank=3 ndens=1 mu0=0 mu=( 0  0  0 )
n=( 1  2  3 )
l=( 3  2  3 )
num_ms=27
< -3  0  3 >:  2.465601332991354e-5
< -3  1  2 >:  -2.465601332991354e-5
< -3  2  1 >:  1.5593832028399877e-5
< -2  -1  3 >:  -2.465601332991354e-5
< -2  1  1 >:  1.9098465802124644e-5
< -2  2  0 >:  -2.205300874393105e-5
< -1  -2  3 >:  1.5593832028399884e-5
< -1  -1  2 >:  1.9098465802124644e-5
< -1  0  1 >:  -1.4793607997948127e-5
< -1  1  0 >:  -6.9737736890431095e-6
< -1  2  -1 >:  2.4157860699819412e-5
< 0  -2  2 >:  -2.205300874393105e-5
< 0  -1  1 >:  -6.9737736890431095e-6
< 0  0  0 >:  1.972481066393084e-5
< 0  1  -1 >:  -6.9737736890431095e-6
< 0  2  -2 >:  -2.205300874393105e-5
< 1  -2  1 >:  2.4157860699819412e-5
< 1  -1  0 >:  -6.9737736890431095e-6
< 1  0  -1 >:  -1.4793607997948127e-5
< 1  1  -2 >:  1.9098465802124644e-5
< 1  2  -3 >:  1.5593832028399877e-5
< 2  -2  0 >:  -2.205300874393105e-5
< 2  -1  -1 >:  1.9098465802124644e-5
< 2  1  -3 >:  -2.465601332991354e-5
< 3  -2  -1 >:  1.5593832028399877e-5
< 3  -1  -2 >:  -2.465601332991354e-5
< 3  0  -3 >:  2.465601332991354e-5
ctilde_basis_func: rank=3 ndens=1 mu0=0 mu=( 0  0  0 )
n=( 1  2  8 )
l=( 0  2  2 )
num_ms=5
< 0  -2  2 >:  6.788623128653221e-7
< 0  -1  1 >:  -6.788623128653219e-7
< 0  0  0 >:  6.788623128653219e-7
< 0  1  -1 >:  -6.788623128653219e-7
< 0  2  -2 >:  6.788623128653219e-7
ctilde_basis_func: rank=3 ndens=1 mu0=0 mu=( 0  0  0 )
n=( 1  2  3 )
l=( 3  1  4 )
num_ms=21
< -3  -1  4 >:  -6.227839680222095e-5
< -3  0  3 >:  3.1139198401110456e-5
< -3  1  2 >:  -1.1769510713605489e-5
< -2  -1  3 >:  5.393467373769086e-5
< -2  0  2 >:  -4.0770781072381866e-5
< -2  1  1 >:  2.0385390536190933e-5
< -1  -1  2 >:  -4.558311898680382e-5
< -1  0  1 >:  4.558311898680382e-5
< -1  1  0 >:  -2.8829295770553365e-5
< 0  -1  1 >:  3.721846080074703e-5
< 0  0  0 >:  -4.7078042854421955e-5
< 0  1  -1 >:  3.721846080074703e-5
< 1  -1  0 >:  -2.8829295770553365e-5
< 1  0  -1 >:  4.558311898680382e-5
< 1  1  -2 >:  -4.558311898680382e-5
< 2  -1  -1 >:  2.0385390536190933e-5
< 2  0  -2 >:  -4.0770781072381866e-5
< 2  1  -3 >:  5.393467373769086e-5
< 3  -1  -2 >:  -1.1769510713605489e-5
< 3  0  -3 >:  3.1139198401110456e-5
< 3  1  -4 >:  -6.227839680222091e-5
ctilde_basis_func: rank=3 ndens=1 mu0=0 mu=( 0  0  0 )
n=( 1  1  2 )
l=( 4  5  1 )
num_ms=27
< -4  3  1 >:  3.0550831860377213e-6
< -4  4  0 >:  -9.16524955811316e-6
< -4  5  -1 >:  2.0494121042690943e-5
< -3  2  1 >:  -5.291559299566734e-6
< -3  3  0 >:  1.2220332744150885e-5
< -3  4  -1 >:  -1.833049911622632e-5
< -2  1  1 >:  7.4833949275487496e-6
< -2  2  0 >:  -1.400014995440471e-5
< -2  3  -1 >:  1.6165980689741375e-5
< -1  0  1 >:  -9.661021309163123e-6
< -1  1  0 >:  1.4966789855097499e-5
< -1  2  -1 >:  -1.400014995440471e-5
< 0  -1  1 >:  1.183228630080239e-5
< 0  0  0 >:  -1.52754159301886e-5
< 0  1  -1 >:  1.183228630080239e-5
< 1  -2  1 >:  -1.400014995440471e-5
< 1  -1  0 >:  1.4966789855097499e-5
< 1  0  -1 >:  -9.661021309163123e-6
< 2  -3  1 >:  1.6165980689741375e-5
< 2  -2  0 >:  -1.400014995440471e-5
< 2  -1  -1 >:  7.4833949275487496e-6
< 3  -4  1 >:  -1.833049911622632e-5
< 3  -3  0 >:  1.2220332744150885e-5
< 3  -2  -1 >:  -5.291559299566734e-6
< 4  -5  1 >:  2.0494121042690933e-5
< 4  -4  0 >:  -9.16524955811316e-6
< 4  -3  -1 >:  3.0550831860377213e-6
ctilde_basis_func: rank=3 ndens=1 mu0=0 mu=( 0  0  0 )
n=( 1  1  1 )
l=( 2  2  2 )
num_ms=5
< -2  0  2 >:  0.00018442844048800264
< -2  1  1 >:  -0.00011293889331321509
< -1  -1  2 >:  -0.00011293889331321509
< -1  0  1 >:  9.221422024400132e-5
< 0  0  0 >:  -3.07380734146671e-5
ctilde_basis_func: rank=3 ndens=1 mu0=0 mu=( 0  0  0 )
n=( 1  4  4 )
l=( 1  2  3 )
num_ms=15
< -1  -2  3 >:  1.0302081623449924e-5
< -1  -1  2 >:  -8.411614421985219e-6
< -1  0  1 >:  6.515608514213375e-6
< -1  1  0 >:  -4.607230963957084e-6
< -1  2  -1 >:  2.6599860372594013e-6
< 0  -2  2 >:  -5.947909598512311e-6
< 0  -1  1 >:  7.52357665923062e-6
< 0  0  0 >:  -7.979958111778205e-6
< 0  1  -1 >:  7.52357665923062e-6
< 0  2  -2 >:  -5.947909598512311e-6
< 1  -2  1 >:  2.6599860372594013e-6
< 1  -1  0 >:  -4.607230963957084e-6
< 1  0  -1 >:  6.515608514213375e-6
< 1  1  -2 >:  -8.411614421985219e-6
< 1  2  -3 >:  1.0302081623449923e-5
ctilde_basis_func: rank=3 ndens=1 mu0=0 mu=( 0  0  0 )
n=( 1  1  7 )
l=( 1  2  3 )
num_ms=15
< -1  -2  3 >:  8.634873847141681e-6
< -1  -1  2 >:  -7.050344972933422e-6
< -1  0  1 >:  5.461173733037664e-6
< -1  1  0 >:  -3.861632979868785e-6
< -1  2  -1 >:  2.2295148404387796e-6
< 0  -2  2 >:  -4.9853467400657095e-6
< 0  -1  1 >:  6.306020249721218e-6
< 0  0  0 >:  -6.688544521316339e-6
< 0  1  -1 >:  6.306020249721218e-6
< 0  2  -2 >:  -4.9853467400657095e-6
< 1  -2  1 >:  2.2295148404387796e-6
< 1  -1  0 >:  -3.861632979868785e-6
< 1  0  -1 >:  5.461173733037664e-6
< 1  1  -2 >:  -7.050344972933422e-6
< 1  2  -3 >:  8.63487384714168e-6
ctilde_basis_func: rank=3 ndens=1 mu0=0 mu=( 0  0  0 )
n=( 1  2  6 )
l=( 2  0  2 )
num_ms=5
< -2  0  2 >:  2.0160368257609784e-5
< -1  0  1 >:  -2.0160368257609784e-5
< 0  0  0 >:  2.0160368257609784e-5
< 1  0  -1 >:  -2.0160368257609784e-5
< 2  0  -2 >:  2.0160368257609784e-5
ctilde_basis_func: rank=3 ndens=1 mu0=0 mu=( 0  0  0 )
n=( 2  2  4 )
l=( 2  2  2 )
num_ms=11
< -2  0  2 >:  1.4644776372805797e-5
< -2  1  1 >:  -1.7936114755270623e-5
< -2  2  0 >:  1.4644776372805802e-5
< -1  -1  2 >:  -8.968057377635312e-6
< -1  0  1 >:  7.322388186402901e-6
< -1  1  0 >:  7.322388186402901e-6
< -1  2  -1 >:  -1.7936114755270623e-5
< 0  0  0 >:  -7.322388186402901e-6
< 0  1  -1 >:  7.322388186402901e-6
< 0  2  -2 >:  1.4644776372805802e-5
< 1  1  -2 >:  -8.968057377635312e-6
ctilde_basis_func: rank=3 ndens=1 mu0=0 mu=( 0  0  0 )
n=( 1  2  7 )
l=( 2  1  3 )
num_ms=15
< -2  -1  3 >:  1.650774208602496e-5
< -2  0  2 >:  -9.530749337079422e-6
< -2  1  1 >:  4.262280678844129e-6
< -1  -1  2 >:  -1.3478514972076103e-5
< -1  0  1 >:  1.2055550285324341e-5
< -1  1  0 >:  -7.382486691877196e-6
< 0  -1  1 >:  1.0440412803691617e-5
< 0  0  0 >:  -1.2786842036532386e-5
< 0  1  -1 >:  1.0440412803691617e-5
< 1  -1  0 >:  -7.382486691877196e-6
< 1  0  -1 >:  1.2055550285324341e-5
< 1  1  -2 >:  -1.3478514972076103e-5
< 2  -1  -1 >:  4.262280678844129e-6
< 2  0  -2 >:  -9.530749337079422e-6
< 2  1  -3 >:  1.6507742086024954e-5
ctilde_basis_func: rank=3 ndens=1 mu0=0 mu=( 0  0  0 )
n=( 2  2  11 )
l=( 0  1  1 )
num_ms=3
< 0  -1  1 >:  2.2415825680604474e-6
< 0  0  0 >:  -2.2415825680604465e-6
< 0  1  -1 >:  2.2415825680604465e-6
ctilde_basis_func: rank=3 ndens=1 mu0=0 mu=( 0  0  0 )
n=( 1  2  3 )
l=( 1  1  2 )
num_ms=9
< -1  -1  2 >:  2.078096522098568e-5
< -1  0  1 >:  -1.4694361427360776e-5
< -1  1  0 >:  8.483793525656396e-6
< 0  -1  1 >:  -1.4694361427360776e-5
< 0  0  0 >:  1.6967587051312793e-5
< 0  1  -1 >:  -1.4694361427360776e-5
< 1  -1  0 >:  8.483793525656396e-6
< 1  0  -1 >:  -1.4694361427360776e-5
< 1  1  -2 >:  2.0780965220985682e-5
ctilde_basis_func: rank=3 ndens=1 mu0=0 mu=( 0  0  0 )
n=( 1  1  3 )
l=( 2  3  1 )
num_ms=15
< -2  1  1 >:  -1.093593072552999e-5
< -2  2  0 >:  2.4453484499513654e-5
< -2  3  -1 >:  -4.235467757525564e-5
< -1  0  1 >:  1.8941587644671517e-5
< -1  1  0 >:  -3.093148309843431e-5
< -1  2  -1 >:  3.458244942649247e-5
< 0  -1  1 >:  -2.6787450139973113e-5
< 0  0  0 >:  3.2807792176589963e-5
< 0  1  -1 >:  -2.6787450139973113e-5
< 1  -2  1 >:  3.458244942649247e-5
< 1  -1  0 >:  -3.093148309843431e-5
< 1  0  -1 >:  1.8941587644671517e-5
< 2  -3  1 >:  -4.235467757525566e-5
< 2  -2  0 >:  2.4453484499513654e-5
< 2  -1  -1 >:  -1.093593072552999e-5
ctilde_basis_func: rank=3 ndens=1 mu0=0 mu=( 0  0  0 )
n=( 1  3  6 )
l=( 2  3  1 )
num_ms=15
< -2  1  1 >:  -3.184068829337277e-6
< -2  2  0 >:  7.119794347436329e-6
< -2  3  -1 >:  -1.233184554920142e-5
< -1  0  1 >:  5.51496898720852e-6
< -1  1  0 >:  -9.005906643956401e-6
< -1  2  -1 >:  1.0068909727451755e-5
< 0  -1  1 >:  -7.7993439377773e-6
< 0  0  0 >:  9.55220648801183e-6
< 0  1  -1 >:  -7.7993439377773e-6
< 1  -2  1 >:  1.0068909727451755e-5
< 1  -1  0 >:  -9.005906643956401e-6
< 1  0  -1 >:  5.51496898720852e-6
< 2  -3  1 >:  -1.2331845549201422e-5
< 2  -2  0 >:  7.119794347436329e-6
< 2  -1  -1 >:  -3.184068829337277e-6
ctilde_basis_func: rank=3 ndens=1 mu0=0 mu=( 0  0  0 )
n=( 1  1  4 )
l=( 2  3  3 )
num_ms=27
< -2  -1  3 >:  -8.143512630311079e-5
< -2  0  2 >:  0.00011516666007142525
< -2  1  1 >:  -0.00012615875518729827
< -2  2  0 >:  0.00011516666007142525
< -2  3  -1 >:  -8.143512630311079e-5
< -1  -2  3 >:  0.0001287602403306588
< -1  -1  2 >:  -9.973725329086124e-5
< -1  0  1 >:  3.641889563400738e-5
< -1  1  0 >:  3.641889563400738e-5
< -1  2  -1 >:  -9.973725329086124e-5
< -1  3  -2 >:  0.0001287602403306588
< 0  -3  3 >:  -0.00012876024033065886
< 0  -1  1 >:  7.725614419839528e-5
< 0  0  0 >:  -0.00010300819226452705
< 0  1  -1 >:  7.725614419839528e-5
< 0  3  -3 >:  -0.0001287602403306588
< 1  -3  2 >:  0.0001287602403306588
< 1  -2  1 >:  -9.973725329086124e-5
< 1  -1  0 >:  3.641889563400738e-5
< 1  0  -1 >:  3.641889563400738e-5
< 1  1  -2 >:  -9.973725329086124e-5
< 1  2  -3 >:  0.0001287602403306588
< 2  -3  1 >:  -8.143512630311079e-5
< 2  -2  0 >:  0.00011516666007142525
< 2  -1  -1 >:  -0.00012615875518729827
< 2  0  -2 >:  0.00011516666007142525
< 2  1  -3 >:  -8.143512630311079e-5
ctilde_basis_func: rank=3 ndens=1 mu0=0 mu=( 0  0  0 )
n=( 1  3  3 )
l=( 2  2  4 )
num_ms=25
< -2  -2  4 >:  -1.0209851575488128e-5
< -2  -1  3 >:  7.2194552839358085e-6
< -2  0  2 >:  -4.726242902140678e-6
< -2  1  1 >:  2.728697611806479e-6
< -2  2  0 >:  -1.2203106700081238e-6
< -1  -2  3 >:  7.2194552839358085e-6
< -1  -1  2 >:  -7.717922340463595e-6
< -1  0  1 >:  6.683916811276924e-6
< -1  1  0 >:  -4.881242680032495e-6
< -1  2  -1 >:  2.728697611806479e-6
< 0  -2  2 >:  -4.726242902140678e-6
< 0  -1  1 >:  6.683916811276924e-6
< 0  0  0 >:  -7.321864020048743e-6
< 0  1  -1 >:  6.683916811276924e-6
< 0  2  -2 >:  -4.726242902140678e-6
< 1  -2  1 >:  2.728697611806479e-6
< 1  -1  0 >:  -4.881242680032495e-6
< 1  0  -1 >:  6.683916811276924e-6
< 1  1  -2 >:  -7.717922340463595e-6
< 1  2  -3 >:  7.2194552839358085e-6
< 2  -2  0 >:  -1.2203106700081238e-6
< 2  -1  -1 >:  2.728697611806479e-6
< 2  0  -2 >:  -4.726242902140678e-6
< 2  1  -3 >:  7.2194552839358085e-6
< 2  2  -4 >:  -1.0209851575488123e-5
ctilde_basis_func: rank=3 ndens=1 mu0=0 mu=( 0  0  0 )
n=( 1  1  1 )
l=( 1  4  5 )
num_ms=27
< -1  -4  5 >:  6.0625034457218345e-5
< -1  -3  4 >:  -5.4224679273842965e-5
< -1  -2  3 >:  4.7821672093609e-5
< -1  -1  2 >:  -4.141478288451475e-5
< -1  0  1 >:  3.500187996350538e-5
< -1  1  0 >:  -2.8578915316244832e-5
< -1  2  -1 >:  2.2137132614497662e-5
< -1  3  -2 >:  -1.5653316587737184e-5
< -1  4  -3 >:  9.037446545640495e-6
< 0  -4  4 >:  -2.7112339636921483e-5
< 0  -3  3 >:  3.614978618256198e-5
< 0  -2  2 >:  -4.141478288451475e-5
< 0  -1  1 >:  4.4274265228995325e-5
< 0  0  0 >:  -4.518723272820248e-5
< 0  1  -1 >:  4.4274265228995325e-5
< 0  2  -2 >:  -4.141478288451475e-5
< 0  3  -3 >:  3.614978618256198e-5
< 0  4  -4 >:  -2.7112339636921483e-5
< 1  -4  3 >:  9.037446545640495e-6
< 1  -3  2 >:  -1.5653316587737184e-5
< 1  -2  1 >:  2.2137132614497662e-5
< 1  -1  0 >:  -2.8578915316244832e-5
< 1  0  -1 >:  3.500187996350538e-5
< 1  1  -2 >:  -4.141478288451475e-5
< 1  2  -3 >:  4.7821672093609e-5
< 1  3  -4 >:  -5.4224679273842965e-5
< 1  4  -5 >:  6.0625034457218406e-5
ctilde_basis_func: rank=3 ndens=1 mu0=0 mu=( 0  0  0 )
n=( 1  3  4 )
l=( 0  3  3 )
num_ms=7
< 0  -3  3 >:  3.6579625914654115e-5
< 0  -2  2 >:  -3.6579625914654115e-5
< 0  -1  1 >:  3.6579625914654115e-5
< 0  0  0 >:  -3.6579625914654115e-5
< 0  1  -1 >:  3.6579625914654115e-5
< 0  2  -2 >:  -3.6579625914654115e-5
< 0  3  -3 >:  3.6579625914654115e-5
ctilde_basis_func: rank=3 ndens=1 mu0=0 mu=( 0  0  0 )
n=( 2  2  2 )
l=( 0  2  2 )
num_ms=3
< 0  -2  2 >:  -0.00011780456613034243
< 0  -1  1 >:  0.00011780456613034243
< 0  0  0 >:  -5.890228306517122e-5
ctilde_basis_func: rank=3 ndens=1 mu0=0 mu=( 0  0  0 )
n=( 2  2  4 )
l=( 1  3  2 )
num_ms=15
< -1  -1  2 >:  -5.5549384422047154e-6
< -1  0  1 >:  9.62143561481608e-6
< -1  1  0 >:  -1.3606764735972416e-5
< -1  2  -1 >:  1.7566257739394508e-5
< -1  3  -2 >:  -2.1514184075866235e-5
< 0  -2  2 >:  1.2421219967596531e-5
< 0  -1  1 >:  -1.5711738566227164e-5
< 0  0  0 >:  1.6664815326614147e-5
< 0  1  -1 >:  -1.5711738566227164e-5
< 0  2  -2 >:  1.2421219967596531e-5
< 1  -3  2 >:  -2.151418407586624e-5
< 1  -2  1 >:  1.7566257739394508e-5
< 1  -1  0 >:  -1.3606764735972416e-5
< 1  0  -1 >:  9.62143561481608e-6
< 1  1  -2 >:  -5.5549384422047154e-6
ctilde_basis_func: rank=3 ndens=1 mu0=0 mu=( 0  0  0 )
n=( 1  3  8 )
l=( 2  1  1 )
num_ms=9
< -2  1  1 >:  -4.2911103099620705e-6
< -1  0  1 >:  3.0342731989936873e-6
< -1  1  0 >:  3.0342731989936873e-6
< 0  -1  1 >:  -1.7518384482338705e-6
< 0  0  0 >:  -3.503676896467745e-6
< 0  1  -1 >:  -1.7518384482338726e-6
< 1  -1  0 >:  3.0342731989936873e-6
< 1  0  -1 >:  3.0342731989936873e-6
< 2  -1  -1 >:  -4.2911103099620705e-6
ctilde_basis_func: rank=3 ndens=1 mu0=0 mu=( 0  0  0 )
n=( 2  3  4 )
l=( 3  3  0 )
num_ms=7
< -3  3  0 >:  2.666421926087388e-5
< -2  2  0 >:  -2.666421926087388e-5
< -1  1  0 >:  2.666421926087388e-5
< 0  0  0 >:  -2.666421926087388e-5
< 1  -1  0 >:  2.666421926087388e-5
< 2  -2  0 >:  -2.666421926087388e-5
< 3  -3  0 >:  2.666421926087388e-5
ctilde_basis_func: rank=3 ndens=1 mu0=0 mu=( 0  0  0 )
n=( 1  4  4 )
l=( 2  1  3 )
num_ms=15
< -2  -1  3 >:  -8.224322510512538e-6
< -2  0  2 >:  4.748314815346712e-6
< -2  1  1 >:  -2.1235109411369215e-6
< -1  -1  2 >:  6.715131210280417e-6
< -1  0  1 >:  -6.006195945606979e-6
< -1  1  0 >:  3.6780288404775514e-6
< 0  -1  1 >:  -5.201518269002742e-6
< 0  0  0 >:  6.370532823410764e-6
< 0  1  -1 >:  -5.201518269002742e-6
< 1  -1  0 >:  3.6780288404775514e-6
< 1  0  -1 >:  -6.006195945606979e-6
< 1  1  -2 >:  6.715131210280417e-6
< 2  -1  -1 >:  -2.1235109411369215e-6
< 2  0  -2 >:  4.748314815346712e-6
< 2  1  -3 >:  -8.224322510512534e-6
ctilde_basis_func: rank=3 ndens=1 mu0=0 mu=( 0  0  0 )
n=( 1  1  6 )
l=( 1  3  2 )
num_ms=15
< -1  -1  2 >:  1.7032870813078443e-6
< -1  0  1 >:  -2.950179764700888e-6
< -1  1  0 >:  4.172184234678661e-6
< -1  2  -1 >:  -5.386266686073198e-6
< -1  3  -2 >:  6.596802499715519e-6
< 0  -2  2 >:  -3.8086656990015516e-6
< 0  -1  1 >:  4.817623382000876e-6
< 0  0  0 >:  -5.109861243923533e-6
< 0  1  -1 >:  4.817623382000876e-6
< 0  2  -2 >:  -3.8086656990015516e-6
< 1  -3  2 >:  6.596802499715521e-6
< 1  -2  1 >:  -5.386266686073198e-6
< 1  -1  0 >:  4.172184234678661e-6
< 1  0  -1 >:  -2.950179764700888e-6
< 1  1  -2 >:  1.7032870813078443e-6
ctilde_basis_func: rank=3 ndens=1 mu0=0 mu=( 0  0  0 )
n=( 1  2  4 )
l=( 2  4  2 )
num_ms=25
< -2  0  2 >:  -2.841859338756195e-6
< -2  1  1 >:  6.354590663951455e-6
< -2  2  0 >:  -1.1006473891266768e-5
< -2  3  -1 >:  1.6812666580428368e-5
< -2  4  -2 >:  -2.3776701097698686e-5
< -1  -1  2 >:  6.354590663951455e-6
< -1  0  1 >:  -1.136743735502478e-5
< -1  1  0 >:  1.5565504650934835e-5
< -1  2  -1 >:  -1.7973496600579196e-5
< -1  3  -2 >:  1.6812666580428368e-5
< 0  -2  2 >:  -1.1006473891266768e-5
< 0  -1  1 >:  1.5565504650934835e-5
< 0  0  0 >:  -1.705115603253717e-5
< 0  1  -1 >:  1.5565504650934835e-5
< 0  2  -2 >:  -1.1006473891266768e-5
< 1  -3  2 >:  1.6812666580428368e-5
< 1  -2  1 >:  -1.7973496600579196e-5
< 1  -1  0 >:  1.5565504650934835e-5
< 1  0  -1 >:  -1.136743735502478e-5
< 1  1  -2 >:  6.354590663951455e-6
< 2  -4  2 >:  -2.37767010976987e-5
< 2  -3  1 >:  1.6812666580428368e-5
< 2  -2  0 >:  -1.1006473891266768e-5
< 2  -1  -1 >:  6.354590663951455e-6
< 2  0  -2 >:  -2.841859338756195e-6
ctilde_basis_func: rank=3 ndens=1 mu0=0 mu=( 0  0  0 )
n=( 1  1  3 )
l=( 2  5  3 )
num_ms=35
< -2  -1  3 >:  9.251320109264246e-7
< -2  0  2 >:  -2.0686580645925636e-6
< -2  1  1 >:  3.583020871361421e-6
< -2  2  0 >:  -5.473154786540115e-6
< -2  3  -1 >:  7.740209728092253e-6
< -2  4  -2 >:  -1.0384581067271663e-5
< -2  5  -3 >:  1.3406436510294663e-5
< -1  -2  3 >:  -2.4476692308164096e-6
< -1  -1  2 >:  4.532202742969305e-6
< -1  0  1 >:  -6.541671184188221e-6
< -1  1  0 >:  8.274632258370254e-6
< -1  2  -1 >:  -9.479782167976272e-6
< -1  3  -2 >:  9.790676923265638e-6
< -1  4  -3 >:  -8.478974935794111e-6
< 0  -3  3 >:  4.895338461632819e-6
< 0  -2  2 >:  -7.3430076924492275e-6
< 0  -1  1 >:  8.776572872577847e-6
< 0  0  0 >:  -9.251320109264247e-6
< 0  1  -1 >:  8.776572872577847e-6
< 0  2  -2 >:  -7.3430076924492275e-6
< 0  3  -3 >:  4.895338461632819e-6
< 1  -4  3 >:  -8.478974935794111e-6
< 1  -3  2 >:  9.790676923265638e-6
< 1  -2  1 >:  -9.479782167976272e-6
< 1  -1  0 >:  8.274632258370254e-6
< 1  0  -1 >:  -6.541671184188221e-6
< 1  1  -2 >:  4.532202742969305e-6
< 1  2  -3 >:  -2.4476692308164096e-6
< 2  -5  3 >:  1.3406436510294672e-5
< 2  -4  2 >:  -1.0384581067271663e-5
< 2  -3  1 >:  7.740209728092253e-6
< 2  -2  0 >:  -5.473154786540115e-6
< 2  -1  -1 >:  3.583020871361421e-6
< 2  0  -2 >:  -2.0686580645925636e-6
< 2  1  -3 >:  9.251320109264246e-7
ctilde_basis_func: rank=3 ndens=1 mu0=0 mu=( 0  0  0 )
n=( 1  1  2 )
l=( 2  2  2 )
num_ms=11
< -2  0  2 >:  4.380412768325941e-5
< -2  1  1 >:  -5.364888072585432e-5
< -2  2  0 >:  4.380412768325942e-5
< -1  -1  2 >:  -2.682444036292716e-5
< -1  0  1 >:  2.190206384162971e-5
< -1  1  0 >:  2.190206384162971e-5
< -1  2  -1 >:  -5.364888072585432e-5
< 0  0  0 >:  -2.190206384162971e-5
< 0  1  -1 >:  2.190206384162971e-5
< 0  2  -2 >:  4.380412768325942e-5
< 1  1  -2 >:  -2.682444036292716e-5
ctilde_basis_func: rank=3 ndens=1 mu0=0 mu=( 0  0  0 )
n=( 1  3  3 )
l=( 1  0  1 )
num_ms=3
< -1  0  1 >:  7.784555211137826e-6
< 0  0  0 >:  -7.784555211137826e-6
< 1  0  -1 >:  7.784555211137826e-6
ctilde_basis_func: rank=3 ndens=1 mu0=0 mu=( 0  0  0 )
n=( 1  2  2 )
l=( 2  2  4 )
num_ms=25
< -2  -2  4 >:  9.674141166698693e-6
< -2  -1  3 >:  -6.840650821128581e-6
< -2  0  2 >:  4.4782571700833635e-6
< -2  1  1 >:  -2.5855229826480016e-6
< -2  2  0 >:  1.1562810293177883e-6
< -1  -2  3 >:  -6.840650821128581e-6
< -1  -1  2 >:  7.312963335776281e-6
< -1  0  1 >:  -6.333212025726448e-6
< -1  1  0 >:  4.625124117271153e-6
< -1  2  -1 >:  -2.5855229826480016e-6
< 0  -2  2 >:  4.4782571700833635e-6
< 0  -1  1 >:  -6.333212025726448e-6
< 0  0  0 >:  6.937686175906729e-6
< 0  1  -1 >:  -6.333212025726448e-6
< 0  2  -2 >:  4.4782571700833635e-6
< 1  -2  1 >:  -2.5855229826480016e-6
< 1  -1  0 >:  4.625124117271153e-6
< 1  0  -1 >:  -6.333212025726448e-6
< 1  1  -2 >:  7.312963335776281e-6
< 1  2  -3 >:  -6.840650821128581e-6
< 2  -2  0 >:  1.1562810293177883e-6
< 2  -1  -1 >:  -2.5855229826480016e-6
< 2  0  -2 >:  4.4782571700833635e-6
< 2  1  -3 >:  -6.840650821128581e-6
< 2  2  -4 >:  9.674141166698688e-6
ctilde_basis_func: rank=3 ndens=1 mu0=0 mu=( 0  0  0 )
n=( 1  1  3 )
l=( 2  4  4 )
num_ms=39
< -2  -2  4 >:  -2.4225833453869992e-5
< -2  -1  3 >:  3.633875018080499e-5
< -2  0  2 >:  -4.343311384355349e-5
< -2  1  1 >:  4.578252187300639e-5
< -2  2  0 >:  -4.343311384355349e-5
< -2  3  -1 >:  3.633875018080499e-5
< -2  4  -2 >:  -2.4225833453869992e-5
< -1  -3  4 >:  4.5322384346713965e-5
< -1  -2  3 >:  -4.282562778781848e-5
< -1  -1  2 >:  2.9135818508601823e-5
< -1  0  1 >:  -1.0237283108941328e-5
< -1  1  0 >:  -1.0237283108941328e-5
< -1  2  -1 >:  2.9135818508601823e-5
< -1  3  -2 >:  -4.282562778781848e-5
< -1  4  -3 >:  4.5322384346713965e-5
< 0  -4  4 >:  -5.233378160578192e-5
< 0  -3  3 >:  1.3083445401445493e-5
< 0  -2  2 >:  1.4952509030223419e-5
< 0  -1  1 >:  -3.177408168922476e-5
< 0  0  0 >:  3.7381272575558546e-5
< 0  1  -1 >:  -3.177408168922476e-5
< 0  2  -2 >:  1.4952509030223419e-5
< 0  3  -3 >:  1.3083445401445493e-5
< 0  4  -4 >:  -5.233378160578197e-5
< 1  -4  3 >:  4.5322384346713965e-5
< 1  -3  2 >:  -4.282562778781848e-5
< 1  -2  1 >:  2.9135818508601823e-5
< 1  -1  0 >:  -1.0237283108941328e-5
< 1  0  -1 >:  -1.0237283108941328e-5
< 1  1  -2 >:  2.9135818508601823e-5
< 1  2  -3 >:  -4.282562778781848e-5
< 1  3  -4 >:  4.5322384346713965e-5
< 2  -4  2 >:  -2.4225833453869992e-5
< 2  -3  1 >:  3.633875018080499e-5
< 2  -2  0 >:  -4.343311384355349e-5
< 2  -1  -1 >:  4.578252187300639e-5
< 2  0  -2 >:  -4.343311384355349e-5
< 2  1  -3 >:  3.633875018080499e-5
< 2  2  -4 >:  -2.4225833453869992e-5
ctilde_basis_func: rank=3 ndens=1 mu0=0 mu=( 0  0  0 )
n=( 3  4  5 )
l=( 0  1  1 )
num_ms=3
< 0  -1  1 >:  -4.1049553515817e-6
< 0  0  0 >:  4.104955351581698e-6
< 0  1  -1 >:  -4.104955351581698e-6
ctilde_basis_func: rank=3 ndens=1 mu0=0 mu=( 0  0  0 )
n=( 2  3  4 )
l=( 2  1  3 )
num_ms=15
< -2  -1  3 >:  7.44355033092831e-6
< -2  0  2 >:  -4.297535787287987e-6
< -2  1  1 >:  1.921916431222803e-6
< -1  -1  2 >:  -6.077633395166407e-6
< -1  0  1 >:  5.436000565565972e-6
< -1  1  0 >:  -3.3288569067793505e-6
< 0  -1  1 >:  4.707714584766707e-6
< 0  0  0 >:  -5.765749293668409e-6
< 0  1  -1 >:  4.707714584766707e-6
< 1  -1  0 >:  -3.3288569067793505e-6
< 1  0  -1 >:  5.436000565565972e-6
< 1  1  -2 >:  -6.077633395166407e-6
< 2  -1  -1 >:  1.921916431222803e-6
< 2  0  -2 >:  -4.297535787287987e-6
< 2  1  -3 >:  7.443550330928308e-6
ctilde_basis_func: rank=3 ndens=1 mu0=0 mu=( 0  0  0 )
n=( 1  1  5 )
l=( 1  4  3 )
num_ms=21
< -1  -2  3 >:  -8.16786162724706e-6
< -1  -1  2 >:  1.4147151327584112e-5
< -1  0  1 >:  -2.0007093276413987e-5
< -1  1  0 >:  2.5829046355189916e-5
< -1  2  -1 >:  -3.163399205645447e-5
< -1  3  -2 >:  3.742984417278483e-5
< -1  4  -3 >:  -4.322026121776612e-5
< 0  -3  3 >:  2.161013060888306e-5
< 0  -2  2 >:  -2.8294302655168224e-5
< 0  -1  1 >:  3.163399205645447e-5
< 0  0  0 >:  -3.267144650898824e-5
< 0  1  -1 >:  3.163399205645447e-5
< 0  2  -2 >:  -2.8294302655168224e-5
< 0  3  -3 >:  2.161013060888306e-5
< 1  -4  3 >:  -4.3220261217766143e-5
< 1  -3  2 >:  3.742984417278483e-5
< 1  -2  1 >:  -3.163399205645447e-5
< 1  -1  0 >:  2.5829046355189916e-5
< 1  0  -1 >:  -2.0007093276413987e-5
< 1  1  -2 >:  1.4147151327584112e-5
< 1  2  -3 >:  -8.16786162724706e-6
ctilde_basis_func: rank=3 ndens=1 mu0=0 mu=( 0  0  0 )
n=( 2  4  4 )
l=( 2  1  3 )
num_ms=15
< -2  -1  3 >:  -2.7801330177521612e-5
< -2  0  2 >:  1.6051105461821767e-5
< -2  1  1 >:  -7.1782725853303246e-6
< -1  -1  2 >:  2.2699691035189205e-5
< -1  0  1 >:  -2.030322088917025e-5
< -1  1  0 >:  1.2433132828370921e-5
< 0  -1  1 >:  -1.7583105068668315e-5
< 0  0  0 >:  2.1534817755990972e-5
< 0  1  -1 >:  -1.7583105068668315e-5
< 1  -1  0 >:  1.2433132828370921e-5
< 1  0  -1 >:  -2.030322088917025e-5
< 1  1  -2 >:  2.2699691035189205e-5
< 2  -1  -1 >:  -7.1782725853303246e-6
< 2  0  -2 >:  1.6051105461821767e-5
< 2  1  -3 >:  -2.780133017752161e-5
ctilde_basis_func: rank=3 ndens=1 mu0=0 mu=( 0  0  0 )
n=( 2  2  2 )
l=( 2  3  3 )
num_ms=15
< -2  -1  3 >:  5.753010264097542e-6
< -2  0  2 >:  -8.135985139958366e-6
< -2  1  1 >:  4.456262588682023e-6
< -1  -2  3 >:  -9.096307918437522e-6
< -1  -1  2 >:  7.0459698160166355e-6
