<GAP_2017_6_17_60_4_3_56_165>
<Potential label="GAP_2017_6_17_60_4_3_56_165" init_args="Sum init_args_pot1={IP Glue} init_args_pot2={IP GAP label=GAP_2017_6_17_60_4_3_56_165}"/>
<Glue_params n_types="2">
  <per_type_data atomic_num="14" type="1">
    <!-- Si -->
    <density num_points="14" density_y1="-0.4144" density_yn="0.0">
      <point a="0.821917808219178" rho="0.258391"/>
      <point a="1.027397260273973" rho="0.173248"/>
      <point a="1.232876712328767" rho="0.097399"/>
      <point a="1.438356164383562" rho="0.050254"/>
      <point a="1.643835616438357" rho="0.025066"/>
      <point a="1.849315068493151" rho="0.012652"/>
      <point a="2.054794520547945" rho="0.006107"/>
      <point a="2.260273972602740" rho="0.003182"/>
      <point a="2.465753424657535" rho="0.001524"/>
      <point a="2.671232876712329" rho="0.000913"/>
      <point a="2.876712328767124" rho="0.000383"/>
      <point a="3.082191780821919" rho="0.000295"/>
      <point a="3.287671232876713" rho="0.000080"/>
      <point a="3.493150684931507" rho="0.000000"/>
    </density>
    <potential_density num_points="12">
      <point rho="0.0000000000000" E="0.0"/>
      <point rho="0.0572259106295" E="0.0"/>
      <point rho="0.0633096739107" E="0.0"/>
      <point rho="0.0689221129285" E="0.0"/>
      <point rho="0.0741074612625" E="0.0"/>
      <point rho="0.0789857895134" E="0.0"/>
      <point rho="0.0835293161324" E="0.0"/>
      <point rho="0.1529969346048" E="0.0"/>
      <point rho="0.2168736082455" E="0.0"/>
      <point rho="0.2697341539351" E="0.0"/>
      <point rho="0.3158337343334" E="0.0"/>
      <point rho="0.3570433660014" E="0.0"/>
    </potential_density>
  </per_type_data>
  <per_type_data atomic_num="8" type="2">
    <!-- O -->
    <density num_points="13" density_y1="-12.096333" density_yn="0.0">
      <point a="0.275229" rho="5.207325"/>
      <point a="0.412844" rho="3.542692"/>
      <point a="0.550458" rho="1.841125"/>
      <point a="0.688073" rho="0.878272"/>
      <point a="0.825688" rho="0.407461"/>
      <point a="0.963302" rho="0.201061"/>
      <point a="1.100917" rho="0.096121"/>
      <point a="1.238532" rho="0.047733"/>
      <point a="1.376146" rho="0.021994"/>
      <point a="1.513761" rho="0.013445"/>
      <point a="1.651376" rho="0.005751"/>
      <point a="1.788990" rho="0.004175"/>
      <point a="2.000000" rho="0.000000"/>
    </density>
    <potential_density num_points="6">
      <point rho="0.000000000000" E="-162.5696"/>
      <point rho="0.007455445248" E="-162.6855"/>
      <point rho="0.017732566824" E="-162.2040"/>
      <point rho="0.030441208637" E="-160.5319"/>
      <point rho="0.056284772194" E="-156.7397"/>
      <point rho="0.074786922252" E="-153.6122"/>
    </potential_density>
  </per_type_data>
  <per_pair_data type1="1" type2="1">
    <!-- Si -->
    <potential_pair num_points="26" y1="1.0e50" yn="0.0">
      <point r=" 1.2" E="       13.4896897268455"/>
      <point r="1.33" E="       6.35102226195354"/>
      <point r="1.46" E="       2.85261290997884"/>
      <point r="1.59" E="       1.17069139864555"/>
 <point r="1.60" E="1.074447150725763"/>
 <point r="1.62" E="0.906655292950206"/>
 <point r="1.64" E="0.767927847060999"/>
 <point r="1.66" E="0.653627486419334"/>
 <point r="1.68" E="0.559116884386403"/>
 <point r="1.70" E="0.479758714323394"/>
      <point r="1.72" E="      0.410915649591501"/>
 <point r="1.74" E="0.348717279587451"/>
 <point r="1.76" E="0.292360857850120"/>
 <point r="1.78" E="0.241810553953918"/>
 <point r="1.80" E="0.197030537473260"/>
 <point r="1.82" E="0.157984977982556"/>
 <point r="1.84" E="0.124638045056218"/>
      <point r="1.85" E="       0.11009036654669"/>
 <point r="1.86" E="0.096940368680633"/>
 <point r="1.88" E="0.074531168317590"/>
 <point r="1.90" E="0.056738252904286"/>
      <point r="1.98" E="     0.0180148277318245"/>
      <point r="2.11" E="    0.00107543820001212"/>
      <point r="2.24" E="    5.0184779157859e-06"/>
      <point r="2.37" E="   8.33906077334409e-13"/>
      <point r=" 2.5" E="0.00000000000000000"/>
    </potential_pair>
 </per_pair_data>
</Glue_params>

<GAP_params label="GAP_2017_6_17_60_4_3_56_165" gap_version="1496137870">
  <GAP_data do_core="T">
    <e0 Z="1" value=".00000000000000000E+000"/>
    <e0 Z="2" value=".00000000000000000E+000"/>
    <e0 Z="3" value=".00000000000000000E+000"/>
    <e0 Z="4" value=".00000000000000000E+000"/>
    <e0 Z="5" value=".00000000000000000E+000"/>
    <e0 Z="6" value=".00000000000000000E+000"/>
    <e0 Z="7" value=".00000000000000000E+000"/>
    <e0 Z="8" value=".00000000000000000E+000"/>
    <e0 Z="9" value=".00000000000000000E+000"/>
    <e0 Z="10" value=".00000000000000000E+000"/>
    <e0 Z="11" value=".00000000000000000E+000"/>
    <e0 Z="12" value=".00000000000000000E+000"/>
    <e0 Z="13" value=".00000000000000000E+000"/>
    <e0 Z="14" value="-160.73263835370375"/>
    <e0 Z="15" value=".00000000000000000E+000"/>
    <e0 Z="16" value=".00000000000000000E+000"/>
    <e0 Z="17" value=".00000000000000000E+000"/>
    <e0 Z="18" value=".00000000000000000E+000"/>
    <e0 Z="19" value=".00000000000000000E+000"/>
    <e0 Z="20" value=".00000000000000000E+000"/>
    <e0 Z="21" value=".00000000000000000E+000"/>
    <e0 Z="22" value=".00000000000000000E+000"/>
    <e0 Z="23" value=".00000000000000000E+000"/>
    <e0 Z="24" value=".00000000000000000E+000"/>
    <e0 Z="25" value=".00000000000000000E+000"/>
    <e0 Z="26" value=".00000000000000000E+000"/>
    <e0 Z="27" value=".00000000000000000E+000"/>
    <e0 Z="28" value=".00000000000000000E+000"/>
    <e0 Z="29" value=".00000000000000000E+000"/>
    <e0 Z="30" value=".00000000000000000E+000"/>
    <e0 Z="31" value=".00000000000000000E+000"/>
    <e0 Z="32" value=".00000000000000000E+000"/>
    <e0 Z="33" value=".00000000000000000E+000"/>
    <e0 Z="34" value=".00000000000000000E+000"/>
    <e0 Z="35" value=".00000000000000000E+000"/>
    <e0 Z="36" value=".00000000000000000E+000"/>
    <e0 Z="37" value=".00000000000000000E+000"/>
    <e0 Z="38" value=".00000000000000000E+000"/>
    <e0 Z="39" value=".00000000000000000E+000"/>
    <e0 Z="40" value=".00000000000000000E+000"/>
    <e0 Z="41" value=".00000000000000000E+000"/>
    <e0 Z="42" value=".00000000000000000E+000"/>
    <e0 Z="43" value=".00000000000000000E+000"/>
    <e0 Z="44" value=".00000000000000000E+000"/>
    <e0 Z="45" value=".00000000000000000E+000"/>
    <e0 Z="46" value=".00000000000000000E+000"/>
    <e0 Z="47" value=".00000000000000000E+000"/>
    <e0 Z="48" value=".00000000000000000E+000"/>
    <e0 Z="49" value=".00000000000000000E+000"/>
    <e0 Z="50" value=".00000000000000000E+000"/>
    <e0 Z="51" value=".00000000000000000E+000"/>
    <e0 Z="52" value=".00000000000000000E+000"/>
    <e0 Z="53" value=".00000000000000000E+000"/>
    <e0 Z="54" value=".00000000000000000E+000"/>
    <e0 Z="55" value=".00000000000000000E+000"/>
    <e0 Z="56" value=".00000000000000000E+000"/>
    <e0 Z="57" value=".00000000000000000E+000"/>
    <e0 Z="58" value=".00000000000000000E+000"/>
    <e0 Z="59" value=".00000000000000000E+000"/>
    <e0 Z="60" value=".00000000000000000E+000"/>
    <e0 Z="61" value=".00000000000000000E+000"/>
    <e0 Z="62" value=".00000000000000000E+000"/>
    <e0 Z="63" value=".00000000000000000E+000"/>
    <e0 Z="64" value=".00000000000000000E+000"/>
    <e0 Z="65" value=".00000000000000000E+000"/>
    <e0 Z="66" value=".00000000000000000E+000"/>
    <e0 Z="67" value=".00000000000000000E+000"/>
    <e0 Z="68" value=".00000000000000000E+000"/>
    <e0 Z="69" value=".00000000000000000E+000"/>
    <e0 Z="70" value=".00000000000000000E+000"/>
    <e0 Z="71" value=".00000000000000000E+000"/>
    <e0 Z="72" value=".00000000000000000E+000"/>
    <e0 Z="73" value=".00000000000000000E+000"/>
    <e0 Z="74" value=".00000000000000000E+000"/>
    <e0 Z="75" value=".00000000000000000E+000"/>
    <e0 Z="76" value=".00000000000000000E+000"/>
    <e0 Z="77" value=".00000000000000000E+000"/>
    <e0 Z="78" value=".00000000000000000E+000"/>
    <e0 Z="79" value=".00000000000000000E+000"/>
    <e0 Z="80" value=".00000000000000000E+000"/>
    <e0 Z="81" value=".00000000000000000E+000"/>
    <e0 Z="82" value=".00000000000000000E+000"/>
    <e0 Z="83" value=".00000000000000000E+000"/>
    <e0 Z="84" value=".00000000000000000E+000"/>
    <e0 Z="85" value=".00000000000000000E+000"/>
    <e0 Z="86" value=".00000000000000000E+000"/>
    <e0 Z="87" value=".00000000000000000E+000"/>
    <e0 Z="88" value=".00000000000000000E+000"/>
    <e0 Z="89" value=".00000000000000000E+000"/>
    <e0 Z="90" value=".00000000000000000E+000"/>
    <e0 Z="91" value=".00000000000000000E+000"/>
    <e0 Z="92" value=".00000000000000000E+000"/>
    <e0 Z="93" value=".00000000000000000E+000"/>
    <e0 Z="94" value=".00000000000000000E+000"/>
    <e0 Z="95" value=".00000000000000000E+000"/>
    <e0 Z="96" value=".00000000000000000E+000"/>
    <e0 Z="97" value=".00000000000000000E+000"/>
    <e0 Z="98" value=".00000000000000000E+000"/>
    <e0 Z="99" value=".00000000000000000E+000"/>
    <e0 Z="100" value=".00000000000000000E+000"/>
    <e0 Z="101" value=".00000000000000000E+000"/>
    <e0 Z="102" value=".00000000000000000E+000"/>
    <e0 Z="103" value=".00000000000000000E+000"/>
    <e0 Z="104" value=".00000000000000000E+000"/>
    <e0 Z="105" value=".00000000000000000E+000"/>
    <e0 Z="106" value=".00000000000000000E+000"/>
    <e0 Z="107" value=".00000000000000000E+000"/>
    <e0 Z="108" value=".00000000000000000E+000"/>
    <e0 Z="109" value=".00000000000000000E+000"/>
    <e0 Z="110" value=".00000000000000000E+000"/>
    <e0 Z="111" value=".00000000000000000E+000"/>
    <e0 Z="112" value=".00000000000000000E+000"/>
    <e0 Z="113" value=".00000000000000000E+000"/>
    <e0 Z="114" value=".00000000000000000E+000"/>
    <e0 Z="115" value=".00000000000000000E+000"/>
    <e0 Z="116" value=".00000000000000000E+000"/>
  </GAP_data>
  <gpSparse label="GAP_2017_6_17_60_4_3_56_165" n_coordinate="1">
    <gpCoordinates label="GAP_2017_6_17_60_4_3_56_1651" dimensions="716" signal_variance="3.0000000000000000" signal_mean=".00000000000000000E+000" sparsified="T" n_permutations="1" covariance_type="2" zeta="4.0000000000000000" n_sparseX="9000" sparseX_filename="gp_iter6_sparse9k.xml.sparseX.GAP_2017_6_17_60_4_3_56_1651">
      <descriptor>soap l_max=12 n_max=10 atom_sigma=0.5 zeta=4 cutoff=5.0 cutoff_transition_width=1.0 central_weight=1.0 n_sparse=9000 delta=3.0 f0=0.0 covariance_type=dot_product sparse_method=cur_points</descriptor>
      <permutation i="1">1  </permutation>
      <sparseX i="1" alpha="-.39041329779618589" sparseCutoff="1.0000000000000000"/>
      <sparseX i="2" alpha="-850.99804480921659" sparseCutoff="1.0000000000000000"/>
      <sparseX i="3" alpha="276.43477636935029" sparseCutoff="1.0000000000000000"/>
      <sparseX i="4" alpha="190.87167701985007" sparseCutoff="1.0000000000000000"/>
      <sparseX i="5" alpha="347.63171992221294" sparseCutoff="1.0000000000000000"/>
      <sparseX i="6" alpha="-1270.6541287701141" sparseCutoff="1.0000000000000000"/>
      <sparseX i="7" alpha="-272.81521017794120" sparseCutoff="1.0000000000000000"/>
      <sparseX i="8" alpha="1815.5265910435558" sparseCutoff="1.0000000000000000"/>
      <sparseX i="9" alpha="4823.0101193746250" sparseCutoff="1.0000000000000000"/>
      <sparseX i="10" alpha="215.81957726270375" sparseCutoff="1.0000000000000000"/>
      <sparseX i="11" alpha="-142.75417065222297" sparseCutoff="1.0000000000000000"/>
      <sparseX i="12" alpha="-148.59507844905914" sparseCutoff="1.0000000000000000"/>
      <sparseX i="13" alpha="365.94115858077726" sparseCutoff="1.0000000000000000"/>
      <sparseX i="14" alpha="-3725.9047275207940" sparseCutoff="1.0000000000000000"/>
      <sparseX i="15" alpha="2092.7138261005412" sparseCutoff="1.0000000000000000"/>
      <sparseX i="16" alpha="897.53426355938586" sparseCutoff="1.0000000000000000"/>
      <sparseX i="17" alpha="177.12067264604292" sparseCutoff="1.0000000000000000"/>
      <sparseX i="18" alpha="1856.9223242791077" sparseCutoff="1.0000000000000000"/>
      <sparseX i="19" alpha="-954.93250573032594" sparseCutoff="1.0000000000000000"/>
      <sparseX i="20" alpha="-495.21553644556587" sparseCutoff="1.0000000000000000"/>
      <sparseX i="21" alpha="-505.95817948292972" sparseCutoff="1.0000000000000000"/>
      <sparseX i="22" alpha="-754.83638098980543" sparseCutoff="1.0000000000000000"/>
      <sparseX i="23" alpha="24.446641042690544" sparseCutoff="1.0000000000000000"/>
      <sparseX i="24" alpha="-63.984805854890546" sparseCutoff="1.0000000000000000"/>
      <sparseX i="25" alpha="-251.38373612224052" sparseCutoff="1.0000000000000000"/>
      <sparseX i="26" alpha="695.62387429336491" sparseCutoff="1.0000000000000000"/>
      <sparseX i="27" alpha="-321.06394872313268" sparseCutoff="1.0000000000000000"/>
      <sparseX i="28" alpha="-290.26700643104618" sparseCutoff="1.0000000000000000"/>
      <sparseX i="29" alpha="-592.56340552745235" sparseCutoff="1.0000000000000000"/>
      <sparseX i="30" alpha="2027.1936723204592" sparseCutoff="1.0000000000000000"/>
      <sparseX i="31" alpha="79.386117997231977" sparseCutoff="1.0000000000000000"/>
      <sparseX i="32" alpha="-1170.9612823714026" sparseCutoff="1.0000000000000000"/>
      <sparseX i="33" alpha="-998.27054649094339" sparseCutoff="1.0000000000000000"/>
      <sparseX i="34" alpha="1410.5298869208029" sparseCutoff="1.0000000000000000"/>
      <sparseX i="35" alpha="-639.68771304332506" sparseCutoff="1.0000000000000000"/>
      <sparseX i="36" alpha="854.26617261161425" sparseCutoff="1.0000000000000000"/>
      <sparseX i="37" alpha="-101.55554863389320" sparseCutoff="1.0000000000000000"/>
      <sparseX i="38" alpha="63.130733384724969" sparseCutoff="1.0000000000000000"/>
      <sparseX i="39" alpha="1097.6272126768472" sparseCutoff="1.0000000000000000"/>
      <sparseX i="40" alpha="-1535.8040127870545" sparseCutoff="1.0000000000000000"/>
      <sparseX i="41" alpha="-1957.5188428827137" sparseCutoff="1.0000000000000000"/>
      <sparseX i="42" alpha="-1249.3998765233237" sparseCutoff="1.0000000000000000"/>
      <sparseX i="43" alpha="-100.14687877906150" sparseCutoff="1.0000000000000000"/>
      <sparseX i="44" alpha="-800.99874683132202" sparseCutoff="1.0000000000000000"/>
      <sparseX i="45" alpha="-757.29231508653049" sparseCutoff="1.0000000000000000"/>
      <sparseX i="46" alpha="565.04912687427452" sparseCutoff="1.0000000000000000"/>
      <sparseX i="47" alpha="916.76944882629527" sparseCutoff="1.0000000000000000"/>
      <sparseX i="48" alpha="-891.68704534964456" sparseCutoff="1.0000000000000000"/>
      <sparseX i="49" alpha="-171.24126496001486" sparseCutoff="1.0000000000000000"/>
      <sparseX i="50" alpha="-1104.8369744556094" sparseCutoff="1.0000000000000000"/>
      <sparseX i="51" alpha="250.70565902873221" sparseCutoff="1.0000000000000000"/>
      <sparseX i="52" alpha="-515.16703699942013" sparseCutoff="1.0000000000000000"/>
      <sparseX i="53" alpha="-773.75859939577958" sparseCutoff="1.0000000000000000"/>
      <sparseX i="54" alpha="1578.7613148184710" sparseCutoff="1.0000000000000000"/>
      <sparseX i="55" alpha="-1069.2837417307967" sparseCutoff="1.0000000000000000"/>
      <sparseX i="56" alpha="863.19094397971674" sparseCutoff="1.0000000000000000"/>
      <sparseX i="57" alpha="1401.7297267245315" sparseCutoff="1.0000000000000000"/>
      <sparseX i="58" alpha="-186.88879629830834" sparseCutoff="1.0000000000000000"/>
      <sparseX i="59" alpha="868.84225876273410" sparseCutoff="1.0000000000000000"/>
      <sparseX i="60" alpha="160.60155278722530" sparseCutoff="1.0000000000000000"/>
      <sparseX i="61" alpha="-422.56666346696909" sparseCutoff="1.0000000000000000"/>
      <sparseX i="62" alpha="1071.8912589547951" sparseCutoff="1.0000000000000000"/>
      <sparseX i="63" alpha="-158.98567546970745" sparseCutoff="1.0000000000000000"/>
      <sparseX i="64" alpha="192.14816741701472" sparseCutoff="1.0000000000000000"/>
      <sparseX i="65" alpha="845.08077375695598" sparseCutoff="1.0000000000000000"/>
      <sparseX i="66" alpha="2104.2874961231596" sparseCutoff="1.0000000000000000"/>
      <sparseX i="67" alpha="1656.0074700154948" sparseCutoff="1.0000000000000000"/>
      <sparseX i="68" alpha="1756.3188589648389" sparseCutoff="1.0000000000000000"/>
      <sparseX i="69" alpha="1359.3461887948079" sparseCutoff="1.0000000000000000"/>
      <sparseX i="70" alpha="786.29545163681018" sparseCutoff="1.0000000000000000"/>
      <sparseX i="71" alpha="1420.0957846596148" sparseCutoff="1.0000000000000000"/>
      <sparseX i="72" alpha="1309.6009869980530" sparseCutoff="1.0000000000000000"/>
      <sparseX i="73" alpha="14786.007443006267" sparseCutoff="1.0000000000000000"/>
      <sparseX i="74" alpha="-5618.1338171401294" sparseCutoff="1.0000000000000000"/>
      <sparseX i="75" alpha="1692.9223395445192" sparseCutoff="1.0000000000000000"/>
      <sparseX i="76" alpha="-2844.2377453775102" sparseCutoff="1.0000000000000000"/>
      <sparseX i="77" alpha="-4093.4704720601617" sparseCutoff="1.0000000000000000"/>
      <sparseX i="78" alpha="397.99977827823619" sparseCutoff="1.0000000000000000"/>
      <sparseX i="79" alpha="4163.9604175916529" sparseCutoff="1.0000000000000000"/>
      <sparseX i="80" alpha="-1763.5190983340669" sparseCutoff="1.0000000000000000"/>
      <sparseX i="81" alpha="-2411.6027613501910" sparseCutoff="1.0000000000000000"/>
      <sparseX i="82" alpha="1035.2101806887454" sparseCutoff="1.0000000000000000"/>
      <sparseX i="83" alpha="-3442.8522931653802" sparseCutoff="1.0000000000000000"/>
      <sparseX i="84" alpha="1336.1709515270277" sparseCutoff="1.0000000000000000"/>
      <sparseX i="85" alpha="-6293.5124467782880" sparseCutoff="1.0000000000000000"/>
      <sparseX i="86" alpha="801.02689733059128" sparseCutoff="1.0000000000000000"/>
      <sparseX i="87" alpha="2477.7974335615813" sparseCutoff="1.0000000000000000"/>
      <sparseX i="88" alpha="-607.21504535005863" sparseCutoff="1.0000000000000000"/>
      <sparseX i="89" alpha="691.91835557131003" sparseCutoff="1.0000000000000000"/>
      <sparseX i="90" alpha="926.67832102878072" sparseCutoff="1.0000000000000000"/>
      <sparseX i="91" alpha="-2441.8449509537472" sparseCutoff="1.0000000000000000"/>
      <sparseX i="92" alpha="-844.07707165985482" sparseCutoff="1.0000000000000000"/>
      <sparseX i="93" alpha="-1803.0044732289864" sparseCutoff="1.0000000000000000"/>
      <sparseX i="94" alpha="-307.30081201823612" sparseCutoff="1.0000000000000000"/>
      <sparseX i="95" alpha="-3023.7019176950953" sparseCutoff="1.0000000000000000"/>
      <sparseX i="96" alpha="-755.17132511594571" sparseCutoff="1.0000000000000000"/>
      <sparseX i="97" alpha="-856.22198667295766" sparseCutoff="1.0000000000000000"/>
      <sparseX i="98" alpha="2423.4922595274334" sparseCutoff="1.0000000000000000"/>
      <sparseX i="99" alpha="-2033.3949656145692" sparseCutoff="1.0000000000000000"/>
      <sparseX i="100" alpha="-7418.9961183220621" sparseCutoff="1.0000000000000000"/>
      <sparseX i="101" alpha="3748.8314642522919" sparseCutoff="1.0000000000000000"/>
      <sparseX i="102" alpha="-3546.1365114975060" sparseCutoff="1.0000000000000000"/>
      <sparseX i="103" alpha="2299.6415015964276" sparseCutoff="1.0000000000000000"/>
      <sparseX i="104" alpha="4953.7513684215191" sparseCutoff="1.0000000000000000"/>
      <sparseX i="105" alpha="-2513.6236883839215" sparseCutoff="1.0000000000000000"/>
      <sparseX i="106" alpha="267.84196461807528" sparseCutoff="1.0000000000000000"/>
      <sparseX i="107" alpha="-530.33705912821131" sparseCutoff="1.0000000000000000"/>
      <sparseX i="108" alpha="7168.9418052423907" sparseCutoff="1.0000000000000000"/>
      <sparseX i="109" alpha="-1994.4098162142409" sparseCutoff="1.0000000000000000"/>
      <sparseX i="110" alpha="-3762.7029146033833" sparseCutoff="1.0000000000000000"/>
      <sparseX i="111" alpha="11812.010068766936" sparseCutoff="1.0000000000000000"/>
      <sparseX i="112" alpha="2068.2743437809613" sparseCutoff="1.0000000000000000"/>
      <sparseX i="113" alpha="14324.703727214237" sparseCutoff="1.0000000000000000"/>
      <sparseX i="114" alpha="2887.1751073570308" sparseCutoff="1.0000000000000000"/>
      <sparseX i="115" alpha="-18821.159025665358" sparseCutoff="1.0000000000000000"/>
      <sparseX i="116" alpha="262.53804489828912" sparseCutoff="1.0000000000000000"/>
      <sparseX i="117" alpha="-9654.0465100263154" sparseCutoff="1.0000000000000000"/>
      <sparseX i="118" alpha="4417.4386360056105" sparseCutoff="1.0000000000000000"/>
      <sparseX i="119" alpha="1250.0788982801080" sparseCutoff="1.0000000000000000"/>
      <sparseX i="120" alpha="-4248.4828851663960" sparseCutoff="1.0000000000000000"/>
      <sparseX i="121" alpha="-10375.317442818838" sparseCutoff="1.0000000000000000"/>
      <sparseX i="122" alpha="-4130.5695116493307" sparseCutoff="1.0000000000000000"/>
      <sparseX i="123" alpha="-4689.5064669551048" sparseCutoff="1.0000000000000000"/>
      <sparseX i="124" alpha="-4048.2309456130611" sparseCutoff="1.0000000000000000"/>
      <sparseX i="125" alpha="25728.873506451713" sparseCutoff="1.0000000000000000"/>
      <sparseX i="126" alpha="4648.1528716217354" sparseCutoff="1.0000000000000000"/>
      <sparseX i="127" alpha="-11333.091005671989" sparseCutoff="1.0000000000000000"/>
      <sparseX i="128" alpha="9527.4988611411736" sparseCutoff="1.0000000000000000"/>
      <sparseX i="129" alpha="3739.9228867947440" sparseCutoff="1.0000000000000000"/>
      <sparseX i="130" alpha="-3111.2746094153645" sparseCutoff="1.0000000000000000"/>
      <sparseX i="131" alpha="-1646.7698817376156" sparseCutoff="1.0000000000000000"/>
      <sparseX i="132" alpha="-3769.7094131253275" sparseCutoff="1.0000000000000000"/>
      <sparseX i="133" alpha="-2812.7039433103760" sparseCutoff="1.0000000000000000"/>
      <sparseX i="134" alpha="580.56620661535999" sparseCutoff="1.0000000000000000"/>
      <sparseX i="135" alpha="-14803.743823602359" sparseCutoff="1.0000000000000000"/>
      <sparseX i="136" alpha="-1305.7015689978930" sparseCutoff="1.0000000000000000"/>
      <sparseX i="137" alpha="-3861.3647249833130" sparseCutoff="1.0000000000000000"/>
      <sparseX i="138" alpha="-9454.6681984124407" sparseCutoff="1.0000000000000000"/>
      <sparseX i="139" alpha="14872.004230268167" sparseCutoff="1.0000000000000000"/>
      <sparseX i="140" alpha="8472.4816139322502" sparseCutoff="1.0000000000000000"/>
      <sparseX i="141" alpha="1274.0763072211714" sparseCutoff="1.0000000000000000"/>
      <sparseX i="142" alpha="-9747.3801838738127" sparseCutoff="1.0000000000000000"/>
      <sparseX i="143" alpha="-1161.1194119795919" sparseCutoff="1.0000000000000000"/>
      <sparseX i="144" alpha="1331.5074999362259" sparseCutoff="1.0000000000000000"/>
      <sparseX i="145" alpha="7314.9650368505072" sparseCutoff="1.0000000000000000"/>
      <sparseX i="146" alpha="6048.8388451934361" sparseCutoff="1.0000000000000000"/>
      <sparseX i="147" alpha="16152.258816301166" sparseCutoff="1.0000000000000000"/>
      <sparseX i="148" alpha="211.53673241145091" sparseCutoff="1.0000000000000000"/>
      <sparseX i="149" alpha="379.15509816906012" sparseCutoff="1.0000000000000000"/>
      <sparseX i="150" alpha="-5215.7304750748253" sparseCutoff="1.0000000000000000"/>
      <sparseX i="151" alpha="-3162.3814347695761" sparseCutoff="1.0000000000000000"/>
      <sparseX i="152" alpha="13816.486068156753" sparseCutoff="1.0000000000000000"/>
      <sparseX i="153" alpha="-9911.9767011141703" sparseCutoff="1.0000000000000000"/>
      <sparseX i="154" alpha="-10416.989692281137" sparseCutoff="1.0000000000000000"/>
      <sparseX i="155" alpha="7543.0736535082906" sparseCutoff="1.0000000000000000"/>
      <sparseX i="156" alpha="2967.9310038486637" sparseCutoff="1.0000000000000000"/>
      <sparseX i="157" alpha="3506.9336008198225" sparseCutoff="1.0000000000000000"/>
      <sparseX i="158" alpha="-8979.8238006380925" sparseCutoff="1.0000000000000000"/>
      <sparseX i="159" alpha="-4331.5647311266885" sparseCutoff="1.0000000000000000"/>
      <sparseX i="160" alpha="-1956.2881415865529" sparseCutoff="1.0000000000000000"/>
      <sparseX i="161" alpha="10781.377782473252" sparseCutoff="1.0000000000000000"/>
      <sparseX i="162" alpha="3598.7216334194759" sparseCutoff="1.0000000000000000"/>
      <sparseX i="163" alpha="3079.2021330369139" sparseCutoff="1.0000000000000000"/>
      <sparseX i="164" alpha="-542.62013322549910" sparseCutoff="1.0000000000000000"/>
      <sparseX i="165" alpha="3136.1512061420462" sparseCutoff="1.0000000000000000"/>
      <sparseX i="166" alpha="-2896.1101730230821" sparseCutoff="1.0000000000000000"/>
      <sparseX i="167" alpha="6717.9285517182298" sparseCutoff="1.0000000000000000"/>
      <sparseX i="168" alpha="10459.073493618236" sparseCutoff="1.0000000000000000"/>
      <sparseX i="169" alpha="-6363.4683920199195" sparseCutoff="1.0000000000000000"/>
      <sparseX i="170" alpha="13319.191277043801" sparseCutoff="1.0000000000000000"/>
      <sparseX i="171" alpha="-12787.884758806276" sparseCutoff="1.0000000000000000"/>
      <sparseX i="172" alpha="-7569.9375628736243" sparseCutoff="1.0000000000000000"/>
      <sparseX i="173" alpha="-10816.474249724663" sparseCutoff="1.0000000000000000"/>
      <sparseX i="174" alpha="-2757.9191927707357" sparseCutoff="1.0000000000000000"/>
      <sparseX i="175" alpha="-3129.8454438164044" sparseCutoff="1.0000000000000000"/>
      <sparseX i="176" alpha="-11294.809660522626" sparseCutoff="1.0000000000000000"/>
      <sparseX i="177" alpha="-660.75429681042215" sparseCutoff="1.0000000000000000"/>
      <sparseX i="178" alpha="21953.757410240200" sparseCutoff="1.0000000000000000"/>
      <sparseX i="179" alpha="67.049624515556573" sparseCutoff="1.0000000000000000"/>
      <sparseX i="180" alpha="-4001.6506895450307" sparseCutoff="1.0000000000000000"/>
      <sparseX i="181" alpha="-9930.5534478415902" sparseCutoff="1.0000000000000000"/>
      <sparseX i="182" alpha="-3890.5838054668598" sparseCutoff="1.0000000000000000"/>
      <sparseX i="183" alpha="13687.131179940967" sparseCutoff="1.0000000000000000"/>
      <sparseX i="184" alpha="3015.8549525410649" sparseCutoff="1.0000000000000000"/>
      <sparseX i="185" alpha="-4611.8917107094567" sparseCutoff="1.0000000000000000"/>
      <sparseX i="186" alpha="4361.0652407115722" sparseCutoff="1.0000000000000000"/>
      <sparseX i="187" alpha="19505.875001495606" sparseCutoff="1.0000000000000000"/>
      <sparseX i="188" alpha="-2424.4658522064728" sparseCutoff="1.0000000000000000"/>
      <sparseX i="189" alpha="11766.814531505150" sparseCutoff="1.0000000000000000"/>
      <sparseX i="190" alpha="-563.99080775432685" sparseCutoff="1.0000000000000000"/>
      <sparseX i="191" alpha="-1147.9317860065366" sparseCutoff="1.0000000000000000"/>
      <sparseX i="192" alpha="-1928.3318054825054" sparseCutoff="1.0000000000000000"/>
      <sparseX i="193" alpha="-994.03920146648534" sparseCutoff="1.0000000000000000"/>
      <sparseX i="194" alpha="-1345.8172551421776" sparseCutoff="1.0000000000000000"/>
      <sparseX i="195" alpha="4.4293120344827770" sparseCutoff="1.0000000000000000"/>
      <sparseX i="196" alpha="-1988.3402755344430" sparseCutoff="1.0000000000000000"/>
      <sparseX i="197" alpha="3552.3020155674135" sparseCutoff="1.0000000000000000"/>
      <sparseX i="198" alpha="6116.1239092593996" sparseCutoff="1.0000000000000000"/>
      <sparseX i="199" alpha="-269.95483023309998" sparseCutoff="1.0000000000000000"/>
      <sparseX i="200" alpha="1819.7264820164337" sparseCutoff="1.0000000000000000"/>
      <sparseX i="201" alpha="-4977.9366277157433" sparseCutoff="1.0000000000000000"/>
      <sparseX i="202" alpha="-2034.5255355526160" sparseCutoff="1.0000000000000000"/>
      <sparseX i="203" alpha="-1631.9649559421071" sparseCutoff="1.0000000000000000"/>
      <sparseX i="204" alpha="10440.249702170133" sparseCutoff="1.0000000000000000"/>
      <sparseX i="205" alpha="-8152.9072433927322" sparseCutoff="1.0000000000000000"/>
      <sparseX i="206" alpha="2941.0645871336606" sparseCutoff="1.0000000000000000"/>
      <sparseX i="207" alpha="-671.54454728566623" sparseCutoff="1.0000000000000000"/>
      <sparseX i="208" alpha="-1167.2563581195061" sparseCutoff="1.0000000000000000"/>
      <sparseX i="209" alpha="210.48209136218753" sparseCutoff="1.0000000000000000"/>
      <sparseX i="210" alpha="-126.10194477340380" sparseCutoff="1.0000000000000000"/>
      <sparseX i="211" alpha="-656.26977002672254" sparseCutoff="1.0000000000000000"/>
      <sparseX i="212" alpha="94.298937798816738" sparseCutoff="1.0000000000000000"/>
      <sparseX i="213" alpha="-990.14430333217115" sparseCutoff="1.0000000000000000"/>
      <sparseX i="214" alpha="555.57546629575495" sparseCutoff="1.0000000000000000"/>
      <sparseX i="215" alpha="3142.8370427207515" sparseCutoff="1.0000000000000000"/>
      <sparseX i="216" alpha="-128.00018394874985" sparseCutoff="1.0000000000000000"/>
      <sparseX i="217" alpha="318.77625833954420" sparseCutoff="1.0000000000000000"/>
      <sparseX i="218" alpha="-2237.2358682228473" sparseCutoff="1.0000000000000000"/>
      <sparseX i="219" alpha="826.77090928990322" sparseCutoff="1.0000000000000000"/>
      <sparseX i="220" alpha="-14522.887795039804" sparseCutoff="1.0000000000000000"/>
      <sparseX i="221" alpha="11227.235865467788" sparseCutoff="1.0000000000000000"/>
      <sparseX i="222" alpha="5019.6445964177346" sparseCutoff="1.0000000000000000"/>
      <sparseX i="223" alpha="392.90042638789231" sparseCutoff="1.0000000000000000"/>
      <sparseX i="224" alpha="-2060.5584706007089" sparseCutoff="1.0000000000000000"/>
      <sparseX i="225" alpha="-513.15180228595329" sparseCutoff="1.0000000000000000"/>
      <sparseX i="226" alpha="-2071.7274684818640" sparseCutoff="1.0000000000000000"/>
      <sparseX i="227" alpha="-6635.8593748473540" sparseCutoff="1.0000000000000000"/>
      <sparseX i="228" alpha="5525.0549278981853" sparseCutoff="1.0000000000000000"/>
      <sparseX i="229" alpha="14782.815566695703" sparseCutoff="1.0000000000000000"/>
      <sparseX i="230" alpha="2545.9400519704582" sparseCutoff="1.0000000000000000"/>
      <sparseX i="231" alpha="-21275.638074115715" sparseCutoff="1.0000000000000000"/>
      <sparseX i="232" alpha="-2158.3445983365673" sparseCutoff="1.0000000000000000"/>
      <sparseX i="233" alpha="-3005.7925418608133" sparseCutoff="1.0000000000000000"/>
      <sparseX i="234" alpha="7264.4224735199341" sparseCutoff="1.0000000000000000"/>
      <sparseX i="235" alpha="2897.8424431658727" sparseCutoff="1.0000000000000000"/>
      <sparseX i="236" alpha="6811.1881491967688" sparseCutoff="1.0000000000000000"/>
      <sparseX i="237" alpha="-3966.8549169222256" sparseCutoff="1.0000000000000000"/>
      <sparseX i="238" alpha="-1172.9623771961394" sparseCutoff="1.0000000000000000"/>
      <sparseX i="239" alpha="4475.8265697222660" sparseCutoff="1.0000000000000000"/>
      <sparseX i="240" alpha="-482.62582444673279" sparseCutoff="1.0000000000000000"/>
      <sparseX i="241" alpha="12234.300090567678" sparseCutoff="1.0000000000000000"/>
      <sparseX i="242" alpha="-3779.8655741610751" sparseCutoff="1.0000000000000000"/>
      <sparseX i="243" alpha="-6111.4736283532638" sparseCutoff="1.0000000000000000"/>
      <sparseX i="244" alpha="-5565.3435889630537" sparseCutoff="1.0000000000000000"/>
      <sparseX i="245" alpha="12732.728393461091" sparseCutoff="1.0000000000000000"/>
      <sparseX i="246" alpha="5500.4515140516087" sparseCutoff="1.0000000000000000"/>
      <sparseX i="247" alpha="-4252.1644326940050" sparseCutoff="1.0000000000000000"/>
      <sparseX i="248" alpha="3459.9951275251074" sparseCutoff="1.0000000000000000"/>
      <sparseX i="249" alpha="-6256.9622739067872" sparseCutoff="1.0000000000000000"/>
      <sparseX i="250" alpha="-5926.8580290290020" sparseCutoff="1.0000000000000000"/>
      <sparseX i="251" alpha="6854.5606007566539" sparseCutoff="1.0000000000000000"/>
      <sparseX i="252" alpha="-1748.3711028978266" sparseCutoff="1.0000000000000000"/>
      <sparseX i="253" alpha="7633.3532634775465" sparseCutoff="1.0000000000000000"/>
      <sparseX i="254" alpha="10264.245300750783" sparseCutoff="1.0000000000000000"/>
      <sparseX i="255" alpha="-8550.7826214106681" sparseCutoff="1.0000000000000000"/>
      <sparseX i="256" alpha="-9813.3268933415602" sparseCutoff="1.0000000000000000"/>
      <sparseX i="257" alpha="6029.7670156496424" sparseCutoff="1.0000000000000000"/>
      <sparseX i="258" alpha="10814.874011359456" sparseCutoff="1.0000000000000000"/>
      <sparseX i="259" alpha="-6736.3924106942450" sparseCutoff="1.0000000000000000"/>
      <sparseX i="260" alpha="-1012.0943131097695" sparseCutoff="1.0000000000000000"/>
      <sparseX i="261" alpha="-8924.3668606602150" sparseCutoff="1.0000000000000000"/>
      <sparseX i="262" alpha="1586.9771810057662" sparseCutoff="1.0000000000000000"/>
      <sparseX i="263" alpha="-4341.7989966168743" sparseCutoff="1.0000000000000000"/>
      <sparseX i="264" alpha="-3158.3260430600603" sparseCutoff="1.0000000000000000"/>
      <sparseX i="265" alpha="5887.3019072119869" sparseCutoff="1.0000000000000000"/>
      <sparseX i="266" alpha="-8827.1598204382990" sparseCutoff="1.0000000000000000"/>
      <sparseX i="267" alpha="-1670.3580754383165" sparseCutoff="1.0000000000000000"/>
      <sparseX i="268" alpha="-1336.0144889050557" sparseCutoff="1.0000000000000000"/>
      <sparseX i="269" alpha="-25305.452320366439" sparseCutoff="1.0000000000000000"/>
      <sparseX i="270" alpha="9156.1386974625657" sparseCutoff="1.0000000000000000"/>
      <sparseX i="271" alpha="10267.274302023256" sparseCutoff="1.0000000000000000"/>
      <sparseX i="272" alpha="17062.463756976820" sparseCutoff="1.0000000000000000"/>
      <sparseX i="273" alpha="7916.7008210847225" sparseCutoff="1.0000000000000000"/>
      <sparseX i="274" alpha="11016.104483058225" sparseCutoff="1.0000000000000000"/>
      <sparseX i="275" alpha="-2111.4742854253341" sparseCutoff="1.0000000000000000"/>
      <sparseX i="276" alpha="2542.7478413150852" sparseCutoff="1.0000000000000000"/>
      <sparseX i="277" alpha="-22779.668600975376" sparseCutoff="1.0000000000000000"/>
      <sparseX i="278" alpha="-9536.0287809459569" sparseCutoff="1.0000000000000000"/>
      <sparseX i="279" alpha="5888.5500140901349" sparseCutoff="1.0000000000000000"/>
      <sparseX i="280" alpha="-1609.5197859197658" sparseCutoff="1.0000000000000000"/>
      <sparseX i="281" alpha="5022.5675615026394" sparseCutoff="1.0000000000000000"/>
      <sparseX i="282" alpha="-5669.4925847557770" sparseCutoff="1.0000000000000000"/>
      <sparseX i="283" alpha="-1781.9248781437777" sparseCutoff="1.0000000000000000"/>
      <sparseX i="284" alpha="13190.647022680667" sparseCutoff="1.0000000000000000"/>
      <sparseX i="285" alpha="-12062.862494778836" sparseCutoff="1.0000000000000000"/>
      <sparseX i="286" alpha="-5345.4495379492009" sparseCutoff="1.0000000000000000"/>
      <sparseX i="287" alpha="-1634.1791236619588" sparseCutoff="1.0000000000000000"/>
      <sparseX i="288" alpha="2436.4551898222953" sparseCutoff="1.0000000000000000"/>
      <sparseX i="289" alpha="-2057.9709557173064" sparseCutoff="1.0000000000000000"/>
      <sparseX i="290" alpha="-3985.4097646921500" sparseCutoff="1.0000000000000000"/>
      <sparseX i="291" alpha="387.40365415581863" sparseCutoff="1.0000000000000000"/>
      <sparseX i="292" alpha="-1181.4220815858787" sparseCutoff="1.0000000000000000"/>
      <sparseX i="293" alpha="282.76610429317918" sparseCutoff="1.0000000000000000"/>
      <sparseX i="294" alpha="-1160.2851106245009" sparseCutoff="1.0000000000000000"/>
      <sparseX i="295" alpha="541.91062447000684" sparseCutoff="1.0000000000000000"/>
      <sparseX i="296" alpha="1175.1600419506256" sparseCutoff="1.0000000000000000"/>
      <sparseX i="297" alpha="-1032.9926524632515" sparseCutoff="1.0000000000000000"/>
      <sparseX i="298" alpha="226.22716496781695" sparseCutoff="1.0000000000000000"/>
      <sparseX i="299" alpha="-1715.0612732454579" sparseCutoff="1.0000000000000000"/>
      <sparseX i="300" alpha="298.14420188908980" sparseCutoff="1.0000000000000000"/>
      <sparseX i="301" alpha="-1380.2948605357458" sparseCutoff="1.0000000000000000"/>
      <sparseX i="302" alpha="907.81700068453495" sparseCutoff="1.0000000000000000"/>
      <sparseX i="303" alpha="-1249.5179755303764" sparseCutoff="1.0000000000000000"/>
      <sparseX i="304" alpha="1281.7950099915738" sparseCutoff="1.0000000000000000"/>
      <sparseX i="305" alpha="644.43566477259253" sparseCutoff="1.0000000000000000"/>
      <sparseX i="306" alpha="30.764309646013498" sparseCutoff="1.0000000000000000"/>
      <sparseX i="307" alpha="890.89833001835450" sparseCutoff="1.0000000000000000"/>
      <sparseX i="308" alpha="1249.8034042388599" sparseCutoff="1.0000000000000000"/>
      <sparseX i="309" alpha="12966.392329734368" sparseCutoff="1.0000000000000000"/>
      <sparseX i="310" alpha="-6639.8364366619662" sparseCutoff="1.0000000000000000"/>
      <sparseX i="311" alpha="3843.0688971925047" sparseCutoff="1.0000000000000000"/>
      <sparseX i="312" alpha="-12334.124650662987" sparseCutoff="1.0000000000000000"/>
      <sparseX i="313" alpha="1360.7448079784929" sparseCutoff="1.0000000000000000"/>
      <sparseX i="314" alpha="-3187.9028016042021" sparseCutoff="1.0000000000000000"/>
      <sparseX i="315" alpha="-11437.528665623640" sparseCutoff="1.0000000000000000"/>
      <sparseX i="316" alpha="13703.070433134606" sparseCutoff="1.0000000000000000"/>
      <sparseX i="317" alpha="-859.13346607944868" sparseCutoff="1.0000000000000000"/>
      <sparseX i="318" alpha="-542.55979482225314" sparseCutoff="1.0000000000000000"/>
      <sparseX i="319" alpha="19319.781939519944" sparseCutoff="1.0000000000000000"/>
      <sparseX i="320" alpha="4114.9894025585290" sparseCutoff="1.0000000000000000"/>
      <sparseX i="321" alpha="8003.6279474082385" sparseCutoff="1.0000000000000000"/>
      <sparseX i="322" alpha="-15200.166102327468" sparseCutoff="1.0000000000000000"/>
      <sparseX i="323" alpha="7156.3657987369988" sparseCutoff="1.0000000000000000"/>
      <sparseX i="324" alpha="8383.0906804810693" sparseCutoff="1.0000000000000000"/>
      <sparseX i="325" alpha="-7035.2929116902751" sparseCutoff="1.0000000000000000"/>
      <sparseX i="326" alpha="13391.884857737525" sparseCutoff="1.0000000000000000"/>
      <sparseX i="327" alpha="-13929.911289181688" sparseCutoff="1.0000000000000000"/>
      <sparseX i="328" alpha="-13088.457065422172" sparseCutoff="1.0000000000000000"/>
      <sparseX i="329" alpha="-9723.6606502641698" sparseCutoff="1.0000000000000000"/>
      <sparseX i="330" alpha="8582.8861578552714" sparseCutoff="1.0000000000000000"/>
      <sparseX i="331" alpha="4743.1316036599628" sparseCutoff="1.0000000000000000"/>
      <sparseX i="332" alpha="1391.5295511601259" sparseCutoff="1.0000000000000000"/>
      <sparseX i="333" alpha="-14615.509482478623" sparseCutoff="1.0000000000000000"/>
      <sparseX i="334" alpha="-2119.4518061939179" sparseCutoff="1.0000000000000000"/>
      <sparseX i="335" alpha="1842.4890044124929" sparseCutoff="1.0000000000000000"/>
      <sparseX i="336" alpha="2380.4076750335898" sparseCutoff="1.0000000000000000"/>
      <sparseX i="337" alpha="-5956.1565076575380" sparseCutoff="1.0000000000000000"/>
      <sparseX i="338" alpha="-3618.4099846014306" sparseCutoff="1.0000000000000000"/>
      <sparseX i="339" alpha="1613.8177108484385" sparseCutoff="1.0000000000000000"/>
      <sparseX i="340" alpha="998.84737767177364" sparseCutoff="1.0000000000000000"/>
      <sparseX i="341" alpha="-3231.8588732725448" sparseCutoff="1.0000000000000000"/>
      <sparseX i="342" alpha="-3485.7495479744989" sparseCutoff="1.0000000000000000"/>
      <sparseX i="343" alpha="2936.4627033870997" sparseCutoff="1.0000000000000000"/>
      <sparseX i="344" alpha="-1006.0916669113805" sparseCutoff="1.0000000000000000"/>
      <sparseX i="345" alpha="1706.9611642998518" sparseCutoff="1.0000000000000000"/>
      <sparseX i="346" alpha="4475.8485024277497" sparseCutoff="1.0000000000000000"/>
      <sparseX i="347" alpha="-2449.3130603558711" sparseCutoff="1.0000000000000000"/>
      <sparseX i="348" alpha="-2550.4895582022345" sparseCutoff="1.0000000000000000"/>
      <sparseX i="349" alpha="-3916.5358299804493" sparseCutoff="1.0000000000000000"/>
      <sparseX i="350" alpha="-29419.287580728360" sparseCutoff="1.0000000000000000"/>
      <sparseX i="351" alpha="4485.3709155445449" sparseCutoff="1.0000000000000000"/>
      <sparseX i="352" alpha="1015.4740299254446" sparseCutoff="1.0000000000000000"/>
      <sparseX i="353" alpha="7156.5639786941210" sparseCutoff="1.0000000000000000"/>
      <sparseX i="354" alpha="3651.7127122919983" sparseCutoff="1.0000000000000000"/>
      <sparseX i="355" alpha="3992.0175363415960" sparseCutoff="1.0000000000000000"/>
      <sparseX i="356" alpha="-3853.2068879050362" sparseCutoff="1.0000000000000000"/>
      <sparseX i="357" alpha="1392.8925897015934" sparseCutoff="1.0000000000000000"/>
      <sparseX i="358" alpha="-2482.8293862442924" sparseCutoff="1.0000000000000000"/>
      <sparseX i="359" alpha="-190.27938738710995" sparseCutoff="1.0000000000000000"/>
      <sparseX i="360" alpha="1947.4478175691099" sparseCutoff="1.0000000000000000"/>
      <sparseX i="361" alpha="-245.45653312076809" sparseCutoff="1.0000000000000000"/>
      <sparseX i="362" alpha="913.12145710287348" sparseCutoff="1.0000000000000000"/>
      <sparseX i="363" alpha="898.88809519762947" sparseCutoff="1.0000000000000000"/>
      <sparseX i="364" alpha="2220.9934168849704" sparseCutoff="1.0000000000000000"/>
      <sparseX i="365" alpha="-474.08695569669061" sparseCutoff="1.0000000000000000"/>
      <sparseX i="366" alpha="2595.8295857271801" sparseCutoff="1.0000000000000000"/>
      <sparseX i="367" alpha="-1330.0224709439794" sparseCutoff="1.0000000000000000"/>
      <sparseX i="368" alpha="1378.6325255502275" sparseCutoff="1.0000000000000000"/>
      <sparseX i="369" alpha="-486.30481969694853" sparseCutoff="1.0000000000000000"/>
      <sparseX i="370" alpha="303.25161186456467" sparseCutoff="1.0000000000000000"/>
      <sparseX i="371" alpha="303.43958918710018" sparseCutoff="1.0000000000000000"/>
      <sparseX i="372" alpha="-166.45416204583805" sparseCutoff="1.0000000000000000"/>
      <sparseX i="373" alpha="395.20752475504798" sparseCutoff="1.0000000000000000"/>
      <sparseX i="374" alpha="80.701469872106927" sparseCutoff="1.0000000000000000"/>
      <sparseX i="375" alpha="-71.495016384689634" sparseCutoff="1.0000000000000000"/>
      <sparseX i="376" alpha="-71.456731042554992" sparseCutoff="1.0000000000000000"/>
      <sparseX i="377" alpha="1255.2746118213904" sparseCutoff="1.0000000000000000"/>
      <sparseX i="378" alpha="-628.10704384201540" sparseCutoff="1.0000000000000000"/>
      <sparseX i="379" alpha="45.734403320704232" sparseCutoff="1.0000000000000000"/>
      <sparseX i="380" alpha="46.166113307071399" sparseCutoff="1.0000000000000000"/>
      <sparseX i="381" alpha="-276.35858871155142" sparseCutoff="1.0000000000000000"/>
      <sparseX i="382" alpha="-276.24218195542164" sparseCutoff="1.0000000000000000"/>
      <sparseX i="383" alpha="-514.68001794827785" sparseCutoff="1.0000000000000000"/>
      <sparseX i="384" alpha="-26.838929532787276" sparseCutoff="1.0000000000000000"/>
      <sparseX i="385" alpha="-26.918160729436128" sparseCutoff="1.0000000000000000"/>
      <sparseX i="386" alpha="236.05536606268478" sparseCutoff="1.0000000000000000"/>
      <sparseX i="387" alpha="721.71727114184796" sparseCutoff="1.0000000000000000"/>
      <sparseX i="388" alpha="64.748054545546864" sparseCutoff="1.0000000000000000"/>
      <sparseX i="389" alpha="64.798500743234541" sparseCutoff="1.0000000000000000"/>
      <sparseX i="390" alpha="-1392.0116823898613" sparseCutoff="1.0000000000000000"/>
      <sparseX i="391" alpha="-297.57454467599587" sparseCutoff="1.0000000000000000"/>
      <sparseX i="392" alpha="69.432326517618023" sparseCutoff="1.0000000000000000"/>
      <sparseX i="393" alpha="106.27998689700216" sparseCutoff="1.0000000000000000"/>
      <sparseX i="394" alpha="106.13419321782236" sparseCutoff="1.0000000000000000"/>
      <sparseX i="395" alpha="335.05734193695599" sparseCutoff="1.0000000000000000"/>
      <sparseX i="396" alpha="334.76244168676402" sparseCutoff="1.0000000000000000"/>
      <sparseX i="397" alpha="414.46868819566225" sparseCutoff="1.0000000000000000"/>
      <sparseX i="398" alpha="-889.69268155145471" sparseCutoff="1.0000000000000000"/>
      <sparseX i="399" alpha="-180.29737983107449" sparseCutoff="1.0000000000000000"/>
      <sparseX i="400" alpha="-56.884843765565925" sparseCutoff="1.0000000000000000"/>
      <sparseX i="401" alpha="-3.2236427361450044" sparseCutoff="1.0000000000000000"/>
      <sparseX i="402" alpha="-3291.3479883360983" sparseCutoff="1.0000000000000000"/>
      <sparseX i="403" alpha="-5352.6733896627229" sparseCutoff="1.0000000000000000"/>
      <sparseX i="404" alpha="-1077.7671389606444" sparseCutoff="1.0000000000000000"/>
      <sparseX i="405" alpha="4074.8686819131699" sparseCutoff="1.0000000000000000"/>
      <sparseX i="406" alpha="6220.1832814628560" sparseCutoff="1.0000000000000000"/>
      <sparseX i="407" alpha="-8269.0062116281279" sparseCutoff="1.0000000000000000"/>
      <sparseX i="408" alpha="-9744.6379767304206" sparseCutoff="1.0000000000000000"/>
      <sparseX i="409" alpha="-8968.8588897336249" sparseCutoff="1.0000000000000000"/>
      <sparseX i="410" alpha="5214.7951736961531" sparseCutoff="1.0000000000000000"/>
      <sparseX i="411" alpha="427.69555058203389" sparseCutoff="1.0000000000000000"/>
      <sparseX i="412" alpha="-4457.3305911663801" sparseCutoff="1.0000000000000000"/>
      <sparseX i="413" alpha="-13650.071812258706" sparseCutoff="1.0000000000000000"/>
      <sparseX i="414" alpha="4652.3501525591309" sparseCutoff="1.0000000000000000"/>
      <sparseX i="415" alpha="-9171.1426432120843" sparseCutoff="1.0000000000000000"/>
      <sparseX i="416" alpha="-1574.5653404817606" sparseCutoff="1.0000000000000000"/>
      <sparseX i="417" alpha="-13329.302656146239" sparseCutoff="1.0000000000000000"/>
      <sparseX i="418" alpha="-2774.4037892451829" sparseCutoff="1.0000000000000000"/>
      <sparseX i="419" alpha="3792.3472048425770" sparseCutoff="1.0000000000000000"/>
      <sparseX i="420" alpha="4000.5248076720904" sparseCutoff="1.0000000000000000"/>
      <sparseX i="421" alpha="-2245.6266304048845" sparseCutoff="1.0000000000000000"/>
      <sparseX i="422" alpha="-7041.7657374383498" sparseCutoff="1.0000000000000000"/>
      <sparseX i="423" alpha="1231.3181719795482" sparseCutoff="1.0000000000000000"/>
      <sparseX i="424" alpha="10922.892113951331" sparseCutoff="1.0000000000000000"/>
      <sparseX i="425" alpha="-10543.713093918261" sparseCutoff="1.0000000000000000"/>
      <sparseX i="426" alpha="7967.2042767262428" sparseCutoff="1.0000000000000000"/>
      <sparseX i="427" alpha="-359.98347483255236" sparseCutoff="1.0000000000000000"/>
      <sparseX i="428" alpha="-8308.8997653278402" sparseCutoff="1.0000000000000000"/>
      <sparseX i="429" alpha="13722.612683867714" sparseCutoff="1.0000000000000000"/>
      <sparseX i="430" alpha="11468.253170369149" sparseCutoff="1.0000000000000000"/>
      <sparseX i="431" alpha="4414.3922579830578" sparseCutoff="1.0000000000000000"/>
      <sparseX i="432" alpha="6346.3381710598051" sparseCutoff="1.0000000000000000"/>
      <sparseX i="433" alpha="1849.2668872325162" sparseCutoff="1.0000000000000000"/>
      <sparseX i="434" alpha="5098.7760638088303" sparseCutoff="1.0000000000000000"/>
      <sparseX i="435" alpha="8250.1610502499279" sparseCutoff="1.0000000000000000"/>
      <sparseX i="436" alpha="-11590.914216958314" sparseCutoff="1.0000000000000000"/>
      <sparseX i="437" alpha="-544.83494198099493" sparseCutoff="1.0000000000000000"/>
      <sparseX i="438" alpha="3353.4430870695724" sparseCutoff="1.0000000000000000"/>
      <sparseX i="439" alpha="-397.49426567026489" sparseCutoff="1.0000000000000000"/>
      <sparseX i="440" alpha="4231.7158705267821" sparseCutoff="1.0000000000000000"/>
      <sparseX i="441" alpha="7320.9181746891536" sparseCutoff="1.0000000000000000"/>
      <sparseX i="442" alpha="3555.9393987671233" sparseCutoff="1.0000000000000000"/>
      <sparseX i="443" alpha="3276.8061109377486" sparseCutoff="1.0000000000000000"/>
      <sparseX i="444" alpha="4864.7313601703618" sparseCutoff="1.0000000000000000"/>
      <sparseX i="445" alpha="2064.3446461879480" sparseCutoff="1.0000000000000000"/>
      <sparseX i="446" alpha="1490.1340920921859" sparseCutoff="1.0000000000000000"/>
      <sparseX i="447" alpha="-58.930110290340927" sparseCutoff="1.0000000000000000"/>
      <sparseX i="448" alpha="6241.9681348869635" sparseCutoff="1.0000000000000000"/>
      <sparseX i="449" alpha="3788.5243342133026" sparseCutoff="1.0000000000000000"/>
      <sparseX i="450" alpha="7429.7413465712725" sparseCutoff="1.0000000000000000"/>
      <sparseX i="451" alpha="-7760.1414996616568" sparseCutoff="1.0000000000000000"/>
      <sparseX i="452" alpha="-492.25784924465364" sparseCutoff="1.0000000000000000"/>
      <sparseX i="453" alpha="5636.6537204711449" sparseCutoff="1.0000000000000000"/>
      <sparseX i="454" alpha="16857.375356127784" sparseCutoff="1.0000000000000000"/>
      <sparseX i="455" alpha="-4461.2387484516648" sparseCutoff="1.0000000000000000"/>
      <sparseX i="456" alpha="293.07272141857038" sparseCutoff="1.0000000000000000"/>
      <sparseX i="457" alpha="-17863.476628004548" sparseCutoff="1.0000000000000000"/>
      <sparseX i="458" alpha="-153.51595407547671" sparseCutoff="1.0000000000000000"/>
      <sparseX i="459" alpha="6575.7817579466491" sparseCutoff="1.0000000000000000"/>
      <sparseX i="460" alpha="-8345.8386553908003" sparseCutoff="1.0000000000000000"/>
      <sparseX i="461" alpha="685.71148255333094" sparseCutoff="1.0000000000000000"/>
      <sparseX i="462" alpha="-7381.3017220464480" sparseCutoff="1.0000000000000000"/>
      <sparseX i="463" alpha="-13091.864982329538" sparseCutoff="1.0000000000000000"/>
      <sparseX i="464" alpha="1882.0036337656952" sparseCutoff="1.0000000000000000"/>
      <sparseX i="465" alpha="1173.3089544513091" sparseCutoff="1.0000000000000000"/>
      <sparseX i="466" alpha="12924.786547132053" sparseCutoff="1.0000000000000000"/>
      <sparseX i="467" alpha="-407.29174876722118" sparseCutoff="1.0000000000000000"/>
      <sparseX i="468" alpha="-4493.1302029943672" sparseCutoff="1.0000000000000000"/>
      <sparseX i="469" alpha="-316.76348058418603" sparseCutoff="1.0000000000000000"/>
      <sparseX i="470" alpha="6924.3560147663429" sparseCutoff="1.0000000000000000"/>
      <sparseX i="471" alpha="-2911.3195761896695" sparseCutoff="1.0000000000000000"/>
      <sparseX i="472" alpha="-15207.409537511892" sparseCutoff="1.0000000000000000"/>
      <sparseX i="473" alpha="8624.6943738539776" sparseCutoff="1.0000000000000000"/>
      <sparseX i="474" alpha="8137.4305403077306" sparseCutoff="1.0000000000000000"/>
      <sparseX i="475" alpha="-3794.0411609558805" sparseCutoff="1.0000000000000000"/>
      <sparseX i="476" alpha="1874.6658844409042" sparseCutoff="1.0000000000000000"/>
      <sparseX i="477" alpha="-2232.1749293633006" sparseCutoff="1.0000000000000000"/>
      <sparseX i="478" alpha="7933.4415963499005" sparseCutoff="1.0000000000000000"/>
      <sparseX i="479" alpha="-8507.3995585236153" sparseCutoff="1.0000000000000000"/>
      <sparseX i="480" alpha="10980.336191587059" sparseCutoff="1.0000000000000000"/>
      <sparseX i="481" alpha="-1592.1517784488310" sparseCutoff="1.0000000000000000"/>
      <sparseX i="482" alpha="-2949.6615279696252" sparseCutoff="1.0000000000000000"/>
      <sparseX i="483" alpha="-2761.3545157728213" sparseCutoff="1.0000000000000000"/>
      <sparseX i="484" alpha="-2300.8372026330217" sparseCutoff="1.0000000000000000"/>
      <sparseX i="485" alpha="-7070.5810970553248" sparseCutoff="1.0000000000000000"/>
      <sparseX i="486" alpha="4931.5891096961950" sparseCutoff="1.0000000000000000"/>
      <sparseX i="487" alpha="3233.8282144919640" sparseCutoff="1.0000000000000000"/>
      <sparseX i="488" alpha="-1758.2209692505699" sparseCutoff="1.0000000000000000"/>
      <sparseX i="489" alpha="5599.2290737880630" sparseCutoff="1.0000000000000000"/>
      <sparseX i="490" alpha="13674.595680250441" sparseCutoff="1.0000000000000000"/>
      <sparseX i="491" alpha="13093.656712269107" sparseCutoff="1.0000000000000000"/>
      <sparseX i="492" alpha="1415.3944753864914" sparseCutoff="1.0000000000000000"/>
      <sparseX i="493" alpha="-3548.7788723105191" sparseCutoff="1.0000000000000000"/>
      <sparseX i="494" alpha="-6722.2099182900683" sparseCutoff="1.0000000000000000"/>
      <sparseX i="495" alpha="-10582.339797949855" sparseCutoff="1.0000000000000000"/>
      <sparseX i="496" alpha="-129.54241009335635" sparseCutoff="1.0000000000000000"/>
      <sparseX i="497" alpha="-12209.624432251907" sparseCutoff="1.0000000000000000"/>
      <sparseX i="498" alpha="-1288.7765142734761" sparseCutoff="1.0000000000000000"/>
      <sparseX i="499" alpha="-1500.0150602902702" sparseCutoff="1.0000000000000000"/>
      <sparseX i="500" alpha="1642.1261176029243" sparseCutoff="1.0000000000000000"/>
      <sparseX i="501" alpha="-3821.0827210349526" sparseCutoff="1.0000000000000000"/>
      <sparseX i="502" alpha="2421.0772481086183" sparseCutoff="1.0000000000000000"/>
      <sparseX i="503" alpha="-9968.1983803052353" sparseCutoff="1.0000000000000000"/>
      <sparseX i="504" alpha="4065.2189120211069" sparseCutoff="1.0000000000000000"/>
      <sparseX i="505" alpha="-10588.362231384006" sparseCutoff="1.0000000000000000"/>
      <sparseX i="506" alpha="-7969.9167920168175" sparseCutoff="1.0000000000000000"/>
      <sparseX i="507" alpha="445.64399231822080" sparseCutoff="1.0000000000000000"/>
      <sparseX i="508" alpha="-9526.3539070502011" sparseCutoff="1.0000000000000000"/>
      <sparseX i="509" alpha="2208.4517750102636" sparseCutoff="1.0000000000000000"/>
      <sparseX i="510" alpha="1331.7237663899125" sparseCutoff="1.0000000000000000"/>
      <sparseX i="511" alpha="15711.039261434764" sparseCutoff="1.0000000000000000"/>
      <sparseX i="512" alpha="-2772.2490652696538" sparseCutoff="1.0000000000000000"/>
      <sparseX i="513" alpha="-24651.815692680793" sparseCutoff="1.0000000000000000"/>
      <sparseX i="514" alpha="11495.405682121311" sparseCutoff="1.0000000000000000"/>
      <sparseX i="515" alpha="-10219.213004538398" sparseCutoff="1.0000000000000000"/>
      <sparseX i="516" alpha="128.35192821310039" sparseCutoff="1.0000000000000000"/>
      <sparseX i="517" alpha="-3715.3484550618991" sparseCutoff="1.0000000000000000"/>
      <sparseX i="518" alpha="-5426.7467205613730" sparseCutoff="1.0000000000000000"/>
      <sparseX i="519" alpha="589.41795188906428" sparseCutoff="1.0000000000000000"/>
      <sparseX i="520" alpha="-2372.2260565749730" sparseCutoff="1.0000000000000000"/>
      <sparseX i="521" alpha="9149.0227485983178" sparseCutoff="1.0000000000000000"/>
      <sparseX i="522" alpha="298.55605994112244" sparseCutoff="1.0000000000000000"/>
      <sparseX i="523" alpha="-3905.5526311389472" sparseCutoff="1.0000000000000000"/>
      <sparseX i="524" alpha="553.80098119422018" sparseCutoff="1.0000000000000000"/>
      <sparseX i="525" alpha="1.0374103823633107" sparseCutoff="1.0000000000000000"/>
      <sparseX i="526" alpha="387.51056545362087" sparseCutoff="1.0000000000000000"/>
      <sparseX i="527" alpha="434.73522733401097" sparseCutoff="1.0000000000000000"/>
      <sparseX i="528" alpha="-1193.2295201089291" sparseCutoff="1.0000000000000000"/>
      <sparseX i="529" alpha="396.29691747044825" sparseCutoff="1.0000000000000000"/>
      <sparseX i="530" alpha="-204.85034486077066" sparseCutoff="1.0000000000000000"/>
      <sparseX i="531" alpha="353.94986385187411" sparseCutoff="1.0000000000000000"/>
      <sparseX i="532" alpha="1461.2782540022786" sparseCutoff="1.0000000000000000"/>
      <sparseX i="533" alpha="-528.95480723738626" sparseCutoff="1.0000000000000000"/>
      <sparseX i="534" alpha="-82.653763166907410" sparseCutoff="1.0000000000000000"/>
      <sparseX i="535" alpha="-239.47071726866255" sparseCutoff="1.0000000000000000"/>
      <sparseX i="536" alpha="264.96832655591197" sparseCutoff="1.0000000000000000"/>
      <sparseX i="537" alpha="-809.34294967297717" sparseCutoff="1.0000000000000000"/>
      <sparseX i="538" alpha="-14.565307668893208" sparseCutoff="1.0000000000000000"/>
      <sparseX i="539" alpha="-476.33435177897627" sparseCutoff="1.0000000000000000"/>
      <sparseX i="540" alpha="150.44338115830990" sparseCutoff="1.0000000000000000"/>
      <sparseX i="541" alpha="860.34776924503524" sparseCutoff="1.0000000000000000"/>
      <sparseX i="542" alpha="-855.61152978298298" sparseCutoff="1.0000000000000000"/>
      <sparseX i="543" alpha="510.37389668576446" sparseCutoff="1.0000000000000000"/>
      <sparseX i="544" alpha="-496.37693130180065" sparseCutoff="1.0000000000000000"/>
      <sparseX i="545" alpha="-613.59817220747868" sparseCutoff="1.0000000000000000"/>
      <sparseX i="546" alpha="1.1217907150898383" sparseCutoff="1.0000000000000000"/>
      <sparseX i="547" alpha="796.21425054802387" sparseCutoff="1.0000000000000000"/>
      <sparseX i="548" alpha="-170.65891218763565" sparseCutoff="1.0000000000000000"/>
      <sparseX i="549" alpha="737.73316653329243" sparseCutoff="1.0000000000000000"/>
      <sparseX i="550" alpha="86.368924814768974" sparseCutoff="1.0000000000000000"/>
      <sparseX i="551" alpha="273.12119151828591" sparseCutoff="1.0000000000000000"/>
      <sparseX i="552" alpha="473.72749487762178" sparseCutoff="1.0000000000000000"/>
      <sparseX i="553" alpha="883.30324067510389" sparseCutoff="1.0000000000000000"/>
      <sparseX i="554" alpha="426.78442394837339" sparseCutoff="1.0000000000000000"/>
      <sparseX i="555" alpha="214.08462005388702" sparseCutoff="1.0000000000000000"/>
      <sparseX i="556" alpha="928.01802657544749" sparseCutoff="1.0000000000000000"/>
      <sparseX i="557" alpha="615.14622307368347" sparseCutoff="1.0000000000000000"/>
      <sparseX i="558" alpha="516.51703029085093" sparseCutoff="1.0000000000000000"/>
      <sparseX i="559" alpha="-4.4421850269473753" sparseCutoff="1.0000000000000000"/>
      <sparseX i="560" alpha="-1135.8462204798598" sparseCutoff="1.0000000000000000"/>
      <sparseX i="561" alpha="-309.62596188350392" sparseCutoff="1.0000000000000000"/>
      <sparseX i="562" alpha="114.49253802015832" sparseCutoff="1.0000000000000000"/>
      <sparseX i="563" alpha="-642.37595387216322" sparseCutoff="1.0000000000000000"/>
      <sparseX i="564" alpha="428.20454414665596" sparseCutoff="1.0000000000000000"/>
      <sparseX i="565" alpha="663.65376852426652" sparseCutoff="1.0000000000000000"/>
      <sparseX i="566" alpha="-473.92876050106941" sparseCutoff="1.0000000000000000"/>
      <sparseX i="567" alpha="-1287.2116366049324" sparseCutoff="1.0000000000000000"/>
      <sparseX i="568" alpha="-651.53408933397588" sparseCutoff="1.0000000000000000"/>
      <sparseX i="569" alpha="-1155.5501703537232" sparseCutoff="1.0000000000000000"/>
      <sparseX i="570" alpha="1269.3132112568758" sparseCutoff="1.0000000000000000"/>
      <sparseX i="571" alpha="-758.18732069218140" sparseCutoff="1.0000000000000000"/>
      <sparseX i="572" alpha="-140.73177457195621" sparseCutoff="1.0000000000000000"/>
      <sparseX i="573" alpha="-126.70675970365295" sparseCutoff="1.0000000000000000"/>
      <sparseX i="574" alpha="-722.33966182746667" sparseCutoff="1.0000000000000000"/>
      <sparseX i="575" alpha="-994.18812359151730" sparseCutoff="1.0000000000000000"/>
      <sparseX i="576" alpha="259.34711304284184" sparseCutoff="1.0000000000000000"/>
      <sparseX i="577" alpha="220.43933039368690" sparseCutoff="1.0000000000000000"/>
      <sparseX i="578" alpha="763.14211855728900" sparseCutoff="1.0000000000000000"/>
      <sparseX i="579" alpha="873.19680766037493" sparseCutoff="1.0000000000000000"/>
      <sparseX i="580" alpha="3795.2735243054894" sparseCutoff="1.0000000000000000"/>
      <sparseX i="581" alpha="1809.8907805182469" sparseCutoff="1.0000000000000000"/>
      <sparseX i="582" alpha="5050.7910197355641" sparseCutoff="1.0000000000000000"/>
      <sparseX i="583" alpha="-10048.345871527548" sparseCutoff="1.0000000000000000"/>
      <sparseX i="584" alpha="3733.7833786582532" sparseCutoff="1.0000000000000000"/>
      <sparseX i="585" alpha="1992.8930175047562" sparseCutoff="1.0000000000000000"/>
      <sparseX i="586" alpha="8603.2306901187912" sparseCutoff="1.0000000000000000"/>
      <sparseX i="587" alpha="-878.77961616311518" sparseCutoff="1.0000000000000000"/>
      <sparseX i="588" alpha="-94.130600200292065" sparseCutoff="1.0000000000000000"/>
      <sparseX i="589" alpha="-3385.7373842447050" sparseCutoff="1.0000000000000000"/>
      <sparseX i="590" alpha="6056.5004527647316" sparseCutoff="1.0000000000000000"/>
      <sparseX i="591" alpha="3303.0844673937809" sparseCutoff="1.0000000000000000"/>
      <sparseX i="592" alpha="-1757.6290803741588" sparseCutoff="1.0000000000000000"/>
      <sparseX i="593" alpha="-2776.2465888946372" sparseCutoff="1.0000000000000000"/>
      <sparseX i="594" alpha="-4338.5242599127050" sparseCutoff="1.0000000000000000"/>
      <sparseX i="595" alpha="3697.7006745061854" sparseCutoff="1.0000000000000000"/>
      <sparseX i="596" alpha="-3507.8852700025645" sparseCutoff="1.0000000000000000"/>
      <sparseX i="597" alpha="-7221.9489652777083" sparseCutoff="1.0000000000000000"/>
      <sparseX i="598" alpha="-742.81964576429789" sparseCutoff="1.0000000000000000"/>
      <sparseX i="599" alpha="2879.4722927033999" sparseCutoff="1.0000000000000000"/>
      <sparseX i="600" alpha="-2718.9063948779749" sparseCutoff="1.0000000000000000"/>
      <sparseX i="601" alpha="2988.9100550829417" sparseCutoff="1.0000000000000000"/>
      <sparseX i="602" alpha="406.40881211721148" sparseCutoff="1.0000000000000000"/>
      <sparseX i="603" alpha="3292.5681894069230" sparseCutoff="1.0000000000000000"/>
      <sparseX i="604" alpha="1175.6759779537601" sparseCutoff="1.0000000000000000"/>
      <sparseX i="605" alpha="-2804.7784237408591" sparseCutoff="1.0000000000000000"/>
      <sparseX i="606" alpha="-13504.004374880627" sparseCutoff="1.0000000000000000"/>
      <sparseX i="607" alpha="-170.00693031562838" sparseCutoff="1.0000000000000000"/>
      <sparseX i="608" alpha="-4692.0178715094953" sparseCutoff="1.0000000000000000"/>
      <sparseX i="609" alpha="11836.185037344381" sparseCutoff="1.0000000000000000"/>
      <sparseX i="610" alpha="5101.7320971885356" sparseCutoff="1.0000000000000000"/>
      <sparseX i="611" alpha="4010.0741065604611" sparseCutoff="1.0000000000000000"/>
      <sparseX i="612" alpha="-3859.8924987426949" sparseCutoff="1.0000000000000000"/>
      <sparseX i="613" alpha="-1871.0355913365718" sparseCutoff="1.0000000000000000"/>
      <sparseX i="614" alpha="-10040.845632108680" sparseCutoff="1.0000000000000000"/>
      <sparseX i="615" alpha="-1953.6045482705024" sparseCutoff="1.0000000000000000"/>
      <sparseX i="616" alpha="-6785.5575461046828" sparseCutoff="1.0000000000000000"/>
      <sparseX i="617" alpha="-6273.3319656445074" sparseCutoff="1.0000000000000000"/>
      <sparseX i="618" alpha="-9519.4879022254518" sparseCutoff="1.0000000000000000"/>
      <sparseX i="619" alpha="10197.858949744743" sparseCutoff="1.0000000000000000"/>
      <sparseX i="620" alpha="-5335.9356889205610" sparseCutoff="1.0000000000000000"/>
      <sparseX i="621" alpha="14699.161704137938" sparseCutoff="1.0000000000000000"/>
      <sparseX i="622" alpha="5068.1003518195812" sparseCutoff="1.0000000000000000"/>
      <sparseX i="623" alpha="7502.5783552770290" sparseCutoff="1.0000000000000000"/>
      <sparseX i="624" alpha="3200.7722358662181" sparseCutoff="1.0000000000000000"/>
      <sparseX i="625" alpha="-3785.2841605326475" sparseCutoff="1.0000000000000000"/>
      <sparseX i="626" alpha="3329.0533541093369" sparseCutoff="1.0000000000000000"/>
      <sparseX i="627" alpha="-1578.1715769592386" sparseCutoff="1.0000000000000000"/>
      <sparseX i="628" alpha="-5668.8616853660415" sparseCutoff="1.0000000000000000"/>
      <sparseX i="629" alpha="-1331.9806677636930" sparseCutoff="1.0000000000000000"/>
      <sparseX i="630" alpha="2456.1850582199345" sparseCutoff="1.0000000000000000"/>
      <sparseX i="631" alpha="9359.2757354476471" sparseCutoff="1.0000000000000000"/>
      <sparseX i="632" alpha="11068.271441162382" sparseCutoff="1.0000000000000000"/>
      <sparseX i="633" alpha="-8106.1425656168758" sparseCutoff="1.0000000000000000"/>
      <sparseX i="634" alpha="-7066.7910534268640" sparseCutoff="1.0000000000000000"/>
      <sparseX i="635" alpha="-10769.018512984690" sparseCutoff="1.0000000000000000"/>
      <sparseX i="636" alpha="2771.5024045396935" sparseCutoff="1.0000000000000000"/>
      <sparseX i="637" alpha="-3837.9571122857883" sparseCutoff="1.0000000000000000"/>
      <sparseX i="638" alpha="8908.6555808313333" sparseCutoff="1.0000000000000000"/>
      <sparseX i="639" alpha="-5253.1611119913296" sparseCutoff="1.0000000000000000"/>
      <sparseX i="640" alpha="-5788.6744850076993" sparseCutoff="1.0000000000000000"/>
      <sparseX i="641" alpha="6969.2727592879492" sparseCutoff="1.0000000000000000"/>
      <sparseX i="642" alpha="2202.3547086703993" sparseCutoff="1.0000000000000000"/>
      <sparseX i="643" alpha="2529.4487388863618" sparseCutoff="1.0000000000000000"/>
      <sparseX i="644" alpha="3278.2809287530508" sparseCutoff="1.0000000000000000"/>
      <sparseX i="645" alpha="-2108.7438582262848" sparseCutoff="1.0000000000000000"/>
      <sparseX i="646" alpha="2171.4652210267363" sparseCutoff="1.0000000000000000"/>
      <sparseX i="647" alpha="6553.4167562225184" sparseCutoff="1.0000000000000000"/>
      <sparseX i="648" alpha="489.32540174535205" sparseCutoff="1.0000000000000000"/>
      <sparseX i="649" alpha="1805.9344473300980" sparseCutoff="1.0000000000000000"/>
      <sparseX i="650" alpha="2335.8596711040218" sparseCutoff="1.0000000000000000"/>
      <sparseX i="651" alpha="5662.8409907504565" sparseCutoff="1.0000000000000000"/>
      <sparseX i="652" alpha="-5760.2335972617875" sparseCutoff="1.0000000000000000"/>
      <sparseX i="653" alpha="7236.9606437627099" sparseCutoff="1.0000000000000000"/>
      <sparseX i="654" alpha="2357.2431686644072" sparseCutoff="1.0000000000000000"/>
      <sparseX i="655" alpha="1230.4736179491608" sparseCutoff="1.0000000000000000"/>
      <sparseX i="656" alpha="10605.382271329747" sparseCutoff="1.0000000000000000"/>
      <sparseX i="657" alpha="4357.2083817687444" sparseCutoff="1.0000000000000000"/>
      <sparseX i="658" alpha="-6608.8389746724897" sparseCutoff="1.0000000000000000"/>
      <sparseX i="659" alpha="-2187.4767441794534" sparseCutoff="1.0000000000000000"/>
      <sparseX i="660" alpha="4665.6080993082933" sparseCutoff="1.0000000000000000"/>
      <sparseX i="661" alpha="1640.2176396257175" sparseCutoff="1.0000000000000000"/>
      <sparseX i="662" alpha="-9023.5765804655312" sparseCutoff="1.0000000000000000"/>
      <sparseX i="663" alpha="-3316.6627373407714" sparseCutoff="1.0000000000000000"/>
      <sparseX i="664" alpha="423.24769841433476" sparseCutoff="1.0000000000000000"/>
      <sparseX i="665" alpha="-3443.8208881172595" sparseCutoff="1.0000000000000000"/>
      <sparseX i="666" alpha="-1382.9507458206397" sparseCutoff="1.0000000000000000"/>
      <sparseX i="667" alpha="-1830.7591512063800" sparseCutoff="1.0000000000000000"/>
      <sparseX i="668" alpha="12587.702061081365" sparseCutoff="1.0000000000000000"/>
      <sparseX i="669" alpha="1657.8614435496863" sparseCutoff="1.0000000000000000"/>
      <sparseX i="670" alpha="-3487.3925645519680" sparseCutoff="1.0000000000000000"/>
      <sparseX i="671" alpha="-3589.5377619407086" sparseCutoff="1.0000000000000000"/>
      <sparseX i="672" alpha="-1401.9148994645600" sparseCutoff="1.0000000000000000"/>
      <sparseX i="673" alpha="133.26222006111470" sparseCutoff="1.0000000000000000"/>
      <sparseX i="674" alpha="3285.5419332078177" sparseCutoff="1.0000000000000000"/>
      <sparseX i="675" alpha="3035.7014403128455" sparseCutoff="1.0000000000000000"/>
      <sparseX i="676" alpha="-10.148622128384060" sparseCutoff="1.0000000000000000"/>
      <sparseX i="677" alpha="-110.63331401277522" sparseCutoff="1.0000000000000000"/>
      <sparseX i="678" alpha="27.146111186489161" sparseCutoff="1.0000000000000000"/>
      <sparseX i="679" alpha="31.644375918841600" sparseCutoff="1.0000000000000000"/>
      <sparseX i="680" alpha="34.444070219780663" sparseCutoff="1.0000000000000000"/>
      <sparseX i="681" alpha="17.869334713448065" sparseCutoff="1.0000000000000000"/>
      <sparseX i="682" alpha="-14.718736592492936" sparseCutoff="1.0000000000000000"/>
      <sparseX i="683" alpha="-28.285624964162249" sparseCutoff="1.0000000000000000"/>
      <sparseX i="684" alpha="-72.784179555722588" sparseCutoff="1.0000000000000000"/>
      <sparseX i="685" alpha="145.10747753276235" sparseCutoff="1.0000000000000000"/>
      <sparseX i="686" alpha="66.727581657673241" sparseCutoff="1.0000000000000000"/>
      <sparseX i="687" alpha="413.33461501475227" sparseCutoff="1.0000000000000000"/>
      <sparseX i="688" alpha="64.521600784430134" sparseCutoff="1.0000000000000000"/>
      <sparseX i="689" alpha="123.13096946373489" sparseCutoff="1.0000000000000000"/>
      <sparseX i="690" alpha="111.12521880826550" sparseCutoff="1.0000000000000000"/>
      <sparseX i="691" alpha="191.24173136102294" sparseCutoff="1.0000000000000000"/>
      <sparseX i="692" alpha="-78.540245191184908" sparseCutoff="1.0000000000000000"/>
      <sparseX i="693" alpha="105.85335129778883" sparseCutoff="1.0000000000000000"/>
      <sparseX i="694" alpha="-248.22320155660856" sparseCutoff="1.0000000000000000"/>
      <sparseX i="695" alpha="-148.57394075005706" sparseCutoff="1.0000000000000000"/>
      <sparseX i="696" alpha="-125.02677815968433" sparseCutoff="1.0000000000000000"/>
      <sparseX i="697" alpha="-21.971212363964124" sparseCutoff="1.0000000000000000"/>
      <sparseX i="698" alpha="-100.72600906158716" sparseCutoff="1.0000000000000000"/>
      <sparseX i="699" alpha="59.948036716074498" sparseCutoff="1.0000000000000000"/>
      <sparseX i="700" alpha="-149.01625354045819" sparseCutoff="1.0000000000000000"/>
      <sparseX i="701" alpha="103.10231652994584" sparseCutoff="1.0000000000000000"/>
      <sparseX i="702" alpha="115.30954484508970" sparseCutoff="1.0000000000000000"/>
      <sparseX i="703" alpha="320.77262101903221" sparseCutoff="1.0000000000000000"/>
      <sparseX i="704" alpha="-69.933994388723903" sparseCutoff="1.0000000000000000"/>
      <sparseX i="705" alpha="-238.96066295758624" sparseCutoff="1.0000000000000000"/>
      <sparseX i="706" alpha="162.27023641811766" sparseCutoff="1.0000000000000000"/>
      <sparseX i="707" alpha="-25.076343233293539" sparseCutoff="1.0000000000000000"/>
      <sparseX i="708" alpha="1.1213594533083677" sparseCutoff="1.0000000000000000"/>
      <sparseX i="709" alpha="375.38004440465664" sparseCutoff="1.0000000000000000"/>
      <sparseX i="710" alpha="53.676846744536761" sparseCutoff="1.0000000000000000"/>
      <sparseX i="711" alpha="-178.86946166931452" sparseCutoff="1.0000000000000000"/>
      <sparseX i="712" alpha="1.8749699910238824" sparseCutoff="1.0000000000000000"/>
      <sparseX i="713" alpha="-19.730843447785265" sparseCutoff="1.0000000000000000"/>
      <sparseX i="714" alpha="137.58512862519848" sparseCutoff="1.0000000000000000"/>
      <sparseX i="715" alpha="-125.81156158020448" sparseCutoff="1.0000000000000000"/>
      <sparseX i="716" alpha="215.79307979019489" sparseCutoff="1.0000000000000000"/>
      <sparseX i="717" alpha="-363.90082820152975" sparseCutoff="1.0000000000000000"/>
      <sparseX i="718" alpha="-111.16804191343141" sparseCutoff="1.0000000000000000"/>
      <sparseX i="719" alpha="86.548937810903652" sparseCutoff="1.0000000000000000"/>
      <sparseX i="720" alpha="-109.10657505493559" sparseCutoff="1.0000000000000000"/>
      <sparseX i="721" alpha="-23.523779348758058" sparseCutoff="1.0000000000000000"/>
      <sparseX i="722" alpha="-20.703861765965730" sparseCutoff="1.0000000000000000"/>
      <sparseX i="723" alpha="6.8888558320518936" sparseCutoff="1.0000000000000000"/>
      <sparseX i="724" alpha="63.421967821509519" sparseCutoff="1.0000000000000000"/>
      <sparseX i="725" alpha="21.858428469960295" sparseCutoff="1.0000000000000000"/>
      <sparseX i="726" alpha="-170.53617962418824" sparseCutoff="1.0000000000000000"/>
      <sparseX i="727" alpha="-92.824937363378638" sparseCutoff="1.0000000000000000"/>
      <sparseX i="728" alpha="85.802330564500906" sparseCutoff="1.0000000000000000"/>
      <sparseX i="729" alpha="-171.90974837112256" sparseCutoff="1.0000000000000000"/>
      <sparseX i="730" alpha="-344.06339488423521" sparseCutoff="1.0000000000000000"/>
      <sparseX i="731" alpha="84.640227697635837" sparseCutoff="1.0000000000000000"/>
      <sparseX i="732" alpha="-1.7325866290554870" sparseCutoff="1.0000000000000000"/>
      <sparseX i="733" alpha="91.208441354273816" sparseCutoff="1.0000000000000000"/>
      <sparseX i="734" alpha="-523.52342136729840" sparseCutoff="1.0000000000000000"/>
      <sparseX i="735" alpha="-205.22170523434190" sparseCutoff="1.0000000000000000"/>
      <sparseX i="736" alpha="-116.21170452002831" sparseCutoff="1.0000000000000000"/>
      <sparseX i="737" alpha="-142.63082724092413" sparseCutoff="1.0000000000000000"/>
      <sparseX i="738" alpha="-213.95309961330639" sparseCutoff="1.0000000000000000"/>
      <sparseX i="739" alpha="92.920990871619935" sparseCutoff="1.0000000000000000"/>
      <sparseX i="740" alpha="-184.73009496511273" sparseCutoff="1.0000000000000000"/>
      <sparseX i="741" alpha="106.92365002852443" sparseCutoff="1.0000000000000000"/>
      <sparseX i="742" alpha="-113.63739542667892" sparseCutoff="1.0000000000000000"/>
      <sparseX i="743" alpha="-65.537929634610379" sparseCutoff="1.0000000000000000"/>
      <sparseX i="744" alpha="-82.288329047505229" sparseCutoff="1.0000000000000000"/>
      <sparseX i="745" alpha="123.36919604149452" sparseCutoff="1.0000000000000000"/>
      <sparseX i="746" alpha="-133.56064465480577" sparseCutoff="1.0000000000000000"/>
      <sparseX i="747" alpha="104.67420927515788" sparseCutoff="1.0000000000000000"/>
      <sparseX i="748" alpha="-272.15277154948126" sparseCutoff="1.0000000000000000"/>
      <sparseX i="749" alpha="116.76256492045117" sparseCutoff="1.0000000000000000"/>
      <sparseX i="750" alpha="-209.48764376820620" sparseCutoff="1.0000000000000000"/>
      <sparseX i="751" alpha="138.85350872817227" sparseCutoff="1.0000000000000000"/>
      <sparseX i="752" alpha="-231.34360630826473" sparseCutoff="1.0000000000000000"/>
      <sparseX i="753" alpha="175.56201077655277" sparseCutoff="1.0000000000000000"/>
      <sparseX i="754" alpha="-20.596107140469936" sparseCutoff="1.0000000000000000"/>
      <sparseX i="755" alpha="4.0875350069103318" sparseCutoff="1.0000000000000000"/>
      <sparseX i="756" alpha="-299.30459457906528" sparseCutoff="1.0000000000000000"/>
      <sparseX i="757" alpha="-34.709929650331404" sparseCutoff="1.0000000000000000"/>
      <sparseX i="758" alpha="55.717107538547758" sparseCutoff="1.0000000000000000"/>
      <sparseX i="759" alpha="126.35654542048125" sparseCutoff="1.0000000000000000"/>
      <sparseX i="760" alpha="-85.883988089034474" sparseCutoff="1.0000000000000000"/>
      <sparseX i="761" alpha="36.945737561835266" sparseCutoff="1.0000000000000000"/>
      <sparseX i="762" alpha="-76.906607492560425" sparseCutoff="1.0000000000000000"/>
      <sparseX i="763" alpha="-129.71476023881243" sparseCutoff="1.0000000000000000"/>
      <sparseX i="764" alpha="-121.64236054344052" sparseCutoff="1.0000000000000000"/>
      <sparseX i="765" alpha="10.149585373708639" sparseCutoff="1.0000000000000000"/>
      <sparseX i="766" alpha="-43.594885045638684" sparseCutoff="1.0000000000000000"/>
      <sparseX i="767" alpha="-2.9404551556699965" sparseCutoff="1.0000000000000000"/>
      <sparseX i="768" alpha="-96.909866900312011" sparseCutoff="1.0000000000000000"/>
      <sparseX i="769" alpha="-27.143010092720591" sparseCutoff="1.0000000000000000"/>
      <sparseX i="770" alpha="71.474964200222871" sparseCutoff="1.0000000000000000"/>
      <sparseX i="771" alpha="-41.456242759409371" sparseCutoff="1.0000000000000000"/>
      <sparseX i="772" alpha="280.33299287788276" sparseCutoff="1.0000000000000000"/>
      <sparseX i="773" alpha="3.8913634212834607" sparseCutoff="1.0000000000000000"/>
      <sparseX i="774" alpha="260.04537659462773" sparseCutoff="1.0000000000000000"/>
      <sparseX i="775" alpha="-13.567746396571486" sparseCutoff="1.0000000000000000"/>
      <sparseX i="776" alpha="98.481946152373055" sparseCutoff="1.0000000000000000"/>
      <sparseX i="777" alpha="-248.26615760499547" sparseCutoff="1.0000000000000000"/>
      <sparseX i="778" alpha="108.71802148337369" sparseCutoff="1.0000000000000000"/>
      <sparseX i="779" alpha="-28.861573837299726" sparseCutoff="1.0000000000000000"/>
      <sparseX i="780" alpha="106.09999811338443" sparseCutoff="1.0000000000000000"/>
      <sparseX i="781" alpha="-227.45969784449915" sparseCutoff="1.0000000000000000"/>
      <sparseX i="782" alpha="111.97158177165075" sparseCutoff="1.0000000000000000"/>
      <sparseX i="783" alpha="32.029649987911249" sparseCutoff="1.0000000000000000"/>
      <sparseX i="784" alpha="-148.68782101232651" sparseCutoff="1.0000000000000000"/>
      <sparseX i="785" alpha="17.670763536240198" sparseCutoff="1.0000000000000000"/>
      <sparseX i="786" alpha="139.09356213893273" sparseCutoff="1.0000000000000000"/>
      <sparseX i="787" alpha="-20.416645053928196" sparseCutoff="1.0000000000000000"/>
      <sparseX i="788" alpha="215.23129362987609" sparseCutoff="1.0000000000000000"/>
      <sparseX i="789" alpha="65.462347757759687" sparseCutoff="1.0000000000000000"/>
      <sparseX i="790" alpha="-264.22071716827367" sparseCutoff="1.0000000000000000"/>
      <sparseX i="791" alpha="-217.75076443217253" sparseCutoff="1.0000000000000000"/>
      <sparseX i="792" alpha="-156.81177438630451" sparseCutoff="1.0000000000000000"/>
      <sparseX i="793" alpha="104.02780476013476" sparseCutoff="1.0000000000000000"/>
      <sparseX i="794" alpha="-.47076920752862694" sparseCutoff="1.0000000000000000"/>
      <sparseX i="795" alpha="297.32647950784292" sparseCutoff="1.0000000000000000"/>
      <sparseX i="796" alpha="-227.11309102655733" sparseCutoff="1.0000000000000000"/>
      <sparseX i="797" alpha="-122.05733272699383" sparseCutoff="1.0000000000000000"/>
      <sparseX i="798" alpha="-24.006228255960636" sparseCutoff="1.0000000000000000"/>
      <sparseX i="799" alpha="-101.61517623847450" sparseCutoff="1.0000000000000000"/>
      <sparseX i="800" alpha="42.705523883030438" sparseCutoff="1.0000000000000000"/>
      <sparseX i="801" alpha="68.620560121724139" sparseCutoff="1.0000000000000000"/>
      <sparseX i="802" alpha="-252.70098802438156" sparseCutoff="1.0000000000000000"/>
      <sparseX i="803" alpha="206.95307846943857" sparseCutoff="1.0000000000000000"/>
      <sparseX i="804" alpha="161.32345422329001" sparseCutoff="1.0000000000000000"/>
      <sparseX i="805" alpha="39.893421940508787" sparseCutoff="1.0000000000000000"/>
      <sparseX i="806" alpha="64.732549924232075" sparseCutoff="1.0000000000000000"/>
      <sparseX i="807" alpha="-180.69274442501151" sparseCutoff="1.0000000000000000"/>
      <sparseX i="808" alpha="132.86935277395787" sparseCutoff="1.0000000000000000"/>
      <sparseX i="809" alpha="-113.39099757268261" sparseCutoff="1.0000000000000000"/>
      <sparseX i="810" alpha="-40.820650285456708" sparseCutoff="1.0000000000000000"/>
      <sparseX i="811" alpha="62.734885622651227" sparseCutoff="1.0000000000000000"/>
      <sparseX i="812" alpha="23.580360913470422" sparseCutoff="1.0000000000000000"/>
      <sparseX i="813" alpha="-150.34741414143340" sparseCutoff="1.0000000000000000"/>
      <sparseX i="814" alpha="-11.339534748833293" sparseCutoff="1.0000000000000000"/>
      <sparseX i="815" alpha="297.70606067908705" sparseCutoff="1.0000000000000000"/>
      <sparseX i="816" alpha="17.359090619191740" sparseCutoff="1.0000000000000000"/>
      <sparseX i="817" alpha="49.247008974700506" sparseCutoff="1.0000000000000000"/>
      <sparseX i="818" alpha="180.68605615865070" sparseCutoff="1.0000000000000000"/>
      <sparseX i="819" alpha="173.02637490114395" sparseCutoff="1.0000000000000000"/>
      <sparseX i="820" alpha="-130.79289463353174" sparseCutoff="1.0000000000000000"/>
      <sparseX i="821" alpha="-21.655223273135331" sparseCutoff="1.0000000000000000"/>
      <sparseX i="822" alpha="179.87700322463007" sparseCutoff="1.0000000000000000"/>
      <sparseX i="823" alpha="74.402723006340310" sparseCutoff="1.0000000000000000"/>
      <sparseX i="824" alpha="-67.373504376594894" sparseCutoff="1.0000000000000000"/>
      <sparseX i="825" alpha="26.865788814369576" sparseCutoff="1.0000000000000000"/>
      <sparseX i="826" alpha="131.13351051543120" sparseCutoff="1.0000000000000000"/>
      <sparseX i="827" alpha="4.9391433317932041" sparseCutoff="1.0000000000000000"/>
      <sparseX i="828" alpha="-42.730082665641966" sparseCutoff="1.0000000000000000"/>
      <sparseX i="829" alpha="2.9683360692739078" sparseCutoff="1.0000000000000000"/>
      <sparseX i="830" alpha="237.53374988700457" sparseCutoff="1.0000000000000000"/>
      <sparseX i="831" alpha="-332.04552035947216" sparseCutoff="1.0000000000000000"/>
      <sparseX i="832" alpha="81.691936999287094" sparseCutoff="1.0000000000000000"/>
      <sparseX i="833" alpha="-4.9107544736844257" sparseCutoff="1.0000000000000000"/>
      <sparseX i="834" alpha="-45.267020361458719" sparseCutoff="1.0000000000000000"/>
      <sparseX i="835" alpha="111.74264080729888" sparseCutoff="1.0000000000000000"/>
      <sparseX i="836" alpha="148.33072659853059" sparseCutoff="1.0000000000000000"/>
      <sparseX i="837" alpha="78.542647516253169" sparseCutoff="1.0000000000000000"/>
      <sparseX i="838" alpha="-42.991113910549693" sparseCutoff="1.0000000000000000"/>
      <sparseX i="839" alpha="-5.0471230722326608" sparseCutoff="1.0000000000000000"/>
      <sparseX i="840" alpha="-15.271051876179531" sparseCutoff="1.0000000000000000"/>
      <sparseX i="841" alpha="-38.262092346868087" sparseCutoff="1.0000000000000000"/>
      <sparseX i="842" alpha="76.752689256382183" sparseCutoff="1.0000000000000000"/>
      <sparseX i="843" alpha="-82.420811729102127" sparseCutoff="1.0000000000000000"/>
      <sparseX i="844" alpha="-9.7065240852455030" sparseCutoff="1.0000000000000000"/>
      <sparseX i="845" alpha="67.303810288783012" sparseCutoff="1.0000000000000000"/>
      <sparseX i="846" alpha="23.899500813518191" sparseCutoff="1.0000000000000000"/>
      <sparseX i="847" alpha="-78.903714581259436" sparseCutoff="1.0000000000000000"/>
      <sparseX i="848" alpha=".12569411742773282" sparseCutoff="1.0000000000000000"/>
      <sparseX i="849" alpha="-101.32865422904020" sparseCutoff="1.0000000000000000"/>
      <sparseX i="850" alpha="201.15134554261076" sparseCutoff="1.0000000000000000"/>
      <sparseX i="851" alpha="71.050428331721776" sparseCutoff="1.0000000000000000"/>
      <sparseX i="852" alpha="223.66706397832922" sparseCutoff="1.0000000000000000"/>
      <sparseX i="853" alpha="-157.59418725511486" sparseCutoff="1.0000000000000000"/>
      <sparseX i="854" alpha="41.742790429435992" sparseCutoff="1.0000000000000000"/>
      <sparseX i="855" alpha="65.907761635832614" sparseCutoff="1.0000000000000000"/>
      <sparseX i="856" alpha="76.935572288347970" sparseCutoff="1.0000000000000000"/>
      <sparseX i="857" alpha="-5.5329614079363649" sparseCutoff="1.0000000000000000"/>
      <sparseX i="858" alpha="146.65511437317295" sparseCutoff="1.0000000000000000"/>
      <sparseX i="859" alpha="-125.15722939020148" sparseCutoff="1.0000000000000000"/>
      <sparseX i="860" alpha="209.79137750095828" sparseCutoff="1.0000000000000000"/>
      <sparseX i="861" alpha="-50.995270086778973" sparseCutoff="1.0000000000000000"/>
      <sparseX i="862" alpha="299.99907957960079" sparseCutoff="1.0000000000000000"/>
      <sparseX i="863" alpha="-123.94392267096865" sparseCutoff="1.0000000000000000"/>
      <sparseX i="864" alpha="-2.6486098219239018" sparseCutoff="1.0000000000000000"/>
      <sparseX i="865" alpha="134.53602000031719" sparseCutoff="1.0000000000000000"/>
      <sparseX i="866" alpha="11.176307028321897" sparseCutoff="1.0000000000000000"/>
      <sparseX i="867" alpha="-2.1913764179566253" sparseCutoff="1.0000000000000000"/>
      <sparseX i="868" alpha="-48.538652688791238" sparseCutoff="1.0000000000000000"/>
      <sparseX i="869" alpha="-84.465255156655275" sparseCutoff="1.0000000000000000"/>
      <sparseX i="870" alpha="5.9460858059249411" sparseCutoff="1.0000000000000000"/>
      <sparseX i="871" alpha="-180.90342678805277" sparseCutoff="1.0000000000000000"/>
      <sparseX i="872" alpha="9.6852538727765243" sparseCutoff="1.0000000000000000"/>
      <sparseX i="873" alpha="278.89081616859835" sparseCutoff="1.0000000000000000"/>
      <sparseX i="874" alpha="28.250739451930922" sparseCutoff="1.0000000000000000"/>
      <sparseX i="875" alpha="-17.140916934724739" sparseCutoff="1.0000000000000000"/>
      <sparseX i="876" alpha="-121.58937707838811" sparseCutoff="1.0000000000000000"/>
      <sparseX i="877" alpha="-6.7439581416141250" sparseCutoff="1.0000000000000000"/>
      <sparseX i="878" alpha="61.239160872464360" sparseCutoff="1.0000000000000000"/>
      <sparseX i="879" alpha="-146.84680333763313" sparseCutoff="1.0000000000000000"/>
      <sparseX i="880" alpha="72.286656606478630" sparseCutoff="1.0000000000000000"/>
      <sparseX i="881" alpha="-87.572268815545826" sparseCutoff="1.0000000000000000"/>
      <sparseX i="882" alpha="-48.928289648808004" sparseCutoff="1.0000000000000000"/>
      <sparseX i="883" alpha="5.2660430968540624" sparseCutoff="1.0000000000000000"/>
      <sparseX i="884" alpha="-28.200785813380392" sparseCutoff="1.0000000000000000"/>
      <sparseX i="885" alpha="48.811979826086301" sparseCutoff="1.0000000000000000"/>
      <sparseX i="886" alpha="-76.927430414139465" sparseCutoff="1.0000000000000000"/>
      <sparseX i="887" alpha="-28.155031510271520" sparseCutoff="1.0000000000000000"/>
      <sparseX i="888" alpha="-148.99322503494778" sparseCutoff="1.0000000000000000"/>
      <sparseX i="889" alpha="17.036802181761725" sparseCutoff="1.0000000000000000"/>
      <sparseX i="890" alpha="-63.258459192560579" sparseCutoff="1.0000000000000000"/>
      <sparseX i="891" alpha="23.687758059608342" sparseCutoff="1.0000000000000000"/>
      <sparseX i="892" alpha="-277.88238384044240" sparseCutoff="1.0000000000000000"/>
      <sparseX i="893" alpha="-109.81051141330136" sparseCutoff="1.0000000000000000"/>
      <sparseX i="894" alpha="-74.460467575982946" sparseCutoff="1.0000000000000000"/>
      <sparseX i="895" alpha="-233.29503011783058" sparseCutoff="1.0000000000000000"/>
      <sparseX i="896" alpha="32.108998648979536" sparseCutoff="1.0000000000000000"/>
      <sparseX i="897" alpha="81.871616875527906" sparseCutoff="1.0000000000000000"/>
      <sparseX i="898" alpha="-103.55508450273140" sparseCutoff="1.0000000000000000"/>
      <sparseX i="899" alpha="35.191244804160604" sparseCutoff="1.0000000000000000"/>
      <sparseX i="900" alpha="240.87827217516491" sparseCutoff="1.0000000000000000"/>
      <sparseX i="901" alpha="70.570138393201688" sparseCutoff="1.0000000000000000"/>
      <sparseX i="902" alpha="146.18411910601171" sparseCutoff="1.0000000000000000"/>
      <sparseX i="903" alpha="285.23768184743153" sparseCutoff="1.0000000000000000"/>
      <sparseX i="904" alpha="-69.800155585562635" sparseCutoff="1.0000000000000000"/>
      <sparseX i="905" alpha="-59.705089396038410" sparseCutoff="1.0000000000000000"/>
      <sparseX i="906" alpha="70.068489678678830" sparseCutoff="1.0000000000000000"/>
      <sparseX i="907" alpha="-9.7128234954779664" sparseCutoff="1.0000000000000000"/>
      <sparseX i="908" alpha="-28.676963758604042" sparseCutoff="1.0000000000000000"/>
      <sparseX i="909" alpha="-137.51291419726971" sparseCutoff="1.0000000000000000"/>
      <sparseX i="910" alpha="64.802685166457266" sparseCutoff="1.0000000000000000"/>
      <sparseX i="911" alpha="57.687418471669183" sparseCutoff="1.0000000000000000"/>
      <sparseX i="912" alpha="48.101225589290813" sparseCutoff="1.0000000000000000"/>
      <sparseX i="913" alpha="-201.11974742889728" sparseCutoff="1.0000000000000000"/>
      <sparseX i="914" alpha="171.81481468391030" sparseCutoff="1.0000000000000000"/>
      <sparseX i="915" alpha="84.055126144702911" sparseCutoff="1.0000000000000000"/>
      <sparseX i="916" alpha="-35.096336615707571" sparseCutoff="1.0000000000000000"/>
      <sparseX i="917" alpha="1.6009040809232975" sparseCutoff="1.0000000000000000"/>
      <sparseX i="918" alpha="332.35391385775080" sparseCutoff="1.0000000000000000"/>
      <sparseX i="919" alpha="-36.720684398371382" sparseCutoff="1.0000000000000000"/>
      <sparseX i="920" alpha="113.89694864554228" sparseCutoff="1.0000000000000000"/>
      <sparseX i="921" alpha="44.665005142543308" sparseCutoff="1.0000000000000000"/>
      <sparseX i="922" alpha="97.847926258065357" sparseCutoff="1.0000000000000000"/>
      <sparseX i="923" alpha="81.163227410135264" sparseCutoff="1.0000000000000000"/>
      <sparseX i="924" alpha="-287.11324770835927" sparseCutoff="1.0000000000000000"/>
      <sparseX i="925" alpha="107.77295919993576" sparseCutoff="1.0000000000000000"/>
      <sparseX i="926" alpha="-275.07734260244200" sparseCutoff="1.0000000000000000"/>
      <sparseX i="927" alpha="-44.224158495009668" sparseCutoff="1.0000000000000000"/>
      <sparseX i="928" alpha="-111.94145765003653" sparseCutoff="1.0000000000000000"/>
      <sparseX i="929" alpha="152.55848500977854" sparseCutoff="1.0000000000000000"/>
      <sparseX i="930" alpha="-153.81458725449511" sparseCutoff="1.0000000000000000"/>
      <sparseX i="931" alpha="-36.649126242237024" sparseCutoff="1.0000000000000000"/>
      <sparseX i="932" alpha="19.551866972337976" sparseCutoff="1.0000000000000000"/>
      <sparseX i="933" alpha="23.138213338847468" sparseCutoff="1.0000000000000000"/>
      <sparseX i="934" alpha="-113.09562486361892" sparseCutoff="1.0000000000000000"/>
      <sparseX i="935" alpha="24.696354221028976" sparseCutoff="1.0000000000000000"/>
      <sparseX i="936" alpha="75.414190878946272" sparseCutoff="1.0000000000000000"/>
      <sparseX i="937" alpha="-184.48108327613582" sparseCutoff="1.0000000000000000"/>
      <sparseX i="938" alpha="199.40783925812340" sparseCutoff="1.0000000000000000"/>
      <sparseX i="939" alpha="154.36756336185343" sparseCutoff="1.0000000000000000"/>
      <sparseX i="940" alpha="198.69855643629603" sparseCutoff="1.0000000000000000"/>
      <sparseX i="941" alpha="9.9190516594723075" sparseCutoff="1.0000000000000000"/>
      <sparseX i="942" alpha="-41.735593468160289" sparseCutoff="1.0000000000000000"/>
      <sparseX i="943" alpha="-19.545461183012140" sparseCutoff="1.0000000000000000"/>
      <sparseX i="944" alpha="-344.93704214341858" sparseCutoff="1.0000000000000000"/>
      <sparseX i="945" alpha="2.0862316069164337" sparseCutoff="1.0000000000000000"/>
      <sparseX i="946" alpha="75.159743427732579" sparseCutoff="1.0000000000000000"/>
      <sparseX i="947" alpha="114.66868719291521" sparseCutoff="1.0000000000000000"/>
      <sparseX i="948" alpha="24.363295776910679" sparseCutoff="1.0000000000000000"/>
      <sparseX i="949" alpha="27.721711127555476" sparseCutoff="1.0000000000000000"/>
      <sparseX i="950" alpha="182.19882886049277" sparseCutoff="1.0000000000000000"/>
      <sparseX i="951" alpha="-89.388641678003054" sparseCutoff="1.0000000000000000"/>
      <sparseX i="952" alpha="-122.35760137037343" sparseCutoff="1.0000000000000000"/>
      <sparseX i="953" alpha="-82.199751872939331" sparseCutoff="1.0000000000000000"/>
      <sparseX i="954" alpha="155.76712009231025" sparseCutoff="1.0000000000000000"/>
      <sparseX i="955" alpha="-204.58227540555208" sparseCutoff="1.0000000000000000"/>
      <sparseX i="956" alpha="-6.5351121033418185" sparseCutoff="1.0000000000000000"/>
      <sparseX i="957" alpha="-139.14020752289136" sparseCutoff="1.0000000000000000"/>
      <sparseX i="958" alpha="-182.41862800411835" sparseCutoff="1.0000000000000000"/>
      <sparseX i="959" alpha="-40.410391547812964" sparseCutoff="1.0000000000000000"/>
      <sparseX i="960" alpha="-41.612567426116414" sparseCutoff="1.0000000000000000"/>
      <sparseX i="961" alpha="-61.211891560011303" sparseCutoff="1.0000000000000000"/>
      <sparseX i="962" alpha="65.047542154272236" sparseCutoff="1.0000000000000000"/>
      <sparseX i="963" alpha="-61.035286974752715" sparseCutoff="1.0000000000000000"/>
      <sparseX i="964" alpha="213.67594122196527" sparseCutoff="1.0000000000000000"/>
      <sparseX i="965" alpha="125.42196776833602" sparseCutoff="1.0000000000000000"/>
      <sparseX i="966" alpha="190.55570695525986" sparseCutoff="1.0000000000000000"/>
      <sparseX i="967" alpha="3.4548844522148441" sparseCutoff="1.0000000000000000"/>
      <sparseX i="968" alpha="120.55481570317616" sparseCutoff="1.0000000000000000"/>
      <sparseX i="969" alpha="263.34544702466326" sparseCutoff="1.0000000000000000"/>
      <sparseX i="970" alpha="48.557629327391417" sparseCutoff="1.0000000000000000"/>
      <sparseX i="971" alpha="30.053672539024543" sparseCutoff="1.0000000000000000"/>
      <sparseX i="972" alpha="-36.232203158362026" sparseCutoff="1.0000000000000000"/>
      <sparseX i="973" alpha="43.934310783573871" sparseCutoff="1.0000000000000000"/>
      <sparseX i="974" alpha="-80.761297760120897" sparseCutoff="1.0000000000000000"/>
      <sparseX i="975" alpha="-51.839878402293031" sparseCutoff="1.0000000000000000"/>
      <sparseX i="976" alpha="76.264602877575712" sparseCutoff="1.0000000000000000"/>
      <sparseX i="977" alpha="-17.112985457558963" sparseCutoff="1.0000000000000000"/>
      <sparseX i="978" alpha="-26.916492932744585" sparseCutoff="1.0000000000000000"/>
      <sparseX i="979" alpha="60.419522565322211" sparseCutoff="1.0000000000000000"/>
      <sparseX i="980" alpha="71.389160961156406" sparseCutoff="1.0000000000000000"/>
      <sparseX i="981" alpha="26.803917784577401" sparseCutoff="1.0000000000000000"/>
      <sparseX i="982" alpha="-244.63146183233445" sparseCutoff="1.0000000000000000"/>
      <sparseX i="983" alpha="115.73256017423829" sparseCutoff="1.0000000000000000"/>
      <sparseX i="984" alpha="62.560857696744122" sparseCutoff="1.0000000000000000"/>
      <sparseX i="985" alpha="-55.017061609492686" sparseCutoff="1.0000000000000000"/>
      <sparseX i="986" alpha="-47.359595188285240" sparseCutoff="1.0000000000000000"/>
      <sparseX i="987" alpha="101.04482663297080" sparseCutoff="1.0000000000000000"/>
      <sparseX i="988" alpha="332.88750651343196" sparseCutoff="1.0000000000000000"/>
      <sparseX i="989" alpha="365.76880266779966" sparseCutoff="1.0000000000000000"/>
      <sparseX i="990" alpha="-60.103289570557521" sparseCutoff="1.0000000000000000"/>
      <sparseX i="991" alpha="21.505016997352680" sparseCutoff="1.0000000000000000"/>
      <sparseX i="992" alpha="-1.7319973772580224" sparseCutoff="1.0000000000000000"/>
      <sparseX i="993" alpha="-23.445559017928257" sparseCutoff="1.0000000000000000"/>
      <sparseX i="994" alpha="-114.70505887580566" sparseCutoff="1.0000000000000000"/>
      <sparseX i="995" alpha="20.411953026059926" sparseCutoff="1.0000000000000000"/>
      <sparseX i="996" alpha="23.414382189025876" sparseCutoff="1.0000000000000000"/>
      <sparseX i="997" alpha="-36.240132441903164" sparseCutoff="1.0000000000000000"/>
      <sparseX i="998" alpha="63.024878816244446" sparseCutoff="1.0000000000000000"/>
      <sparseX i="999" alpha="-48.466542444281536" sparseCutoff="1.0000000000000000"/>
      <sparseX i="1000" alpha="-313.69079061249533" sparseCutoff="1.0000000000000000"/>
      <sparseX i="1001" alpha="20.588601572092863" sparseCutoff="1.0000000000000000"/>
      <sparseX i="1002" alpha="84.538629366710424" sparseCutoff="1.0000000000000000"/>
      <sparseX i="1003" alpha="-212.67336510177151" sparseCutoff="1.0000000000000000"/>
      <sparseX i="1004" alpha="-232.30191533105071" sparseCutoff="1.0000000000000000"/>
      <sparseX i="1005" alpha="-92.299241541712803" sparseCutoff="1.0000000000000000"/>
      <sparseX i="1006" alpha="246.67732106709809" sparseCutoff="1.0000000000000000"/>
      <sparseX i="1007" alpha="96.043324674566577" sparseCutoff="1.0000000000000000"/>
      <sparseX i="1008" alpha="198.44138037146530" sparseCutoff="1.0000000000000000"/>
      <sparseX i="1009" alpha="113.83338962056514" sparseCutoff="1.0000000000000000"/>
      <sparseX i="1010" alpha="-212.07212817744244" sparseCutoff="1.0000000000000000"/>
      <sparseX i="1011" alpha="55.121616740121162" sparseCutoff="1.0000000000000000"/>
      <sparseX i="1012" alpha="-139.39188043120737" sparseCutoff="1.0000000000000000"/>
      <sparseX i="1013" alpha="142.12841676484919" sparseCutoff="1.0000000000000000"/>
      <sparseX i="1014" alpha="196.97893235454421" sparseCutoff="1.0000000000000000"/>
      <sparseX i="1015" alpha="193.93331665592282" sparseCutoff="1.0000000000000000"/>
      <sparseX i="1016" alpha="-.13404911582884968" sparseCutoff="1.0000000000000000"/>
      <sparseX i="1017" alpha="-48.172413913448011" sparseCutoff="1.0000000000000000"/>
      <sparseX i="1018" alpha="118.65698199971720" sparseCutoff="1.0000000000000000"/>
      <sparseX i="1019" alpha="51.515885313858973" sparseCutoff="1.0000000000000000"/>
      <sparseX i="1020" alpha="-64.551478777003780" sparseCutoff="1.0000000000000000"/>
      <sparseX i="1021" alpha="-11.453076243924368" sparseCutoff="1.0000000000000000"/>
      <sparseX i="1022" alpha="-34.082732882765491" sparseCutoff="1.0000000000000000"/>
      <sparseX i="1023" alpha="-98.994369192744898" sparseCutoff="1.0000000000000000"/>
      <sparseX i="1024" alpha="-12.116636727272596" sparseCutoff="1.0000000000000000"/>
      <sparseX i="1025" alpha="24.721881893037740" sparseCutoff="1.0000000000000000"/>
      <sparseX i="1026" alpha="56.403578962039276" sparseCutoff="1.0000000000000000"/>
      <sparseX i="1027" alpha="65.518162722377781" sparseCutoff="1.0000000000000000"/>
      <sparseX i="1028" alpha="-15.569030609154417" sparseCutoff="1.0000000000000000"/>
      <sparseX i="1029" alpha="89.809779966376325" sparseCutoff="1.0000000000000000"/>
      <sparseX i="1030" alpha="-6.1685090799759523" sparseCutoff="1.0000000000000000"/>
      <sparseX i="1031" alpha="-188.31476546382163" sparseCutoff="1.0000000000000000"/>
      <sparseX i="1032" alpha="27.734906853736121" sparseCutoff="1.0000000000000000"/>
      <sparseX i="1033" alpha="-151.37150954812884" sparseCutoff="1.0000000000000000"/>
      <sparseX i="1034" alpha="-123.19702650715293" sparseCutoff="1.0000000000000000"/>
