<GAP.iter_6>
<Potential label="GAP.iter_6" init_args="IP GAP label=GAP_2018_8_29_-240_17_25_55_151"/>
<GAP_params label="GAP_2018_8_29_-240_17_25_55_151" gap_version="1527620619">
  <GAP_data do_core="F">
    <e0 Z="1" value=".00000000000000000E+000"/>
    <e0 Z="2" value=".00000000000000000E+000"/>
    <e0 Z="3" value=".00000000000000000E+000"/>
    <e0 Z="4" value=".00000000000000000E+000"/>
    <e0 Z="5" value=".00000000000000000E+000"/>
    <e0 Z="6" value=".00000000000000000E+000"/>
    <e0 Z="7" value=".00000000000000000E+000"/>
    <e0 Z="8" value=".00000000000000000E+000"/>
    <e0 Z="9" value=".00000000000000000E+000"/>
    <e0 Z="10" value=".00000000000000000E+000"/>
    <e0 Z="11" value=".00000000000000000E+000"/>
    <e0 Z="12" value=".00000000000000000E+000"/>
    <e0 Z="13" value=".00000000000000000E+000"/>
    <e0 Z="14" value=".00000000000000000E+000"/>
    <e0 Z="15" value=".00000000000000000E+000"/>
    <e0 Z="16" value=".00000000000000000E+000"/>
    <e0 Z="17" value=".00000000000000000E+000"/>
    <e0 Z="18" value=".00000000000000000E+000"/>
    <e0 Z="19" value=".00000000000000000E+000"/>
    <e0 Z="20" value=".00000000000000000E+000"/>
    <e0 Z="21" value=".00000000000000000E+000"/>
    <e0 Z="22" value=".00000000000000000E+000"/>
    <e0 Z="23" value=".00000000000000000E+000"/>
    <e0 Z="24" value=".00000000000000000E+000"/>
    <e0 Z="25" value=".00000000000000000E+000"/>
    <e0 Z="26" value=".00000000000000000E+000"/>
    <e0 Z="27" value=".00000000000000000E+000"/>
    <e0 Z="28" value=".00000000000000000E+000"/>
    <e0 Z="29" value=".00000000000000000E+000"/>
    <e0 Z="30" value=".00000000000000000E+000"/>
    <e0 Z="31" value=".00000000000000000E+000"/>
    <e0 Z="32" value=".00000000000000000E+000"/>
    <e0 Z="33" value=".00000000000000000E+000"/>
    <e0 Z="34" value=".00000000000000000E+000"/>
    <e0 Z="35" value=".00000000000000000E+000"/>
    <e0 Z="36" value=".00000000000000000E+000"/>
    <e0 Z="37" value=".00000000000000000E+000"/>
    <e0 Z="38" value=".00000000000000000E+000"/>
    <e0 Z="39" value=".00000000000000000E+000"/>
    <e0 Z="40" value=".00000000000000000E+000"/>
    <e0 Z="41" value=".00000000000000000E+000"/>
    <e0 Z="42" value=".00000000000000000E+000"/>
    <e0 Z="43" value=".00000000000000000E+000"/>
    <e0 Z="44" value=".00000000000000000E+000"/>
    <e0 Z="45" value=".00000000000000000E+000"/>
    <e0 Z="46" value=".00000000000000000E+000"/>
    <e0 Z="47" value=".00000000000000000E+000"/>
    <e0 Z="48" value=".00000000000000000E+000"/>
    <e0 Z="49" value=".00000000000000000E+000"/>
    <e0 Z="50" value=".00000000000000000E+000"/>
    <e0 Z="51" value=".00000000000000000E+000"/>
    <e0 Z="52" value=".00000000000000000E+000"/>
    <e0 Z="53" value=".00000000000000000E+000"/>
    <e0 Z="54" value=".00000000000000000E+000"/>
    <e0 Z="55" value=".00000000000000000E+000"/>
    <e0 Z="56" value=".00000000000000000E+000"/>
    <e0 Z="57" value=".00000000000000000E+000"/>
    <e0 Z="58" value=".00000000000000000E+000"/>
    <e0 Z="59" value=".00000000000000000E+000"/>
    <e0 Z="60" value=".00000000000000000E+000"/>
    <e0 Z="61" value=".00000000000000000E+000"/>
    <e0 Z="62" value=".00000000000000000E+000"/>
    <e0 Z="63" value=".00000000000000000E+000"/>
    <e0 Z="64" value=".00000000000000000E+000"/>
    <e0 Z="65" value=".00000000000000000E+000"/>
    <e0 Z="66" value=".00000000000000000E+000"/>
    <e0 Z="67" value=".00000000000000000E+000"/>
    <e0 Z="68" value=".00000000000000000E+000"/>
    <e0 Z="69" value=".00000000000000000E+000"/>
    <e0 Z="70" value=".00000000000000000E+000"/>
    <e0 Z="71" value=".00000000000000000E+000"/>
    <e0 Z="72" value=".00000000000000000E+000"/>
    <e0 Z="73" value=".00000000000000000E+000"/>
    <e0 Z="74" value=".00000000000000000E+000"/>
    <e0 Z="75" value=".00000000000000000E+000"/>
    <e0 Z="76" value=".00000000000000000E+000"/>
    <e0 Z="77" value=".00000000000000000E+000"/>
    <e0 Z="78" value=".00000000000000000E+000"/>
    <e0 Z="79" value=".00000000000000000E+000"/>
    <e0 Z="80" value=".00000000000000000E+000"/>
    <e0 Z="81" value=".00000000000000000E+000"/>
    <e0 Z="82" value=".00000000000000000E+000"/>
    <e0 Z="83" value=".00000000000000000E+000"/>
    <e0 Z="84" value=".00000000000000000E+000"/>
    <e0 Z="85" value=".00000000000000000E+000"/>
    <e0 Z="86" value=".00000000000000000E+000"/>
    <e0 Z="87" value=".00000000000000000E+000"/>
    <e0 Z="88" value=".00000000000000000E+000"/>
    <e0 Z="89" value=".00000000000000000E+000"/>
    <e0 Z="90" value=".00000000000000000E+000"/>
    <e0 Z="91" value=".00000000000000000E+000"/>
    <e0 Z="92" value=".00000000000000000E+000"/>
    <e0 Z="93" value=".00000000000000000E+000"/>
    <e0 Z="94" value=".00000000000000000E+000"/>
    <e0 Z="95" value=".00000000000000000E+000"/>
    <e0 Z="96" value=".00000000000000000E+000"/>
    <e0 Z="97" value=".00000000000000000E+000"/>
    <e0 Z="98" value=".00000000000000000E+000"/>
    <e0 Z="99" value=".00000000000000000E+000"/>
    <e0 Z="100" value=".00000000000000000E+000"/>
    <e0 Z="101" value=".00000000000000000E+000"/>
    <e0 Z="102" value=".00000000000000000E+000"/>
    <e0 Z="103" value=".00000000000000000E+000"/>
    <e0 Z="104" value=".00000000000000000E+000"/>
    <e0 Z="105" value=".00000000000000000E+000"/>
    <e0 Z="106" value=".00000000000000000E+000"/>
    <e0 Z="107" value=".00000000000000000E+000"/>
    <e0 Z="108" value=".00000000000000000E+000"/>
    <e0 Z="109" value=".00000000000000000E+000"/>
    <e0 Z="110" value=".00000000000000000E+000"/>
    <e0 Z="111" value=".00000000000000000E+000"/>
    <e0 Z="112" value=".00000000000000000E+000"/>
    <e0 Z="113" value=".00000000000000000E+000"/>
    <e0 Z="114" value=".00000000000000000E+000"/>
    <e0 Z="115" value=".00000000000000000E+000"/>
    <e0 Z="116" value=".00000000000000000E+000"/>
  </GAP_data>
  <gpSparse label="GAP_2018_8_29_-240_17_25_55_151" n_coordinate="3">
    <gpCoordinates label="GAP_2018_8_29_-240_17_25_55_1511" dimensions="1" signal_variance=".29814655805099999" signal_mean=".00000000000000000E+000" sparsified="T" n_permutations="2" covariance_type="1" n_sparseX="30" sparseX_filename="GAP.iter_6.desc_2.xml.sparseX.GAP_2018_8_29_-240_17_25_55_1511">
      <theta>  0.50000000000000000E+000 </theta>
      <descriptor> distance_Nb order=2 cutoff=5.0 n_sparse=30 covariance_type=ard_se theta_uniform=0.5 sparse_method=uniform f0=0.0 delta=0.298146558051</descriptor>
      <permutation i="1">1  </permutation>
      <permutation i="2">1  </permutation>
      <sparseX i="1" alpha="20871.970231464882" sparseCutoff="1.0000000000000000"/>
      <sparseX i="2" alpha="-68915.965798906909" sparseCutoff="1.0000000000000000"/>
      <sparseX i="3" alpha="76063.241343587229" sparseCutoff="1.0000000000000000"/>
      <sparseX i="4" alpha="-86818.368426079905" sparseCutoff="1.0000000000000000"/>
      <sparseX i="5" alpha="11786.515493302228" sparseCutoff=".18728111439874573E-001"/>
      <sparseX i="6" alpha="-82905.132603045582" sparseCutoff="1.0000000000000000"/>
      <sparseX i="7" alpha="120160.80343594114" sparseCutoff="1.0000000000000000"/>
      <sparseX i="8" alpha="-72293.688670616088" sparseCutoff="1.0000000000000000"/>
      <sparseX i="9" alpha="-11257.239162007185" sparseCutoff=".18938286414283162"/>
      <sparseX i="10" alpha="-78918.754918798470" sparseCutoff="1.0000000000000000"/>
      <sparseX i="11" alpha="-48725.958417198912" sparseCutoff="1.0000000000000000"/>
      <sparseX i="12" alpha="71573.908241675323" sparseCutoff="1.0000000000000000"/>
      <sparseX i="13" alpha="75215.160500627782" sparseCutoff="1.0000000000000000"/>
      <sparseX i="14" alpha="-9381.4807083425094" sparseCutoff="1.0000000000000000"/>
      <sparseX i="15" alpha="52678.501807552355" sparseCutoff="1.0000000000000000"/>
      <sparseX i="16" alpha="-126829.71112770072" sparseCutoff="1.0000000000000000"/>
      <sparseX i="17" alpha="7680.0735433002401" sparseCutoff=".71098263037162790"/>
      <sparseX i="18" alpha="93939.593745426537" sparseCutoff="1.0000000000000000"/>
      <sparseX i="19" alpha="13875.163800465059" sparseCutoff=".99952239893481720"/>
      <sparseX i="20" alpha="-82207.323787802103" sparseCutoff="1.0000000000000000"/>
      <sparseX i="21" alpha="83116.849509777661" sparseCutoff="1.0000000000000000"/>
      <sparseX i="22" alpha="38112.532046352644" sparseCutoff="1.0000000000000000"/>
      <sparseX i="23" alpha="45112.823082801282" sparseCutoff="1.0000000000000000"/>
      <sparseX i="24" alpha="-69594.489354799298" sparseCutoff="1.0000000000000000"/>
      <sparseX i="25" alpha="57347.504505759112" sparseCutoff="1.0000000000000000"/>
      <sparseX i="26" alpha="-144002.91912381464" sparseCutoff="1.0000000000000000"/>
      <sparseX i="27" alpha="-308.98546489784297" sparseCutoff="1.0000000000000000"/>
      <sparseX i="28" alpha="118983.08779735408" sparseCutoff="1.0000000000000000"/>
      <sparseX i="29" alpha="-43635.820620079023" sparseCutoff="1.0000000000000000"/>
      <sparseX i="30" alpha="44517.626971814992" sparseCutoff="1.0000000000000000"/>
    </gpCoordinates>
    <gpCoordinates label="GAP_2018_8_29_-240_17_25_55_1512" dimensions="3" signal_variance=".49017545983800002E-001" signal_mean=".00000000000000000E+000" sparsified="T" n_permutations="6" covariance_type="1" n_sparseX="100" sparseX_filename="GAP.iter_6.desc_2.xml.sparseX.GAP_2018_8_29_-240_17_25_55_1512">
      <theta>  0.10000000000000000E+001  0.10000000000000000E+001  0.10000000000000000E+001 </theta>
      <descriptor> distance_Nb order=3 cutoff=2.6 n_sparse=100 covariance_type=ard_se theta_uniform=1.0 sparse_method=uniform f0=0.0 delta=0.0490175459838</descriptor>
      <permutation i="1">1 2 3  </permutation>
      <permutation i="2">2 1 3  </permutation>
      <permutation i="3">1 3 2  </permutation>
      <permutation i="4">3 1 2  </permutation>
      <permutation i="5">2 3 1  </permutation>
      <permutation i="6">3 2 1  </permutation>
      <sparseX i="1" alpha="-1533.0969558916083" sparseCutoff="1.0000000000000000"/>
      <sparseX i="2" alpha="-360489.29403377901" sparseCutoff="1.0000000000000000"/>
      <sparseX i="3" alpha="75899.653505436712" sparseCutoff="1.0000000000000000"/>
      <sparseX i="4" alpha="-1533.0745572162480" sparseCutoff="1.0000000000000000"/>
      <sparseX i="5" alpha="13884.988689528098" sparseCutoff="1.0000000000000000"/>
      <sparseX i="6" alpha="-41963.850766338779" sparseCutoff="1.0000000000000000"/>
      <sparseX i="7" alpha="-41963.844445599490" sparseCutoff="1.0000000000000000"/>
      <sparseX i="8" alpha="-16079.782972843363" sparseCutoff=".26646329464952045E-001"/>
      <sparseX i="9" alpha="75638.389177520032" sparseCutoff=".21374333430725933E-001"/>
      <sparseX i="10" alpha="75638.388244189744" sparseCutoff=".21374333430726544E-001"/>
      <sparseX i="11" alpha="-208152.14992024758" sparseCutoff=".21374333430725905E-001"/>
      <sparseX i="12" alpha="-208152.15218655232" sparseCutoff=".21374333430725874E-001"/>
      <sparseX i="13" alpha="75638.391223822429" sparseCutoff=".21374333430725874E-001"/>
      <sparseX i="14" alpha="75638.389897915215" sparseCutoff=".21374333430726571E-001"/>
      <sparseX i="15" alpha="380130.12995573442" sparseCutoff=".21528871170352324E-001"/>
      <sparseX i="16" alpha="-273204.01059694431" sparseCutoff=".35949977633794156E-002"/>
      <sparseX i="17" alpha="-273204.00965018821" sparseCutoff=".35949977633794156E-002"/>
      <sparseX i="18" alpha="364259.65892565378" sparseCutoff=".16376673703078604E-001"/>
      <sparseX i="19" alpha="-31732.277750469297" sparseCutoff=".26819544157710625E-003"/>
      <sparseX i="20" alpha="-586255.85129568563" sparseCutoff=".15322731703436969E-001"/>
      <sparseX i="21" alpha="-20092.714834363440" sparseCutoff=".26819544157710625E-003"/>
      <sparseX i="22" alpha="-20092.715717195817" sparseCutoff=".26819544157710625E-003"/>
      <sparseX i="23" alpha="-16369.890435619227" sparseCutoff=".26819544157710625E-003"/>
      <sparseX i="24" alpha="-31732.275011510559" sparseCutoff=".26819544157710625E-003"/>
      <sparseX i="25" alpha="364259.65932344133" sparseCutoff=".16376673703078604E-001"/>
      <sparseX i="26" alpha="364259.65834022191" sparseCutoff=".16376673703078604E-001"/>
      <sparseX i="27" alpha="-20092.716811854574" sparseCutoff=".26819544157710625E-003"/>
      <sparseX i="28" alpha="-31732.276441988171" sparseCutoff=".26819544157710625E-003"/>
      <sparseX i="29" alpha="6611.2618797655441" sparseCutoff=".42908113347365939E-001"/>
      <sparseX i="30" alpha="6611.2690614827452" sparseCutoff=".42908116010379915E-001"/>
      <sparseX i="31" alpha="75638.413091113704" sparseCutoff=".21374335879517346E-001"/>
      <sparseX i="32" alpha="75638.411113583774" sparseCutoff=".21374335879517377E-001"/>
      <sparseX i="33" alpha="463450.45594515133" sparseCutoff="1.0000000000000000"/>
      <sparseX i="34" alpha="-20092.703716355321" sparseCutoff=".26819528990558076E-003"/>
      <sparseX i="35" alpha="391327.64478205313" sparseCutoff=".16376664441641986E-001"/>
      <sparseX i="36" alpha="-31732.259634572398" sparseCutoff=".26819530408443769E-003"/>
      <sparseX i="37" alpha="-31732.261005741777" sparseCutoff=".26819530408443769E-003"/>
      <sparseX i="38" alpha="-20092.709025993328" sparseCutoff=".26819536188298033E-003"/>
      <sparseX i="39" alpha="-85908.686666048932" sparseCutoff=".18411061325721470E-002"/>
      <sparseX i="40" alpha="-85908.682895196835" sparseCutoff=".18411060587734528E-002"/>
      <sparseX i="41" alpha="175388.39762159219" sparseCutoff=".10114112372286155E-001"/>
      <sparseX i="42" alpha="251807.36410683903" sparseCutoff="1.0000000000000000"/>
      <sparseX i="43" alpha="-11307.978218780974" sparseCutoff="1.0000000000000000"/>
      <sparseX i="44" alpha="320245.45940497919" sparseCutoff="1.0000000000000000"/>
      <sparseX i="45" alpha="54920.812766261668" sparseCutoff=".70386848770460020"/>
      <sparseX i="46" alpha="-173164.92318570794" sparseCutoff="1.0000000000000000"/>
      <sparseX i="47" alpha="251807.36688723927" sparseCutoff="1.0000000000000000"/>
      <sparseX i="48" alpha="-11307.978332796347" sparseCutoff="1.0000000000000000"/>
      <sparseX i="49" alpha="251807.53050741949" sparseCutoff="1.0000000000000000"/>
      <sparseX i="50" alpha="-173164.92291444974" sparseCutoff="1.0000000000000000"/>
      <sparseX i="51" alpha="-173164.92277054855" sparseCutoff="1.0000000000000000"/>
      <sparseX i="52" alpha="664491.98320473614" sparseCutoff="1.0000000000000000"/>
      <sparseX i="53" alpha="212891.90354877932" sparseCutoff=".24664680115073279E-001"/>
      <sparseX i="54" alpha="128198.56048860015" sparseCutoff=".82754046538505877E-001"/>
      <sparseX i="55" alpha="128198.56089970021" sparseCutoff=".82754046538505877E-001"/>
      <sparseX i="56" alpha="93532.825745782931" sparseCutoff=".25216923364421440E-001"/>
      <sparseX i="57" alpha="-472298.09105690941" sparseCutoff="1.0000000000000000"/>
      <sparseX i="58" alpha="150342.94385756331" sparseCutoff=".57946832492965505"/>
      <sparseX i="59" alpha="150342.94798695407" sparseCutoff=".57946832492965505"/>
      <sparseX i="60" alpha="-472298.10141278792" sparseCutoff="1.0000000000000000"/>
      <sparseX i="61" alpha="128198.56110108904" sparseCutoff=".82754046538505877E-001"/>
      <sparseX i="62" alpha="93532.827003086772" sparseCutoff=".25216923364421440E-001"/>
      <sparseX i="63" alpha="150342.94276236845" sparseCutoff=".57946832492965505"/>
      <sparseX i="64" alpha="-163872.08974083923" sparseCutoff=".12189024566265361E-001"/>
      <sparseX i="65" alpha="-163872.09020142467" sparseCutoff=".12189024566265361E-001"/>
      <sparseX i="66" alpha="-163872.09081619215" sparseCutoff=".12189024566265028E-001"/>
      <sparseX i="67" alpha="-163872.08909134963" sparseCutoff=".12189024566265694E-001"/>
      <sparseX i="68" alpha="-98625.559190779401" sparseCutoff="1.0000000000000000"/>
      <sparseX i="69" alpha="-270820.39257116476" sparseCutoff="1.0000000000000000"/>
      <sparseX i="70" alpha="-270820.38555392658" sparseCutoff="1.0000000000000000"/>
      <sparseX i="71" alpha="234632.63283418585" sparseCutoff=".37746500010238104E-001"/>
      <sparseX i="72" alpha="234632.63547294878" sparseCutoff=".37746500744663958E-001"/>
      <sparseX i="73" alpha="-172824.19589868543" sparseCutoff=".19932116803668021E-001"/>
      <sparseX i="74" alpha="-97287.064611620575" sparseCutoff=".26286086096243844"/>
      <sparseX i="75" alpha="-194024.80887380426" sparseCutoff=".79659713690438150"/>
      <sparseX i="76" alpha="96002.128590038148" sparseCutoff=".10879341893456185E-001"/>
      <sparseX i="77" alpha="279178.96653100121" sparseCutoff=".28693219659297164E-001"/>
      <sparseX i="78" alpha="37100.149943454955" sparseCutoff=".60705868471856095"/>
      <sparseX i="79" alpha="-624913.66547016648" sparseCutoff=".56163243616921876E-001"/>
      <sparseX i="80" alpha="-25982.648495321366" sparseCutoff=".24557356659534184E-003"/>
      <sparseX i="81" alpha="-138462.96425911714" sparseCutoff=".76345389863077651E-001"/>
      <sparseX i="82" alpha="-46819.786279974789" sparseCutoff=".71367505100755158E-003"/>
      <sparseX i="83" alpha="-284337.94350613485" sparseCutoff=".21058515540766687"/>
      <sparseX i="84" alpha="153391.62733084382" sparseCutoff="1.0000000000000000"/>
      <sparseX i="85" alpha="49870.583906535387" sparseCutoff="1.0000000000000000"/>
      <sparseX i="86" alpha="-283505.95380869892" sparseCutoff=".53623087178368423"/>
      <sparseX i="87" alpha="261348.61736800545" sparseCutoff=".23273053183088582"/>
      <sparseX i="88" alpha="276592.47009139991" sparseCutoff=".12306888358478879E-001"/>
      <sparseX i="89" alpha="67071.743918908163" sparseCutoff=".87988062801575273"/>
      <sparseX i="90" alpha="-341477.05753056426" sparseCutoff=".32001696613181051E-001"/>
      <sparseX i="91" alpha="-259526.42741463790" sparseCutoff=".40249172586010615E-001"/>
      <sparseX i="92" alpha="30787.551973074362" sparseCutoff="1.0000000000000000"/>
      <sparseX i="93" alpha="-108513.24922302515" sparseCutoff=".92409620971594553"/>
      <sparseX i="94" alpha="-25408.005516210378" sparseCutoff=".36588190725165837E-002"/>
      <sparseX i="95" alpha="-291500.47086662729" sparseCutoff=".61847571557118227E-002"/>
      <sparseX i="96" alpha="-28094.322300999203" sparseCutoff=".10319416827511640E-002"/>
      <sparseX i="97" alpha="83328.470124196421" sparseCutoff="1.0000000000000000"/>
      <sparseX i="98" alpha="-2253.8178738777324" sparseCutoff=".50768487152735126E-003"/>
      <sparseX i="99" alpha="-251.89794069620368" sparseCutoff=".56670764380377419E-005"/>
      <sparseX i="100" alpha="12299.771564790746" sparseCutoff=".73515533944257250E-003"/>
    </gpCoordinates>
    <gpCoordinates label="GAP_2018_8_29_-240_17_25_55_1513" dimensions="325" signal_variance=".41262759570099999" signal_mean=".00000000000000000E+000" sparsified="T" n_permutations="1" covariance_type="2" zeta="4.0000000000000000" n_sparseX="2000" sparseX_filename="GAP.iter_6.desc_2.xml.sparseX.GAP_2018_8_29_-240_17_25_55_1513">
      <descriptor> soap l_max=8 n_max=8 atom_sigma=0.75 zeta=4 cutoff=5.0 cutoff_transition_width=1.0 central_weight=1.0 n_sparse=2000 f0=0.0 covariance_type=dot_product sparse_method=cur_points print_sparse_index delta=0.412627595701</descriptor>
      <permutation i="1">1  </permutation>
      <sparseX i="1" alpha="493.63075523313978" sparseCutoff="1.0000000000000000"/>
      <sparseX i="2" alpha="-1401.7423923345821" sparseCutoff="1.0000000000000000"/>
      <sparseX i="3" alpha="-1053.6555127711006" sparseCutoff="1.0000000000000000"/>
      <sparseX i="4" alpha="4816.9298576990013" sparseCutoff="1.0000000000000000"/>
      <sparseX i="5" alpha="-2902.8239226378996" sparseCutoff="1.0000000000000000"/>
      <sparseX i="6" alpha="-1107.9113886174162" sparseCutoff="1.0000000000000000"/>
      <sparseX i="7" alpha="639.01384456893379" sparseCutoff="1.0000000000000000"/>
      <sparseX i="8" alpha="-7652.4703325102910" sparseCutoff="1.0000000000000000"/>
      <sparseX i="9" alpha="-7652.1604640344722" sparseCutoff="1.0000000000000000"/>
      <sparseX i="10" alpha="41431.882989531943" sparseCutoff="1.0000000000000000"/>
      <sparseX i="11" alpha="41431.866503828867" sparseCutoff="1.0000000000000000"/>
      <sparseX i="12" alpha="-92032.210875846707" sparseCutoff="1.0000000000000000"/>
      <sparseX i="13" alpha="-1108.1749816362744" sparseCutoff="1.0000000000000000"/>
      <sparseX i="14" alpha="638.90076570542089" sparseCutoff="1.0000000000000000"/>
      <sparseX i="15" alpha="-7604.4492225121785" sparseCutoff="1.0000000000000000"/>
      <sparseX i="16" alpha="910.11874746376532" sparseCutoff="1.0000000000000000"/>
      <sparseX i="17" alpha="1459.7543956607642" sparseCutoff="1.0000000000000000"/>
      <sparseX i="18" alpha="-29906.473957608603" sparseCutoff="1.0000000000000000"/>
      <sparseX i="19" alpha="7089.0416042196439" sparseCutoff="1.0000000000000000"/>
      <sparseX i="20" alpha="7089.1289566832065" sparseCutoff="1.0000000000000000"/>
      <sparseX i="21" alpha="247.91800136932235" sparseCutoff="1.0000000000000000"/>
      <sparseX i="22" alpha="250.41386703545169" sparseCutoff="1.0000000000000000"/>
      <sparseX i="23" alpha="2083.0627066610182" sparseCutoff="1.0000000000000000"/>
      <sparseX i="24" alpha="2083.1815134069798" sparseCutoff="1.0000000000000000"/>
      <sparseX i="25" alpha="-696.27409368992596" sparseCutoff="1.0000000000000000"/>
      <sparseX i="26" alpha="-13712.342556073170" sparseCutoff="1.0000000000000000"/>
      <sparseX i="27" alpha="3283.6481026839315" sparseCutoff="1.0000000000000000"/>
      <sparseX i="28" alpha="18107.146226824454" sparseCutoff="1.0000000000000000"/>
      <sparseX i="29" alpha="44616.773224915923" sparseCutoff="1.0000000000000000"/>
      <sparseX i="30" alpha="1565.9796531674820" sparseCutoff="1.0000000000000000"/>
      <sparseX i="31" alpha="-32934.683927070982" sparseCutoff="1.0000000000000000"/>
      <sparseX i="32" alpha="13002.301151252059" sparseCutoff="1.0000000000000000"/>
      <sparseX i="33" alpha="13002.124507002498" sparseCutoff="1.0000000000000000"/>
      <sparseX i="34" alpha="5762.7626579498665" sparseCutoff="1.0000000000000000"/>
      <sparseX i="35" alpha="5762.6305814729021" sparseCutoff="1.0000000000000000"/>
      <sparseX i="36" alpha="-33.894285073743141" sparseCutoff="1.0000000000000000"/>
      <sparseX i="37" alpha="-24.858892146708001" sparseCutoff="1.0000000000000000"/>
      <sparseX i="38" alpha="-9528.8355416714476" sparseCutoff="1.0000000000000000"/>
      <sparseX i="39" alpha="-13335.485814984098" sparseCutoff="1.0000000000000000"/>
      <sparseX i="40" alpha="-38198.415701023514" sparseCutoff="1.0000000000000000"/>
      <sparseX i="41" alpha="-23293.033322393669" sparseCutoff="1.0000000000000000"/>
      <sparseX i="42" alpha="-2034.3438397342929" sparseCutoff="1.0000000000000000"/>
      <sparseX i="43" alpha="649.93302346707026" sparseCutoff="1.0000000000000000"/>
      <sparseX i="44" alpha="649.84665976765928" sparseCutoff="1.0000000000000000"/>
      <sparseX i="45" alpha="421.90527069337116" sparseCutoff="1.0000000000000000"/>
      <sparseX i="46" alpha="416.13269296751611" sparseCutoff="1.0000000000000000"/>
      <sparseX i="47" alpha="-11772.594727407155" sparseCutoff="1.0000000000000000"/>
      <sparseX i="48" alpha="1522.4764432370318" sparseCutoff="1.0000000000000000"/>
      <sparseX i="49" alpha="-2523.8853797007914" sparseCutoff="1.0000000000000000"/>
      <sparseX i="50" alpha="458.74138335150525" sparseCutoff="1.0000000000000000"/>
      <sparseX i="51" alpha="-123.51750838131802" sparseCutoff="1.0000000000000000"/>
      <sparseX i="52" alpha="-54704.591813913888" sparseCutoff="1.0000000000000000"/>
      <sparseX i="53" alpha="-49789.884788423544" sparseCutoff="1.0000000000000000"/>
      <sparseX i="54" alpha="1316.4246411933093" sparseCutoff="1.0000000000000000"/>
      <sparseX i="55" alpha="-1954.9986466921371" sparseCutoff="1.0000000000000000"/>
      <sparseX i="56" alpha="-9362.0121917665329" sparseCutoff="1.0000000000000000"/>
      <sparseX i="57" alpha="5065.2377901705322" sparseCutoff="1.0000000000000000"/>
      <sparseX i="58" alpha="36505.760974972880" sparseCutoff="1.0000000000000000"/>
      <sparseX i="59" alpha="28583.077631002365" sparseCutoff="1.0000000000000000"/>
      <sparseX i="60" alpha="-592.91510220074167" sparseCutoff="1.0000000000000000"/>
      <sparseX i="61" alpha="-54233.531939563225" sparseCutoff="1.0000000000000000"/>
      <sparseX i="62" alpha="-4446.6307728333231" sparseCutoff="1.0000000000000000"/>
      <sparseX i="63" alpha="-40625.294580871632" sparseCutoff="1.0000000000000000"/>
      <sparseX i="64" alpha="30047.838593161741" sparseCutoff="1.0000000000000000"/>
      <sparseX i="65" alpha="95188.605585630226" sparseCutoff="1.0000000000000000"/>
      <sparseX i="66" alpha="-71159.819398926673" sparseCutoff="1.0000000000000000"/>
      <sparseX i="67" alpha="47956.506431927832" sparseCutoff="1.0000000000000000"/>
      <sparseX i="68" alpha="-13787.866849829463" sparseCutoff="1.0000000000000000"/>
      <sparseX i="69" alpha="-70206.822615987461" sparseCutoff="1.0000000000000000"/>
      <sparseX i="70" alpha="27043.050046480348" sparseCutoff="1.0000000000000000"/>
      <sparseX i="71" alpha="90162.359997309482" sparseCutoff="1.0000000000000000"/>
      <sparseX i="72" alpha="-17281.504750005846" sparseCutoff="1.0000000000000000"/>
      <sparseX i="73" alpha="67067.718361440930" sparseCutoff="1.0000000000000000"/>
      <sparseX i="74" alpha="-23867.231303884160" sparseCutoff="1.0000000000000000"/>
      <sparseX i="75" alpha="-2931.9033712032456" sparseCutoff="1.0000000000000000"/>
      <sparseX i="76" alpha="-77643.239448717533" sparseCutoff="1.0000000000000000"/>
      <sparseX i="77" alpha="-2514.2557498362394" sparseCutoff="1.0000000000000000"/>
      <sparseX i="78" alpha="120099.12514929268" sparseCutoff="1.0000000000000000"/>
      <sparseX i="79" alpha="25849.506264252112" sparseCutoff="1.0000000000000000"/>
      <sparseX i="80" alpha="16745.897184367761" sparseCutoff="1.0000000000000000"/>
      <sparseX i="81" alpha="12890.161080648644" sparseCutoff="1.0000000000000000"/>
      <sparseX i="82" alpha="-16082.496276116268" sparseCutoff="1.0000000000000000"/>
      <sparseX i="83" alpha="-11626.802106949752" sparseCutoff="1.0000000000000000"/>
      <sparseX i="84" alpha="71073.398460402430" sparseCutoff="1.0000000000000000"/>
      <sparseX i="85" alpha="-26099.601795258364" sparseCutoff="1.0000000000000000"/>
      <sparseX i="86" alpha="-124.34806265610585" sparseCutoff="1.0000000000000000"/>
      <sparseX i="87" alpha="9544.5699290929751" sparseCutoff="1.0000000000000000"/>
      <sparseX i="88" alpha="47443.105942030525" sparseCutoff="1.0000000000000000"/>
      <sparseX i="89" alpha="-21562.698709136988" sparseCutoff="1.0000000000000000"/>
      <sparseX i="90" alpha="-10804.011484835753" sparseCutoff="1.0000000000000000"/>
      <sparseX i="91" alpha="92170.940608139237" sparseCutoff="1.0000000000000000"/>
      <sparseX i="92" alpha="-4877.6205148564368" sparseCutoff="1.0000000000000000"/>
      <sparseX i="93" alpha="9818.8890589248313" sparseCutoff="1.0000000000000000"/>
      <sparseX i="94" alpha="-37810.690190741916" sparseCutoff="1.0000000000000000"/>
      <sparseX i="95" alpha="-80177.329510169351" sparseCutoff="1.0000000000000000"/>
      <sparseX i="96" alpha="-41045.903997036556" sparseCutoff="1.0000000000000000"/>
      <sparseX i="97" alpha="-24806.199161631164" sparseCutoff="1.0000000000000000"/>
      <sparseX i="98" alpha="-22640.682274509760" sparseCutoff="1.0000000000000000"/>
      <sparseX i="99" alpha="54404.945853158722" sparseCutoff="1.0000000000000000"/>
      <sparseX i="100" alpha="-44719.076495244131" sparseCutoff="1.0000000000000000"/>
      <sparseX i="101" alpha="-3959.0734053392639" sparseCutoff="1.0000000000000000"/>
      <sparseX i="102" alpha="-25259.459381236167" sparseCutoff="1.0000000000000000"/>
      <sparseX i="103" alpha="14593.438457478444" sparseCutoff="1.0000000000000000"/>
      <sparseX i="104" alpha="-10146.491911241990" sparseCutoff="1.0000000000000000"/>
      <sparseX i="105" alpha="-59477.076822254938" sparseCutoff="1.0000000000000000"/>
      <sparseX i="106" alpha="69511.665494896108" sparseCutoff="1.0000000000000000"/>
      <sparseX i="107" alpha="-13972.104030089318" sparseCutoff="1.0000000000000000"/>
      <sparseX i="108" alpha="-19650.281424207482" sparseCutoff="1.0000000000000000"/>
      <sparseX i="109" alpha="97955.067549601023" sparseCutoff="1.0000000000000000"/>
      <sparseX i="110" alpha="-24666.955135956428" sparseCutoff="1.0000000000000000"/>
      <sparseX i="111" alpha="17504.673014218661" sparseCutoff="1.0000000000000000"/>
      <sparseX i="112" alpha="42776.135838918359" sparseCutoff="1.0000000000000000"/>
      <sparseX i="113" alpha="49372.561451657493" sparseCutoff="1.0000000000000000"/>
      <sparseX i="114" alpha="72405.971211272437" sparseCutoff="1.0000000000000000"/>
      <sparseX i="115" alpha="14116.710655095238" sparseCutoff="1.0000000000000000"/>
      <sparseX i="116" alpha="-39497.098428768273" sparseCutoff="1.0000000000000000"/>
      <sparseX i="117" alpha="50781.239442877079" sparseCutoff="1.0000000000000000"/>
      <sparseX i="118" alpha="-7906.8398879315619" sparseCutoff="1.0000000000000000"/>
      <sparseX i="119" alpha="-38256.859246919514" sparseCutoff="1.0000000000000000"/>
      <sparseX i="120" alpha="63423.727248914212" sparseCutoff="1.0000000000000000"/>
      <sparseX i="121" alpha="14141.927956543217" sparseCutoff="1.0000000000000000"/>
      <sparseX i="122" alpha="18545.553910261435" sparseCutoff="1.0000000000000000"/>
      <sparseX i="123" alpha="22280.724627425301" sparseCutoff="1.0000000000000000"/>
      <sparseX i="124" alpha="-3563.0049564730080" sparseCutoff="1.0000000000000000"/>
      <sparseX i="125" alpha="79410.125706910461" sparseCutoff="1.0000000000000000"/>
      <sparseX i="126" alpha="-13117.152692416043" sparseCutoff="1.0000000000000000"/>
      <sparseX i="127" alpha="-26922.779713711407" sparseCutoff="1.0000000000000000"/>
      <sparseX i="128" alpha="-38372.829542809952" sparseCutoff="1.0000000000000000"/>
      <sparseX i="129" alpha="-72907.582845973811" sparseCutoff="1.0000000000000000"/>
      <sparseX i="130" alpha="6140.4567750170154" sparseCutoff="1.0000000000000000"/>
      <sparseX i="131" alpha="-61094.232219485159" sparseCutoff="1.0000000000000000"/>
      <sparseX i="132" alpha="-20699.935273235373" sparseCutoff="1.0000000000000000"/>
      <sparseX i="133" alpha="-9035.0171110384763" sparseCutoff="1.0000000000000000"/>
      <sparseX i="134" alpha="21805.051370115223" sparseCutoff="1.0000000000000000"/>
      <sparseX i="135" alpha="28985.859444013819" sparseCutoff="1.0000000000000000"/>
      <sparseX i="136" alpha="31544.769826187538" sparseCutoff="1.0000000000000000"/>
      <sparseX i="137" alpha="-31313.752580818476" sparseCutoff="1.0000000000000000"/>
      <sparseX i="138" alpha="9820.6013948508644" sparseCutoff="1.0000000000000000"/>
      <sparseX i="139" alpha="82819.272353888693" sparseCutoff="1.0000000000000000"/>
      <sparseX i="140" alpha="-46760.484610409621" sparseCutoff="1.0000000000000000"/>
      <sparseX i="141" alpha="39742.604612496543" sparseCutoff="1.0000000000000000"/>
      <sparseX i="142" alpha="68008.784769573496" sparseCutoff="1.0000000000000000"/>
      <sparseX i="143" alpha="-83146.552024152377" sparseCutoff="1.0000000000000000"/>
      <sparseX i="144" alpha="-7932.5309580917328" sparseCutoff="1.0000000000000000"/>
      <sparseX i="145" alpha="-4263.6916143621065" sparseCutoff="1.0000000000000000"/>
      <sparseX i="146" alpha="-118516.38512711857" sparseCutoff="1.0000000000000000"/>
      <sparseX i="147" alpha="-23418.907023635202" sparseCutoff="1.0000000000000000"/>
      <sparseX i="148" alpha="-94099.235932789044" sparseCutoff="1.0000000000000000"/>
      <sparseX i="149" alpha="10861.011062416002" sparseCutoff="1.0000000000000000"/>
      <sparseX i="150" alpha="1625.8707332874503" sparseCutoff="1.0000000000000000"/>
      <sparseX i="151" alpha="-67378.081896810618" sparseCutoff="1.0000000000000000"/>
      <sparseX i="152" alpha="-20210.222829710230" sparseCutoff="1.0000000000000000"/>
      <sparseX i="153" alpha="-38435.975033708870" sparseCutoff="1.0000000000000000"/>
      <sparseX i="154" alpha="6840.3270790569932" sparseCutoff="1.0000000000000000"/>
      <sparseX i="155" alpha="-10441.573926977871" sparseCutoff="1.0000000000000000"/>
      <sparseX i="156" alpha="-8093.0382182024223" sparseCutoff="1.0000000000000000"/>
      <sparseX i="157" alpha="43877.295434913191" sparseCutoff="1.0000000000000000"/>
      <sparseX i="158" alpha="14900.487141067295" sparseCutoff="1.0000000000000000"/>
      <sparseX i="159" alpha="-56224.236759437539" sparseCutoff="1.0000000000000000"/>
      <sparseX i="160" alpha="66055.167713445859" sparseCutoff="1.0000000000000000"/>
      <sparseX i="161" alpha="43964.916597845448" sparseCutoff="1.0000000000000000"/>
      <sparseX i="162" alpha="-34284.131661943262" sparseCutoff="1.0000000000000000"/>
      <sparseX i="163" alpha="-109640.25364477390" sparseCutoff="1.0000000000000000"/>
      <sparseX i="164" alpha="119377.49647147009" sparseCutoff="1.0000000000000000"/>
      <sparseX i="165" alpha="-37637.635729946036" sparseCutoff="1.0000000000000000"/>
      <sparseX i="166" alpha="-94286.850061687292" sparseCutoff="1.0000000000000000"/>
      <sparseX i="167" alpha="52566.065562896045" sparseCutoff="1.0000000000000000"/>
      <sparseX i="168" alpha="-24017.443252900401" sparseCutoff="1.0000000000000000"/>
      <sparseX i="169" alpha="-15807.962661719315" sparseCutoff="1.0000000000000000"/>
      <sparseX i="170" alpha="13755.731501567083" sparseCutoff="1.0000000000000000"/>
      <sparseX i="171" alpha="-80611.892401439109" sparseCutoff="1.0000000000000000"/>
      <sparseX i="172" alpha="-43979.860845080955" sparseCutoff="1.0000000000000000"/>
      <sparseX i="173" alpha="48401.884312951392" sparseCutoff="1.0000000000000000"/>
      <sparseX i="174" alpha="110917.31887358680" sparseCutoff="1.0000000000000000"/>
      <sparseX i="175" alpha="85870.305790950268" sparseCutoff="1.0000000000000000"/>
      <sparseX i="176" alpha="1523.3353130552982" sparseCutoff="1.0000000000000000"/>
      <sparseX i="177" alpha="26933.441656059571" sparseCutoff="1.0000000000000000"/>
      <sparseX i="178" alpha="-13425.190288513071" sparseCutoff="1.0000000000000000"/>
      <sparseX i="179" alpha="12084.978666706651" sparseCutoff="1.0000000000000000"/>
      <sparseX i="180" alpha="-24935.872723006058" sparseCutoff="1.0000000000000000"/>
      <sparseX i="181" alpha="-90068.586611275940" sparseCutoff="1.0000000000000000"/>
      <sparseX i="182" alpha="5840.9836949577339" sparseCutoff="1.0000000000000000"/>
      <sparseX i="183" alpha="-51389.902466812266" sparseCutoff="1.0000000000000000"/>
      <sparseX i="184" alpha="-23689.110716260286" sparseCutoff="1.0000000000000000"/>
      <sparseX i="185" alpha="-622.22948992786928" sparseCutoff="1.0000000000000000"/>
      <sparseX i="186" alpha="-88037.714128482636" sparseCutoff="1.0000000000000000"/>
      <sparseX i="187" alpha="27564.621335351654" sparseCutoff="1.0000000000000000"/>
      <sparseX i="188" alpha="-29561.528523484703" sparseCutoff="1.0000000000000000"/>
      <sparseX i="189" alpha="-10179.717623958451" sparseCutoff="1.0000000000000000"/>
      <sparseX i="190" alpha="15280.589144664011" sparseCutoff="1.0000000000000000"/>
      <sparseX i="191" alpha="-26148.003815854379" sparseCutoff="1.0000000000000000"/>
      <sparseX i="192" alpha="-44214.455626650066" sparseCutoff="1.0000000000000000"/>
      <sparseX i="193" alpha="46750.410219804879" sparseCutoff="1.0000000000000000"/>
      <sparseX i="194" alpha="-93963.364590321449" sparseCutoff="1.0000000000000000"/>
      <sparseX i="195" alpha="8700.4157648030396" sparseCutoff="1.0000000000000000"/>
      <sparseX i="196" alpha="1615.6229503664354" sparseCutoff="1.0000000000000000"/>
      <sparseX i="197" alpha="-62935.405768300283" sparseCutoff="1.0000000000000000"/>
      <sparseX i="198" alpha="12735.424911829501" sparseCutoff="1.0000000000000000"/>
      <sparseX i="199" alpha="-57574.143196188030" sparseCutoff="1.0000000000000000"/>
      <sparseX i="200" alpha="17797.226815750866" sparseCutoff="1.0000000000000000"/>
      <sparseX i="201" alpha="9615.2575149889781" sparseCutoff="1.0000000000000000"/>
      <sparseX i="202" alpha="18520.225210175508" sparseCutoff="1.0000000000000000"/>
      <sparseX i="203" alpha="13650.031779613186" sparseCutoff="1.0000000000000000"/>
      <sparseX i="204" alpha="68101.507328439795" sparseCutoff="1.0000000000000000"/>
      <sparseX i="205" alpha="-39123.436126023902" sparseCutoff="1.0000000000000000"/>
      <sparseX i="206" alpha="-27564.902534528370" sparseCutoff="1.0000000000000000"/>
      <sparseX i="207" alpha="69536.138003030748" sparseCutoff="1.0000000000000000"/>
      <sparseX i="208" alpha="-27331.995518404954" sparseCutoff="1.0000000000000000"/>
      <sparseX i="209" alpha="-37667.845591614801" sparseCutoff="1.0000000000000000"/>
      <sparseX i="210" alpha="40195.241593241240" sparseCutoff="1.0000000000000000"/>
      <sparseX i="211" alpha="-76264.955056215185" sparseCutoff="1.0000000000000000"/>
      <sparseX i="212" alpha="19381.994686498772" sparseCutoff="1.0000000000000000"/>
      <sparseX i="213" alpha="4383.7419016343456" sparseCutoff="1.0000000000000000"/>
      <sparseX i="214" alpha="-49406.487345181762" sparseCutoff="1.0000000000000000"/>
      <sparseX i="215" alpha="-73754.382534618213" sparseCutoff="1.0000000000000000"/>
      <sparseX i="216" alpha="-12362.543858079609" sparseCutoff="1.0000000000000000"/>
      <sparseX i="217" alpha="5173.5941421699190" sparseCutoff="1.0000000000000000"/>
      <sparseX i="218" alpha="-63899.341130951674" sparseCutoff="1.0000000000000000"/>
      <sparseX i="219" alpha="-50166.001280481389" sparseCutoff="1.0000000000000000"/>
      <sparseX i="220" alpha="-5308.6082591220711" sparseCutoff="1.0000000000000000"/>
      <sparseX i="221" alpha="-59490.560363384240" sparseCutoff="1.0000000000000000"/>
      <sparseX i="222" alpha="-113070.39715572949" sparseCutoff="1.0000000000000000"/>
      <sparseX i="223" alpha="36989.448692387421" sparseCutoff="1.0000000000000000"/>
      <sparseX i="224" alpha="-50234.700676233799" sparseCutoff="1.0000000000000000"/>
      <sparseX i="225" alpha="-87822.374897106740" sparseCutoff="1.0000000000000000"/>
      <sparseX i="226" alpha="85537.700875912502" sparseCutoff="1.0000000000000000"/>
      <sparseX i="227" alpha="22879.834137370424" sparseCutoff="1.0000000000000000"/>
      <sparseX i="228" alpha="76162.764078124907" sparseCutoff="1.0000000000000000"/>
      <sparseX i="229" alpha="50616.576580264365" sparseCutoff="1.0000000000000000"/>
      <sparseX i="230" alpha="95358.617292126612" sparseCutoff="1.0000000000000000"/>
      <sparseX i="231" alpha="16186.659283470972" sparseCutoff="1.0000000000000000"/>
      <sparseX i="232" alpha="24732.704724562729" sparseCutoff="1.0000000000000000"/>
      <sparseX i="233" alpha="165595.95897925273" sparseCutoff="1.0000000000000000"/>
      <sparseX i="234" alpha="19925.584189444318" sparseCutoff="1.0000000000000000"/>
      <sparseX i="235" alpha="-106935.68374460073" sparseCutoff="1.0000000000000000"/>
      <sparseX i="236" alpha="-21970.973068028172" sparseCutoff="1.0000000000000000"/>
      <sparseX i="237" alpha="-1442.4309822327352" sparseCutoff="1.0000000000000000"/>
      <sparseX i="238" alpha="-7262.4902414248700" sparseCutoff="1.0000000000000000"/>
      <sparseX i="239" alpha="42714.925235008843" sparseCutoff="1.0000000000000000"/>
      <sparseX i="240" alpha="-39872.806736725397" sparseCutoff="1.0000000000000000"/>
      <sparseX i="241" alpha="-70438.966174045461" sparseCutoff="1.0000000000000000"/>
      <sparseX i="242" alpha="-18485.092355079003" sparseCutoff="1.0000000000000000"/>
      <sparseX i="243" alpha="-88691.731232199934" sparseCutoff="1.0000000000000000"/>
      <sparseX i="244" alpha="-20476.557936483987" sparseCutoff="1.0000000000000000"/>
      <sparseX i="245" alpha="65480.023881881920" sparseCutoff="1.0000000000000000"/>
      <sparseX i="246" alpha="157159.23471936487" sparseCutoff="1.0000000000000000"/>
      <sparseX i="247" alpha="-26434.051747910718" sparseCutoff="1.0000000000000000"/>
      <sparseX i="248" alpha="59753.547937378484" sparseCutoff="1.0000000000000000"/>
      <sparseX i="249" alpha="57444.945602320367" sparseCutoff="1.0000000000000000"/>
      <sparseX i="250" alpha="-28799.852748307690" sparseCutoff="1.0000000000000000"/>
      <sparseX i="251" alpha="95169.881758744712" sparseCutoff="1.0000000000000000"/>
      <sparseX i="252" alpha="-5703.3222933026136" sparseCutoff="1.0000000000000000"/>
      <sparseX i="253" alpha="15112.999303720126" sparseCutoff="1.0000000000000000"/>
      <sparseX i="254" alpha="-2789.1101694831077" sparseCutoff="1.0000000000000000"/>
      <sparseX i="255" alpha="123621.41646776958" sparseCutoff="1.0000000000000000"/>
      <sparseX i="256" alpha="-94146.387081777779" sparseCutoff="1.0000000000000000"/>
      <sparseX i="257" alpha="-13103.034131735401" sparseCutoff="1.0000000000000000"/>
      <sparseX i="258" alpha="71041.678265024952" sparseCutoff="1.0000000000000000"/>
      <sparseX i="259" alpha="34733.994283932618" sparseCutoff="1.0000000000000000"/>
      <sparseX i="260" alpha="53525.136873874224" sparseCutoff="1.0000000000000000"/>
      <sparseX i="261" alpha="30812.175036139997" sparseCutoff="1.0000000000000000"/>
      <sparseX i="262" alpha="7972.0225879315794" sparseCutoff="1.0000000000000000"/>
      <sparseX i="263" alpha="7380.0243221743940" sparseCutoff="1.0000000000000000"/>
      <sparseX i="264" alpha="-30493.335915820964" sparseCutoff="1.0000000000000000"/>
      <sparseX i="265" alpha="151726.24181816715" sparseCutoff="1.0000000000000000"/>
      <sparseX i="266" alpha="35348.213337489404" sparseCutoff="1.0000000000000000"/>
      <sparseX i="267" alpha="44721.637991977041" sparseCutoff="1.0000000000000000"/>
      <sparseX i="268" alpha="-2582.6929455456825" sparseCutoff="1.0000000000000000"/>
      <sparseX i="269" alpha="-26662.584235563838" sparseCutoff="1.0000000000000000"/>
      <sparseX i="270" alpha="1429.8069607040363" sparseCutoff="1.0000000000000000"/>
      <sparseX i="271" alpha="6183.4085340780648" sparseCutoff="1.0000000000000000"/>
      <sparseX i="272" alpha="3689.1597170006116" sparseCutoff="1.0000000000000000"/>
      <sparseX i="273" alpha="85593.720024697977" sparseCutoff="1.0000000000000000"/>
      <sparseX i="274" alpha="-58324.704578630823" sparseCutoff="1.0000000000000000"/>
      <sparseX i="275" alpha="75044.269331000673" sparseCutoff="1.0000000000000000"/>
      <sparseX i="276" alpha="87709.922211583718" sparseCutoff="1.0000000000000000"/>
      <sparseX i="277" alpha="14514.069344983236" sparseCutoff="1.0000000000000000"/>
      <sparseX i="278" alpha="60004.477218887907" sparseCutoff="1.0000000000000000"/>
      <sparseX i="279" alpha="-47622.432866466726" sparseCutoff="1.0000000000000000"/>
      <sparseX i="280" alpha="37629.494617222568" sparseCutoff="1.0000000000000000"/>
      <sparseX i="281" alpha="-19636.005862552403" sparseCutoff="1.0000000000000000"/>
      <sparseX i="282" alpha="-22453.328181541776" sparseCutoff="1.0000000000000000"/>
      <sparseX i="283" alpha="114684.60956332478" sparseCutoff="1.0000000000000000"/>
      <sparseX i="284" alpha="-9185.8107301006803" sparseCutoff="1.0000000000000000"/>
      <sparseX i="285" alpha="2354.1225408793425" sparseCutoff="1.0000000000000000"/>
      <sparseX i="286" alpha="128832.35699812222" sparseCutoff="1.0000000000000000"/>
      <sparseX i="287" alpha="-39003.934576871587" sparseCutoff="1.0000000000000000"/>
      <sparseX i="288" alpha="52230.224652254357" sparseCutoff="1.0000000000000000"/>
      <sparseX i="289" alpha="50861.562938110146" sparseCutoff="1.0000000000000000"/>
      <sparseX i="290" alpha="-17473.161162642227" sparseCutoff="1.0000000000000000"/>
      <sparseX i="291" alpha="62945.364741881451" sparseCutoff="1.0000000000000000"/>
      <sparseX i="292" alpha="43184.089671653252" sparseCutoff="1.0000000000000000"/>
      <sparseX i="293" alpha="636.15712368612969" sparseCutoff="1.0000000000000000"/>
      <sparseX i="294" alpha="-6949.5254866046535" sparseCutoff="1.0000000000000000"/>
      <sparseX i="295" alpha="-56649.541647421953" sparseCutoff="1.0000000000000000"/>
      <sparseX i="296" alpha="-5875.2513195905522" sparseCutoff="1.0000000000000000"/>
      <sparseX i="297" alpha="18757.620591812265" sparseCutoff="1.0000000000000000"/>
      <sparseX i="298" alpha="18871.525759175733" sparseCutoff="1.0000000000000000"/>
      <sparseX i="299" alpha="17385.699370063019" sparseCutoff="1.0000000000000000"/>
      <sparseX i="300" alpha="1808.8861638774185" sparseCutoff="1.0000000000000000"/>
      <sparseX i="301" alpha="21444.724851526247" sparseCutoff="1.0000000000000000"/>
      <sparseX i="302" alpha="-12144.260263473141" sparseCutoff="1.0000000000000000"/>
      <sparseX i="303" alpha="-84849.379632845637" sparseCutoff="1.0000000000000000"/>
      <sparseX i="304" alpha="14018.303917912695" sparseCutoff="1.0000000000000000"/>
      <sparseX i="305" alpha="-31062.659123633788" sparseCutoff="1.0000000000000000"/>
      <sparseX i="306" alpha="30421.480736848727" sparseCutoff="1.0000000000000000"/>
      <sparseX i="307" alpha="39676.615325456718" sparseCutoff="1.0000000000000000"/>
      <sparseX i="308" alpha="-88006.470078788014" sparseCutoff="1.0000000000000000"/>
      <sparseX i="309" alpha="-60238.258394435885" sparseCutoff="1.0000000000000000"/>
      <sparseX i="310" alpha="93167.917749033470" sparseCutoff="1.0000000000000000"/>
      <sparseX i="311" alpha="33696.025962948115" sparseCutoff="1.0000000000000000"/>
      <sparseX i="312" alpha="-58850.572829201599" sparseCutoff="1.0000000000000000"/>
      <sparseX i="313" alpha="1787.8509199656669" sparseCutoff="1.0000000000000000"/>
      <sparseX i="314" alpha="101898.29357074983" sparseCutoff="1.0000000000000000"/>
      <sparseX i="315" alpha="35106.589993677953" sparseCutoff="1.0000000000000000"/>
      <sparseX i="316" alpha="-18694.671341073605" sparseCutoff="1.0000000000000000"/>
      <sparseX i="317" alpha="85430.071286339691" sparseCutoff="1.0000000000000000"/>
      <sparseX i="318" alpha="-87211.805106884029" sparseCutoff="1.0000000000000000"/>
      <sparseX i="319" alpha="-71833.617257576829" sparseCutoff="1.0000000000000000"/>
      <sparseX i="320" alpha="-42909.088146573762" sparseCutoff="1.0000000000000000"/>
      <sparseX i="321" alpha="49149.914208509072" sparseCutoff="1.0000000000000000"/>
      <sparseX i="322" alpha="61330.714484533186" sparseCutoff="1.0000000000000000"/>
      <sparseX i="323" alpha="4164.0668491102633" sparseCutoff="1.0000000000000000"/>
      <sparseX i="324" alpha="-21521.603147913331" sparseCutoff="1.0000000000000000"/>
      <sparseX i="325" alpha="-1035.3593123552605" sparseCutoff="1.0000000000000000"/>
      <sparseX i="326" alpha="6131.2233482652764" sparseCutoff="1.0000000000000000"/>
      <sparseX i="327" alpha="7787.2068710035855" sparseCutoff="1.0000000000000000"/>
      <sparseX i="328" alpha="-15690.152052916659" sparseCutoff="1.0000000000000000"/>
      <sparseX i="329" alpha="-38281.666546857945" sparseCutoff="1.0000000000000000"/>
      <sparseX i="330" alpha="80156.176146615297" sparseCutoff="1.0000000000000000"/>
      <sparseX i="331" alpha="8927.0436340791166" sparseCutoff="1.0000000000000000"/>
      <sparseX i="332" alpha="-25502.080706068802" sparseCutoff="1.0000000000000000"/>
      <sparseX i="333" alpha="-78205.021497208028" sparseCutoff="1.0000000000000000"/>
      <sparseX i="334" alpha="-24693.738852861650" sparseCutoff="1.0000000000000000"/>
      <sparseX i="335" alpha="-70263.024956347595" sparseCutoff="1.0000000000000000"/>
      <sparseX i="336" alpha="17847.191253887275" sparseCutoff="1.0000000000000000"/>
      <sparseX i="337" alpha="-55811.702629926724" sparseCutoff="1.0000000000000000"/>
      <sparseX i="338" alpha="29497.260560021557" sparseCutoff="1.0000000000000000"/>
      <sparseX i="339" alpha="44608.015931190232" sparseCutoff="1.0000000000000000"/>
      <sparseX i="340" alpha="74330.337285716581" sparseCutoff="1.0000000000000000"/>
      <sparseX i="341" alpha="-84279.868603126990" sparseCutoff="1.0000000000000000"/>
      <sparseX i="342" alpha="-26549.304428721818" sparseCutoff="1.0000000000000000"/>
      <sparseX i="343" alpha="34944.497935415216" sparseCutoff="1.0000000000000000"/>
      <sparseX i="344" alpha="-16623.112574371298" sparseCutoff="1.0000000000000000"/>
      <sparseX i="345" alpha="-25797.994004537395" sparseCutoff="1.0000000000000000"/>
      <sparseX i="346" alpha="13016.190333904460" sparseCutoff="1.0000000000000000"/>
      <sparseX i="347" alpha="2981.7561287091330" sparseCutoff="1.0000000000000000"/>
      <sparseX i="348" alpha="-10740.532046377812" sparseCutoff="1.0000000000000000"/>
      <sparseX i="349" alpha="2593.4520787013589" sparseCutoff="1.0000000000000000"/>
      <sparseX i="350" alpha="-20124.651867006585" sparseCutoff="1.0000000000000000"/>
      <sparseX i="351" alpha="15434.832484105546" sparseCutoff="1.0000000000000000"/>
      <sparseX i="352" alpha="-13410.829741562549" sparseCutoff="1.0000000000000000"/>
      <sparseX i="353" alpha="8228.4368994044289" sparseCutoff="1.0000000000000000"/>
      <sparseX i="354" alpha="-8555.6461812299003" sparseCutoff="1.0000000000000000"/>
      <sparseX i="355" alpha="61210.482694288999" sparseCutoff="1.0000000000000000"/>
      <sparseX i="356" alpha="-5723.8531506123854" sparseCutoff="1.0000000000000000"/>
      <sparseX i="357" alpha="-15699.706836768217" sparseCutoff="1.0000000000000000"/>
      <sparseX i="358" alpha="-78657.065574349108" sparseCutoff="1.0000000000000000"/>
      <sparseX i="359" alpha="33343.199072854768" sparseCutoff="1.0000000000000000"/>
      <sparseX i="360" alpha="-33506.759172568076" sparseCutoff="1.0000000000000000"/>
      <sparseX i="361" alpha="-31366.795807819792" sparseCutoff="1.0000000000000000"/>
      <sparseX i="362" alpha="51457.287451832424" sparseCutoff="1.0000000000000000"/>
      <sparseX i="363" alpha="8214.5917456920433" sparseCutoff="1.0000000000000000"/>
      <sparseX i="364" alpha="-38778.673878705849" sparseCutoff="1.0000000000000000"/>
      <sparseX i="365" alpha="-3368.1380564168990" sparseCutoff="1.0000000000000000"/>
      <sparseX i="366" alpha="-11179.267057724610" sparseCutoff="1.0000000000000000"/>
      <sparseX i="367" alpha="55319.905448504644" sparseCutoff="1.0000000000000000"/>
      <sparseX i="368" alpha="10507.114509710866" sparseCutoff="1.0000000000000000"/>
      <sparseX i="369" alpha="-22453.172009179900" sparseCutoff="1.0000000000000000"/>
      <sparseX i="370" alpha="16623.449496651810" sparseCutoff="1.0000000000000000"/>
      <sparseX i="371" alpha="21847.555427589698" sparseCutoff="1.0000000000000000"/>
      <sparseX i="372" alpha="-57.415600270965903" sparseCutoff="1.0000000000000000"/>
      <sparseX i="373" alpha="-6750.9499368939196" sparseCutoff="1.0000000000000000"/>
      <sparseX i="374" alpha="-68541.343310390890" sparseCutoff="1.0000000000000000"/>
      <sparseX i="375" alpha="584.92904997515370" sparseCutoff="1.0000000000000000"/>
      <sparseX i="376" alpha="18777.907762390270" sparseCutoff="1.0000000000000000"/>
      <sparseX i="377" alpha="25103.527756165284" sparseCutoff="1.0000000000000000"/>
      <sparseX i="378" alpha="60400.700836294287" sparseCutoff="1.0000000000000000"/>
      <sparseX i="379" alpha="-62883.750334527627" sparseCutoff="1.0000000000000000"/>
      <sparseX i="380" alpha="25872.786761965555" sparseCutoff="1.0000000000000000"/>
      <sparseX i="381" alpha="31046.113746446899" sparseCutoff="1.0000000000000000"/>
      <sparseX i="382" alpha="-93831.385916989224" sparseCutoff="1.0000000000000000"/>
      <sparseX i="383" alpha="-14476.588389183846" sparseCutoff="1.0000000000000000"/>
      <sparseX i="384" alpha="-14198.582045662431" sparseCutoff="1.0000000000000000"/>
      <sparseX i="385" alpha="63052.090491024472" sparseCutoff="1.0000000000000000"/>
      <sparseX i="386" alpha="-7344.7999415366157" sparseCutoff="1.0000000000000000"/>
      <sparseX i="387" alpha="-88518.651778700194" sparseCutoff="1.0000000000000000"/>
      <sparseX i="388" alpha="2620.7373652520473" sparseCutoff="1.0000000000000000"/>
      <sparseX i="389" alpha="-11592.059675856710" sparseCutoff="1.0000000000000000"/>
      <sparseX i="390" alpha="4516.4326396373026" sparseCutoff="1.0000000000000000"/>
      <sparseX i="391" alpha="56351.158417719620" sparseCutoff="1.0000000000000000"/>
      <sparseX i="392" alpha="22795.409936827306" sparseCutoff="1.0000000000000000"/>
      <sparseX i="393" alpha="-30780.086847663410" sparseCutoff="1.0000000000000000"/>
      <sparseX i="394" alpha="22330.478779976940" sparseCutoff="1.0000000000000000"/>
      <sparseX i="395" alpha="15495.588330786240" sparseCutoff="1.0000000000000000"/>
      <sparseX i="396" alpha="-17040.926436793790" sparseCutoff="1.0000000000000000"/>
      <sparseX i="397" alpha="-9074.1055059178907" sparseCutoff="1.0000000000000000"/>
      <sparseX i="398" alpha="92365.552091866164" sparseCutoff="1.0000000000000000"/>
      <sparseX i="399" alpha="-11519.483653041732" sparseCutoff="1.0000000000000000"/>
      <sparseX i="400" alpha="-28029.670480815148" sparseCutoff="1.0000000000000000"/>
      <sparseX i="401" alpha="-169147.28213303487" sparseCutoff="1.0000000000000000"/>
      <sparseX i="402" alpha="3472.1788331355715" sparseCutoff="1.0000000000000000"/>
      <sparseX i="403" alpha="68612.384053376969" sparseCutoff="1.0000000000000000"/>
      <sparseX i="404" alpha="24147.164903727480" sparseCutoff="1.0000000000000000"/>
      <sparseX i="405" alpha="42668.785378343251" sparseCutoff="1.0000000000000000"/>
      <sparseX i="406" alpha="-28633.347432338807" sparseCutoff="1.0000000000000000"/>
      <sparseX i="407" alpha="20048.627686347663" sparseCutoff="1.0000000000000000"/>
      <sparseX i="408" alpha="42627.094262128157" sparseCutoff="1.0000000000000000"/>
      <sparseX i="409" alpha="-2572.4997695835000" sparseCutoff="1.0000000000000000"/>
      <sparseX i="410" alpha="-24527.167543827378" sparseCutoff="1.0000000000000000"/>
      <sparseX i="411" alpha="93110.191836694488" sparseCutoff="1.0000000000000000"/>
      <sparseX i="412" alpha="-424.53079032560578" sparseCutoff="1.0000000000000000"/>
      <sparseX i="413" alpha="-30217.073814372525" sparseCutoff="1.0000000000000000"/>
      <sparseX i="414" alpha="30227.883760356432" sparseCutoff="1.0000000000000000"/>
      <sparseX i="415" alpha="28365.673720386327" sparseCutoff="1.0000000000000000"/>
      <sparseX i="416" alpha="9137.3276770644770" sparseCutoff="1.0000000000000000"/>
      <sparseX i="417" alpha="108034.81185885060" sparseCutoff="1.0000000000000000"/>
      <sparseX i="418" alpha="90655.516341142764" sparseCutoff="1.0000000000000000"/>
      <sparseX i="419" alpha="-8217.0425730743973" sparseCutoff="1.0000000000000000"/>
      <sparseX i="420" alpha="61766.672702674849" sparseCutoff="1.0000000000000000"/>
      <sparseX i="421" alpha="33161.702599242162" sparseCutoff="1.0000000000000000"/>
      <sparseX i="422" alpha="52666.647203035493" sparseCutoff="1.0000000000000000"/>
      <sparseX i="423" alpha="-25578.965246492549" sparseCutoff="1.0000000000000000"/>
      <sparseX i="424" alpha="62920.142266565752" sparseCutoff="1.0000000000000000"/>
      <sparseX i="425" alpha="-15788.311298199354" sparseCutoff="1.0000000000000000"/>
      <sparseX i="426" alpha="12152.394653085115" sparseCutoff="1.0000000000000000"/>
      <sparseX i="427" alpha="23319.448948688183" sparseCutoff="1.0000000000000000"/>
      <sparseX i="428" alpha="-22214.227763582363" sparseCutoff="1.0000000000000000"/>
      <sparseX i="429" alpha="181301.28114382309" sparseCutoff="1.0000000000000000"/>
      <sparseX i="430" alpha="86494.013793856866" sparseCutoff="1.0000000000000000"/>
      <sparseX i="431" alpha="-85168.997128183168" sparseCutoff="1.0000000000000000"/>
      <sparseX i="432" alpha="-12119.588475947656" sparseCutoff="1.0000000000000000"/>
      <sparseX i="433" alpha="-24789.818129379328" sparseCutoff="1.0000000000000000"/>
      <sparseX i="434" alpha="-11801.061169340810" sparseCutoff="1.0000000000000000"/>
      <sparseX i="435" alpha="61279.805225751537" sparseCutoff="1.0000000000000000"/>
      <sparseX i="436" alpha="-7609.4403501424240" sparseCutoff="1.0000000000000000"/>
      <sparseX i="437" alpha="-7650.7665394885880" sparseCutoff="1.0000000000000000"/>
      <sparseX i="438" alpha="-28786.860772060518" sparseCutoff="1.0000000000000000"/>
      <sparseX i="439" alpha="-13174.016740850864" sparseCutoff="1.0000000000000000"/>
      <sparseX i="440" alpha="-28167.748571353433" sparseCutoff="1.0000000000000000"/>
      <sparseX i="441" alpha="-37236.390529887176" sparseCutoff="1.0000000000000000"/>
      <sparseX i="442" alpha="-66892.678223486320" sparseCutoff="1.0000000000000000"/>
      <sparseX i="443" alpha="-29933.040663393695" sparseCutoff="1.0000000000000000"/>
      <sparseX i="444" alpha="-20671.294803054974" sparseCutoff="1.0000000000000000"/>
      <sparseX i="445" alpha="-7877.3045375411439" sparseCutoff="1.0000000000000000"/>
      <sparseX i="446" alpha="65245.346917228308" sparseCutoff="1.0000000000000000"/>
      <sparseX i="447" alpha="47341.813274986991" sparseCutoff="1.0000000000000000"/>
      <sparseX i="448" alpha="1605.3084339217073" sparseCutoff="1.0000000000000000"/>
      <sparseX i="449" alpha="494.37833187821280" sparseCutoff="1.0000000000000000"/>
      <sparseX i="450" alpha="12185.277671135058" sparseCutoff="1.0000000000000000"/>
      <sparseX i="451" alpha="42994.318186023535" sparseCutoff="1.0000000000000000"/>
      <sparseX i="452" alpha="-2202.0119035009238" sparseCutoff="1.0000000000000000"/>
      <sparseX i="453" alpha="41919.725572754418" sparseCutoff="1.0000000000000000"/>
      <sparseX i="454" alpha="-30480.897422381910" sparseCutoff="1.0000000000000000"/>
      <sparseX i="455" alpha="1937.7053523242935" sparseCutoff="1.0000000000000000"/>
      <sparseX i="456" alpha="-10773.699993518832" sparseCutoff="1.0000000000000000"/>
      <sparseX i="457" alpha="-36641.017946742097" sparseCutoff="1.0000000000000000"/>
      <sparseX i="458" alpha="10812.416742794660" sparseCutoff="1.0000000000000000"/>
      <sparseX i="459" alpha="-41102.432076520578" sparseCutoff="1.0000000000000000"/>
      <sparseX i="460" alpha="-25356.215533564715" sparseCutoff="1.0000000000000000"/>
      <sparseX i="461" alpha="-9882.9780622333001" sparseCutoff="1.0000000000000000"/>
      <sparseX i="462" alpha="-1848.2145488964275" sparseCutoff="1.0000000000000000"/>
      <sparseX i="463" alpha="13537.165732274414" sparseCutoff="1.0000000000000000"/>
      <sparseX i="464" alpha="22427.648944513399" sparseCutoff="1.0000000000000000"/>
      <sparseX i="465" alpha="33160.918305763247" sparseCutoff="1.0000000000000000"/>
      <sparseX i="466" alpha="-41187.743011193190" sparseCutoff="1.0000000000000000"/>
      <sparseX i="467" alpha="25507.457869635258" sparseCutoff="1.0000000000000000"/>
      <sparseX i="468" alpha="39917.542555655193" sparseCutoff="1.0000000000000000"/>
      <sparseX i="469" alpha="-95888.105377661617" sparseCutoff="1.0000000000000000"/>
      <sparseX i="470" alpha="41057.855079414112" sparseCutoff="1.0000000000000000"/>
      <sparseX i="471" alpha="56451.545678185896" sparseCutoff="1.0000000000000000"/>
      <sparseX i="472" alpha="-11827.712926818462" sparseCutoff="1.0000000000000000"/>
      <sparseX i="473" alpha="26191.731810673773" sparseCutoff="1.0000000000000000"/>
      <sparseX i="474" alpha="8189.2259464791550" sparseCutoff="1.0000000000000000"/>
      <sparseX i="475" alpha="-8710.6472171092373" sparseCutoff="1.0000000000000000"/>
      <sparseX i="476" alpha="33362.985620481450" sparseCutoff="1.0000000000000000"/>
      <sparseX i="477" alpha="-20068.395678116027" sparseCutoff="1.0000000000000000"/>
      <sparseX i="478" alpha="15539.975742209352" sparseCutoff="1.0000000000000000"/>
      <sparseX i="479" alpha="-27053.533156436515" sparseCutoff="1.0000000000000000"/>
      <sparseX i="480" alpha="-1957.5660514133554" sparseCutoff="1.0000000000000000"/>
      <sparseX i="481" alpha="-118643.94338767673" sparseCutoff="1.0000000000000000"/>
      <sparseX i="482" alpha="-52172.701472121778" sparseCutoff="1.0000000000000000"/>
      <sparseX i="483" alpha="-9869.4286505178552" sparseCutoff="1.0000000000000000"/>
      <sparseX i="484" alpha="-57735.304755202204" sparseCutoff="1.0000000000000000"/>
      <sparseX i="485" alpha="22888.282908831090" sparseCutoff="1.0000000000000000"/>
      <sparseX i="486" alpha="-5550.9974410904342" sparseCutoff="1.0000000000000000"/>
      <sparseX i="487" alpha="-3631.3748127564500" sparseCutoff="1.0000000000000000"/>
      <sparseX i="488" alpha="5768.7440699473791" sparseCutoff="1.0000000000000000"/>
      <sparseX i="489" alpha="-1091.4633362706641" sparseCutoff="1.0000000000000000"/>
      <sparseX i="490" alpha="34773.876046736106" sparseCutoff="1.0000000000000000"/>
      <sparseX i="491" alpha="-107618.55352899659" sparseCutoff="1.0000000000000000"/>
      <sparseX i="492" alpha="43071.562199751272" sparseCutoff="1.0000000000000000"/>
      <sparseX i="493" alpha="-38387.990785672737" sparseCutoff="1.0000000000000000"/>
      <sparseX i="494" alpha="-9627.3113784754350" sparseCutoff="1.0000000000000000"/>
      <sparseX i="495" alpha="50050.522992233840" sparseCutoff="1.0000000000000000"/>
      <sparseX i="496" alpha="21933.215925434517" sparseCutoff="1.0000000000000000"/>
      <sparseX i="497" alpha="-21736.037768815189" sparseCutoff="1.0000000000000000"/>
      <sparseX i="498" alpha="-7227.4289461624830" sparseCutoff="1.0000000000000000"/>
      <sparseX i="499" alpha="-8861.7039482957953" sparseCutoff="1.0000000000000000"/>
      <sparseX i="500" alpha="14226.043824190963" sparseCutoff="1.0000000000000000"/>
      <sparseX i="501" alpha="-6998.2780368311815" sparseCutoff="1.0000000000000000"/>
      <sparseX i="502" alpha="-31279.415168051371" sparseCutoff="1.0000000000000000"/>
      <sparseX i="503" alpha="3969.6817312992289" sparseCutoff="1.0000000000000000"/>
      <sparseX i="504" alpha="-452.91064926190518" sparseCutoff="1.0000000000000000"/>
      <sparseX i="505" alpha="13780.937986440367" sparseCutoff="1.0000000000000000"/>
      <sparseX i="506" alpha="-68111.703225870937" sparseCutoff="1.0000000000000000"/>
      <sparseX i="507" alpha="41810.491287616074" sparseCutoff="1.0000000000000000"/>
      <sparseX i="508" alpha="-28385.316185370637" sparseCutoff="1.0000000000000000"/>
      <sparseX i="509" alpha="20950.996424724715" sparseCutoff="1.0000000000000000"/>
      <sparseX i="510" alpha="9004.9050606360779" sparseCutoff="1.0000000000000000"/>
      <sparseX i="511" alpha="-1854.5601502099742" sparseCutoff="1.0000000000000000"/>
      <sparseX i="512" alpha="-13421.160824281196" sparseCutoff="1.0000000000000000"/>
      <sparseX i="513" alpha="-44630.438295823486" sparseCutoff="1.0000000000000000"/>
      <sparseX i="514" alpha="57234.670265350782" sparseCutoff="1.0000000000000000"/>
      <sparseX i="515" alpha="14996.795953355273" sparseCutoff="1.0000000000000000"/>
      <sparseX i="516" alpha="-3094.6729858883009" sparseCutoff="1.0000000000000000"/>
      <sparseX i="517" alpha="-38289.734780571263" sparseCutoff="1.0000000000000000"/>
      <sparseX i="518" alpha="34705.637539866511" sparseCutoff="1.0000000000000000"/>
      <sparseX i="519" alpha="-35863.043474902697" sparseCutoff="1.0000000000000000"/>
      <sparseX i="520" alpha="-75883.800768267043" sparseCutoff="1.0000000000000000"/>
      <sparseX i="521" alpha="-29141.623070801670" sparseCutoff="1.0000000000000000"/>
      <sparseX i="522" alpha="-30540.665712487746" sparseCutoff="1.0000000000000000"/>
      <sparseX i="523" alpha="-71839.408865893478" sparseCutoff="1.0000000000000000"/>
      <sparseX i="524" alpha="-85364.419716118849" sparseCutoff="1.0000000000000000"/>
      <sparseX i="525" alpha="20509.204706158820" sparseCutoff="1.0000000000000000"/>
      <sparseX i="526" alpha="-545.35761743181865" sparseCutoff="1.0000000000000000"/>
      <sparseX i="527" alpha="-8590.3135339236469" sparseCutoff="1.0000000000000000"/>
      <sparseX i="528" alpha="25587.222209399093" sparseCutoff="1.0000000000000000"/>
      <sparseX i="529" alpha="-24425.934827825524" sparseCutoff="1.0000000000000000"/>
      <sparseX i="530" alpha="1112.6672088477164" sparseCutoff="1.0000000000000000"/>
      <sparseX i="531" alpha="-26850.388082478781" sparseCutoff="1.0000000000000000"/>
      <sparseX i="532" alpha="-48617.969552322378" sparseCutoff="1.0000000000000000"/>
      <sparseX i="533" alpha="22035.141781649898" sparseCutoff="1.0000000000000000"/>
      <sparseX i="534" alpha="-21094.944365767322" sparseCutoff="1.0000000000000000"/>
      <sparseX i="535" alpha="49366.455894804567" sparseCutoff="1.0000000000000000"/>
      <sparseX i="536" alpha="-13268.449510692910" sparseCutoff="1.0000000000000000"/>
      <sparseX i="537" alpha="64006.803717396564" sparseCutoff="1.0000000000000000"/>
      <sparseX i="538" alpha="-26795.976377538096" sparseCutoff="1.0000000000000000"/>
      <sparseX i="539" alpha="-38594.393684157760" sparseCutoff="1.0000000000000000"/>
      <sparseX i="540" alpha="-149455.11310891210" sparseCutoff="1.0000000000000000"/>
      <sparseX i="541" alpha="1358.5583115274840" sparseCutoff="1.0000000000000000"/>
      <sparseX i="542" alpha="-34403.169361831344" sparseCutoff="1.0000000000000000"/>
      <sparseX i="543" alpha="18667.198813697978" sparseCutoff="1.0000000000000000"/>
      <sparseX i="544" alpha="-91220.654544195597" sparseCutoff="1.0000000000000000"/>
      <sparseX i="545" alpha="-44443.166410075180" sparseCutoff="1.0000000000000000"/>
      <sparseX i="546" alpha="52870.473443456925" sparseCutoff="1.0000000000000000"/>
      <sparseX i="547" alpha="-638.26931982419853" sparseCutoff="1.0000000000000000"/>
      <sparseX i="548" alpha="73513.402366263894" sparseCutoff="1.0000000000000000"/>
      <sparseX i="549" alpha="16212.513201287580" sparseCutoff="1.0000000000000000"/>
      <sparseX i="550" alpha="-12034.830271583383" sparseCutoff="1.0000000000000000"/>
      <sparseX i="551" alpha="-13322.529978197355" sparseCutoff="1.0000000000000000"/>
      <sparseX i="552" alpha="-33582.496176927256" sparseCutoff="1.0000000000000000"/>
      <sparseX i="553" alpha="-14945.814879364420" sparseCutoff="1.0000000000000000"/>
      <sparseX i="554" alpha="-906.07222652985979" sparseCutoff="1.0000000000000000"/>
      <sparseX i="555" alpha="46109.532705359976" sparseCutoff="1.0000000000000000"/>
      <sparseX i="556" alpha="11459.487575423138" sparseCutoff="1.0000000000000000"/>
      <sparseX i="557" alpha="19765.489555925189" sparseCutoff="1.0000000000000000"/>
      <sparseX i="558" alpha="-16284.621848977471" sparseCutoff="1.0000000000000000"/>
      <sparseX i="559" alpha="-51995.997313113898" sparseCutoff="1.0000000000000000"/>
      <sparseX i="560" alpha="8118.9117580344964" sparseCutoff="1.0000000000000000"/>
      <sparseX i="561" alpha="-9027.4937172607915" sparseCutoff="1.0000000000000000"/>
      <sparseX i="562" alpha="-2906.0320019881055" sparseCutoff="1.0000000000000000"/>
      <sparseX i="563" alpha="58578.488529919654" sparseCutoff="1.0000000000000000"/>
      <sparseX i="564" alpha="-3566.4562797377162" sparseCutoff="1.0000000000000000"/>
      <sparseX i="565" alpha="-40614.304152505210" sparseCutoff="1.0000000000000000"/>
      <sparseX i="566" alpha="-46298.515426244659" sparseCutoff="1.0000000000000000"/>
      <sparseX i="567" alpha="-7800.8628538241128" sparseCutoff="1.0000000000000000"/>
      <sparseX i="568" alpha="29562.278458860630" sparseCutoff="1.0000000000000000"/>
      <sparseX i="569" alpha="106848.05833267154" sparseCutoff="1.0000000000000000"/>
      <sparseX i="570" alpha="52555.074388968620" sparseCutoff="1.0000000000000000"/>
      <sparseX i="571" alpha="39272.289685319767" sparseCutoff="1.0000000000000000"/>
      <sparseX i="572" alpha="-6092.2212204510970" sparseCutoff="1.0000000000000000"/>
      <sparseX i="573" alpha="-66818.516152835393" sparseCutoff="1.0000000000000000"/>
      <sparseX i="574" alpha="19.127052749509623" sparseCutoff="1.0000000000000000"/>
      <sparseX i="575" alpha="1930.3238656617496" sparseCutoff="1.0000000000000000"/>
      <sparseX i="576" alpha="-19573.655818007210" sparseCutoff="1.0000000000000000"/>
      <sparseX i="577" alpha="-23155.684760979140" sparseCutoff="1.0000000000000000"/>
      <sparseX i="578" alpha="9437.1861219488965" sparseCutoff="1.0000000000000000"/>
      <sparseX i="579" alpha="-3144.0547062120604" sparseCutoff="1.0000000000000000"/>
      <sparseX i="580" alpha="-137371.80424248861" sparseCutoff="1.0000000000000000"/>
      <sparseX i="581" alpha="-95194.361188478666" sparseCutoff="1.0000000000000000"/>
      <sparseX i="582" alpha="57982.093882401474" sparseCutoff="1.0000000000000000"/>
      <sparseX i="583" alpha="73766.359881514625" sparseCutoff="1.0000000000000000"/>
      <sparseX i="584" alpha="714.23581913075043" sparseCutoff="1.0000000000000000"/>
      <sparseX i="585" alpha="16473.141823752405" sparseCutoff="1.0000000000000000"/>
      <sparseX i="586" alpha="7104.9934187743247" sparseCutoff="1.0000000000000000"/>
      <sparseX i="587" alpha="-8930.4942336314325" sparseCutoff="1.0000000000000000"/>
      <sparseX i="588" alpha="2158.7091201132225" sparseCutoff="1.0000000000000000"/>
      <sparseX i="589" alpha="40453.764797267555" sparseCutoff="1.0000000000000000"/>
      <sparseX i="590" alpha="58523.696442853157" sparseCutoff="1.0000000000000000"/>
      <sparseX i="591" alpha="912.56127939502505" sparseCutoff="1.0000000000000000"/>
      <sparseX i="592" alpha="3041.1501833978728" sparseCutoff="1.0000000000000000"/>
      <sparseX i="593" alpha="3040.9994310268453" sparseCutoff="1.0000000000000000"/>
      <sparseX i="594" alpha="35884.682140686971" sparseCutoff="1.0000000000000000"/>
      <sparseX i="595" alpha="7643.4090565451143" sparseCutoff="1.0000000000000000"/>
      <sparseX i="596" alpha="22214.091944588607" sparseCutoff="1.0000000000000000"/>
      <sparseX i="597" alpha="4120.9397726513535" sparseCutoff="1.0000000000000000"/>
      <sparseX i="598" alpha="23230.480412205139" sparseCutoff="1.0000000000000000"/>
      <sparseX i="599" alpha="23234.401597285669" sparseCutoff="1.0000000000000000"/>
      <sparseX i="600" alpha="-2846.8818845032615" sparseCutoff="1.0000000000000000"/>
      <sparseX i="601" alpha="-12556.451354681445" sparseCutoff="1.0000000000000000"/>
      <sparseX i="602" alpha="-14183.636869057638" sparseCutoff="1.0000000000000000"/>
      <sparseX i="603" alpha="-14183.280508619348" sparseCutoff="1.0000000000000000"/>
      <sparseX i="604" alpha="-11888.159697832994" sparseCutoff="1.0000000000000000"/>
      <sparseX i="605" alpha="2075.3605879726756" sparseCutoff="1.0000000000000000"/>
      <sparseX i="606" alpha="20349.481748082413" sparseCutoff="1.0000000000000000"/>
      <sparseX i="607" alpha="-23095.252234989111" sparseCutoff="1.0000000000000000"/>
      <sparseX i="608" alpha="-10318.984667391200" sparseCutoff="1.0000000000000000"/>
      <sparseX i="609" alpha="37863.574035962323" sparseCutoff="1.0000000000000000"/>
      <sparseX i="610" alpha="26753.251802536699" sparseCutoff="1.0000000000000000"/>
      <sparseX i="611" alpha="6496.6056543526411" sparseCutoff="1.0000000000000000"/>
      <sparseX i="612" alpha="6496.0279784024051" sparseCutoff="1.0000000000000000"/>
      <sparseX i="613" alpha="19396.433686133711" sparseCutoff="1.0000000000000000"/>
      <sparseX i="614" alpha="-20045.406293788968" sparseCutoff="1.0000000000000000"/>
      <sparseX i="615" alpha="-2743.4654285292099" sparseCutoff="1.0000000000000000"/>
      <sparseX i="616" alpha="-18876.590649006463" sparseCutoff="1.0000000000000000"/>
      <sparseX i="617" alpha="38907.770665929944" sparseCutoff="1.0000000000000000"/>
      <sparseX i="618" alpha="-7878.2447320143701" sparseCutoff="1.0000000000000000"/>
      <sparseX i="619" alpha="-28714.772072245836" sparseCutoff="1.0000000000000000"/>
      <sparseX i="620" alpha="2355.1016372860122" sparseCutoff="1.0000000000000000"/>
      <sparseX i="621" alpha="2354.0550025410894" sparseCutoff="1.0000000000000000"/>
      <sparseX i="622" alpha="-8392.5403515400430" sparseCutoff="1.0000000000000000"/>
      <sparseX i="623" alpha="-13094.518404997001" sparseCutoff="1.0000000000000000"/>
      <sparseX i="624" alpha="-19146.711127000621" sparseCutoff="1.0000000000000000"/>
      <sparseX i="625" alpha="-19135.936054956765" sparseCutoff="1.0000000000000000"/>
      <sparseX i="626" alpha="-13327.289937094691" sparseCutoff="1.0000000000000000"/>
      <sparseX i="627" alpha="-10170.324053018521" sparseCutoff="1.0000000000000000"/>
      <sparseX i="628" alpha="1255.7116215077360" sparseCutoff="1.0000000000000000"/>
      <sparseX i="629" alpha="-779.16068094548018" sparseCutoff="1.0000000000000000"/>
      <sparseX i="630" alpha="-783.95930410287679" sparseCutoff="1.0000000000000000"/>
      <sparseX i="631" alpha="12292.820926099070" sparseCutoff="1.0000000000000000"/>
      <sparseX i="632" alpha="-18310.727800068958" sparseCutoff="1.0000000000000000"/>
      <sparseX i="633" alpha="3924.7257650386528" sparseCutoff="1.0000000000000000"/>
      <sparseX i="634" alpha="3923.6608978434965" sparseCutoff="1.0000000000000000"/>
      <sparseX i="635" alpha="-19447.935498933282" sparseCutoff="1.0000000000000000"/>
      <sparseX i="636" alpha="-32020.660171131036" sparseCutoff="1.0000000000000000"/>
      <sparseX i="637" alpha="19087.111884893402" sparseCutoff="1.0000000000000000"/>
      <sparseX i="638" alpha="-8869.1840473564480" sparseCutoff="1.0000000000000000"/>
      <sparseX i="639" alpha="-21280.144573113252" sparseCutoff="1.0000000000000000"/>
      <sparseX i="640" alpha="-11473.431240893138" sparseCutoff="1.0000000000000000"/>
      <sparseX i="641" alpha="27118.775096411518" sparseCutoff="1.0000000000000000"/>
      <sparseX i="642" alpha="-11189.292976598110" sparseCutoff="1.0000000000000000"/>
      <sparseX i="643" alpha="-1219.2431144653788" sparseCutoff="1.0000000000000000"/>
      <sparseX i="644" alpha="-18622.413603741788" sparseCutoff="1.0000000000000000"/>
      <sparseX i="645" alpha="-2657.4670792039774" sparseCutoff="1.0000000000000000"/>
      <sparseX i="646" alpha="77362.252775330649" sparseCutoff="1.0000000000000000"/>
      <sparseX i="647" alpha="29665.692425658530" sparseCutoff="1.0000000000000000"/>
      <sparseX i="648" alpha="-6062.6343227331790" sparseCutoff="1.0000000000000000"/>
      <sparseX i="649" alpha="-6062.6018882213475" sparseCutoff="1.0000000000000000"/>
      <sparseX i="650" alpha="26987.562051952922" sparseCutoff="1.0000000000000000"/>
      <sparseX i="651" alpha="17493.586459325448" sparseCutoff="1.0000000000000000"/>
      <sparseX i="652" alpha="71165.245371828394" sparseCutoff="1.0000000000000000"/>
      <sparseX i="653" alpha="20549.481487599718" sparseCutoff="1.0000000000000000"/>
      <sparseX i="654" alpha="20549.665440860539" sparseCutoff="1.0000000000000000"/>
      <sparseX i="655" alpha="-23137.730298434210" sparseCutoff="1.0000000000000000"/>
      <sparseX i="656" alpha="22472.852558386079" sparseCutoff="1.0000000000000000"/>
      <sparseX i="657" alpha="-5510.3164445286238" sparseCutoff="1.0000000000000000"/>
      <sparseX i="658" alpha="16990.427224298262" sparseCutoff="1.0000000000000000"/>
      <sparseX i="659" alpha="248.81885694732156" sparseCutoff="1.0000000000000000"/>
      <sparseX i="660" alpha="-18275.633501070304" sparseCutoff="1.0000000000000000"/>
      <sparseX i="661" alpha="85221.822632862881" sparseCutoff="1.0000000000000000"/>
      <sparseX i="662" alpha="44491.072370303104" sparseCutoff="1.0000000000000000"/>
      <sparseX i="663" alpha="44491.029362858171" sparseCutoff="1.0000000000000000"/>
      <sparseX i="664" alpha="-53926.900677991463" sparseCutoff="1.0000000000000000"/>
      <sparseX i="665" alpha="4588.3647875901906" sparseCutoff="1.0000000000000000"/>
      <sparseX i="666" alpha="-7369.4906202646207" sparseCutoff="1.0000000000000000"/>
      <sparseX i="667" alpha="5693.8634583684116" sparseCutoff="1.0000000000000000"/>
      <sparseX i="668" alpha="-6052.4696204965285" sparseCutoff="1.0000000000000000"/>
      <sparseX i="669" alpha="-55151.275857036497" sparseCutoff="1.0000000000000000"/>
      <sparseX i="670" alpha="-35453.194043326213" sparseCutoff="1.0000000000000000"/>
      <sparseX i="671" alpha="63937.191620084923" sparseCutoff="1.0000000000000000"/>
      <sparseX i="672" alpha="55345.946222089784" sparseCutoff="1.0000000000000000"/>
      <sparseX i="673" alpha="-8286.0598851484592" sparseCutoff="1.0000000000000000"/>
      <sparseX i="674" alpha="50215.542208537692" sparseCutoff="1.0000000000000000"/>
      <sparseX i="675" alpha="-106721.41155904341" sparseCutoff="1.0000000000000000"/>
      <sparseX i="676" alpha="-15856.261417303247" sparseCutoff="1.0000000000000000"/>
      <sparseX i="677" alpha="-15855.598998741014" sparseCutoff="1.0000000000000000"/>
      <sparseX i="678" alpha="11523.781490995647" sparseCutoff="1.0000000000000000"/>
      <sparseX i="679" alpha="11527.872640403273" sparseCutoff="1.0000000000000000"/>
      <sparseX i="680" alpha="39388.079534123171" sparseCutoff="1.0000000000000000"/>
      <sparseX i="681" alpha="39387.250735125897" sparseCutoff="1.0000000000000000"/>
      <sparseX i="682" alpha="32409.882857057983" sparseCutoff="1.0000000000000000"/>
      <sparseX i="683" alpha="37776.498459455688" sparseCutoff="1.0000000000000000"/>
      <sparseX i="684" alpha="36713.140446437392" sparseCutoff="1.0000000000000000"/>
      <sparseX i="685" alpha="-203.94974534274513" sparseCutoff="1.0000000000000000"/>
      <sparseX i="686" alpha="-92728.389630642327" sparseCutoff="1.0000000000000000"/>
      <sparseX i="687" alpha="-47475.044663683038" sparseCutoff="1.0000000000000000"/>
      <sparseX i="688" alpha="-6534.6509346380954" sparseCutoff="1.0000000000000000"/>
      <sparseX i="689" alpha="-29527.355530264937" sparseCutoff="1.0000000000000000"/>
      <sparseX i="690" alpha="-35819.474320075518" sparseCutoff="1.0000000000000000"/>
      <sparseX i="691" alpha="-35819.933649923834" sparseCutoff="1.0000000000000000"/>
      <sparseX i="692" alpha="-35819.666024067097" sparseCutoff="1.0000000000000000"/>
      <sparseX i="693" alpha="18035.888583178039" sparseCutoff="1.0000000000000000"/>
      <sparseX i="694" alpha="-38934.230183930042" sparseCutoff="1.0000000000000000"/>
      <sparseX i="695" alpha="-93118.913868655698" sparseCutoff="1.0000000000000000"/>
      <sparseX i="696" alpha="-4756.4082219532893" sparseCutoff="1.0000000000000000"/>
      <sparseX i="697" alpha="2719.9194709327044" sparseCutoff="1.0000000000000000"/>
      <sparseX i="698" alpha="-4756.2417362765027" sparseCutoff="1.0000000000000000"/>
      <sparseX i="699" alpha="2694.3210131987830" sparseCutoff="1.0000000000000000"/>
      <sparseX i="700" alpha="2130.2701985905687" sparseCutoff="1.0000000000000000"/>
      <sparseX i="701" alpha="2657.4812072154323" sparseCutoff="1.0000000000000000"/>
      <sparseX i="702" alpha="-32277.574710538480" sparseCutoff="1.0000000000000000"/>
      <sparseX i="703" alpha="94908.732399898989" sparseCutoff="1.0000000000000000"/>
      <sparseX i="704" alpha="28968.697196134606" sparseCutoff="1.0000000000000000"/>
      <sparseX i="705" alpha="19291.665946543631" sparseCutoff="1.0000000000000000"/>
      <sparseX i="706" alpha="-119422.71118550441" sparseCutoff="1.0000000000000000"/>
      <sparseX i="707" alpha="103252.63292317551" sparseCutoff="1.0000000000000000"/>
      <sparseX i="708" alpha="3335.2377174387448" sparseCutoff="1.0000000000000000"/>
      <sparseX i="709" alpha="29737.815367057432" sparseCutoff="1.0000000000000000"/>
      <sparseX i="710" alpha="13178.458371896586" sparseCutoff="1.0000000000000000"/>
      <sparseX i="711" alpha="8358.1632493317666" sparseCutoff="1.0000000000000000"/>
      <sparseX i="712" alpha="-1839.5815921769270" sparseCutoff="1.0000000000000000"/>
      <sparseX i="713" alpha="-29472.129401980121" sparseCutoff="1.0000000000000000"/>
      <sparseX i="714" alpha="94846.393094271087" sparseCutoff="1.0000000000000000"/>
      <sparseX i="715" alpha="124162.26194981675" sparseCutoff="1.0000000000000000"/>
      <sparseX i="716" alpha="45257.845093112584" sparseCutoff="1.0000000000000000"/>
      <sparseX i="717" alpha="35271.079528880015" sparseCutoff="1.0000000000000000"/>
      <sparseX i="718" alpha="-43910.675303564756" sparseCutoff="1.0000000000000000"/>
      <sparseX i="719" alpha="116836.06011221750" sparseCutoff="1.0000000000000000"/>
      <sparseX i="720" alpha="-21029.451422600097" sparseCutoff="1.0000000000000000"/>
      <sparseX i="721" alpha="-48625.462666349442" sparseCutoff="1.0000000000000000"/>
      <sparseX i="722" alpha="55203.167858463014" sparseCutoff="1.0000000000000000"/>
      <sparseX i="723" alpha="-82110.198727421579" sparseCutoff="1.0000000000000000"/>
      <sparseX i="724" alpha="-86707.358935946861" sparseCutoff="1.0000000000000000"/>
      <sparseX i="725" alpha="-27662.614863279396" sparseCutoff="1.0000000000000000"/>
      <sparseX i="726" alpha="-22103.249525093270" sparseCutoff="1.0000000000000000"/>
      <sparseX i="727" alpha="-50470.287982249749" sparseCutoff="1.0000000000000000"/>
      <sparseX i="728" alpha="-21942.375630167287" sparseCutoff="1.0000000000000000"/>
      <sparseX i="729" alpha="-84933.429012063178" sparseCutoff="1.0000000000000000"/>
      <sparseX i="730" alpha="-51555.257487232113" sparseCutoff="1.0000000000000000"/>
      <sparseX i="731" alpha="38578.727209830853" sparseCutoff="1.0000000000000000"/>
      <sparseX i="732" alpha="-2713.1747767362408" sparseCutoff="1.0000000000000000"/>
      <sparseX i="733" alpha="-15407.424112045846" sparseCutoff="1.0000000000000000"/>
      <sparseX i="734" alpha="4729.1617248149605" sparseCutoff="1.0000000000000000"/>
      <sparseX i="735" alpha="5624.6215298056604" sparseCutoff="1.0000000000000000"/>
      <sparseX i="736" alpha="-34652.556274634408" sparseCutoff="1.0000000000000000"/>
      <sparseX i="737" alpha="5817.1784368583303" sparseCutoff="1.0000000000000000"/>
      <sparseX i="738" alpha="12738.448536971449" sparseCutoff="1.0000000000000000"/>
      <sparseX i="739" alpha="-85916.218204253601" sparseCutoff="1.0000000000000000"/>
      <sparseX i="740" alpha="113402.31039651578" sparseCutoff="1.0000000000000000"/>
      <sparseX i="741" alpha="-2387.8060685534451" sparseCutoff="1.0000000000000000"/>
      <sparseX i="742" alpha="8638.9753832409788" sparseCutoff="1.0000000000000000"/>
      <sparseX i="743" alpha="14241.619219129358" sparseCutoff="1.0000000000000000"/>
      <sparseX i="744" alpha="-44565.333047462082" sparseCutoff="1.0000000000000000"/>
      <sparseX i="745" alpha="-20512.450996340394" sparseCutoff="1.0000000000000000"/>
      <sparseX i="746" alpha="69673.004831465776" sparseCutoff="1.0000000000000000"/>
      <sparseX i="747" alpha="-38103.768755612902" sparseCutoff="1.0000000000000000"/>
      <sparseX i="748" alpha="-778.49396502132481" sparseCutoff="1.0000000000000000"/>
      <sparseX i="749" alpha="148071.46917073580" sparseCutoff="1.0000000000000000"/>
      <sparseX i="750" alpha="-1948.0960380022464" sparseCutoff="1.0000000000000000"/>
      <sparseX i="751" alpha="-5878.7479844548761" sparseCutoff="1.0000000000000000"/>
      <sparseX i="752" alpha="-5878.7159868367326" sparseCutoff="1.0000000000000000"/>
      <sparseX i="753" alpha="-6972.2260664586038" sparseCutoff="1.0000000000000000"/>
      <sparseX i="754" alpha="-45544.516512717302" sparseCutoff="1.0000000000000000"/>
      <sparseX i="755" alpha="-9435.2368574574812" sparseCutoff="1.0000000000000000"/>
      <sparseX i="756" alpha="-9435.1830772827980" sparseCutoff="1.0000000000000000"/>
      <sparseX i="757" alpha="-23756.901720739588" sparseCutoff="1.0000000000000000"/>
      <sparseX i="758" alpha="-15351.482133814343" sparseCutoff="1.0000000000000000"/>
      <sparseX i="759" alpha="26305.784871640051" sparseCutoff="1.0000000000000000"/>
      <sparseX i="760" alpha="11174.286372961187" sparseCutoff="1.0000000000000000"/>
      <sparseX i="761" alpha="19257.776267167534" sparseCutoff="1.0000000000000000"/>
      <sparseX i="762" alpha="110961.97416567612" sparseCutoff="1.0000000000000000"/>
      <sparseX i="763" alpha="-303.45539214315079" sparseCutoff="1.0000000000000000"/>
      <sparseX i="764" alpha="101459.58959557327" sparseCutoff="1.0000000000000000"/>
      <sparseX i="765" alpha="-6517.6234758934297" sparseCutoff="1.0000000000000000"/>
      <sparseX i="766" alpha="-12529.956563748028" sparseCutoff="1.0000000000000000"/>
      <sparseX i="767" alpha="-12448.016849307522" sparseCutoff="1.0000000000000000"/>
      <sparseX i="768" alpha="-31215.270628388516" sparseCutoff="1.0000000000000000"/>
      <sparseX i="769" alpha="13256.675817235093" sparseCutoff="1.0000000000000000"/>
      <sparseX i="770" alpha="28770.943300240793" sparseCutoff="1.0000000000000000"/>
      <sparseX i="771" alpha="28770.836213339931" sparseCutoff="1.0000000000000000"/>
      <sparseX i="772" alpha="5158.6725441370772" sparseCutoff="1.0000000000000000"/>
      <sparseX i="773" alpha="1697.2231213511079" sparseCutoff="1.0000000000000000"/>
      <sparseX i="774" alpha="84066.294203957979" sparseCutoff="1.0000000000000000"/>
      <sparseX i="775" alpha="73344.498471184444" sparseCutoff="1.0000000000000000"/>
      <sparseX i="776" alpha="4886.9368106843258" sparseCutoff="1.0000000000000000"/>
      <sparseX i="777" alpha="-11270.180797549358" sparseCutoff="1.0000000000000000"/>
      <sparseX i="778" alpha="-5494.5322049970682" sparseCutoff="1.0000000000000000"/>
      <sparseX i="779" alpha="2624.3786934461464" sparseCutoff="1.0000000000000000"/>
      <sparseX i="780" alpha="130411.24442262798" sparseCutoff="1.0000000000000000"/>
      <sparseX i="781" alpha="-97814.666585294006" sparseCutoff="1.0000000000000000"/>
      <sparseX i="782" alpha="127720.00183592472" sparseCutoff="1.0000000000000000"/>
      <sparseX i="783" alpha="-55939.762679463929" sparseCutoff="1.0000000000000000"/>
      <sparseX i="784" alpha="52197.629564554598" sparseCutoff="1.0000000000000000"/>
      <sparseX i="785" alpha="-1913.6660486322648" sparseCutoff="1.0000000000000000"/>
      <sparseX i="786" alpha="-18307.472974648834" sparseCutoff="1.0000000000000000"/>
      <sparseX i="787" alpha="1452.7905143807779" sparseCutoff="1.0000000000000000"/>
      <sparseX i="788" alpha="143657.44447004391" sparseCutoff="1.0000000000000000"/>
      <sparseX i="789" alpha="159.13972841752053" sparseCutoff="1.0000000000000000"/>
      <sparseX i="790" alpha="29783.778217540868" sparseCutoff="1.0000000000000000"/>
      <sparseX i="791" alpha="-67426.840931911647" sparseCutoff="1.0000000000000000"/>
      <sparseX i="792" alpha="-17434.183874039707" sparseCutoff="1.0000000000000000"/>
      <sparseX i="793" alpha="-17434.140237905784" sparseCutoff="1.0000000000000000"/>
      <sparseX i="794" alpha="1089.4013191790584" sparseCutoff="1.0000000000000000"/>
      <sparseX i="795" alpha="-16395.299281913052" sparseCutoff="1.0000000000000000"/>
      <sparseX i="796" alpha="-8463.3502885513935" sparseCutoff="1.0000000000000000"/>
      <sparseX i="797" alpha="-8462.3627903929919" sparseCutoff="1.0000000000000000"/>
      <sparseX i="798" alpha="30195.573313362504" sparseCutoff="1.0000000000000000"/>
      <sparseX i="799" alpha="139112.71906773120" sparseCutoff="1.0000000000000000"/>
      <sparseX i="800" alpha="-6878.6111498553801" sparseCutoff="1.0000000000000000"/>
      <sparseX i="801" alpha="-39767.861379256778" sparseCutoff="1.0000000000000000"/>
      <sparseX i="802" alpha="132362.72962157323" sparseCutoff="1.0000000000000000"/>
      <sparseX i="803" alpha="-14807.063286294484" sparseCutoff="1.0000000000000000"/>
      <sparseX i="804" alpha="-94022.720285888485" sparseCutoff="1.0000000000000000"/>
      <sparseX i="805" alpha="-228.13743675079439" sparseCutoff="1.0000000000000000"/>
      <sparseX i="806" alpha="28704.728939153501" sparseCutoff="1.0000000000000000"/>
      <sparseX i="807" alpha="9354.7488321543460" sparseCutoff="1.0000000000000000"/>
      <sparseX i="808" alpha="-9274.8671528527702" sparseCutoff="1.0000000000000000"/>
      <sparseX i="809" alpha="-11201.629380129229" sparseCutoff="1.0000000000000000"/>
      <sparseX i="810" alpha="-50406.839126618797" sparseCutoff="1.0000000000000000"/>
      <sparseX i="811" alpha="-21728.972542493550" sparseCutoff="1.0000000000000000"/>
      <sparseX i="812" alpha="1854.2415320452765" sparseCutoff="1.0000000000000000"/>
      <sparseX i="813" alpha="-7325.5764481916303" sparseCutoff="1.0000000000000000"/>
      <sparseX i="814" alpha="10845.388423125611" sparseCutoff="1.0000000000000000"/>
      <sparseX i="815" alpha="87887.976773098548" sparseCutoff="1.0000000000000000"/>
      <sparseX i="816" alpha="-91230.087295876365" sparseCutoff="1.0000000000000000"/>
      <sparseX i="817" alpha="2516.6705942840972" sparseCutoff="1.0000000000000000"/>
      <sparseX i="818" alpha="81855.334093064317" sparseCutoff="1.0000000000000000"/>
      <sparseX i="819" alpha="-15615.119868882794" sparseCutoff="1.0000000000000000"/>
      <sparseX i="820" alpha="8310.0956210248878" sparseCutoff="1.0000000000000000"/>
      <sparseX i="821" alpha="2140.5806811047587" sparseCutoff="1.0000000000000000"/>
      <sparseX i="822" alpha="3433.0761252389884" sparseCutoff="1.0000000000000000"/>
      <sparseX i="823" alpha="3432.9880971220387" sparseCutoff="1.0000000000000000"/>
      <sparseX i="824" alpha="-21081.753745179165" sparseCutoff="1.0000000000000000"/>
      <sparseX i="825" alpha="53106.275933577766" sparseCutoff="1.0000000000000000"/>
      <sparseX i="826" alpha="98808.138604466672" sparseCutoff="1.0000000000000000"/>
      <sparseX i="827" alpha="56351.254420358244" sparseCutoff="1.0000000000000000"/>
      <sparseX i="828" alpha="52908.911030961637" sparseCutoff="1.0000000000000000"/>
      <sparseX i="829" alpha="28001.589037965739" sparseCutoff="1.0000000000000000"/>
      <sparseX i="830" alpha="-8040.6753116828158" sparseCutoff="1.0000000000000000"/>
      <sparseX i="831" alpha="-679.59019354018255" sparseCutoff="1.0000000000000000"/>
      <sparseX i="832" alpha="9950.9166235938828" sparseCutoff="1.0000000000000000"/>
      <sparseX i="833" alpha="19729.109297087125" sparseCutoff="1.0000000000000000"/>
      <sparseX i="834" alpha="-11154.601508651014" sparseCutoff="1.0000000000000000"/>
      <sparseX i="835" alpha="-17099.380857768781" sparseCutoff="1.0000000000000000"/>
      <sparseX i="836" alpha="-26471.685654011901" sparseCutoff="1.0000000000000000"/>
      <sparseX i="837" alpha="38023.372735436205" sparseCutoff="1.0000000000000000"/>
      <sparseX i="838" alpha="55851.520233620977" sparseCutoff="1.0000000000000000"/>
      <sparseX i="839" alpha="-42530.084311277264" sparseCutoff="1.0000000000000000"/>
      <sparseX i="840" alpha="29836.515030260478" sparseCutoff="1.0000000000000000"/>
      <sparseX i="841" alpha="29836.656836343576" sparseCutoff="1.0000000000000000"/>
      <sparseX i="842" alpha="41340.660388515789" sparseCutoff="1.0000000000000000"/>
      <sparseX i="843" alpha="28100.337419831405" sparseCutoff="1.0000000000000000"/>
      <sparseX i="844" alpha="-35307.090582191799" sparseCutoff="1.0000000000000000"/>
      <sparseX i="845" alpha="40875.791273641102" sparseCutoff="1.0000000000000000"/>
      <sparseX i="846" alpha="172539.35250601050" sparseCutoff="1.0000000000000000"/>
      <sparseX i="847" alpha="-25784.062687343892" sparseCutoff="1.0000000000000000"/>
      <sparseX i="848" alpha="4397.6910225998117" sparseCutoff="1.0000000000000000"/>
      <sparseX i="849" alpha="-3735.2056746921639" sparseCutoff="1.0000000000000000"/>
      <sparseX i="850" alpha="-21650.030936167870" sparseCutoff="1.0000000000000000"/>
      <sparseX i="851" alpha="28017.865514947684" sparseCutoff="1.0000000000000000"/>
      <sparseX i="852" alpha="7615.5026971580446" sparseCutoff="1.0000000000000000"/>
      <sparseX i="853" alpha="-61168.673768573266" sparseCutoff="1.0000000000000000"/>
      <sparseX i="854" alpha="-16579.864449202891" sparseCutoff="1.0000000000000000"/>
      <sparseX i="855" alpha="-2706.9032874838945" sparseCutoff="1.0000000000000000"/>
      <sparseX i="856" alpha="3351.1092920699884" sparseCutoff="1.0000000000000000"/>
      <sparseX i="857" alpha="44141.566870533468" sparseCutoff="1.0000000000000000"/>
      <sparseX i="858" alpha="9881.4440794398233" sparseCutoff="1.0000000000000000"/>
      <sparseX i="859" alpha="58647.969618547650" sparseCutoff="1.0000000000000000"/>
      <sparseX i="860" alpha="-35653.158307777507" sparseCutoff="1.0000000000000000"/>
      <sparseX i="861" alpha="72539.423841233656" sparseCutoff="1.0000000000000000"/>
      <sparseX i="862" alpha="23475.340924696106" sparseCutoff="1.0000000000000000"/>
      <sparseX i="863" alpha="51105.524793360673" sparseCutoff="1.0000000000000000"/>
      <sparseX i="864" alpha="-3974.1531575045133" sparseCutoff="1.0000000000000000"/>
      <sparseX i="865" alpha="-3974.0767658976292" sparseCutoff="1.0000000000000000"/>
      <sparseX i="866" alpha="-31524.951707769917" sparseCutoff="1.0000000000000000"/>
      <sparseX i="867" alpha="35390.695321029787" sparseCutoff="1.0000000000000000"/>
      <sparseX i="868" alpha="-37299.985916620928" sparseCutoff="1.0000000000000000"/>
      <sparseX i="869" alpha="135188.12496948321" sparseCutoff="1.0000000000000000"/>
      <sparseX i="870" alpha="81541.222053107529" sparseCutoff="1.0000000000000000"/>
      <sparseX i="871" alpha="9139.3395708544795" sparseCutoff="1.0000000000000000"/>
      <sparseX i="872" alpha="9139.2318113006404" sparseCutoff="1.0000000000000000"/>
      <sparseX i="873" alpha="-8546.0572841038302" sparseCutoff="1.0000000000000000"/>
      <sparseX i="874" alpha="-541.99861507034541" sparseCutoff="1.0000000000000000"/>
      <sparseX i="875" alpha="-541.99030109821365" sparseCutoff="1.0000000000000000"/>
      <sparseX i="876" alpha="38718.501271038789" sparseCutoff="1.0000000000000000"/>
      <sparseX i="877" alpha="-51303.272590476990" sparseCutoff="1.0000000000000000"/>
      <sparseX i="878" alpha="90175.061877190732" sparseCutoff="1.0000000000000000"/>
      <sparseX i="879" alpha="-23974.477233572161" sparseCutoff="1.0000000000000000"/>
      <sparseX i="880" alpha="65702.670569783921" sparseCutoff="1.0000000000000000"/>
      <sparseX i="881" alpha="8700.1742674303132" sparseCutoff="1.0000000000000000"/>
      <sparseX i="882" alpha="103044.42687840966" sparseCutoff="1.0000000000000000"/>
      <sparseX i="883" alpha="-19490.741135992659" sparseCutoff="1.0000000000000000"/>
      <sparseX i="884" alpha="71546.734304156358" sparseCutoff="1.0000000000000000"/>
      <sparseX i="885" alpha="15767.772694744837" sparseCutoff="1.0000000000000000"/>
      <sparseX i="886" alpha="67101.928198063761" sparseCutoff="1.0000000000000000"/>
      <sparseX i="887" alpha="51682.038310283075" sparseCutoff="1.0000000000000000"/>
      <sparseX i="888" alpha="23556.996030148766" sparseCutoff="1.0000000000000000"/>
      <sparseX i="889" alpha="67892.669601709087" sparseCutoff="1.0000000000000000"/>
      <sparseX i="890" alpha="15315.958943819283" sparseCutoff="1.0000000000000000"/>
      <sparseX i="891" alpha="-58100.631290710386" sparseCutoff="1.0000000000000000"/>
      <sparseX i="892" alpha="3443.6771071021017" sparseCutoff="1.0000000000000000"/>
      <sparseX i="893" alpha="19482.832636121664" sparseCutoff="1.0000000000000000"/>
      <sparseX i="894" alpha="33169.038608684590" sparseCutoff="1.0000000000000000"/>
      <sparseX i="895" alpha="33407.111490333846" sparseCutoff="1.0000000000000000"/>
      <sparseX i="896" alpha="-24841.808822234587" sparseCutoff="1.0000000000000000"/>
      <sparseX i="897" alpha="-34166.828833235377" sparseCutoff="1.0000000000000000"/>
      <sparseX i="898" alpha="94420.978965873292" sparseCutoff="1.0000000000000000"/>
      <sparseX i="899" alpha="-23005.560726645203" sparseCutoff="1.0000000000000000"/>
      <sparseX i="900" alpha="20699.920193475995" sparseCutoff="1.0000000000000000"/>
      <sparseX i="901" alpha="196.83005277473424" sparseCutoff="1.0000000000000000"/>
      <sparseX i="902" alpha="-94860.333162129900" sparseCutoff="1.0000000000000000"/>
      <sparseX i="903" alpha="128950.33869031382" sparseCutoff="1.0000000000000000"/>
      <sparseX i="904" alpha="128950.33380328187" sparseCutoff="1.0000000000000000"/>
      <sparseX i="905" alpha="-29710.852476248685" sparseCutoff="1.0000000000000000"/>
      <sparseX i="906" alpha="-27312.449193960398" sparseCutoff="1.0000000000000000"/>
      <sparseX i="907" alpha="-52412.606208341582" sparseCutoff="1.0000000000000000"/>
      <sparseX i="908" alpha="-9983.5100163568459" sparseCutoff="1.0000000000000000"/>
      <sparseX i="909" alpha="-28388.008429129768" sparseCutoff="1.0000000000000000"/>
      <sparseX i="910" alpha="-15891.497396944802" sparseCutoff="1.0000000000000000"/>
      <sparseX i="911" alpha="-21586.858640570637" sparseCutoff="1.0000000000000000"/>
      <sparseX i="912" alpha="37537.948881314682" sparseCutoff="1.0000000000000000"/>
      <sparseX i="913" alpha="-57801.095900323686" sparseCutoff="1.0000000000000000"/>
      <sparseX i="914" alpha="49452.752474187328" sparseCutoff="1.0000000000000000"/>
      <sparseX i="915" alpha="90013.635209672357" sparseCutoff="1.0000000000000000"/>
      <sparseX i="916" alpha="-18509.966940732636" sparseCutoff="1.0000000000000000"/>
      <sparseX i="917" alpha="66511.703774508715" sparseCutoff="1.0000000000000000"/>
      <sparseX i="918" alpha="23275.772995093535" sparseCutoff="1.0000000000000000"/>
      <sparseX i="919" alpha="23275.727468421988" sparseCutoff="1.0000000000000000"/>
      <sparseX i="920" alpha="-71979.996701577140" sparseCutoff="1.0000000000000000"/>
      <sparseX i="921" alpha="55422.438609202552" sparseCutoff="1.0000000000000000"/>
      <sparseX i="922" alpha="-14687.563505290211" sparseCutoff="1.0000000000000000"/>
      <sparseX i="923" alpha="-33130.887177581593" sparseCutoff="1.0000000000000000"/>
      <sparseX i="924" alpha="-218.75266096828025" sparseCutoff="1.0000000000000000"/>
      <sparseX i="925" alpha="-218.64954405091893" sparseCutoff="1.0000000000000000"/>
      <sparseX i="926" alpha="48150.997469782233" sparseCutoff="1.0000000000000000"/>
      <sparseX i="927" alpha="-23270.997240298759" sparseCutoff="1.0000000000000000"/>
      <sparseX i="928" alpha="-24555.511564766577" sparseCutoff="1.0000000000000000"/>
      <sparseX i="929" alpha="3397.9721849836683" sparseCutoff="1.0000000000000000"/>
      <sparseX i="930" alpha="33519.270558065356" sparseCutoff="1.0000000000000000"/>
      <sparseX i="931" alpha="23042.638670366803" sparseCutoff="1.0000000000000000"/>
