nelements=1
elements: Si

lmax=6

2 FS parameters:  1.000000 1.000000
core energy-cutoff parameters: 100000.000000000000000000 1.000000000000000000
E0: -158.54496821

radbasename=ACE.jl.Basic
haspair: t

transform parameters: p=2 r0=2.35126
cutoff parameters: rcut=5.5 xl=0.2658211500023669 xr=1.6042620210695941 pl=2 pr=2
recursion coefficients: maxn=18
 7.821202223493647 0.0 0.0
 4.955952649160867 -4.634021822912618 0.0
 3.9956167645897973 -3.736067834756193 -0.8062257748298656
 3.632378876899846 -3.396425304323833 -0.9090909090909028
 3.4441358810053155 -3.220410274976574 -0.9481763873555078
 3.331005797707162 -3.114628942517647 -0.9671528397232808
 3.256698923178486 -3.0451489247421324 -0.9776923610941147
 3.2048648622710894 -2.9966819222465113 -0.9840838646340656
 3.167085174324123 -2.9613563429275254 -0.988211768804444
 3.138607272777173 -2.9347283207123276 -0.9910081668223445
 3.1165595829870045 -2.9141128138935235 -0.9929753269925177
 3.0991136906213357 -2.8978001790348364 -0.9944021951446367
 3.08505564490434 -2.884655321678083 -0.995463849629161
 3.0735513577131024 -2.8738983347423233 -0.9962709628235525
 3.0640110824280233 -2.864977780613316 -0.9968960091520438
 3.05600755744042 -2.857494151919029 -0.9973878929376229
 3.049224676161325 -2.8511518758533216 -0.9977804762744855
 3.043424253671011 -2.8457282396112 -0.9980977385708372
tests: ntests=0

begin repulsive potential
begin polypairpot
transform parameters: p=2 r0=2.35126
cutoff parameters: rcut=6.5 xl=0.1996612193351111 xr=2.372718237344682 pl=1 pr=0
recursion coefficients: maxn=8
 0.7970573297067717 0.0 0.0
 2.376367709542944 -4.34745440267418 0.0
 2.0418559725718572 -2.995966854134438 -0.8592340168452226
 1.9480476778224156 -2.6819368663177676 -0.9540573399840273
 1.9078222609703703 -2.557456376087243 -0.979350907418754
 1.886748315849131 -2.495034632578642 -0.9889539263943126
 1.8742963773986112 -2.459167072303244 -0.9934003182375156
 1.866316576065074 -2.436619813846683 -0.9957425082661538
tests: ntests=0
coefficients
0.16848023577878646
0.5021858721635469
-0.8003331478402922
-0.4884240508251448
0.5504530239629475
0.5874069772608375
0.182969492700291
0.010864630014996553
end polypairpot
spline parameters
   e_0 + B  exp(-A*(r/ri-1)) * (ri/r)
ri=1.6223693999999997
e0=0.0
A=8.192006047413708
B=1.7817728891375246
end repulsive potential

rankmax=4
ndensitymax=1

num_c_tilde_max=3200
num_ms_combinations_max=97
total_basis_size_rank1: 18
ctilde_basis_func: rank=1 ndens=1 mu0=0 mu=( 0 )
n=( 2 )
l=( 0 )
num_ms=1
< 0 >:  0.0031060487859720927
ctilde_basis_func: rank=1 ndens=1 mu0=0 mu=( 0 )
n=( 9 )
l=( 0 )
num_ms=1
< 0 >:  -1.501480779887076e-5
ctilde_basis_func: rank=1 ndens=1 mu0=0 mu=( 0 )
n=( 14 )
l=( 0 )
num_ms=1
< 0 >:  2.390162546948113e-5
ctilde_basis_func: rank=1 ndens=1 mu0=0 mu=( 0 )
n=( 7 )
l=( 0 )
num_ms=1
< 0 >:  -1.4047334545193368e-5
ctilde_basis_func: rank=1 ndens=1 mu0=0 mu=( 0 )
n=( 6 )
l=( 0 )
num_ms=1
< 0 >:  -2.418180286760576e-5
ctilde_basis_func: rank=1 ndens=1 mu0=0 mu=( 0 )
n=( 15 )
l=( 0 )
num_ms=1
< 0 >:  -4.01953686413589e-6
ctilde_basis_func: rank=1 ndens=1 mu0=0 mu=( 0 )
n=( 13 )
l=( 0 )
num_ms=1
< 0 >:  4.183344083535694e-6
ctilde_basis_func: rank=1 ndens=1 mu0=0 mu=( 0 )
n=( 12 )
l=( 0 )
num_ms=1
< 0 >:  1.3977279513580377e-5
ctilde_basis_func: rank=1 ndens=1 mu0=0 mu=( 0 )
n=( 17 )
l=( 0 )
num_ms=1
< 0 >:  2.7081173213612155e-6
ctilde_basis_func: rank=1 ndens=1 mu0=0 mu=( 0 )
n=( 5 )
l=( 0 )
num_ms=1
< 0 >:  -0.0006175825683603523
ctilde_basis_func: rank=1 ndens=1 mu0=0 mu=( 0 )
n=( 18 )
l=( 0 )
num_ms=1
< 0 >:  -2.1724065406565005e-5
ctilde_basis_func: rank=1 ndens=1 mu0=0 mu=( 0 )
n=( 8 )
l=( 0 )
num_ms=1
< 0 >:  -7.976221475661677e-5
ctilde_basis_func: rank=1 ndens=1 mu0=0 mu=( 0 )
n=( 3 )
l=( 0 )
num_ms=1
< 0 >:  -0.0033860724977008883
ctilde_basis_func: rank=1 ndens=1 mu0=0 mu=( 0 )
n=( 4 )
l=( 0 )
num_ms=1
< 0 >:  0.00026341459747722385
ctilde_basis_func: rank=1 ndens=1 mu0=0 mu=( 0 )
n=( 10 )
l=( 0 )
num_ms=1
< 0 >:  -3.889289745926016e-5
ctilde_basis_func: rank=1 ndens=1 mu0=0 mu=( 0 )
n=( 1 )
l=( 0 )
num_ms=1
< 0 >:  -0.11062750433457567
ctilde_basis_func: rank=1 ndens=1 mu0=0 mu=( 0 )
n=( 16 )
l=( 0 )
num_ms=1
< 0 >:  1.2302128435913482e-5
ctilde_basis_func: rank=1 ndens=1 mu0=0 mu=( 0 )
n=( 11 )
l=( 0 )
num_ms=1
< 0 >:  1.020401038195044e-6
total_basis_size: 3182
ctilde_basis_func: rank=2 ndens=1 mu0=0 mu=( 0  0 )
n=( 1  1 )
l=( 5  5 )
num_ms=6
< -5  5 >:  4.8101771272739115e-5
< -4  4 >:  -4.810177127273912e-5
< -3  3 >:  4.810177127273912e-5
< -2  2 >:  -4.810177127273912e-5
< -1  1 >:  4.810177127273912e-5
< 0  0 >:  -2.405088563636956e-5
ctilde_basis_func: rank=2 ndens=1 mu0=0 mu=( 0  0 )
n=( 3  3 )
l=( 4  4 )
num_ms=5
< -4  4 >:  -0.0001974462479576597
< -3  3 >:  0.0001974462479576597
< -2  2 >:  -0.0001974462479576597
< -1  1 >:  0.0001974462479576597
< 0  0 >:  -9.872312397882984e-5
ctilde_basis_func: rank=2 ndens=1 mu0=0 mu=( 0  0 )
n=( 1  3 )
l=( 5  5 )
num_ms=11
< -5  5 >:  -4.045812637479297e-6
< -4  4 >:  4.0458126374793e-6
< -3  3 >:  -4.0458126374793e-6
< -2  2 >:  4.0458126374793e-6
< -1  1 >:  -4.0458126374793e-6
< 0  0 >:  4.0458126374793e-6
< 1  -1 >:  -4.0458126374793e-6
< 2  -2 >:  4.0458126374793e-6
< 3  -3 >:  -4.0458126374793e-6
< 4  -4 >:  4.0458126374793e-6
< 5  -5 >:  -4.0458126374793e-6
ctilde_basis_func: rank=2 ndens=1 mu0=0 mu=( 0  0 )
n=( 4  5 )
l=( 1  1 )
num_ms=3
< -1  1 >:  -8.431467658519933e-5
< 0  0 >:  8.431467658519933e-5
< 1  -1 >:  -8.431467658519933e-5
ctilde_basis_func: rank=2 ndens=1 mu0=0 mu=( 0  0 )
n=( 2  7 )
l=( 3  3 )
num_ms=7
< -3  3 >:  1.0686712827226283e-5
< -2  2 >:  -1.0686712827226283e-5
< -1  1 >:  1.0686712827226283e-5
< 0  0 >:  -1.0686712827226283e-5
< 1  -1 >:  1.0686712827226283e-5
< 2  -2 >:  -1.0686712827226283e-5
< 3  -3 >:  1.0686712827226283e-5
ctilde_basis_func: rank=2 ndens=1 mu0=0 mu=( 0  0 )
n=( 2  9 )
l=( 2  2 )
num_ms=5
< -2  2 >:  9.00342156754269e-6
< -1  1 >:  -9.00342156754269e-6
< 0  0 >:  9.00342156754269e-6
< 1  -1 >:  -9.00342156754269e-6
< 2  -2 >:  9.00342156754269e-6
ctilde_basis_func: rank=2 ndens=1 mu0=0 mu=( 0  0 )
n=( 4  6 )
l=( 3  3 )
num_ms=7
< -3  3 >:  6.114335887978801e-5
< -2  2 >:  -6.114335887978801e-5
< -1  1 >:  6.114335887978801e-5
< 0  0 >:  -6.114335887978801e-5
< 1  -1 >:  6.114335887978801e-5
< 2  -2 >:  -6.114335887978801e-5
< 3  -3 >:  6.114335887978801e-5
ctilde_basis_func: rank=2 ndens=1 mu0=0 mu=( 0  0 )
n=( 1  5 )
l=( 3  3 )
num_ms=7
< -3  3 >:  8.358170624726595e-5
< -2  2 >:  -8.358170624726595e-5
< -1  1 >:  8.358170624726595e-5
< 0  0 >:  -8.358170624726595e-5
< 1  -1 >:  8.358170624726595e-5
< 2  -2 >:  -8.358170624726595e-5
< 3  -3 >:  8.358170624726595e-5
ctilde_basis_func: rank=2 ndens=1 mu0=0 mu=( 0  0 )
n=( 5  5 )
l=( 0  0 )
num_ms=1
< 0  0 >:  -8.220542176676342e-5
ctilde_basis_func: rank=2 ndens=1 mu0=0 mu=( 0  0 )
n=( 3  5 )
l=( 3  3 )
num_ms=7
< -3  3 >:  -2.3113366107258266e-5
< -2  2 >:  2.3113366107258266e-5
< -1  1 >:  -2.3113366107258266e-5
< 0  0 >:  2.3113366107258266e-5
< 1  -1 >:  -2.3113366107258266e-5
< 2  -2 >:  2.3113366107258266e-5
< 3  -3 >:  -2.3113366107258266e-5
ctilde_basis_func: rank=2 ndens=1 mu0=0 mu=( 0  0 )
n=( 5  5 )
l=( 3  3 )
num_ms=4
< -3  3 >:  6.366008701209748e-5
< -2  2 >:  -6.366008701209748e-5
< -1  1 >:  6.366008701209748e-5
< 0  0 >:  -3.183004350604874e-5
ctilde_basis_func: rank=2 ndens=1 mu0=0 mu=( 0  0 )
n=( 4  9 )
l=( 1  1 )
num_ms=3
< -1  1 >:  1.0618548896790539e-5
< 0  0 >:  -1.0618548896790539e-5
< 1  -1 >:  1.0618548896790539e-5
ctilde_basis_func: rank=2 ndens=1 mu0=0 mu=( 0  0 )
n=( 3  3 )
l=( 3  3 )
num_ms=4
< -3  3 >:  0.0003383974632689252
< -2  2 >:  -0.0003383974632689252
< -1  1 >:  0.0003383974632689252
< 0  0 >:  -0.0001691987316344626
ctilde_basis_func: rank=2 ndens=1 mu0=0 mu=( 0  0 )
n=( 3  5 )
l=( 1  1 )
num_ms=3
< -1  1 >:  -5.6134637532610384e-5
< 0  0 >:  5.6134637532610384e-5
< 1  -1 >:  -5.6134637532610384e-5
ctilde_basis_func: rank=2 ndens=1 mu0=0 mu=( 0  0 )
n=( 1  3 )
l=( 4  4 )
num_ms=9
< -4  4 >:  5.809846118497274e-5
< -3  3 >:  -5.809846118497273e-5
< -2  2 >:  5.809846118497273e-5
< -1  1 >:  -5.809846118497273e-5
< 0  0 >:  5.809846118497273e-5
< 1  -1 >:  -5.809846118497273e-5
< 2  -2 >:  5.809846118497273e-5
< 3  -3 >:  -5.809846118497273e-5
< 4  -4 >:  5.809846118497273e-5
ctilde_basis_func: rank=2 ndens=1 mu0=0 mu=( 0  0 )
n=( 2  5 )
l=( 3  3 )
num_ms=7
< -3  3 >:  3.361450994439848e-5
< -2  2 >:  -3.361450994439848e-5
< -1  1 >:  3.361450994439848e-5
< 0  0 >:  -3.361450994439848e-5
< 1  -1 >:  3.361450994439848e-5
< 2  -2 >:  -3.361450994439848e-5
< 3  -3 >:  3.361450994439848e-5
ctilde_basis_func: rank=2 ndens=1 mu0=0 mu=( 0  0 )
n=( 1  13 )
l=( 1  1 )
num_ms=3
< -1  1 >:  2.3230427131893477e-6
< 0  0 >:  -2.3230427131893477e-6
< 1  -1 >:  2.3230427131893477e-6
ctilde_basis_func: rank=2 ndens=1 mu0=0 mu=( 0  0 )
n=( 2  3 )
l=( 5  5 )
num_ms=11
< -5  5 >:  -4.3946482135157145e-5
< -4  4 >:  4.394648213515717e-5
< -3  3 >:  -4.394648213515717e-5
< -2  2 >:  4.394648213515717e-5
< -1  1 >:  -4.394648213515717e-5
< 0  0 >:  4.394648213515717e-5
< 1  -1 >:  -4.394648213515717e-5
< 2  -2 >:  4.394648213515717e-5
< 3  -3 >:  -4.394648213515717e-5
< 4  -4 >:  4.394648213515717e-5
< 5  -5 >:  -4.394648213515717e-5
ctilde_basis_func: rank=2 ndens=1 mu0=0 mu=( 0  0 )
n=( 6  8 )
l=( 1  1 )
num_ms=3
< -1  1 >:  1.531346110754649e-5
< 0  0 >:  -1.531346110754649e-5
< 1  -1 >:  1.531346110754649e-5
ctilde_basis_func: rank=2 ndens=1 mu0=0 mu=( 0  0 )
n=( 1  2 )
l=( 5  5 )
num_ms=11
< -5  5 >:  -2.597268688920598e-5
< -4  4 >:  2.5972686889205997e-5
< -3  3 >:  -2.5972686889205997e-5
< -2  2 >:  2.5972686889205997e-5
< -1  1 >:  -2.5972686889205997e-5
< 0  0 >:  2.5972686889205997e-5
< 1  -1 >:  -2.5972686889205997e-5
< 2  -2 >:  2.5972686889205997e-5
< 3  -3 >:  -2.5972686889205997e-5
< 4  -4 >:  2.5972686889205997e-5
< 5  -5 >:  -2.5972686889205997e-5
ctilde_basis_func: rank=2 ndens=1 mu0=0 mu=( 0  0 )
n=( 1  10 )
l=( 2  2 )
num_ms=5
< -2  2 >:  -4.234859137612258e-6
< -1  1 >:  4.234859137612258e-6
< 0  0 >:  -4.234859137612258e-6
< 1  -1 >:  4.234859137612258e-6
< 2  -2 >:  -4.234859137612258e-6
ctilde_basis_func: rank=2 ndens=1 mu0=0 mu=( 0  0 )
n=( 2  8 )
l=( 2  2 )
num_ms=5
< -2  2 >:  4.182092607522231e-5
< -1  1 >:  -4.182092607522231e-5
< 0  0 >:  4.182092607522231e-5
< 1  -1 >:  -4.182092607522231e-5
< 2  -2 >:  4.182092607522231e-5
ctilde_basis_func: rank=2 ndens=1 mu0=0 mu=( 0  0 )
n=( 2  3 )
l=( 3  3 )
num_ms=7
< -3  3 >:  2.1563977712668063e-5
< -2  2 >:  -2.1563977712668063e-5
< -1  1 >:  2.1563977712668063e-5
< 0  0 >:  -2.1563977712668063e-5
< 1  -1 >:  2.1563977712668063e-5
< 2  -2 >:  -2.1563977712668063e-5
< 3  -3 >:  2.1563977712668063e-5
ctilde_basis_func: rank=2 ndens=1 mu0=0 mu=( 0  0 )
n=( 3  6 )
l=( 3  3 )
num_ms=7
< -3  3 >:  2.1326445569489605e-5
< -2  2 >:  -2.1326445569489605e-5
< -1  1 >:  2.1326445569489605e-5
< 0  0 >:  -2.1326445569489605e-5
< 1  -1 >:  2.1326445569489605e-5
< 2  -2 >:  -2.1326445569489605e-5
< 3  -3 >:  2.1326445569489605e-5
ctilde_basis_func: rank=2 ndens=1 mu0=0 mu=( 0  0 )
n=( 3  4 )
l=( 3  3 )
num_ms=7
< -3  3 >:  7.582635740420243e-5
< -2  2 >:  -7.582635740420243e-5
< -1  1 >:  7.582635740420243e-5
< 0  0 >:  -7.582635740420243e-5
< 1  -1 >:  7.582635740420243e-5
< 2  -2 >:  -7.582635740420243e-5
< 3  -3 >:  7.582635740420243e-5
ctilde_basis_func: rank=2 ndens=1 mu0=0 mu=( 0  0 )
n=( 6  6 )
l=( 1  1 )
num_ms=2
< -1  1 >:  0.00018592390972143897
< 0  0 >:  -9.296195486071948e-5
ctilde_basis_func: rank=2 ndens=1 mu0=0 mu=( 0  0 )
n=( 2  6 )
l=( 0  0 )
num_ms=1
< 0  0 >:  5.1637612722097285e-6
ctilde_basis_func: rank=2 ndens=1 mu0=0 mu=( 0  0 )
n=( 3  9 )
l=( 0  0 )
num_ms=1
< 0  0 >:  1.1863913452103475e-5
ctilde_basis_func: rank=2 ndens=1 mu0=0 mu=( 0  0 )
n=( 3  12 )
l=( 1  1 )
num_ms=3
< -1  1 >:  -7.122848184878548e-6
< 0  0 >:  7.122848184878548e-6
< 1  -1 >:  -7.122848184878548e-6
ctilde_basis_func: rank=2 ndens=1 mu0=0 mu=( 0  0 )
n=( 2  6 )
l=( 1  1 )
num_ms=3
< -1  1 >:  9.165212308711208e-6
< 0  0 >:  -9.165212308711208e-6
< 1  -1 >:  9.165212308711208e-6
ctilde_basis_func: rank=2 ndens=1 mu0=0 mu=( 0  0 )
n=( 2  5 )
l=( 4  4 )
num_ms=9
< -4  4 >:  5.648332235950693e-5
< -3  3 >:  -5.648332235950692e-5
< -2  2 >:  5.648332235950692e-5
< -1  1 >:  -5.648332235950692e-5
< 0  0 >:  5.648332235950692e-5
< 1  -1 >:  -5.648332235950692e-5
< 2  -2 >:  5.648332235950692e-5
< 3  -3 >:  -5.648332235950692e-5
< 4  -4 >:  5.648332235950692e-5
ctilde_basis_func: rank=2 ndens=1 mu0=0 mu=( 0  0 )
n=( 6  6 )
l=( 0  0 )
num_ms=1
< 0  0 >:  -4.436334496726643e-5
ctilde_basis_func: rank=2 ndens=1 mu0=0 mu=( 0  0 )
n=( 1  4 )
l=( 2  2 )
num_ms=5
< -2  2 >:  0.0001100486009882301
< -1  1 >:  -0.0001100486009882301
< 0  0 >:  0.0001100486009882301
< 1  -1 >:  -0.0001100486009882301
< 2  -2 >:  0.0001100486009882301
ctilde_basis_func: rank=2 ndens=1 mu0=0 mu=( 0  0 )
n=( 2  6 )
l=( 3  3 )
num_ms=7
< -3  3 >:  -1.0985854647329499e-5
< -2  2 >:  1.0985854647329499e-5
< -1  1 >:  -1.0985854647329499e-5
< 0  0 >:  1.0985854647329499e-5
< 1  -1 >:  -1.0985854647329499e-5
< 2  -2 >:  1.0985854647329499e-5
< 3  -3 >:  -1.0985854647329499e-5
ctilde_basis_func: rank=2 ndens=1 mu0=0 mu=( 0  0 )
n=( 2  4 )
l=( 1  1 )
num_ms=3
< -1  1 >:  0.00010841357441760729
< 0  0 >:  -0.00010841357441760729
< 1  -1 >:  0.00010841357441760729
ctilde_basis_func: rank=2 ndens=1 mu0=0 mu=( 0  0 )
n=( 1  9 )
l=( 3  3 )
num_ms=7
< -3  3 >:  -1.1312454554131161e-5
< -2  2 >:  1.1312454554131161e-5
< -1  1 >:  -1.1312454554131161e-5
< 0  0 >:  1.1312454554131161e-5
< 1  -1 >:  -1.1312454554131161e-5
< 2  -2 >:  1.1312454554131161e-5
< 3  -3 >:  -1.1312454554131161e-5
ctilde_basis_func: rank=2 ndens=1 mu0=0 mu=( 0  0 )
n=( 1  6 )
l=( 1  1 )
num_ms=3
< -1  1 >:  -3.991057680812576e-5
< 0  0 >:  3.991057680812576e-5
< 1  -1 >:  -3.991057680812576e-5
ctilde_basis_func: rank=2 ndens=1 mu0=0 mu=( 0  0 )
n=( 2  4 )
l=( 4  4 )
num_ms=9
< -4  4 >:  -4.882047005895862e-5
< -3  3 >:  4.882047005895861e-5
< -2  2 >:  -4.882047005895861e-5
< -1  1 >:  4.882047005895861e-5
< 0  0 >:  -4.882047005895861e-5
< 1  -1 >:  4.882047005895861e-5
< 2  -2 >:  -4.882047005895861e-5
< 3  -3 >:  4.882047005895861e-5
< 4  -4 >:  -4.882047005895861e-5
ctilde_basis_func: rank=2 ndens=1 mu0=0 mu=( 0  0 )
n=( 1  6 )
l=( 4  4 )
num_ms=9
< -4  4 >:  -5.825268323830812e-6
< -3  3 >:  5.82526832383081e-6
< -2  2 >:  -5.82526832383081e-6
< -1  1 >:  5.82526832383081e-6
< 0  0 >:  -5.82526832383081e-6
< 1  -1 >:  5.82526832383081e-6
< 2  -2 >:  -5.82526832383081e-6
< 3  -3 >:  5.82526832383081e-6
< 4  -4 >:  -5.82526832383081e-6
ctilde_basis_func: rank=2 ndens=1 mu0=0 mu=( 0  0 )
n=( 4  7 )
l=( 2  2 )
num_ms=5
< -2  2 >:  -3.325672115238894e-5
< -1  1 >:  3.325672115238894e-5
< 0  0 >:  -3.325672115238894e-5
< 1  -1 >:  3.325672115238894e-5
< 2  -2 >:  -3.325672115238894e-5
ctilde_basis_func: rank=2 ndens=1 mu0=0 mu=( 0  0 )
n=( 1  4 )
l=( 5  5 )
num_ms=11
< -5  5 >:  5.256085479166304e-5
< -4  4 >:  -5.256085479166307e-5
< -3  3 >:  5.256085479166307e-5
< -2  2 >:  -5.256085479166307e-5
< -1  1 >:  5.256085479166307e-5
< 0  0 >:  -5.256085479166307e-5
< 1  -1 >:  5.256085479166307e-5
< 2  -2 >:  -5.256085479166307e-5
< 3  -3 >:  5.256085479166307e-5
< 4  -4 >:  -5.256085479166307e-5
< 5  -5 >:  5.256085479166307e-5
ctilde_basis_func: rank=2 ndens=1 mu0=0 mu=( 0  0 )
n=( 1  10 )
l=( 0  0 )
num_ms=1
< 0  0 >:  -1.4364040067975303e-5
ctilde_basis_func: rank=2 ndens=1 mu0=0 mu=( 0  0 )
n=( 1  6 )
l=( 3  3 )
num_ms=7
< -3  3 >:  -2.028650583145534e-5
< -2  2 >:  2.028650583145534e-5
< -1  1 >:  -2.028650583145534e-5
< 0  0 >:  2.028650583145534e-5
< 1  -1 >:  -2.028650583145534e-5
< 2  -2 >:  2.028650583145534e-5
< 3  -3 >:  -2.028650583145534e-5
ctilde_basis_func: rank=2 ndens=1 mu0=0 mu=( 0  0 )
n=( 5  6 )
l=( 0  0 )
num_ms=1
< 0  0 >:  2.0530832315190827e-5
ctilde_basis_func: rank=2 ndens=1 mu0=0 mu=( 0  0 )
n=( 2  8 )
l=( 3  3 )
num_ms=7
< -3  3 >:  -2.491308157105837e-6
< -2  2 >:  2.491308157105837e-6
< -1  1 >:  -2.491308157105837e-6
< 0  0 >:  2.491308157105837e-6
< 1  -1 >:  -2.491308157105837e-6
< 2  -2 >:  2.491308157105837e-6
< 3  -3 >:  -2.491308157105837e-6
ctilde_basis_func: rank=2 ndens=1 mu0=0 mu=( 0  0 )
n=( 2  6 )
l=( 2  2 )
num_ms=5
< -2  2 >:  6.787854419280859e-5
< -1  1 >:  -6.787854419280859e-5
< 0  0 >:  6.787854419280859e-5
< 1  -1 >:  -6.787854419280859e-5
< 2  -2 >:  6.787854419280859e-5
ctilde_basis_func: rank=2 ndens=1 mu0=0 mu=( 0  0 )
n=( 1  5 )
l=( 2  2 )
num_ms=5
< -2  2 >:  -8.037823818524038e-5
< -1  1 >:  8.037823818524038e-5
< 0  0 >:  -8.037823818524038e-5
< 1  -1 >:  8.037823818524038e-5
< 2  -2 >:  -8.037823818524038e-5
ctilde_basis_func: rank=2 ndens=1 mu0=0 mu=( 0  0 )
n=( 1  4 )
l=( 4  4 )
num_ms=9
< -4  4 >:  -5.4980283249482055e-5
< -3  3 >:  5.498028324948205e-5
< -2  2 >:  -5.498028324948205e-5
< -1  1 >:  5.498028324948205e-5
< 0  0 >:  -5.498028324948205e-5
< 1  -1 >:  5.498028324948205e-5
< 2  -2 >:  -5.498028324948205e-5
< 3  -3 >:  5.498028324948205e-5
< 4  -4 >:  -5.498028324948205e-5
ctilde_basis_func: rank=2 ndens=1 mu0=0 mu=( 0  0 )
n=( 1  7 )
l=( 2  2 )
num_ms=5
< -2  2 >:  2.4795404991649638e-5
< -1  1 >:  -2.4795404991649638e-5
< 0  0 >:  2.4795404991649638e-5
< 1  -1 >:  -2.4795404991649638e-5
< 2  -2 >:  2.4795404991649638e-5
ctilde_basis_func: rank=2 ndens=1 mu0=0 mu=( 0  0 )
n=( 3  8 )
l=( 2  2 )
num_ms=5
< -2  2 >:  -5.558218360679084e-5
< -1  1 >:  5.558218360679084e-5
< 0  0 >:  -5.558218360679084e-5
< 1  -1 >:  5.558218360679084e-5
< 2  -2 >:  -5.558218360679084e-5
ctilde_basis_func: rank=2 ndens=1 mu0=0 mu=( 0  0 )
n=( 3  9 )
l=( 2  2 )
num_ms=5
< -2  2 >:  -1.438864532729609e-5
< -1  1 >:  1.438864532729609e-5
< 0  0 >:  -1.438864532729609e-5
< 1  -1 >:  1.438864532729609e-5
< 2  -2 >:  -1.438864532729609e-5
ctilde_basis_func: rank=2 ndens=1 mu0=0 mu=( 0  0 )
n=( 4  10 )
l=( 1  1 )
num_ms=3
< -1  1 >:  3.890597314917948e-6
< 0  0 >:  -3.890597314917948e-6
< 1  -1 >:  3.890597314917948e-6
ctilde_basis_func: rank=2 ndens=1 mu0=0 mu=( 0  0 )
n=( 1  3 )
l=( 3  3 )
num_ms=7
< -3  3 >:  -1.9712888986487475e-5
< -2  2 >:  1.9712888986487475e-5
< -1  1 >:  -1.9712888986487475e-5
< 0  0 >:  1.9712888986487475e-5
< 1  -1 >:  -1.9712888986487475e-5
< 2  -2 >:  1.9712888986487475e-5
< 3  -3 >:  -1.9712888986487475e-5
ctilde_basis_func: rank=2 ndens=1 mu0=0 mu=( 0  0 )
n=( 1  2 )
l=( 1  1 )
num_ms=3
< -1  1 >:  -0.0004340765764032708
< 0  0 >:  0.0004340765764032708
< 1  -1 >:  -0.0004340765764032708
ctilde_basis_func: rank=2 ndens=1 mu0=0 mu=( 0  0 )
n=( 2  7 )
l=( 2  2 )
num_ms=5
< -2  2 >:  1.87646157343368e-5
< -1  1 >:  -1.87646157343368e-5
< 0  0 >:  1.87646157343368e-5
< 1  -1 >:  -1.87646157343368e-5
< 2  -2 >:  1.87646157343368e-5
ctilde_basis_func: rank=2 ndens=1 mu0=0 mu=( 0  0 )
n=( 2  2 )
l=( 4  4 )
num_ms=5
< -4  4 >:  -0.00017209717325791308
< -3  3 >:  0.00017209717325791308
< -2  2 >:  -0.00017209717325791308
< -1  1 >:  0.00017209717325791308
< 0  0 >:  -8.604858662895654e-5
ctilde_basis_func: rank=2 ndens=1 mu0=0 mu=( 0  0 )
n=( 1  7 )
l=( 3  3 )
num_ms=7
< -3  3 >:  -1.763114767262343e-5
< -2  2 >:  1.763114767262343e-5
< -1  1 >:  -1.763114767262343e-5
< 0  0 >:  1.763114767262343e-5
< 1  -1 >:  -1.763114767262343e-5
< 2  -2 >:  1.763114767262343e-5
< 3  -3 >:  -1.763114767262343e-5
ctilde_basis_func: rank=2 ndens=1 mu0=0 mu=( 0  0 )
n=( 1  11 )
l=( 2  2 )
num_ms=5
< -2  2 >:  -1.217678413540935e-5
< -1  1 >:  1.217678413540935e-5
< 0  0 >:  -1.217678413540935e-5
< 1  -1 >:  1.217678413540935e-5
< 2  -2 >:  -1.217678413540935e-5
ctilde_basis_func: rank=2 ndens=1 mu0=0 mu=( 0  0 )
n=( 2  9 )
l=( 0  0 )
num_ms=1
< 0  0 >:  -1.3014267745379319e-5
ctilde_basis_func: rank=2 ndens=1 mu0=0 mu=( 0  0 )
n=( 4  7 )
l=( 0  0 )
num_ms=1
< 0  0 >:  -5.407304327945741e-6
ctilde_basis_func: rank=2 ndens=1 mu0=0 mu=( 0  0 )
n=( 2  4 )
l=( 2  2 )
num_ms=5
< -2  2 >:  1.4100841310073144e-5
< -1  1 >:  -1.4100841310073144e-5
< 0  0 >:  1.4100841310073144e-5
< 1  -1 >:  -1.4100841310073144e-5
< 2  -2 >:  1.4100841310073144e-5
ctilde_basis_func: rank=2 ndens=1 mu0=0 mu=( 0  0 )
n=( 3  5 )
l=( 2  2 )
num_ms=5
< -2  2 >:  -0.00014779435899433337
< -1  1 >:  0.00014779435899433337
< 0  0 >:  -0.00014779435899433337
< 1  -1 >:  0.00014779435899433337
< 2  -2 >:  -0.00014779435899433337
ctilde_basis_func: rank=2 ndens=1 mu0=0 mu=( 0  0 )
n=( 1  7 )
l=( 1  1 )
num_ms=3
< -1  1 >:  -3.6905465609917845e-6
< 0  0 >:  3.6905465609917845e-6
< 1  -1 >:  -3.6905465609917845e-6
ctilde_basis_func: rank=2 ndens=1 mu0=0 mu=( 0  0 )
n=( 2  3 )
l=( 1  1 )
num_ms=3
< -1  1 >:  -0.0002504425985470723
< 0  0 >:  0.0002504425985470723
< 1  -1 >:  -0.0002504425985470723
ctilde_basis_func: rank=2 ndens=1 mu0=0 mu=( 0  0 )
n=( 7  10 )
l=( 0  0 )
num_ms=1
< 0  0 >:  9.475251750654559e-7
ctilde_basis_func: rank=2 ndens=1 mu0=0 mu=( 0  0 )
n=( 1  1 )
l=( 2  2 )
num_ms=3
< -2  2 >:  -0.0004509262502706846
< -1  1 >:  0.0004509262502706846
< 0  0 >:  -0.0002254631251353423
ctilde_basis_func: rank=2 ndens=1 mu0=0 mu=( 0  0 )
n=( 2  5 )
l=( 2  2 )
num_ms=5
< -2  2 >:  5.970196062356481e-5
< -1  1 >:  -5.970196062356481e-5
< 0  0 >:  5.970196062356481e-5
< 1  -1 >:  -5.970196062356481e-5
< 2  -2 >:  5.970196062356481e-5
ctilde_basis_func: rank=2 ndens=1 mu0=0 mu=( 0  0 )
n=( 1  2 )
l=( 3  3 )
num_ms=7
< -3  3 >:  9.790075449686553e-5
< -2  2 >:  -9.790075449686553e-5
< -1  1 >:  9.790075449686553e-5
< 0  0 >:  -9.790075449686553e-5
< 1  -1 >:  9.790075449686553e-5
< 2  -2 >:  -9.790075449686553e-5
< 3  -3 >:  9.790075449686553e-5
ctilde_basis_func: rank=2 ndens=1 mu0=0 mu=( 0  0 )
n=( 4  10 )
l=( 0  0 )
num_ms=1
< 0  0 >:  1.4437690524649687e-5
ctilde_basis_func: rank=2 ndens=1 mu0=0 mu=( 0  0 )
n=( 3  7 )
l=( 2  2 )
num_ms=5
< -2  2 >:  -3.5216506927775625e-5
< -1  1 >:  3.5216506927775625e-5
< 0  0 >:  -3.5216506927775625e-5
< 1  -1 >:  3.5216506927775625e-5
< 2  -2 >:  -3.5216506927775625e-5
ctilde_basis_func: rank=2 ndens=1 mu0=0 mu=( 0  0 )
n=( 1  9 )
l=( 0  0 )
num_ms=1
< 0  0 >:  1.144191543331075e-5
ctilde_basis_func: rank=2 ndens=1 mu0=0 mu=( 0  0 )
n=( 3  7 )
l=( 3  3 )
num_ms=7
< -3  3 >:  -6.6200677354997485e-6
< -2  2 >:  6.6200677354997485e-6
< -1  1 >:  -6.6200677354997485e-6
< 0  0 >:  6.6200677354997485e-6
< 1  -1 >:  -6.6200677354997485e-6
< 2  -2 >:  6.6200677354997485e-6
< 3  -3 >:  -6.6200677354997485e-6
ctilde_basis_func: rank=2 ndens=1 mu0=0 mu=( 0  0 )
n=( 6  7 )
l=( 1  1 )
num_ms=3
< -1  1 >:  -1.162873743121716e-6
< 0  0 >:  1.162873743121716e-6
< 1  -1 >:  -1.162873743121716e-6
ctilde_basis_func: rank=2 ndens=1 mu0=0 mu=( 0  0 )
n=( 3  6 )
l=( 2  2 )
num_ms=5
< -2  2 >:  -6.36843652376988e-5
< -1  1 >:  6.36843652376988e-5
< 0  0 >:  -6.36843652376988e-5
< 1  -1 >:  6.36843652376988e-5
< 2  -2 >:  -6.36843652376988e-5
ctilde_basis_func: rank=2 ndens=1 mu0=0 mu=( 0  0 )
n=( 1  1 )
l=( 0  0 )
num_ms=1
< 0  0 >:  0.008977336692851792
ctilde_basis_func: rank=2 ndens=1 mu0=0 mu=( 0  0 )
n=( 1  8 )
l=( 3  3 )
num_ms=7
< -3  3 >:  1.5290255872804353e-5
< -2  2 >:  -1.5290255872804353e-5
< -1  1 >:  1.5290255872804353e-5
< 0  0 >:  -1.5290255872804353e-5
< 1  -1 >:  1.5290255872804353e-5
< 2  -2 >:  -1.5290255872804353e-5
< 3  -3 >:  1.5290255872804353e-5
ctilde_basis_func: rank=2 ndens=1 mu0=0 mu=( 0  0 )
n=( 1  1 )
l=( 1  1 )
num_ms=2
< -1  1 >:  0.003039570204383001
< 0  0 >:  -0.0015197851021915005
ctilde_basis_func: rank=2 ndens=1 mu0=0 mu=( 0  0 )
n=( 3  7 )
l=( 0  0 )
num_ms=1
< 0  0 >:  -9.295801378114367e-7
ctilde_basis_func: rank=2 ndens=1 mu0=0 mu=( 0  0 )
n=( 3  11 )
l=( 1  1 )
num_ms=3
< -1  1 >:  1.0819197724357079e-5
< 0  0 >:  -1.0819197724357079e-5
< 1  -1 >:  1.0819197724357079e-5
ctilde_basis_func: rank=2 ndens=1 mu0=0 mu=( 0  0 )
n=( 5  6 )
l=( 2  2 )
num_ms=5
< -2  2 >:  -9.520544692363884e-5
< -1  1 >:  9.520544692363884e-5
< 0  0 >:  -9.520544692363884e-5
< 1  -1 >:  9.520544692363884e-5
< 2  -2 >:  -9.520544692363884e-5
ctilde_basis_func: rank=2 ndens=1 mu0=0 mu=( 0  0 )
n=( 1  7 )
l=( 0  0 )
num_ms=1
< 0  0 >:  2.9365704127422144e-5
ctilde_basis_func: rank=2 ndens=1 mu0=0 mu=( 0  0 )
n=( 3  4 )
l=( 2  2 )
num_ms=5
< -2  2 >:  4.422767109092746e-5
< -1  1 >:  -4.422767109092746e-5
< 0  0 >:  4.422767109092746e-5
< 1  -1 >:  -4.422767109092746e-5
< 2  -2 >:  4.422767109092746e-5
ctilde_basis_func: rank=2 ndens=1 mu0=0 mu=( 0  0 )
n=( 1  10 )
l=( 1  1 )
num_ms=3
< -1  1 >:  5.494278020209233e-6
< 0  0 >:  -5.494278020209233e-6
< 1  -1 >:  5.494278020209233e-6
ctilde_basis_func: rank=2 ndens=1 mu0=0 mu=( 0  0 )
n=( 1  2 )
l=( 2  2 )
num_ms=5
< -2  2 >:  0.00013195670100796478
< -1  1 >:  -0.00013195670100796478
< 0  0 >:  0.00013195670100796478
< 1  -1 >:  -0.00013195670100796478
< 2  -2 >:  0.00013195670100796478
ctilde_basis_func: rank=2 ndens=1 mu0=0 mu=( 0  0 )
n=( 6  8 )
l=( 0  0 )
num_ms=1
< 0  0 >:  -6.37856589690377e-6
ctilde_basis_func: rank=2 ndens=1 mu0=0 mu=( 0  0 )
n=( 3  13 )
l=( 0  0 )
num_ms=1
< 0  0 >:  -1.6096893921633154e-6
ctilde_basis_func: rank=2 ndens=1 mu0=0 mu=( 0  0 )
n=( 4  8 )
l=( 1  1 )
num_ms=3
< -1  1 >:  7.884221309008231e-6
< 0  0 >:  -7.884221309008231e-6
< 1  -1 >:  7.884221309008231e-6
ctilde_basis_func: rank=2 ndens=1 mu0=0 mu=( 0  0 )
n=( 1  8 )
l=( 2  2 )
num_ms=5
< -2  2 >:  -4.354266024003493e-5
< -1  1 >:  4.354266024003493e-5
< 0  0 >:  -4.354266024003493e-5
< 1  -1 >:  4.354266024003493e-5
< 2  -2 >:  -4.354266024003493e-5
ctilde_basis_func: rank=2 ndens=1 mu0=0 mu=( 0  0 )
n=( 4  4 )
l=( 2  2 )
num_ms=3
< -2  2 >:  -0.0001214901830474191
< -1  1 >:  0.0001214901830474191
< 0  0 >:  -6.074509152370955e-5
ctilde_basis_func: rank=2 ndens=1 mu0=0 mu=( 0  0 )
n=( 4  5 )
l=( 2  2 )
num_ms=5
< -2  2 >:  5.6635080544773226e-5
< -1  1 >:  -5.6635080544773226e-5
< 0  0 >:  5.6635080544773226e-5
< 1  -1 >:  -5.6635080544773226e-5
< 2  -2 >:  5.6635080544773226e-5
ctilde_basis_func: rank=2 ndens=1 mu0=0 mu=( 0  0 )
n=( 4  8 )
l=( 2  2 )
num_ms=5
< -2  2 >:  3.8091193539397452e-6
< -1  1 >:  -3.8091193539397452e-6
< 0  0 >:  3.8091193539397452e-6
< 1  -1 >:  -3.8091193539397452e-6
< 2  -2 >:  3.8091193539397452e-6
ctilde_basis_func: rank=2 ndens=1 mu0=0 mu=( 0  0 )
n=( 1  4 )
l=( 1  1 )
num_ms=3
< -1  1 >:  -2.0542676454620764e-5
< 0  0 >:  2.0542676454620764e-5
< 1  -1 >:  -2.0542676454620764e-5
ctilde_basis_func: rank=2 ndens=1 mu0=0 mu=( 0  0 )
n=( 2  2 )
l=( 2  2 )
num_ms=3
< -2  2 >:  9.753139904531948e-5
< -1  1 >:  -9.753139904531948e-5
< 0  0 >:  4.876569952265974e-5
ctilde_basis_func: rank=2 ndens=1 mu0=0 mu=( 0  0 )
n=( 2  13 )
l=( 0  0 )
num_ms=1
< 0  0 >:  -8.739133938442752e-7
ctilde_basis_func: rank=2 ndens=1 mu0=0 mu=( 0  0 )
n=( 1  14 )
l=( 0  0 )
num_ms=1
< 0  0 >:  1.4882387923117032e-6
ctilde_basis_func: rank=2 ndens=1 mu0=0 mu=( 0  0 )
n=( 1  9 )
l=( 1  1 )
num_ms=3
< -1  1 >:  5.078129451414695e-6
< 0  0 >:  -5.078129451414695e-6
< 1  -1 >:  5.078129451414695e-6
ctilde_basis_func: rank=2 ndens=1 mu0=0 mu=( 0  0 )
n=( 4  6 )
l=( 1  1 )
num_ms=3
< -1  1 >:  6.752442664143424e-5
< 0  0 >:  -6.752442664143424e-5
< 1  -1 >:  6.752442664143424e-5
ctilde_basis_func: rank=2 ndens=1 mu0=0 mu=( 0  0 )
n=( 1  1 )
l=( 6  6 )
num_ms=7
< -6  6 >:  -6.332596316325984e-6
< -5  5 >:  6.332596316325982e-6
< -4  4 >:  -6.332596316325982e-6
< -3  3 >:  6.332596316325982e-6
< -2  2 >:  -6.332596316325982e-6
< -1  1 >:  6.332596316325982e-6
< 0  0 >:  -3.166298158162991e-6
ctilde_basis_func: rank=2 ndens=1 mu0=0 mu=( 0  0 )
n=( 5  7 )
l=( 1  1 )
num_ms=3
< -1  1 >:  2.1649613077933336e-5
< 0  0 >:  -2.1649613077933336e-5
< 1  -1 >:  2.1649613077933336e-5
ctilde_basis_func: rank=2 ndens=1 mu0=0 mu=( 0  0 )
n=( 2  4 )
l=( 3  3 )
num_ms=7
< -3  3 >:  8.901481942863748e-5
< -2  2 >:  -8.901481942863748e-5
< -1  1 >:  8.901481942863748e-5
< 0  0 >:  -8.901481942863748e-5
< 1  -1 >:  8.901481942863748e-5
< 2  -2 >:  -8.901481942863748e-5
< 3  -3 >:  8.901481942863748e-5
ctilde_basis_func: rank=2 ndens=1 mu0=0 mu=( 0  0 )
n=( 1  3 )
l=( 1  1 )
num_ms=3
< -1  1 >:  0.0002705396210684308
< 0  0 >:  -0.0002705396210684308
< 1  -1 >:  0.0002705396210684308
ctilde_basis_func: rank=2 ndens=1 mu0=0 mu=( 0  0 )
n=( 4  6 )
l=( 2  2 )
num_ms=5
< -2  2 >:  3.282276588867211e-5
< -1  1 >:  -3.282276588867211e-5
< 0  0 >:  3.282276588867211e-5
< 1  -1 >:  -3.282276588867211e-5
< 2  -2 >:  3.282276588867211e-5
ctilde_basis_func: rank=2 ndens=1 mu0=0 mu=( 0  0 )
n=( 1  4 )
l=( 3  3 )
num_ms=7
< -3  3 >:  3.660508017370773e-5
< -2  2 >:  -3.660508017370773e-5
< -1  1 >:  3.660508017370773e-5
< 0  0 >:  -3.660508017370773e-5
< 1  -1 >:  3.660508017370773e-5
< 2  -2 >:  -3.660508017370773e-5
< 3  -3 >:  3.660508017370773e-5
ctilde_basis_func: rank=2 ndens=1 mu0=0 mu=( 0  0 )
n=( 5  5 )
l=( 2  2 )
num_ms=3
< -2  2 >:  -5.101405862215379e-5
< -1  1 >:  5.101405862215379e-5
< 0  0 >:  -2.5507029311076896e-5
ctilde_basis_func: rank=2 ndens=1 mu0=0 mu=( 0  0 )
n=( 5  8 )
l=( 1  1 )
num_ms=3
< -1  1 >:  -2.1115501611621807e-5
< 0  0 >:  2.1115501611621807e-5
< 1  -1 >:  -2.1115501611621807e-5
ctilde_basis_func: rank=2 ndens=1 mu0=0 mu=( 0  0 )
n=( 2  10 )
l=( 2  2 )
num_ms=5
< -2  2 >:  1.714652549667994e-6
< -1  1 >:  -1.714652549667994e-6
< 0  0 >:  1.714652549667994e-6
< 1  -1 >:  -1.714652549667994e-6
< 2  -2 >:  1.714652549667994e-6
ctilde_basis_func: rank=2 ndens=1 mu0=0 mu=( 0  0 )
n=( 2  15 )
l=( 0  0 )
num_ms=1
< 0  0 >:  1.7368425543129317e-6
ctilde_basis_func: rank=2 ndens=1 mu0=0 mu=( 0  0 )
n=( 2  3 )
l=( 2  2 )
num_ms=5
< -2  2 >:  0.00015710443459828637
< -1  1 >:  -0.00015710443459828637
< 0  0 >:  0.00015710443459828637
< 1  -1 >:  -0.00015710443459828637
< 2  -2 >:  0.00015710443459828637
ctilde_basis_func: rank=2 ndens=1 mu0=0 mu=( 0  0 )
n=( 1  14 )
l=( 1  1 )
num_ms=3
< -1  1 >:  -6.359497796550256e-6
< 0  0 >:  6.359497796550256e-6
< 1  -1 >:  -6.359497796550256e-6
ctilde_basis_func: rank=2 ndens=1 mu0=0 mu=( 0  0 )
n=( 3  5 )
l=( 0  0 )
num_ms=1
< 0  0 >:  -5.4500506728988593e-5
ctilde_basis_func: rank=2 ndens=1 mu0=0 mu=( 0  0 )
n=( 3  3 )
l=( 2  2 )
num_ms=3
< -2  2 >:  -0.0009494234112026422
< -1  1 >:  0.0009494234112026422
< 0  0 >:  -0.0004747117056013211
ctilde_basis_func: rank=2 ndens=1 mu0=0 mu=( 0  0 )
n=( 2  11 )
l=( 1  1 )
num_ms=3
< -1  1 >:  -6.850461191719095e-7
< 0  0 >:  6.850461191719095e-7
< 1  -1 >:  -6.850461191719095e-7
ctilde_basis_func: rank=2 ndens=1 mu0=0 mu=( 0  0 )
n=( 2  3 )
l=( 4  4 )
num_ms=9
< -4  4 >:  1.3144629464510145e-5
< -3  3 >:  -1.3144629464510143e-5
< -2  2 >:  1.3144629464510143e-5
< -1  1 >:  -1.3144629464510143e-5
< 0  0 >:  1.3144629464510143e-5
< 1  -1 >:  -1.3144629464510143e-5
< 2  -2 >:  1.3144629464510143e-5
< 3  -3 >:  -1.3144629464510143e-5
< 4  -4 >:  1.3144629464510143e-5
ctilde_basis_func: rank=2 ndens=1 mu0=0 mu=( 0  0 )
n=( 2  2 )
l=( 5  5 )
num_ms=6
< -5  5 >:  0.00012513362245493532
< -4  4 >:  -0.00012513362245493534
< -3  3 >:  0.00012513362245493534
< -2  2 >:  -0.00012513362245493534
< -1  1 >:  0.00012513362245493534
< 0  0 >:  -6.256681122746767e-5
ctilde_basis_func: rank=2 ndens=1 mu0=0 mu=( 0  0 )
n=( 4  4 )
l=( 3  3 )
num_ms=4
< -3  3 >:  0.0002934897107786033
< -2  2 >:  -0.0002934897107786033
< -1  1 >:  0.0002934897107786033
< 0  0 >:  -0.00014674485538930166
ctilde_basis_func: rank=2 ndens=1 mu0=0 mu=( 0  0 )
n=( 1  6 )
l=( 2  2 )
num_ms=5
< -2  2 >:  -6.640779705959098e-5
< -1  1 >:  6.640779705959098e-5
< 0  0 >:  -6.640779705959098e-5
< 1  -1 >:  6.640779705959098e-5
< 2  -2 >:  -6.640779705959098e-5
ctilde_basis_func: rank=2 ndens=1 mu0=0 mu=( 0  0 )
n=( 5  5 )
l=( 1  1 )
num_ms=2
< -1  1 >:  6.675609967204349e-6
< 0  0 >:  -3.3378049836021744e-6
ctilde_basis_func: rank=2 ndens=1 mu0=0 mu=( 0  0 )
n=( 4  8 )
l=( 0  0 )
num_ms=1
< 0  0 >:  1.1802959703504432e-5
ctilde_basis_func: rank=2 ndens=1 mu0=0 mu=( 0  0 )
n=( 4  6 )
l=( 0  0 )
num_ms=1
< 0  0 >:  -1.110801462118571e-5
ctilde_basis_func: rank=2 ndens=1 mu0=0 mu=( 0  0 )
n=( 3  9 )
l=( 1  1 )
num_ms=3
< -1  1 >:  1.888761003907687e-5
< 0  0 >:  -1.888761003907687e-5
< 1  -1 >:  1.888761003907687e-5
ctilde_basis_func: rank=2 ndens=1 mu0=0 mu=( 0  0 )
n=( 4  5 )
l=( 0  0 )
num_ms=1
< 0  0 >:  3.6335893477830814e-5
ctilde_basis_func: rank=2 ndens=1 mu0=0 mu=( 0  0 )
n=( 1  5 )
l=( 4  4 )
num_ms=9
< -4  4 >:  1.5681324582785793e-6
< -3  3 >:  -1.568132458278579e-6
< -2  2 >:  1.568132458278579e-6
< -1  1 >:  -1.568132458278579e-6
< 0  0 >:  1.568132458278579e-6
< 1  -1 >:  -1.568132458278579e-6
< 2  -2 >:  1.568132458278579e-6
< 3  -3 >:  -1.568132458278579e-6
< 4  -4 >:  1.568132458278579e-6
ctilde_basis_func: rank=2 ndens=1 mu0=0 mu=( 0  0 )
n=( 3  4 )
l=( 1  1 )
num_ms=3
< -1  1 >:  -9.226188906750282e-6
< 0  0 >:  9.226188906750282e-6
< 1  -1 >:  -9.226188906750282e-6
ctilde_basis_func: rank=2 ndens=1 mu0=0 mu=( 0  0 )
n=( 1  17 )
l=( 0  0 )
num_ms=1
< 0  0 >:  2.20427365890332e-6
ctilde_basis_func: rank=2 ndens=1 mu0=0 mu=( 0  0 )
n=( 5  11 )
l=( 0  0 )
num_ms=1
< 0  0 >:  4.615408089809932e-6
ctilde_basis_func: rank=2 ndens=1 mu0=0 mu=( 0  0 )
n=( 1  2 )
l=( 4  4 )
num_ms=9
< -4  4 >:  2.1009540574184813e-5
< -3  3 >:  -2.100954057418481e-5
< -2  2 >:  2.100954057418481e-5
< -1  1 >:  -2.100954057418481e-5
< 0  0 >:  2.100954057418481e-5
< 1  -1 >:  -2.100954057418481e-5
< 2  -2 >:  2.100954057418481e-5
< 3  -3 >:  -2.100954057418481e-5
< 4  -4 >:  2.100954057418481e-5
ctilde_basis_func: rank=2 ndens=1 mu0=0 mu=( 0  0 )
n=( 1  1 )
l=( 4  4 )
num_ms=5
< -4  4 >:  -5.945143984671181e-5
< -3  3 >:  5.9451439846711805e-5
< -2  2 >:  -5.9451439846711805e-5
< -1  1 >:  5.9451439846711805e-5
< 0  0 >:  -2.9725719923355902e-5
ctilde_basis_func: rank=2 ndens=1 mu0=0 mu=( 0  0 )
n=( 7  8 )
l=( 1  1 )
num_ms=3
< -1  1 >:  -7.014862886695849e-7
< 0  0 >:  7.014862886695849e-7
< 1  -1 >:  -7.014862886695849e-7
ctilde_basis_func: rank=2 ndens=1 mu0=0 mu=( 0  0 )
n=( 3  12 )
l=( 0  0 )
num_ms=1
< 0  0 >:  1.6553555177201042e-6
ctilde_basis_func: rank=2 ndens=1 mu0=0 mu=( 0  0 )
n=( 3  8 )
l=( 1  1 )
num_ms=3
< -1  1 >:  -2.080602814805788e-5
< 0  0 >:  2.080602814805788e-5
< 1  -1 >:  -2.080602814805788e-5
ctilde_basis_func: rank=2 ndens=1 mu0=0 mu=( 0  0 )
n=( 4  7 )
l=( 1  1 )
num_ms=3
< -1  1 >:  -1.9104036386202033e-5
< 0  0 >:  1.9104036386202033e-5
< 1  -1 >:  -1.9104036386202033e-5
ctilde_basis_func: rank=2 ndens=1 mu0=0 mu=( 0  0 )
n=( 3  7 )
l=( 1  1 )
num_ms=3
< -1  1 >:  8.588250922412537e-6
< 0  0 >:  -8.588250922412537e-6
< 1  -1 >:  8.588250922412537e-6
ctilde_basis_func: rank=2 ndens=1 mu0=0 mu=( 0  0 )
n=( 1  5 )
l=( 1  1 )
num_ms=3
< -1  1 >:  6.435207291269549e-5
< 0  0 >:  -6.435207291269549e-5
< 1  -1 >:  6.435207291269549e-5
ctilde_basis_func: rank=2 ndens=1 mu0=0 mu=( 0  0 )
n=( 2  2 )
l=( 3  3 )
num_ms=4
< -3  3 >:  0.00015742085029543554
< -2  2 >:  -0.00015742085029543554
< -1  1 >:  0.00015742085029543554
< 0  0 >:  -7.871042514771777e-5
ctilde_basis_func: rank=2 ndens=1 mu0=0 mu=( 0  0 )
n=( 1  3 )
l=( 2  2 )
num_ms=5
< -2  2 >:  -0.00044935644905291674
< -1  1 >:  0.00044935644905291674
< 0  0 >:  -0.00044935644905291674
< 1  -1 >:  0.00044935644905291674
< 2  -2 >:  -0.00044935644905291674
ctilde_basis_func: rank=2 ndens=1 mu0=0 mu=( 0  0 )
n=( 2  11 )
l=( 0  0 )
num_ms=1
< 0  0 >:  -1.956489128854424e-6
ctilde_basis_func: rank=2 ndens=1 mu0=0 mu=( 0  0 )
n=( 6  6 )
l=( 2  2 )
num_ms=3
< -2  2 >:  -3.97345111854438e-5
< -1  1 >:  3.97345111854438e-5
< 0  0 >:  -1.98672555927219e-5
ctilde_basis_func: rank=2 ndens=1 mu0=0 mu=( 0  0 )
n=( 6  9 )
l=( 1  1 )
num_ms=3
< -1  1 >:  1.8703073695906518e-5
< 0  0 >:  -1.8703073695906518e-5
< 1  -1 >:  1.8703073695906518e-5
ctilde_basis_func: rank=2 ndens=1 mu0=0 mu=( 0  0 )
n=( 3  6 )
l=( 1  1 )
num_ms=3
< -1  1 >:  -1.1962379193421859e-5
< 0  0 >:  1.1962379193421859e-5
< 1  -1 >:  -1.1962379193421859e-5
ctilde_basis_func: rank=2 ndens=1 mu0=0 mu=( 0  0 )
n=( 9  9 )
l=( 0  0 )
num_ms=1
< 0  0 >:  3.4921030333757704e-6
ctilde_basis_func: rank=2 ndens=1 mu0=0 mu=( 0  0 )
n=( 8  8 )
l=( 0  0 )
num_ms=1
< 0  0 >:  3.3688773762977735e-7
ctilde_basis_func: rank=2 ndens=1 mu0=0 mu=( 0  0 )
n=( 3  10 )
l=( 1  1 )
num_ms=3
< -1  1 >:  -7.85388733694701e-6
< 0  0 >:  7.85388733694701e-6
< 1  -1 >:  -7.85388733694701e-6
ctilde_basis_func: rank=2 ndens=1 mu0=0 mu=( 0  0 )
n=( 2  5 )
l=( 1  1 )
num_ms=3
< -1  1 >:  -0.00012354886209385324
< 0  0 >:  0.00012354886209385324
< 1  -1 >:  -0.00012354886209385324
ctilde_basis_func: rank=2 ndens=1 mu0=0 mu=( 0  0 )
n=( 5  10 )
l=( 0  0 )
num_ms=1
< 0  0 >:  -1.5955547615289854e-5
ctilde_basis_func: rank=2 ndens=1 mu0=0 mu=( 0  0 )
n=( 3  4 )
l=( 4  4 )
num_ms=9
< -4  4 >:  4.62664095547743e-5
< -3  3 >:  -4.626640955477429e-5
< -2  2 >:  4.626640955477429e-5
< -1  1 >:  -4.626640955477429e-5
< 0  0 >:  4.626640955477429e-5
< 1  -1 >:  -4.626640955477429e-5
< 2  -2 >:  4.626640955477429e-5
< 3  -3 >:  -4.626640955477429e-5
< 4  -4 >:  4.626640955477429e-5
ctilde_basis_func: rank=2 ndens=1 mu0=0 mu=( 0  0 )
n=( 1  11 )
l=( 1  1 )
num_ms=3
< -1  1 >:  -2.7574745838672775e-6
< 0  0 >:  2.7574745838672775e-6
< 1  -1 >:  -2.7574745838672775e-6
ctilde_basis_func: rank=2 ndens=1 mu0=0 mu=( 0  0 )
n=( 2  8 )
l=( 1  1 )
num_ms=3
< -1  1 >:  -1.807743169863581e-6
< 0  0 >:  1.807743169863581e-6
< 1  -1 >:  -1.807743169863581e-6
ctilde_basis_func: rank=2 ndens=1 mu0=0 mu=( 0  0 )
n=( 1  2 )
l=( 0  0 )
num_ms=1
< 0  0 >:  -0.0004414016033618527
ctilde_basis_func: rank=2 ndens=1 mu0=0 mu=( 0  0 )
n=( 4  5 )
l=( 3  3 )
num_ms=7
< -3  3 >:  -1.1987362732397674e-5
< -2  2 >:  1.1987362732397674e-5
< -1  1 >:  -1.1987362732397674e-5
< 0  0 >:  1.1987362732397674e-5
< 1  -1 >:  -1.1987362732397674e-5
< 2  -2 >:  1.1987362732397674e-5
< 3  -3 >:  -1.1987362732397674e-5
ctilde_basis_func: rank=2 ndens=1 mu0=0 mu=( 0  0 )
n=( 2  2 )
l=( 1  1 )
num_ms=2
< -1  1 >:  0.00042039533003277645
< 0  0 >:  -0.00021019766501638822
ctilde_basis_func: rank=2 ndens=1 mu0=0 mu=( 0  0 )
n=( 1  16 )
l=( 0  0 )
num_ms=1
< 0  0 >:  2.6713352269152367e-6
ctilde_basis_func: rank=2 ndens=1 mu0=0 mu=( 0  0 )
n=( 2  7 )
l=( 1  1 )
num_ms=3
< -1  1 >:  -3.0452341536231038e-5
< 0  0 >:  3.0452341536231038e-5
< 1  -1 >:  -3.0452341536231038e-5
ctilde_basis_func: rank=2 ndens=1 mu0=0 mu=( 0  0 )
n=( 1  12 )
l=( 1  1 )
num_ms=3
< -1  1 >:  6.311547593609708e-8
< 0  0 >:  -6.311547593609708e-8
< 1  -1 >:  6.311547593609708e-8
ctilde_basis_func: rank=2 ndens=1 mu0=0 mu=( 0  0 )
n=( 7  9 )
l=( 0  0 )
num_ms=1
< 0  0 >:  -2.720765411403914e-6
ctilde_basis_func: rank=2 ndens=1 mu0=0 mu=( 0  0 )
n=( 3  8 )
l=( 0  0 )
num_ms=1
< 0  0 >:  -2.850571839842097e-5
ctilde_basis_func: rank=2 ndens=1 mu0=0 mu=( 0  0 )
n=( 3  3 )
l=( 1  1 )
num_ms=2
< -1  1 >:  0.00023524646622701095
< 0  0 >:  -0.00011762323311350548
ctilde_basis_func: rank=2 ndens=1 mu0=0 mu=( 0  0 )
n=( 7  7 )
l=( 1  1 )
num_ms=2
< -1  1 >:  4.452145455687237e-5
< 0  0 >:  -2.2260727278436185e-5
ctilde_basis_func: rank=2 ndens=1 mu0=0 mu=( 0  0 )
n=( 2  10 )
l=( 0  0 )
num_ms=1
< 0  0 >:  7.515157155432207e-6
ctilde_basis_func: rank=2 ndens=1 mu0=0 mu=( 0  0 )
n=( 1  8 )
l=( 1  1 )
num_ms=3
< -1  1 >:  -8.91073230341211e-6
< 0  0 >:  8.91073230341211e-6
< 1  -1 >:  -8.91073230341211e-6
ctilde_basis_func: rank=2 ndens=1 mu0=0 mu=( 0  0 )
n=( 5  13 )
l=( 0  0 )
num_ms=1
< 0  0 >:  -1.3013412385322984e-6
ctilde_basis_func: rank=2 ndens=1 mu0=0 mu=( 0  0 )
n=( 6  7 )
l=( 0  0 )
num_ms=1
< 0  0 >:  2.6486897569181924e-6
ctilde_basis_func: rank=2 ndens=1 mu0=0 mu=( 0  0 )
n=( 2  14 )
l=( 0  0 )
num_ms=1
< 0  0 >:  -2.001159968601366e-6
ctilde_basis_func: rank=2 ndens=1 mu0=0 mu=( 0  0 )
n=( 6  10 )
l=( 0  0 )
num_ms=1
< 0  0 >:  2.2414939255874084e-6
ctilde_basis_func: rank=2 ndens=1 mu0=0 mu=( 0  0 )
n=( 4  4 )
l=( 0  0 )
num_ms=1
< 0  0 >:  -1.7052800118736733e-5
ctilde_basis_func: rank=2 ndens=1 mu0=0 mu=( 0  0 )
n=( 2  9 )
l=( 1  1 )
num_ms=3
< -1  1 >:  -5.218372976257056e-6
< 0  0 >:  5.218372976257056e-6
< 1  -1 >:  -5.218372976257056e-6
ctilde_basis_func: rank=2 ndens=1 mu0=0 mu=( 0  0 )
n=( 1  1 )
l=( 3  3 )
num_ms=4
< -3  3 >:  0.0007539657159547494
< -2  2 >:  -0.0007539657159547494
< -1  1 >:  0.0007539657159547494
< 0  0 >:  -0.0003769828579773747
ctilde_basis_func: rank=2 ndens=1 mu0=0 mu=( 0  0 )
n=( 2  4 )
l=( 0  0 )
num_ms=1
< 0  0 >:  -6.665220587615733e-5
ctilde_basis_func: rank=2 ndens=1 mu0=0 mu=( 0  0 )
n=( 3  15 )
l=( 0  0 )
num_ms=1
< 0  0 >:  -6.714533742142217e-6
ctilde_basis_func: rank=2 ndens=1 mu0=0 mu=( 0  0 )
n=( 2  10 )
l=( 1  1 )
num_ms=3
< -1  1 >:  5.010278970865542e-6
< 0  0 >:  -5.010278970865542e-6
< 1  -1 >:  5.010278970865542e-6
ctilde_basis_func: rank=2 ndens=1 mu0=0 mu=( 0  0 )
n=( 3  14 )
l=( 0  0 )
num_ms=1
< 0  0 >:  1.0718709676136726e-5
ctilde_basis_func: rank=2 ndens=1 mu0=0 mu=( 0  0 )
n=( 2  13 )
l=( 1  1 )
num_ms=3
< -1  1 >:  2.8663870951860314e-6
< 0  0 >:  -2.8663870951860314e-6
< 1  -1 >:  2.8663870951860314e-6
ctilde_basis_func: rank=2 ndens=1 mu0=0 mu=( 0  0 )
n=( 6  11 )
l=( 0  0 )
num_ms=1
< 0  0 >:  5.5327059378527346e-6
ctilde_basis_func: rank=2 ndens=1 mu0=0 mu=( 0  0 )
n=( 5  7 )
l=( 2  2 )
num_ms=5
< -2  2 >:  3.3613069861999926e-6
< -1  1 >:  -3.3613069861999926e-6
< 0  0 >:  3.3613069861999926e-6
< 1  -1 >:  -3.3613069861999926e-6
< 2  -2 >:  3.3613069861999926e-6
ctilde_basis_func: rank=2 ndens=1 mu0=0 mu=( 0  0 )
n=( 5  8 )
l=( 0  0 )
num_ms=1
< 0  0 >:  -1.2097250657298179e-5
ctilde_basis_func: rank=2 ndens=1 mu0=0 mu=( 0  0 )
n=( 7  11 )
l=( 0  0 )
num_ms=1
< 0  0 >:  3.328128286321224e-6
ctilde_basis_func: rank=2 ndens=1 mu0=0 mu=( 0  0 )
n=( 1  4 )
l=( 0  0 )
num_ms=1
< 0  0 >:  -0.00020239173567308176
ctilde_basis_func: rank=2 ndens=1 mu0=0 mu=( 0  0 )
n=( 5  10 )
l=( 1  1 )
num_ms=3
< -1  1 >:  -5.55144507348196e-6
< 0  0 >:  5.55144507348196e-6
< 1  -1 >:  -5.55144507348196e-6
ctilde_basis_func: rank=2 ndens=1 mu0=0 mu=( 0  0 )
n=( 1  3 )
l=( 0  0 )
num_ms=1
< 0  0 >:  3.3642987889833225e-5
ctilde_basis_func: rank=2 ndens=1 mu0=0 mu=( 0  0 )
n=( 5  9 )
l=( 0  0 )
num_ms=1
< 0  0 >:  1.1983383793309093e-5
ctilde_basis_func: rank=2 ndens=1 mu0=0 mu=( 0  0 )
n=( 4  9 )
l=( 0  0 )
num_ms=1
< 0  0 >:  -2.2833124267753714e-5
ctilde_basis_func: rank=2 ndens=1 mu0=0 mu=( 0  0 )
n=( 2  3 )
l=( 0  0 )
num_ms=1
< 0  0 >:  -4.3423747926881446e-5
ctilde_basis_func: rank=2 ndens=1 mu0=0 mu=( 0  0 )
n=( 2  12 )
l=( 1  1 )
num_ms=3
< -1  1 >:  1.155143367106414e-6
< 0  0 >:  -1.155143367106414e-6
< 1  -1 >:  1.155143367106414e-6
ctilde_basis_func: rank=2 ndens=1 mu0=0 mu=( 0  0 )
n=( 2  7 )
l=( 0  0 )
num_ms=1
< 0  0 >:  -3.1439953784695593e-6
ctilde_basis_func: rank=2 ndens=1 mu0=0 mu=( 0  0 )
n=( 1  11 )
l=( 0  0 )
num_ms=1
< 0  0 >:  2.019006665999206e-6
ctilde_basis_func: rank=2 ndens=1 mu0=0 mu=( 0  0 )
n=( 2  8 )
l=( 0  0 )
num_ms=1
< 0  0 >:  2.439218508455093e-5
ctilde_basis_func: rank=2 ndens=1 mu0=0 mu=( 0  0 )
n=( 8  9 )
l=( 0  0 )
num_ms=1
< 0  0 >:  -1.1851572141148076e-6
ctilde_basis_func: rank=2 ndens=1 mu0=0 mu=( 0  0 )
n=( 5  6 )
l=( 1  1 )
num_ms=3
< -1  1 >:  -6.324048842420764e-5
< 0  0 >:  6.324048842420764e-5
< 1  -1 >:  -6.324048842420764e-5
ctilde_basis_func: rank=2 ndens=1 mu0=0 mu=( 0  0 )
n=( 2  16 )
l=( 0  0 )
num_ms=1
< 0  0 >:  -5.9263034595622065e-6
ctilde_basis_func: rank=2 ndens=1 mu0=0 mu=( 0  0 )
n=( 3  6 )
l=( 0  0 )
num_ms=1
< 0  0 >:  -3.819791831329133e-5
ctilde_basis_func: rank=2 ndens=1 mu0=0 mu=( 0  0 )
n=( 4  4 )
l=( 1  1 )
num_ms=2
< -1  1 >:  0.0001361417147666623
< 0  0 >:  -6.807085738333115e-5
ctilde_basis_func: rank=2 ndens=1 mu0=0 mu=( 0  0 )
n=( 1  9 )
l=( 2  2 )
num_ms=5
< -2  2 >:  -2.1737472497772474e-5
< -1  1 >:  2.1737472497772474e-5
< 0  0 >:  -2.1737472497772474e-5
< 1  -1 >:  2.1737472497772474e-5
< 2  -2 >:  -2.1737472497772474e-5
ctilde_basis_func: rank=2 ndens=1 mu0=0 mu=( 0  0 )
n=( 4  11 )
l=( 1  1 )
num_ms=3
< -1  1 >:  -2.8678571544031194e-6
< 0  0 >:  2.8678571544031194e-6
< 1  -1 >:  -2.8678571544031194e-6
ctilde_basis_func: rank=2 ndens=1 mu0=0 mu=( 0  0 )
n=( 2  12 )
l=( 0  0 )
num_ms=1
< 0  0 >:  -5.302341753651749e-7
ctilde_basis_func: rank=2 ndens=1 mu0=0 mu=( 0  0 )
n=( 6  12 )
l=( 0  0 )
num_ms=1
< 0  0 >:  -3.170610442805694e-6
ctilde_basis_func: rank=2 ndens=1 mu0=0 mu=( 0  0 )
n=( 1  12 )
l=( 0  0 )
num_ms=1
< 0  0 >:  1.445749375316618e-6
ctilde_basis_func: rank=2 ndens=1 mu0=0 mu=( 0  0 )
n=( 5  9 )
l=( 1  1 )
num_ms=3
< -1  1 >:  9.128323651469865e-6
< 0  0 >:  -9.128323651469865e-6
< 1  -1 >:  9.128323651469865e-6
ctilde_basis_func: rank=2 ndens=1 mu0=0 mu=( 0  0 )
n=( 3  10 )
l=( 0  0 )
num_ms=1
< 0  0 >:  -2.0705323190863485e-5
ctilde_basis_func: rank=2 ndens=1 mu0=0 mu=( 0  0 )
n=( 5  7 )
l=( 0  0 )
num_ms=1
< 0  0 >:  -2.3000248563836716e-5
ctilde_basis_func: rank=2 ndens=1 mu0=0 mu=( 0  0 )
n=( 3  4 )
l=( 0  0 )
num_ms=1
< 0  0 >:  -0.00011578627913327332
ctilde_basis_func: rank=2 ndens=1 mu0=0 mu=( 0  0 )
n=( 1  6 )
l=( 0  0 )
num_ms=1
< 0  0 >:  -5.538491634838737e-5
ctilde_basis_func: rank=2 ndens=1 mu0=0 mu=( 0  0 )
n=( 7  7 )
l=( 0  0 )
num_ms=1
< 0  0 >:  -5.352650142244205e-6
ctilde_basis_func: rank=2 ndens=1 mu0=0 mu=( 0  0 )
n=( 1  8 )
l=( 0  0 )
num_ms=1
< 0  0 >:  -2.6280744043192437e-5
ctilde_basis_func: rank=2 ndens=1 mu0=0 mu=( 0  0 )
n=( 7  8 )
l=( 0  0 )
num_ms=1
< 0  0 >:  2.841497531008884e-8
ctilde_basis_func: rank=2 ndens=1 mu0=0 mu=( 0  0 )
n=( 4  13 )
l=( 0  0 )
num_ms=1
< 0  0 >:  4.198676595172886e-6
ctilde_basis_func: rank=2 ndens=1 mu0=0 mu=( 0  0 )
n=( 2  2 )
l=( 0  0 )
num_ms=1
< 0  0 >:  -0.00021636204556206047
ctilde_basis_func: rank=2 ndens=1 mu0=0 mu=( 0  0 )
n=( 1  15 )
l=( 0  0 )
num_ms=1
< 0  0 >:  3.570623544454561e-7
ctilde_basis_func: rank=2 ndens=1 mu0=0 mu=( 0  0 )
n=( 4  14 )
l=( 0  0 )
num_ms=1
< 0  0 >:  -7.406431418418626e-6
ctilde_basis_func: rank=2 ndens=1 mu0=0 mu=( 0  0 )
n=( 1  5 )
l=( 0  0 )
num_ms=1
< 0  0 >:  -2.471907003336949e-6
ctilde_basis_func: rank=2 ndens=1 mu0=0 mu=( 0  0 )
n=( 6  9 )
l=( 0  0 )
num_ms=1
< 0  0 >:  -6.7450178959692065e-6
ctilde_basis_func: rank=2 ndens=1 mu0=0 mu=( 0  0 )
n=( 4  12 )
l=( 0  0 )
num_ms=1
< 0  0 >:  1.459938408507135e-6
ctilde_basis_func: rank=2 ndens=1 mu0=0 mu=( 0  0 )
n=( 5  12 )
l=( 0  0 )
num_ms=1
< 0  0 >:  8.305051072571816e-7
ctilde_basis_func: rank=2 ndens=1 mu0=0 mu=( 0  0 )
n=( 1  13 )
l=( 0  0 )
num_ms=1
< 0  0 >:  2.053238497826934e-6
ctilde_basis_func: rank=2 ndens=1 mu0=0 mu=( 0  0 )
n=( 8  10 )
l=( 0  0 )
num_ms=1
< 0  0 >:  4.962049252177918e-6
ctilde_basis_func: rank=2 ndens=1 mu0=0 mu=( 0  0 )
n=( 2  5 )
l=( 0  0 )
num_ms=1
< 0  0 >:  7.658108988513172e-5
ctilde_basis_func: rank=2 ndens=1 mu0=0 mu=( 0  0 )
n=( 3  11 )
l=( 0  0 )
num_ms=1
< 0  0 >:  5.749848395602385e-6
ctilde_basis_func: rank=2 ndens=1 mu0=0 mu=( 0  0 )
n=( 3  3 )
l=( 0  0 )
num_ms=1
< 0  0 >:  -0.00015859815143855208
ctilde_basis_func: rank=2 ndens=1 mu0=0 mu=( 0  0 )
n=( 4  11 )
l=( 0  0 )
num_ms=1
< 0  0 >:  -6.630391514315372e-6
ctilde_basis_func: rank=3 ndens=1 mu0=0 mu=( 0  0  0 )
n=( 1  3  3 )
l=( 4  2  2 )
num_ms=15
< -4  2  2 >:  -2.7880112632201482e-5
< -3  1  2 >:  3.942843340494879e-5
< -2  0  2 >:  -2.581196865881474e-5
< -2  1  1 >:  -2.107538415693586e-5
< -1  -1  2 >:  1.490254705348088e-5
< -1  0  1 >:  3.650363614884509e-5
< 0  -2  2 >:  -6.66462164989448e-6
< 0  -1  1 >:  -2.665848659957795e-5
< 0  0  0 >:  -1.999386494968346e-5
< 1  -2  1 >:  1.490254705348088e-5
< 1  -1  0 >:  3.650363614884509e-5
< 2  -2  0 >:  -2.581196865881474e-5
< 2  -1  -1 >:  -2.107538415693586e-5
< 3  -2  -1 >:  3.942843340494879e-5
< 4  -2  -2 >:  -2.7880112632201482e-5
ctilde_basis_func: rank=3 ndens=1 mu0=0 mu=( 0  0  0 )
n=( 2  4  6 )
l=( 0  1  1 )
num_ms=3
< 0  -1  1 >:  -7.418935584988423e-6
< 0  0  0 >:  7.418935584988421e-6
< 0  1  -1 >:  -7.418935584988421e-6
ctilde_basis_func: rank=3 ndens=1 mu0=0 mu=( 0  0  0 )
n=( 1  2  4 )
l=( 1  3  2 )
num_ms=15
< -1  -1  2 >:  -1.6228953602392412e-7
< -1  0  1 >:  2.810937219302162e-7
< -1  1  0 >:  -3.9752655385164317e-7
< -1  2  -1 >:  5.132045742475467e-7
< -1  3  -2 >:  -6.285446702843868e-7
< 0  -2  2 >:  3.6289043458639527e-7
< 0  -1  1 >:  -4.5902412575254094e-7
< 0  0  0 >:  4.868686080717724e-7
< 0  1  -1 >:  -4.5902412575254094e-7
< 0  2  -2 >:  3.6289043458639527e-7
< 1  -3  2 >:  -6.285446702843869e-7
< 1  -2  1 >:  5.132045742475467e-7
< 1  -1  0 >:  -3.9752655385164317e-7
< 1  0  -1 >:  2.810937219302162e-7
< 1  1  -2 >:  -1.6228953602392412e-7
ctilde_basis_func: rank=3 ndens=1 mu0=0 mu=( 0  0  0 )
n=( 1  2  4 )
l=( 0  1  1 )
num_ms=3
< 0  -1  1 >:  2.742923567454324e-5
< 0  0  0 >:  -2.742923567454323e-5
< 0  1  -1 >:  2.742923567454323e-5
ctilde_basis_func: rank=3 ndens=1 mu0=0 mu=( 0  0  0 )
n=( 1  3  3 )
l=( 0  4  4 )
num_ms=5
< 0  -4  4 >:  -5.458561468620445e-6
< 0  -3  3 >:  5.458561468620444e-6
< 0  -2  2 >:  -5.458561468620444e-6
< 0  -1  1 >:  5.458561468620444e-6
< 0  0  0 >:  -2.729280734310222e-6
ctilde_basis_func: rank=3 ndens=1 mu0=0 mu=( 0  0  0 )
n=( 1  1  2 )
l=( 3  4  3 )
num_ms=43
< -3  0  3 >:  -1.3900510143843037e-6
< -3  1  2 >:  2.537874322204071e-6
< -3  2  1 >:  -3.404915701679703e-6
< -3  3  0 >:  3.677729293753935e-6
< -3  4  -1 >:  -3.0028533939278288e-6
< -2  -1  3 >:  2.537874322204071e-6
< -2  0  2 >:  -3.2434523668967078e-6
< -2  1  1 >:  2.621105329243681e-6
< -2  2  0 >:  -8.025463273420901e-7
< -2  3  -1 >:  -1.7336982153212131e-6
< -2  4  -2 >:  3.8766670619283e-6
< -1  -2  3 >:  -3.404915701679703e-6
< -1  -1  2 >:  2.621105329243681e-6
< -1  0  1 >:  -4.633503381281011e-7
< -1  1  0 >:  -1.7945481430297113e-6
< -1  2  -1 >:  2.9304848461879194e-6
< -1  3  -2 >:  -1.7336982153212131e-6
< -1  4  -3 >:  -3.0028533939278288e-6
< 0  -3  3 >:  3.677729293753935e-6
< 0  -2  2 >:  -8.025463273420901e-7
< 0  -1  1 >:  -1.7945481430297113e-6
< 0  0  0 >:  2.7801020287686075e-6
< 0  1  -1 >:  -1.7945481430297113e-6
< 0  2  -2 >:  -8.025463273420901e-7
< 0  3  -3 >:  3.677729293753935e-6
< 1  -4  3 >:  -3.0028533939278245e-6
< 1  -3  2 >:  -1.7336982153212131e-6
< 1  -2  1 >:  2.9304848461879194e-6
< 1  -1  0 >:  -1.7945481430297113e-6
< 1  0  -1 >:  -4.633503381281011e-7
< 1  1  -2 >:  2.621105329243681e-6
< 1  2  -3 >:  -3.404915701679703e-6
< 2  -4  2 >:  3.8766670619283e-6
< 2  -3  1 >:  -1.7336982153212131e-6
< 2  -2  0 >:  -8.025463273420901e-7
< 2  -1  -1 >:  2.621105329243681e-6
< 2  0  -2 >:  -3.2434523668967078e-6
< 2  1  -3 >:  2.537874322204071e-6
< 3  -4  1 >:  -3.0028533939278288e-6
< 3  -3  0 >:  3.677729293753935e-6
< 3  -2  -1 >:  -3.404915701679703e-6
< 3  -1  -2 >:  2.537874322204071e-6
< 3  0  -3 >:  -1.3900510143843037e-6
ctilde_basis_func: rank=3 ndens=1 mu0=0 mu=( 0  0  0 )
n=( 1  2  3 )
l=( 1  2  1 )
num_ms=9
< -1  0  1 >:  2.2383500943867697e-6
< -1  1  0 >:  -3.8769360886044755e-6
< -1  2  -1 >:  5.482815596958151e-6
< 0  -1  1 >:  -3.8769360886044755e-6
< 0  0  0 >:  4.476700188773539e-6
< 0  1  -1 >:  -3.8769360886044755e-6
< 1  -2  1 >:  5.48281559695815e-6
< 1  -1  0 >:  -3.8769360886044755e-6
< 1  0  -1 >:  2.2383500943867697e-6
ctilde_basis_func: rank=3 ndens=1 mu0=0 mu=( 0  0  0 )
n=( 1  2  6 )
l=( 2  1  3 )
num_ms=15
< -2  -1  3 >:  -7.822816268956465e-6
< -2  0  2 >:  4.516505078702998e-6
< -2  1  1 >:  -2.0198424753405883e-6
< -1  -1  2 >:  6.3873027368287425e-6
< -1  0  1 >:  -5.712977244967807e-6
< -1  1  0 >:  3.498469790575586e-6
< 0  -1  1 >:  -4.947583425384555e-6
< 0  0  0 >:  6.059527426021765e-6
< 0  1  -1 >:  -4.947583425384555e-6
< 1  -1  0 >:  3.498469790575586e-6
< 1  0  -1 >:  -5.712977244967807e-6
< 1  1  -2 >:  6.3873027368287425e-6
< 2  -1  -1 >:  -2.0198424753405883e-6
< 2  0  -2 >:  4.516505078702998e-6
< 2  1  -3 >:  -7.822816268956462e-6
ctilde_basis_func: rank=3 ndens=1 mu0=0 mu=( 0  0  0 )
n=( 1  1  6 )
l=( 2  3  1 )
num_ms=15
< -2  1  1 >:  -6.455434911755159e-7
< -2  2  0 >:  1.4434791287009891e-6
< -2  3  -1 >:  -2.5001791905753674e-6
< -1  0  1 >:  1.1181141252113847e-6
< -1  1  0 >:  -1.825872720644182e-6
< -1  2  -1 >:  2.041387760811437e-6
< 0  -1  1 >:  -1.581252160154869e-6
< 0  0  0 >:  1.9366304735265476e-6
< 0  1  -1 >:  -1.581252160154869e-6
< 1  -2  1 >:  2.041387760811437e-6
< 1  -1  0 >:  -1.825872720644182e-6
< 1  0  -1 >:  1.1181141252113847e-6
< 2  -3  1 >:  -2.500179190575368e-6
< 2  -2  0 >:  1.4434791287009891e-6
< 2  -1  -1 >:  -6.455434911755159e-7
ctilde_basis_func: rank=3 ndens=1 mu0=0 mu=( 0  0  0 )
n=( 2  3  7 )
l=( 2  1  1 )
num_ms=9
< -2  1  1 >:  7.055031274502125e-6
< -1  0  1 >:  -4.988660455683624e-6
< -1  1  0 >:  -4.988660455683624e-6
< 0  -1  1 >:  2.8802044569845784e-6
< 0  0  0 >:  5.760408913969163e-6
< 0  1  -1 >:  2.8802044569845814e-6
< 1  -1  0 >:  -4.988660455683624e-6
< 1  0  -1 >:  -4.988660455683624e-6
< 2  -1  -1 >:  7.055031274502125e-6
ctilde_basis_func: rank=3 ndens=1 mu0=0 mu=( 0  0  0 )
n=( 1  3  4 )
l=( 3  1  2 )
num_ms=15
< -3  1  2 >:  1.6035264558567085e-5
< -2  0  2 >:  -9.257964309415572e-6
< -2  1  1 >:  -1.3092738686341568e-5
< -1  -1  2 >:  4.140287505824019e-6
< -1  0  1 >:  1.1710501485720415e-5
< -1  1  0 >:  1.0141591777689292e-5
< 0  -1  1 >:  -7.171188318029833e-6
< 0  0  0 >:  -1.2420862517472073e-5
< 0  1  -1 >:  -7.171188318029833e-6
< 1  -1  0 >:  1.0141591777689292e-5
< 1  0  -1 >:  1.1710501485720415e-5
< 1  1  -2 >:  4.140287505824024e-6
< 2  -1  -1 >:  -1.3092738686341568e-5
< 2  0  -2 >:  -9.257964309415572e-6
< 3  -1  -2 >:  1.6035264558567085e-5
ctilde_basis_func: rank=3 ndens=1 mu0=0 mu=( 0  0  0 )
n=( 1  2  5 )
l=( 2  1  3 )
num_ms=15
< -2  -1  3 >:  -3.750164929789036e-6
< -2  0  2 >:  2.1651587317191936e-6
< -2  1  1 >:  -9.682884212402693e-7
< -1  -1  2 >:  3.061996843087813e-6
< -1  0  1 >:  -2.738733235213643e-6
< -1  1  0 >:  1.6771247419688018e-6
< 0  -1  1 >:  -2.371812555883757e-6
< 0  0  0 >:  2.9048652637208083e-6
< 0  1  -1 >:  -2.371812555883757e-6
< 1  -1  0 >:  1.6771247419688018e-6
< 1  0  -1 >:  -2.738733235213643e-6
< 1  1  -2 >:  3.061996843087813e-6
< 2  -1  -1 >:  -9.682884212402693e-7
< 2  0  -2 >:  2.1651587317191936e-6
< 2  1  -3 >:  -3.750164929789035e-6
ctilde_basis_func: rank=3 ndens=1 mu0=0 mu=( 0  0  0 )
n=( 2  2  2 )
l=( 0  3  3 )
num_ms=4
< 0  -3  3 >:  4.7513635779025744e-5
< 0  -2  2 >:  -4.7513635779025744e-5
< 0  -1  1 >:  4.7513635779025744e-5
< 0  0  0 >:  -2.3756817889512872e-5
ctilde_basis_func: rank=3 ndens=1 mu0=0 mu=( 0  0  0 )
n=( 1  3  4 )
l=( 1  2  3 )
num_ms=15
< -1  -2  3 >:  -1.5180471792029384e-5
< -1  -1  2 >:  1.239480331506178e-5
< -1  0  1 >:  -9.60097336375015e-6
< -1  1  0 >:  6.78891337149915e-6
< -1  2  -1 >:  -3.919580962540083e-6
< 0  -2  2 >:  8.764449475553685e-6
< 0  -1  1 >:  -1.1086249112087153e-5
< 0  0  0 >:  1.1758742887620252e-5
< 0  1  -1 >:  -1.1086249112087153e-5
< 0  2  -2 >:  8.764449475553685e-6
< 1  -2  1 >:  -3.919580962540083e-6
< 1  -1  0 >:  6.78891337149915e-6
< 1  0  -1 >:  -9.60097336375015e-6
< 1  1  -2 >:  1.239480331506178e-5
< 1  2  -3 >:  -1.5180471792029381e-5
ctilde_basis_func: rank=3 ndens=1 mu0=0 mu=( 0  0  0 )
n=( 1  1  3 )
l=( 2  4  2 )
num_ms=25
< -2  0  2 >:  -1.8970016747977476e-6
< -2  1  1 >:  4.241824698278713e-6
< -2  2  0 >:  -7.347055894219255e-6
< -2  3  -1 >:  1.1222813256777066e-5
< -2  4  -2 >:  -1.587145471571469e-5
< -1  -1  2 >:  4.241824698278713e-6
< -1  0  1 >:  -7.5880066991909906e-6
< -1  1  0 >:  1.0390306089118057e-5
< -1  2  -1 >:  -1.1997692035029834e-5
< -1  3  -2 >:  1.1222813256777066e-5
< 0  -2  2 >:  -7.347055894219255e-6
< 0  -1  1 >:  1.0390306089118057e-5
< 0  0  0 >:  -1.1382010048786485e-5
< 0  1  -1 >:  1.0390306089118057e-5
< 0  2  -2 >:  -7.347055894219255e-6
< 1  -3  2 >:  1.1222813256777066e-5
< 1  -2  1 >:  -1.1997692035029834e-5
< 1  -1  0 >:  1.0390306089118057e-5
< 1  0  -1 >:  -7.5880066991909906e-6
< 1  1  -2 >:  4.241824698278713e-6
< 2  -4  2 >:  -1.58714547157147e-5
< 2  -3  1 >:  1.1222813256777066e-5
< 2  -2  0 >:  -7.347055894219255e-6
< 2  -1  -1 >:  4.241824698278713e-6
< 2  0  -2 >:  -1.8970016747977476e-6
ctilde_basis_func: rank=3 ndens=1 mu0=0 mu=( 0  0  0 )
n=( 1  1  4 )
l=( 2  4  2 )
num_ms=25
< -2  0  2 >:  1.3346975143409526e-6
< -2  1  1 >:  -2.9844743714663707e-6
< -2  2  0 >:  5.169261245266945e-6
< -2  3  -1 >:  -7.89617698114582e-6
< -2  4  -2 >:  1.116688057763466e-5
< -1  -1  2 >:  -2.9844743714663707e-6
< -1  0  1 >:  5.33879005736381e-6
< -1  1  0 >:  -7.310439360506147e-6
< -1  2  -1 >:  8.441368265365318e-6
< -1  3  -2 >:  -7.89617698114582e-6
< 0  -2  2 >:  5.169261245266945e-6
< 0  -1  1 >:  -7.310439360506147e-6
< 0  0  0 >:  8.008185086045716e-6
< 0  1  -1 >:  -7.310439360506147e-6
< 0  2  -2 >:  5.169261245266945e-6
< 1  -3  2 >:  -7.89617698114582e-6
< 1  -2  1 >:  8.441368265365318e-6
< 1  -1  0 >:  -7.310439360506147e-6
< 1  0  -1 >:  5.33879005736381e-6
< 1  1  -2 >:  -2.9844743714663707e-6
< 2  -4  2 >:  1.1166880577634667e-5
< 2  -3  1 >:  -7.89617698114582e-6
< 2  -2  0 >:  5.169261245266945e-6
< 2  -1  -1 >:  -2.9844743714663707e-6
< 2  0  -2 >:  1.3346975143409526e-6
ctilde_basis_func: rank=3 ndens=1 mu0=0 mu=( 0  0  0 )
n=( 1  2  3 )
l=( 2  4  2 )
num_ms=25
< -2  0  2 >:  6.0268062419998255e-6
< -2  1  1 >:  -1.3476348444331661e-5
< -2  2  0 >:  2.3341720206084233e-5
< -2  3  -1 >:  -3.565506656495374e-5
< -2  4  -2 >:  5.042387870347306e-5
< -1  -1  2 >:  -1.3476348444331661e-5
< -1  0  1 >:  2.4107224967999302e-5
< -1  1  0 >:  -3.3010177284562435e-5
< -1  2  -1 >:  3.8116869482478785e-5
< -1  3  -2 >:  -3.565506656495374e-5
< 0  -2  2 >:  2.3341720206084233e-5
< 0  -1  1 >:  -3.3010177284562435e-5
< 0  0  0 >:  3.6160837451998955e-5
< 0  1  -1 >:  -3.3010177284562435e-5
< 0  2  -2 >:  2.3341720206084233e-5
< 1  -3  2 >:  -3.565506656495374e-5
< 1  -2  1 >:  3.8116869482478785e-5
< 1  -1  0 >:  -3.3010177284562435e-5
< 1  0  -1 >:  2.4107224967999302e-5
< 1  1  -2 >:  -1.3476348444331661e-5
< 2  -4  2 >:  5.04238787034731e-5
< 2  -3  1 >:  -3.565506656495374e-5
< 2  -2  0 >:  2.3341720206084233e-5
< 2  -1  -1 >:  -1.3476348444331661e-5
< 2  0  -2 >:  6.0268062419998255e-6
ctilde_basis_func: rank=3 ndens=1 mu0=0 mu=( 0  0  0 )
n=( 1  2  3 )
l=( 1  3  4 )
num_ms=21
< -1  -3  4 >:  -1.0153857510035878e-5
< -1  -2  3 >:  8.793498550098474e-6
< -1  -1  2 >:  -7.4318627135647665e-6
< -1  0  1 >:  6.068090495549883e-6
< -1  1  0 >:  -4.700322686508842e-6
< -1  2  -1 >:  3.323630045395373e-6
< -1  3  -2 >:  -1.918898701395747e-6
< 0  -3  3 >:  5.076928755017937e-6
< 0  -2  2 >:  -6.647260090790746e-6
< 0  -1  1 >:  7.4318627135647665e-6
< 0  0  0 >:  -7.675594805582989e-6
< 0  1  -1 >:  7.4318627135647665e-6
< 0  2  -2 >:  -6.647260090790746e-6
< 0  3  -3 >:  5.076928755017937e-6
< 1  -3  2 >:  -1.918898701395747e-6
< 1  -2  1 >:  3.323630045395373e-6
< 1  -1  0 >:  -4.700322686508842e-6
< 1  0  -1 >:  6.068090495549883e-6
< 1  1  -2 >:  -7.4318627135647665e-6
< 1  2  -3 >:  8.793498550098474e-6
< 1  3  -4 >:  -1.0153857510035873e-5
ctilde_basis_func: rank=3 ndens=1 mu0=0 mu=( 0  0  0 )
n=( 1  2  4 )
l=( 3  4  1 )
num_ms=21
< -3  2  1 >:  2.610704195141221e-6
< -3  3  0 >:  -6.907274047096712e-6
< -3  4  -1 >:  1.3814548094193424e-5
< -2  1  1 >:  -4.5218723095178074e-6
< -2  2  0 >:  9.043744619035615e-6
< -2  3  -1 >:  -1.1963749591373405e-5
< -1  0  1 >:  6.394893147439432e-6
< -1  1  0 >:  -1.0111213869655786e-5
< -1  2  -1 >:  1.0111213869655786e-5
< 0  -1  1 >:  -8.255771553602954e-6
< 0  0  0 >:  1.0442816780564884e-5
< 0  1  -1 >:  -8.255771553602954e-6
< 1  -2  1 >:  1.0111213869655786e-5
< 1  -1  0 >:  -1.0111213869655786e-5
< 1  0  -1 >:  6.394893147439432e-6
< 2  -3  1 >:  -1.1963749591373405e-5
< 2  -2  0 >:  9.043744619035615e-6
< 2  -1  -1 >:  -4.5218723095178074e-6
< 3  -4  1 >:  1.381454809419343e-5
< 3  -3  0 >:  -6.907274047096712e-6
< 3  -2  -1 >:  2.610704195141221e-6
ctilde_basis_func: rank=3 ndens=1 mu0=0 mu=( 0  0  0 )
n=( 1  2  5 )
l=( 1  2  3 )
num_ms=15
< -1  -2  3 >:  -7.507423730779745e-6
< -1  -1  2 >:  6.129785807757333e-6
< -1  0  1 >:  -4.748111669852546e-6
< -1  1  0 >:  3.3574219595837175e-6
< -1  2  -1 >:  -1.93840847214882e-6
< 0  -2  2 >:  4.33441311188627e-6
< 0  -1  1 >:  -5.482647101463542e-6
< 0  0  0 >:  5.81522541644646e-6
< 0  1  -1 >:  -5.482647101463542e-6
< 0  2  -2 >:  4.33441311188627e-6
< 1  -2  1 >:  -1.93840847214882e-6
< 1  -1  0 >:  3.3574219595837175e-6
< 1  0  -1 >:  -4.748111669852546e-6
< 1  1  -2 >:  6.129785807757333e-6
< 1  2  -3 >:  -7.5074237307797444e-6
ctilde_basis_func: rank=3 ndens=1 mu0=0 mu=( 0  0  0 )
n=( 1  2  4 )
l=( 4  2  2 )
num_ms=25
< -4  2  2 >:  2.6433532148266803e-5
< -3  1  2 >:  -1.869132983275206e-5
< -3  2  1 >:  -1.869132983275206e-5
< -2  0  2 >:  1.2236347685424657e-5
< -2  1  1 >:  1.9981872096384248e-5
< -2  2  0 >:  1.2236347685424657e-5
< -1  -1  2 >:  -7.064658630077781e-6
< -1  0  1 >:  -1.7304808850640182e-5
< -1  1  0 >:  -1.7304808850640182e-5
< -1  2  -1 >:  -7.064658630077781e-6
< 0  -2  2 >:  3.159411386936885e-6
< 0  -1  1 >:  1.2637645547747566e-5
< 0  0  0 >:  1.8956468321621347e-5
< 0  1  -1 >:  1.2637645547747566e-5
< 0  2  -2 >:  3.1594113869368915e-6
< 1  -2  1 >:  -7.064658630077781e-6
< 1  -1  0 >:  -1.7304808850640182e-5
< 1  0  -1 >:  -1.7304808850640182e-5
< 1  1  -2 >:  -7.064658630077781e-6
< 2  -2  0 >:  1.2236347685424657e-5
< 2  -1  -1 >:  1.9981872096384248e-5
< 2  0  -2 >:  1.2236347685424657e-5
< 3  -2  -1 >:  -1.869132983275206e-5
< 3  -1  -2 >:  -1.869132983275206e-5
< 4  -2  -2 >:  2.6433532148266803e-5
ctilde_basis_func: rank=3 ndens=1 mu0=0 mu=( 0  0  0 )
n=( 1  2  8 )
l=( 2  0  2 )
num_ms=5
< -2  0  2 >:  6.7386947520022395e-6
< -1  0  1 >:  -6.7386947520022395e-6
< 0  0  0 >:  6.7386947520022395e-6
< 1  0  -1 >:  -6.7386947520022395e-6
< 2  0  -2 >:  6.7386947520022395e-6
ctilde_basis_func: rank=3 ndens=1 mu0=0 mu=( 0  0  0 )
n=( 1  2  5 )
l=( 1  2  1 )
num_ms=9
< -1  0  1 >:  -2.0796958399556497e-6
< -1  1  0 >:  3.6021388590928164e-6
< -1  2  -1 >:  -5.09419362808021e-6
< 0  -1  1 >:  3.6021388590928164e-6
< 0  0  0 >:  -4.159391679911299e-6
< 0  1  -1 >:  3.6021388590928164e-6
< 1  -2  1 >:  -5.0941936280802086e-6
< 1  -1  0 >:  3.6021388590928164e-6
< 1  0  -1 >:  -2.0796958399556497e-6
ctilde_basis_func: rank=3 ndens=1 mu0=0 mu=( 0  0  0 )
n=( 1  3  6 )
l=( 1  3  2 )
num_ms=15
< -1  -1  2 >:  1.1654776581549193e-6
< -1  0  1 >:  -2.018666519010712e-6
< -1  1  0 >:  2.8548255690934337e-6
< -1  2  -1 >:  -3.6855639618086606e-6
< -1  3  -2 >:  4.513875560410823e-6
< 0  -2  2 >:  -2.606087269891662e-6
< 0  -1  1 >:  3.2964686216110416e-6
< 0  0  0 >:  -3.496432974464758e-6
< 0  1  -1 >:  3.2964686216110416e-6
< 0  2  -2 >:  -2.606087269891662e-6
< 1  -3  2 >:  4.513875560410825e-6
< 1  -2  1 >:  -3.6855639618086606e-6
< 1  -1  0 >:  2.8548255690934337e-6
< 1  0  -1 >:  -2.018666519010712e-6
< 1  1  -2 >:  1.1654776581549193e-6
ctilde_basis_func: rank=3 ndens=1 mu0=0 mu=( 0  0  0 )
n=( 1  4  5 )
l=( 3  1  2 )
num_ms=15
< -3  1  2 >:  -1.064108551811878e-5
< -2  0  2 >:  6.143633588355706e-6
< -2  1  1 >:  8.688409942903525e-6
< -1  -1  2 >:  -2.747516466482861e-6
< -1  0  1 >:  -7.771150099486938e-6
< -1  1  0 >:  -6.730013402777656e-6
< 0  -1  1 >:  4.758838114580433e-6
< 0  0  0 >:  8.242549399448593e-6
< 0  1  -1 >:  4.758838114580433e-6
< 1  -1  0 >:  -6.730013402777656e-6
< 1  0  -1 >:  -7.771150099486938e-6
< 1  1  -2 >:  -2.747516466482864e-6
< 2  -1  -1 >:  8.688409942903525e-6
< 2  0  -2 >:  6.143633588355706e-6
< 3  -1  -2 >:  -1.064108551811878e-5
ctilde_basis_func: rank=3 ndens=1 mu0=0 mu=( 0  0  0 )
n=( 1  3  3 )
l=( 4  0  4 )
num_ms=9
< -4  0  4 >:  -1.6392454841682986e-5
< -3  0  3 >:  1.6392454841682986e-5
< -2  0  2 >:  -1.6392454841682986e-5
< -1  0  1 >:  1.6392454841682986e-5
< 0  0  0 >:  -1.6392454841682986e-5
< 1  0  -1 >:  1.6392454841682986e-5
< 2  0  -2 >:  -1.6392454841682986e-5
< 3  0  -3 >:  1.6392454841682986e-5
< 4  0  -4 >:  -1.6392454841682986e-5
ctilde_basis_func: rank=3 ndens=1 mu0=0 mu=( 0  0  0 )
n=( 1  1  4 )
l=( 3  3  2 )
num_ms=15
< -3  1  2 >:  0.00013228646444292914
< -3  2  1 >:  -0.0002091632656252668
< -3  3  0 >:  0.0002091632656252668
< -2  0  2 >:  -0.00018708131213357666
< -2  1  1 >:  0.00016201716888100332
< -2  3  -1 >:  -0.0002091632656252668
< -1  -1  2 >:  0.00010246865474322486
< -1  0  1 >:  -5.9160305399499685e-5
< -1  1  0 >:  -0.0001254979593751601
< -1  2  -1 >:  0.00016201716888100332
< -1  3  -2 >:  0.00013228646444292917
< 0  0  0 >:  8.366530625010673e-5
< 0  1  -1 >:  -5.9160305399499685e-5
< 0  2  -2 >:  -0.00018708131213357666
< 1  1  -2 >:  0.00010246865474322486
ctilde_basis_func: rank=3 ndens=1 mu0=0 mu=( 0  0  0 )
n=( 1  2  3 )
l=( 3  3  2 )
num_ms=27
< -3  1  2 >:  -2.414273575089067e-5
< -3  2  1 >:  3.8173016960195017e-5
< -3  3  0 >:  -3.8173016960195017e-5
< -2  0  2 >:  3.4142984331699374e-5
< -2  1  1 >:  -2.9568691792265714e-5
< -2  3  -1 >:  3.8173016960195017e-5
< -1  -1  2 >:  -3.74017653980344e-5
< -1  0  1 >:  1.0796959660361192e-5
< -1  1  0 >:  2.290381017611701e-5
< -1  2  -1 >:  -2.9568691792265714e-5
< -1  3  -2 >:  -2.414273575089067e-5
< 0  -2  2 >:  3.4142984331699374e-5
< 0  -1  1 >:  1.0796959660361192e-5
< 0  0  0 >:  -3.053841356815602e-5
< 0  1  -1 >:  1.0796959660361192e-5
< 0  2  -2 >:  3.4142984331699374e-5
< 1  -3  2 >:  -2.414273575089066e-5
< 1  -2  1 >:  -2.9568691792265714e-5
< 1  -1  0 >:  2.290381017611701e-5
< 1  0  -1 >:  1.0796959660361192e-5
< 1  1  -2 >:  -3.74017653980344e-5
< 2  -3  1 >:  3.8173016960195017e-5
< 2  -1  -1 >:  -2.9568691792265714e-5
< 2  0  -2 >:  3.4142984331699374e-5
< 3  -3  0 >:  -3.8173016960195017e-5
< 3  -2  -1 >:  3.8173016960195017e-5
< 3  -1  -2 >:  -2.414273575089067e-5
ctilde_basis_func: rank=3 ndens=1 mu0=0 mu=( 0  0  0 )
n=( 2  6  6 )
l=( 1  0  1 )
num_ms=3
< -1  0  1 >:  -9.357211104759657e-7
< 0  0  0 >:  9.357211104759657e-7
< 1  0  -1 >:  -9.357211104759657e-7
ctilde_basis_func: rank=3 ndens=1 mu0=0 mu=( 0  0  0 )
n=( 1  2  4 )
l=( 2  3  3 )
num_ms=27
< -2  -1  3 >:  -1.9142435899006896e-5
< -2  0  2 >:  2.707149246523316e-5
< -2  1  1 >:  -2.9655334177078682e-5
< -2  2  0 >:  2.707149246523316e-5
< -2  3  -1 >:  -1.9142435899006896e-5
< -1  -2  3 >:  3.0266848702317352e-5
< -1  -1  2 >:  -2.3444600193250935e-5
< -1  0  1 >:  8.560757585022343e-6
< -1  1  0 >:  8.560757585022343e-6
< -1  2  -1 >:  -2.3444600193250935e-5
< -1  3  -2 >:  3.0266848702317352e-5
< 0  -3  3 >:  -3.0266848702317366e-5
< 0  -1  1 >:  1.8160109221390415e-5
< 0  0  0 >:  -2.4213478961853885e-5
< 0  1  -1 >:  1.8160109221390415e-5
< 0  3  -3 >:  -3.0266848702317352e-5
< 1  -3  2 >:  3.0266848702317352e-5
< 1  -2  1 >:  -2.3444600193250935e-5
< 1  -1  0 >:  8.560757585022343e-6
< 1  0  -1 >:  8.560757585022343e-6
< 1  1  -2 >:  -2.3444600193250935e-5
< 1  2  -3 >:  3.0266848702317352e-5
< 2  -3  1 >:  -1.9142435899006896e-5
< 2  -2  0 >:  2.707149246523316e-5
< 2  -1  -1 >:  -2.9655334177078682e-5
< 2  0  -2 >:  2.707149246523316e-5
< 2  1  -3 >:  -1.9142435899006896e-5
ctilde_basis_func: rank=3 ndens=1 mu0=0 mu=( 0  0  0 )
n=( 1  1  5 )
l=( 1  3  4 )
num_ms=21
< -1  -3  4 >:  8.31726383757038e-6
< -1  -2  3 >:  -7.202961773313596e-6
< -1  -1  2 >:  6.087613789362846e-6
< -1  0  1 >:  -4.970515845023241e-6
< -1  1  0 >:  3.85014501796702e-6
< -1  2  -1 >:  -2.7224636507560813e-6
< -1  3  -2 >:  1.5718151216229955e-6
< 0  -3  3 >:  -4.158631918785187e-6
< 0  -2  2 >:  5.444927301512163e-6
< 0  -1  1 >:  -6.087613789362846e-6
< 0  0  0 >:  6.287260486491982e-6
< 0  1  -1 >:  -6.087613789362846e-6
< 0  2  -2 >:  5.444927301512163e-6
< 0  3  -3 >:  -4.158631918785187e-6
< 1  -3  2 >:  1.5718151216229955e-6
< 1  -2  1 >:  -2.7224636507560813e-6
< 1  -1  0 >:  3.85014501796702e-6
< 1  0  -1 >:  -4.970515845023241e-6
< 1  1  -2 >:  6.087613789362846e-6
< 1  2  -3 >:  -7.202961773313596e-6
< 1  3  -4 >:  8.317263837570374e-6
ctilde_basis_func: rank=3 ndens=1 mu0=0 mu=( 0  0  0 )
n=( 1  2  4 )
l=( 1  1  2 )
num_ms=9
< -1  -1  2 >:  2.2609283119299038e-5
< -1  0  1 >:  -1.598717741142289e-5
< -1  1  0 >:  9.23020118206731e-6
< 0  -1  1 >:  -1.598717741142289e-5
< 0  0  0 >:  1.846040236413462e-5
< 0  1  -1 >:  -1.598717741142289e-5
< 1  -1  0 >:  9.23020118206731e-6
< 1  0  -1 >:  -1.598717741142289e-5
< 1  1  -2 >:  2.2609283119299038e-5
ctilde_basis_func: rank=3 ndens=1 mu0=0 mu=( 0  0  0 )
n=( 1  1  3 )
l=( 3  4  1 )
num_ms=21
< -3  2  1 >:  2.658490391818418e-6
< -3  3  0 >:  -7.033704439606196e-6
< -3  4  -1 >:  1.4067408879212392e-5
< -2  1  1 >:  -4.6046404300631915e-6
< -2  2  0 >:  9.209280860126383e-6
< -2  3  -1 >:  -1.2182733454820709e-5
< -1  0  1 >:  6.511944946046847e-6
< -1  1  0 >:  -1.0296289013565161e-5
< -1  2  -1 >:  1.0296289013565161e-5
< 0  -1  1 >:  -8.406884775819666e-6
< 0  0  0 >:  1.0633961567273672e-5
< 0  1  -1 >:  -8.406884775819666e-6
< 1  -2  1 >:  1.0296289013565161e-5
< 1  -1  0 >:  -1.0296289013565161e-5
< 1  0  -1 >:  6.511944946046847e-6
< 2  -3  1 >:  -1.2182733454820709e-5
< 2  -2  0 >:  9.209280860126383e-6
< 2  -1  -1 >:  -4.6046404300631915e-6
< 3  -4  1 >:  1.40674088792124e-5
< 3  -3  0 >:  -7.033704439606196e-6
< 3  -2  -1 >:  2.658490391818418e-6
ctilde_basis_func: rank=3 ndens=1 mu0=0 mu=( 0  0  0 )
n=( 1  2  4 )
l=( 2  2  4 )
num_ms=25
< -2  -2  4 >:  -2.5609843325108993e-5
< -2  -1  3 >:  1.8108893880309602e-5
< -2  0  2 >:  -1.1855053851205905e-5
< -2  1  1 >:  6.844518532251239e-6
< -2  2  0 >:  -3.060961742274171e-6
< -1  -2  3 >:  1.8108893880309602e-5
< -1  -1  2 >:  -1.9359221872447385e-5
< -1  0  1 >:  1.6765577939038782e-5
< -1  1  0 >:  -1.2243846969096684e-5
< -1  2  -1 >:  6.844518532251239e-6
< 0  -2  2 >:  -1.1855053851205905e-5
< 0  -1  1 >:  1.6765577939038782e-5
< 0  0  0 >:  -1.8365770453645026e-5
< 0  1  -1 >:  1.6765577939038782e-5
< 0  2  -2 >:  -1.1855053851205905e-5
< 1  -2  1 >:  6.844518532251239e-6
< 1  -1  0 >:  -1.2243846969096684e-5
< 1  0  -1 >:  1.6765577939038782e-5
< 1  1  -2 >:  -1.9359221872447385e-5
< 1  2  -3 >:  1.8108893880309602e-5
< 2  -2  0 >:  -3.060961742274171e-6
< 2  -1  -1 >:  6.844518532251239e-6
< 2  0  -2 >:  -1.1855053851205905e-5
< 2  1  -3 >:  1.8108893880309602e-5
< 2  2  -4 >:  -2.560984332510898e-5
ctilde_basis_func: rank=3 ndens=1 mu0=0 mu=( 0  0  0 )
n=( 2  2  3 )
l=( 2  2  4 )
num_ms=15
< -2  -2  4 >:  3.054163064272488e-5
< -2  -1  3 >:  -4.319238827193122e-5
< -2  0  2 >:  2.8276055528863956e-5
< -2  1  1 >:  -1.632518827121041e-5
< -2  2  0 >:  7.30084614398175e-6
< -1  -1  2 >:  2.3087302661439945e-5
< -1  0  1 >:  -3.998838121933414e-5
< -1  1  0 >:  2.9203384575927e-5
< -1  2  -1 >:  -1.632518827121041e-5
< 0  0  0 >:  2.190253843194525e-5
< 0  1  -1 >:  -3.998838121933414e-5
< 0  2  -2 >:  2.8276055528863956e-5
< 1  1  -2 >:  2.3087302661439945e-5
< 1  2  -3 >:  -4.319238827193122e-5
< 2  2  -4 >:  3.0541630642724875e-5
ctilde_basis_func: rank=3 ndens=1 mu0=0 mu=( 0  0  0 )
n=( 1  2  2 )
l=( 4  1  3 )
num_ms=21
< -4  1  3 >:  1.4811306156133286e-5
< -3  0  3 >:  -7.405653078066643e-6
< -3  1  2 >:  -1.2826967394440271e-5
< -2  -1  3 >:  2.7990737629406245e-6
< -2  0  2 >:  9.696275943092317e-6
< -2  1  1 >:  1.0840766068675151e-5
< -1  -1  2 >:  -4.848137971546158e-6
< -1  0  1 >:  -1.0840766068675151e-5
< -1  1  0 >:  -8.851448429710566e-6
< 0  -1  1 >:  6.856302471616561e-6
< 0  0  0 >:  1.1196295051762484e-5
< 0  1  -1 >:  6.856302471616561e-6
< 1  -1  0 >:  -8.851448429710566e-6
< 1  0  -1 >:  -1.0840766068675151e-5
< 1  1  -2 >:  -4.848137971546158e-6
< 2  -1  -1 >:  1.0840766068675151e-5
< 2  0  -2 >:  9.696275943092317e-6
< 2  1  -3 >:  2.799073762940621e-6
< 3  -1  -2 >:  -1.2826967394440271e-5
< 3  0  -3 >:  -7.405653078066643e-6
< 4  -1  -3 >:  1.4811306156133286e-5
ctilde_basis_func: rank=3 ndens=1 mu0=0 mu=( 0  0  0 )
n=( 3  4  5 )
l=( 0  0  0 )
num_ms=1
< 0  0  0 >:  -6.730554852998914e-6
ctilde_basis_func: rank=3 ndens=1 mu0=0 mu=( 0  0  0 )
n=( 1  2  3 )
l=( 4  4  0 )
num_ms=9
< -4  4  0 >:  1.4440269735234498e-5
< -3  3  0 >:  -1.4440269735234498e-5
< -2  2  0 >:  1.4440269735234498e-5
< -1  1  0 >:  -1.4440269735234498e-5
< 0  0  0 >:  1.4440269735234498e-5
< 1  -1  0 >:  -1.4440269735234498e-5
< 2  -2  0 >:  1.4440269735234498e-5
< 3  -3  0 >:  -1.4440269735234498e-5
< 4  -4  0 >:  1.4440269735234502e-5
ctilde_basis_func: rank=3 ndens=1 mu0=0 mu=( 0  0  0 )
n=( 1  1  2 )
l=( 2  4  4 )
num_ms=39
< -2  -2  4 >:  -2.1256953401142296e-5
< -2  -1  3 >:  3.1885430101713444e-5
< -2  0  2 >:  -3.8110378278499974e-5
< -2  1  1 >:  4.017186595022224e-5
< -2  2  0 >:  -3.8110378278499974e-5
< -2  3  -1 >:  3.1885430101713444e-5
< -2  4  -2 >:  -2.1256953401142296e-5
< -1  -3  4 >:  3.976811835684677e-5
< -1  -2  3 >:  -3.757733974328541e-5
< -1  -1  2 >:  2.55652189436872e-5
< -1  0  1 >:  -8.982702304770611e-6
< -1  1  0 >:  -8.982702304770611e-6
< -1  2  -1 >:  2.55652189436872e-5
< -1  3  -2 >:  -3.757733974328541e-5
< -1  4  -3 >:  3.976811835684677e-5
< 0  -4  4 >:  -4.592026767698071e-5
< 0  -3  3 >:  1.148006691924519e-5
< 0  -2  2 >:  1.3120076479137356e-5
< 0  -1  1 >:  -2.788016251816688e-5
< 0  0  0 >:  3.2800191197843397e-5
< 0  1  -1 >:  -2.788016251816688e-5
< 0  2  -2 >:  1.3120076479137356e-5
< 0  3  -3 >:  1.148006691924519e-5
< 0  4  -4 >:  -4.592026767698076e-5
< 1  -4  3 >:  3.976811835684677e-5
< 1  -3  2 >:  -3.757733974328541e-5
< 1  -2  1 >:  2.55652189436872e-5
< 1  -1  0 >:  -8.982702304770611e-6
< 1  0  -1 >:  -8.982702304770611e-6
< 1  1  -2 >:  2.55652189436872e-5
< 1  2  -3 >:  -3.757733974328541e-5
< 1  3  -4 >:  3.976811835684677e-5
< 2  -4  2 >:  -2.1256953401142296e-5
< 2  -3  1 >:  3.1885430101713444e-5
< 2  -2  0 >:  -3.8110378278499974e-5
< 2  -1  -1 >:  4.017186595022224e-5
< 2  0  -2 >:  -3.8110378278499974e-5
< 2  1  -3 >:  3.1885430101713444e-5
< 2  2  -4 >:  -2.1256953401142296e-5
ctilde_basis_func: rank=3 ndens=1 mu0=0 mu=( 0  0  0 )
n=( 1  1  3 )
l=( 3  3  4 )
num_ms=24
< -3  -1  4 >:  3.4146253395310046e-5
< -3  0  3 >:  -4.182044872314363e-5
< -3  1  2 >:  3.8718212009393715e-5
< -3  2  1 >:  -2.8858851340084357e-5
< -3  3  0 >:  1.5806643862652397e-5
< -2  -2  4 >:  -2.204131178923573e-5
< -2  -1  3 >:  1.971434858959944e-5
< -2  0  2 >:  9.125970089086905e-6
< -2  1  1 >:  -2.980529350155262e-5
< -2  2  0 >:  3.688216901285558e-5
< -2  3  -1 >:  -2.8858851340084357e-5
< -1  -1  2 >:  -1.6661665589701096e-5
< -1  0  1 >:  2.0406289479828133e-5
< -1  1  0 >:  5.268881287550798e-6
< -1  2  -1 >:  -2.980529350155262e-5
< -1  3  -2 >:  3.8718212009393715e-5
< 0  0  0 >:  -1.5806643862652397e-5
< 0  1  -1 >:  2.0406289479828133e-5
< 0  2  -2 >:  9.125970089086905e-6
< 0  3  -3 >:  -4.182044872314363e-5
< 1  1  -2 >:  -1.6661665589701096e-5
< 1  2  -3 >:  1.971434858959944e-5
< 1  3  -4 >:  3.4146253395310067e-5
< 2  2  -4 >:  -2.204131178923573e-5
ctilde_basis_func: rank=3 ndens=1 mu0=0 mu=( 0  0  0 )
n=( 1  4  5 )
l=( 3  3  0 )
num_ms=7
< -3  3  0 >:  -1.639400025977831e-6
< -2  2  0 >:  1.639400025977831e-6
< -1  1  0 >:  -1.639400025977831e-6
< 0  0  0 >:  1.639400025977831e-6
< 1  -1  0 >:  -1.639400025977831e-6
< 2  -2  0 >:  1.639400025977831e-6
< 3  -3  0 >:  -1.639400025977831e-6
ctilde_basis_func: rank=3 ndens=1 mu0=0 mu=( 0  0  0 )
n=( 1  2  8 )
l=( 2  1  1 )
num_ms=9
< -2  1  1 >:  7.342012077802422e-6
< -1  0  1 >:  -5.1915865277676265e-6
< -1  1  0 >:  -5.1915865277676265e-6
< 0  -1  1 >:  2.9973638793278706e-6
< 0  0  0 >:  5.994727758655748e-6
< 0  1  -1 >:  2.997363879327874e-6
< 1  -1  0 >:  -5.1915865277676265e-6
< 1  0  -1 >:  -5.1915865277676265e-6
< 2  -1  -1 >:  7.342012077802422e-6
ctilde_basis_func: rank=3 ndens=1 mu0=0 mu=( 0  0  0 )
n=( 1  5  6 )
l=( 1  2  1 )
num_ms=9
< -1  0  1 >:  -1.8901493500287745e-6
< -1  1  0 >:  3.273834708143127e-6
< -1  2  -1 >:  -4.6299014452237755e-6
< 0  -1  1 >:  3.273834708143127e-6
< 0  0  0 >:  -3.780298700057549e-6
< 0  1  -1 >:  3.273834708143127e-6
< 1  -2  1 >:  -4.629901445223774e-6
< 1  -1  0 >:  3.273834708143127e-6
< 1  0  -1 >:  -1.8901493500287745e-6
ctilde_basis_func: rank=3 ndens=1 mu0=0 mu=( 0  0  0 )
n=( 2  4  4 )
l=( 0  1  1 )
num_ms=2
< 0  -1  1 >:  -2.9355194267183536e-5
< 0  0  0 >:  1.4677597133591763e-5
ctilde_basis_func: rank=3 ndens=1 mu0=0 mu=( 0  0  0 )
n=( 1  2  3 )
l=( 1  2  3 )
num_ms=15
< -1  -2  3 >:  -3.474511364554633e-5
< -1  -1  2 >:  2.8369266495533854e-5
< -1  0  1 >:  -2.197473933626453e-5
< -1  1  0 >:  1.5538487199479425e-5
< -1  2  -1 >:  -8.971149767418998e-6
< 0  -2  2 >:  2.006010071628031e-5
< 0  -1  1 >:  -2.5374243342328372e-5
< 0  0  0 >:  2.6913449302256998e-5
< 0  1  -1 >:  -2.5374243342328372e-5
< 0  2  -2 >:  2.006010071628031e-5
< 1  -2  1 >:  -8.971149767418998e-6
< 1  -1  0 >:  1.5538487199479425e-5
< 1  0  -1 >:  -2.197473933626453e-5
< 1  1  -2 >:  2.8369266495533854e-5
< 1  2  -3 >:  -3.474511364554632e-5
ctilde_basis_func: rank=3 ndens=1 mu0=0 mu=( 0  0  0 )
n=( 2  4  4 )
l=( 1  0  1 )
num_ms=3
< -1  0  1 >:  -1.6119057108902153e-6
< 0  0  0 >:  1.6119057108902153e-6
< 1  0  -1 >:  -1.6119057108902153e-6
ctilde_basis_func: rank=3 ndens=1 mu0=0 mu=( 0  0  0 )
n=( 1  2  3 )
l=( 3  2  3 )
num_ms=27
< -3  0  3 >:  2.337802160826948e-5
< -3  1  2 >:  -2.337802160826948e-5
< -3  2  1 >:  1.478555909415285e-5
< -2  -1  3 >:  -2.337802160826948e-5
< -2  1  1 >:  1.810853767122097e-5
< -2  2  0 >:  -2.090993819821981e-5
< -1  -2  3 >:  1.4785559094152854e-5
< -1  -1  2 >:  1.810853767122097e-5
< -1  0  1 >:  -1.402681296496169e-5
< -1  1  0 >:  -6.612303043973195e-6
< -1  2  -1 >:  2.2905689654407836e-5
< 0  -2  2 >:  -2.090993819821981e-5
< 0  -1  1 >:  -6.612303043973195e-6
< 0  0  0 >:  1.870241728661559e-5
< 0  1  -1 >:  -6.612303043973195e-6
< 0  2  -2 >:  -2.090993819821981e-5
< 1  -2  1 >:  2.2905689654407836e-5
< 1  -1  0 >:  -6.612303043973195e-6
< 1  0  -1 >:  -1.402681296496169e-5
< 1  1  -2 >:  1.810853767122097e-5
< 1  2  -3 >:  1.478555909415285e-5
< 2  -2  0 >:  -2.090993819821981e-5
< 2  -1  -1 >:  1.810853767122097e-5
< 2  1  -3 >:  -2.337802160826948e-5
< 3  -2  -1 >:  1.478555909415285e-5
< 3  -1  -2 >:  -2.337802160826948e-5
< 3  0  -3 >:  2.337802160826948e-5
ctilde_basis_func: rank=3 ndens=1 mu0=0 mu=( 0  0  0 )
n=( 1  2  8 )
l=( 0  2  2 )
num_ms=5
< 0  -2  2 >:  4.693600989351191e-7
< 0  -1  1 >:  -4.693600989351189e-7
< 0  0  0 >:  4.693600989351189e-7
< 0  1  -1 >:  -4.693600989351189e-7
< 0  2  -2 >:  4.693600989351189e-7
ctilde_basis_func: rank=3 ndens=1 mu0=0 mu=( 0  0  0 )
n=( 1  2  3 )
l=( 3  1  4 )
num_ms=21
< -3  -1  4 >:  -3.973238460710428e-5
< -3  0  3 >:  1.9866192303552123e-5
< -3  1  2 >:  -7.508714904712047e-6
< -2  -1  3 >:  3.440925442268608e-5
< -2  0  2 >:  -2.601095142902193e-5
< -2  1  1 >:  1.3005475714510964e-5
< -1  -1  2 >:  -2.908112777736917e-5
< -1  0  1 >:  2.908112777736917e-5
< -1  1  0 >:  -1.8392520140575328e-5
< 0  -1  1 >:  2.3744641399744245e-5
< 0  0  0 >:  -3.0034859618848187e-5
< 0  1  -1 >:  2.3744641399744245e-5
< 1  -1  0 >:  -1.8392520140575328e-5
< 1  0  -1 >:  2.908112777736917e-5
< 1  1  -2 >:  -2.908112777736917e-5
< 2  -1  -1 >:  1.3005475714510964e-5
< 2  0  -2 >:  -2.601095142902193e-5
< 2  1  -3 >:  3.440925442268608e-5
< 3  -1  -2 >:  -7.508714904712047e-6
< 3  0  -3 >:  1.9866192303552123e-5
< 3  1  -4 >:  -3.973238460710425e-5
ctilde_basis_func: rank=3 ndens=1 mu0=0 mu=( 0  0  0 )
n=( 1  1  2 )
l=( 4  5  1 )
num_ms=27
< -4  3  1 >:  1.4045366904972782e-6
< -4  4  0 >:  -4.213610071491834e-6
< -4  5  -1 >:  9.421918550533492e-6
< -3  2  1 >:  -2.432728909035929e-6
< -3  3  0 >:  5.618146761989113e-6
< -3  4  -1 >:  -8.427220142983669e-6
< -2  1  1 >:  3.4403982167357146e-6
< -2  2  0 >:  -6.43639570054654e-6
< -2  3  -1 >:  7.4321095806429895e-6
< -1  0  1 >:  -4.441534999246372e-6
< -1  1  0 >:  6.880796433471429e-6
< -1  2  -1 >:  -6.43639570054654e-6
< 0  -1  1 >:  5.4397472114332404e-6
< 0  0  0 >:  -7.02268345248639e-6
< 0  1  -1 >:  5.4397472114332404e-6
< 1  -2  1 >:  -6.43639570054654e-6
< 1  -1  0 >:  6.880796433471429e-6
< 1  0  -1 >:  -4.441534999246372e-6
< 2  -3  1 >:  7.4321095806429895e-6
< 2  -2  0 >:  -6.43639570054654e-6
< 2  -1  -1 >:  3.4403982167357146e-6
< 3  -4  1 >:  -8.427220142983669e-6
< 3  -3  0 >:  5.618146761989113e-6
< 3  -2  -1 >:  -2.432728909035929e-6
< 4  -5  1 >:  9.421918550533489e-6
< 4  -4  0 >:  -4.213610071491834e-6
< 4  -3  -1 >:  1.4045366904972782e-6
ctilde_basis_func: rank=3 ndens=1 mu0=0 mu=( 0  0  0 )
n=( 1  1  1 )
l=( 2  2  2 )
num_ms=5
< -2  0  2 >:  0.00010901425234997819
< -2  1  1 >:  -6.675732323711216e-5
< -1  -1  2 >:  -6.675732323711216e-5
< -1  0  1 >:  5.450712617498911e-5
< 0  0  0 >:  -1.81690420583297e-5
ctilde_basis_func: rank=3 ndens=1 mu0=0 mu=( 0  0  0 )
n=( 1  4  4 )
l=( 1  2  3 )
num_ms=15
< -1  -2  3 >:  7.59959370672573e-6
< -1  -1  2 >:  -6.2050422779814205e-6
< -1  0  1 >:  4.8064050810269945e-6
< -1  1  0 >:  -3.398641625923666e-6
< -1  2  -1 >:  1.9622066576060956e-6
< 0  -2  2 >:  -4.387627472309886e-6
< 0  -1  1 >:  5.549958534730641e-6
< 0  0  0 >:  -5.886619972818288e-6
< 0  1  -1 >:  5.549958534730641e-6
< 0  2  -2 >:  -4.387627472309886e-6
< 1  -2  1 >:  1.9622066576060956e-6
< 1  -1  0 >:  -3.398641625923666e-6
< 1  0  -1 >:  4.8064050810269945e-6
< 1  1  -2 >:  -6.2050422779814205e-6
< 1  2  -3 >:  7.599593706725728e-6
ctilde_basis_func: rank=3 ndens=1 mu0=0 mu=( 0  0  0 )
n=( 1  1  7 )
l=( 1  2  3 )
num_ms=15
< -1  -2  3 >:  4.311101846852124e-6
< -1  -1  2 >:  -3.519999917985964e-6
< -1  0  1 >:  2.726580212202222e-6
< -1  1  0 >:  -1.927983357497247e-6
< -1  2  -1 >:  1.113121710444154e-6
< 0  -2  2 >:  -2.4890158117839663e-6
< 0  -1  1 >:  3.1483836389641195e-6
< 0  0  0 >:  -3.3393651313324625e-6
< 0  1  -1 >:  3.1483836389641195e-6
< 0  2  -2 >:  -2.4890158117839663e-6
< 1  -2  1 >:  1.113121710444154e-6
< 1  -1  0 >:  -1.927983357497247e-6
< 1  0  -1 >:  2.726580212202222e-6
< 1  1  -2 >:  -3.519999917985964e-6
< 1  2  -3 >:  4.311101846852123e-6
ctilde_basis_func: rank=3 ndens=1 mu0=0 mu=( 0  0  0 )
n=( 1  2  6 )
l=( 2  0  2 )
num_ms=5
< -2  0  2 >:  1.658409144267859e-5
< -1  0  1 >:  -1.658409144267859e-5
< 0  0  0 >:  1.658409144267859e-5
< 1  0  -1 >:  -1.658409144267859e-5
< 2  0  -2 >:  1.658409144267859e-5
ctilde_basis_func: rank=3 ndens=1 mu0=0 mu=( 0  0  0 )
n=( 2  2  4 )
l=( 2  2  2 )
num_ms=11
< -2  0  2 >:  3.696862797026329e-5
< -2  1  1 >:  -4.527713750896364e-5
< -2  2  0 >:  3.69686279702633e-5
< -1  -1  2 >:  -2.263856875448182e-5
< -1  0  1 >:  1.848431398513165e-5
< -1  1  0 >:  1.848431398513165e-5
< -1  2  -1 >:  -4.527713750896364e-5
< 0  0  0 >:  -1.848431398513165e-5
< 0  1  -1 >:  1.848431398513165e-5
< 0  2  -2 >:  3.69686279702633e-5
< 1  1  -2 >:  -2.263856875448182e-5
ctilde_basis_func: rank=3 ndens=1 mu0=0 mu=( 0  0  0 )
n=( 1  2  7 )
l=( 2  1  3 )
num_ms=15
< -2  -1  3 >:  9.537330485064457e-6
< -2  0  2 >:  -5.506380322902387e-6
< -2  1  1 >:  2.4625281423953953e-6
< -1  -1  2 >:  -7.787197732232897e-6
< -1  0  1 >:  6.965081393401987e-6
< -1  1  0 >:  -4.265223857697032e-6
< 0  -1  1 >:  6.031937426112435e-6
< 0  0  0 >:  -7.387584427186186e-6
< 0  1  -1 >:  6.031937426112435e-6
< 1  -1  0 >:  -4.265223857697032e-6
< 1  0  -1 >:  6.965081393401987e-6
< 1  1  -2 >:  -7.787197732232897e-6
< 2  -1  -1 >:  2.4625281423953953e-6
< 2  0  -2 >:  -5.506380322902387e-6
< 2  1  -3 >:  9.537330485064452e-6
ctilde_basis_func: rank=3 ndens=1 mu0=0 mu=( 0  0  0 )
n=( 2  2  11 )
l=( 0  1  1 )
num_ms=3
< 0  -1  1 >:  9.737056564016296e-7
< 0  0  0 >:  -9.737056564016292e-7
< 0  1  -1 >:  9.737056564016292e-7
ctilde_basis_func: rank=3 ndens=1 mu0=0 mu=( 0  0  0 )
n=( 1  2  3 )
l=( 1  1  2 )
num_ms=9
< -1  -1  2 >:  1.2450951948527365e-5
< -1  0  1 >:  -8.804152555031557e-6
< -1  1  0 >:  5.0830798476340016e-6
< 0  -1  1 >:  -8.804152555031557e-6
< 0  0  0 >:  1.0166159695268003e-5
< 0  1  -1 >:  -8.804152555031557e-6
< 1  -1  0 >:  5.0830798476340016e-6
< 1  0  -1 >:  -8.804152555031557e-6
< 1  1  -2 >:  1.2450951948527368e-5
ctilde_basis_func: rank=3 ndens=1 mu0=0 mu=( 0  0  0 )
n=( 1  1  3 )
l=( 2  3  1 )
num_ms=15
< -2  1  1 >:  -2.6944049222502502e-6
< -2  2  0 >:  6.024872565061595e-6
< -2  3  -1 >:  -1.0435385391814508e-5
< -1  0  1 >:  4.666846221501104e-6
< -1  1  0 >:  -7.620927967142257e-6
< -1  2  -1 >:  8.520456493079685e-6
< 0  -1  1 >:  -6.599917219956494e-6
< 0  0  0 >:  8.08321476675075e-6
< 0  1  -1 >:  -6.599917219956494e-6
< 1  -2  1 >:  8.520456493079685e-6
< 1  -1  0 >:  -7.620927967142257e-6
< 1  0  -1 >:  4.666846221501104e-6
< 2  -3  1 >:  -1.0435385391814511e-5
< 2  -2  0 >:  6.024872565061595e-6
< 2  -1  -1 >:  -2.6944049222502502e-6
ctilde_basis_func: rank=3 ndens=1 mu0=0 mu=( 0  0  0 )
n=( 1  3  6 )
l=( 2  3  1 )
num_ms=15
< -2  1  1 >:  -2.3358856911809095e-6
< -2  2  0 >:  5.223199193149595e-6
< -2  3  -1 >:  -9.046846380587863e-6
< -1  0  1 >:  4.045872697798479e-6
< -1  1  0 >:  -6.606882449242587e-6
< -1  2  -1 >:  7.386719137928364e-6
< 0  -1  1 >:  -5.721728040861632e-6
< 0  0  0 >:  7.007657073542729e-6
< 0  1  -1 >:  -5.721728040861632e-6
< 1  -2  1 >:  7.386719137928364e-6
< 1  -1  0 >:  -6.606882449242587e-6
< 1  0  -1 >:  4.045872697798479e-6
< 2  -3  1 >:  -9.046846380587867e-6
< 2  -2  0 >:  5.223199193149595e-6
< 2  -1  -1 >:  -2.3358856911809095e-6
ctilde_basis_func: rank=3 ndens=1 mu0=0 mu=( 0  0  0 )
n=( 1  1  4 )
l=( 2  3  3 )
num_ms=27
< -2  -1  3 >:  -7.037721447360883e-5
< -2  0  2 >:  9.95284111906177e-5
< -2  1  1 >:  -0.00010902791184350183
< -2  2  0 >:  9.95284111906177e-5
< -2  3  -1 >:  -7.037721447360883e-5
< -1  -2  3 >:  0.00011127614655738595
< -1  -1  2 >:  -8.619413248937832e-5
< -1  0  1 >:  3.147364712601429e-5
< -1  1  0 >:  3.147364712601429e-5
< -1  2  -1 >:  -8.619413248937832e-5
< -1  3  -2 >:  0.00011127614655738595
< 0  -3  3 >:  -0.00011127614655738602
< 0  -1  1 >:  6.676568793443158e-5
< 0  0  0 >:  -8.902091724590876e-5
< 0  1  -1 >:  6.676568793443158e-5
< 0  3  -3 >:  -0.00011127614655738595
< 1  -3  2 >:  0.00011127614655738595
< 1  -2  1 >:  -8.619413248937832e-5
< 1  -1  0 >:  3.147364712601429e-5
< 1  0  -1 >:  3.147364712601429e-5
< 1  1  -2 >:  -8.619413248937832e-5
< 1  2  -3 >:  0.00011127614655738595
< 2  -3  1 >:  -7.037721447360883e-5
< 2  -2  0 >:  9.95284111906177e-5
< 2  -1  -1 >:  -0.00010902791184350183
< 2  0  -2 >:  9.95284111906177e-5
< 2  1  -3 >:  -7.037721447360883e-5
ctilde_basis_func: rank=3 ndens=1 mu0=0 mu=( 0  0  0 )
n=( 1  3  3 )
l=( 2  2  4 )
num_ms=25
< -2  -2  4 >:  -2.3143508860810858e-5
< -2  -1  3 >:  1.63649320559303e-5
< -2  0  2 >:  -1.0713362841301415e-5
< -2  1  1 >:  6.1853629203515045e-6
< -2  2  0 >:  -2.7661783910825166e-6
< -1  -2  3 >:  1.63649320559303e-5
< -1  -1  2 >:  -1.7494848260321507e-5
< -1  0  1 >:  1.5150983028792416e-5
< -1  1  0 >:  -1.1064713564330066e-5
< -1  2  -1 >:  6.1853629203515045e-6
< 0  -2  2 >:  -1.0713362841301415e-5
< 0  -1  1 >:  1.5150983028792416e-5
< 0  0  0 >:  -1.65970703464951e-5
< 0  1  -1 >:  1.5150983028792416e-5
< 0  2  -2 >:  -1.0713362841301415e-5
< 1  -2  1 >:  6.1853629203515045e-6
< 1  -1  0 >:  -1.1064713564330066e-5
< 1  0  -1 >:  1.5150983028792416e-5
< 1  1  -2 >:  -1.7494848260321507e-5
< 1  2  -3 >:  1.63649320559303e-5
< 2  -2  0 >:  -2.7661783910825166e-6
< 2  -1  -1 >:  6.1853629203515045e-6
< 2  0  -2 >:  -1.0713362841301415e-5
< 2  1  -3 >:  1.63649320559303e-5
< 2  2  -4 >:  -2.3143508860810848e-5
ctilde_basis_func: rank=3 ndens=1 mu0=0 mu=( 0  0  0 )
n=( 1  1  1 )
l=( 1  4  5 )
num_ms=27
< -1  -4  5 >:  3.623646676220347e-5
< -1  -3  4 >:  -3.2410881177879494e-5
< -1  -2  3 >:  2.8583710456377784e-5
< -1  -1  2 >:  -2.475421938964205e-5
< -1  0  1 >:  2.0921133839639118e-5
< -1  1  0 >:  -1.7082034249196693e-5
< -1  2  -1 >:  1.32316868332967e-5
< -1  3  -2 >:  -9.356215486360851e-6
< -1  4  -3 >:  5.401813529646583e-6
< 0  -4  4 >:  -1.6205440588939747e-5
< 0  -3  3 >:  2.1607254118586334e-5
< 0  -2  2 >:  -2.475421938964205e-5
< 0  -1  1 >:  2.64633736665934e-5
< 0  0  0 >:  -2.7009067648232917e-5
< 0  1  -1 >:  2.64633736665934e-5
< 0  2  -2 >:  -2.475421938964205e-5
< 0  3  -3 >:  2.1607254118586334e-5
< 0  4  -4 >:  -1.6205440588939747e-5
< 1  -4  3 >:  5.401813529646583e-6
< 1  -3  2 >:  -9.356215486360851e-6
< 1  -2  1 >:  1.32316868332967e-5
< 1  -1  0 >:  -1.7082034249196693e-5
< 1  0  -1 >:  2.0921133839639118e-5
< 1  1  -2 >:  -2.475421938964205e-5
< 1  2  -3 >:  2.8583710456377784e-5
< 1  3  -4 >:  -3.2410881177879494e-5
< 1  4  -5 >:  3.6236466762203504e-5
ctilde_basis_func: rank=3 ndens=1 mu0=0 mu=( 0  0  0 )
n=( 1  3  4 )
l=( 0  3  3 )
num_ms=7
< 0  -3  3 >:  3.359221730028848e-5
< 0  -2  2 >:  -3.359221730028848e-5
< 0  -1  1 >:  3.359221730028848e-5
< 0  0  0 >:  -3.359221730028848e-5
< 0  1  -1 >:  3.359221730028848e-5
< 0  2  -2 >:  -3.359221730028848e-5
< 0  3  -3 >:  3.359221730028848e-5
ctilde_basis_func: rank=3 ndens=1 mu0=0 mu=( 0  0  0 )
n=( 2  2  2 )
l=( 0  2  2 )
num_ms=3
< 0  -2  2 >:  -0.00011532203590958321
< 0  -1  1 >:  0.00011532203590958321
< 0  0  0 >:  -5.766101795479161e-5
ctilde_basis_func: rank=3 ndens=1 mu0=0 mu=( 0  0  0 )
n=( 2  2  4 )
l=( 1  3  2 )
num_ms=15
< -1  -1  2 >:  -4.1528641028362994e-6
< -1  0  1 >:  7.192971623041413e-6
< -1  1  0 >:  -1.0172398023069978e-5
< -1  2  -1 >:  1.3132509378114427e-5
< -1  3  -2 >:  -1.6083973509347593e-5
< 0  -2  2 >:  9.286086435260644e-6
< 0  -1  1 >:  -1.174607347384694e-5
< 0  0  0 >:  1.2458592308508897e-5
< 0  1  -1 >:  -1.174607347384694e-5
< 0  2  -2 >:  9.286086435260644e-6
< 1  -3  2 >:  -1.6083973509347596e-5
< 1  -2  1 >:  1.3132509378114427e-5
< 1  -1  0 >:  -1.0172398023069978e-5
< 1  0  -1 >:  7.192971623041413e-6
< 1  1  -2 >:  -4.1528641028362994e-6
ctilde_basis_func: rank=3 ndens=1 mu0=0 mu=( 0  0  0 )
n=( 1  3  8 )
l=( 2  1  1 )
num_ms=9
< -2  1  1 >:  -4.230403323483707e-6
< -1  0  1 >:  2.9913468771894374e-6
< -1  1  0 >:  2.9913468771894374e-6
< 0  -1  1 >:  -1.727054924784866e-6
< 0  0  0 >:  -3.454109849569736e-6
< 0  1  -1 >:  -1.727054924784868e-6
< 1  -1  0 >:  2.9913468771894374e-6
< 1  0  -1 >:  2.9913468771894374e-6
< 2  -1  -1 >:  -4.230403323483707e-6
ctilde_basis_func: rank=3 ndens=1 mu0=0 mu=( 0  0  0 )
n=( 2  3  4 )
l=( 3  3  0 )
num_ms=7
< -3  3  0 >:  2.472504266652265e-5
< -2  2  0 >:  -2.472504266652265e-5
< -1  1  0 >:  2.472504266652265e-5
< 0  0  0 >:  -2.472504266652265e-5
< 1  -1  0 >:  2.472504266652265e-5
< 2  -2  0 >:  -2.472504266652265e-5
< 3  -3  0 >:  2.472504266652265e-5
ctilde_basis_func: rank=3 ndens=1 mu0=0 mu=( 0  0  0 )
n=( 1  4  4 )
l=( 2  1  3 )
num_ms=15
< -2  -1  3 >:  1.1988967867919702e-6
< -2  0  2 >:  -6.921833825849211e-7
< -2  1  1 >:  3.0955381927112556e-7
< -1  -1  2 >:  -9.788951273008804e-7
< -1  0  1 >:  8.755504189952315e-7
< -1  1  0 >:  -5.361629426545833e-7
< 0  -1  1 >:  7.582489051439798e-7
< 0  0  0 >:  -9.286614578133766e-7
< 0  1  -1 >:  7.582489051439798e-7
< 1  -1  0 >:  -5.361629426545833e-7
< 1  0  -1 >:  8.755504189952315e-7
< 1  1  -2 >:  -9.788951273008804e-7
< 2  -1  -1 >:  3.0955381927112556e-7
< 2  0  -2 >:  -6.921833825849211e-7
< 2  1  -3 >:  1.1988967867919697e-6
ctilde_basis_func: rank=3 ndens=1 mu0=0 mu=( 0  0  0 )
n=( 1  1  6 )
l=( 1  3  2 )
num_ms=15
< -1  -1  2 >:  -2.976693565260504e-7
< -1  0  1 >:  5.155784493594537e-7
< -1  1  0 >:  -7.291380355514292e-7
< -1  2  -1 >:  9.413131562590257e-7
< -1  3  -2 >:  -1.1528684605016713e-6
< 0  -2  2 >:  6.656089160108694e-7
< 0  -1  1 >:  -8.419360822040252e-7
< 0  0  0 >:  8.930080695781511e-7
< 0  1  -1 >:  -8.419360822040252e-7
< 0  2  -2 >:  6.656089160108694e-7
< 1  -3  2 >:  -1.1528684605016715e-6
< 1  -2  1 >:  9.413131562590257e-7
< 1  -1  0 >:  -7.291380355514292e-7
< 1  0  -1 >:  5.155784493594537e-7
< 1  1  -2 >:  -2.976693565260504e-7
ctilde_basis_func: rank=3 ndens=1 mu0=0 mu=( 0  0  0 )
n=( 1  2  4 )
l=( 2  4  2 )
num_ms=25
< -2  0  2 >:  -1.3505809247501958e-6
< -2  1  1 >:  3.019990756855966e-6
< -2  2  0 >:  -5.230777429262921e-6
< -2  3  -1 >:  7.990144504354615e-6
< -2  4  -2 >:  -1.129977072337915e-5
< -1  -1  2 >:  3.019990756855966e-6
< -1  0  1 >:  -5.402323699000783e-6
< -1  1  0 >:  7.397436382218695e-6
< -1  2  -1 >:  -8.54182377317419e-6
< -1  3  -2 >:  7.990144504354615e-6
< 0  -2  2 >:  -5.230777429262921e-6
< 0  -1  1 >:  7.397436382218695e-6
< 0  0  0 >:  -8.103485548501174e-6
< 0  1  -1 >:  7.397436382218695e-6
< 0  2  -2 >:  -5.230777429262921e-6
< 1  -3  2 >:  7.990144504354615e-6
< 1  -2  1 >:  -8.54182377317419e-6
< 1  -1  0 >:  7.397436382218695e-6
< 1  0  -1 >:  -5.402323699000783e-6
< 1  1  -2 >:  3.019990756855966e-6
< 2  -4  2 >:  -1.1299770723379155e-5
< 2  -3  1 >:  7.990144504354615e-6
< 2  -2  0 >:  -5.230777429262921e-6
< 2  -1  -1 >:  3.019990756855966e-6
< 2  0  -2 >:  -1.3505809247501958e-6
ctilde_basis_func: rank=3 ndens=1 mu0=0 mu=( 0  0  0 )
n=( 1  1  3 )
l=( 2  5  3 )
num_ms=35
< -2  -1  3 >:  8.441087561036486e-7
< -2  0  2 >:  -1.8874845590505487e-6
< -2  1  1 >:  3.2692191547772897e-6
< -2  2  0 >:  -4.993814746722161e-6
< -2  3  -1 >:  7.0623205427932424e-6
< -2  4  -2 >:  -9.475097287547342e-6
< -2  5  -3 >:  1.2232297999455306e-5
< -1  -2  3 >:  -2.2333018481423293e-6
< -1  -1  2 >:  4.13527147973871e-6
< -1  0  1 >:  -5.968750254998314e-6
< -1  1  0 >:  7.549938236202195e-6
< -1  2  -1 >:  -8.649540864909488e-6
< -1  3  -2 >:  8.933207392569317e-6
< -1  4  -3 >:  -7.736384539239976e-6
< 0  -3  3 >:  4.4666036962846586e-6
< 0  -2  2 >:  -6.699905544426987e-6
< 0  -1  1 >:  8.007918786537262e-6
< 0  0  0 >:  -8.441087561036486e-6
< 0  1  -1 >:  8.007918786537262e-6
< 0  2  -2 >:  -6.699905544426987e-6
< 0  3  -3 >:  4.4666036962846586e-6
< 1  -4  3 >:  -7.736384539239976e-6
< 1  -3  2 >:  8.933207392569317e-6
< 1  -2  1 >:  -8.649540864909488e-6
< 1  -1  0 >:  7.549938236202195e-6
< 1  0  -1 >:  -5.968750254998314e-6
< 1  1  -2 >:  4.13527147973871e-6
< 1  2  -3 >:  -2.2333018481423293e-6
< 2  -5  3 >:  1.2232297999455311e-5
< 2  -4  2 >:  -9.475097287547342e-6
< 2  -3  1 >:  7.0623205427932424e-6
< 2  -2  0 >:  -4.993814746722161e-6
< 2  -1  -1 >:  3.2692191547772897e-6
< 2  0  -2 >:  -1.8874845590505487e-6
< 2  1  -3 >:  8.441087561036486e-7
ctilde_basis_func: rank=3 ndens=1 mu0=0 mu=( 0  0  0 )
n=( 1  1  2 )
l=( 2  2  2 )
num_ms=11
< -2  0  2 >:  5.8239758403707595e-5
< -2  1  1 >:  -7.13288454160261e-5
< -2  2  0 >:  5.8239758403707615e-5
< -1  -1  2 >:  -3.566442270801305e-5
< -1  0  1 >:  2.9119879201853807e-5
< -1  1  0 >:  2.9119879201853807e-5
< -1  2  -1 >:  -7.13288454160261e-5
< 0  0  0 >:  -2.9119879201853807e-5
< 0  1  -1 >:  2.9119879201853807e-5
< 0  2  -2 >:  5.8239758403707615e-5
< 1  1  -2 >:  -3.566442270801305e-5
ctilde_basis_func: rank=3 ndens=1 mu0=0 mu=( 0  0  0 )
n=( 1  3  3 )
l=( 1  0  1 )
num_ms=3
< -1  0  1 >:  1.2517609647413709e-5
< 0  0  0 >:  -1.2517609647413709e-5
< 1  0  -1 >:  1.2517609647413709e-5
ctilde_basis_func: rank=3 ndens=1 mu0=0 mu=( 0  0  0 )
n=( 1  2  2 )
l=( 2  2  4 )
num_ms=25
< -2  -2  4 >:  -2.394722858951734e-6
< -2  -1  3 >:  1.6933247726272067e-6
< -2  0  2 >:  -1.1085412781011517e-6
< -2  1  1 >:  6.400166053195116e-7
< -2  2  0 >:  -2.862241272446163e-7
< -1  -2  3 >:  1.6933247726272067e-6
< -1  -1  2 >:  -1.8102403267736835e-6
< -1  0  1 >:  1.5677141099410535e-6
< -1  1  0 >:  -1.1448965089784652e-6
< -1  2  -1 >:  6.400166053195116e-7
< 0  -2  2 >:  -1.1085412781011517e-6
< 0  -1  1 >:  1.5677141099410535e-6
< 0  0  0 >:  -1.7173447634676978e-6
< 0  1  -1 >:  1.5677141099410535e-6
< 0  2  -2 >:  -1.1085412781011517e-6
< 1  -2  1 >:  6.400166053195116e-7
< 1  -1  0 >:  -1.1448965089784652e-6
< 1  0  -1 >:  1.5677141099410535e-6
< 1  1  -2 >:  -1.8102403267736835e-6
< 1  2  -3 >:  1.6933247726272067e-6
< 2  -2  0 >:  -2.862241272446163e-7
< 2  -1  -1 >:  6.400166053195116e-7
< 2  0  -2 >:  -1.1085412781011517e-6
< 2  1  -3 >:  1.6933247726272067e-6
< 2  2  -4 >:  -2.394722858951733e-6
ctilde_basis_func: rank=3 ndens=1 mu0=0 mu=( 0  0  0 )
n=( 1  1  3 )
l=( 2  4  4 )
num_ms=39
< -2  -2  4 >:  -2.353462666639726e-5
< -2  -1  3 >:  3.5301939999595895e-5
< -2  0  2 >:  -4.2193888652523205e-5
< -2  1  1 >:  4.447626382716873e-5
< -2  2  0 >:  -4.2193888652523205e-5
< -2  3  -1 >:  3.5301939999595895e-5
< -2  4  -2 >:  -2.353462666639726e-5
< -1  -3  4 >:  4.402925485564615e-5
< -1  -2  3 >:  -4.160373527125813e-5
< -1  -1  2 >:  2.8304520978629657e-5
< -1  0  1 >:  -9.945194930276424e-6
< -1  1  0 >:  -9.945194930276424e-6
< -1  2  -1 >:  2.8304520978629657e-5
< -1  3  -2 >:  -4.160373527125813e-5
< -1  4  -3 >:  4.402925485564615e-5
< 0  -4  4 >:  -5.084060428625182e-5
< 0  -3  3 >:  1.271015107156297e-5
< 0  -2  2 >:  1.4525886938929106e-5
< 0  -1  1 >:  -3.0867509745224344e-5
< 0  0  0 >:  3.631471734732276e-5
< 0  1  -1 >:  -3.0867509745224344e-5
< 0  2  -2 >:  1.4525886938929106e-5
< 0  3  -3 >:  1.271015107156297e-5
< 0  4  -4 >:  -5.084060428625188e-5
< 1  -4  3 >:  4.402925485564615e-5
< 1  -3  2 >:  -4.160373527125813e-5
< 1  -2  1 >:  2.8304520978629657e-5
< 1  -1  0 >:  -9.945194930276424e-6
< 1  0  -1 >:  -9.945194930276424e-6
< 1  1  -2 >:  2.8304520978629657e-5
< 1  2  -3 >:  -4.160373527125813e-5
< 1  3  -4 >:  4.402925485564615e-5
< 2  -4  2 >:  -2.353462666639726e-5
< 2  -3  1 >:  3.5301939999595895e-5
< 2  -2  0 >:  -4.2193888652523205e-5
< 2  -1  -1 >:  4.447626382716873e-5
< 2  0  -2 >:  -4.2193888652523205e-5
< 2  1  -3 >:  3.5301939999595895e-5
< 2  2  -4 >:  -2.353462666639726e-5
ctilde_basis_func: rank=3 ndens=1 mu0=0 mu=( 0  0  0 )
n=( 3  4  5 )
l=( 0  1  1 )
num_ms=3
< 0  -1  1 >:  -1.0329341769585059e-6
< 0  0  0 >:  1.0329341769585054e-6
< 0  1  -1 >:  -1.0329341769585054e-6
ctilde_basis_func: rank=3 ndens=1 mu0=0 mu=( 0  0  0 )
n=( 2  3  4 )
l=( 2  1  3 )
num_ms=15
< -2  -1  3 >:  1.7341644153818175e-6
< -2  0  2 >:  -1.0012202920397622e-6
< -2  1  1 >:  4.477593266906199e-7
< -1  -1  2 >:  -1.4159393159257825e-6
< -1  0  1 >:  1.26645462496984e-6
< -1  1  0 >:  -7.755419033909849e-7
< 0  -1  1 >:  1.0967818779641755e-6
< 0  0  0 >:  -1.3432779800718596e-6
< 0  1  -1 >:  1.0967818779641755e-6
< 1  -1  0 >:  -7.755419033909849e-7
< 1  0  -1 >:  1.26645462496984e-6
< 1  1  -2 >:  -1.4159393159257825e-6
< 2  -1  -1 >:  4.477593266906199e-7
< 2  0  -2 >:  -1.0012202920397622e-6
< 2  1  -3 >:  1.7341644153818169e-6
ctilde_basis_func: rank=3 ndens=1 mu0=0 mu=( 0  0  0 )
n=( 1  1  5 )
l=( 1  4  3 )
num_ms=21
< -1  -2  3 >:  -5.644283054853506e-6
< -1  -1  2 >:  9.776185023306344e-6
< -1  0  1 >:  -1.3825613448228562e-5
< -1  1  0 >:  1.7848790212030175e-5
< -1  2  -1 >:  -2.1860214272728352e-5
< -1  3  -2 >:  2.586535434262278e-5
< -1  4  -3 >:  -2.9866738584796626e-5
< 0  -3  3 >:  1.4933369292398313e-5
< 0  -2  2 >:  -1.9552370046612688e-5
< 0  -1  1 >:  2.1860214272728352e-5
< 0  0  0 >:  -2.2577132219414024e-5
< 0  1  -1 >:  2.1860214272728352e-5
< 0  2  -2 >:  -1.9552370046612688e-5
< 0  3  -3 >:  1.4933369292398313e-5
< 1  -4  3 >:  -2.9866738584796643e-5
< 1  -3  2 >:  2.586535434262278e-5
< 1  -2  1 >:  -2.1860214272728352e-5
< 1  -1  0 >:  1.7848790212030175e-5
< 1  0  -1 >:  -1.3825613448228562e-5
< 1  1  -2 >:  9.776185023306344e-6
< 1  2  -3 >:  -5.644283054853506e-6
ctilde_basis_func: rank=3 ndens=1 mu0=0 mu=( 0  0  0 )
n=( 2  4  4 )
l=( 2  1  3 )
num_ms=15
< -2  -1  3 >:  -2.6643146105746132e-5
< -2  0  2 >:  1.5382427576211056e-5
< -2  1  1 >:  -6.879230743875049e-6
< -1  -1  2 >:  2.175403770049957e-5
< -1  0  1 >:  -1.9457402833364102e-5
< -1  1  0 >:  1.1915177165381427e-5
< 0  -1  1 >:  -1.6850605145360626e-5
< 0  0  0 >:  2.0637692231625146e-5
< 0  1  -1 >:  -1.6850605145360626e-5
< 1  -1  0 >:  1.1915177165381427e-5
< 1  0  -1 >:  -1.9457402833364102e-5
< 1  1  -2 >:  2.175403770049957e-5
< 2  -1  -1 >:  -6.879230743875049e-6
< 2  0  -2 >:  1.5382427576211056e-5
< 2  1  -3 >:  -2.664314610574613e-5
ctilde_basis_func: rank=3 ndens=1 mu0=0 mu=( 0  0  0 )
n=( 2  2  2 )
l=( 2  3  3 )
num_ms=15
< -2  -1  3 >:  -9.123328526333661e-7
< -2  0  2 >:  1.2902334935926404e-6
< -2  1  1 >:  -7.066899888893862e-7
< -1  -2  3 >:  1.4425248992600918e-6
< -1  -1  2 >:  -1.1173749822647734e-6
< -1  0  1 >:  4.0800765531890095e-7
< 0  -3  3 >:  -1.4425248992600918e-6
