nelements=1
elements: Si

lmax=6

2 FS parameters:  1.000000 1.000000
core energy-cutoff parameters: 100000.000000000000000000 1.000000000000000000
E0: -158.54496821

radbasename=ACE.jl.Basic
haspair: t

transform parameters: p=2 r0=2.35126
cutoff parameters: rcut=5.5 xl=0.2658211500023669 xr=1.6042620210695941 pl=2 pr=2
recursion coefficients: maxn=18
 7.821202223493647 0.0 0.0
 4.955952649160867 -4.634021822912618 0.0
 3.9956167645897973 -3.736067834756193 -0.8062257748298656
 3.632378876899846 -3.396425304323833 -0.9090909090909028
 3.4441358810053155 -3.220410274976574 -0.9481763873555078
 3.331005797707162 -3.114628942517647 -0.9671528397232808
 3.256698923178486 -3.0451489247421324 -0.9776923610941147
 3.2048648622710894 -2.9966819222465113 -0.9840838646340656
 3.167085174324123 -2.9613563429275254 -0.988211768804444
 3.138607272777173 -2.9347283207123276 -0.9910081668223445
 3.1165595829870045 -2.9141128138935235 -0.9929753269925177
 3.0991136906213357 -2.8978001790348364 -0.9944021951446367
 3.08505564490434 -2.884655321678083 -0.995463849629161
 3.0735513577131024 -2.8738983347423233 -0.9962709628235525
 3.0640110824280233 -2.864977780613316 -0.9968960091520438
 3.05600755744042 -2.857494151919029 -0.9973878929376229
 3.049224676161325 -2.8511518758533216 -0.9977804762744855
 3.043424253671011 -2.8457282396112 -0.9980977385708372
tests: ntests=0

begin repulsive potential
begin polypairpot
transform parameters: p=2 r0=2.35126
cutoff parameters: rcut=6.5 xl=0.1996612193351111 xr=2.372718237344682 pl=1 pr=0
recursion coefficients: maxn=8
 0.7970573297067717 0.0 0.0
 2.376367709542944 -4.34745440267418 0.0
 2.0418559725718572 -2.995966854134438 -0.8592340168452226
 1.9480476778224156 -2.6819368663177676 -0.9540573399840273
 1.9078222609703703 -2.557456376087243 -0.979350907418754
 1.886748315849131 -2.495034632578642 -0.9889539263943126
 1.8742963773986112 -2.459167072303244 -0.9934003182375156
 1.866316576065074 -2.436619813846683 -0.9957425082661538
tests: ntests=0
coefficients
0.514371516745257
0.5914582482468568
-1.2310559087520558
-0.8200672960987269
0.6741488502470117
0.9771010377183487
0.5415451565069233
0.1366030939363994
end polypairpot
spline parameters
   e_0 + B  exp(-A*(r/ri-1)) * (ri/r)
ri=1.6223693999999997
e0=0.0
A=10.100569978064332
B=2.691324927832309
end repulsive potential

rankmax=4
ndensitymax=1

num_c_tilde_max=3200
num_ms_combinations_max=97
total_basis_size_rank1: 18
ctilde_basis_func: rank=1 ndens=1 mu0=0 mu=( 0 )
n=( 10 )
l=( 0 )
num_ms=1
< 0 >:  -0.00012018634535760511
ctilde_basis_func: rank=1 ndens=1 mu0=0 mu=( 0 )
n=( 2 )
l=( 0 )
num_ms=1
< 0 >:  0.014650801521069077
ctilde_basis_func: rank=1 ndens=1 mu0=0 mu=( 0 )
n=( 16 )
l=( 0 )
num_ms=1
< 0 >:  2.7847264727647307e-5
ctilde_basis_func: rank=1 ndens=1 mu0=0 mu=( 0 )
n=( 5 )
l=( 0 )
num_ms=1
< 0 >:  -0.0009489848233167011
ctilde_basis_func: rank=1 ndens=1 mu0=0 mu=( 0 )
n=( 4 )
l=( 0 )
num_ms=1
< 0 >:  0.0017520362934749622
ctilde_basis_func: rank=1 ndens=1 mu0=0 mu=( 0 )
n=( 3 )
l=( 0 )
num_ms=1
< 0 >:  -0.0031404271057142432
ctilde_basis_func: rank=1 ndens=1 mu0=0 mu=( 0 )
n=( 12 )
l=( 0 )
num_ms=1
< 0 >:  -2.4171297874949847e-5
ctilde_basis_func: rank=1 ndens=1 mu0=0 mu=( 0 )
n=( 9 )
l=( 0 )
num_ms=1
< 0 >:  -2.78232025639818e-5
ctilde_basis_func: rank=1 ndens=1 mu0=0 mu=( 0 )
n=( 11 )
l=( 0 )
num_ms=1
< 0 >:  -2.4586843021143105e-5
ctilde_basis_func: rank=1 ndens=1 mu0=0 mu=( 0 )
n=( 1 )
l=( 0 )
num_ms=1
< 0 >:  -0.13716709304224647
ctilde_basis_func: rank=1 ndens=1 mu0=0 mu=( 0 )
n=( 6 )
l=( 0 )
num_ms=1
< 0 >:  0.0002344920846738027
ctilde_basis_func: rank=1 ndens=1 mu0=0 mu=( 0 )
n=( 8 )
l=( 0 )
num_ms=1
< 0 >:  -0.00011163795835868309
ctilde_basis_func: rank=1 ndens=1 mu0=0 mu=( 0 )
n=( 14 )
l=( 0 )
num_ms=1
< 0 >:  1.2615681634794771e-5
ctilde_basis_func: rank=1 ndens=1 mu0=0 mu=( 0 )
n=( 7 )
l=( 0 )
num_ms=1
< 0 >:  -7.003884600986001e-5
ctilde_basis_func: rank=1 ndens=1 mu0=0 mu=( 0 )
n=( 18 )
l=( 0 )
num_ms=1
< 0 >:  -7.123641020733195e-5
ctilde_basis_func: rank=1 ndens=1 mu0=0 mu=( 0 )
n=( 13 )
l=( 0 )
num_ms=1
< 0 >:  -8.207922053655378e-5
ctilde_basis_func: rank=1 ndens=1 mu0=0 mu=( 0 )
n=( 17 )
l=( 0 )
num_ms=1
< 0 >:  -3.35242859440638e-5
ctilde_basis_func: rank=1 ndens=1 mu0=0 mu=( 0 )
n=( 15 )
l=( 0 )
num_ms=1
< 0 >:  -7.191706168041484e-5
total_basis_size: 3182
ctilde_basis_func: rank=2 ndens=1 mu0=0 mu=( 0  0 )
n=( 4  5 )
l=( 2  2 )
num_ms=5
< -2  2 >:  0.00019713712389296732
< -1  1 >:  -0.00019713712389296732
< 0  0 >:  0.00019713712389296732
< 1  -1 >:  -0.00019713712389296732
< 2  -2 >:  0.00019713712389296732
ctilde_basis_func: rank=2 ndens=1 mu0=0 mu=( 0  0 )
n=( 5  7 )
l=( 1  1 )
num_ms=3
< -1  1 >:  4.301492850379332e-5
< 0  0 >:  -4.301492850379332e-5
< 1  -1 >:  4.301492850379332e-5
ctilde_basis_func: rank=2 ndens=1 mu0=0 mu=( 0  0 )
n=( 1  4 )
l=( 3  3 )
num_ms=7
< -3  3 >:  -6.433463269170847e-5
< -2  2 >:  6.433463269170847e-5
< -1  1 >:  -6.433463269170847e-5
< 0  0 >:  6.433463269170847e-5
< 1  -1 >:  -6.433463269170847e-5
< 2  -2 >:  6.433463269170847e-5
< 3  -3 >:  -6.433463269170847e-5
ctilde_basis_func: rank=2 ndens=1 mu0=0 mu=( 0  0 )
n=( 1  6 )
l=( 4  4 )
num_ms=9
< -4  4 >:  4.37155052678773e-5
< -3  3 >:  -4.371550526787729e-5
< -2  2 >:  4.371550526787729e-5
< -1  1 >:  -4.371550526787729e-5
< 0  0 >:  4.371550526787729e-5
< 1  -1 >:  -4.371550526787729e-5
< 2  -2 >:  4.371550526787729e-5
< 3  -3 >:  -4.371550526787729e-5
< 4  -4 >:  4.371550526787729e-5
ctilde_basis_func: rank=2 ndens=1 mu0=0 mu=( 0  0 )
n=( 3  5 )
l=( 3  3 )
num_ms=7
< -3  3 >:  -0.00012873815319254943
< -2  2 >:  0.00012873815319254943
< -1  1 >:  -0.00012873815319254943
< 0  0 >:  0.00012873815319254943
< 1  -1 >:  -0.00012873815319254943
< 2  -2 >:  0.00012873815319254943
< 3  -3 >:  -0.00012873815319254943
ctilde_basis_func: rank=2 ndens=1 mu0=0 mu=( 0  0 )
n=( 1  5 )
l=( 3  3 )
num_ms=7
< -3  3 >:  0.00019933879043018915
< -2  2 >:  -0.00019933879043018915
< -1  1 >:  0.00019933879043018915
< 0  0 >:  -0.00019933879043018915
< 1  -1 >:  0.00019933879043018915
< 2  -2 >:  -0.00019933879043018915
< 3  -3 >:  0.00019933879043018915
ctilde_basis_func: rank=2 ndens=1 mu0=0 mu=( 0  0 )
n=( 1  2 )
l=( 4  4 )
num_ms=9
< -4  4 >:  0.00019993287727135842
< -3  3 >:  -0.0001999328772713584
< -2  2 >:  0.0001999328772713584
< -1  1 >:  -0.0001999328772713584
< 0  0 >:  0.0001999328772713584
< 1  -1 >:  -0.0001999328772713584
< 2  -2 >:  0.0001999328772713584
< 3  -3 >:  -0.0001999328772713584
< 4  -4 >:  0.0001999328772713584
ctilde_basis_func: rank=2 ndens=1 mu0=0 mu=( 0  0 )
n=( 6  7 )
l=( 0  0 )
num_ms=1
< 0  0 >:  9.77190746937705e-5
ctilde_basis_func: rank=2 ndens=1 mu0=0 mu=( 0  0 )
n=( 3  5 )
l=( 2  2 )
num_ms=5
< -2  2 >:  -0.00020250038039058203
< -1  1 >:  0.00020250038039058203
< 0  0 >:  -0.00020250038039058203
< 1  -1 >:  0.00020250038039058203
< 2  -2 >:  -0.00020250038039058203
ctilde_basis_func: rank=2 ndens=1 mu0=0 mu=( 0  0 )
n=( 1  4 )
l=( 5  5 )
num_ms=11
< -5  5 >:  0.00011474198764862683
< -4  4 >:  -0.00011474198764862688
< -3  3 >:  0.00011474198764862688
< -2  2 >:  -0.00011474198764862688
< -1  1 >:  0.00011474198764862688
< 0  0 >:  -0.00011474198764862688
< 1  -1 >:  0.00011474198764862688
< 2  -2 >:  -0.00011474198764862688
< 3  -3 >:  0.00011474198764862688
< 4  -4 >:  -0.00011474198764862688
< 5  -5 >:  0.00011474198764862688
ctilde_basis_func: rank=2 ndens=1 mu0=0 mu=( 0  0 )
n=( 1  5 )
l=( 1  1 )
num_ms=3
< -1  1 >:  0.00011629920411293427
< 0  0 >:  -0.00011629920411293427
< 1  -1 >:  0.00011629920411293427
ctilde_basis_func: rank=2 ndens=1 mu0=0 mu=( 0  0 )
n=( 9  9 )
l=( 0  0 )
num_ms=1
< 0  0 >:  -5.0289493988223395e-6
ctilde_basis_func: rank=2 ndens=1 mu0=0 mu=( 0  0 )
n=( 1  5 )
l=( 4  4 )
num_ms=9
< -4  4 >:  -3.838555776470597e-5
< -3  3 >:  3.838555776470597e-5
< -2  2 >:  -3.838555776470597e-5
< -1  1 >:  3.838555776470597e-5
< 0  0 >:  -3.838555776470597e-5
< 1  -1 >:  3.838555776470597e-5
< 2  -2 >:  -3.838555776470597e-5
< 3  -3 >:  3.838555776470597e-5
< 4  -4 >:  -3.838555776470597e-5
ctilde_basis_func: rank=2 ndens=1 mu0=0 mu=( 0  0 )
n=( 1  8 )
l=( 1  1 )
num_ms=3
< -1  1 >:  -3.398815766648258e-5
< 0  0 >:  3.398815766648258e-5
< 1  -1 >:  -3.398815766648258e-5
ctilde_basis_func: rank=2 ndens=1 mu0=0 mu=( 0  0 )
n=( 1  8 )
l=( 3  3 )
num_ms=7
< -3  3 >:  1.1213400994323976e-5
< -2  2 >:  -1.1213400994323976e-5
< -1  1 >:  1.1213400994323976e-5
< 0  0 >:  -1.1213400994323976e-5
< 1  -1 >:  1.1213400994323976e-5
< 2  -2 >:  -1.1213400994323976e-5
< 3  -3 >:  1.1213400994323976e-5
ctilde_basis_func: rank=2 ndens=1 mu0=0 mu=( 0  0 )
n=( 1  9 )
l=( 3  3 )
num_ms=7
< -3  3 >:  1.797539419571079e-5
< -2  2 >:  -1.797539419571079e-5
< -1  1 >:  1.797539419571079e-5
< 0  0 >:  -1.797539419571079e-5
< 1  -1 >:  1.797539419571079e-5
< 2  -2 >:  -1.797539419571079e-5
< 3  -3 >:  1.797539419571079e-5
ctilde_basis_func: rank=2 ndens=1 mu0=0 mu=( 0  0 )
n=( 1  11 )
l=( 1  1 )
num_ms=3
< -1  1 >:  -2.562165227291472e-5
< 0  0 >:  2.562165227291472e-5
< 1  -1 >:  -2.562165227291472e-5
ctilde_basis_func: rank=2 ndens=1 mu0=0 mu=( 0  0 )
n=( 1  2 )
l=( 3  3 )
num_ms=7
< -3  3 >:  1.3626329928062719e-5
< -2  2 >:  -1.3626329928062719e-5
< -1  1 >:  1.3626329928062719e-5
< 0  0 >:  -1.3626329928062719e-5
< 1  -1 >:  1.3626329928062719e-5
< 2  -2 >:  -1.3626329928062719e-5
< 3  -3 >:  1.3626329928062719e-5
ctilde_basis_func: rank=2 ndens=1 mu0=0 mu=( 0  0 )
n=( 3  4 )
l=( 3  3 )
num_ms=7
< -3  3 >:  7.375194387145825e-5
< -2  2 >:  -7.375194387145825e-5
< -1  1 >:  7.375194387145825e-5
< 0  0 >:  -7.375194387145825e-5
< 1  -1 >:  7.375194387145825e-5
< 2  -2 >:  -7.375194387145825e-5
< 3  -3 >:  7.375194387145825e-5
ctilde_basis_func: rank=2 ndens=1 mu0=0 mu=( 0  0 )
n=( 1  12 )
l=( 1  1 )
num_ms=3
< -1  1 >:  5.591245416630763e-6
< 0  0 >:  -5.591245416630763e-6
< 1  -1 >:  5.591245416630763e-6
ctilde_basis_func: rank=2 ndens=1 mu0=0 mu=( 0  0 )
n=( 4  7 )
l=( 2  2 )
num_ms=5
< -2  2 >:  -9.906124146036285e-5
< -1  1 >:  9.906124146036285e-5
< 0  0 >:  -9.906124146036285e-5
< 1  -1 >:  9.906124146036285e-5
< 2  -2 >:  -9.906124146036285e-5
ctilde_basis_func: rank=2 ndens=1 mu0=0 mu=( 0  0 )
n=( 3  7 )
l=( 3  3 )
num_ms=7
< -3  3 >:  -4.41039347222116e-5
< -2  2 >:  4.41039347222116e-5
< -1  1 >:  -4.41039347222116e-5
< 0  0 >:  4.41039347222116e-5
< 1  -1 >:  -4.41039347222116e-5
< 2  -2 >:  4.41039347222116e-5
< 3  -3 >:  -4.41039347222116e-5
ctilde_basis_func: rank=2 ndens=1 mu0=0 mu=( 0  0 )
n=( 1  1 )
l=( 5  5 )
num_ms=6
< -5  5 >:  0.0002111169994625497
< -4  4 >:  -0.00021111699946254977
< -3  3 >:  0.00021111699946254977
< -2  2 >:  -0.00021111699946254977
< -1  1 >:  0.00021111699946254977
< 0  0 >:  -0.00010555849973127488
ctilde_basis_func: rank=2 ndens=1 mu0=0 mu=( 0  0 )
n=( 8  8 )
l=( 0  0 )
num_ms=1
< 0  0 >:  -2.551119322664756e-6
ctilde_basis_func: rank=2 ndens=1 mu0=0 mu=( 0  0 )
n=( 3  15 )
l=( 0  0 )
num_ms=1
< 0  0 >:  -6.344784717285363e-6
ctilde_basis_func: rank=2 ndens=1 mu0=0 mu=( 0  0 )
n=( 2  12 )
l=( 1  1 )
num_ms=3
< -1  1 >:  -8.459953518077324e-6
< 0  0 >:  8.459953518077324e-6
< 1  -1 >:  -8.459953518077324e-6
ctilde_basis_func: rank=2 ndens=1 mu0=0 mu=( 0  0 )
n=( 3  3 )
l=( 3  3 )
num_ms=4
< -3  3 >:  0.0003749600676460303
< -2  2 >:  -0.0003749600676460303
< -1  1 >:  0.0003749600676460303
< 0  0 >:  -0.00018748003382301515
ctilde_basis_func: rank=2 ndens=1 mu0=0 mu=( 0  0 )
n=( 5  5 )
l=( 2  2 )
num_ms=3
< -2  2 >:  0.00023979905030913068
< -1  1 >:  -0.00023979905030913068
< 0  0 >:  0.00011989952515456534
ctilde_basis_func: rank=2 ndens=1 mu0=0 mu=( 0  0 )
n=( 4  8 )
l=( 2  2 )
num_ms=5
< -2  2 >:  -1.2332119034034928e-5
< -1  1 >:  1.2332119034034928e-5
< 0  0 >:  -1.2332119034034928e-5
< 1  -1 >:  1.2332119034034928e-5
< 2  -2 >:  -1.2332119034034928e-5
ctilde_basis_func: rank=2 ndens=1 mu0=0 mu=( 0  0 )
n=( 2  8 )
l=( 2  2 )
num_ms=5
< -2  2 >:  4.3285460754672354e-5
< -1  1 >:  -4.3285460754672354e-5
< 0  0 >:  4.3285460754672354e-5
< 1  -1 >:  -4.3285460754672354e-5
< 2  -2 >:  4.3285460754672354e-5
ctilde_basis_func: rank=2 ndens=1 mu0=0 mu=( 0  0 )
n=( 1  13 )
l=( 1  1 )
num_ms=3
< -1  1 >:  1.2082751281855749e-6
< 0  0 >:  -1.2082751281855749e-6
< 1  -1 >:  1.2082751281855749e-6
ctilde_basis_func: rank=2 ndens=1 mu0=0 mu=( 0  0 )
n=( 6  6 )
l=( 2  2 )
num_ms=3
< -2  2 >:  -4.236932807284806e-5
< -1  1 >:  4.236932807284806e-5
< 0  0 >:  -2.118466403642403e-5
ctilde_basis_func: rank=2 ndens=1 mu0=0 mu=( 0  0 )
n=( 1  1 )
l=( 4  4 )
num_ms=5
< -4  4 >:  -0.00012224456910682338
< -3  3 >:  0.00012224456910682336
< -2  2 >:  -0.00012224456910682336
< -1  1 >:  0.00012224456910682336
< 0  0 >:  -6.112228455341168e-5
ctilde_basis_func: rank=2 ndens=1 mu0=0 mu=( 0  0 )
n=( 1  3 )
l=( 2  2 )
num_ms=5
< -2  2 >:  -0.0006935019216639619
< -1  1 >:  0.0006935019216639619
< 0  0 >:  -0.0006935019216639619
< 1  -1 >:  0.0006935019216639619
< 2  -2 >:  -0.0006935019216639619
ctilde_basis_func: rank=2 ndens=1 mu0=0 mu=( 0  0 )
n=( 1  3 )
l=( 1  1 )
num_ms=3
< -1  1 >:  0.00019489706348561968
< 0  0 >:  -0.00019489706348561968
< 1  -1 >:  0.00019489706348561968
ctilde_basis_func: rank=2 ndens=1 mu0=0 mu=( 0  0 )
n=( 4  5 )
l=( 3  3 )
num_ms=7
< -3  3 >:  -0.00010404183239447411
< -2  2 >:  0.00010404183239447411
< -1  1 >:  -0.00010404183239447411
< 0  0 >:  0.00010404183239447411
< 1  -1 >:  -0.00010404183239447411
< 2  -2 >:  0.00010404183239447411
< 3  -3 >:  -0.00010404183239447411
ctilde_basis_func: rank=2 ndens=1 mu0=0 mu=( 0  0 )
n=( 1  8 )
l=( 0  0 )
num_ms=1
< 0  0 >:  -5.0924101782797863e-5
ctilde_basis_func: rank=2 ndens=1 mu0=0 mu=( 0  0 )
n=( 3  4 )
l=( 4  4 )
num_ms=9
< -4  4 >:  0.0001261788633358154
< -3  3 >:  -0.0001261788633358154
< -2  2 >:  0.0001261788633358154
< -1  1 >:  -0.0001261788633358154
< 0  0 >:  0.0001261788633358154
< 1  -1 >:  -0.0001261788633358154
< 2  -2 >:  0.0001261788633358154
< 3  -3 >:  -0.0001261788633358154
< 4  -4 >:  0.0001261788633358154
ctilde_basis_func: rank=2 ndens=1 mu0=0 mu=( 0  0 )
n=( 2  2 )
l=( 1  1 )
num_ms=2
< -1  1 >:  0.0011164597994544074
< 0  0 >:  -0.0005582298997272037
ctilde_basis_func: rank=2 ndens=1 mu0=0 mu=( 0  0 )
n=( 5  6 )
l=( 2  2 )
num_ms=5
< -2  2 >:  -0.00016211389580483696
< -1  1 >:  0.00016211389580483696
< 0  0 >:  -0.00016211389580483696
< 1  -1 >:  0.00016211389580483696
< 2  -2 >:  -0.00016211389580483696
ctilde_basis_func: rank=2 ndens=1 mu0=0 mu=( 0  0 )
n=( 2  9 )
l=( 1  1 )
num_ms=3
< -1  1 >:  -3.903853907571308e-5
< 0  0 >:  3.903853907571308e-5
< 1  -1 >:  -3.903853907571308e-5
ctilde_basis_func: rank=2 ndens=1 mu0=0 mu=( 0  0 )
n=( 4  14 )
l=( 0  0 )
num_ms=1
< 0  0 >:  -8.782767272944315e-6
ctilde_basis_func: rank=2 ndens=1 mu0=0 mu=( 0  0 )
n=( 1  4 )
l=( 4  4 )
num_ms=9
< -4  4 >:  1.6015437199354158e-5
< -3  3 >:  -1.6015437199354158e-5
< -2  2 >:  1.6015437199354158e-5
< -1  1 >:  -1.6015437199354158e-5
< 0  0 >:  1.6015437199354158e-5
< 1  -1 >:  -1.6015437199354158e-5
< 2  -2 >:  1.6015437199354158e-5
< 3  -3 >:  -1.6015437199354158e-5
< 4  -4 >:  1.6015437199354158e-5
ctilde_basis_func: rank=2 ndens=1 mu0=0 mu=( 0  0 )
n=( 2  6 )
l=( 2  2 )
num_ms=5
< -2  2 >:  3.3805459652627036e-5
< -1  1 >:  -3.3805459652627036e-5
< 0  0 >:  3.3805459652627036e-5
< 1  -1 >:  -3.3805459652627036e-5
< 2  -2 >:  3.3805459652627036e-5
ctilde_basis_func: rank=2 ndens=1 mu0=0 mu=( 0  0 )
n=( 1  8 )
l=( 2  2 )
num_ms=5
< -2  2 >:  -0.00010961164583099122
< -1  1 >:  0.00010961164583099122
< 0  0 >:  -0.00010961164583099122
< 1  -1 >:  0.00010961164583099122
< 2  -2 >:  -0.00010961164583099122
ctilde_basis_func: rank=2 ndens=1 mu0=0 mu=( 0  0 )
n=( 2  2 )
l=( 3  3 )
num_ms=4
< -3  3 >:  0.00044781761565801896
< -2  2 >:  -0.00044781761565801896
< -1  1 >:  0.00044781761565801896
< 0  0 >:  -0.00022390880782900948
ctilde_basis_func: rank=2 ndens=1 mu0=0 mu=( 0  0 )
n=( 1  9 )
l=( 2  2 )
num_ms=5
< -2  2 >:  -1.7449761076148974e-5
< -1  1 >:  1.7449761076148974e-5
< 0  0 >:  -1.7449761076148974e-5
< 1  -1 >:  1.7449761076148974e-5
< 2  -2 >:  -1.7449761076148974e-5
ctilde_basis_func: rank=2 ndens=1 mu0=0 mu=( 0  0 )
n=( 1  7 )
l=( 3  3 )
num_ms=7
< -3  3 >:  4.694940838931709e-7
< -2  2 >:  -4.694940838931709e-7
< -1  1 >:  4.694940838931709e-7
< 0  0 >:  -4.694940838931709e-7
< 1  -1 >:  4.694940838931709e-7
< 2  -2 >:  -4.694940838931709e-7
< 3  -3 >:  4.694940838931709e-7
ctilde_basis_func: rank=2 ndens=1 mu0=0 mu=( 0  0 )
n=( 4  6 )
l=( 1  1 )
num_ms=3
< -1  1 >:  0.0001328309316235579
< 0  0 >:  -0.0001328309316235579
< 1  -1 >:  0.0001328309316235579
ctilde_basis_func: rank=2 ndens=1 mu0=0 mu=( 0  0 )
n=( 1  6 )
l=( 2  2 )
num_ms=5
< -2  2 >:  -8.380249551184527e-5
< -1  1 >:  8.380249551184527e-5
< 0  0 >:  -8.380249551184527e-5
< 1  -1 >:  8.380249551184527e-5
< 2  -2 >:  -8.380249551184527e-5
ctilde_basis_func: rank=2 ndens=1 mu0=0 mu=( 0  0 )
n=( 3  9 )
l=( 2  2 )
num_ms=5
< -2  2 >:  -1.6245881026922123e-5
< -1  1 >:  1.6245881026922123e-5
< 0  0 >:  -1.6245881026922123e-5
< 1  -1 >:  1.6245881026922123e-5
< 2  -2 >:  -1.6245881026922123e-5
ctilde_basis_func: rank=2 ndens=1 mu0=0 mu=( 0  0 )
n=( 2  3 )
l=( 5  5 )
num_ms=11
< -5  5 >:  -0.0001743523523045226
< -4  4 >:  0.0001743523523045227
< -3  3 >:  -0.0001743523523045227
< -2  2 >:  0.0001743523523045227
< -1  1 >:  -0.0001743523523045227
< 0  0 >:  0.0001743523523045227
< 1  -1 >:  -0.0001743523523045227
< 2  -2 >:  0.0001743523523045227
< 3  -3 >:  -0.0001743523523045227
< 4  -4 >:  0.0001743523523045227
< 5  -5 >:  -0.0001743523523045227
ctilde_basis_func: rank=2 ndens=1 mu0=0 mu=( 0  0 )
n=( 2  2 )
l=( 5  5 )
num_ms=6
< -5  5 >:  5.871276331893321e-5
< -4  4 >:  -5.871276331893323e-5
< -3  3 >:  5.871276331893323e-5
< -2  2 >:  -5.871276331893323e-5
< -1  1 >:  5.871276331893323e-5
< 0  0 >:  -2.9356381659466616e-5
ctilde_basis_func: rank=2 ndens=1 mu0=0 mu=( 0  0 )
n=( 3  11 )
l=( 1  1 )
num_ms=3
< -1  1 >:  1.546244565464165e-5
< 0  0 >:  -1.546244565464165e-5
< 1  -1 >:  1.546244565464165e-5
ctilde_basis_func: rank=2 ndens=1 mu0=0 mu=( 0  0 )
n=( 4  7 )
l=( 1  1 )
num_ms=3
< -1  1 >:  -6.3037331869206e-5
< 0  0 >:  6.3037331869206e-5
< 1  -1 >:  -6.3037331869206e-5
ctilde_basis_func: rank=2 ndens=1 mu0=0 mu=( 0  0 )
n=( 1  1 )
l=( 6  6 )
num_ms=7
< -6  6 >:  -5.949897698578243e-5
< -5  5 >:  5.94989769857824e-5
< -4  4 >:  -5.94989769857824e-5
< -3  3 >:  5.94989769857824e-5
< -2  2 >:  -5.94989769857824e-5
< -1  1 >:  5.94989769857824e-5
< 0  0 >:  -2.97494884928912e-5
ctilde_basis_func: rank=2 ndens=1 mu0=0 mu=( 0  0 )
n=( 2  5 )
l=( 4  4 )
num_ms=9
< -4  4 >:  5.4049365525573836e-5
< -3  3 >:  -5.404936552557383e-5
< -2  2 >:  5.404936552557383e-5
< -1  1 >:  -5.404936552557383e-5
< 0  0 >:  5.404936552557383e-5
< 1  -1 >:  -5.404936552557383e-5
< 2  -2 >:  5.404936552557383e-5
< 3  -3 >:  -5.404936552557383e-5
< 4  -4 >:  5.404936552557383e-5
ctilde_basis_func: rank=2 ndens=1 mu0=0 mu=( 0  0 )
n=( 5  5 )
l=( 3  3 )
num_ms=4
< -3  3 >:  0.00015385751705395917
< -2  2 >:  -0.00015385751705395917
< -1  1 >:  0.00015385751705395917
< 0  0 >:  -7.692875852697958e-5
ctilde_basis_func: rank=2 ndens=1 mu0=0 mu=( 0  0 )
n=( 3  9 )
l=( 0  0 )
num_ms=1
< 0  0 >:  2.883882045134794e-5
ctilde_basis_func: rank=2 ndens=1 mu0=0 mu=( 0  0 )
n=( 2  8 )
l=( 3  3 )
num_ms=7
< -3  3 >:  5.38270111109781e-6
< -2  2 >:  -5.38270111109781e-6
< -1  1 >:  5.38270111109781e-6
< 0  0 >:  -5.38270111109781e-6
< 1  -1 >:  5.38270111109781e-6
< 2  -2 >:  -5.38270111109781e-6
< 3  -3 >:  5.38270111109781e-6
ctilde_basis_func: rank=2 ndens=1 mu0=0 mu=( 0  0 )
n=( 2  7 )
l=( 2  2 )
num_ms=5
< -2  2 >:  4.4046236483829174e-5
< -1  1 >:  -4.4046236483829174e-5
< 0  0 >:  4.4046236483829174e-5
< 1  -1 >:  -4.4046236483829174e-5
< 2  -2 >:  4.4046236483829174e-5
ctilde_basis_func: rank=2 ndens=1 mu0=0 mu=( 0  0 )
n=( 4  6 )
l=( 2  2 )
num_ms=5
< -2  2 >:  0.00010807867898909693
< -1  1 >:  -0.00010807867898909693
< 0  0 >:  0.00010807867898909693
< 1  -1 >:  -0.00010807867898909693
< 2  -2 >:  0.00010807867898909693
ctilde_basis_func: rank=2 ndens=1 mu0=0 mu=( 0  0 )
n=( 3  6 )
l=( 2  2 )
num_ms=5
< -2  2 >:  -7.18723731548479e-5
< -1  1 >:  7.18723731548479e-5
< 0  0 >:  -7.18723731548479e-5
< 1  -1 >:  7.18723731548479e-5
< 2  -2 >:  -7.18723731548479e-5
ctilde_basis_func: rank=2 ndens=1 mu0=0 mu=( 0  0 )
n=( 2  5 )
l=( 3  3 )
num_ms=7
< -3  3 >:  8.185252540445337e-5
< -2  2 >:  -8.185252540445337e-5
< -1  1 >:  8.185252540445337e-5
< 0  0 >:  -8.185252540445337e-5
< 1  -1 >:  8.185252540445337e-5
< 2  -2 >:  -8.185252540445337e-5
< 3  -3 >:  8.185252540445337e-5
ctilde_basis_func: rank=2 ndens=1 mu0=0 mu=( 0  0 )
n=( 1  7 )
l=( 2  2 )
num_ms=5
< -2  2 >:  7.892910785209809e-5
< -1  1 >:  -7.892910785209809e-5
< 0  0 >:  7.892910785209809e-5
< 1  -1 >:  -7.892910785209809e-5
< 2  -2 >:  7.892910785209809e-5
ctilde_basis_func: rank=2 ndens=1 mu0=0 mu=( 0  0 )
n=( 2  3 )
l=( 4  4 )
num_ms=9
< -4  4 >:  0.00014484179469062547
< -3  3 >:  -0.00014484179469062542
< -2  2 >:  0.00014484179469062542
< -1  1 >:  -0.00014484179469062542
< 0  0 >:  0.00014484179469062542
< 1  -1 >:  -0.00014484179469062542
< 2  -2 >:  0.00014484179469062542
< 3  -3 >:  -0.00014484179469062542
< 4  -4 >:  0.00014484179469062542
ctilde_basis_func: rank=2 ndens=1 mu0=0 mu=( 0  0 )
n=( 5  9 )
l=( 1  1 )
num_ms=3
< -1  1 >:  -1.1328007043170623e-5
< 0  0 >:  1.1328007043170623e-5
< 1  -1 >:  -1.1328007043170623e-5
ctilde_basis_func: rank=2 ndens=1 mu0=0 mu=( 0  0 )
n=( 2  7 )
l=( 3  3 )
num_ms=7
< -3  3 >:  3.57919366727309e-5
< -2  2 >:  -3.57919366727309e-5
< -1  1 >:  3.57919366727309e-5
< 0  0 >:  -3.57919366727309e-5
< 1  -1 >:  3.57919366727309e-5
< 2  -2 >:  -3.57919366727309e-5
< 3  -3 >:  3.57919366727309e-5
ctilde_basis_func: rank=2 ndens=1 mu0=0 mu=( 0  0 )
n=( 1  16 )
l=( 0  0 )
num_ms=1
< 0  0 >:  4.28688921030348e-6
ctilde_basis_func: rank=2 ndens=1 mu0=0 mu=( 0  0 )
n=( 1  14 )
l=( 1  1 )
num_ms=3
< -1  1 >:  -5.7176068033001016e-6
< 0  0 >:  5.7176068033001016e-6
< 1  -1 >:  -5.7176068033001016e-6
ctilde_basis_func: rank=2 ndens=1 mu0=0 mu=( 0  0 )
n=( 1  4 )
l=( 2  2 )
num_ms=5
< -2  2 >:  0.0004716656847093551
< -1  1 >:  -0.0004716656847093551
< 0  0 >:  0.0004716656847093551
< 1  -1 >:  -0.0004716656847093551
< 2  -2 >:  0.0004716656847093551
ctilde_basis_func: rank=2 ndens=1 mu0=0 mu=( 0  0 )
n=( 7  8 )
l=( 1  1 )
num_ms=3
< -1  1 >:  3.023177057449976e-8
< 0  0 >:  -3.023177057449976e-8
< 1  -1 >:  3.023177057449976e-8
ctilde_basis_func: rank=2 ndens=1 mu0=0 mu=( 0  0 )
n=( 4  4 )
l=( 3  3 )
num_ms=4
< -3  3 >:  0.00022472531254394092
< -2  2 >:  -0.00022472531254394092
< -1  1 >:  0.00022472531254394092
< 0  0 >:  -0.00011236265627197046
ctilde_basis_func: rank=2 ndens=1 mu0=0 mu=( 0  0 )
n=( 2  16 )
l=( 0  0 )
num_ms=1
< 0  0 >:  -6.807890378614832e-6
ctilde_basis_func: rank=2 ndens=1 mu0=0 mu=( 0  0 )
n=( 3  6 )
l=( 3  3 )
num_ms=7
< -3  3 >:  5.637892647475672e-5
< -2  2 >:  -5.637892647475672e-5
< -1  1 >:  5.637892647475672e-5
< 0  0 >:  -5.637892647475672e-5
< 1  -1 >:  5.637892647475672e-5
< 2  -2 >:  -5.637892647475672e-5
< 3  -3 >:  5.637892647475672e-5
ctilde_basis_func: rank=2 ndens=1 mu0=0 mu=( 0  0 )
n=( 3  3 )
l=( 0  0 )
num_ms=1
< 0  0 >:  0.0002158060913300707
ctilde_basis_func: rank=2 ndens=1 mu0=0 mu=( 0  0 )
n=( 3  3 )
l=( 4  4 )
num_ms=5
< -4  4 >:  -3.004160779073658e-5
< -3  3 >:  3.0041607790736576e-5
< -2  2 >:  -3.0041607790736576e-5
< -1  1 >:  3.0041607790736576e-5
< 0  0 >:  -1.5020803895368288e-5
ctilde_basis_func: rank=2 ndens=1 mu0=0 mu=( 0  0 )
n=( 4  5 )
l=( 0  0 )
num_ms=1
< 0  0 >:  0.00011785905663641935
ctilde_basis_func: rank=2 ndens=1 mu0=0 mu=( 0  0 )
n=( 2  4 )
l=( 2  2 )
num_ms=5
< -2  2 >:  -8.27673973240592e-5
< -1  1 >:  8.27673973240592e-5
< 0  0 >:  -8.27673973240592e-5
< 1  -1 >:  8.27673973240592e-5
< 2  -2 >:  -8.27673973240592e-5
ctilde_basis_func: rank=2 ndens=1 mu0=0 mu=( 0  0 )
n=( 2  10 )
l=( 1  1 )
num_ms=3
< -1  1 >:  -8.040315751604561e-6
< 0  0 >:  8.040315751604561e-6
< 1  -1 >:  -8.040315751604561e-6
ctilde_basis_func: rank=2 ndens=1 mu0=0 mu=( 0  0 )
n=( 4  6 )
l=( 3  3 )
num_ms=7
< -3  3 >:  1.85799525067963e-5
< -2  2 >:  -1.85799525067963e-5
< -1  1 >:  1.85799525067963e-5
< 0  0 >:  -1.85799525067963e-5
< 1  -1 >:  1.85799525067963e-5
< 2  -2 >:  -1.85799525067963e-5
< 3  -3 >:  1.85799525067963e-5
ctilde_basis_func: rank=2 ndens=1 mu0=0 mu=( 0  0 )
n=( 2  2 )
l=( 4  4 )
num_ms=5
< -4  4 >:  -0.00017291078155223205
< -3  3 >:  0.00017291078155223205
< -2  2 >:  -0.00017291078155223205
< -1  1 >:  0.00017291078155223205
< 0  0 >:  -8.645539077611603e-5
ctilde_basis_func: rank=2 ndens=1 mu0=0 mu=( 0  0 )
n=( 1  1 )
l=( 3  3 )
num_ms=4
< -3  3 >:  0.0012062255828188793
< -2  2 >:  -0.0012062255828188793
< -1  1 >:  0.0012062255828188793
< 0  0 >:  -0.0006031127914094397
ctilde_basis_func: rank=2 ndens=1 mu0=0 mu=( 0  0 )
n=( 5  8 )
l=( 1  1 )
num_ms=3
< -1  1 >:  -7.922832528685219e-5
< 0  0 >:  7.922832528685219e-5
< 1  -1 >:  -7.922832528685219e-5
ctilde_basis_func: rank=2 ndens=1 mu0=0 mu=( 0  0 )
n=( 1  6 )
l=( 3  3 )
num_ms=7
< -3  3 >:  -4.145314614165714e-5
< -2  2 >:  4.145314614165714e-5
< -1  1 >:  -4.145314614165714e-5
< 0  0 >:  4.145314614165714e-5
< 1  -1 >:  -4.145314614165714e-5
< 2  -2 >:  4.145314614165714e-5
< 3  -3 >:  -4.145314614165714e-5
ctilde_basis_func: rank=2 ndens=1 mu0=0 mu=( 0  0 )
n=( 2  5 )
l=( 2  2 )
num_ms=5
< -2  2 >:  9.879026956740588e-5
< -1  1 >:  -9.879026956740588e-5
< 0  0 >:  9.879026956740588e-5
< 1  -1 >:  -9.879026956740588e-5
< 2  -2 >:  9.879026956740588e-5
ctilde_basis_func: rank=2 ndens=1 mu0=0 mu=( 0  0 )
n=( 6  8 )
l=( 0  0 )
num_ms=1
< 0  0 >:  -4.843916464131399e-5
ctilde_basis_func: rank=2 ndens=1 mu0=0 mu=( 0  0 )
n=( 4  10 )
l=( 1  1 )
num_ms=3
< -1  1 >:  3.8722374874591335e-6
< 0  0 >:  -3.8722374874591335e-6
< 1  -1 >:  3.8722374874591335e-6
ctilde_basis_func: rank=2 ndens=1 mu0=0 mu=( 0  0 )
n=( 1  2 )
l=( 5  5 )
num_ms=11
< -5  5 >:  -8.405599418512247e-5
< -4  4 >:  8.40559941851225e-5
< -3  3 >:  -8.40559941851225e-5
< -2  2 >:  8.40559941851225e-5
< -1  1 >:  -8.40559941851225e-5
< 0  0 >:  8.40559941851225e-5
< 1  -1 >:  -8.40559941851225e-5
< 2  -2 >:  8.40559941851225e-5
< 3  -3 >:  -8.40559941851225e-5
< 4  -4 >:  8.40559941851225e-5
< 5  -5 >:  -8.40559941851225e-5
ctilde_basis_func: rank=2 ndens=1 mu0=0 mu=( 0  0 )
n=( 3  8 )
l=( 0  0 )
num_ms=1
< 0  0 >:  -4.7159497382817374e-5
ctilde_basis_func: rank=2 ndens=1 mu0=0 mu=( 0  0 )
n=( 1  4 )
l=( 1  1 )
num_ms=3
< -1  1 >:  -0.00016366810072637904
< 0  0 >:  0.00016366810072637904
< 1  -1 >:  -0.00016366810072637904
ctilde_basis_func: rank=2 ndens=1 mu0=0 mu=( 0  0 )
n=( 3  8 )
l=( 1  1 )
num_ms=3
< -1  1 >:  -6.961512419385e-5
< 0  0 >:  6.961512419385e-5
< 1  -1 >:  -6.961512419385e-5
ctilde_basis_func: rank=2 ndens=1 mu0=0 mu=( 0  0 )
n=( 2  5 )
l=( 1  1 )
num_ms=3
< -1  1 >:  -0.00013358491474776277
< 0  0 >:  0.00013358491474776277
< 1  -1 >:  -0.00013358491474776277
ctilde_basis_func: rank=2 ndens=1 mu0=0 mu=( 0  0 )
n=( 1  3 )
l=( 4  4 )
num_ms=9
< -4  4 >:  -2.2302541470824074e-5
< -3  3 >:  2.230254147082407e-5
< -2  2 >:  -2.230254147082407e-5
< -1  1 >:  2.230254147082407e-5
< 0  0 >:  -2.230254147082407e-5
< 1  -1 >:  2.230254147082407e-5
< 2  -2 >:  -2.230254147082407e-5
< 3  -3 >:  2.230254147082407e-5
< 4  -4 >:  -2.230254147082407e-5
ctilde_basis_func: rank=2 ndens=1 mu0=0 mu=( 0  0 )
n=( 2  4 )
l=( 4  4 )
num_ms=9
< -4  4 >:  -4.049636859687991e-5
< -3  3 >:  4.0496368596879906e-5
< -2  2 >:  -4.0496368596879906e-5
< -1  1 >:  4.0496368596879906e-5
< 0  0 >:  -4.0496368596879906e-5
< 1  -1 >:  4.0496368596879906e-5
< 2  -2 >:  -4.0496368596879906e-5
< 3  -3 >:  4.0496368596879906e-5
< 4  -4 >:  -4.0496368596879906e-5
ctilde_basis_func: rank=2 ndens=1 mu0=0 mu=( 0  0 )
n=( 4  7 )
l=( 0  0 )
num_ms=1
< 0  0 >:  2.3181320687213838e-5
ctilde_basis_func: rank=2 ndens=1 mu0=0 mu=( 0  0 )
n=( 4  11 )
l=( 1  1 )
num_ms=3
< -1  1 >:  -8.863144939212573e-6
< 0  0 >:  8.863144939212573e-6
< 1  -1 >:  -8.863144939212573e-6
ctilde_basis_func: rank=2 ndens=1 mu0=0 mu=( 0  0 )
n=( 3  8 )
l=( 2  2 )
num_ms=5
< -2  2 >:  -0.0001306419421838467
< -1  1 >:  0.0001306419421838467
< 0  0 >:  -0.0001306419421838467
< 1  -1 >:  0.0001306419421838467
< 2  -2 >:  -0.0001306419421838467
ctilde_basis_func: rank=2 ndens=1 mu0=0 mu=( 0  0 )
n=( 1  9 )
l=( 1  1 )
num_ms=3
< -1  1 >:  2.2671989074848052e-5
< 0  0 >:  -2.2671989074848052e-5
< 1  -1 >:  2.2671989074848052e-5
ctilde_basis_func: rank=2 ndens=1 mu0=0 mu=( 0  0 )
n=( 3  7 )
l=( 2  2 )
num_ms=5
< -2  2 >:  -8.651809845257324e-6
< -1  1 >:  8.651809845257324e-6
< 0  0 >:  -8.651809845257324e-6
< 1  -1 >:  8.651809845257324e-6
< 2  -2 >:  -8.651809845257324e-6
ctilde_basis_func: rank=2 ndens=1 mu0=0 mu=( 0  0 )
n=( 1  3 )
l=( 5  5 )
num_ms=11
< -5  5 >:  4.48457234590152e-5
< -4  4 >:  -4.484572345901522e-5
< -3  3 >:  4.484572345901522e-5
< -2  2 >:  -4.484572345901522e-5
< -1  1 >:  4.484572345901522e-5
< 0  0 >:  -4.484572345901522e-5
< 1  -1 >:  4.484572345901522e-5
< 2  -2 >:  -4.484572345901522e-5
< 3  -3 >:  4.484572345901522e-5
< 4  -4 >:  -4.484572345901522e-5
< 5  -5 >:  4.484572345901522e-5
ctilde_basis_func: rank=2 ndens=1 mu0=0 mu=( 0  0 )
n=( 3  4 )
l=( 0  0 )
num_ms=1
< 0  0 >:  -0.0001702961707106419
ctilde_basis_func: rank=2 ndens=1 mu0=0 mu=( 0  0 )
n=( 2  10 )
l=( 2  2 )
num_ms=5
< -2  2 >:  3.1565708589327425e-5
< -1  1 >:  -3.1565708589327425e-5
< 0  0 >:  3.1565708589327425e-5
< 1  -1 >:  -3.1565708589327425e-5
< 2  -2 >:  3.1565708589327425e-5
ctilde_basis_func: rank=2 ndens=1 mu0=0 mu=( 0  0 )
n=( 4  8 )
l=( 1  1 )
num_ms=3
< -1  1 >:  -6.7396379688760696e-6
< 0  0 >:  6.7396379688760696e-6
< 1  -1 >:  -6.7396379688760696e-6
ctilde_basis_func: rank=2 ndens=1 mu0=0 mu=( 0  0 )
n=( 6  9 )
l=( 1  1 )
num_ms=3
< -1  1 >:  4.2127562853784256e-5
< 0  0 >:  -4.2127562853784256e-5
< 1  -1 >:  4.2127562853784256e-5
ctilde_basis_func: rank=2 ndens=1 mu0=0 mu=( 0  0 )
n=( 2  3 )
l=( 3  3 )
num_ms=7
< -3  3 >:  -0.0001624501322339866
< -2  2 >:  0.0001624501322339866
< -1  1 >:  -0.0001624501322339866
< 0  0 >:  0.0001624501322339866
< 1  -1 >:  -0.0001624501322339866
< 2  -2 >:  0.0001624501322339866
< 3  -3 >:  -0.0001624501322339866
ctilde_basis_func: rank=2 ndens=1 mu0=0 mu=( 0  0 )
n=( 1  1 )
l=( 0  0 )
num_ms=1
< 0  0 >:  0.026489600969504076
ctilde_basis_func: rank=2 ndens=1 mu0=0 mu=( 0  0 )
n=( 5  10 )
l=( 1  1 )
num_ms=3
< -1  1 >:  -3.779474554731599e-5
< 0  0 >:  3.779474554731599e-5
< 1  -1 >:  -3.779474554731599e-5
ctilde_basis_func: rank=2 ndens=1 mu0=0 mu=( 0  0 )
n=( 2  11 )
l=( 0  0 )
num_ms=1
< 0  0 >:  2.5495190337885354e-6
ctilde_basis_func: rank=2 ndens=1 mu0=0 mu=( 0  0 )
n=( 1  3 )
l=( 3  3 )
num_ms=7
< -3  3 >:  -4.9840129129777675e-5
< -2  2 >:  4.9840129129777675e-5
< -1  1 >:  -4.9840129129777675e-5
< 0  0 >:  4.9840129129777675e-5
< 1  -1 >:  -4.9840129129777675e-5
< 2  -2 >:  4.9840129129777675e-5
< 3  -3 >:  -4.9840129129777675e-5
ctilde_basis_func: rank=2 ndens=1 mu0=0 mu=( 0  0 )
n=( 4  9 )
l=( 1  1 )
num_ms=3
< -1  1 >:  1.6223181437298373e-5
< 0  0 >:  -1.6223181437298373e-5
< 1  -1 >:  1.6223181437298373e-5
ctilde_basis_func: rank=2 ndens=1 mu0=0 mu=( 0  0 )
n=( 3  9 )
l=( 1  1 )
num_ms=3
< -1  1 >:  3.495634697864504e-5
< 0  0 >:  -3.495634697864504e-5
< 1  -1 >:  3.495634697864504e-5
ctilde_basis_func: rank=2 ndens=1 mu0=0 mu=( 0  0 )
n=( 1  12 )
l=( 0  0 )
num_ms=1
< 0  0 >:  -9.172115063146117e-6
ctilde_basis_func: rank=2 ndens=1 mu0=0 mu=( 0  0 )
n=( 3  4 )
l=( 1  1 )
num_ms=3
< -1  1 >:  8.913936497179557e-5
< 0  0 >:  -8.913936497179557e-5
< 1  -1 >:  8.913936497179557e-5
ctilde_basis_func: rank=2 ndens=1 mu0=0 mu=( 0  0 )
n=( 2  4 )
l=( 1  1 )
num_ms=3
< -1  1 >:  7.399994958223893e-5
< 0  0 >:  -7.399994958223893e-5
< 1  -1 >:  7.399994958223893e-5
ctilde_basis_func: rank=2 ndens=1 mu0=0 mu=( 0  0 )
n=( 2  11 )
l=( 1  1 )
num_ms=3
< -1  1 >:  -1.1987773853889577e-5
< 0  0 >:  1.1987773853889577e-5
< 1  -1 >:  -1.1987773853889577e-5
ctilde_basis_func: rank=2 ndens=1 mu0=0 mu=( 0  0 )
n=( 2  3 )
l=( 2  2 )
num_ms=5
< -2  2 >:  0.0005224083062800673
< -1  1 >:  -0.0005224083062800673
< 0  0 >:  0.0005224083062800673
< 1  -1 >:  -0.0005224083062800673
< 2  -2 >:  0.0005224083062800673
ctilde_basis_func: rank=2 ndens=1 mu0=0 mu=( 0  0 )
n=( 5  6 )
l=( 1  1 )
num_ms=3
< -1  1 >:  -0.00017254637240554128
< 0  0 >:  0.00017254637240554128
< 1  -1 >:  -0.00017254637240554128
ctilde_basis_func: rank=2 ndens=1 mu0=0 mu=( 0  0 )
n=( 2  2 )
l=( 2  2 )
num_ms=3
< -2  2 >:  -0.0001829269761486787
< -1  1 >:  0.0001829269761486787
< 0  0 >:  -9.146348807433936e-5
ctilde_basis_func: rank=2 ndens=1 mu0=0 mu=( 0  0 )
n=( 2  4 )
l=( 3  3 )
num_ms=7
< -3  3 >:  3.423147098507294e-5
< -2  2 >:  -3.423147098507294e-5
< -1  1 >:  3.423147098507294e-5
< 0  0 >:  -3.423147098507294e-5
< 1  -1 >:  3.423147098507294e-5
< 2  -2 >:  -3.423147098507294e-5
< 3  -3 >:  3.423147098507294e-5
ctilde_basis_func: rank=2 ndens=1 mu0=0 mu=( 0  0 )
n=( 6  7 )
l=( 1  1 )
num_ms=3
< -1  1 >:  -3.7105288069825756e-5
< 0  0 >:  3.7105288069825756e-5
< 1  -1 >:  -3.7105288069825756e-5
ctilde_basis_func: rank=2 ndens=1 mu0=0 mu=( 0  0 )
n=( 2  6 )
l=( 3  3 )
num_ms=7
< -3  3 >:  -7.930449728080577e-5
< -2  2 >:  7.930449728080577e-5
< -1  1 >:  -7.930449728080577e-5
< 0  0 >:  7.930449728080577e-5
< 1  -1 >:  -7.930449728080577e-5
< 2  -2 >:  7.930449728080577e-5
< 3  -3 >:  -7.930449728080577e-5
ctilde_basis_func: rank=2 ndens=1 mu0=0 mu=( 0  0 )
n=( 5  11 )
l=( 0  0 )
num_ms=1
< 0  0 >:  1.0009139559905882e-6
ctilde_basis_func: rank=2 ndens=1 mu0=0 mu=( 0  0 )
n=( 1  11 )
l=( 0  0 )
num_ms=1
< 0  0 >:  4.283334959020696e-6
ctilde_basis_func: rank=2 ndens=1 mu0=0 mu=( 0  0 )
n=( 2  7 )
l=( 1  1 )
num_ms=3
< -1  1 >:  -4.023722728959228e-5
< 0  0 >:  4.023722728959228e-5
< 1  -1 >:  -4.023722728959228e-5
ctilde_basis_func: rank=2 ndens=1 mu0=0 mu=( 0  0 )
n=( 6  6 )
l=( 0  0 )
num_ms=1
< 0  0 >:  -0.0001686316780060541
ctilde_basis_func: rank=2 ndens=1 mu0=0 mu=( 0  0 )
n=( 4  12 )
l=( 0  0 )
num_ms=1
< 0  0 >:  -3.997512706841857e-6
ctilde_basis_func: rank=2 ndens=1 mu0=0 mu=( 0  0 )
n=( 6  8 )
l=( 1  1 )
num_ms=3
< -1  1 >:  8.034481803272878e-6
< 0  0 >:  -8.034481803272878e-6
< 1  -1 >:  8.034481803272878e-6
ctilde_basis_func: rank=2 ndens=1 mu0=0 mu=( 0  0 )
n=( 5  10 )
l=( 0  0 )
num_ms=1
< 0  0 >:  -4.0631520951909755e-5
ctilde_basis_func: rank=2 ndens=1 mu0=0 mu=( 0  0 )
n=( 2  13 )
l=( 1  1 )
num_ms=3
< -1  1 >:  2.5088217461152212e-5
< 0  0 >:  -2.5088217461152212e-5
< 1  -1 >:  2.5088217461152212e-5
ctilde_basis_func: rank=2 ndens=1 mu0=0 mu=( 0  0 )
n=( 5  8 )
l=( 0  0 )
num_ms=1
< 0  0 >:  1.1161830366607897e-5
ctilde_basis_func: rank=2 ndens=1 mu0=0 mu=( 0  0 )
n=( 4  4 )
l=( 2  2 )
num_ms=3
< -2  2 >:  -0.00047382929908769075
< -1  1 >:  0.00047382929908769075
< 0  0 >:  -0.00023691464954384538
ctilde_basis_func: rank=2 ndens=1 mu0=0 mu=( 0  0 )
n=( 1  5 )
l=( 2  2 )
num_ms=5
< -2  2 >:  -9.944010864219945e-5
< -1  1 >:  9.944010864219945e-5
< 0  0 >:  -9.944010864219945e-5
< 1  -1 >:  9.944010864219945e-5
< 2  -2 >:  -9.944010864219945e-5
ctilde_basis_func: rank=2 ndens=1 mu0=0 mu=( 0  0 )
n=( 5  7 )
l=( 2  2 )
num_ms=5
< -2  2 >:  6.124622277900991e-5
< -1  1 >:  -6.124622277900991e-5
< 0  0 >:  6.124622277900991e-5
< 1  -1 >:  -6.124622277900991e-5
< 2  -2 >:  6.124622277900991e-5
ctilde_basis_func: rank=2 ndens=1 mu0=0 mu=( 0  0 )
n=( 1  11 )
l=( 2  2 )
num_ms=5
< -2  2 >:  -2.7389392477251743e-5
< -1  1 >:  2.7389392477251743e-5
< 0  0 >:  -2.7389392477251743e-5
< 1  -1 >:  2.7389392477251743e-5
< 2  -2 >:  -2.7389392477251743e-5
ctilde_basis_func: rank=2 ndens=1 mu0=0 mu=( 0  0 )
n=( 1  4 )
l=( 0  0 )
num_ms=1
< 0  0 >:  -0.0002737836593970248
ctilde_basis_func: rank=2 ndens=1 mu0=0 mu=( 0  0 )
n=( 5  9 )
l=( 0  0 )
num_ms=1
< 0  0 >:  2.6649862022828e-5
ctilde_basis_func: rank=2 ndens=1 mu0=0 mu=( 0  0 )
n=( 3  11 )
l=( 0  0 )
num_ms=1
< 0  0 >:  6.439498102885278e-6
ctilde_basis_func: rank=2 ndens=1 mu0=0 mu=( 0  0 )
n=( 6  11 )
l=( 0  0 )
num_ms=1
< 0  0 >:  2.4235714212704915e-5
ctilde_basis_func: rank=2 ndens=1 mu0=0 mu=( 0  0 )
n=( 3  6 )
l=( 1  1 )
num_ms=3
< -1  1 >:  5.1294621545698794e-5
< 0  0 >:  -5.1294621545698794e-5
< 1  -1 >:  5.1294621545698794e-5
ctilde_basis_func: rank=2 ndens=1 mu0=0 mu=( 0  0 )
n=( 3  4 )
l=( 2  2 )
num_ms=5
< -2  2 >:  0.0003019077111554728
< -1  1 >:  -0.0003019077111554728
< 0  0 >:  0.0003019077111554728
< 1  -1 >:  -0.0003019077111554728
< 2  -2 >:  0.0003019077111554728
ctilde_basis_func: rank=2 ndens=1 mu0=0 mu=( 0  0 )
n=( 3  12 )
l=( 0  0 )
num_ms=1
< 0  0 >:  -1.6780255190597366e-6
ctilde_basis_func: rank=2 ndens=1 mu0=0 mu=( 0  0 )
n=( 3  10 )
l=( 1  1 )
num_ms=3
< -1  1 >:  -4.155363796908606e-5
< 0  0 >:  4.155363796908606e-5
< 1  -1 >:  -4.155363796908606e-5
ctilde_basis_func: rank=2 ndens=1 mu0=0 mu=( 0  0 )
n=( 1  2 )
l=( 0  0 )
num_ms=1
< 0  0 >:  -0.0007681258144364271
ctilde_basis_func: rank=2 ndens=1 mu0=0 mu=( 0  0 )
n=( 2  9 )
l=( 2  2 )
num_ms=5
< -2  2 >:  5.0549478613830704e-5
< -1  1 >:  -5.0549478613830704e-5
< 0  0 >:  5.0549478613830704e-5
< 1  -1 >:  -5.0549478613830704e-5
< 2  -2 >:  5.0549478613830704e-5
ctilde_basis_func: rank=2 ndens=1 mu0=0 mu=( 0  0 )
n=( 3  14 )
l=( 0  0 )
num_ms=1
< 0  0 >:  2.598896695268761e-6
ctilde_basis_func: rank=2 ndens=1 mu0=0 mu=( 0  0 )
n=( 4  6 )
l=( 0  0 )
num_ms=1
< 0  0 >:  -3.3501397067919915e-5
ctilde_basis_func: rank=2 ndens=1 mu0=0 mu=( 0  0 )
n=( 2  10 )
l=( 0  0 )
num_ms=1
< 0  0 >:  1.947338036980194e-5
ctilde_basis_func: rank=2 ndens=1 mu0=0 mu=( 0  0 )
n=( 4  4 )
l=( 0  0 )
num_ms=1
< 0  0 >:  -1.569369167580925e-5
ctilde_basis_func: rank=2 ndens=1 mu0=0 mu=( 0  0 )
n=( 1  6 )
l=( 1  1 )
num_ms=3
< -1  1 >:  -9.13409425860877e-5
< 0  0 >:  9.13409425860877e-5
< 1  -1 >:  -9.13409425860877e-5
ctilde_basis_func: rank=2 ndens=1 mu0=0 mu=( 0  0 )
n=( 1  1 )
l=( 2  2 )
num_ms=3
< -2  2 >:  -0.0009662106795689683
< -1  1 >:  0.0009662106795689683
< 0  0 >:  -0.00048310533978448414
ctilde_basis_func: rank=2 ndens=1 mu0=0 mu=( 0  0 )
n=( 3  12 )
l=( 1  1 )
num_ms=3
< -1  1 >:  -2.0633327274630414e-5
< 0  0 >:  2.0633327274630414e-5
< 1  -1 >:  -2.0633327274630414e-5
ctilde_basis_func: rank=2 ndens=1 mu0=0 mu=( 0  0 )
n=( 2  2 )
l=( 0  0 )
num_ms=1
< 0  0 >:  -5.7231719256135806e-5
ctilde_basis_func: rank=2 ndens=1 mu0=0 mu=( 0  0 )
n=( 1  10 )
l=( 2  2 )
num_ms=5
< -2  2 >:  -1.986605480883738e-5
< -1  1 >:  1.986605480883738e-5
< 0  0 >:  -1.986605480883738e-5
< 1  -1 >:  1.986605480883738e-5
< 2  -2 >:  -1.986605480883738e-5
ctilde_basis_func: rank=2 ndens=1 mu0=0 mu=( 0  0 )
n=( 2  5 )
l=( 0  0 )
num_ms=1
< 0  0 >:  0.00016883200868209313
ctilde_basis_func: rank=2 ndens=1 mu0=0 mu=( 0  0 )
n=( 1  9 )
l=( 0  0 )
num_ms=1
< 0  0 >:  3.377550080893539e-5
ctilde_basis_func: rank=2 ndens=1 mu0=0 mu=( 0  0 )
n=( 1  3 )
l=( 0  0 )
num_ms=1
< 0  0 >:  0.0010613692380105435
ctilde_basis_func: rank=2 ndens=1 mu0=0 mu=( 0  0 )
n=( 5  5 )
l=( 0  0 )
num_ms=1
< 0  0 >:  -0.00015998581354156926
ctilde_basis_func: rank=2 ndens=1 mu0=0 mu=( 0  0 )
n=( 1  7 )
l=( 1  1 )
num_ms=3
< -1  1 >:  2.651531967777955e-6
< 0  0 >:  -2.651531967777955e-6
< 1  -1 >:  2.651531967777955e-6
ctilde_basis_func: rank=2 ndens=1 mu0=0 mu=( 0  0 )
n=( 3  7 )
l=( 0  0 )
num_ms=1
< 0  0 >:  -1.7143950093045743e-5
ctilde_basis_func: rank=2 ndens=1 mu0=0 mu=( 0  0 )
n=( 2  14 )
l=( 0  0 )
num_ms=1
< 0  0 >:  1.1406687323328658e-6
ctilde_basis_func: rank=2 ndens=1 mu0=0 mu=( 0  0 )
n=( 3  3 )
l=( 2  2 )
num_ms=3
< -2  2 >:  -0.001554176909008732
< -1  1 >:  0.001554176909008732
< 0  0 >:  -0.000777088454504366
ctilde_basis_func: rank=2 ndens=1 mu0=0 mu=( 0  0 )
n=( 1  10 )
l=( 1  1 )
num_ms=3
< -1  1 >:  1.2935196676446478e-5
< 0  0 >:  -1.2935196676446478e-5
< 1  -1 >:  1.2935196676446478e-5
ctilde_basis_func: rank=2 ndens=1 mu0=0 mu=( 0  0 )
n=( 1  2 )
l=( 1  1 )
num_ms=3
< -1  1 >:  -0.0008349934526167593
< 0  0 >:  0.0008349934526167593
< 1  -1 >:  -0.0008349934526167593
ctilde_basis_func: rank=2 ndens=1 mu0=0 mu=( 0  0 )
n=( 4  9 )
l=( 0  0 )
num_ms=1
< 0  0 >:  -3.873770377409795e-5
ctilde_basis_func: rank=2 ndens=1 mu0=0 mu=( 0  0 )
n=( 4  5 )
l=( 1  1 )
num_ms=3
< -1  1 >:  -0.00015830198216458568
< 0  0 >:  0.00015830198216458568
< 1  -1 >:  -0.00015830198216458568
ctilde_basis_func: rank=2 ndens=1 mu0=0 mu=( 0  0 )
n=( 7  7 )
l=( 1  1 )
num_ms=2
< -1  1 >:  4.874502784868615e-5
< 0  0 >:  -2.4372513924343074e-5
ctilde_basis_func: rank=2 ndens=1 mu0=0 mu=( 0  0 )
n=( 2  9 )
l=( 0  0 )
num_ms=1
< 0  0 >:  -2.679562716820418e-5
ctilde_basis_func: rank=2 ndens=1 mu0=0 mu=( 0  0 )
n=( 2  7 )
l=( 0  0 )
num_ms=1
< 0  0 >:  4.378216594809752e-5
ctilde_basis_func: rank=2 ndens=1 mu0=0 mu=( 0  0 )
n=( 5  13 )
l=( 0  0 )
num_ms=1
< 0  0 >:  -6.7551196631747994e-6
ctilde_basis_func: rank=2 ndens=1 mu0=0 mu=( 0  0 )
n=( 8  10 )
l=( 0  0 )
num_ms=1
< 0  0 >:  8.577139862729116e-6
ctilde_basis_func: rank=2 ndens=1 mu0=0 mu=( 0  0 )
n=( 2  6 )
l=( 0  0 )
num_ms=1
< 0  0 >:  -7.091276901835406e-5
ctilde_basis_func: rank=2 ndens=1 mu0=0 mu=( 0  0 )
n=( 2  13 )
l=( 0  0 )
num_ms=1
< 0  0 >:  8.115810346918749e-6
ctilde_basis_func: rank=2 ndens=1 mu0=0 mu=( 0  0 )
n=( 2  8 )
l=( 0  0 )
num_ms=1
< 0  0 >:  1.922413403450815e-5
ctilde_basis_func: rank=2 ndens=1 mu0=0 mu=( 0  0 )
n=( 5  6 )
l=( 0  0 )
num_ms=1
< 0  0 >:  0.00012268400540947023
ctilde_basis_func: rank=2 ndens=1 mu0=0 mu=( 0  0 )
n=( 1  15 )
l=( 0  0 )
num_ms=1
< 0  0 >:  -3.594668218972331e-6
ctilde_basis_func: rank=2 ndens=1 mu0=0 mu=( 0  0 )
n=( 3  7 )
l=( 1  1 )
num_ms=3
< -1  1 >:  4.852927730220715e-6
< 0  0 >:  -4.852927730220715e-6
< 1  -1 >:  4.852927730220715e-6
ctilde_basis_func: rank=2 ndens=1 mu0=0 mu=( 0  0 )
n=( 3  5 )
l=( 0  0 )
num_ms=1
< 0  0 >:  2.0591921178716375e-5
ctilde_basis_func: rank=2 ndens=1 mu0=0 mu=( 0  0 )
n=( 5  5 )
l=( 1  1 )
num_ms=2
< -1  1 >:  0.0001525985890359277
< 0  0 >:  -7.629929451796385e-5
ctilde_basis_func: rank=2 ndens=1 mu0=0 mu=( 0  0 )
n=( 7  10 )
l=( 0  0 )
num_ms=1
< 0  0 >:  3.226695006892957e-5
ctilde_basis_func: rank=2 ndens=1 mu0=0 mu=( 0  0 )
n=( 4  8 )
l=( 0  0 )
num_ms=1
< 0  0 >:  1.0479731537768898e-5
ctilde_basis_func: rank=2 ndens=1 mu0=0 mu=( 0  0 )
n=( 2  6 )
l=( 1  1 )
num_ms=3
< -1  1 >:  -5.666193436887639e-6
< 0  0 >:  5.666193436887639e-6
< 1  -1 >:  -5.666193436887639e-6
ctilde_basis_func: rank=2 ndens=1 mu0=0 mu=( 0  0 )
n=( 8  9 )
l=( 0  0 )
num_ms=1
< 0  0 >:  6.092248208515877e-6
ctilde_basis_func: rank=2 ndens=1 mu0=0 mu=( 0  0 )
n=( 3  5 )
l=( 1  1 )
num_ms=3
< -1  1 >:  -0.00015750990351580903
< 0  0 >:  0.00015750990351580903
< 1  -1 >:  -0.00015750990351580903
ctilde_basis_func: rank=2 ndens=1 mu0=0 mu=( 0  0 )
n=( 1  5 )
l=( 0  0 )
num_ms=1
< 0  0 >:  5.9224878471212305e-5
ctilde_basis_func: rank=2 ndens=1 mu0=0 mu=( 0  0 )
n=( 6  6 )
l=( 1  1 )
num_ms=2
< -1  1 >:  0.0003766821817576641
< 0  0 >:  -0.00018834109087883204
ctilde_basis_func: rank=2 ndens=1 mu0=0 mu=( 0  0 )
n=( 2  8 )
l=( 1  1 )
num_ms=3
< -1  1 >:  -6.537998781305445e-6
< 0  0 >:  6.537998781305445e-6
< 1  -1 >:  -6.537998781305445e-6
ctilde_basis_func: rank=2 ndens=1 mu0=0 mu=( 0  0 )
n=( 1  2 )
l=( 2  2 )
num_ms=5
< -2  2 >:  0.0005890892412251308
< -1  1 >:  -0.0005890892412251308
< 0  0 >:  0.0005890892412251308
< 1  -1 >:  -0.0005890892412251308
< 2  -2 >:  0.0005890892412251308
ctilde_basis_func: rank=2 ndens=1 mu0=0 mu=( 0  0 )
n=( 1  6 )
l=( 0  0 )
num_ms=1
< 0  0 >:  -6.475937146778826e-5
ctilde_basis_func: rank=2 ndens=1 mu0=0 mu=( 0  0 )
n=( 2  15 )
l=( 0  0 )
num_ms=1
< 0  0 >:  1.1126959987752643e-5
ctilde_basis_func: rank=2 ndens=1 mu0=0 mu=( 0  0 )
n=( 1  14 )
l=( 0  0 )
num_ms=1
< 0  0 >:  -3.481183676075744e-6
ctilde_basis_func: rank=2 ndens=1 mu0=0 mu=( 0  0 )
n=( 1  17 )
l=( 0  0 )
num_ms=1
< 0  0 >:  -2.5714569278334355e-6
ctilde_basis_func: rank=2 ndens=1 mu0=0 mu=( 0  0 )
n=( 1  1 )
l=( 1  1 )
num_ms=2
< -1  1 >:  0.0027775857482152493
< 0  0 >:  -0.0013887928741076246
ctilde_basis_func: rank=2 ndens=1 mu0=0 mu=( 0  0 )
n=( 3  6 )
l=( 0  0 )
num_ms=1
< 0  0 >:  -6.777111419641563e-5
ctilde_basis_func: rank=2 ndens=1 mu0=0 mu=( 0  0 )
n=( 6  12 )
l=( 0  0 )
num_ms=1
< 0  0 >:  -1.2148535410628091e-5
ctilde_basis_func: rank=2 ndens=1 mu0=0 mu=( 0  0 )
n=( 2  12 )
l=( 0  0 )
num_ms=1
< 0  0 >:  6.077018210017326e-6
ctilde_basis_func: rank=2 ndens=1 mu0=0 mu=( 0  0 )
n=( 4  11 )
l=( 0  0 )
num_ms=1
< 0  0 >:  -1.2034054367556644e-5
ctilde_basis_func: rank=2 ndens=1 mu0=0 mu=( 0  0 )
n=( 1  7 )
l=( 0  0 )
num_ms=1
< 0  0 >:  3.985757615890964e-5
ctilde_basis_func: rank=2 ndens=1 mu0=0 mu=( 0  0 )
n=( 2  3 )
l=( 0  0 )
num_ms=1
< 0  0 >:  -0.00044643918518184775
ctilde_basis_func: rank=2 ndens=1 mu0=0 mu=( 0  0 )
n=( 7  8 )
l=( 0  0 )
num_ms=1
< 0  0 >:  5.321642498020871e-5
ctilde_basis_func: rank=2 ndens=1 mu0=0 mu=( 0  0 )
n=( 7  7 )
l=( 0  0 )
num_ms=1
< 0  0 >:  -5.4248537233930275e-5
ctilde_basis_func: rank=2 ndens=1 mu0=0 mu=( 0  0 )
n=( 1  10 )
l=( 0  0 )
num_ms=1
< 0  0 >:  -3.9039859821887886e-5
ctilde_basis_func: rank=2 ndens=1 mu0=0 mu=( 0  0 )
n=( 2  4 )
l=( 0  0 )
num_ms=1
< 0  0 >:  -1.153593517702032e-5
ctilde_basis_func: rank=2 ndens=1 mu0=0 mu=( 0  0 )
n=( 4  4 )
l=( 1  1 )
num_ms=2
< -1  1 >:  -0.00011665025613282462
< 0  0 >:  5.832512806641231e-5
ctilde_basis_func: rank=2 ndens=1 mu0=0 mu=( 0  0 )
n=( 5  12 )
l=( 0  0 )
num_ms=1
< 0  0 >:  8.777171260185092e-7
ctilde_basis_func: rank=2 ndens=1 mu0=0 mu=( 0  0 )
n=( 2  3 )
l=( 1  1 )
num_ms=3
< -1  1 >:  -0.00048170124121193857
< 0  0 >:  0.00048170124121193857
< 1  -1 >:  -0.00048170124121193857
ctilde_basis_func: rank=2 ndens=1 mu0=0 mu=( 0  0 )
n=( 7  9 )
l=( 0  0 )
num_ms=1
< 0  0 >:  -9.028758934383119e-6
ctilde_basis_func: rank=2 ndens=1 mu0=0 mu=( 0  0 )
n=( 3  10 )
l=( 0  0 )
num_ms=1
< 0  0 >:  -5.9619047911557215e-5
ctilde_basis_func: rank=2 ndens=1 mu0=0 mu=( 0  0 )
n=( 3  13 )
l=( 0  0 )
num_ms=1
< 0  0 >:  -1.9742873913481814e-5
ctilde_basis_func: rank=2 ndens=1 mu0=0 mu=( 0  0 )
n=( 1  13 )
l=( 0  0 )
num_ms=1
< 0  0 >:  -8.536210672403736e-6
ctilde_basis_func: rank=2 ndens=1 mu0=0 mu=( 0  0 )
n=( 3  3 )
l=( 1  1 )
num_ms=2
< -1  1 >:  0.00028589815897645183
< 0  0 >:  -0.00014294907948822591
ctilde_basis_func: rank=2 ndens=1 mu0=0 mu=( 0  0 )
n=( 4  13 )
l=( 0  0 )
num_ms=1
< 0  0 >:  1.3372562689597204e-6
ctilde_basis_func: rank=2 ndens=1 mu0=0 mu=( 0  0 )
n=( 6  9 )
l=( 0  0 )
num_ms=1
< 0  0 >:  5.609549832328082e-6
ctilde_basis_func: rank=2 ndens=1 mu0=0 mu=( 0  0 )
n=( 4  10 )
l=( 0  0 )
num_ms=1
< 0  0 >:  4.606063061035301e-5
ctilde_basis_func: rank=2 ndens=1 mu0=0 mu=( 0  0 )
n=( 7  11 )
l=( 0  0 )
num_ms=1
< 0  0 >:  2.76970839243997e-6
ctilde_basis_func: rank=2 ndens=1 mu0=0 mu=( 0  0 )
n=( 5  7 )
l=( 0  0 )
num_ms=1
< 0  0 >:  -8.441988550357448e-5
ctilde_basis_func: rank=2 ndens=1 mu0=0 mu=( 0  0 )
n=( 6  10 )
l=( 0  0 )
num_ms=1
< 0  0 >:  -8.305304191702132e-6
ctilde_basis_func: rank=3 ndens=1 mu0=0 mu=( 0  0  0 )
n=( 3  3  4 )
l=( 2  3  1 )
num_ms=15
< -2  1  1 >:  2.4837945172801606e-6
< -2  2  0 >:  -5.5539333827797155e-6
< -2  3  -1 >:  9.61969480082735e-6
< -1  0  1 >:  -4.302058299490251e-6
< -1  1  0 >:  7.025231784971075e-6
< -1  2  -1 >:  -7.854447914443755e-6
< 0  -1  1 >:  6.084029193258848e-6
< 0  0  0 >:  -7.45138355184048e-6
< 0  1  -1 >:  6.084029193258848e-6
< 1  -2  1 >:  -7.854447914443755e-6
< 1  -1  0 >:  7.025231784971075e-6
< 1  0  -1 >:  -4.302058299490251e-6
< 2  -3  1 >:  9.619694800827353e-6
< 2  -2  0 >:  -5.5539333827797155e-6
< 2  -1  -1 >:  2.4837945172801606e-6
ctilde_basis_func: rank=3 ndens=1 mu0=0 mu=( 0  0  0 )
n=( 1  2  7 )
l=( 3  1  2 )
num_ms=15
< -3  1  2 >:  8.632220857345997e-6
< -2  0  2 >:  -4.983815035693014e-6
< -2  1  1 >:  -7.048178815836011e-6
< -1  -1  2 >:  2.2288298414190216e-6
< -1  0  1 >:  6.304082779913316e-6
< -1  1  0 >:  5.459495834964956e-6
< 0  -1  1 >:  -3.860446526763433e-6
< 0  0  0 >:  -6.686489524257073e-6
< 0  1  -1 >:  -3.860446526763433e-6
< 1  -1  0 >:  5.459495834964956e-6
< 1  0  -1 >:  6.304082779913316e-6
< 1  1  -2 >:  2.228829841419024e-6
< 2  -1  -1 >:  -7.048178815836011e-6
< 2  0  -2 >:  -4.983815035693014e-6
< 3  -1  -2 >:  8.632220857345997e-6
ctilde_basis_func: rank=3 ndens=1 mu0=0 mu=( 0  0  0 )
n=( 1  2  2 )
l=( 4  2  2 )
num_ms=15
< -4  2  2 >:  -0.00014574334019020634
< -3  1  2 >:  0.00020611220832254554
< -2  0  2 >:  -0.0001349321137560817
< -2  1  1 >:  -0.0001101716095391917
< -1  -1  2 >:  7.7903092199399e-5
< -1  0  1 >:  0.00019082282527352006
< 0  -2  2 >:  -3.4839321963057916e-5
< 0  -1  1 >:  -0.0001393572878522318
< 0  0  0 >:  -0.00010451796588917383
< 1  -2  1 >:  7.7903092199399e-5
< 1  -1  0 >:  0.00019082282527352006
< 2  -2  0 >:  -0.0001349321137560817
< 2  -1  -1 >:  -0.0001101716095391917
< 3  -2  -1 >:  0.00020611220832254554
< 4  -2  -2 >:  -0.00014574334019020634
ctilde_basis_func: rank=3 ndens=1 mu0=0 mu=( 0  0  0 )
n=( 2  2  3 )
l=( 3  4  1 )
num_ms=21
< -3  2  1 >:  6.6627851624433414e-6
< -3  3  0 >:  -1.7628072578876172e-5
< -3  4  -1 >:  3.5256145157752344e-5
< -2  1  1 >:  -1.1540282421267922e-5
< -2  2  0 >:  2.3080564842535845e-5
< -2  3  -1 >:  -3.0532717346125255e-5
< -1  0  1 >:  1.6320423913772916e-5
< -1  1  0 >:  -2.580485597350094e-5
< -1  2  -1 >:  2.580485597350094e-5
< 0  -1  1 >:  -2.106957667369593e-5
< 0  0  0 >:  2.6651140649773366e-5
< 0  1  -1 >:  -2.106957667369593e-5
< 1  -2  1 >:  2.580485597350094e-5
< 1  -1  0 >:  -2.580485597350094e-5
< 1  0  -1 >:  1.6320423913772916e-5
< 2  -3  1 >:  -3.0532717346125255e-5
< 2  -2  0 >:  2.3080564842535845e-5
< 2  -1  -1 >:  -1.1540282421267922e-5
< 3  -4  1 >:  3.5256145157752364e-5
< 3  -3  0 >:  -1.7628072578876172e-5
< 3  -2  -1 >:  6.6627851624433414e-6
ctilde_basis_func: rank=3 ndens=1 mu0=0 mu=( 0  0  0 )
n=( 3  3  5 )
l=( 1  2  1 )
num_ms=9
< -1  0  1 >:  1.3046089392531672e-5
< -1  1  0 >:  -2.2596489667950243e-5
< -1  2  -1 >:  3.1956262150438764e-5
< 0  -1  1 >:  -2.2596489667950243e-5
< 0  0  0 >:  2.6092178785063343e-5
< 0  1  -1 >:  -2.2596489667950243e-5
< 1  -2  1 >:  3.195626215043875e-5
< 1  -1  0 >:  -2.2596489667950243e-5
< 1  0  -1 >:  1.3046089392531672e-5
ctilde_basis_func: rank=3 ndens=1 mu0=0 mu=( 0  0  0 )
n=( 1  2  5 )
l=( 0  1  1 )
num_ms=3
< 0  -1  1 >:  4.04412077328627e-6
< 0  0  0 >:  -4.044120773286268e-6
< 0  1  -1 >:  4.044120773286268e-6
ctilde_basis_func: rank=3 ndens=1 mu0=0 mu=( 0  0  0 )
n=( 1  3  6 )
l=( 3  0  3 )
num_ms=7
< -3  0  3 >:  1.2696183209328534e-5
< -2  0  2 >:  -1.2696183209328534e-5
< -1  0  1 >:  1.2696183209328534e-5
< 0  0  0 >:  -1.2696183209328534e-5
< 1  0  -1 >:  1.2696183209328534e-5
< 2  0  -2 >:  -1.2696183209328534e-5
< 3  0  -3 >:  1.2696183209328534e-5
ctilde_basis_func: rank=3 ndens=1 mu0=0 mu=( 0  0  0 )
n=( 2  4  4 )
l=( 0  3  3 )
num_ms=4
< 0  -3  3 >:  9.981277281984714e-6
< 0  -2  2 >:  -9.981277281984714e-6
< 0  -1  1 >:  9.981277281984714e-6
< 0  0  0 >:  -4.990638640992357e-6
ctilde_basis_func: rank=3 ndens=1 mu0=0 mu=( 0  0  0 )
n=( 3  4  10 )
l=( 0  0  0 )
num_ms=1
< 0  0  0 >:  -4.107630585795305e-6
ctilde_basis_func: rank=3 ndens=1 mu0=0 mu=( 0  0  0 )
n=( 1  1  1 )
l=( 1  4  5 )
num_ms=27
< -1  -4  5 >:  0.00016026603856282158
< -1  -3  4 >:  -0.00014334630268442882
< -1  -2  3 >:  0.00012641955608786308
< -1  -1  2 >:  -0.00010948254710724112
< -1  0  1 >:  9.252964050620006e-5
< -1  1  0 >:  -7.555013510778399e-5
< -1  2  -1 >:  5.852088301523354e-5
< -1  3  -2 >:  -4.1380513221096284e-5
< -1  4  -3 >:  2.3891050447404804e-5
< 0  -4  4 >:  -7.167315134221441e-5
< 0  -3  3 >:  9.556420178961922e-5
< 0  -2  2 >:  -0.00010948254710724112
< 0  -1  1 >:  0.00011704176603046708
< 0  0  0 >:  -0.00011945525223702405
< 0  1  -1 >:  0.00011704176603046708
< 0  2  -2 >:  -0.00010948254710724112
< 0  3  -3 >:  9.556420178961922e-5
< 0  4  -4 >:  -7.167315134221441e-5
< 1  -4  3 >:  2.3891050447404804e-5
< 1  -3  2 >:  -4.1380513221096284e-5
< 1  -2  1 >:  5.852088301523354e-5
< 1  -1  0 >:  -7.555013510778399e-5
< 1  0  -1 >:  9.252964050620006e-5
< 1  1  -2 >:  -0.00010948254710724112
< 1  2  -3 >:  0.00012641955608786308
< 1  3  -4 >:  -0.00014334630268442882
< 1  4  -5 >:  0.00016026603856282172
ctilde_basis_func: rank=3 ndens=1 mu0=0 mu=( 0  0  0 )
n=( 1  1  3 )
l=( 4  4  0 )
num_ms=5
< -4  4  0 >:  8.570521506159983e-5
< -3  3  0 >:  -8.570521506159982e-5
< -2  2  0 >:  8.570521506159982e-5
< -1  1  0 >:  -8.570521506159982e-5
< 0  0  0 >:  4.285260753079991e-5
ctilde_basis_func: rank=3 ndens=1 mu0=0 mu=( 0  0  0 )
n=( 1  2  5 )
l=( 2  3  1 )
num_ms=15
< -2  1  1 >:  -5.920209338208293e-6
< -2  2  0 >:  1.323799052126279e-5
< -2  3  -1 >:  -2.2928872172942352e-5
< -1  0  1 >:  1.0254103365220484e-5
< -1  1  0 >:  -1.674488067636403e-5
< -1  2  -1 >:  1.8721345733736313e-5
< 0  -1  1 >:  -1.4501492049070402e-5
< 0  0  0 >:  1.776062801462488e-5
< 0  1  -1 >:  -1.4501492049070402e-5
< 1  -2  1 >:  1.8721345733736313e-5
< 1  -1  0 >:  -1.674488067636403e-5
< 1  0  -1 >:  1.0254103365220484e-5
< 2  -3  1 >:  -2.2928872172942363e-5
< 2  -2  0 >:  1.323799052126279e-5
< 2  -1  -1 >:  -5.920209338208293e-6
ctilde_basis_func: rank=3 ndens=1 mu0=0 mu=( 0  0  0 )
n=( 1  2  9 )
l=( 1  2  1 )
num_ms=9
< -1  0  1 >:  3.098836407458666e-6
< -1  1  0 >:  -5.36734210206262e-6
< -1  2  -1 >:  7.590567994633077e-6
< 0  -1  1 >:  -5.36734210206262e-6
< 0  0  0 >:  6.197672814917332e-6
< 0  1  -1 >:  -5.36734210206262e-6
< 1  -2  1 >:  7.5905679946330745e-6
< 1  -1  0 >:  -5.36734210206262e-6
< 1  0  -1 >:  3.098836407458666e-6
ctilde_basis_func: rank=3 ndens=1 mu0=0 mu=( 0  0  0 )
n=( 1  3  4 )
l=( 1  3  2 )
num_ms=15
< -1  -1  2 >:  1.3116517922698907e-5
< -1  0  1 >:  -2.2718475460502304e-5
< -1  1  0 >:  3.2128776112682695e-5
< -1  2  -1 >:  -4.147807160614892e-5
< -1  3  -2 >:  5.080005547484398e-5
< 0  -2  2 >:  -2.9329425703249097e-5
< 0  -1  1 >:  3.7099115074781144e-5
< 0  0  0 >:  -3.934955376809673e-5
< 0  1  -1 >:  3.7099115074781144e-5
< 0  2  -2 >:  -2.9329425703249097e-5
< 1  -3  2 >:  5.0800055474843985e-5
< 1  -2  1 >:  -4.147807160614892e-5
< 1  -1  0 >:  3.2128776112682695e-5
< 1  0  -1 >:  -2.2718475460502304e-5
< 1  1  -2 >:  1.3116517922698907e-5
ctilde_basis_func: rank=3 ndens=1 mu0=0 mu=( 0  0  0 )
n=( 1  1  3 )
l=( 3  4  3 )
num_ms=43
< -3  0  3 >:  -2.7739163123041023e-6
< -3  1  2 >:  5.064455122935006e-6
< -3  2  1 >:  -6.794679554327834e-6
< -3  3  0 >:  7.33909272006203e-6
< -3  4  -1 >:  -5.992344113042213e-6
< -2  -1  3 >:  5.064455122935006e-6
< -2  0  2 >:  -6.472471395376236e-6
< -2  1  1 >:  5.2305467596645635e-6
< -2  2  0 >:  -1.6015213296182671e-6
< -2  3  -1 >:  -3.459681486741791e-6
< -2  4  -2 >:  7.736082984852182e-6
< -1  -2  3 >:  -6.794679554327834e-6
< -1  -1  2 >:  5.2305467596645635e-6
< -1  0  1 >:  -9.246387707680337e-7
< -1  1  0 >:  -3.5811105604422923e-6
< -1  2  -1 >:  5.8479290570506104e-6
< -1  3  -2 >:  -3.459681486741791e-6
< -1  4  -3 >:  -5.992344113042213e-6
< 0  -3  3 >:  7.33909272006203e-6
< 0  -2  2 >:  -1.6015213296182671e-6
< 0  -1  1 >:  -3.5811105604422923e-6
< 0  0  0 >:  5.547832624608205e-6
< 0  1  -1 >:  -3.5811105604422923e-6
< 0  2  -2 >:  -1.6015213296182671e-6
< 0  3  -3 >:  7.33909272006203e-6
< 1  -4  3 >:  -5.992344113042205e-6
< 1  -3  2 >:  -3.459681486741791e-6
< 1  -2  1 >:  5.8479290570506104e-6
< 1  -1  0 >:  -3.5811105604422923e-6
< 1  0  -1 >:  -9.246387707680337e-7
< 1  1  -2 >:  5.2305467596645635e-6
< 1  2  -3 >:  -6.794679554327834e-6
< 2  -4  2 >:  7.736082984852182e-6
< 2  -3  1 >:  -3.459681486741791e-6
< 2  -2  0 >:  -1.6015213296182671e-6
< 2  -1  -1 >:  5.2305467596645635e-6
< 2  0  -2 >:  -6.472471395376236e-6
< 2  1  -3 >:  5.064455122935006e-6
< 3  -4  1 >:  -5.992344113042213e-6
< 3  -3  0 >:  7.33909272006203e-6
< 3  -2  -1 >:  -6.794679554327834e-6
< 3  -1  -2 >:  5.064455122935006e-6
< 3  0  -3 >:  -2.7739163123041023e-6
ctilde_basis_func: rank=3 ndens=1 mu0=0 mu=( 0  0  0 )
n=( 1  3  3 )
l=( 0  3  3 )
num_ms=4
< 0  -3  3 >:  -0.00021594125999830778
< 0  -2  2 >:  0.00021594125999830778
< 0  -1  1 >:  -0.00021594125999830778
< 0  0  0 >:  0.00010797062999915389
ctilde_basis_func: rank=3 ndens=1 mu0=0 mu=( 0  0  0 )
n=( 1  1  1 )
l=( 2  4  4 )
num_ms=21
< -2  -2  4 >:  -7.464345073248645e-5
< -2  -1  3 >:  0.00011196517609872968
< -2  0  2 >:  -0.00013382398172236514
< -2  1  1 >:  7.053143129923613e-5
< -1  -3  4 >:  0.00013964510940375232
< -1  -2  3 >:  -0.00013195222546026283
< -1  -1  2 >:  8.977185604526934e-5
< -1  0  1 >:  -3.1542614987089666e-5
< 0  -4  4 >:  -0.00016124828301054223
< 0  -3  3 >:  4.031207075263558e-5
< 0  -2  2 >:  4.607093800301208e-5
< 0  -1  1 >:  -9.790074325640066e-5
< 0  0  0 >:  5.758867250376511e-5
< 1  -4  3 >:  0.00013964510940375232
< 1  -3  2 >:  -0.00013195222546026283
< 1  -2  1 >:  8.977185604526934e-5
< 1  -1  0 >:  -3.1542614987089666e-5
< 2  -4  2 >:  -7.464345073248645e-5
< 2  -3  1 >:  0.00011196517609872968
< 2  -2  0 >:  -0.00013382398172236514
< 2  -1  -1 >:  7.053143129923613e-5
ctilde_basis_func: rank=3 ndens=1 mu0=0 mu=( 0  0  0 )
n=( 1  4  4 )
l=( 1  1  2 )
num_ms=9
< -1  -1  2 >:  -3.0372182798964337e-5
< -1  0  1 >:  2.14763764165851e-5
< -1  1  0 >:  -1.239939170533314e-5
< 0  -1  1 >:  2.14763764165851e-5
< 0  0  0 >:  -2.479878341066628e-5
< 0  1  -1 >:  2.14763764165851e-5
< 1  -1  0 >:  -1.239939170533314e-5
< 1  0  -1 >:  2.14763764165851e-5
< 1  1  -2 >:  -3.0372182798964344e-5
ctilde_basis_func: rank=3 ndens=1 mu0=0 mu=( 0  0  0 )
n=( 3  4  4 )
l=( 1  1  2 )
num_ms=9
< -1  -1  2 >:  7.099402282131562e-6
< -1  0  1 >:  -5.020035496066479e-6
< -1  1  0 >:  2.898318844995458e-6
< 0  -1  1 >:  -5.020035496066479e-6
< 0  0  0 >:  5.796637689990916e-6
< 0  1  -1 >:  -5.020035496066479e-6
< 1  -1  0 >:  2.898318844995458e-6
< 1  0  -1 >:  -5.020035496066479e-6
< 1  1  -2 >:  7.099402282131562e-6
ctilde_basis_func: rank=3 ndens=1 mu0=0 mu=( 0  0  0 )
n=( 2  3  5 )
l=( 0  1  1 )
num_ms=3
< 0  -1  1 >:  1.0212266125015323e-5
< 0  0  0 >:  -1.0212266125015318e-5
< 0  1  -1 >:  1.0212266125015318e-5
ctilde_basis_func: rank=3 ndens=1 mu0=0 mu=( 0  0  0 )
n=( 1  1  3 )
l=( 2  5  3 )
num_ms=35
< -2  -1  3 >:  1.3757605008342174e-7
< -2  0  2 >:  -3.076294000624466e-7
< -2  1  1 >:  5.328297508100899e-7
< -2  2  0 >:  -8.139108885372317e-7
< -2  3  -1 >:  1.1510438171324896e-6
< -2  4  -2 >:  -1.54428733211345e-6
< -2  5  -3 >:  1.993666373011491e-6
< -1  -2  3 >:  -3.6399201487930085e-7
< -1  -1  2 >:  6.739822470639327e-7
< -1  0  1 >:  -9.72809579428476e-7
< -1  1  0 >:  1.2305176002497864e-6
< -1  2  -1 >:  -1.4097350117800145e-6
< -1  3  -2 >:  1.4559680595172034e-6
< -1  4  -3 >:  -1.2609053266406317e-6
< 0  -3  3 >:  7.279840297586017e-7
< 0  -2  2 >:  -1.0919760446379024e-6
< 0  -1  1 >:  1.3051610092590321e-6
< 0  0  0 >:  -1.3757605008342174e-6
< 0  1  -1 >:  1.3051610092590321e-6
< 0  2  -2 >:  -1.0919760446379024e-6
< 0  3  -3 >:  7.279840297586017e-7
< 1  -4  3 >:  -1.2609053266406317e-6
< 1  -3  2 >:  1.4559680595172034e-6
< 1  -2  1 >:  -1.4097350117800145e-6
< 1  -1  0 >:  1.2305176002497864e-6
< 1  0  -1 >:  -9.72809579428476e-7
< 1  1  -2 >:  6.739822470639327e-7
< 1  2  -3 >:  -3.6399201487930085e-7
< 2  -5  3 >:  1.993666373011492e-6
< 2  -4  2 >:  -1.54428733211345e-6
< 2  -3  1 >:  1.1510438171324896e-6
< 2  -2  0 >:  -8.139108885372317e-7
< 2  -1  -1 >:  5.328297508100899e-7
< 2  0  -2 >:  -3.076294000624466e-7
< 2  1  -3 >:  1.3757605008342174e-7
ctilde_basis_func: rank=3 ndens=1 mu0=0 mu=( 0  0  0 )
n=( 1  1  5 )
l=( 2  3  3 )
num_ms=27
< -2  -1  3 >:  6.0438576142701e-5
< -2  0  2 >:  -8.547305407152674e-5
< -2  1  1 >:  9.363103954766794e-5
< -2  2  0 >:  -8.547305407152674e-5
< -2  3  -1 >:  6.0438576142701e-5
< -1  -2  3 >:  -9.556177957422447e-5
< -1  -1  2 >:  7.40218361649831e-5
< -1  0  1 >:  -2.7028952943675294e-5
< -1  1  0 >:  -2.7028952943675294e-5
< -1  2  -1 >:  7.40218361649831e-5
< -1  3  -2 >:  -9.556177957422447e-5
< 0  -3  3 >:  9.556177957422451e-5
< 0  -1  1 >:  -5.733706774453468e-5
< 0  0  0 >:  7.644942365937958e-5
< 0  1  -1 >:  -5.733706774453468e-5
< 0  3  -3 >:  9.556177957422447e-5
< 1  -3  2 >:  -9.556177957422447e-5
< 1  -2  1 >:  7.40218361649831e-5
< 1  -1  0 >:  -2.7028952943675294e-5
< 1  0  -1 >:  -2.7028952943675294e-5
< 1  1  -2 >:  7.40218361649831e-5
< 1  2  -3 >:  -9.556177957422447e-5
< 2  -3  1 >:  6.0438576142701e-5
< 2  -2  0 >:  -8.547305407152674e-5
< 2  -1  -1 >:  9.363103954766794e-5
< 2  0  -2 >:  -8.547305407152674e-5
< 2  1  -3 >:  6.0438576142701e-5
ctilde_basis_func: rank=3 ndens=1 mu0=0 mu=( 0  0  0 )
n=( 1  1  2 )
l=( 2  5  3 )
num_ms=35
< -2  -1  3 >:  1.6231418203503092e-6
< -2  0  2 >:  -3.629455447426042e-6
< -2  1  1 >:  6.286401238749538e-6
< -2  2  0 >:  -9.602636508477973e-6
< -2  3  -1 >:  1.3580178784828573e-5
< -2  4  -2 >:  -1.8219721745686307e-5
< -2  5  -3 >:  2.3521559631192062e-5
< -1  -2  3 >:  -4.2944295992355965e-6
< -1  -1  2 >:  7.951738480060996e-6
< -1  0  1 >:  -1.1477345879971803e-5
< -1  1  0 >:  1.4517821789704168e-5
< -1  2  -1 >:  -1.6632254319299658e-5
< -1  3  -2 >:  1.7177718396942386e-5
< -1  4  -3 >:  -1.487634051080741e-5
< 0  -3  3 >:  8.588859198471193e-6
< 0  -2  2 >:  -1.288328879770679e-5
< 0  -1  1 >:  1.539847535333646e-5
< 0  0  0 >:  -1.6231418203503092e-5
< 0  1  -1 >:  1.539847535333646e-5
< 0  2  -2 >:  -1.288328879770679e-5
< 0  3  -3 >:  8.588859198471193e-6
< 1  -4  3 >:  -1.487634051080741e-5
< 1  -3  2 >:  1.7177718396942386e-5
< 1  -2  1 >:  -1.6632254319299658e-5
< 1  -1  0 >:  1.4517821789704168e-5
< 1  0  -1 >:  -1.1477345879971803e-5
< 1  1  -2 >:  7.951738480060996e-6
< 1  2  -3 >:  -4.2944295992355965e-6
< 2  -5  3 >:  2.3521559631192072e-5
< 2  -4  2 >:  -1.8219721745686307e-5
< 2  -3  1 >:  1.3580178784828573e-5
< 2  -2  0 >:  -9.602636508477973e-6
< 2  -1  -1 >:  6.286401238749538e-6
< 2  0  -2 >:  -3.629455447426042e-6
< 2  1  -3 >:  1.6231418203503092e-6
ctilde_basis_func: rank=3 ndens=1 mu0=0 mu=( 0  0  0 )
n=( 1  2  7 )
l=( 1  3  2 )
num_ms=15
< -1  -1  2 >:  2.5599632446022634e-6
< -1  0  1 >:  -4.4339864051599935e-6
< -1  1  0 >:  6.2706037095551864e-6
< -1  2  -1 >:  -8.095314579257898e-6
< -1  3  -2 >:  9.914695013247671e-6
< 0  -2  2 >:  -5.724251834831583e-6
< 0  -1  1 >:  7.240669479386308e-6
< 0  0  0 >:  -7.67988973380679e-6
< 0  1  -1 >:  7.240669479386308e-6
< 0  2  -2 >:  -5.724251834831583e-6
< 1  -3  2 >:  9.914695013247673e-6
< 1  -2  1 >:  -8.095314579257898e-6
< 1  -1  0 >:  6.2706037095551864e-6
< 1  0  -1 >:  -4.4339864051599935e-6
< 1  1  -2 >:  2.5599632446022634e-6
ctilde_basis_func: rank=3 ndens=1 mu0=0 mu=( 0  0  0 )
n=( 1  1  8 )
l=( 1  3  2 )
num_ms=15
< -1  -1  2 >:  -6.067372269500921e-7
< -1  0  1 >:  1.0508997039210082e-6
< -1  1  0 >:  -1.4861966139789598e-6
< -1  2  -1 >:  1.918671578376788e-6
< -1  3  -2 >:  -2.3498831755017766e-6
< 0  -2  2 >:  1.3567056839401236e-6
< 0  -1  1 >:  -1.7161120302989257e-6
< 0  0  0 >:  1.8202116808502762e-6
< 0  1  -1 >:  -1.7161120302989257e-6
< 0  2  -2 >:  1.3567056839401236e-6
< 1  -3  2 >:  -2.349883175501777e-6
< 1  -2  1 >:  1.918671578376788e-6
< 1  -1  0 >:  -1.4861966139789598e-6
< 1  0  -1 >:  1.0508997039210082e-6
< 1  1  -2 >:  -6.067372269500921e-7
ctilde_basis_func: rank=3 ndens=1 mu0=0 mu=( 0  0  0 )
n=( 1  1  6 )
l=( 2  3  1 )
num_ms=15
< -2  1  1 >:  1.4847326712231184e-6
< -2  2  0 >:  -3.3199631812697386e-6
< -2  3  -1 >:  5.7503449092171886e-6
< -1  0  1 >:  -2.5716324222158983e-6
< -1  1  0 >:  4.1994581602843354e-6
< -1  2  -1 >:  -4.695136957530991e-6
< 0  -1  1 >:  3.6368374489360967e-6
< 0  0  0 >:  -4.454198013669355e-6
< 0  1  -1 >:  3.6368374489360967e-6
< 1  -2  1 >:  -4.695136957530991e-6
< 1  -1  0 >:  4.1994581602843354e-6
< 1  0  -1 >:  -2.5716324222158983e-6
< 2  -3  1 >:  5.750344909217191e-6
< 2  -2  0 >:  -3.3199631812697386e-6
< 2  -1  -1 >:  1.4847326712231184e-6
ctilde_basis_func: rank=3 ndens=1 mu0=0 mu=( 0  0  0 )
n=( 1  1  10 )
l=( 1  2  1 )
num_ms=9
< -1  0  1 >:  -3.425432755790846e-6
< -1  1  0 >:  5.933023570940418e-6
< -1  2  -1 >:  -8.390562399903192e-6
< 0  -1  1 >:  5.933023570940418e-6
< 0  0  0 >:  -6.850865511581692e-6
< 0  1  -1 >:  5.933023570940418e-6
< 1  -2  1 >:  -8.390562399903189e-6
< 1  -1  0 >:  5.933023570940418e-6
< 1  0  -1 >:  -3.425432755790846e-6
ctilde_basis_func: rank=3 ndens=1 mu0=0 mu=( 0  0  0 )
n=( 1  1  1 )
l=( 2  2  4 )
num_ms=15
< -2  -2  4 >:  3.443166713582759e-7
< -2  -1  3 >:  -4.869373063860333e-7
< -2  0  2 >:  3.187752950302716e-7
< -2  1  1 >:  -1.8404500239672968e-7
< -2  2  0 >:  8.230742725563986e-8
< -1  -1  2 >:  2.602789384764439e-7
< -1  0  1 >:  -4.5081634558129477e-7
< -1  1  0 >:  3.2922970902255945e-7
< -1  2  -1 >:  -1.8404500239672968e-7
< 0  0  0 >:  2.4692228176691957e-7
< 0  1  -1 >:  -4.5081634558129477e-7
< 0  2  -2 >:  3.187752950302716e-7
< 1  1  -2 >:  2.602789384764439e-7
< 1  2  -3 >:  -4.869373063860333e-7
< 2  2  -4 >:  3.443166713582757e-7
ctilde_basis_func: rank=3 ndens=1 mu0=0 mu=( 0  0  0 )
n=( 1  2  6 )
l=( 3  0  3 )
num_ms=7
< -3  0  3 >:  4.730452460831391e-5
< -2  0  2 >:  -4.730452460831391e-5
< -1  0  1 >:  4.730452460831391e-5
< 0  0  0 >:  -4.730452460831391e-5
< 1  0  -1 >:  4.730452460831391e-5
< 2  0  -2 >:  -4.730452460831391e-5
< 3  0  -3 >:  4.730452460831391e-5
ctilde_basis_func: rank=3 ndens=1 mu0=0 mu=( 0  0  0 )
n=( 1  2  7 )
l=( 2  2  2 )
num_ms=19
< -2  0  2 >:  4.920190917726479e-6
< -2  1  1 >:  -6.025978592752981e-6
< -2  2  0 >:  4.920190917726479e-6
< -1  -1  2 >:  -6.025978592752981e-6
< -1  0  1 >:  2.4600954588632394e-6
< -1  1  0 >:  2.4600954588632394e-6
< -1  2  -1 >:  -6.025978592752981e-6
< 0  -2  2 >:  4.920190917726475e-6
< 0  -1  1 >:  2.4600954588632394e-6
< 0  0  0 >:  -4.920190917726479e-6
< 0  1  -1 >:  2.4600954588632394e-6
< 0  2  -2 >:  4.920190917726479e-6
< 1  -2  1 >:  -6.025978592752981e-6
< 1  -1  0 >:  2.4600954588632394e-6
< 1  0  -1 >:  2.4600954588632394e-6
< 1  1  -2 >:  -6.025978592752981e-6
< 2  -2  0 >:  4.920190917726479e-6
< 2  -1  -1 >:  -6.025978592752981e-6
< 2  0  -2 >:  4.920190917726479e-6
ctilde_basis_func: rank=3 ndens=1 mu0=0 mu=( 0  0  0 )
n=( 1  3  5 )
l=( 0  2  2 )
num_ms=5
< 0  -2  2 >:  1.5497403595814488e-5
< 0  -1  1 >:  -1.549740359581448e-5
< 0  0  0 >:  1.549740359581448e-5
< 0  1  -1 >:  -1.549740359581448e-5
< 0  2  -2 >:  1.549740359581448e-5
ctilde_basis_func: rank=3 ndens=1 mu0=0 mu=( 0  0  0 )
n=( 1  1  2 )
l=( 0  4  4 )
num_ms=9
< 0  -4  4 >:  1.9139255557118833e-5
< 0  -3  3 >:  -1.913925555711883e-5
< 0  -2  2 >:  1.913925555711883e-5
< 0  -1  1 >:  -1.913925555711883e-5
< 0  0  0 >:  1.913925555711883e-5
< 0  1  -1 >:  -1.913925555711883e-5
< 0  2  -2 >:  1.913925555711883e-5
< 0  3  -3 >:  -1.913925555711883e-5
< 0  4  -4 >:  1.913925555711883e-5
ctilde_basis_func: rank=3 ndens=1 mu0=0 mu=( 0  0  0 )
n=( 2  5  6 )
l=( 0  0  0 )
num_ms=1
< 0  0  0 >:  -1.29848707126736e-5
ctilde_basis_func: rank=3 ndens=1 mu0=0 mu=( 0  0  0 )
n=( 1  1  3 )
l=( 1  4  5 )
num_ms=27
< -1  -4  5 >:  -2.473034696024667e-5
< -1  -3  4 >:  2.211949476410676e-5
< -1  -2  3 >:  -1.9507560757407273e-5
< -1  -1  2 >:  1.6894043181783105e-5
< -1  0  1 >:  -1.4278072474651273e-5
< -1  1  0 >:  1.1657997357791045e-5
< -1  2  -1 >:  -9.030245923370957e-6
< -1  3  -2 >:  6.385348128197779e-6
< -1  4  -3 >:  -3.686582460684461e-6
< 0  -4  4 >:  1.105974738205338e-5
< 0  -3  3 >:  -1.4746329842737844e-5
< 0  -2  2 >:  1.6894043181783105e-5
< 0  -1  1 >:  -1.8060491846741913e-5
< 0  0  0 >:  1.8432912303422306e-5
< 0  1  -1 >:  -1.8060491846741913e-5
< 0  2  -2 >:  1.6894043181783105e-5
< 0  3  -3 >:  -1.4746329842737844e-5
< 0  4  -4 >:  1.105974738205338e-5
< 1  -4  3 >:  -3.686582460684461e-6
< 1  -3  2 >:  6.385348128197779e-6
< 1  -2  1 >:  -9.030245923370957e-6
< 1  -1  0 >:  1.1657997357791045e-5
< 1  0  -1 >:  -1.4278072474651273e-5
< 1  1  -2 >:  1.6894043181783105e-5
< 1  2  -3 >:  -1.9507560757407273e-5
< 1  3  -4 >:  2.211949476410676e-5
< 1  4  -5 >:  -2.47303469602467e-5
ctilde_basis_func: rank=3 ndens=1 mu0=0 mu=( 0  0  0 )
n=( 1  1  7 )
l=( 2  2  0 )
num_ms=3
< -2  2  0 >:  2.6069263906730816e-5
< -1  1  0 >:  -2.6069263906730816e-5
< 0  0  0 >:  1.3034631953365408e-5
ctilde_basis_func: rank=3 ndens=1 mu0=0 mu=( 0  0  0 )
n=( 1  2  4 )
l=( 3  1  4 )
num_ms=21
< -3  -1  4 >:  3.160556902544035e-6
< -3  0  3 >:  -1.5802784512720164e-6
< -3  1  2 >:  5.972891120428656e-7
< -2  -1  3 >:  -2.737122567709391e-6
< -2  0  2 >:  2.0690701777318855e-6
< -2  1  1 >:  -1.0345350888659428e-6
< -1  -1  2 >:  2.313290783813034e-6
< -1  0  1 >:  -2.313290783813034e-6
< -1  1  0 >:  1.4630535534250716e-6
< 0  -1  1 >:  -1.8887940156749618e-6
< 0  0  0 >:  2.3891564481714623e-6
< 0  1  -1 >:  -1.8887940156749618e-6
< 1  -1  0 >:  1.4630535534250716e-6
< 1  0  -1 >:  -2.313290783813034e-6
< 1  1  -2 >:  2.313290783813034e-6
< 2  -1  -1 >:  -1.0345350888659428e-6
< 2  0  -2 >:  2.0690701777318855e-6
< 2  1  -3 >:  -2.737122567709391e-6
< 3  -1  -2 >:  5.972891120428656e-7
< 3  0  -3 >:  -1.5802784512720164e-6
< 3  1  -4 >:  3.1605569025440328e-6
ctilde_basis_func: rank=3 ndens=1 mu0=0 mu=( 0  0  0 )
n=( 2  4  5 )
l=( 2  1  1 )
num_ms=9
< -2  1  1 >:  -3.893373492063197e-5
< -1  0  1 >:  2.753030797929836e-5
< -1  1  0 >:  2.753030797929836e-5
< 0  -1  1 >:  -1.5894630722721193e-5
< 0  0  0 >:  -3.178926144544242e-5
< 0  1  -1 >:  -1.589463072272121e-5
< 1  -1  0 >:  2.753030797929836e-5
< 1  0  -1 >:  2.753030797929836e-5
< 2  -1  -1 >:  -3.893373492063197e-5
ctilde_basis_func: rank=3 ndens=1 mu0=0 mu=( 0  0  0 )
n=( 2  2  2 )
l=( 2  2  4 )
num_ms=15
< -2  -2  4 >:  1.0185700815563044e-5
< -2  -1  3 >:  -1.4404756235643945e-5
< -2  0  2 >:  9.430126545317932e-6
< -2  1  1 >:  -5.444486099431544e-6
< -2  2  0 >:  2.434848204176322e-6
< -1  -1  2 >:  7.699666081967882e-6
< -1  0  1 >:  -1.3336212855283159e-5
< -1  1  0 >:  9.739392816705288e-6
< -1  2  -1 >:  -5.444486099431544e-6
< 0  0  0 >:  7.304544612528967e-6
< 0  1  -1 >:  -1.3336212855283159e-5
< 0  2  -2 >:  9.430126545317932e-6
< 1  1  -2 >:  7.699666081967882e-6
< 1  2  -3 >:  -1.4404756235643945e-5
< 2  2  -4 >:  1.0185700815563039e-5
ctilde_basis_func: rank=3 ndens=1 mu0=0 mu=( 0  0  0 )
n=( 1  1  7 )
l=( 1  2  3 )
num_ms=15
< -1  -2  3 >:  2.0373240553481685e-5
< -1  -1  2 >:  -1.6634681254335886e-5
< -1  0  1 >:  1.2885168693502316e-5
< -1  1  0 >:  -9.111190159908097e-6
< -1  2  -1 >:  5.260348091460808e-6
< 0  -2  2 >:  -1.176249591781765e-5
< 0  -1  1 >:  1.4878511227494605e-5
< 0  0  0 >:  -1.5781044274382426e-5
< 0  1  -1 >:  1.4878511227494605e-5
< 0  2  -2 >:  -1.176249591781765e-5
< 1  -2  1 >:  5.260348091460808e-6
< 1  -1  0 >:  -9.111190159908097e-6
< 1  0  -1 >:  1.2885168693502316e-5
< 1  1  -2 >:  -1.6634681254335886e-5
< 1  2  -3 >:  2.0373240553481685e-5
ctilde_basis_func: rank=3 ndens=1 mu0=0 mu=( 0  0  0 )
n=( 1  3  3 )
l=( 1  1  2 )
num_ms=9
< -1  -1  2 >:  -2.419373629073584e-5
< -1  0  1 >:  1.710755499341838e-5
< -1  1  0 >:  -9.87705148062643e-6
< 0  -1  1 >:  1.710755499341838e-5
< 0  0  0 >:  -1.975410296125286e-5
< 0  1  -1 >:  1.710755499341838e-5
< 1  -1  0 >:  -9.87705148062643e-6
< 1  0  -1 >:  1.710755499341838e-5
< 1  1  -2 >:  -2.419373629073584e-5
ctilde_basis_func: rank=3 ndens=1 mu0=0 mu=( 0  0  0 )
n=( 1  1  3 )
l=( 0  5  5 )
num_ms=11
< 0  -5  5 >:  -6.202919478076498e-6
< 0  -4  4 >:  6.202919478076502e-6
< 0  -3  3 >:  -6.202919478076502e-6
< 0  -2  2 >:  6.202919478076502e-6
< 0  -1  1 >:  -6.202919478076502e-6
< 0  0  0 >:  6.202919478076502e-6
< 0  1  -1 >:  -6.202919478076502e-6
< 0  2  -2 >:  6.202919478076502e-6
< 0  3  -3 >:  -6.202919478076502e-6
< 0  4  -4 >:  6.202919478076502e-6
< 0  5  -5 >:  -6.202919478076502e-6
ctilde_basis_func: rank=3 ndens=1 mu0=0 mu=( 0  0  0 )
n=( 1  1  1 )
l=( 1  2  3 )
num_ms=15
< -1  -2  3 >:  -0.00017647210837399638
< -1  -1  2 >:  0.00014408887311647515
< -1  0  1 >:  -0.00011161076119078035
< -1  1  0 >:  7.892072609139316e-5
< -1  2  -1 >:  -4.556490245350655e-5
< 0  -2  2 >:  0.00010188621927418764
< 0  -1  1 >:  -0.00012887700603591217
< 0  0  0 >:  0.00013669470736051966
< 0  1  -1 >:  -0.00012887700603591217
< 0  2  -2 >:  0.00010188621927418764
< 1  -2  1 >:  -4.556490245350655e-5
< 1  -1  0 >:  7.892072609139316e-5
< 1  0  -1 >:  -0.00011161076119078035
< 1  1  -2 >:  0.00014408887311647515
< 1  2  -3 >:  -0.00017647210837399638
ctilde_basis_func: rank=3 ndens=1 mu0=0 mu=( 0  0  0 )
n=( 1  2  8 )
l=( 0  1  1 )
num_ms=3
< 0  -1  1 >:  6.4824103393194215e-6
< 0  0  0 >:  -6.482410339319419e-6
< 0  1  -1 >:  6.482410339319419e-6
ctilde_basis_func: rank=3 ndens=1 mu0=0 mu=( 0  0  0 )
n=( 1  2  3 )
l=( 3  1  2 )
num_ms=15
< -3  1  2 >:  -4.6305712459877666e-5
< -2  0  2 >:  2.673461555372778e-5
< -2  1  1 >:  3.780845590091252e-5
< -1  -1  2 >:  -1.1956083546091688e-5
< -1  0  1 >:  -3.3816911007497375e-5
< -1  1  0 >:  -2.9286304010010346e-5
< 0  -1  1 >:  2.0708544161369094e-5
< 0  0  0 >:  3.5868250638275104e-5
< 0  1  -1 >:  2.0708544161369094e-5
< 1  -1  0 >:  -2.9286304010010346e-5
< 1  0  -1 >:  -3.3816911007497375e-5
< 1  1  -2 >:  -1.19560835460917e-5
< 2  -1  -1 >:  3.780845590091252e-5
< 2  0  -2 >:  2.673461555372778e-5
< 3  -1  -2 >:  -4.6305712459877666e-5
ctilde_basis_func: rank=3 ndens=1 mu0=0 mu=( 0  0  0 )
n=( 1  1  3 )
l=( 1  5  4 )
num_ms=27
< -1  -3  4 >:  -3.6221852270535483e-6
< -1  -2  3 >:  6.273808847682157e-6
< -1  -1  2 >:  -8.872505560128425e-6
< -1  0  1 >:  1.1454355424503364e-5
< -1  1  0 >:  -1.4028663061256922e-5
< -1  2  -1 >:  1.6598937984123694e-5
< -1  3  -2 >:  -1.9166802626791435e-5
< -1  4  -3 >:  2.1733111362321288e-5
< -1  5  -4 >:  -2.4298357184361735e-5
< 0  -4  4 >:  1.0866555681160644e-5
< 0  -3  3 >:  -1.4488740908214193e-5
< 0  -2  2 >:  1.6598937984123694e-5
< 0  -1  1 >:  -1.774501112025685e-5
< 0  0  0 >:  1.8110926135267744e-5
< 0  1  -1 >:  -1.774501112025685e-5
< 0  2  -2 >:  1.6598937984123694e-5
< 0  3  -3 >:  -1.4488740908214193e-5
< 0  4  -4 >:  1.0866555681160644e-5
< 1  -5  4 >:  -2.429835718436171e-5
< 1  -4  3 >:  2.1733111362321288e-5
< 1  -3  2 >:  -1.9166802626791435e-5
< 1  -2  1 >:  1.6598937984123694e-5
< 1  -1  0 >:  -1.4028663061256922e-5
< 1  0  -1 >:  1.1454355424503364e-5
< 1  1  -2 >:  -8.872505560128425e-6
< 1  2  -3 >:  6.273808847682157e-6
< 1  3  -4 >:  -3.6221852270535483e-6
ctilde_basis_func: rank=3 ndens=1 mu0=0 mu=( 0  0  0 )
n=( 1  1  2 )
l=( 2  2  4 )
num_ms=15
< -2  -2  4 >:  2.940952914157114e-5
< -2  -1  3 >:  -4.159135497501666e-5
< -2  0  2 >:  2.7227933204113142e-5
< -2  1  1 >:  -1.5720054564871873e-5
< -2  2  0 >:  7.030222123411877e-6
< -1  -1  2 >:  2.2231514366886884e-5
< -1  0  1 >:  -3.8506112412645524e-5
< -1  1  0 >:  2.812088849364751e-5
< -1  2  -1 >:  -1.5720054564871873e-5
< 0  0  0 >:  2.109066637023563e-5
< 0  1  -1 >:  -3.8506112412645524e-5
< 0  2  -2 >:  2.7227933204113142e-5
< 1  1  -2 >:  2.2231514366886884e-5
< 1  2  -3 >:  -4.159135497501666e-5
< 2  2  -4 >:  2.9409529141571125e-5
ctilde_basis_func: rank=3 ndens=1 mu0=0 mu=( 0  0  0 )
n=( 1  1  7 )
l=( 1  3  2 )
num_ms=15
< -1  -1  2 >:  -1.0727090785047934e-5
< -1  0  1 >:  1.857986625710694e-5
< -1  1  0 >:  -2.6275898847878864e-5
< -1  2  -1 >:  3.392203954815517e-5
< -1  3  -2 >:  -4.15458439637457e-5
< 0  -2  2 >:  2.398650419617877e-5
< 0  -1  1 >:  -3.0340794546044478e-5
< 0  0  0 >:  3.2181272355143804e-5
< 0  1  -1 >:  -3.0340794546044478e-5
< 0  2  -2 >:  2.398650419617877e-5
< 1  -3  2 >:  -4.154584396374571e-5
< 1  -2  1 >:  3.392203954815517e-5
< 1  -1  0 >:  -2.6275898847878864e-5
< 1  0  -1 >:  1.857986625710694e-5
< 1  1  -2 >:  -1.0727090785047934e-5
ctilde_basis_func: rank=3 ndens=1 mu0=0 mu=( 0  0  0 )
n=( 1  1  2 )
l=( 2  3  5 )
num_ms=35
< -2  -3  5 >:  2.5153448566533196e-5
< -2  -2  4 >:  -1.948377747957357e-5
< -2  -1  3 >:  1.4522350300935344e-5
< -2  0  2 >:  -1.026885237655788e-5
< -2  1  1 >:  6.72254190227195e-6
< -2  2  0 >:  -3.88126137691525e-6
< -2  3  -1 >:  1.7357528554453862e-6
< -1  -3  4 >:  -1.5908437695628447e-5
< -1  -2  3 >:  1.836948157191495e-5
< -1  -1  2 >:  -1.7786174051622658e-5
< -1  0  1 >:  1.5525045507661e-5
< -1  1  0 >:  -1.2273626145493458e-5
< -1  2  -1 >:  8.503417630840172e-6
< -1  3  -2 >:  -4.592370392978738e-6
< 0  -3  3 >:  9.184740785957475e-6
< 0  -2  2 >:  -1.3777111178936212e-5
< 0  -1  1 >:  1.6466797435045254e-5
< 0  0  0 >:  -1.735752855445386e-5
< 0  1  -1 >:  1.6466797435045254e-5
< 0  2  -2 >:  -1.3777111178936212e-5
< 0  3  -3 >:  9.184740785957475e-6
< 1  -3  2 >:  -4.592370392978738e-6
< 1  -2  1 >:  8.503417630840172e-6
< 1  -1  0 >:  -1.2273626145493458e-5
< 1  0  -1 >:  1.5525045507661e-5
< 1  1  -2 >:  -1.7786174051622658e-5
< 1  2  -3 >:  1.836948157191495e-5
< 1  3  -4 >:  -1.5908437695628447e-5
< 2  -3  1 >:  1.7357528554453862e-6
< 2  -2  0 >:  -3.88126137691525e-6
< 2  -1  -1 >:  6.72254190227195e-6
< 2  0  -2 >:  -1.026885237655788e-5
< 2  1  -3 >:  1.4522350300935344e-5
< 2  2  -4 >:  -1.948377747957357e-5
< 2  3  -5 >:  2.5153448566533186e-5
ctilde_basis_func: rank=3 ndens=1 mu0=0 mu=( 0  0  0 )
n=( 1  2  4 )
l=( 3  4  1 )
num_ms=21
< -3  2  1 >:  -1.4282314393363343e-6
< -3  3  0 >:  3.778745203127773e-6
< -3  4  -1 >:  -7.557490406255546e-6
< -2  1  1 >:  2.473769417897757e-6
< -2  2  0 >:  -4.947538835795514e-6
< -2  3  -1 >:  6.54497868067448e-6
< -1  0  1 >:  -3.4984382609748055e-6
< -1  1  0 >:  5.53151657907947e-6
< -1  2  -1 >:  -5.53151657907947e-6
< 0  -1  1 >:  4.516464374163419e-6
< 0  0  0 >:  -5.712925757345337e-6
< 0  1  -1 >:  4.516464374163419e-6
< 1  -2  1 >:  -5.53151657907947e-6
< 1  -1  0 >:  5.53151657907947e-6
< 1  0  -1 >:  -3.4984382609748055e-6
< 2  -3  1 >:  6.54497868067448e-6
< 2  -2  0 >:  -4.947538835795514e-6
< 2  -1  -1 >:  2.473769417897757e-6
< 3  -4  1 >:  -7.557490406255549e-6
< 3  -3  0 >:  3.778745203127773e-6
< 3  -2  -1 >:  -1.4282314393363343e-6
ctilde_basis_func: rank=3 ndens=1 mu0=0 mu=( 0  0  0 )
n=( 1  2  3 )
l=( 4  2  2 )
num_ms=25
< -4  2  2 >:  8.613627029084657e-5
< -3  1  2 >:  -6.0907540828774944e-5
< -3  2  1 >:  -6.0907540828774944e-5
< -2  0  2 >:  3.98733451773535e-5
< -2  1  1 >:  6.511290001492032e-5
< -2  2  0 >:  3.98733451773535e-5
< -1  -1  2 >:  -2.3020886571635912e-5
< -1  0  1 >:  -5.6389425526997175e-5
< -1  1  0 >:  -5.6389425526997175e-5
< -1  2  -1 >:  -2.3020886571635912e-5
< 0  -2  2 >:  1.0295253455297977e-5
< 0  -1  1 >:  4.118101382119199e-5
< 0  0  0 >:  6.177152073178797e-5
< 0  1  -1 >:  4.118101382119199e-5
< 0  2  -2 >:  1.0295253455297998e-5
< 1  -2  1 >:  -2.3020886571635912e-5
< 1  -1  0 >:  -5.6389425526997175e-5
< 1  0  -1 >:  -5.6389425526997175e-5
< 1  1  -2 >:  -2.3020886571635912e-5
< 2  -2  0 >:  3.98733451773535e-5
< 2  -1  -1 >:  6.511290001492032e-5
< 2  0  -2 >:  3.98733451773535e-5
< 3  -2  -1 >:  -6.0907540828774944e-5
< 3  -1  -2 >:  -6.0907540828774944e-5
< 4  -2  -2 >:  8.613627029084657e-5
ctilde_basis_func: rank=3 ndens=1 mu0=0 mu=( 0  0  0 )
n=( 1  1  2 )
l=( 1  5  4 )
num_ms=27
< -1  -3  4 >:  -6.724001345291672e-6
< -1  -2  3 >:  1.1646311960206658e-5
< -1  -1  2 >:  -1.6470372325752243e-5
< -1  0  1 >:  2.1263159241157982e-5
< -1  1  0 >:  -2.604194523019091e-5
< -1  2  -1 >:  3.081324513778399e-5
< -1  3  -2 >:  -3.558007074981103e-5
< -1  4  -3 >:  4.034400807175003e-5
< -1  5  -4 >:  -4.510597226661664e-5
< 0  -4  4 >:  2.0172004035875013e-5
< 0  -3  3 >:  -2.6896005381166688e-5
< 0  -2  2 >:  3.081324513778399e-5
< 0  -1  1 >:  -3.294074465150449e-5
< 0  0  0 >:  3.362000672645836e-5
< 0  1  -1 >:  -3.294074465150449e-5
< 0  2  -2 >:  3.081324513778399e-5
< 0  3  -3 >:  -2.6896005381166688e-5
< 0  4  -4 >:  2.0172004035875013e-5
< 1  -5  4 >:  -4.5105972266616605e-5
< 1  -4  3 >:  4.034400807175003e-5
< 1  -3  2 >:  -3.558007074981103e-5
< 1  -2  1 >:  3.081324513778399e-5
< 1  -1  0 >:  -2.604194523019091e-5
< 1  0  -1 >:  2.1263159241157982e-5
< 1  1  -2 >:  -1.6470372325752243e-5
< 1  2  -3 >:  1.1646311960206658e-5
< 1  3  -4 >:  -6.724001345291672e-6
ctilde_basis_func: rank=3 ndens=1 mu0=0 mu=( 0  0  0 )
n=( 1  1  2 )
l=( 3  3  2 )
num_ms=15
< -3  1  2 >:  -0.00011535572729861566
< -3  2  1 >:  0.00018239341970444406
< -3  3  0 >:  -0.00018239341970444406
< -2  0  2 >:  0.00016313763404311458
< -2  1  1 >:  -0.00014128133539462632
< -2  3  -1 >:  0.00018239341970444406
< -1  -1  2 >:  -8.935416214343657e-5
< -1  0  1 >:  5.158864956672657e-5
< -1  1  0 >:  0.00010943605182266643
< -1  2  -1 >:  -0.00014128133539462632
< -1  3  -2 >:  -0.0001153557272986157
< 0  0  0 >:  -7.295736788177763e-5
< 0  1  -1 >:  5.158864956672657e-5
< 0  2  -2 >:  0.00016313763404311458
< 1  1  -2 >:  -8.935416214343657e-5
ctilde_basis_func: rank=3 ndens=1 mu0=0 mu=( 0  0  0 )
n=( 1  2  4 )
l=( 1  1  2 )
num_ms=9
< -1  -1  2 >:  5.137612762139893e-5
< -1  0  1 >:  -3.632840823219668e-5
< -1  1  0 >:  2.0974216272089372e-5
< 0  -1  1 >:  -3.632840823219668e-5
< 0  0  0 >:  4.1948432544178743e-5
< 0  1  -1 >:  -3.632840823219668e-5
< 1  -1  0 >:  2.0974216272089372e-5
< 1  0  -1 >:  -3.632840823219668e-5
< 1  1  -2 >:  5.137612762139894e-5
ctilde_basis_func: rank=3 ndens=1 mu0=0 mu=( 0  0  0 )
n=( 1  2  3 )
l=( 1  3  2 )
num_ms=15
< -1  -1  2 >:  3.387451329865454e-5
< -1  0  1 >:  -5.867237811493727e-5
< -1  1  0 >:  8.297527286682664e-5
< -1  2  -1 >:  -0.00010712061665341192
< -1  3  -2 >:  0.0001311954258665707
< 0  -2  2 >:  -7.57457144405122e-5
< 0  -1  1 >:  9.581159225149005e-5
< 0  0  0 >:  -0.00010162353989596363
< 0  1  -1 >:  9.581159225149005e-5
< 0  2  -2 >:  -7.57457144405122e-5
< 1  -3  2 >:  0.00013119542586657073
< 1  -2  1 >:  -0.00010712061665341192
< 1  -1  0 >:  8.297527286682664e-5
< 1  0  -1 >:  -5.867237811493727e-5
< 1  1  -2 >:  3.387451329865454e-5
ctilde_basis_func: rank=3 ndens=1 mu0=0 mu=( 0  0  0 )
n=( 1  1  6 )
l=( 0  2  2 )
num_ms=5
< 0  -2  2 >:  -7.343054150996767e-6
< 0  -1  1 >:  7.3430541509967655e-6
< 0  0  0 >:  -7.3430541509967655e-6
< 0  1  -1 >:  7.3430541509967655e-6
< 0  2  -2 >:  -7.3430541509967655e-6
ctilde_basis_func: rank=3 ndens=1 mu0=0 mu=( 0  0  0 )
n=( 1  3  5 )
l=( 1  1  2 )
num_ms=9
< -1  -1  2 >:  -1.242500395113856e-5
< -1  0  1 >:  8.785804550119723e-6
< -1  1  0 >:  -5.072486622059061e-6
< 0  -1  1 >:  8.785804550119723e-6
< 0  0  0 >:  -1.0144973244118122e-5
< 0  1  -1 >:  8.785804550119723e-6
< 1  -1  0 >:  -5.072486622059061e-6
< 1  0  -1 >:  8.785804550119723e-6
< 1  1  -2 >:  -1.242500395113856e-5
ctilde_basis_func: rank=3 ndens=1 mu0=0 mu=( 0  0  0 )
n=( 1  1  5 )
l=( 2  2  4 )
num_ms=15
< -2  -2  4 >:  8.334088799964262e-5
< -2  -1  3 >:  -0.00011786181410931168
< -2  0  2 >:  7.715866924296214e-5
< -2  1  1 >:  -4.4547578457737486e-5
< -2  2  0 >:  1.9922282732901253e-5
< -1  -1  2 >:  6.299978962581188e-5
< -1  0  1 >:  -0.00010911883649805684
< -1  1  0 >:  7.968913093160501e-5
< -1  2  -1 >:  -4.4547578457737486e-5
< 0  0  0 >:  5.9766848198703755e-5
< 0  1  -1 >:  -0.00010911883649805684
< 0  2  -2 >:  7.715866924296214e-5
< 1  1  -2 >:  6.299978962581188e-5
< 1  2  -3 >:  -0.00011786181410931168
< 2  2  -4 >:  8.334088799964258e-5
ctilde_basis_func: rank=3 ndens=1 mu0=0 mu=( 0  0  0 )
n=( 1  3  7 )
l=( 1  1  0 )
num_ms=3
< -1  1  0 >:  -3.1030293443506034e-6
< 0  0  0 >:  3.1030293443506034e-6
< 1  -1  0 >:  -3.1030293443506034e-6
ctilde_basis_func: rank=3 ndens=1 mu0=0 mu=( 0  0  0 )
n=( 2  3  7 )
l=( 2  1  1 )
num_ms=9
< -2  1  1 >:  2.214212421071599e-5
< -1  0  1 >:  -1.565684617927211e-5
< -1  1  0 >:  -1.565684617927211e-5
< 0  -1  1 >:  9.039484356263306e-6
< 0  0  0 >:  1.8078968712526636e-5
< 0  1  -1 >:  9.039484356263318e-6
< 1  -1  0 >:  -1.565684617927211e-5
< 1  0  -1 >:  -1.565684617927211e-5
< 2  -1  -1 >:  2.214212421071599e-5
ctilde_basis_func: rank=3 ndens=1 mu0=0 mu=( 0  0  0 )
n=( 1  2  2 )
l=( 5  0  5 )
num_ms=11
< -5  0  5 >:  4.941539976190538e-6
< -4  0  4 >:  -4.94153997619054e-6
< -3  0  3 >:  4.94153997619054e-6
< -2  0  2 >:  -4.94153997619054e-6
< -1  0  1 >:  4.94153997619054e-6
< 0  0  0 >:  -4.94153997619054e-6
< 1  0  -1 >:  4.94153997619054e-6
< 2  0  -2 >:  -4.94153997619054e-6
< 3  0  -3 >:  4.94153997619054e-6
< 4  0  -4 >:  -4.94153997619054e-6
< 5  0  -5 >:  4.94153997619054e-6
ctilde_basis_func: rank=3 ndens=1 mu0=0 mu=( 0  0  0 )
n=( 2  6  7 )
l=( 1  1  0 )
num_ms=3
< -1  1  0 >:  8.058239120814539e-6
< 0  0  0 >:  -8.058239120814539e-6
< 1  -1  0 >:  8.058239120814539e-6
ctilde_basis_func: rank=3 ndens=1 mu0=0 mu=( 0  0  0 )
n=( 1  1  4 )
l=( 1  3  4 )
num_ms=21
< -1  -3  4 >:  1.716910802567631e-5
< -1  -2  3 >:  -1.4868883710554968e-5
< -1  -1  2 >:  1.2566500331039062e-5
< -1  0  1 >:  -1.0260504554520531e-5
< -1  1  0 >:  7.947752652668675e-6
< -1  2  -1 >:  -5.61990979589539e-6
< -1  3  -2 >:  3.244656433481619e-6
< 0  -3  3 >:  -8.58455401283815e-6
< 0  -2  2 >:  1.123981959179078e-5
< 0  -1  1 >:  -1.2566500331039062e-5
< 0  0  0 >:  1.2978625733926476e-5
< 0  1  -1 >:  -1.2566500331039062e-5
< 0  2  -2 >:  1.123981959179078e-5
< 0  3  -3 >:  -8.58455401283815e-6
< 1  -3  2 >:  3.244656433481619e-6
< 1  -2  1 >:  -5.61990979589539e-6
< 1  -1  0 >:  7.947752652668675e-6
< 1  0  -1 >:  -1.0260504554520531e-5
< 1  1  -2 >:  1.2566500331039062e-5
< 1  2  -3 >:  -1.4868883710554968e-5
< 1  3  -4 >:  1.71691080256763e-5
ctilde_basis_func: rank=3 ndens=1 mu0=0 mu=( 0  0  0 )
n=( 1  1  6 )
l=( 1  3  2 )
num_ms=15
< -1  -1  2 >:  1.0807204912153006e-5
< -1  0  1 >:  -1.8718627995656954e-5
< -1  1  0 >:  2.6472137580474763e-5
< -1  2  -1 >:  -3.417538266256343e-5
< -1  3  -2 >:  4.185612464381959e-5
< 0  -2  2 >:  -2.416564483034377e-5
< 0  -1  1 >:  3.0567391516223833e-5
< 0  0  0 >:  -3.242161473645902e-5
< 0  1  -1 >:  3.0567391516223833e-5
< 0  2  -2 >:  -2.416564483034377e-5
< 1  -3  2 >:  4.18561246438196e-5
< 1  -2  1 >:  -3.417538266256343e-5
< 1  -1  0 >:  2.6472137580474763e-5
< 1  0  -1 >:  -1.8718627995656954e-5
< 1  1  -2 >:  1.0807204912153006e-5
ctilde_basis_func: rank=3 ndens=1 mu0=0 mu=( 0  0  0 )
n=( 1  1  4 )
l=( 2  2  2 )
num_ms=11
< -2  0  2 >:  0.00021165159956332613
< -2  1  1 >:  -0.0002592192110870101
< -2  2  0 >:  0.00021165159956332622
< -1  -1  2 >:  -0.00012960960554350505
< -1  0  1 >:  0.00010582579978166311
< -1  1  0 >:  0.00010582579978166311
< -1  2  -1 >:  -0.0002592192110870101
< 0  0  0 >:  -0.00010582579978166311
< 0  1  -1 >:  0.00010582579978166311
< 0  2  -2 >:  0.00021165159956332622
< 1  1  -2 >:  -0.00012960960554350505
ctilde_basis_func: rank=3 ndens=1 mu0=0 mu=( 0  0  0 )
n=( 1  1  2 )
l=( 4  5  1 )
num_ms=27
< -4  3  1 >:  1.1264776979218084e-5
< -4  4  0 >:  -3.379433093765424e-5
< -4  5  -1 >:  7.556642123071912e-5
< -3  2  1 >:  -1.951116606393798e-5
< -3  3  0 >:  4.5059107916872334e-5
< -3  4  -1 >:  -6.758866187530848e-5
< -2  1  1 >:  2.759295566533477e-5
< -2  2  0 >:  -5.162169319406285e-5
< -2  3  -1 >:  5.960759692323292e-5
< -1  0  1 >:  -3.562235258816039e-5
< -1  1  0 >:  5.518591133066954e-5
< -1  2  -1 >:  -5.162169319406285e-5
< 0  -1  1 >:  4.362829363925233e-5
< 0  0  0 >:  -5.6323884896090406e-5
< 0  1  -1 >:  4.362829363925233e-5
< 1  -2  1 >:  -5.162169319406285e-5
< 1  -1  0 >:  5.518591133066954e-5
< 1  0  -1 >:  -3.562235258816039e-5
< 2  -3  1 >:  5.960759692323292e-5
< 2  -2  0 >:  -5.162169319406285e-5
< 2  -1  -1 >:  2.759295566533477e-5
< 3  -4  1 >:  -6.758866187530848e-5
< 3  -3  0 >:  4.5059107916872334e-5
< 3  -2  -1 >:  -1.951116606393798e-5
< 4  -5  1 >:  7.556642123071908e-5
< 4  -4  0 >:  -3.379433093765424e-5
< 4  -3  -1 >:  1.1264776979218084e-5
ctilde_basis_func: rank=3 ndens=1 mu0=0 mu=( 0  0  0 )
n=( 1  2  2 )
l=( 4  1  3 )
num_ms=21
< -4  1  3 >:  2.5735211973219325e-5
< -3  0  3 >:  -1.2867605986609663e-5
< -3  1  2 >:  -2.228734734058539e-5
< -2  -1  3 >:  4.863497915619307e-6
< -2  0  2 >:  1.6847650984715918e-5
< -2  1  1 >:  1.8836246431508033e-5
< -1  -1  2 >:  -8.423825492357959e-6
< -1  0  1 >:  -1.8836246431508033e-5
< -1  1  0 >:  -1.5379730808838385e-5
< 0  -1  1 >:  1.191308825835684e-5
< 0  0  0 >:  1.94539916624772e-5
< 0  1  -1 >:  1.191308825835684e-5
< 1  -1  0 >:  -1.5379730808838385e-5
< 1  0  -1 >:  -1.8836246431508033e-5
< 1  1  -2 >:  -8.423825492357959e-6
< 2  -1  -1 >:  1.8836246431508033e-5
< 2  0  -2 >:  1.6847650984715918e-5
< 2  1  -3 >:  4.8634979156193e-6
< 3  -1  -2 >:  -2.228734734058539e-5
< 3  0  -3 >:  -1.2867605986609663e-5
< 4  -1  -3 >:  2.5735211973219325e-5
ctilde_basis_func: rank=3 ndens=1 mu0=0 mu=( 0  0  0 )
n=( 1  1  11 )
l=( 1  1  0 )
num_ms=2
< -1  1  0 >:  -1.6992749880177467e-5
< 0  0  0 >:  8.496374940088733e-6
ctilde_basis_func: rank=3 ndens=1 mu0=0 mu=( 0  0  0 )
n=( 2  3  3 )
l=( 3  1  2 )
num_ms=15
< -3  1  2 >:  -2.977932151867167e-5
< -2  0  2 >:  1.7193099295089505e-5
< -2  1  1 >:  2.4314714202342877e-5
< -1  -1  2 >:  -7.688987753544762e-6
< -1  0  1 >:  -2.1747741523967297e-5
< -1  1  0 >:  -1.8834096634693384e-5
< 0  -1  1 >:  1.3317717447914425e-5
< 0  0  0 >:  2.3066963260634308e-5
< 0  1  -1 >:  1.3317717447914425e-5
< 1  -1  0 >:  -1.8834096634693384e-5
< 1  0  -1 >:  -2.1747741523967297e-5
< 1  1  -2 >:  -7.68898775354477e-6
< 2  -1  -1 >:  2.4314714202342877e-5
< 2  0  -2 >:  1.7193099295089505e-5
< 3  -1  -2 >:  -2.977932151867167e-5
ctilde_basis_func: rank=3 ndens=1 mu0=0 mu=( 0  0  0 )
n=( 1  2  3 )
l=( 4  1  3 )
num_ms=21
< -4  1  3 >:  -5.63362358106204e-5
< -3  0  3 >:  2.81681179053102e-5
< -3  1  2 >:  4.8788611365587876e-5
< -2  -1  3 >:  -1.0646547839742363e-5
< -2  0  2 >:  -3.688072356729284e-5
< -2  1  1 >:  -4.1233902477922664e-5
< -1  -1  2 >:  1.844036178364642e-5
< -1  0  1 >:  4.1233902477922664e-5
< -1  1  0 >:  3.366734039153114e-5
< 0  -1  1 >:  -2.6078609729499278e-5
< 0  0  0 >:  -4.258619135896939e-5
< 0  1  -1 >:  -2.6078609729499278e-5
< 1  -1  0 >:  3.366734039153114e-5
< 1  0  -1 >:  4.1233902477922664e-5
< 1  1  -2 >:  1.844036178364642e-5
< 2  -1  -1 >:  -4.1233902477922664e-5
< 2  0  -2 >:  -3.688072356729284e-5
< 2  1  -3 >:  -1.0646547839742347e-5
< 3  -1  -2 >:  4.8788611365587876e-5
< 3  0  -3 >:  2.81681179053102e-5
< 4  -1  -3 >:  -5.63362358106204e-5
ctilde_basis_func: rank=3 ndens=1 mu0=0 mu=( 0  0  0 )
n=( 1  2  5 )
l=( 3  1  2 )
num_ms=15
< -3  1  2 >:  -2.853223296452536e-6
< -2  0  2 >:  1.6473092382649832e-6
< -2  1  1 >:  2.3296470661768316e-6
< -1  -1  2 >:  -7.366990873447793e-7
< -1  0  1 >:  -2.083699681421738e-6
< -1  1  0 >:  -1.8045368579687673e-6
< 0  -1  1 >:  1.276000249170781e-6
< 0  0  0 >:  2.2100972620343402e-6
< 0  1  -1 >:  1.276000249170781e-6
< 1  -1  0 >:  -1.8045368579687673e-6
< 1  0  -1 >:  -2.083699681421738e-6
< 1  1  -2 >:  -7.366990873447802e-7
< 2  -1  -1 >:  2.3296470661768316e-6
< 2  0  -2 >:  1.6473092382649832e-6
< 3  -1  -2 >:  -2.853223296452536e-6
ctilde_basis_func: rank=3 ndens=1 mu0=0 mu=( 0  0  0 )
n=( 3  3  3 )
l=( 1  1  2 )
num_ms=6
< -1  -1  2 >:  -3.405521705257593e-5
< -1  0  1 >:  4.816134982531239e-5
< -1  1  0 >:  -2.780596828617984e-5
< 0  0  0 >:  -2.780596828617984e-5
< 0  1  -1 >:  4.816134982531239e-5
< 1  1  -2 >:  -3.405521705257593e-5
ctilde_basis_func: rank=3 ndens=1 mu0=0 mu=( 0  0  0 )
n=( 4  5  5 )
l=( 1  0  1 )
num_ms=3
< -1  0  1 >:  -5.369972251506366e-6
< 0  0  0 >:  5.369972251506366e-6
< 1  0  -1 >:  -5.369972251506366e-6
ctilde_basis_func: rank=3 ndens=1 mu0=0 mu=( 0  0  0 )
n=( 1  1  2 )
l=( 1  4  5 )
num_ms=27
< -1  -4  5 >:  1.8945237556644937e-5
< -1  -3  4 >:  -1.6945135610616057e-5
< -1  -2  3 >:  1.494420491931824e-5
< -1  -1  2 >:  -1.2942061099489974e-5
< -1  0  1 >:  1.0938038003190373e-5
< -1  1  0 >:  -8.930870631662473e-6
< -1  2  -1 >:  6.917822644712334e-6
< -1  3  -2 >:  -4.891639303121948e-6
< -1  4  -3 >:  2.82418926843601e-6
< 0  -4  4 >:  -8.472567805308029e-6
< 0  -3  3 >:  1.129675707374404e-5
< 0  -2  2 >:  -1.2942061099489974e-5
< 0  -1  1 >:  1.3835645289424668e-5
< 0  0  0 >:  -1.4120946342180048e-5
< 0  1  -1 >:  1.3835645289424668e-5
< 0  2  -2 >:  -1.2942061099489974e-5
< 0  3  -3 >:  1.129675707374404e-5
< 0  4  -4 >:  -8.472567805308029e-6
< 1  -4  3 >:  2.82418926843601e-6
< 1  -3  2 >:  -4.891639303121948e-6
< 1  -2  1 >:  6.917822644712334e-6
< 1  -1  0 >:  -8.930870631662473e-6
< 1  0  -1 >:  1.0938038003190373e-5
< 1  1  -2 >:  -1.2942061099489974e-5
< 1  2  -3 >:  1.494420491931824e-5
< 1  3  -4 >:  -1.6945135610616057e-5
< 1  4  -5 >:  1.8945237556644954e-5
ctilde_basis_func: rank=3 ndens=1 mu0=0 mu=( 0  0  0 )
n=( 1  4  5 )
l=( 1  3  2 )
num_ms=15
< -1  -1  2 >:  1.8974015774433848e-5
< -1  0  1 >:  -3.286395934493277e-5
< -1  1  0 >:  4.647665701888193e-5
< -1  2  -1 >:  -6.000110620717459e-5
< -1  3  -2 >:  7.348604710505912e-5
< 0  -2  2 >:  -4.242718907778741e-5
< 0  -1  1 >:  5.366662088177078e-5
< 0  0  0 >:  -5.692204732330154e-5
< 0  1  -1 >:  5.366662088177078e-5
< 0  2  -2 >:  -4.242718907778741e-5
< 1  -3  2 >:  7.348604710505913e-5
< 1  -2  1 >:  -6.000110620717459e-5
< 1  -1  0 >:  4.647665701888193e-5
< 1  0  -1 >:  -3.286395934493277e-5
< 1  1  -2 >:  1.8974015774433848e-5
ctilde_basis_func: rank=3 ndens=1 mu0=0 mu=( 0  0  0 )
n=( 1  2  3 )
l=( 4  3  1 )
num_ms=21
< -4  3  1 >:  -7.009396996404496e-6
< -3  2  1 >:  6.0703158640966355e-6
< -3  3  0 >:  3.504698498202248e-6
< -2  1  1 >:  -5.130353280087283e-6
< -2  2  0 >:  -4.588727473145674e-6
< -2  3  -1 >:  -1.3246515209292431e-6
< -1  0  1 >:  4.188915912142611e-6
< -1  1  0 >:  5.130353280087283e-6
< -1  2  -1 >:  2.294363736572837e-6
< 0  -1  1 >:  -3.2447203132783163e-6
< 0  0  0 >:  -5.2986060837169724e-6
< 0  1  -1 >:  -3.2447203132783163e-6
< 1  -2  1 >:  2.294363736572837e-6
< 1  -1  0 >:  5.130353280087283e-6
< 1  0  -1 >:  4.188915912142611e-6
< 2  -3  1 >:  -1.3246515209292448e-6
< 2  -2  0 >:  -4.588727473145674e-6
< 2  -1  -1 >:  -5.130353280087283e-6
< 3  -3  0 >:  3.504698498202248e-6
< 3  -2  -1 >:  6.0703158640966355e-6
< 4  -3  -1 >:  -7.009396996404496e-6
ctilde_basis_func: rank=3 ndens=1 mu0=0 mu=( 0  0  0 )
n=( 1  1  1 )
l=( 0  5  5 )
num_ms=6
< 0  -5  5 >:  -0.00012342964377195365
< 0  -4  4 >:  0.00012342964377195367
< 0  -3  3 >:  -0.00012342964377195367
< 0  -2  2 >:  0.00012342964377195367
< 0  -1  1 >:  -0.00012342964377195367
< 0  0  0 >:  6.171482188597684e-5
ctilde_basis_func: rank=3 ndens=1 mu0=0 mu=( 0  0  0 )
n=( 1  1  2 )
l=( 5  5  0 )
num_ms=6
< -5  5  0 >:  -6.732390127135425e-5
< -4  4  0 >:  6.732390127135428e-5
< -3  3  0 >:  -6.732390127135428e-5
< -2  2  0 >:  6.732390127135428e-5
< -1  1  0 >:  -6.732390127135428e-5
< 0  0  0 >:  3.366195063567714e-5
ctilde_basis_func: rank=3 ndens=1 mu0=0 mu=( 0  0  0 )
n=( 1  1  2 )
l=( 4  4  2 )
num_ms=21
< -4  2  2 >:  -9.738157825430552e-5
< -4  3  1 >:  0.00018218425080546342
< -4  4  0 >:  -0.00021036825248928916
< -3  1  2 >:  0.00014607236738145826
< -3  2  1 >:  -0.00017214793586566962
< -3  3  0 >:  5.259206312232229e-5
< -3  4  -1 >:  0.00018218425080546342
< -2  0  2 >:  -0.00017458987252752298
< -2  1  1 >:  0.00011711844694636932
< -2  2  0 >:  6.010521499693976e-5
< -2  3  -1 >:  -0.00017214793586566962
< -2  4  -2 >:  -9.738157825430549e-5
< -1  -1  2 >:  9.201694226423851e-5
< -1  0  1 >:  -4.115122759690214e-5
< -1  1  0 >:  -0.00012772358186849699
< -1  2  -1 >:  0.00011711844694636932
< -1  3  -2 >:  0.00014607236738145826
< 0  0  0 >:  7.51315187461747e-5
< 0  1  -1 >:  -4.115122759690214e-5
< 0  2  -2 >:  -0.00017458987252752298
< 1  1  -2 >:  9.201694226423851e-5
ctilde_basis_func: rank=3 ndens=1 mu0=0 mu=( 0  0  0 )
n=( 1  4  5 )
l=( 1  2  1 )
num_ms=9
< -1  0  1 >:  1.4112425009588033e-6
< -1  1  0 >:  -2.4443437134612168e-6
< -1  2  -1 >:  3.4568240306782686e-6
< 0  -1  1 >:  -2.4443437134612168e-6
< 0  0  0 >:  2.8224850019176067e-6
< 0  1  -1 >:  -2.4443437134612168e-6
< 1  -2  1 >:  3.4568240306782674e-6
< 1  -1  0 >:  -2.4443437134612168e-6
< 1  0  -1 >:  1.4112425009588033e-6
ctilde_basis_func: rank=3 ndens=1 mu0=0 mu=( 0  0  0 )
n=( 2  2  2 )
l=( 0  2  2 )
num_ms=3
< 0  -2  2 >:  -9.636270400795496e-5
< 0  -1  1 >:  9.636270400795496e-5
< 0  0  0 >:  -4.818135200397748e-5
ctilde_basis_func: rank=3 ndens=1 mu0=0 mu=( 0  0  0 )
n=( 1  4  4 )
l=( 0  2  2 )
num_ms=3
< 0  -2  2 >:  6.48274355066422e-5
< 0  -1  1 >:  -6.48274355066422e-5
< 0  0  0 >:  3.24137177533211e-5
ctilde_basis_func: rank=3 ndens=1 mu0=0 mu=( 0  0  0 )
n=( 1  3  3 )
l=( 1  3  4 )
num_ms=21
< -1  -3  4 >:  2.5541682083888016e-5
< -1  -2  3 >:  -2.2119745540032877e-5
< -1  -1  2 >:  1.8694597056670913e-5
< -1  0  1 >:  -1.5264074578593326e-5
< -1  1  0 >:  1.1823501327631996e-5
< -1  2  -1 >:  -8.36047796613673e-6
< -1  3  -2 >:  4.8269242043029765e-6
< 0  -3  3 >:  -1.2770841041944003e-5
< 0  -2  2 >:  1.672095593227346e-5
< 0  -1  1 >:  -1.8694597056670913e-5
< 0  0  0 >:  1.9307696817211906e-5
< 0  1  -1 >:  -1.8694597056670913e-5
< 0  2  -2 >:  1.672095593227346e-5
< 0  3  -3 >:  -1.2770841041944003e-5
< 1  -3  2 >:  4.8269242043029765e-6
< 1  -2  1 >:  -8.36047796613673e-6
< 1  -1  0 >:  1.1823501327631996e-5
< 1  0  -1 >:  -1.5264074578593326e-5
< 1  1  -2 >:  1.8694597056670913e-5
< 1  2  -3 >:  -2.2119745540032877e-5
< 1  3  -4 >:  2.5541682083888006e-5
ctilde_basis_func: rank=3 ndens=1 mu0=0 mu=( 0  0  0 )
n=( 1  2  4 )
l=( 4  3  1 )
num_ms=21
< -4  3  1 >:  -1.1645456755886143e-5
< -3  2  1 >:  1.0085261389270516e-5
< -3  3  0 >:  5.822728377943071e-6
< -2  1  1 >:  -8.523601573191207e-6
< -2  2  0 >:  -7.623741012311875e-6
< -2  3  -1 >:  -2.2007844628451258e-6
< -1  0  1 >:  6.959491541700807e-6
< -1  1  0 >:  8.523601573191207e-6
< -1  2  -1 >:  3.8118705061559373e-6
< 0  -1  1 >:  -5.390798967815721e-6
< 0  0  0 >:  -8.803137851380503e-6
< 0  1  -1 >:  -5.390798967815721e-6
< 1  -2  1 >:  3.8118705061559373e-6
< 1  -1  0 >:  8.523601573191207e-6
< 1  0  -1 >:  6.959491541700807e-6
< 2  -3  1 >:  -2.2007844628451287e-6
< 2  -2  0 >:  -7.623741012311875e-6
< 2  -1  -1 >:  -8.523601573191207e-6
< 3  -3  0 >:  5.822728377943071e-6
< 3  -2  -1 >:  1.0085261389270516e-5
< 4  -3  -1 >:  -1.1645456755886143e-5
ctilde_basis_func: rank=3 ndens=1 mu0=0 mu=( 0  0  0 )
n=( 1  1  3 )
l=( 3  4  1 )
num_ms=21
< -3  2  1 >:  1.3149966836041524e-5
< -3  3  0 >:  -3.479154199691274e-5
< -3  4  -1 >:  6.958308399382549e-5
< -2  1  1 >:  -2.277641067786967e-5
< -2  2  0 >:  4.555282135573934e-5
< -2  3  -1 >:  -6.0260718412319226e-5
< -1  0  1 >:  3.221070888282267e-5
< -1  1  0 >:  -5.092960255916865e-5
< -1  2  -1 >:  5.092960255916865e-5
< 0  -1  1 >:  -4.158384635756918e-5
< 0  0  0 >:  5.2599867344166096e-5
< 0  1  -1 >:  -4.158384635756918e-5
< 1  -2  1 >:  5.092960255916865e-5
< 1  -1  0 >:  -5.092960255916865e-5
< 1  0  -1 >:  3.221070888282267e-5
< 2  -3  1 >:  -6.0260718412319226e-5
< 2  -2  0 >:  4.555282135573934e-5
< 2  -1  -1 >:  -2.277641067786967e-5
< 3  -4  1 >:  6.958308399382553e-5
< 3  -3  0 >:  -3.479154199691274e-5
< 3  -2  -1 >:  1.3149966836041524e-5
ctilde_basis_func: rank=3 ndens=1 mu0=0 mu=( 0  0  0 )
n=( 1  3  4 )
l=( 3  3  0 )
num_ms=7
< -3  3  0 >:  4.758530091310931e-5
< -2  2  0 >:  -4.758530091310931e-5
< -1  1  0 >:  4.758530091310931e-5
< 0  0  0 >:  -4.758530091310931e-5
< 1  -1  0 >:  4.758530091310931e-5
< 2  -2  0 >:  -4.758530091310931e-5
< 3  -3  0 >:  4.758530091310931e-5
ctilde_basis_func: rank=3 ndens=1 mu0=0 mu=( 0  0  0 )
n=( 1  1  3 )
l=( 2  3  1 )
num_ms=15
< -2  1  1 >:  -3.9737722149441356e-5
< -2  2  0 >:  8.885624799714993e-5
< -2  3  -1 >:  -0.00015390353610100397
< -1  0  1 >:  6.882775373988756e-5
< -1  1  0 >:  -0.0001123952512031074
< -1  2  -1 >:  0.00012566171101915659
< 0  -1  1 >:  -9.733714280662451e-5
< 0  0  0 >:  0.00011921316644832405
< 0  1  -1 >:  -9.733714280662451e-5
< 1  -2  1 >:  0.00012566171101915659
< 1  -1  0 >:  -0.0001123952512031074
< 1  0  -1 >:  6.882775373988756e-5
< 2  -3  1 >:  -0.000153903536101004
< 2  -2  0 >:  8.885624799714993e-5
< 2  -1  -1 >:  -3.9737722149441356e-5
