nelements=1
elements: Si

lmax=6

2 FS parameters:  1.000000 1.000000
core energy-cutoff parameters: 100000.000000000000000000 1.000000000000000000
E0: -158.54496821

radbasename=ACE.jl.Basic
haspair: t

transform parameters: p=2 r0=2.35126
cutoff parameters: rcut=5.5 xl=0.2658211500023669 xr=1.6042620210695941 pl=2 pr=2
recursion coefficients: maxn=18
 7.821202223493647 0.0 0.0
 4.955952649160867 -4.634021822912618 0.0
 3.9956167645897973 -3.736067834756193 -0.8062257748298656
 3.632378876899846 -3.396425304323833 -0.9090909090909028
 3.4441358810053155 -3.220410274976574 -0.9481763873555078
 3.331005797707162 -3.114628942517647 -0.9671528397232808
 3.256698923178486 -3.0451489247421324 -0.9776923610941147
 3.2048648622710894 -2.9966819222465113 -0.9840838646340656
 3.167085174324123 -2.9613563429275254 -0.988211768804444
 3.138607272777173 -2.9347283207123276 -0.9910081668223445
 3.1165595829870045 -2.9141128138935235 -0.9929753269925177
 3.0991136906213357 -2.8978001790348364 -0.9944021951446367
 3.08505564490434 -2.884655321678083 -0.995463849629161
 3.0735513577131024 -2.8738983347423233 -0.9962709628235525
 3.0640110824280233 -2.864977780613316 -0.9968960091520438
 3.05600755744042 -2.857494151919029 -0.9973878929376229
 3.049224676161325 -2.8511518758533216 -0.9977804762744855
 3.043424253671011 -2.8457282396112 -0.9980977385708372
tests: ntests=0

begin repulsive potential
begin polypairpot
transform parameters: p=2 r0=2.35126
cutoff parameters: rcut=6.5 xl=0.1996612193351111 xr=2.372718237344682 pl=1 pr=0
recursion coefficients: maxn=8
 0.7970573297067717 0.0 0.0
 2.376367709542944 -4.34745440267418 0.0
 2.0418559725718572 -2.995966854134438 -0.8592340168452226
 1.9480476778224156 -2.6819368663177676 -0.9540573399840273
 1.9078222609703703 -2.557456376087243 -0.979350907418754
 1.886748315849131 -2.495034632578642 -0.9889539263943126
 1.8742963773986112 -2.459167072303244 -0.9934003182375156
 1.866316576065074 -2.436619813846683 -0.9957425082661538
tests: ntests=0
coefficients
0.2915463377461995
0.5404954992533635
-0.9792412965101892
-0.599572066451635
0.6252408473352615
0.7328512283699746
0.3148867158603973
0.061262608358771516
end polypairpot
spline parameters
   e_0 + B  exp(-A*(r/ri-1)) * (ri/r)
ri=1.6223693999999997
e0=0.0
A=8.801401508810782
B=2.1606969987700135
end repulsive potential

rankmax=4
ndensitymax=1

num_c_tilde_max=3200
num_ms_combinations_max=97
total_basis_size_rank1: 18
ctilde_basis_func: rank=1 ndens=1 mu0=0 mu=( 0 )
n=( 10 )
l=( 0 )
num_ms=1
< 0 >:  -7.212917985870696e-5
ctilde_basis_func: rank=1 ndens=1 mu0=0 mu=( 0 )
n=( 2 )
l=( 0 )
num_ms=1
< 0 >:  0.005982045990367784
ctilde_basis_func: rank=1 ndens=1 mu0=0 mu=( 0 )
n=( 16 )
l=( 0 )
num_ms=1
< 0 >:  1.9933726421231446e-5
ctilde_basis_func: rank=1 ndens=1 mu0=0 mu=( 0 )
n=( 5 )
l=( 0 )
num_ms=1
< 0 >:  -0.0008093761846761888
ctilde_basis_func: rank=1 ndens=1 mu0=0 mu=( 0 )
n=( 4 )
l=( 0 )
num_ms=1
< 0 >:  0.0006607237926727126
ctilde_basis_func: rank=1 ndens=1 mu0=0 mu=( 0 )
n=( 3 )
l=( 0 )
num_ms=1
< 0 >:  -0.0036983808149595914
ctilde_basis_func: rank=1 ndens=1 mu0=0 mu=( 0 )
n=( 12 )
l=( 0 )
num_ms=1
< 0 >:  6.637838824134931e-6
ctilde_basis_func: rank=1 ndens=1 mu0=0 mu=( 0 )
n=( 9 )
l=( 0 )
num_ms=1
< 0 >:  -3.9252811979270276e-5
ctilde_basis_func: rank=1 ndens=1 mu0=0 mu=( 0 )
n=( 11 )
l=( 0 )
num_ms=1
< 0 >:  -1.5425378568921598e-5
ctilde_basis_func: rank=1 ndens=1 mu0=0 mu=( 0 )
n=( 1 )
l=( 0 )
num_ms=1
< 0 >:  -0.12015988524747397
ctilde_basis_func: rank=1 ndens=1 mu0=0 mu=( 0 )
n=( 6 )
l=( 0 )
num_ms=1
< 0 >:  1.93793511836304e-5
ctilde_basis_func: rank=1 ndens=1 mu0=0 mu=( 0 )
n=( 8 )
l=( 0 )
num_ms=1
< 0 >:  -0.00010934299287853104
ctilde_basis_func: rank=1 ndens=1 mu0=0 mu=( 0 )
n=( 14 )
l=( 0 )
num_ms=1
< 0 >:  2.56742055903002e-5
ctilde_basis_func: rank=1 ndens=1 mu0=0 mu=( 0 )
n=( 7 )
l=( 0 )
num_ms=1
< 0 >:  -6.463200811666478e-5
ctilde_basis_func: rank=1 ndens=1 mu0=0 mu=( 0 )
n=( 18 )
l=( 0 )
num_ms=1
< 0 >:  -2.9819130632216253e-5
ctilde_basis_func: rank=1 ndens=1 mu0=0 mu=( 0 )
n=( 13 )
l=( 0 )
num_ms=1
< 0 >:  -1.1300939661367022e-5
ctilde_basis_func: rank=1 ndens=1 mu0=0 mu=( 0 )
n=( 17 )
l=( 0 )
num_ms=1
< 0 >:  -2.8830885297547485e-6
ctilde_basis_func: rank=1 ndens=1 mu0=0 mu=( 0 )
n=( 15 )
l=( 0 )
num_ms=1
< 0 >:  -1.4812001696109737e-5
total_basis_size: 3182
ctilde_basis_func: rank=2 ndens=1 mu0=0 mu=( 0  0 )
n=( 4  5 )
l=( 2  2 )
num_ms=5
< -2  2 >:  9.90099333363409e-5
< -1  1 >:  -9.90099333363409e-5
< 0  0 >:  9.90099333363409e-5
< 1  -1 >:  -9.90099333363409e-5
< 2  -2 >:  9.90099333363409e-5
ctilde_basis_func: rank=2 ndens=1 mu0=0 mu=( 0  0 )
n=( 5  7 )
l=( 1  1 )
num_ms=3
< -1  1 >:  2.7129318054905865e-5
< 0  0 >:  -2.7129318054905865e-5
< 1  -1 >:  2.7129318054905865e-5
ctilde_basis_func: rank=2 ndens=1 mu0=0 mu=( 0  0 )
n=( 1  4 )
l=( 3  3 )
num_ms=7
< -3  3 >:  1.695117930939939e-5
< -2  2 >:  -1.695117930939939e-5
< -1  1 >:  1.695117930939939e-5
< 0  0 >:  -1.695117930939939e-5
< 1  -1 >:  1.695117930939939e-5
< 2  -2 >:  -1.695117930939939e-5
< 3  -3 >:  1.695117930939939e-5
ctilde_basis_func: rank=2 ndens=1 mu0=0 mu=( 0  0 )
n=( 1  6 )
l=( 4  4 )
num_ms=9
< -4  4 >:  1.8879804704527144e-5
< -3  3 >:  -1.8879804704527144e-5
< -2  2 >:  1.8879804704527144e-5
< -1  1 >:  -1.8879804704527144e-5
< 0  0 >:  1.8879804704527144e-5
< 1  -1 >:  -1.8879804704527144e-5
< 2  -2 >:  1.8879804704527144e-5
< 3  -3 >:  -1.8879804704527144e-5
< 4  -4 >:  1.8879804704527144e-5
ctilde_basis_func: rank=2 ndens=1 mu0=0 mu=( 0  0 )
n=( 3  5 )
l=( 3  3 )
num_ms=7
< -3  3 >:  -4.08214660202572e-5
< -2  2 >:  4.08214660202572e-5
< -1  1 >:  -4.08214660202572e-5
< 0  0 >:  4.08214660202572e-5
< 1  -1 >:  -4.08214660202572e-5
< 2  -2 >:  4.08214660202572e-5
< 3  -3 >:  -4.08214660202572e-5
ctilde_basis_func: rank=2 ndens=1 mu0=0 mu=( 0  0 )
n=( 1  5 )
l=( 3  3 )
num_ms=7
< -3  3 >:  0.00011345129289084096
< -2  2 >:  -0.00011345129289084096
< -1  1 >:  0.00011345129289084096
< 0  0 >:  -0.00011345129289084096
< 1  -1 >:  0.00011345129289084096
< 2  -2 >:  -0.00011345129289084096
< 3  -3 >:  0.00011345129289084096
ctilde_basis_func: rank=2 ndens=1 mu0=0 mu=( 0  0 )
n=( 1  2 )
l=( 4  4 )
num_ms=9
< -4  4 >:  6.173086973744447e-5
< -3  3 >:  -6.173086973744445e-5
< -2  2 >:  6.173086973744445e-5
< -1  1 >:  -6.173086973744445e-5
< 0  0 >:  6.173086973744445e-5
< 1  -1 >:  -6.173086973744445e-5
< 2  -2 >:  6.173086973744445e-5
< 3  -3 >:  -6.173086973744445e-5
< 4  -4 >:  6.173086973744445e-5
ctilde_basis_func: rank=2 ndens=1 mu0=0 mu=( 0  0 )
n=( 6  7 )
l=( 0  0 )
num_ms=1
< 0  0 >:  2.697192213827087e-5
ctilde_basis_func: rank=2 ndens=1 mu0=0 mu=( 0  0 )
n=( 3  5 )
l=( 2  2 )
num_ms=5
< -2  2 >:  -0.00016280634072457533
< -1  1 >:  0.00016280634072457533
< 0  0 >:  -0.00016280634072457533
< 1  -1 >:  0.00016280634072457533
< 2  -2 >:  -0.00016280634072457533
ctilde_basis_func: rank=2 ndens=1 mu0=0 mu=( 0  0 )
n=( 1  4 )
l=( 5  5 )
num_ms=11
< -5  5 >:  8.051318716466855e-5
< -4  4 >:  -8.051318716466859e-5
< -3  3 >:  8.051318716466859e-5
< -2  2 >:  -8.051318716466859e-5
< -1  1 >:  8.051318716466859e-5
< 0  0 >:  -8.051318716466859e-5
< 1  -1 >:  8.051318716466859e-5
< 2  -2 >:  -8.051318716466859e-5
< 3  -3 >:  8.051318716466859e-5
< 4  -4 >:  -8.051318716466859e-5
< 5  -5 >:  8.051318716466859e-5
ctilde_basis_func: rank=2 ndens=1 mu0=0 mu=( 0  0 )
n=( 1  5 )
l=( 1  1 )
num_ms=3
< -1  1 >:  8.077649642384863e-5
< 0  0 >:  -8.077649642384863e-5
< 1  -1 >:  8.077649642384863e-5
ctilde_basis_func: rank=2 ndens=1 mu0=0 mu=( 0  0 )
n=( 9  9 )
l=( 0  0 )
num_ms=1
< 0  0 >:  4.6994124428951914e-7
ctilde_basis_func: rank=2 ndens=1 mu0=0 mu=( 0  0 )
n=( 1  5 )
l=( 4  4 )
num_ms=9
< -4  4 >:  -1.0859127001683034e-5
< -3  3 >:  1.0859127001683032e-5
< -2  2 >:  -1.0859127001683032e-5
< -1  1 >:  1.0859127001683032e-5
< 0  0 >:  -1.0859127001683032e-5
< 1  -1 >:  1.0859127001683032e-5
< 2  -2 >:  -1.0859127001683032e-5
< 3  -3 >:  1.0859127001683032e-5
< 4  -4 >:  -1.0859127001683032e-5
ctilde_basis_func: rank=2 ndens=1 mu0=0 mu=( 0  0 )
n=( 1  8 )
l=( 1  1 )
num_ms=3
< -1  1 >:  -1.3431447811533371e-5
< 0  0 >:  1.3431447811533371e-5
< 1  -1 >:  -1.3431447811533371e-5
ctilde_basis_func: rank=2 ndens=1 mu0=0 mu=( 0  0 )
n=( 1  8 )
l=( 3  3 )
num_ms=7
< -3  3 >:  1.888625205309326e-5
< -2  2 >:  -1.888625205309326e-5
< -1  1 >:  1.888625205309326e-5
< 0  0 >:  -1.888625205309326e-5
< 1  -1 >:  1.888625205309326e-5
< 2  -2 >:  -1.888625205309326e-5
< 3  -3 >:  1.888625205309326e-5
ctilde_basis_func: rank=2 ndens=1 mu0=0 mu=( 0  0 )
n=( 1  9 )
l=( 3  3 )
num_ms=7
< -3  3 >:  -8.194556580614423e-6
< -2  2 >:  8.194556580614423e-6
< -1  1 >:  -8.194556580614423e-6
< 0  0 >:  8.194556580614423e-6
< 1  -1 >:  -8.194556580614423e-6
< 2  -2 >:  8.194556580614423e-6
< 3  -3 >:  -8.194556580614423e-6
ctilde_basis_func: rank=2 ndens=1 mu0=0 mu=( 0  0 )
n=( 1  11 )
l=( 1  1 )
num_ms=3
< -1  1 >:  -7.797436069137114e-6
< 0  0 >:  7.797436069137114e-6
< 1  -1 >:  -7.797436069137114e-6
ctilde_basis_func: rank=2 ndens=1 mu0=0 mu=( 0  0 )
n=( 1  2 )
l=( 3  3 )
num_ms=7
< -3  3 >:  8.72465977515519e-5
< -2  2 >:  -8.72465977515519e-5
< -1  1 >:  8.72465977515519e-5
< 0  0 >:  -8.72465977515519e-5
< 1  -1 >:  8.72465977515519e-5
< 2  -2 >:  -8.72465977515519e-5
< 3  -3 >:  8.72465977515519e-5
ctilde_basis_func: rank=2 ndens=1 mu0=0 mu=( 0  0 )
n=( 3  4 )
l=( 3  3 )
num_ms=7
< -3  3 >:  7.256474002941517e-5
< -2  2 >:  -7.256474002941517e-5
< -1  1 >:  7.256474002941517e-5
< 0  0 >:  -7.256474002941517e-5
< 1  -1 >:  7.256474002941517e-5
< 2  -2 >:  -7.256474002941517e-5
< 3  -3 >:  7.256474002941517e-5
ctilde_basis_func: rank=2 ndens=1 mu0=0 mu=( 0  0 )
n=( 1  12 )
l=( 1  1 )
num_ms=3
< -1  1 >:  1.2512557814102473e-6
< 0  0 >:  -1.2512557814102473e-6
< 1  -1 >:  1.2512557814102473e-6
ctilde_basis_func: rank=2 ndens=1 mu0=0 mu=( 0  0 )
n=( 4  7 )
l=( 2  2 )
num_ms=5
< -2  2 >:  -4.545334180318367e-5
< -1  1 >:  4.545334180318367e-5
< 0  0 >:  -4.545334180318367e-5
< 1  -1 >:  4.545334180318367e-5
< 2  -2 >:  -4.545334180318367e-5
ctilde_basis_func: rank=2 ndens=1 mu0=0 mu=( 0  0 )
n=( 3  7 )
l=( 3  3 )
num_ms=7
< -3  3 >:  -1.344175669438001e-5
< -2  2 >:  1.344175669438001e-5
< -1  1 >:  -1.344175669438001e-5
< 0  0 >:  1.344175669438001e-5
< 1  -1 >:  -1.344175669438001e-5
< 2  -2 >:  1.344175669438001e-5
< 3  -3 >:  -1.344175669438001e-5
ctilde_basis_func: rank=2 ndens=1 mu0=0 mu=( 0  0 )
n=( 1  1 )
l=( 5  5 )
num_ms=6
< -5  5 >:  8.261245919429469e-5
< -4  4 >:  -8.26124591942947e-5
< -3  3 >:  8.26124591942947e-5
< -2  2 >:  -8.26124591942947e-5
< -1  1 >:  8.26124591942947e-5
< 0  0 >:  -4.130622959714735e-5
ctilde_basis_func: rank=2 ndens=1 mu0=0 mu=( 0  0 )
n=( 8  8 )
l=( 0  0 )
num_ms=1
< 0  0 >:  -3.6790087346100246e-6
ctilde_basis_func: rank=2 ndens=1 mu0=0 mu=( 0  0 )
n=( 3  15 )
l=( 0  0 )
num_ms=1
< 0  0 >:  -8.413032377172658e-6
ctilde_basis_func: rank=2 ndens=1 mu0=0 mu=( 0  0 )
n=( 2  12 )
l=( 1  1 )
num_ms=3
< -1  1 >:  -4.124585395966864e-8
< 0  0 >:  4.124585395966864e-8
< 1  -1 >:  -4.124585395966864e-8
ctilde_basis_func: rank=2 ndens=1 mu0=0 mu=( 0  0 )
n=( 3  3 )
l=( 3  3 )
num_ms=4
< -3  3 >:  0.00034638691489829895
< -2  2 >:  -0.00034638691489829895
< -1  1 >:  0.00034638691489829895
< 0  0 >:  -0.00017319345744914948
ctilde_basis_func: rank=2 ndens=1 mu0=0 mu=( 0  0 )
n=( 5  5 )
l=( 2  2 )
num_ms=3
< -2  2 >:  -1.2761795023057915e-7
< -1  1 >:  1.2761795023057915e-7
< 0  0 >:  -6.380897511528958e-8
ctilde_basis_func: rank=2 ndens=1 mu0=0 mu=( 0  0 )
n=( 4  8 )
l=( 2  2 )
num_ms=5
< -2  2 >:  -1.498493365960572e-6
< -1  1 >:  1.498493365960572e-6
< 0  0 >:  -1.498493365960572e-6
< 1  -1 >:  1.498493365960572e-6
< 2  -2 >:  -1.498493365960572e-6
ctilde_basis_func: rank=2 ndens=1 mu0=0 mu=( 0  0 )
n=( 2  8 )
l=( 2  2 )
num_ms=5
< -2  2 >:  5.9461128775626934e-5
< -1  1 >:  -5.9461128775626934e-5
< 0  0 >:  5.9461128775626934e-5
< 1  -1 >:  -5.9461128775626934e-5
< 2  -2 >:  5.9461128775626934e-5
ctilde_basis_func: rank=2 ndens=1 mu0=0 mu=( 0  0 )
n=( 1  13 )
l=( 1  1 )
num_ms=3
< -1  1 >:  2.47545891406844e-6
< 0  0 >:  -2.47545891406844e-6
< 1  -1 >:  2.47545891406844e-6
ctilde_basis_func: rank=2 ndens=1 mu0=0 mu=( 0  0 )
n=( 6  6 )
l=( 2  2 )
num_ms=3
< -2  2 >:  -2.9179007751646892e-5
< -1  1 >:  2.9179007751646892e-5
< 0  0 >:  -1.4589503875823446e-5
ctilde_basis_func: rank=2 ndens=1 mu0=0 mu=( 0  0 )
n=( 1  1 )
l=( 4  4 )
num_ms=5
< -4  4 >:  -7.168577823589739e-5
< -3  3 >:  7.168577823589737e-5
< -2  2 >:  -7.168577823589737e-5
< -1  1 >:  7.168577823589737e-5
< 0  0 >:  -3.5842889117948686e-5
ctilde_basis_func: rank=2 ndens=1 mu0=0 mu=( 0  0 )
n=( 1  3 )
l=( 2  2 )
num_ms=5
< -2  2 >:  -0.0004899053715634382
< -1  1 >:  0.0004899053715634382
< 0  0 >:  -0.0004899053715634382
< 1  -1 >:  0.0004899053715634382
< 2  -2 >:  -0.0004899053715634382
ctilde_basis_func: rank=2 ndens=1 mu0=0 mu=( 0  0 )
n=( 1  3 )
l=( 1  1 )
num_ms=3
< -1  1 >:  0.0002690529326000812
< 0  0 >:  -0.0002690529326000812
< 1  -1 >:  0.0002690529326000812
ctilde_basis_func: rank=2 ndens=1 mu0=0 mu=( 0  0 )
n=( 4  5 )
l=( 3  3 )
num_ms=7
< -3  3 >:  -3.196091783856454e-5
< -2  2 >:  3.196091783856454e-5
< -1  1 >:  -3.196091783856454e-5
< 0  0 >:  3.196091783856454e-5
< 1  -1 >:  -3.196091783856454e-5
< 2  -2 >:  3.196091783856454e-5
< 3  -3 >:  -3.196091783856454e-5
ctilde_basis_func: rank=2 ndens=1 mu0=0 mu=( 0  0 )
n=( 1  8 )
l=( 0  0 )
num_ms=1
< 0  0 >:  -3.621739555412196e-5
ctilde_basis_func: rank=2 ndens=1 mu0=0 mu=( 0  0 )
n=( 3  4 )
l=( 4  4 )
num_ms=9
< -4  4 >:  6.253586218004964e-5
< -3  3 >:  -6.253586218004964e-5
< -2  2 >:  6.253586218004964e-5
< -1  1 >:  -6.253586218004964e-5
< 0  0 >:  6.253586218004964e-5
< 1  -1 >:  -6.253586218004964e-5
< 2  -2 >:  6.253586218004964e-5
< 3  -3 >:  -6.253586218004964e-5
< 4  -4 >:  6.253586218004964e-5
ctilde_basis_func: rank=2 ndens=1 mu0=0 mu=( 0  0 )
n=( 2  2 )
l=( 1  1 )
num_ms=2
< -1  1 >:  0.00061043223875563
< 0  0 >:  -0.000305216119377815
ctilde_basis_func: rank=2 ndens=1 mu0=0 mu=( 0  0 )
n=( 5  6 )
l=( 2  2 )
num_ms=5
< -2  2 >:  -0.000128950910299918
< -1  1 >:  0.000128950910299918
< 0  0 >:  -0.000128950910299918
< 1  -1 >:  0.000128950910299918
< 2  -2 >:  -0.000128950910299918
ctilde_basis_func: rank=2 ndens=1 mu0=0 mu=( 0  0 )
n=( 2  9 )
l=( 1  1 )
num_ms=3
< -1  1 >:  -1.3025145614188662e-5
< 0  0 >:  1.3025145614188662e-5
< 1  -1 >:  -1.3025145614188662e-5
ctilde_basis_func: rank=2 ndens=1 mu0=0 mu=( 0  0 )
n=( 4  14 )
l=( 0  0 )
num_ms=1
< 0  0 >:  -7.036680585304799e-6
ctilde_basis_func: rank=2 ndens=1 mu0=0 mu=( 0  0 )
n=( 1  4 )
l=( 4  4 )
num_ms=9
< -4  4 >:  -3.7785553353367134e-5
< -3  3 >:  3.778555335336713e-5
< -2  2 >:  -3.778555335336713e-5
< -1  1 >:  3.778555335336713e-5
< 0  0 >:  -3.778555335336713e-5
< 1  -1 >:  3.778555335336713e-5
< 2  -2 >:  -3.778555335336713e-5
< 3  -3 >:  3.778555335336713e-5
< 4  -4 >:  -3.778555335336713e-5
ctilde_basis_func: rank=2 ndens=1 mu0=0 mu=( 0  0 )
n=( 2  6 )
l=( 2  2 )
num_ms=5
< -2  2 >:  7.765518609892991e-5
< -1  1 >:  -7.765518609892991e-5
< 0  0 >:  7.765518609892991e-5
< 1  -1 >:  -7.765518609892991e-5
< 2  -2 >:  7.765518609892991e-5
ctilde_basis_func: rank=2 ndens=1 mu0=0 mu=( 0  0 )
n=( 1  8 )
l=( 2  2 )
num_ms=5
< -2  2 >:  -7.175475323850051e-5
< -1  1 >:  7.175475323850051e-5
< 0  0 >:  -7.175475323850051e-5
< 1  -1 >:  7.175475323850051e-5
< 2  -2 >:  -7.175475323850051e-5
ctilde_basis_func: rank=2 ndens=1 mu0=0 mu=( 0  0 )
n=( 2  2 )
l=( 3  3 )
num_ms=4
< -3  3 >:  0.000203806365196039
< -2  2 >:  -0.000203806365196039
< -1  1 >:  0.000203806365196039
< 0  0 >:  -0.0001019031825980195
ctilde_basis_func: rank=2 ndens=1 mu0=0 mu=( 0  0 )
n=( 1  9 )
l=( 2  2 )
num_ms=5
< -2  2 >:  -2.9205021366460334e-5
< -1  1 >:  2.9205021366460334e-5
< 0  0 >:  -2.9205021366460334e-5
< 1  -1 >:  2.9205021366460334e-5
< 2  -2 >:  -2.9205021366460334e-5
ctilde_basis_func: rank=2 ndens=1 mu0=0 mu=( 0  0 )
n=( 1  7 )
l=( 3  3 )
num_ms=7
< -3  3 >:  -1.8088261991953472e-5
< -2  2 >:  1.8088261991953472e-5
< -1  1 >:  -1.8088261991953472e-5
< 0  0 >:  1.8088261991953472e-5
< 1  -1 >:  -1.8088261991953472e-5
< 2  -2 >:  1.8088261991953472e-5
< 3  -3 >:  -1.8088261991953472e-5
ctilde_basis_func: rank=2 ndens=1 mu0=0 mu=( 0  0 )
n=( 4  6 )
l=( 1  1 )
num_ms=3
< -1  1 >:  8.492813477564367e-5
< 0  0 >:  -8.492813477564367e-5
< 1  -1 >:  8.492813477564367e-5
ctilde_basis_func: rank=2 ndens=1 mu0=0 mu=( 0  0 )
n=( 1  6 )
l=( 2  2 )
num_ms=5
< -2  2 >:  -8.651498253722056e-5
< -1  1 >:  8.651498253722056e-5
< 0  0 >:  -8.651498253722056e-5
< 1  -1 >:  8.651498253722056e-5
< 2  -2 >:  -8.651498253722056e-5
ctilde_basis_func: rank=2 ndens=1 mu0=0 mu=( 0  0 )
n=( 3  9 )
l=( 2  2 )
num_ms=5
< -2  2 >:  -2.1049662551586434e-5
< -1  1 >:  2.1049662551586434e-5
< 0  0 >:  -2.1049662551586434e-5
< 1  -1 >:  2.1049662551586434e-5
< 2  -2 >:  -2.1049662551586434e-5
ctilde_basis_func: rank=2 ndens=1 mu0=0 mu=( 0  0 )
n=( 2  3 )
l=( 5  5 )
num_ms=11
< -5  5 >:  -8.052715529333674e-5
< -4  4 >:  8.05271552933368e-5
< -3  3 >:  -8.05271552933368e-5
< -2  2 >:  8.05271552933368e-5
< -1  1 >:  -8.05271552933368e-5
< 0  0 >:  8.05271552933368e-5
< 1  -1 >:  -8.05271552933368e-5
< 2  -2 >:  8.05271552933368e-5
< 3  -3 >:  -8.05271552933368e-5
< 4  -4 >:  8.05271552933368e-5
< 5  -5 >:  -8.05271552933368e-5
ctilde_basis_func: rank=2 ndens=1 mu0=0 mu=( 0  0 )
n=( 2  2 )
l=( 5  5 )
num_ms=6
< -5  5 >:  0.00013101852390464398
< -4  4 >:  -0.000131018523904644
< -3  3 >:  0.000131018523904644
< -2  2 >:  -0.000131018523904644
< -1  1 >:  0.000131018523904644
< 0  0 >:  -6.5509261952322e-5
ctilde_basis_func: rank=2 ndens=1 mu0=0 mu=( 0  0 )
n=( 3  11 )
l=( 1  1 )
num_ms=3
< -1  1 >:  1.288727044212595e-5
< 0  0 >:  -1.288727044212595e-5
< 1  -1 >:  1.288727044212595e-5
ctilde_basis_func: rank=2 ndens=1 mu0=0 mu=( 0  0 )
n=( 4  7 )
l=( 1  1 )
num_ms=3
< -1  1 >:  -2.9064823603053007e-5
< 0  0 >:  2.9064823603053007e-5
< 1  -1 >:  -2.9064823603053007e-5
ctilde_basis_func: rank=2 ndens=1 mu0=0 mu=( 0  0 )
n=( 1  1 )
l=( 6  6 )
num_ms=7
< -6  6 >:  -2.420961914749625e-5
< -5  5 >:  2.4209619147496237e-5
< -4  4 >:  -2.4209619147496237e-5
< -3  3 >:  2.4209619147496237e-5
< -2  2 >:  -2.4209619147496237e-5
< -1  1 >:  2.4209619147496237e-5
< 0  0 >:  -1.2104809573748119e-5
ctilde_basis_func: rank=2 ndens=1 mu0=0 mu=( 0  0 )
n=( 2  5 )
l=( 4  4 )
num_ms=9
< -4  4 >:  5.849104927521898e-5
< -3  3 >:  -5.849104927521897e-5
< -2  2 >:  5.849104927521897e-5
< -1  1 >:  -5.849104927521897e-5
< 0  0 >:  5.849104927521897e-5
< 1  -1 >:  -5.849104927521897e-5
< 2  -2 >:  5.849104927521897e-5
< 3  -3 >:  -5.849104927521897e-5
< 4  -4 >:  5.849104927521897e-5
ctilde_basis_func: rank=2 ndens=1 mu0=0 mu=( 0  0 )
n=( 5  5 )
l=( 3  3 )
num_ms=4
< -3  3 >:  6.494006823914255e-5
< -2  2 >:  -6.494006823914255e-5
< -1  1 >:  6.494006823914255e-5
< 0  0 >:  -3.2470034119571276e-5
ctilde_basis_func: rank=2 ndens=1 mu0=0 mu=( 0  0 )
n=( 3  9 )
l=( 0  0 )
num_ms=1
< 0  0 >:  1.2257382182822009e-5
ctilde_basis_func: rank=2 ndens=1 mu0=0 mu=( 0  0 )
n=( 2  8 )
l=( 3  3 )
num_ms=7
< -3  3 >:  -4.121142841668381e-6
< -2  2 >:  4.121142841668381e-6
< -1  1 >:  -4.121142841668381e-6
< 0  0 >:  4.121142841668381e-6
< 1  -1 >:  -4.121142841668381e-6
< 2  -2 >:  4.121142841668381e-6
< 3  -3 >:  -4.121142841668381e-6
ctilde_basis_func: rank=2 ndens=1 mu0=0 mu=( 0  0 )
n=( 2  7 )
l=( 2  2 )
num_ms=5
< -2  2 >:  3.4558604297281164e-5
< -1  1 >:  -3.4558604297281164e-5
< 0  0 >:  3.4558604297281164e-5
< 1  -1 >:  -3.4558604297281164e-5
< 2  -2 >:  3.4558604297281164e-5
ctilde_basis_func: rank=2 ndens=1 mu0=0 mu=( 0  0 )
n=( 4  6 )
l=( 2  2 )
num_ms=5
< -2  2 >:  5.879703618993472e-5
< -1  1 >:  -5.879703618993472e-5
< 0  0 >:  5.879703618993472e-5
< 1  -1 >:  -5.879703618993472e-5
< 2  -2 >:  5.879703618993472e-5
ctilde_basis_func: rank=2 ndens=1 mu0=0 mu=( 0  0 )
n=( 3  6 )
l=( 2  2 )
num_ms=5
< -2  2 >:  -8.111667619678623e-5
< -1  1 >:  8.111667619678623e-5
< 0  0 >:  -8.111667619678623e-5
< 1  -1 >:  8.111667619678623e-5
< 2  -2 >:  -8.111667619678623e-5
ctilde_basis_func: rank=2 ndens=1 mu0=0 mu=( 0  0 )
n=( 2  5 )
l=( 3  3 )
num_ms=7
< -3  3 >:  4.173846166813281e-5
< -2  2 >:  -4.173846166813281e-5
< -1  1 >:  4.173846166813281e-5
< 0  0 >:  -4.173846166813281e-5
< 1  -1 >:  4.173846166813281e-5
< 2  -2 >:  -4.173846166813281e-5
< 3  -3 >:  4.173846166813281e-5
ctilde_basis_func: rank=2 ndens=1 mu0=0 mu=( 0  0 )
n=( 1  7 )
l=( 2  2 )
num_ms=5
< -2  2 >:  3.5585614151700035e-5
< -1  1 >:  -3.5585614151700035e-5
< 0  0 >:  3.5585614151700035e-5
< 1  -1 >:  -3.5585614151700035e-5
< 2  -2 >:  3.5585614151700035e-5
ctilde_basis_func: rank=2 ndens=1 mu0=0 mu=( 0  0 )
n=( 2  3 )
l=( 4  4 )
num_ms=9
< -4  4 >:  4.540549505340332e-5
< -3  3 >:  -4.540549505340331e-5
< -2  2 >:  4.540549505340331e-5
< -1  1 >:  -4.540549505340331e-5
< 0  0 >:  4.540549505340331e-5
< 1  -1 >:  -4.540549505340331e-5
< 2  -2 >:  4.540549505340331e-5
< 3  -3 >:  -4.540549505340331e-5
< 4  -4 >:  4.540549505340331e-5
ctilde_basis_func: rank=2 ndens=1 mu0=0 mu=( 0  0 )
n=( 5  9 )
l=( 1  1 )
num_ms=3
< -1  1 >:  5.788443087468961e-6
< 0  0 >:  -5.788443087468961e-6
< 1  -1 >:  5.788443087468961e-6
ctilde_basis_func: rank=2 ndens=1 mu0=0 mu=( 0  0 )
n=( 2  7 )
l=( 3  3 )
num_ms=7
< -3  3 >:  1.5540633245674525e-5
< -2  2 >:  -1.5540633245674525e-5
< -1  1 >:  1.5540633245674525e-5
< 0  0 >:  -1.5540633245674525e-5
< 1  -1 >:  1.5540633245674525e-5
< 2  -2 >:  -1.5540633245674525e-5
< 3  -3 >:  1.5540633245674525e-5
ctilde_basis_func: rank=2 ndens=1 mu0=0 mu=( 0  0 )
n=( 1  16 )
l=( 0  0 )
num_ms=1
< 0  0 >:  4.330235017335238e-6
ctilde_basis_func: rank=2 ndens=1 mu0=0 mu=( 0  0 )
n=( 1  14 )
l=( 1  1 )
num_ms=3
< -1  1 >:  -7.110549370559817e-6
< 0  0 >:  7.110549370559817e-6
< 1  -1 >:  -7.110549370559817e-6
ctilde_basis_func: rank=2 ndens=1 mu0=0 mu=( 0  0 )
n=( 1  4 )
l=( 2  2 )
num_ms=5
< -2  2 >:  0.00020056019407555426
< -1  1 >:  -0.00020056019407555426
< 0  0 >:  0.00020056019407555426
< 1  -1 >:  -0.00020056019407555426
< 2  -2 >:  0.00020056019407555426
ctilde_basis_func: rank=2 ndens=1 mu0=0 mu=( 0  0 )
n=( 7  8 )
l=( 1  1 )
num_ms=3
< -1  1 >:  1.1818760243925133e-6
< 0  0 >:  -1.1818760243925133e-6
< 1  -1 >:  1.1818760243925133e-6
ctilde_basis_func: rank=2 ndens=1 mu0=0 mu=( 0  0 )
n=( 4  4 )
l=( 3  3 )
num_ms=4
< -3  3 >:  0.0003191193952530567
< -2  2 >:  -0.0003191193952530567
< -1  1 >:  0.0003191193952530567
< 0  0 >:  -0.00015955969762652836
ctilde_basis_func: rank=2 ndens=1 mu0=0 mu=( 0  0 )
n=( 2  16 )
l=( 0  0 )
num_ms=1
< 0  0 >:  -9.44975283629958e-6
ctilde_basis_func: rank=2 ndens=1 mu0=0 mu=( 0  0 )
n=( 3  6 )
l=( 3  3 )
num_ms=7
< -3  3 >:  2.316206014730753e-5
< -2  2 >:  -2.316206014730753e-5
< -1  1 >:  2.316206014730753e-5
< 0  0 >:  -2.316206014730753e-5
< 1  -1 >:  2.316206014730753e-5
< 2  -2 >:  -2.316206014730753e-5
< 3  -3 >:  2.316206014730753e-5
ctilde_basis_func: rank=2 ndens=1 mu0=0 mu=( 0  0 )
n=( 3  3 )
l=( 0  0 )
num_ms=1
< 0  0 >:  -9.154474829418209e-5
ctilde_basis_func: rank=2 ndens=1 mu0=0 mu=( 0  0 )
n=( 3  3 )
l=( 4  4 )
num_ms=5
< -4  4 >:  -0.0001589264911565747
< -3  3 >:  0.0001589264911565747
< -2  2 >:  -0.0001589264911565747
< -1  1 >:  0.0001589264911565747
< 0  0 >:  -7.946324557828736e-5
ctilde_basis_func: rank=2 ndens=1 mu0=0 mu=( 0  0 )
n=( 4  5 )
l=( 0  0 )
num_ms=1
< 0  0 >:  6.872633115359949e-5
ctilde_basis_func: rank=2 ndens=1 mu0=0 mu=( 0  0 )
n=( 2  4 )
l=( 2  2 )
num_ms=5
< -2  2 >:  -6.450563956491615e-6
< -1  1 >:  6.450563956491615e-6
< 0  0 >:  -6.450563956491615e-6
< 1  -1 >:  6.450563956491615e-6
< 2  -2 >:  -6.450563956491615e-6
ctilde_basis_func: rank=2 ndens=1 mu0=0 mu=( 0  0 )
n=( 2  10 )
l=( 1  1 )
num_ms=3
< -1  1 >:  1.2847033583994703e-6
< 0  0 >:  -1.2847033583994703e-6
< 1  -1 >:  1.2847033583994703e-6
ctilde_basis_func: rank=2 ndens=1 mu0=0 mu=( 0  0 )
n=( 4  6 )
l=( 3  3 )
num_ms=7
< -3  3 >:  5.214460193544029e-5
< -2  2 >:  -5.214460193544029e-5
< -1  1 >:  5.214460193544029e-5
< 0  0 >:  -5.214460193544029e-5
< 1  -1 >:  5.214460193544029e-5
< 2  -2 >:  -5.214460193544029e-5
< 3  -3 >:  5.214460193544029e-5
ctilde_basis_func: rank=2 ndens=1 mu0=0 mu=( 0  0 )
n=( 2  2 )
l=( 4  4 )
num_ms=5
< -4  4 >:  -0.00017692512968220647
< -3  3 >:  0.00017692512968220644
< -2  2 >:  -0.00017692512968220644
< -1  1 >:  0.00017692512968220644
< 0  0 >:  -8.846256484110322e-5
ctilde_basis_func: rank=2 ndens=1 mu0=0 mu=( 0  0 )
n=( 1  1 )
l=( 3  3 )
num_ms=4
< -3  3 >:  0.0009120936334071234
< -2  2 >:  -0.0009120936334071234
< -1  1 >:  0.0009120936334071234
< 0  0 >:  -0.0004560468167035617
ctilde_basis_func: rank=2 ndens=1 mu0=0 mu=( 0  0 )
n=( 5  8 )
l=( 1  1 )
num_ms=3
< -1  1 >:  -3.576042535746879e-5
< 0  0 >:  3.576042535746879e-5
< 1  -1 >:  -3.576042535746879e-5
ctilde_basis_func: rank=2 ndens=1 mu0=0 mu=( 0  0 )
n=( 1  6 )
l=( 3  3 )
num_ms=7
< -3  3 >:  -2.166643040339775e-5
< -2  2 >:  2.166643040339775e-5
< -1  1 >:  -2.166643040339775e-5
< 0  0 >:  2.166643040339775e-5
< 1  -1 >:  -2.166643040339775e-5
< 2  -2 >:  2.166643040339775e-5
< 3  -3 >:  -2.166643040339775e-5
ctilde_basis_func: rank=2 ndens=1 mu0=0 mu=( 0  0 )
n=( 2  5 )
l=( 2  2 )
num_ms=5
< -2  2 >:  7.385424641901922e-5
< -1  1 >:  -7.385424641901922e-5
< 0  0 >:  7.385424641901922e-5
< 1  -1 >:  -7.385424641901922e-5
< 2  -2 >:  7.385424641901922e-5
ctilde_basis_func: rank=2 ndens=1 mu0=0 mu=( 0  0 )
n=( 6  8 )
l=( 0  0 )
num_ms=1
< 0  0 >:  -1.9915140700348262e-5
ctilde_basis_func: rank=2 ndens=1 mu0=0 mu=( 0  0 )
n=( 4  10 )
l=( 1  1 )
num_ms=3
< -1  1 >:  5.608023856988712e-6
< 0  0 >:  -5.608023856988712e-6
< 1  -1 >:  5.608023856988712e-6
ctilde_basis_func: rank=2 ndens=1 mu0=0 mu=( 0  0 )
n=( 1  2 )
l=( 5  5 )
num_ms=11
< -5  5 >:  -4.159021967603717e-5
< -4  4 >:  4.1590219676037194e-5
< -3  3 >:  -4.1590219676037194e-5
< -2  2 >:  4.1590219676037194e-5
< -1  1 >:  -4.1590219676037194e-5
< 0  0 >:  4.1590219676037194e-5
< 1  -1 >:  -4.1590219676037194e-5
< 2  -2 >:  4.1590219676037194e-5
< 3  -3 >:  -4.1590219676037194e-5
< 4  -4 >:  4.1590219676037194e-5
< 5  -5 >:  -4.1590219676037194e-5
ctilde_basis_func: rank=2 ndens=1 mu0=0 mu=( 0  0 )
n=( 3  8 )
l=( 0  0 )
num_ms=1
< 0  0 >:  -3.6993588598018717e-5
ctilde_basis_func: rank=2 ndens=1 mu0=0 mu=( 0  0 )
n=( 1  4 )
l=( 1  1 )
num_ms=3
< -1  1 >:  -4.802771083215532e-5
< 0  0 >:  4.802771083215532e-5
< 1  -1 >:  -4.802771083215532e-5
ctilde_basis_func: rank=2 ndens=1 mu0=0 mu=( 0  0 )
n=( 3  8 )
l=( 1  1 )
num_ms=3
< -1  1 >:  -3.409467773912378e-5
< 0  0 >:  3.409467773912378e-5
< 1  -1 >:  -3.409467773912378e-5
ctilde_basis_func: rank=2 ndens=1 mu0=0 mu=( 0  0 )
n=( 2  5 )
l=( 1  1 )
num_ms=3
< -1  1 >:  -0.00014231629520226796
< 0  0 >:  0.00014231629520226796
< 1  -1 >:  -0.00014231629520226796
ctilde_basis_func: rank=2 ndens=1 mu0=0 mu=( 0  0 )
n=( 1  3 )
l=( 4  4 )
num_ms=9
< -4  4 >:  5.2316346350255095e-5
< -3  3 >:  -5.231634635025508e-5
< -2  2 >:  5.231634635025508e-5
< -1  1 >:  -5.231634635025508e-5
< 0  0 >:  5.231634635025508e-5
< 1  -1 >:  -5.231634635025508e-5
< 2  -2 >:  5.231634635025508e-5
< 3  -3 >:  -5.231634635025508e-5
< 4  -4 >:  5.231634635025508e-5
ctilde_basis_func: rank=2 ndens=1 mu0=0 mu=( 0  0 )
n=( 2  4 )
l=( 4  4 )
num_ms=9
< -4  4 >:  -6.267124556418849e-5
< -3  3 >:  6.267124556418847e-5
< -2  2 >:  -6.267124556418847e-5
< -1  1 >:  6.267124556418847e-5
< 0  0 >:  -6.267124556418847e-5
< 1  -1 >:  6.267124556418847e-5
< 2  -2 >:  -6.267124556418847e-5
< 3  -3 >:  6.267124556418847e-5
< 4  -4 >:  -6.267124556418847e-5
ctilde_basis_func: rank=2 ndens=1 mu0=0 mu=( 0  0 )
n=( 4  7 )
l=( 0  0 )
num_ms=1
< 0  0 >:  5.456581459408525e-6
ctilde_basis_func: rank=2 ndens=1 mu0=0 mu=( 0  0 )
n=( 4  11 )
l=( 1  1 )
num_ms=3
< -1  1 >:  -3.1610462891634778e-6
< 0  0 >:  3.1610462891634778e-6
< 1  -1 >:  -3.1610462891634778e-6
ctilde_basis_func: rank=2 ndens=1 mu0=0 mu=( 0  0 )
n=( 3  8 )
l=( 2  2 )
num_ms=5
< -2  2 >:  -9.015151156850376e-5
< -1  1 >:  9.015151156850376e-5
< 0  0 >:  -9.015151156850376e-5
< 1  -1 >:  9.015151156850376e-5
< 2  -2 >:  -9.015151156850376e-5
ctilde_basis_func: rank=2 ndens=1 mu0=0 mu=( 0  0 )
n=( 1  9 )
l=( 1  1 )
num_ms=3
< -1  1 >:  8.53432431975087e-6
< 0  0 >:  -8.53432431975087e-6
< 1  -1 >:  8.53432431975087e-6
ctilde_basis_func: rank=2 ndens=1 mu0=0 mu=( 0  0 )
n=( 3  7 )
l=( 2  2 )
num_ms=5
< -2  2 >:  -3.571807890681311e-5
< -1  1 >:  3.571807890681311e-5
< 0  0 >:  -3.571807890681311e-5
< 1  -1 >:  3.571807890681311e-5
< 2  -2 >:  -3.571807890681311e-5
ctilde_basis_func: rank=2 ndens=1 mu0=0 mu=( 0  0 )
n=( 1  3 )
l=( 5  5 )
num_ms=11
< -5  5 >:  3.847524276559087e-6
< -4  4 >:  -3.84752427655909e-6
< -3  3 >:  3.84752427655909e-6
< -2  2 >:  -3.84752427655909e-6
< -1  1 >:  3.84752427655909e-6
< 0  0 >:  -3.84752427655909e-6
< 1  -1 >:  3.84752427655909e-6
< 2  -2 >:  -3.84752427655909e-6
< 3  -3 >:  3.84752427655909e-6
< 4  -4 >:  -3.84752427655909e-6
< 5  -5 >:  3.84752427655909e-6
ctilde_basis_func: rank=2 ndens=1 mu0=0 mu=( 0  0 )
n=( 3  4 )
l=( 0  0 )
num_ms=1
< 0  0 >:  -0.00013153644490340033
ctilde_basis_func: rank=2 ndens=1 mu0=0 mu=( 0  0 )
n=( 2  10 )
l=( 2  2 )
num_ms=5
< -2  2 >:  1.676639058831644e-5
< -1  1 >:  -1.676639058831644e-5
< 0  0 >:  1.676639058831644e-5
< 1  -1 >:  -1.676639058831644e-5
< 2  -2 >:  1.676639058831644e-5
ctilde_basis_func: rank=2 ndens=1 mu0=0 mu=( 0  0 )
n=( 4  8 )
l=( 1  1 )
num_ms=3
< -1  1 >:  9.833232904912725e-6
< 0  0 >:  -9.833232904912725e-6
< 1  -1 >:  9.833232904912725e-6
ctilde_basis_func: rank=2 ndens=1 mu0=0 mu=( 0  0 )
n=( 6  9 )
l=( 1  1 )
num_ms=3
< -1  1 >:  2.682636055229922e-5
< 0  0 >:  -2.682636055229922e-5
< 1  -1 >:  2.682636055229922e-5
ctilde_basis_func: rank=2 ndens=1 mu0=0 mu=( 0  0 )
n=( 2  3 )
l=( 3  3 )
num_ms=7
< -3  3 >:  -1.567830396032229e-5
< -2  2 >:  1.567830396032229e-5
< -1  1 >:  -1.567830396032229e-5
< 0  0 >:  1.567830396032229e-5
< 1  -1 >:  -1.567830396032229e-5
< 2  -2 >:  1.567830396032229e-5
< 3  -3 >:  -1.567830396032229e-5
ctilde_basis_func: rank=2 ndens=1 mu0=0 mu=( 0  0 )
n=( 1  1 )
l=( 0  0 )
num_ms=1
< 0  0 >:  0.015106810324139026
ctilde_basis_func: rank=2 ndens=1 mu0=0 mu=( 0  0 )
n=( 5  10 )
l=( 1  1 )
num_ms=3
< -1  1 >:  -1.6320808928964757e-5
< 0  0 >:  1.6320808928964757e-5
< 1  -1 >:  -1.6320808928964757e-5
ctilde_basis_func: rank=2 ndens=1 mu0=0 mu=( 0  0 )
n=( 2  11 )
l=( 0  0 )
num_ms=1
< 0  0 >:  -2.652892775935291e-7
ctilde_basis_func: rank=2 ndens=1 mu0=0 mu=( 0  0 )
n=( 1  3 )
l=( 3  3 )
num_ms=7
< -3  3 >:  -2.5752675173267552e-5
< -2  2 >:  2.5752675173267552e-5
< -1  1 >:  -2.5752675173267552e-5
< 0  0 >:  2.5752675173267552e-5
< 1  -1 >:  -2.5752675173267552e-5
< 2  -2 >:  2.5752675173267552e-5
< 3  -3 >:  -2.5752675173267552e-5
ctilde_basis_func: rank=2 ndens=1 mu0=0 mu=( 0  0 )
n=( 4  9 )
l=( 1  1 )
num_ms=3
< -1  1 >:  1.5893955312349157e-5
< 0  0 >:  -1.5893955312349157e-5
< 1  -1 >:  1.5893955312349157e-5
ctilde_basis_func: rank=2 ndens=1 mu0=0 mu=( 0  0 )
n=( 3  9 )
l=( 1  1 )
num_ms=3
< -1  1 >:  2.1693525731179284e-5
< 0  0 >:  -2.1693525731179284e-5
< 1  -1 >:  2.1693525731179284e-5
ctilde_basis_func: rank=2 ndens=1 mu0=0 mu=( 0  0 )
n=( 1  12 )
l=( 0  0 )
num_ms=1
< 0  0 >:  -2.1993395711503694e-7
ctilde_basis_func: rank=2 ndens=1 mu0=0 mu=( 0  0 )
n=( 3  4 )
l=( 1  1 )
num_ms=3
< -1  1 >:  1.715244937167622e-6
< 0  0 >:  -1.715244937167622e-6
< 1  -1 >:  1.715244937167622e-6
ctilde_basis_func: rank=2 ndens=1 mu0=0 mu=( 0  0 )
n=( 2  4 )
l=( 1  1 )
num_ms=3
< -1  1 >:  0.00010489426945214369
< 0  0 >:  -0.00010489426945214369
< 1  -1 >:  0.00010489426945214369
ctilde_basis_func: rank=2 ndens=1 mu0=0 mu=( 0  0 )
n=( 2  11 )
l=( 1  1 )
num_ms=3
< -1  1 >:  -3.3727181842706726e-6
< 0  0 >:  3.3727181842706726e-6
< 1  -1 >:  -3.3727181842706726e-6
ctilde_basis_func: rank=2 ndens=1 mu0=0 mu=( 0  0 )
n=( 2  3 )
l=( 2  2 )
num_ms=5
< -2  2 >:  0.0002441894053666596
< -1  1 >:  -0.0002441894053666596
< 0  0 >:  0.0002441894053666596
< 1  -1 >:  -0.0002441894053666596
< 2  -2 >:  0.0002441894053666596
ctilde_basis_func: rank=2 ndens=1 mu0=0 mu=( 0  0 )
n=( 5  6 )
l=( 1  1 )
num_ms=3
< -1  1 >:  -9.306519853827317e-5
< 0  0 >:  9.306519853827317e-5
< 1  -1 >:  -9.306519853827317e-5
ctilde_basis_func: rank=2 ndens=1 mu0=0 mu=( 0  0 )
n=( 2  2 )
l=( 2  2 )
num_ms=3
< -2  2 >:  4.4286215334013535e-5
< -1  1 >:  -4.4286215334013535e-5
< 0  0 >:  2.2143107667006768e-5
ctilde_basis_func: rank=2 ndens=1 mu0=0 mu=( 0  0 )
n=( 2  4 )
l=( 3  3 )
num_ms=7
< -3  3 >:  8.075506000288638e-5
< -2  2 >:  -8.075506000288638e-5
< -1  1 >:  8.075506000288638e-5
< 0  0 >:  -8.075506000288638e-5
< 1  -1 >:  8.075506000288638e-5
< 2  -2 >:  -8.075506000288638e-5
< 3  -3 >:  8.075506000288638e-5
ctilde_basis_func: rank=2 ndens=1 mu0=0 mu=( 0  0 )
n=( 6  7 )
l=( 1  1 )
num_ms=3
< -1  1 >:  -7.275521076024707e-6
< 0  0 >:  7.275521076024707e-6
< 1  -1 >:  -7.275521076024707e-6
ctilde_basis_func: rank=2 ndens=1 mu0=0 mu=( 0  0 )
n=( 2  6 )
l=( 3  3 )
num_ms=7
< -3  3 >:  -2.1852162411517967e-5
< -2  2 >:  2.1852162411517967e-5
< -1  1 >:  -2.1852162411517967e-5
< 0  0 >:  2.1852162411517967e-5
< 1  -1 >:  -2.1852162411517967e-5
< 2  -2 >:  2.1852162411517967e-5
< 3  -3 >:  -2.1852162411517967e-5
ctilde_basis_func: rank=2 ndens=1 mu0=0 mu=( 0  0 )
n=( 5  11 )
l=( 0  0 )
num_ms=1
< 0  0 >:  4.360857292482137e-6
ctilde_basis_func: rank=2 ndens=1 mu0=0 mu=( 0  0 )
n=( 1  11 )
l=( 0  0 )
num_ms=1
< 0  0 >:  7.553078946508797e-7
ctilde_basis_func: rank=2 ndens=1 mu0=0 mu=( 0  0 )
n=( 2  7 )
l=( 1  1 )
num_ms=3
< -1  1 >:  -4.175519220250102e-5
< 0  0 >:  4.175519220250102e-5
< 1  -1 >:  -4.175519220250102e-5
ctilde_basis_func: rank=2 ndens=1 mu0=0 mu=( 0  0 )
n=( 6  6 )
l=( 0  0 )
num_ms=1
< 0  0 >:  -8.080851812512106e-5
ctilde_basis_func: rank=2 ndens=1 mu0=0 mu=( 0  0 )
n=( 4  12 )
l=( 0  0 )
num_ms=1
< 0  0 >:  7.747967504443829e-7
ctilde_basis_func: rank=2 ndens=1 mu0=0 mu=( 0  0 )
n=( 6  8 )
l=( 1  1 )
num_ms=3
< -1  1 >:  2.172136980578546e-5
< 0  0 >:  -2.172136980578546e-5
< 1  -1 >:  2.172136980578546e-5
ctilde_basis_func: rank=2 ndens=1 mu0=0 mu=( 0  0 )
n=( 5  10 )
l=( 0  0 )
num_ms=1
< 0  0 >:  -2.5013620643451623e-5
ctilde_basis_func: rank=2 ndens=1 mu0=0 mu=( 0  0 )
n=( 2  13 )
l=( 1  1 )
num_ms=3
< -1  1 >:  8.601282214031413e-6
< 0  0 >:  -8.601282214031413e-6
< 1  -1 >:  8.601282214031413e-6
ctilde_basis_func: rank=2 ndens=1 mu0=0 mu=( 0  0 )
n=( 5  8 )
l=( 0  0 )
num_ms=1
< 0  0 >:  -7.037300007452078e-6
ctilde_basis_func: rank=2 ndens=1 mu0=0 mu=( 0  0 )
n=( 4  4 )
l=( 2  2 )
num_ms=3
< -2  2 >:  -0.00021005673744885014
< -1  1 >:  0.00021005673744885014
< 0  0 >:  -0.00010502836872442507
ctilde_basis_func: rank=2 ndens=1 mu0=0 mu=( 0  0 )
n=( 1  5 )
l=( 2  2 )
num_ms=5
< -2  2 >:  -8.55995449491016e-5
< -1  1 >:  8.55995449491016e-5
< 0  0 >:  -8.55995449491016e-5
< 1  -1 >:  8.55995449491016e-5
< 2  -2 >:  -8.55995449491016e-5
ctilde_basis_func: rank=2 ndens=1 mu0=0 mu=( 0  0 )
n=( 5  7 )
l=( 2  2 )
num_ms=5
< -2  2 >:  1.2840453325908468e-5
< -1  1 >:  -1.2840453325908468e-5
< 0  0 >:  1.2840453325908468e-5
< 1  -1 >:  -1.2840453325908468e-5
< 2  -2 >:  1.2840453325908468e-5
ctilde_basis_func: rank=2 ndens=1 mu0=0 mu=( 0  0 )
n=( 1  11 )
l=( 2  2 )
num_ms=5
< -2  2 >:  -2.4204318855138284e-5
< -1  1 >:  2.4204318855138284e-5
< 0  0 >:  -2.4204318855138284e-5
< 1  -1 >:  2.4204318855138284e-5
< 2  -2 >:  -2.4204318855138284e-5
ctilde_basis_func: rank=2 ndens=1 mu0=0 mu=( 0  0 )
n=( 1  4 )
l=( 0  0 )
num_ms=1
< 0  0 >:  -0.00024328489210749605
ctilde_basis_func: rank=2 ndens=1 mu0=0 mu=( 0  0 )
n=( 5  9 )
l=( 0  0 )
num_ms=1
< 0  0 >:  1.2633402265182684e-5
ctilde_basis_func: rank=2 ndens=1 mu0=0 mu=( 0  0 )
n=( 3  11 )
l=( 0  0 )
num_ms=1
< 0  0 >:  4.406051054398028e-6
ctilde_basis_func: rank=2 ndens=1 mu0=0 mu=( 0  0 )
n=( 6  11 )
l=( 0  0 )
num_ms=1
< 0  0 >:  7.845676088526786e-6
ctilde_basis_func: rank=2 ndens=1 mu0=0 mu=( 0  0 )
n=( 3  6 )
l=( 1  1 )
num_ms=3
< -1  1 >:  -1.0800614901900761e-5
< 0  0 >:  1.0800614901900761e-5
< 1  -1 >:  -1.0800614901900761e-5
ctilde_basis_func: rank=2 ndens=1 mu0=0 mu=( 0  0 )
n=( 3  4 )
l=( 2  2 )
num_ms=5
< -2  2 >:  0.00011049812724709922
< -1  1 >:  -0.00011049812724709922
< 0  0 >:  0.00011049812724709922
< 1  -1 >:  -0.00011049812724709922
< 2  -2 >:  0.00011049812724709922
ctilde_basis_func: rank=2 ndens=1 mu0=0 mu=( 0  0 )
n=( 3  12 )
l=( 0  0 )
num_ms=1
< 0  0 >:  6.671322450616281e-7
ctilde_basis_func: rank=2 ndens=1 mu0=0 mu=( 0  0 )
n=( 3  10 )
l=( 1  1 )
num_ms=3
< -1  1 >:  -1.3358229164556018e-5
< 0  0 >:  1.3358229164556018e-5
< 1  -1 >:  -1.3358229164556018e-5
ctilde_basis_func: rank=2 ndens=1 mu0=0 mu=( 0  0 )
n=( 1  2 )
l=( 0  0 )
num_ms=1
< 0  0 >:  -0.000705141098673342
ctilde_basis_func: rank=2 ndens=1 mu0=0 mu=( 0  0 )
n=( 2  9 )
l=( 2  2 )
num_ms=5
< -2  2 >:  2.1019755732902354e-5
< -1  1 >:  -2.1019755732902354e-5
< 0  0 >:  2.1019755732902354e-5
< 1  -1 >:  -2.1019755732902354e-5
< 2  -2 >:  2.1019755732902354e-5
ctilde_basis_func: rank=2 ndens=1 mu0=0 mu=( 0  0 )
n=( 3  14 )
l=( 0  0 )
num_ms=1
< 0  0 >:  1.0222159206753034e-5
ctilde_basis_func: rank=2 ndens=1 mu0=0 mu=( 0  0 )
n=( 4  6 )
l=( 0  0 )
num_ms=1
< 0  0 >:  -2.4088986015097767e-5
ctilde_basis_func: rank=2 ndens=1 mu0=0 mu=( 0  0 )
n=( 2  10 )
l=( 0  0 )
num_ms=1
< 0  0 >:  1.3154672216579163e-5
ctilde_basis_func: rank=2 ndens=1 mu0=0 mu=( 0  0 )
n=( 4  4 )
l=( 0  0 )
num_ms=1
< 0  0 >:  -2.3060365155104917e-5
ctilde_basis_func: rank=2 ndens=1 mu0=0 mu=( 0  0 )
n=( 1  6 )
l=( 1  1 )
num_ms=3
< -1  1 >:  -4.896575844923626e-5
< 0  0 >:  4.896575844923626e-5
< 1  -1 >:  -4.896575844923626e-5
ctilde_basis_func: rank=2 ndens=1 mu0=0 mu=( 0  0 )
n=( 1  1 )
l=( 2  2 )
num_ms=3
< -2  2 >:  -0.0004463240576964021
< -1  1 >:  0.0004463240576964021
< 0  0 >:  -0.00022316202884820104
ctilde_basis_func: rank=2 ndens=1 mu0=0 mu=( 0  0 )
n=( 3  12 )
l=( 1  1 )
num_ms=3
< -1  1 >:  -1.0491005641958541e-5
< 0  0 >:  1.0491005641958541e-5
< 1  -1 >:  -1.0491005641958541e-5
ctilde_basis_func: rank=2 ndens=1 mu0=0 mu=( 0  0 )
n=( 2  2 )
l=( 0  0 )
num_ms=1
< 0  0 >:  -0.00019479973173858195
ctilde_basis_func: rank=2 ndens=1 mu0=0 mu=( 0  0 )
n=( 1  10 )
l=( 2  2 )
num_ms=5
< -2  2 >:  -1.3490760194601097e-5
< -1  1 >:  1.3490760194601097e-5
< 0  0 >:  -1.3490760194601097e-5
< 1  -1 >:  1.3490760194601097e-5
< 2  -2 >:  -1.3490760194601097e-5
ctilde_basis_func: rank=2 ndens=1 mu0=0 mu=( 0  0 )
n=( 2  5 )
l=( 0  0 )
num_ms=1
< 0  0 >:  0.00010893211679536847
ctilde_basis_func: rank=2 ndens=1 mu0=0 mu=( 0  0 )
n=( 1  9 )
l=( 0  0 )
num_ms=1
< 0  0 >:  1.429277068308614e-5
ctilde_basis_func: rank=2 ndens=1 mu0=0 mu=( 0  0 )
n=( 1  3 )
l=( 0  0 )
num_ms=1
< 0  0 >:  0.00026854856073546795
ctilde_basis_func: rank=2 ndens=1 mu0=0 mu=( 0  0 )
n=( 5  5 )
l=( 0  0 )
num_ms=1
< 0  0 >:  -0.00011840450931738544
ctilde_basis_func: rank=2 ndens=1 mu0=0 mu=( 0  0 )
n=( 1  7 )
l=( 1  1 )
num_ms=3
< -1  1 >:  -4.342719668464113e-6
< 0  0 >:  4.342719668464113e-6
< 1  -1 >:  -4.342719668464113e-6
ctilde_basis_func: rank=2 ndens=1 mu0=0 mu=( 0  0 )
n=( 3  7 )
l=( 0  0 )
num_ms=1
< 0  0 >:  -9.071896020667718e-6
ctilde_basis_func: rank=2 ndens=1 mu0=0 mu=( 0  0 )
n=( 2  14 )
l=( 0  0 )
num_ms=1
< 0  0 >:  -1.410101745113931e-6
ctilde_basis_func: rank=2 ndens=1 mu0=0 mu=( 0  0 )
n=( 3  3 )
l=( 2  2 )
num_ms=3
< -2  2 >:  -0.0011266946893506466
< -1  1 >:  0.0011266946893506466
< 0  0 >:  -0.0005633473446753233
ctilde_basis_func: rank=2 ndens=1 mu0=0 mu=( 0  0 )
n=( 1  10 )
l=( 1  1 )
num_ms=3
< -1  1 >:  8.655875290093265e-6
< 0  0 >:  -8.655875290093265e-6
< 1  -1 >:  8.655875290093265e-6
ctilde_basis_func: rank=2 ndens=1 mu0=0 mu=( 0  0 )
n=( 1  2 )
l=( 1  1 )
num_ms=3
< -1  1 >:  -0.0005296245781952669
< 0  0 >:  0.0005296245781952669
< 1  -1 >:  -0.0005296245781952669
ctilde_basis_func: rank=2 ndens=1 mu0=0 mu=( 0  0 )
n=( 4  9 )
l=( 0  0 )
num_ms=1
< 0  0 >:  -2.9904896781103922e-5
ctilde_basis_func: rank=2 ndens=1 mu0=0 mu=( 0  0 )
n=( 4  5 )
l=( 1  1 )
num_ms=3
< -1  1 >:  -0.00010999663972831803
< 0  0 >:  0.00010999663972831803
< 1  -1 >:  -0.00010999663972831803
ctilde_basis_func: rank=2 ndens=1 mu0=0 mu=( 0  0 )
n=( 7  7 )
l=( 1  1 )
num_ms=2
< -1  1 >:  5.963360366733523e-5
< 0  0 >:  -2.9816801833667616e-5
ctilde_basis_func: rank=2 ndens=1 mu0=0 mu=( 0  0 )
n=( 2  9 )
l=( 0  0 )
num_ms=1
< 0  0 >:  -1.527703928671679e-5
ctilde_basis_func: rank=2 ndens=1 mu0=0 mu=( 0  0 )
n=( 2  7 )
l=( 0  0 )
num_ms=1
< 0  0 >:  8.327829809712299e-6
ctilde_basis_func: rank=2 ndens=1 mu0=0 mu=( 0  0 )
n=( 5  13 )
l=( 0  0 )
num_ms=1
< 0  0 >:  -2.0870879140151626e-6
ctilde_basis_func: rank=2 ndens=1 mu0=0 mu=( 0  0 )
n=( 8  10 )
l=( 0  0 )
num_ms=1
< 0  0 >:  3.322356039261915e-6
ctilde_basis_func: rank=2 ndens=1 mu0=0 mu=( 0  0 )
n=( 2  6 )
l=( 0  0 )
num_ms=1
< 0  0 >:  -8.428239661522478e-6
ctilde_basis_func: rank=2 ndens=1 mu0=0 mu=( 0  0 )
n=( 2  13 )
l=( 0  0 )
num_ms=1
< 0  0 >:  8.713652539512521e-7
ctilde_basis_func: rank=2 ndens=1 mu0=0 mu=( 0  0 )
n=( 2  8 )
l=( 0  0 )
num_ms=1
< 0  0 >:  2.758224711645624e-5
ctilde_basis_func: rank=2 ndens=1 mu0=0 mu=( 0  0 )
n=( 5  6 )
l=( 0  0 )
num_ms=1
< 0  0 >:  5.257975267132786e-5
ctilde_basis_func: rank=2 ndens=1 mu0=0 mu=( 0  0 )
n=( 1  15 )
l=( 0  0 )
num_ms=1
< 0  0 >:  -9.058016980098287e-9
ctilde_basis_func: rank=2 ndens=1 mu0=0 mu=( 0  0 )
n=( 3  7 )
l=( 1  1 )
num_ms=3
< -1  1 >:  7.822894512811847e-6
< 0  0 >:  -7.822894512811847e-6
< 1  -1 >:  7.822894512811847e-6
ctilde_basis_func: rank=2 ndens=1 mu0=0 mu=( 0  0 )
n=( 3  5 )
l=( 0  0 )
num_ms=1
< 0  0 >:  -5.290007762846085e-5
ctilde_basis_func: rank=2 ndens=1 mu0=0 mu=( 0  0 )
n=( 5  5 )
l=( 1  1 )
num_ms=2
< -1  1 >:  1.8344293777381632e-5
< 0  0 >:  -9.172146888690816e-6
ctilde_basis_func: rank=2 ndens=1 mu0=0 mu=( 0  0 )
n=( 7  10 )
l=( 0  0 )
num_ms=1
< 0  0 >:  4.245271590397819e-6
ctilde_basis_func: rank=2 ndens=1 mu0=0 mu=( 0  0 )
n=( 4  8 )
l=( 0  0 )
num_ms=1
< 0  0 >:  7.607572556229371e-6
ctilde_basis_func: rank=2 ndens=1 mu0=0 mu=( 0  0 )
n=( 2  6 )
l=( 1  1 )
num_ms=3
< -1  1 >:  5.039128720415097e-6
< 0  0 >:  -5.039128720415097e-6
< 1  -1 >:  5.039128720415097e-6
ctilde_basis_func: rank=2 ndens=1 mu0=0 mu=( 0  0 )
n=( 8  9 )
l=( 0  0 )
num_ms=1
< 0  0 >:  2.453833967323047e-6
ctilde_basis_func: rank=2 ndens=1 mu0=0 mu=( 0  0 )
n=( 3  5 )
l=( 1  1 )
num_ms=3
< -1  1 >:  -8.511935843763714e-5
< 0  0 >:  8.511935843763714e-5
< 1  -1 >:  -8.511935843763714e-5
ctilde_basis_func: rank=2 ndens=1 mu0=0 mu=( 0  0 )
n=( 1  5 )
l=( 0  0 )
num_ms=1
< 0  0 >:  8.09124708021989e-6
ctilde_basis_func: rank=2 ndens=1 mu0=0 mu=( 0  0 )
n=( 6  6 )
l=( 1  1 )
num_ms=2
< -1  1 >:  0.00025372614326186154
< 0  0 >:  -0.00012686307163093077
ctilde_basis_func: rank=2 ndens=1 mu0=0 mu=( 0  0 )
n=( 2  8 )
l=( 1  1 )
num_ms=3
< -1  1 >:  -5.887300531730606e-6
< 0  0 >:  5.887300531730606e-6
< 1  -1 >:  -5.887300531730606e-6
ctilde_basis_func: rank=2 ndens=1 mu0=0 mu=( 0  0 )
n=( 1  2 )
l=( 2  2 )
num_ms=5
< -2  2 >:  0.00021048941641309152
< -1  1 >:  -0.00021048941641309152
< 0  0 >:  0.00021048941641309152
< 1  -1 >:  -0.00021048941641309152
< 2  -2 >:  0.00021048941641309152
ctilde_basis_func: rank=2 ndens=1 mu0=0 mu=( 0  0 )
n=( 1  6 )
l=( 0  0 )
num_ms=1
< 0  0 >:  -6.851999443880047e-5
ctilde_basis_func: rank=2 ndens=1 mu0=0 mu=( 0  0 )
n=( 2  15 )
l=( 0  0 )
num_ms=1
< 0  0 >:  3.5167886802610703e-6
ctilde_basis_func: rank=2 ndens=1 mu0=0 mu=( 0  0 )
n=( 1  14 )
l=( 0  0 )
num_ms=1
< 0  0 >:  8.695492065552589e-7
ctilde_basis_func: rank=2 ndens=1 mu0=0 mu=( 0  0 )
n=( 1  17 )
l=( 0  0 )
num_ms=1
< 0  0 >:  1.6386825974411305e-6
ctilde_basis_func: rank=2 ndens=1 mu0=0 mu=( 0  0 )
n=( 1  1 )
l=( 1  1 )
num_ms=2
< -1  1 >:  0.003299495760063786
< 0  0 >:  -0.001649747880031893
ctilde_basis_func: rank=2 ndens=1 mu0=0 mu=( 0  0 )
n=( 3  6 )
l=( 0  0 )
num_ms=1
< 0  0 >:  -4.732265059559154e-5
ctilde_basis_func: rank=2 ndens=1 mu0=0 mu=( 0  0 )
n=( 6  12 )
l=( 0  0 )
num_ms=1
< 0  0 >:  -7.528589582983983e-6
ctilde_basis_func: rank=2 ndens=1 mu0=0 mu=( 0  0 )
n=( 2  12 )
l=( 0  0 )
num_ms=1
< 0  0 >:  7.333585008703287e-7
ctilde_basis_func: rank=2 ndens=1 mu0=0 mu=( 0  0 )
n=( 4  11 )
l=( 0  0 )
num_ms=1
< 0  0 >:  -9.784927814244204e-6
ctilde_basis_func: rank=2 ndens=1 mu0=0 mu=( 0  0 )
n=( 1  7 )
l=( 0  0 )
num_ms=1
< 0  0 >:  3.226663700530329e-5
ctilde_basis_func: rank=2 ndens=1 mu0=0 mu=( 0  0 )
n=( 2  3 )
l=( 0  0 )
num_ms=1
< 0  0 >:  -0.0001114095131955384
ctilde_basis_func: rank=2 ndens=1 mu0=0 mu=( 0  0 )
n=( 7  8 )
l=( 0  0 )
num_ms=1
< 0  0 >:  1.3236591096820472e-5
ctilde_basis_func: rank=2 ndens=1 mu0=0 mu=( 0  0 )
n=( 7  7 )
l=( 0  0 )
num_ms=1
< 0  0 >:  -2.3797871044363332e-5
ctilde_basis_func: rank=2 ndens=1 mu0=0 mu=( 0  0 )
n=( 1  10 )
l=( 0  0 )
num_ms=1
< 0  0 >:  -2.3434332129639234e-5
ctilde_basis_func: rank=2 ndens=1 mu0=0 mu=( 0  0 )
n=( 2  4 )
l=( 0  0 )
num_ms=1
< 0  0 >:  -6.487702287772576e-5
ctilde_basis_func: rank=2 ndens=1 mu0=0 mu=( 0  0 )
n=( 4  4 )
l=( 1  1 )
num_ms=2
< -1  1 >:  8.99345535887062e-5
< 0  0 >:  -4.49672767943531e-5
ctilde_basis_func: rank=2 ndens=1 mu0=0 mu=( 0  0 )
n=( 5  12 )
l=( 0  0 )
num_ms=1
< 0  0 >:  -1.214648629893149e-6
ctilde_basis_func: rank=2 ndens=1 mu0=0 mu=( 0  0 )
n=( 2  3 )
l=( 1  1 )
num_ms=3
< -1  1 >:  -0.00034285881203665534
< 0  0 >:  0.00034285881203665534
< 1  -1 >:  -0.00034285881203665534
ctilde_basis_func: rank=2 ndens=1 mu0=0 mu=( 0  0 )
n=( 7  9 )
l=( 0  0 )
num_ms=1
< 0  0 >:  -7.902084571420506e-6
ctilde_basis_func: rank=2 ndens=1 mu0=0 mu=( 0  0 )
n=( 3  10 )
l=( 0  0 )
num_ms=1
< 0  0 >:  -3.5220593282445854e-5
ctilde_basis_func: rank=2 ndens=1 mu0=0 mu=( 0  0 )
n=( 3  13 )
l=( 0  0 )
num_ms=1
< 0  0 >:  -5.122632027996039e-6
ctilde_basis_func: rank=2 ndens=1 mu0=0 mu=( 0  0 )
n=( 1  13 )
l=( 0  0 )
num_ms=1
< 0  0 >:  1.8568691278350247e-7
ctilde_basis_func: rank=2 ndens=1 mu0=0 mu=( 0  0 )
n=( 3  3 )
l=( 1  1 )
num_ms=2
< -1  1 >:  0.0002631378264259423
< 0  0 >:  -0.00013156891321297116
ctilde_basis_func: rank=2 ndens=1 mu0=0 mu=( 0  0 )
n=( 4  13 )
l=( 0  0 )
num_ms=1
< 0  0 >:  3.2907809842430247e-6
ctilde_basis_func: rank=2 ndens=1 mu0=0 mu=( 0  0 )
n=( 6  9 )
l=( 0  0 )
num_ms=1
< 0  0 >:  -4.146339682062515e-6
ctilde_basis_func: rank=2 ndens=1 mu0=0 mu=( 0  0 )
n=( 4  10 )
l=( 0  0 )
num_ms=1
< 0  0 >:  2.309492812862595e-5
ctilde_basis_func: rank=2 ndens=1 mu0=0 mu=( 0  0 )
n=( 7  11 )
l=( 0  0 )
num_ms=1
< 0  0 >:  -3.16393186885308e-7
ctilde_basis_func: rank=2 ndens=1 mu0=0 mu=( 0  0 )
n=( 5  7 )
l=( 0  0 )
num_ms=1
< 0  0 >:  -4.7531026863616443e-5
ctilde_basis_func: rank=2 ndens=1 mu0=0 mu=( 0  0 )
n=( 6  10 )
l=( 0  0 )
num_ms=1
< 0  0 >:  1.0731902402106767e-6
ctilde_basis_func: rank=3 ndens=1 mu0=0 mu=( 0  0  0 )
n=( 3  3  4 )
l=( 2  3  1 )
num_ms=15
< -2  1  1 >:  4.022625187780682e-6
< -2  2  0 >:  -8.994863367880463e-6
< -2  3  -1 >:  1.5579560360309062e-5
< -1  0  1 >:  -6.967391205042436e-6
< -1  1  0 >:  1.1377702193806117e-5
< -1  2  -1 >:  -1.2720657766549482e-5
< 0  -1  1 >:  9.853379136530036e-6
< 0  0  0 >:  -1.2067875563342045e-5
< 0  1  -1 >:  9.853379136530036e-6
< 1  -2  1 >:  -1.2720657766549482e-5
< 1  -1  0 >:  1.1377702193806117e-5
< 1  0  -1 >:  -6.967391205042436e-6
< 2  -3  1 >:  1.557956036030907e-5
< 2  -2  0 >:  -8.994863367880463e-6
< 2  -1  -1 >:  4.022625187780682e-6
ctilde_basis_func: rank=3 ndens=1 mu0=0 mu=( 0  0  0 )
n=( 1  2  7 )
l=( 3  1  2 )
num_ms=15
< -3  1  2 >:  3.1464819358703057e-6
< -2  0  2 >:  -1.8166221926750155e-6
< -2  1  1 >:  -2.5690917425889573e-6
< -1  -1  2 >:  8.124181424512103e-7
< -1  0  1 >:  2.29786551074492e-6
< -1  1  0 >:  1.9900099067852044e-6
< 0  -1  1 >:  -1.4071494997162275e-6
< 0  0  0 >:  -2.437254427353634e-6
< 0  1  -1 >:  -1.4071494997162275e-6
< 1  -1  0 >:  1.9900099067852044e-6
< 1  0  -1 >:  2.29786551074492e-6
< 1  1  -2 >:  8.124181424512113e-7
< 2  -1  -1 >:  -2.5690917425889573e-6
< 2  0  -2 >:  -1.8166221926750155e-6
< 3  -1  -2 >:  3.1464819358703057e-6
ctilde_basis_func: rank=3 ndens=1 mu0=0 mu=( 0  0  0 )
n=( 1  2  2 )
l=( 4  2  2 )
num_ms=15
< -4  2  2 >:  -6.762439835839773e-5
< -3  1  2 >:  9.563534130576692e-5
< -2  0  2 >:  -6.260802723523053e-5
< -2  1  1 >:  -5.111924017619567e-5
< -1  -1  2 >:  3.614676137769178e-5
< -1  0  1 >:  8.854112122948716e-5
< 0  -2  2 >:  -1.6165323121396534e-5
< 0  -1  1 >:  -6.46612924855862e-5
< 0  0  0 >:  -4.849596936418965e-5
< 1  -2  1 >:  3.614676137769178e-5
< 1  -1  0 >:  8.854112122948716e-5
< 2  -2  0 >:  -6.260802723523053e-5
< 2  -1  -1 >:  -5.111924017619567e-5
< 3  -2  -1 >:  9.563534130576692e-5
< 4  -2  -2 >:  -6.762439835839773e-5
ctilde_basis_func: rank=3 ndens=1 mu0=0 mu=( 0  0  0 )
n=( 2  2  3 )
l=( 3  4  1 )
num_ms=21
< -3  2  1 >:  4.03124220065451e-6
< -3  3  0 >:  -1.0665664337600575e-5
< -3  4  -1 >:  2.133132867520115e-5
< -2  1  1 >:  -6.982316309149382e-6
< -2  2  0 >:  1.3964632618298763e-5
< -2  3  -1 >:  -1.847347252919965e-5
< -1  0  1 >:  9.874486421177909e-6
< -1  1  0 >:  -1.5612933907663455e-5
< -1  2  -1 >:  1.5612933907663455e-5
< 0  -1  1 >:  -1.2747907153857775e-5
< 0  0  0 >:  1.612496880261804e-5
< 0  1  -1 >:  -1.2747907153857775e-5
< 1  -2  1 >:  1.5612933907663455e-5
< 1  -1  0 >:  -1.5612933907663455e-5
< 1  0  -1 >:  9.874486421177909e-6
< 2  -3  1 >:  -1.847347252919965e-5
< 2  -2  0 >:  1.3964632618298763e-5
< 2  -1  -1 >:  -6.982316309149382e-6
< 3  -4  1 >:  2.1331328675201164e-5
< 3  -3  0 >:  -1.0665664337600575e-5
< 3  -2  -1 >:  4.03124220065451e-6
ctilde_basis_func: rank=3 ndens=1 mu0=0 mu=( 0  0  0 )
n=( 3  3  5 )
l=( 1  2  1 )
num_ms=9
< -1  0  1 >:  1.2640790950974009e-5
< -1  1  0 >:  -2.1894492174943884e-5
< -1  2  -1 >:  3.0963487775077255e-5
< 0  -1  1 >:  -2.1894492174943884e-5
< 0  0  0 >:  2.5281581901948018e-5
< 0  1  -1 >:  -2.1894492174943884e-5
< 1  -2  1 >:  3.096348777507724e-5
< 1  -1  0 >:  -2.1894492174943884e-5
< 1  0  -1 >:  1.2640790950974009e-5
ctilde_basis_func: rank=3 ndens=1 mu0=0 mu=( 0  0  0 )
n=( 1  2  5 )
l=( 0  1  1 )
num_ms=3
< 0  -1  1 >:  -5.9362071472342374e-6
< 0  0  0 >:  5.936207147234235e-6
< 0  1  -1 >:  -5.936207147234235e-6
ctilde_basis_func: rank=3 ndens=1 mu0=0 mu=( 0  0  0 )
n=( 1  3  6 )
l=( 3  0  3 )
num_ms=7
< -3  0  3 >:  7.1149089087612446e-6
< -2  0  2 >:  -7.1149089087612446e-6
< -1  0  1 >:  7.1149089087612446e-6
< 0  0  0 >:  -7.1149089087612446e-6
< 1  0  -1 >:  7.1149089087612446e-6
< 2  0  -2 >:  -7.1149089087612446e-6
< 3  0  -3 >:  7.1149089087612446e-6
ctilde_basis_func: rank=3 ndens=1 mu0=0 mu=( 0  0  0 )
n=( 2  4  4 )
l=( 0  3  3 )
num_ms=4
< 0  -3  3 >:  1.4949346521945238e-5
< 0  -2  2 >:  -1.4949346521945238e-5
< 0  -1  1 >:  1.4949346521945238e-5
< 0  0  0 >:  -7.474673260972619e-6
ctilde_basis_func: rank=3 ndens=1 mu0=0 mu=( 0  0  0 )
n=( 3  4  10 )
l=( 0  0  0 )
num_ms=1
< 0  0  0 >:  -3.953592320531836e-6
ctilde_basis_func: rank=3 ndens=1 mu0=0 mu=( 0  0  0 )
n=( 1  1  1 )
l=( 1  4  5 )
num_ms=27
< -1  -4  5 >:  6.161969463469237e-5
< -1  -3  4 >:  -5.511433038238054e-5
< -1  -2  3 >:  4.860627062254344e-5
< -1  -1  2 >:  -4.2094265142343885e-5
< -1  0  1 >:  3.557614728472221e-5
< -1  1  0 >:  -2.90478026205569e-5
< -1  2  -1 >:  2.2500331158667404e-5
< -1  3  -2 >:  -1.591013674123669e-5
< -1  4  -3 >:  9.185721730396758e-6
< 0  -4  4 >:  -2.755716519119027e-5
< 0  -3  3 >:  3.674288692158703e-5
< 0  -2  2 >:  -4.2094265142343885e-5
< 0  -1  1 >:  4.500066231733481e-5
< 0  0  0 >:  -4.5928608651983785e-5
< 0  1  -1 >:  4.500066231733481e-5
< 0  2  -2 >:  -4.2094265142343885e-5
< 0  3  -3 >:  3.674288692158703e-5
< 0  4  -4 >:  -2.755716519119027e-5
< 1  -4  3 >:  9.185721730396758e-6
< 1  -3  2 >:  -1.591013674123669e-5
< 1  -2  1 >:  2.2500331158667404e-5
< 1  -1  0 >:  -2.90478026205569e-5
< 1  0  -1 >:  3.557614728472221e-5
< 1  1  -2 >:  -4.2094265142343885e-5
< 1  2  -3 >:  4.860627062254344e-5
< 1  3  -4 >:  -5.511433038238054e-5
< 1  4  -5 >:  6.161969463469243e-5
ctilde_basis_func: rank=3 ndens=1 mu0=0 mu=( 0  0  0 )
n=( 1  1  3 )
l=( 4  4  0 )
num_ms=5
< -4  4  0 >:  3.544171671309339e-5
< -3  3  0 >:  -3.544171671309338e-5
< -2  2  0 >:  3.544171671309338e-5
< -1  1  0 >:  -3.544171671309338e-5
< 0  0  0 >:  1.772085835654669e-5
ctilde_basis_func: rank=3 ndens=1 mu0=0 mu=( 0  0  0 )
n=( 1  2  5 )
l=( 2  3  1 )
num_ms=15
< -2  1  1 >:  -5.114008490366356e-6
< -2  2  0 >:  1.143527062197025e-5
< -2  3  -1 >:  -1.9806469715552227e-5
< -1  0  1 >:  8.857722535653141e-6
< -1  1  0 >:  -1.4464600330334515e-5
< -1  2  -1 >:  1.6171914802996946e-5
< 0  -1  1 >:  -1.2526711341658473e-5
< 0  0  0 >:  1.5342025471099066e-5
< 0  1  -1 >:  -1.2526711341658473e-5
< 1  -2  1 >:  1.6171914802996946e-5
< 1  -1  0 >:  -1.4464600330334515e-5
< 1  0  -1 >:  8.857722535653141e-6
< 2  -3  1 >:  -1.9806469715552234e-5
< 2  -2  0 >:  1.143527062197025e-5
< 2  -1  -1 >:  -5.114008490366356e-6
ctilde_basis_func: rank=3 ndens=1 mu0=0 mu=( 0  0  0 )
n=( 1  2  9 )
l=( 1  2  1 )
num_ms=9
< -1  0  1 >:  1.7833599274694254e-6
< -1  1  0 >:  -3.0888700025593916e-6
< -1  2  -1 >:  4.368321850026911e-6
< 0  -1  1 >:  -3.0888700025593916e-6
< 0  0  0 >:  3.566719854938851e-6
< 0  1  -1 >:  -3.0888700025593916e-6
< 1  -2  1 >:  4.368321850026909e-6
< 1  -1  0 >:  -3.0888700025593916e-6
< 1  0  -1 >:  1.7833599274694254e-6
ctilde_basis_func: rank=3 ndens=1 mu0=0 mu=( 0  0  0 )
n=( 1  3  4 )
l=( 1  3  2 )
num_ms=15
< -1  -1  2 >:  5.889682007348425e-6
< -1  0  1 >:  -1.0201228477151726e-5
< -1  1  0 >:  1.4426715665254603e-5
< -1  2  -1 >:  -1.8624809837333583e-5
< -1  3  -2 >:  2.2810640328917924e-5
< 0  -2  2 >:  -1.3169729334288496e-5
< 0  -1  1 >:  1.6658536345713877e-5
< 0  0  0 >:  -1.7669046022045275e-5
< 0  1  -1 >:  1.6658536345713877e-5
< 0  2  -2 >:  -1.3169729334288496e-5
< 1  -3  2 >:  2.2810640328917924e-5
< 1  -2  1 >:  -1.8624809837333583e-5
< 1  -1  0 >:  1.4426715665254603e-5
< 1  0  -1 >:  -1.0201228477151726e-5
< 1  1  -2 >:  5.889682007348425e-6
ctilde_basis_func: rank=3 ndens=1 mu0=0 mu=( 0  0  0 )
n=( 1  1  3 )
l=( 3  4  3 )
num_ms=43
< -3  0  3 >:  -4.2999993985129496e-7
< -3  1  2 >:  7.850688892747294e-7
< -3  2  1 >:  -1.0532804420631301e-6
< -3  3  0 >:  1.1376729046192583e-6
< -3  4  -1 >:  -9.289060368357396e-7
< -2  -1  3 >:  7.850688892747294e-7
< -2  0  2 >:  -1.0033331929863545e-6
< -2  1  1 >:  8.108156623430885e-7
< -2  2  0 >:  -2.48260581024668e-7
< -2  3  -1 >:  -5.363041504189826e-7
< -2  4  -2 >:  1.1992125369521174e-6
< -1  -2  3 >:  -1.0532804420631301e-6
< -1  -1  2 >:  8.108156623430885e-7
< -1  0  1 >:  -1.4333331328376493e-7
< -1  1  0 >:  -5.551275353047519e-7
< -1  2  -1 >:  9.065194691103311e-7
< -1  3  -2 >:  -5.363041504189826e-7
< -1  4  -3 >:  -9.289060368357396e-7
< 0  -3  3 >:  1.1376729046192583e-6
< 0  -2  2 >:  -2.48260581024668e-7
< 0  -1  1 >:  -5.551275353047519e-7
< 0  0  0 >:  8.599998797025899e-7
< 0  1  -1 >:  -5.551275353047519e-7
< 0  2  -2 >:  -2.48260581024668e-7
< 0  3  -3 >:  1.1376729046192583e-6
< 1  -4  3 >:  -9.289060368357383e-7
< 1  -3  2 >:  -5.363041504189826e-7
< 1  -2  1 >:  9.065194691103311e-7
< 1  -1  0 >:  -5.551275353047519e-7
< 1  0  -1 >:  -1.4333331328376493e-7
< 1  1  -2 >:  8.108156623430885e-7
< 1  2  -3 >:  -1.0532804420631301e-6
< 2  -4  2 >:  1.1992125369521174e-6
< 2  -3  1 >:  -5.363041504189826e-7
< 2  -2  0 >:  -2.48260581024668e-7
< 2  -1  -1 >:  8.108156623430885e-7
< 2  0  -2 >:  -1.0033331929863545e-6
< 2  1  -3 >:  7.850688892747294e-7
< 3  -4  1 >:  -9.289060368357396e-7
< 3  -3  0 >:  1.1376729046192583e-6
< 3  -2  -1 >:  -1.0532804420631301e-6
< 3  -1  -2 >:  7.850688892747294e-7
< 3  0  -3 >:  -4.2999993985129496e-7
ctilde_basis_func: rank=3 ndens=1 mu0=0 mu=( 0  0  0 )
n=( 1  3  3 )
l=( 0  3  3 )
num_ms=4
< 0  -3  3 >:  -9.004074479417272e-5
< 0  -2  2 >:  9.004074479417272e-5
< 0  -1  1 >:  -9.004074479417272e-5
< 0  0  0 >:  4.502037239708636e-5
ctilde_basis_func: rank=3 ndens=1 mu0=0 mu=( 0  0  0 )
n=( 1  1  1 )
l=( 2  4  4 )
num_ms=21
< -2  -2  4 >:  -6.884949678785825e-5
< -2  -1  3 >:  0.00010327424518178739
< -2  0  2 >:  -0.00012343633244868692
< -2  1  1 >:  6.505665942593333e-5
< -1  -3  4 >:  0.0001288056141159793
< -1  -2  3 >:  -0.00012170986514993999
< -1  -1  2 >:  8.280360907455811e-5
< -1  0  1 >:  -2.909422257308787e-5
< 0  -4  4 >:  -0.00014873191196599137
< 0  -3  3 >:  3.7182977991497855e-5
< 0  -2  2 >:  4.249483199028326e-5
< 0  -1  1 >:  -9.030151797935192e-5
< 0  0  0 >:  5.3118539987854075e-5
< 1  -4  3 >:  0.0001288056141159793
< 1  -3  2 >:  -0.00012170986514993999
< 1  -2  1 >:  8.280360907455811e-5
< 1  -1  0 >:  -2.909422257308787e-5
< 2  -4  2 >:  -6.884949678785825e-5
< 2  -3  1 >:  0.00010327424518178739
< 2  -2  0 >:  -0.00012343633244868692
< 2  -1  -1 >:  6.505665942593333e-5
ctilde_basis_func: rank=3 ndens=1 mu0=0 mu=( 0  0  0 )
n=( 1  4  4 )
l=( 1  1  2 )
num_ms=9
< -1  -1  2 >:  -7.400118150886297e-6
< -1  0  1 >:  5.232673726073356e-6
< -1  1  0 >:  -3.021085584329935e-6
< 0  -1  1 >:  5.232673726073356e-6
< 0  0  0 >:  -6.04217116865987e-6
< 0  1  -1 >:  5.232673726073356e-6
< 1  -1  0 >:  -3.021085584329935e-6
< 1  0  -1 >:  5.232673726073356e-6
< 1  1  -2 >:  -7.400118150886298e-6
ctilde_basis_func: rank=3 ndens=1 mu0=0 mu=( 0  0  0 )
n=( 3  4  4 )
l=( 1  1  2 )
num_ms=9
< -1  -1  2 >:  9.080633592566494e-6
< -1  0  1 >:  -6.420977590774129e-6
< -1  1  0 >:  3.707153140493998e-6
< 0  -1  1 >:  -6.420977590774129e-6
< 0  0  0 >:  7.414306280987996e-6
< 0  1  -1 >:  -6.420977590774129e-6
< 1  -1  0 >:  3.707153140493998e-6
< 1  0  -1 >:  -6.420977590774129e-6
< 1  1  -2 >:  9.080633592566494e-6
ctilde_basis_func: rank=3 ndens=1 mu0=0 mu=( 0  0  0 )
n=( 2  3  5 )
l=( 0  1  1 )
num_ms=3
< 0  -1  1 >:  -1.8974283069118923e-7
< 0  0  0 >:  1.8974283069118915e-7
< 0  1  -1 >:  -1.8974283069118915e-7
ctilde_basis_func: rank=3 ndens=1 mu0=0 mu=( 0  0  0 )
n=( 1  1  3 )
l=( 2  5  3 )
num_ms=35
< -2  -1  3 >:  8.332352644649251e-7
< -2  0  2 >:  -1.8631706925935876e-6
< -2  1  1 >:  3.227106302745388e-6
< -2  2  0 >:  -4.929486302666606e-6
< -2  3  -1 >:  6.971346384763518e-6
< -2  4  -2 >:  -9.353042646617178e-6
< -2  5  -3 >:  1.2074726135572022e-5
< -1  -2  3 >:  -2.204533293383327e-6
< -1  -1  2 >:  4.082002467264126e-6
< -1  0  1 >:  -5.891863058269149e-6
< -1  1  0 >:  7.45268277037435e-6
< -1  2  -1 >:  -8.538120731433414e-6
< -1  3  -2 >:  8.818133173533308e-6
< -1  4  -3 >:  -7.636727342234136e-6
< 0  -3  3 >:  4.409066586766654e-6
< 0  -2  2 >:  -6.613599880149979e-6
< 0  -1  1 >:  7.904763787445773e-6
< 0  0  0 >:  -8.332352644649251e-6
< 0  1  -1 >:  7.904763787445773e-6
< 0  2  -2 >:  -6.613599880149979e-6
< 0  3  -3 >:  4.409066586766654e-6
< 1  -4  3 >:  -7.636727342234136e-6
< 1  -3  2 >:  8.818133173533308e-6
< 1  -2  1 >:  -8.538120731433414e-6
< 1  -1  0 >:  7.45268277037435e-6
< 1  0  -1 >:  -5.891863058269149e-6
< 1  1  -2 >:  4.082002467264126e-6
< 1  2  -3 >:  -2.204533293383327e-6
< 2  -5  3 >:  1.2074726135572029e-5
< 2  -4  2 >:  -9.353042646617178e-6
< 2  -3  1 >:  6.971346384763518e-6
< 2  -2  0 >:  -4.929486302666606e-6
< 2  -1  -1 >:  3.227106302745388e-6
< 2  0  -2 >:  -1.8631706925935876e-6
< 2  1  -3 >:  8.332352644649251e-7
ctilde_basis_func: rank=3 ndens=1 mu0=0 mu=( 0  0  0 )
n=( 1  1  5 )
l=( 2  3  3 )
num_ms=27
< -2  -1  3 >:  4.530127036697861e-5
< -2  0  2 >:  -6.406567094571154e-5
< -2  1  1 >:  7.018042627733907e-5
< -2  2  0 >:  -6.406567094571154e-5
< -2  3  -1 >:  4.530127036697861e-5
< -1  -2  3 >:  -7.16275976293721e-5
< -1  -1  2 >:  5.548249854948081e-5
< -1  0  1 >:  -2.02593440015322e-5
< -1  1  0 >:  -2.02593440015322e-5
< -1  2  -1 >:  5.548249854948081e-5
< -1  3  -2 >:  -7.16275976293721e-5
< 0  -3  3 >:  7.162759762937213e-5
< 0  -1  1 >:  -4.297655857762326e-5
< 0  0  0 >:  5.730207810349768e-5
< 0  1  -1 >:  -4.297655857762326e-5
< 0  3  -3 >:  7.16275976293721e-5
< 1  -3  2 >:  -7.16275976293721e-5
< 1  -2  1 >:  5.548249854948081e-5
< 1  -1  0 >:  -2.02593440015322e-5
< 1  0  -1 >:  -2.02593440015322e-5
< 1  1  -2 >:  5.548249854948081e-5
< 1  2  -3 >:  -7.16275976293721e-5
< 2  -3  1 >:  4.530127036697861e-5
< 2  -2  0 >:  -6.406567094571154e-5
< 2  -1  -1 >:  7.018042627733907e-5
< 2  0  -2 >:  -6.406567094571154e-5
< 2  1  -3 >:  4.530127036697861e-5
ctilde_basis_func: rank=3 ndens=1 mu0=0 mu=( 0  0  0 )
n=( 1  1  2 )
l=( 2  5  3 )
num_ms=35
< -2  -1  3 >:  1.2519566453623787e-6
< -2  0  2 >:  -2.799460163912876e-6
< -2  1  1 >:  4.848807237662198e-6
< -2  2  0 >:  -7.406675398945584e-6
< -2  3  -1 >:  1.0474620801284e-5
< -2  4  -2 >:  -1.4053178490122604e-5
< -2  5  -3 >:  1.8142575417841712e-5
< -1  -2  3 >:  -3.3123659358635404e-6
< -1  -1  2 >:  6.133309922448767e-6
< -1  0  1 >:  -8.852670336872996e-6
< -1  1  0 >:  1.1197840655651503e-5
< -1  2  -1 >:  -1.2828738106144238e-5
< -1  3  -2 >:  1.3249463743454162e-5
< -1  4  -3 >:  -1.147437218835217e-5
< 0  -3  3 >:  6.624731871727081e-6
< 0  -2  2 >:  -9.93709780759062e-6
< 0  -1  1 >:  1.187710359338639e-5
< 0  0  0 >:  -1.2519566453623787e-5
< 0  1  -1 >:  1.187710359338639e-5
< 0  2  -2 >:  -9.93709780759062e-6
< 0  3  -3 >:  6.624731871727081e-6
< 1  -4  3 >:  -1.147437218835217e-5
< 1  -3  2 >:  1.3249463743454162e-5
< 1  -2  1 >:  -1.2828738106144238e-5
< 1  -1  0 >:  1.1197840655651503e-5
< 1  0  -1 >:  -8.852670336872996e-6
< 1  1  -2 >:  6.133309922448767e-6
< 1  2  -3 >:  -3.3123659358635404e-6
< 2  -5  3 >:  1.8142575417841722e-5
< 2  -4  2 >:  -1.4053178490122604e-5
< 2  -3  1 >:  1.0474620801284e-5
< 2  -2  0 >:  -7.406675398945584e-6
< 2  -1  -1 >:  4.848807237662198e-6
< 2  0  -2 >:  -2.799460163912876e-6
< 2  1  -3 >:  1.2519566453623787e-6
ctilde_basis_func: rank=3 ndens=1 mu0=0 mu=( 0  0  0 )
n=( 1  2  7 )
l=( 1  3  2 )
num_ms=15
< -1  -1  2 >:  8.299846870701678e-8
< -1  0  1 >:  -1.4375756475096863e-7
< -1  1  0 >:  2.033038977645482e-7
< -1  2  -1 >:  -2.624642034203835e-7
< -1  3  -2 >:  3.2145168706299346e-7
< 0  -2  2 >:  -1.8559021805727865e-7
< 0  -1  1 >:  2.3475512020332412e-7
< 0  0  0 >:  -2.4899540612105036e-7
< 0  1  -1 >:  2.3475512020332412e-7
< 0  2  -2 >:  -1.8559021805727865e-7
< 1  -3  2 >:  3.214516870629935e-7
< 1  -2  1 >:  -2.624642034203835e-7
< 1  -1  0 >:  2.033038977645482e-7
< 1  0  -1 >:  -1.4375756475096863e-7
< 1  1  -2 >:  8.299846870701678e-8
ctilde_basis_func: rank=3 ndens=1 mu0=0 mu=( 0  0  0 )
n=( 1  1  8 )
l=( 1  3  2 )
num_ms=15
< -1  -1  2 >:  4.945755255830212e-7
< -1  0  1 >:  -8.566299384898739e-7
< -1  1  0 >:  1.2114576769472096e-6
< -1  2  -1 >:  -1.5639851358172228e-6
< -1  3  -2 >:  1.9154827740248216e-6
< 0  -2  2 >:  -1.105904495211322e-6
< 0  -1  1 >:  1.3988708317946205e-6
< 0  0  0 >:  -1.483726576749064e-6
< 0  1  -1 >:  1.3988708317946205e-6
< 0  2  -2 >:  -1.105904495211322e-6
< 1  -3  2 >:  1.915482774024822e-6
< 1  -2  1 >:  -1.5639851358172228e-6
< 1  -1  0 >:  1.2114576769472096e-6
< 1  0  -1 >:  -8.566299384898739e-7
< 1  1  -2 >:  4.945755255830212e-7
ctilde_basis_func: rank=3 ndens=1 mu0=0 mu=( 0  0  0 )
n=( 1  1  6 )
l=( 2  3  1 )
num_ms=15
< -2  1  1 >:  -3.493549884914413e-8
< -2  2  0 >:  7.811815025455197e-8
< -2  3  -1 >:  -1.3530460523418362e-7
< -1  0  1 >:  6.051005899448168e-8
< -1  1  0 >:  -9.88125125614586e-8
< -1  2  -1 >:  1.1047574755748663e-7
< 0  -1  1 >:  -8.557414608999209e-8
< 0  0  0 >:  1.0480649654743241e-7
< 0  1  -1 >:  -8.557414608999209e-8
< 1  -2  1 >:  1.1047574755748663e-7
< 1  -1  0 >:  -9.88125125614586e-8
< 1  0  -1 >:  6.051005899448168e-8
< 2  -3  1 >:  -1.3530460523418365e-7
< 2  -2  0 >:  7.811815025455197e-8
< 2  -1  -1 >:  -3.493549884914413e-8
ctilde_basis_func: rank=3 ndens=1 mu0=0 mu=( 0  0  0 )
n=( 1  1  10 )
l=( 1  2  1 )
num_ms=9
< -1  0  1 >:  -1.2837029462974697e-6
< -1  1  0 >:  2.223438724813079e-6
< -1  2  -1 >:  -3.1444171997361976e-6
< 0  -1  1 >:  2.223438724813079e-6
< 0  0  0 >:  -2.5674058925949394e-6
< 0  1  -1 >:  2.223438724813079e-6
< 1  -2  1 >:  -3.1444171997361963e-6
< 1  -1  0 >:  2.223438724813079e-6
< 1  0  -1 >:  -1.2837029462974697e-6
ctilde_basis_func: rank=3 ndens=1 mu0=0 mu=( 0  0  0 )
n=( 1  1  1 )
l=( 2  2  4 )
num_ms=15
< -2  -2  4 >:  5.8053116755714485e-8
< -2  -1  3 >:  -8.209950505396017e-8
< -2  0  2 >:  5.374674234688315e-8
< -2  1  1 >:  -3.103069616203844e-8
< -2  2  0 >:  1.3877349201491957e-8
< -1  -1  2 >:  4.388403136223351e-8
< -1  0  1 >:  -7.600937196033448e-8
< -1  1  0 >:  5.550939680596783e-8
< -1  2  -1 >:  -3.103069616203844e-8
< 0  0  0 >:  4.163204760447587e-8
< 0  1  -1 >:  -7.600937196033448e-8
< 0  2  -2 >:  5.374674234688315e-8
< 1  1  -2 >:  4.388403136223351e-8
< 1  2  -3 >:  -8.209950505396017e-8
< 2  2  -4 >:  5.805311675571446e-8
ctilde_basis_func: rank=3 ndens=1 mu0=0 mu=( 0  0  0 )
n=( 1  2  6 )
l=( 3  0  3 )
num_ms=7
< -3  0  3 >:  2.528988732752974e-5
< -2  0  2 >:  -2.528988732752974e-5
< -1  0  1 >:  2.528988732752974e-5
< 0  0  0 >:  -2.528988732752974e-5
< 1  0  -1 >:  2.528988732752974e-5
< 2  0  -2 >:  -2.528988732752974e-5
< 3  0  -3 >:  2.528988732752974e-5
ctilde_basis_func: rank=3 ndens=1 mu0=0 mu=( 0  0  0 )
n=( 1  2  7 )
l=( 2  2  2 )
num_ms=19
< -2  0  2 >:  1.482702645804103e-6
< -2  1  1 >:  -1.815932461247315e-6
< -2  2  0 >:  1.482702645804103e-6
< -1  -1  2 >:  -1.815932461247315e-6
< -1  0  1 >:  7.413513229020515e-7
< -1  1  0 >:  7.413513229020515e-7
< -1  2  -1 >:  -1.815932461247315e-6
< 0  -2  2 >:  1.4827026458041017e-6
< 0  -1  1 >:  7.413513229020515e-7
< 0  0  0 >:  -1.482702645804103e-6
< 0  1  -1 >:  7.413513229020515e-7
< 0  2  -2 >:  1.482702645804103e-6
< 1  -2  1 >:  -1.815932461247315e-6
< 1  -1  0 >:  7.413513229020515e-7
< 1  0  -1 >:  7.413513229020515e-7
< 1  1  -2 >:  -1.815932461247315e-6
< 2  -2  0 >:  1.482702645804103e-6
< 2  -1  -1 >:  -1.815932461247315e-6
< 2  0  -2 >:  1.482702645804103e-6
ctilde_basis_func: rank=3 ndens=1 mu0=0 mu=( 0  0  0 )
n=( 1  3  5 )
l=( 0  2  2 )
num_ms=5
< 0  -2  2 >:  -5.969512715333101e-6
< 0  -1  1 >:  5.9695127153331e-6
< 0  0  0 >:  -5.9695127153331e-6
< 0  1  -1 >:  5.9695127153331e-6
< 0  2  -2 >:  -5.9695127153331e-6
ctilde_basis_func: rank=3 ndens=1 mu0=0 mu=( 0  0  0 )
n=( 1  1  2 )
l=( 0  4  4 )
num_ms=9
< 0  -4  4 >:  -4.378710560439431e-6
< 0  -3  3 >:  4.37871056043943e-6
< 0  -2  2 >:  -4.37871056043943e-6
< 0  -1  1 >:  4.37871056043943e-6
< 0  0  0 >:  -4.37871056043943e-6
< 0  1  -1 >:  4.37871056043943e-6
< 0  2  -2 >:  -4.37871056043943e-6
< 0  3  -3 >:  4.37871056043943e-6
< 0  4  -4 >:  -4.37871056043943e-6
ctilde_basis_func: rank=3 ndens=1 mu0=0 mu=( 0  0  0 )
n=( 2  5  6 )
l=( 0  0  0 )
num_ms=1
< 0  0  0 >:  -9.039293644025473e-6
ctilde_basis_func: rank=3 ndens=1 mu0=0 mu=( 0  0  0 )
n=( 1  1  3 )
l=( 1  4  5 )
num_ms=27
< -1  -4  5 >:  -1.943495807978663e-5
< -1  -3  4 >:  1.738315496250469e-5
< -1  -2  3 >:  -1.5330501677495245e-5
< -1  -1  2 >:  1.3276603905470834e-5
< -1  0  1 >:  -1.1220778279053913e-5
< -1  1  0 >:  9.161727100195617e-6
< -1  2  -1 >:  -7.096643296310957e-6
< -1  3  -2 >:  5.018084598483532e-6
< -1  4  -3 >:  -2.8971924937507822e-6
< 0  -4  4 >:  8.691577481252345e-6
< 0  -3  3 >:  -1.1588769975003129e-5
< 0  -2  2 >:  1.3276603905470834e-5
< 0  -1  1 >:  -1.4193286592621914e-5
< 0  0  0 >:  1.448596246875391e-5
< 0  1  -1 >:  -1.4193286592621914e-5
< 0  2  -2 >:  1.3276603905470834e-5
< 0  3  -3 >:  -1.1588769975003129e-5
< 0  4  -4 >:  8.691577481252345e-6
< 1  -4  3 >:  -2.8971924937507822e-6
< 1  -3  2 >:  5.018084598483532e-6
< 1  -2  1 >:  -7.096643296310957e-6
< 1  -1  0 >:  9.161727100195617e-6
< 1  0  -1 >:  -1.1220778279053913e-5
< 1  1  -2 >:  1.3276603905470834e-5
< 1  2  -3 >:  -1.5330501677495245e-5
< 1  3  -4 >:  1.738315496250469e-5
< 1  4  -5 >:  -1.9434958079786646e-5
ctilde_basis_func: rank=3 ndens=1 mu0=0 mu=( 0  0  0 )
n=( 1  1  7 )
l=( 2  2  0 )
num_ms=3
< -2  2  0 >:  2.9447773573960014e-5
< -1  1  0 >:  -2.9447773573960014e-5
< 0  0  0 >:  1.4723886786980007e-5
ctilde_basis_func: rank=3 ndens=1 mu0=0 mu=( 0  0  0 )
n=( 1  2  4 )
l=( 3  1  4 )
num_ms=21
< -3  -1  4 >:  1.8709112663584174e-5
< -3  0  3 >:  -9.35455633179208e-6
< -3  1  2 >:  3.535689954180925e-6
< -2  -1  3 >:  -1.620256684892903e-5
< -2  0  2 >:  1.224798928090447e-5
< -2  1  1 >:  -6.123994640452235e-6
< -1  -1  2 >:  1.3693668309895584e-5
< -1  0  1 >:  -1.3693668309895584e-5
< -1  1  0 >:  8.6606362764277e-6
< 0  -1  1 >:  -1.1180833355388098e-5
< 0  0  0 >:  1.41427598167237e-5
< 0  1  -1 >:  -1.1180833355388098e-5
< 1  -1  0 >:  8.6606362764277e-6
< 1  0  -1 >:  -1.3693668309895584e-5
< 1  1  -2 >:  1.3693668309895584e-5
< 2  -1  -1 >:  -6.123994640452235e-6
< 2  0  -2 >:  1.224798928090447e-5
< 2  1  -3 >:  -1.620256684892903e-5
< 3  -1  -2 >:  3.535689954180925e-6
< 3  0  -3 >:  -9.35455633179208e-6
< 3  1  -4 >:  1.870911266358416e-5
ctilde_basis_func: rank=3 ndens=1 mu0=0 mu=( 0  0  0 )
n=( 2  4  5 )
l=( 2  1  1 )
num_ms=9
< -2  1  1 >:  -2.1861869218625712e-5
< -1  0  1 >:  1.5458675973903693e-5
< -1  1  0 >:  1.5458675973903693e-5
< 0  -1  1 >:  -8.925070734848488e-6
< 0  0  0 >:  -1.7850141469696997e-5
< 0  1  -1 >:  -8.925070734848499e-6
< 1  -1  0 >:  1.5458675973903693e-5
< 1  0  -1 >:  1.5458675973903693e-5
< 2  -1  -1 >:  -2.1861869218625712e-5
ctilde_basis_func: rank=3 ndens=1 mu0=0 mu=( 0  0  0 )
n=( 2  2  2 )
l=( 2  2  4 )
num_ms=15
< -2  -2  4 >:  -6.501947384465698e-6
< -2  -1  3 >:  9.195142172947659e-6
< -2  0  2 >:  -6.01963357620191e-6
< -2  1  1 >:  3.475437065643082e-6
< -2  2  0 >:  -1.554262706060066e-6
< -1  -1  2 >:  -4.9150102334066e-6
< -1  0  1 >:  8.513047443981196e-6
< -1  1  0 >:  -6.217050824240264e-6
< -1  2  -1 >:  3.475437065643082e-6
< 0  0  0 >:  -4.662788118180199e-6
< 0  1  -1 >:  8.513047443981196e-6
< 0  2  -2 >:  -6.01963357620191e-6
< 1  1  -2 >:  -4.9150102334066e-6
< 1  2  -3 >:  9.195142172947659e-6
< 2  2  -4 >:  -6.501947384465694e-6
ctilde_basis_func: rank=3 ndens=1 mu0=0 mu=( 0  0  0 )
n=( 1  1  7 )
l=( 1  2  3 )
num_ms=15
< -1  -2  3 >:  9.058977813499184e-6
< -1  -1  2 >:  -7.396624411422209e-6
< -1  0  1 >:  5.7294006327178895e-6
< -1  1  0 >:  -4.051298039529317e-6
< -1  2  -1 >:  2.3390180136896538e-6
< 0  -2  2 >:  -5.230203279206601e-6
< 0  -1  1 >:  6.615741995189773e-6
< 0  0  0 >:  -7.017054041068962e-6
< 0  1  -1 >:  6.615741995189773e-6
< 0  2  -2 >:  -5.230203279206601e-6
< 1  -2  1 >:  2.3390180136896538e-6
< 1  -1  0 >:  -4.051298039529317e-6
< 1  0  -1 >:  5.7294006327178895e-6
< 1  1  -2 >:  -7.396624411422209e-6
< 1  2  -3 >:  9.058977813499182e-6
ctilde_basis_func: rank=3 ndens=1 mu0=0 mu=( 0  0  0 )
n=( 1  3  3 )
l=( 1  1  2 )
num_ms=9
< -1  -1  2 >:  -1.168605840288573e-5
< -1  0  1 >:  8.263291142022536e-6
< -1  1  0 >:  -4.770813365238962e-6
< 0  -1  1 >:  8.263291142022536e-6
< 0  0  0 >:  -9.541626730477924e-6
< 0  1  -1 >:  8.263291142022536e-6
< 1  -1  0 >:  -4.770813365238962e-6
< 1  0  -1 >:  8.263291142022536e-6
< 1  1  -2 >:  -1.1686058402885733e-5
ctilde_basis_func: rank=3 ndens=1 mu0=0 mu=( 0  0  0 )
n=( 1  1  3 )
l=( 0  5  5 )
num_ms=11
< 0  -5  5 >:  -8.006209114831245e-6
< 0  -4  4 >:  8.006209114831248e-6
< 0  -3  3 >:  -8.006209114831248e-6
< 0  -2  2 >:  8.006209114831248e-6
< 0  -1  1 >:  -8.006209114831248e-6
< 0  0  0 >:  8.006209114831248e-6
< 0  1  -1 >:  -8.006209114831248e-6
< 0  2  -2 >:  8.006209114831248e-6
< 0  3  -3 >:  -8.006209114831248e-6
< 0  4  -4 >:  8.006209114831248e-6
< 0  5  -5 >:  -8.006209114831248e-6
ctilde_basis_func: rank=3 ndens=1 mu0=0 mu=( 0  0  0 )
n=( 1  1  1 )
l=( 1  2  3 )
num_ms=15
< -1  -2  3 >:  -3.9883170909377766e-5
< -1  -1  2 >:  3.256447268406309e-5
< -1  0  1 >:  -2.522433207668053e-5
< -1  1  0 >:  1.7836296262322156e-5
< -1  2  -1 >:  -1.0297790448397612e-5
< 0  -2  2 >:  2.3026559460665104e-5
< 0  -1  1 >:  -2.9126549829200038e-5
< 0  0  0 >:  3.089337134519283e-5
< 0  1  -1 >:  -2.9126549829200038e-5
< 0  2  -2 >:  2.3026559460665104e-5
< 1  -2  1 >:  -1.0297790448397612e-5
< 1  -1  0 >:  1.7836296262322156e-5
< 1  0  -1 >:  -2.522433207668053e-5
< 1  1  -2 >:  3.256447268406309e-5
< 1  2  -3 >:  -3.988317090937776e-5
ctilde_basis_func: rank=3 ndens=1 mu0=0 mu=( 0  0  0 )
n=( 1  2  8 )
l=( 0  1  1 )
num_ms=3
< 0  -1  1 >:  2.880964141128303e-6
< 0  0  0 >:  -2.8809641411283016e-6
< 0  1  -1 >:  2.8809641411283016e-6
ctilde_basis_func: rank=3 ndens=1 mu0=0 mu=( 0  0  0 )
n=( 1  2  3 )
l=( 3  1  2 )
num_ms=15
< -3  1  2 >:  -2.281909054148548e-5
< -2  0  2 >:  1.3174608066789084e-5
< -2  1  1 >:  1.863170940700311e-5
< -1  -1  2 >:  -5.89186384285149e-6
< -1  0  1 >:  -1.6664707508432498e-5
< -1  1  0 >:  -1.4432060048939821e-5
< 0  -1  1 >:  1.0205007527096804e-5
< 0  0  0 >:  1.7675591528554494e-5
< 0  1  -1 >:  1.0205007527096804e-5
< 1  -1  0 >:  -1.4432060048939821e-5
< 1  0  -1 >:  -1.6664707508432498e-5
< 1  1  -2 >:  -5.891863842851498e-6
< 2  -1  -1 >:  1.863170940700311e-5
< 2  0  -2 >:  1.3174608066789084e-5
< 3  -1  -2 >:  -2.281909054148548e-5
ctilde_basis_func: rank=3 ndens=1 mu0=0 mu=( 0  0  0 )
n=( 1  1  3 )
l=( 1  5  4 )
num_ms=27
< -1  -3  4 >:  -9.514929383433908e-7
< -1  -2  3 >:  1.6480341122537541e-6
< -1  -1  2 >:  -2.3306721928027627e-6
< -1  0  1 >:  3.0088848627312737e-6
< -1  1  0 >:  -3.6851163042379124e-6
< -1  2  -1 >:  4.360288413174538e-6
< -1  3  -2 >:  -5.034827378181452e-6
< -1  4  -3 >:  5.708957630060344e-6
< -1  5  -4 >:  -6.382808670740512e-6
< 0  -4  4 >:  2.854478815030172e-6
< 0  -3  3 >:  -3.805971753373563e-6
< 0  -2  2 >:  4.360288413174538e-6
< 0  -1  1 >:  -4.661344385605525e-6
< 0  0  0 >:  4.757464691716954e-6
< 0  1  -1 >:  -4.661344385605525e-6
< 0  2  -2 >:  4.360288413174538e-6
< 0  3  -3 >:  -3.805971753373563e-6
< 0  4  -4 >:  2.854478815030172e-6
< 1  -5  4 >:  -6.382808670740507e-6
< 1  -4  3 >:  5.708957630060344e-6
< 1  -3  2 >:  -5.034827378181452e-6
< 1  -2  1 >:  4.360288413174538e-6
< 1  -1  0 >:  -3.6851163042379124e-6
< 1  0  -1 >:  3.0088848627312737e-6
< 1  1  -2 >:  -2.3306721928027627e-6
< 1  2  -3 >:  1.6480341122537541e-6
< 1  3  -4 >:  -9.514929383433908e-7
ctilde_basis_func: rank=3 ndens=1 mu0=0 mu=( 0  0  0 )
n=( 1  1  2 )
l=( 2  2  4 )
num_ms=15
< -2  -2  4 >:  2.2191549529896202e-5
< -2  -1  3 >:  -3.1383590315253474e-5
< -2  0  2 >:  2.0545382599876006e-5
< -2  1  1 >:  -1.1861882174642266e-5
< -2  2  0 >:  5.304794976718628e-6
< -1  -1  2 >:  1.6775234646650757e-5
< -1  0  1 >:  -2.9055558716888847e-5
< -1  1  0 >:  2.121917990687451e-5
< -1  2  -1 >:  -1.1861882174642266e-5
< 0  0  0 >:  1.5914384930155883e-5
< 0  1  -1 >:  -2.9055558716888847e-5
< 0  2  -2 >:  2.0545382599876006e-5
< 1  1  -2 >:  1.6775234646650757e-5
< 1  2  -3 >:  -3.1383590315253474e-5
< 2  2  -4 >:  2.2191549529896185e-5
ctilde_basis_func: rank=3 ndens=1 mu0=0 mu=( 0  0  0 )
n=( 1  1  7 )
l=( 1  3  2 )
num_ms=15
< -1  -1  2 >:  -2.64832029121174e-6
< -1  0  1 >:  4.587025299094339e-6
< -1  1  0 >:  -6.487033388927716e-6
< -1  2  -1 >:  8.374724093869503e-6
< -1  3  -2 >:  -1.0256900383286246e-5
< 0  -2  2 >:  5.92182419734149e-6
< 0  -1  1 >:  -7.490580946679015e-6
< 0  0  0 >:  7.944960873635221e-6
< 0  1  -1 >:  -7.490580946679015e-6
< 0  2  -2 >:  5.92182419734149e-6
< 1  -3  2 >:  -1.0256900383286247e-5
< 1  -2  1 >:  8.374724093869503e-6
< 1  -1  0 >:  -6.487033388927716e-6
< 1  0  -1 >:  4.587025299094339e-6
< 1  1  -2 >:  -2.64832029121174e-6
ctilde_basis_func: rank=3 ndens=1 mu0=0 mu=( 0  0  0 )
n=( 1  1  2 )
l=( 2  3  5 )
num_ms=35
< -2  -3  5 >:  5.169060016161845e-6
< -2  -2  4 >:  -4.003936671628293e-6
< -2  -1  3 >:  2.9843581917883723e-6
< -2  0  2 >:  -2.1102599149031815e-6
< -2  1  1 >:  1.3814893994392709e-6
< -2  2  0 >:  -7.976032766488776e-7
< -2  3  -1 >:  3.5669902913269214e-7
< -1  -3  4 >:  -3.26920060263564e-6
< -1  -2  3 >:  3.7749476959331478e-6
< -1  -1  2 >:  -3.6550773897882853e-6
< -1  0  1 >:  3.19041310659551e-6
< -1  1  0 >:  -2.522243023423845e-6
< -1  2  -1 >:  1.7474612262424951e-6
< -1  3  -2 >:  -9.437369239832869e-7
< 0  -3  3 >:  1.8874738479665739e-6
< 0  -2  2 >:  -2.831210771949861e-6
< 0  -1  1 >:  3.3839441136901867e-6
< 0  0  0 >:  -3.5669902913269216e-6
< 0  1  -1 >:  3.3839441136901867e-6
< 0  2  -2 >:  -2.831210771949861e-6
< 0  3  -3 >:  1.8874738479665739e-6
< 1  -3  2 >:  -9.437369239832869e-7
< 1  -2  1 >:  1.7474612262424951e-6
< 1  -1  0 >:  -2.522243023423845e-6
< 1  0  -1 >:  3.19041310659551e-6
< 1  1  -2 >:  -3.6550773897882853e-6
< 1  2  -3 >:  3.7749476959331478e-6
< 1  3  -4 >:  -3.26920060263564e-6
< 2  -3  1 >:  3.5669902913269214e-7
< 2  -2  0 >:  -7.976032766488776e-7
< 2  -1  -1 >:  1.3814893994392709e-6
< 2  0  -2 >:  -2.1102599149031815e-6
< 2  1  -3 >:  2.9843581917883723e-6
< 2  2  -4 >:  -4.003936671628293e-6
< 2  3  -5 >:  5.1690600161618434e-6
ctilde_basis_func: rank=3 ndens=1 mu0=0 mu=( 0  0  0 )
n=( 1  2  4 )
l=( 3  4  1 )
num_ms=21
< -3  2  1 >:  2.0379161527325375e-6
< -3  3  0 >:  -5.391819332931817e-6
< -3  4  -1 >:  1.0783638665863633e-5
< -2  1  1 >:  -3.5297743180980507e-6
< -2  2  0 >:  7.059548636196101e-6
< -2  3  -1 >:  -9.33890502987004e-6
< -1  0  1 >:  4.9918547127705065e-6
< -1  1  0 >:  -7.892815320500207e-6
< -1  2  -1 >:  7.892815320500207e-6
< 0  -1  1 >:  -6.444456723082395e-6
< 0  0  0 >:  8.15166461093015e-6
< 0  1  -1 >:  -6.444456723082395e-6
< 1  -2  1 >:  7.892815320500207e-6
< 1  -1  0 >:  -7.892815320500207e-6
< 1  0  -1 >:  4.9918547127705065e-6
< 2  -3  1 >:  -9.33890502987004e-6
< 2  -2  0 >:  7.059548636196101e-6
< 2  -1  -1 >:  -3.5297743180980507e-6
< 3  -4  1 >:  1.078363866586364e-5
< 3  -3  0 >:  -5.391819332931817e-6
< 3  -2  -1 >:  2.0379161527325375e-6
ctilde_basis_func: rank=3 ndens=1 mu0=0 mu=( 0  0  0 )
n=( 1  2  3 )
l=( 4  2  2 )
num_ms=25
< -4  2  2 >:  5.2525126522067104e-5
< -3  1  2 >:  -3.714087314643503e-5
< -3  2  1 >:  -3.714087314643503e-5
< -2  0  2 >:  2.4314408938613022e-5
< -2  1  1 >:  3.970526353131214e-5
< -2  2  0 >:  2.4314408938613022e-5
< -1  -1  2 >:  -1.4037930545894876e-5
< -1  0  1 >:  -3.438576688207216e-5
< -1  1  0 >:  -3.438576688207216e-5
< -1  2  -1 >:  -1.4037930545894876e-5
< 0  -2  2 >:  6.277953392808322e-6
< 0  -1  1 >:  2.5111813571233336e-5
< 0  0  0 >:  3.766772035684999e-5
< 0  1  -1 >:  2.5111813571233336e-5
< 0  2  -2 >:  6.277953392808334e-6
< 1  -2  1 >:  -1.4037930545894876e-5
< 1  -1  0 >:  -3.438576688207216e-5
< 1  0  -1 >:  -3.438576688207216e-5
< 1  1  -2 >:  -1.4037930545894876e-5
< 2  -2  0 >:  2.4314408938613022e-5
< 2  -1  -1 >:  3.970526353131214e-5
< 2  0  -2 >:  2.4314408938613022e-5
< 3  -2  -1 >:  -3.714087314643503e-5
< 3  -1  -2 >:  -3.714087314643503e-5
< 4  -2  -2 >:  5.2525126522067104e-5
ctilde_basis_func: rank=3 ndens=1 mu0=0 mu=( 0  0  0 )
n=( 1  1  2 )
l=( 1  5  4 )
num_ms=27
< -1  -3  4 >:  -3.7066244970170195e-6
< -1  -2  3 >:  6.4200619534129126e-6
< -1  -1  2 >:  -9.079338685792045e-6
< -1  0  1 >:  1.1721375841549775e-5
< -1  1  0 >:  -1.4355694947591356e-5
< -1  2  -1 >:  1.6985887330358107e-5
< -1  3  -2 >:  -1.9613613245213816e-5
< -1  4  -3 >:  2.223974698210211e-5
< -1  5  -4 >:  -2.4864793027188064e-5
< 0  -4  4 >:  1.1119873491051055e-5
< 0  -3  3 >:  -1.4826497988068078e-5
< 0  -2  2 >:  1.6985887330358107e-5
< 0  -1  1 >:  -1.815867737158409e-5
< 0  0  0 >:  1.8533122485085097e-5
< 0  1  -1 >:  -1.815867737158409e-5
< 0  2  -2 >:  1.6985887330358107e-5
< 0  3  -3 >:  -1.4826497988068078e-5
< 0  4  -4 >:  1.1119873491051055e-5
< 1  -5  4 >:  -2.486479302718804e-5
< 1  -4  3 >:  2.223974698210211e-5
< 1  -3  2 >:  -1.9613613245213816e-5
< 1  -2  1 >:  1.6985887330358107e-5
< 1  -1  0 >:  -1.4355694947591356e-5
< 1  0  -1 >:  1.1721375841549775e-5
< 1  1  -2 >:  -9.079338685792045e-6
< 1  2  -3 >:  6.4200619534129126e-6
< 1  3  -4 >:  -3.7066244970170195e-6
ctilde_basis_func: rank=3 ndens=1 mu0=0 mu=( 0  0  0 )
n=( 1  1  2 )
l=( 3  3  2 )
num_ms=15
< -3  1  2 >:  -8.435996784290042e-5
< -3  2  1 >:  0.00013338482086106346
< -3  3  0 >:  -0.00013338482086106346
< -2  0  2 >:  0.00011930301064478795
< -2  1  1 >:  -0.00010331943796635168
< -2  3  -1 >:  0.00013338482086106346
< -1  -1  2 >:  -6.534495010842933e-5
< -1  0  1 >:  3.7726924535284326e-5
< -1  1  0 >:  8.003089251663807e-5
< -1  2  -1 >:  -0.00010331943796635168
< -1  3  -2 >:  -8.435996784290044e-5
< 0  0  0 >:  -5.3353928344425396e-5
< 0  1  -1 >:  3.7726924535284326e-5
< 0  2  -2 >:  0.00011930301064478795
< 1  1  -2 >:  -6.534495010842933e-5
ctilde_basis_func: rank=3 ndens=1 mu0=0 mu=( 0  0  0 )
n=( 1  2  4 )
l=( 1  1  2 )
num_ms=9
< -1  -1  2 >:  3.118601736733377e-5
< -1  0  1 >:  -2.205184435864315e-5
< -1  1  0 >:  1.2731638276590355e-5
< 0  -1  1 >:  -2.205184435864315e-5
< 0  0  0 >:  2.546327655318071e-5
< 0  1  -1 >:  -2.205184435864315e-5
< 1  -1  0 >:  1.2731638276590355e-5
< 1  0  -1 >:  -2.205184435864315e-5
< 1  1  -2 >:  3.118601736733377e-5
ctilde_basis_func: rank=3 ndens=1 mu0=0 mu=( 0  0  0 )
n=( 1  2  3 )
l=( 1  3  2 )
num_ms=15
< -1  -1  2 >:  9.082620490806477e-6
< -1  0  1 >:  -1.5731560155942995e-5
< -1  1  0 >:  2.224778572982278e-5
< -1  2  -1 >:  -2.8721767873864884e-5
< -1  3  -2 >:  3.5176837900815724e-5
< 0  -2  2 >:  -2.0309356831275792e-5
< 0  -1  1 >:  2.5689530159972595e-5
< 0  0  0 >:  -2.7247861472419433e-5
< 0  1  -1 >:  2.5689530159972595e-5
< 0  2  -2 >:  -2.0309356831275792e-5
< 1  -3  2 >:  3.517683790081573e-5
< 1  -2  1 >:  -2.8721767873864884e-5
< 1  -1  0 >:  2.224778572982278e-5
< 1  0  -1 >:  -1.5731560155942995e-5
< 1  1  -2 >:  9.082620490806477e-6
ctilde_basis_func: rank=3 ndens=1 mu0=0 mu=( 0  0  0 )
n=( 1  1  6 )
l=( 0  2  2 )
num_ms=5
< 0  -2  2 >:  -9.731250200717021e-6
< 0  -1  1 >:  9.73125020071702e-6
< 0  0  0 >:  -9.73125020071702e-6
< 0  1  -1 >:  9.73125020071702e-6
< 0  2  -2 >:  -9.73125020071702e-6
ctilde_basis_func: rank=3 ndens=1 mu0=0 mu=( 0  0  0 )
n=( 1  3  5 )
l=( 1  1  2 )
num_ms=9
< -1  -1  2 >:  -3.6059800607743033e-6
< -1  0  1 >:  2.5498129537969886e-6
< -1  1  0 >:  -1.4721351952578863e-6
< 0  -1  1 >:  2.5498129537969886e-6
< 0  0  0 >:  -2.9442703905157726e-6
< 0  1  -1 >:  2.5498129537969886e-6
< 1  -1  0 >:  -1.4721351952578863e-6
< 1  0  -1 >:  2.5498129537969886e-6
< 1  1  -2 >:  -3.6059800607743033e-6
ctilde_basis_func: rank=3 ndens=1 mu0=0 mu=( 0  0  0 )
n=( 1  1  5 )
l=( 2  2  4 )
num_ms=15
< -2  -2  4 >:  4.607112119454301e-5
< -2  -1  3 >:  -6.515440442705724e-5
< -2  0  2 >:  4.26535700209651e-5
< -2  1  1 >:  -2.4626050133502748e-5
< -2  2  0 >:  1.1013104423165984e-5
< -1  -1  2 >:  3.482649408647936e-5
< -1  0  1 >:  -6.03212572072793e-5
< -1  1  0 >:  4.4052417692663935e-5
< -1  2  -1 >:  -2.4626050133502748e-5
< 0  0  0 >:  3.3039313269497955e-5
< 0  1  -1 >:  -6.03212572072793e-5
< 0  2  -2 >:  4.26535700209651e-5
< 1  1  -2 >:  3.482649408647936e-5
< 1  2  -3 >:  -6.515440442705724e-5
< 2  2  -4 >:  4.607112119454299e-5
ctilde_basis_func: rank=3 ndens=1 mu0=0 mu=( 0  0  0 )
n=( 1  3  7 )
l=( 1  1  0 )
num_ms=3
< -1  1  0 >:  4.322061490106141e-6
< 0  0  0 >:  -4.322061490106141e-6
< 1  -1  0 >:  4.322061490106141e-6
ctilde_basis_func: rank=3 ndens=1 mu0=0 mu=( 0  0  0 )
n=( 2  3  7 )
l=( 2  1  1 )
num_ms=9
< -2  1  1 >:  9.493243517228066e-6
< -1  0  1 >:  -6.712736866487198e-6
< -1  1  0 >:  -6.712736866487198e-6
< 0  -1  1 >:  3.8756004368655034e-6
< 0  0  0 >:  7.751200873731017e-6
< 0  1  -1 >:  3.8756004368655085e-6
< 1  -1  0 >:  -6.712736866487198e-6
< 1  0  -1 >:  -6.712736866487198e-6
< 2  -1  -1 >:  9.493243517228066e-6
ctilde_basis_func: rank=3 ndens=1 mu0=0 mu=( 0  0  0 )
n=( 1  2  2 )
l=( 5  0  5 )
num_ms=11
< -5  0  5 >:  9.279645299793208e-6
< -4  0  4 >:  -9.279645299793213e-6
< -3  0  3 >:  9.279645299793213e-6
< -2  0  2 >:  -9.279645299793213e-6
< -1  0  1 >:  9.279645299793213e-6
< 0  0  0 >:  -9.279645299793213e-6
< 1  0  -1 >:  9.279645299793213e-6
< 2  0  -2 >:  -9.279645299793213e-6
< 3  0  -3 >:  9.279645299793213e-6
< 4  0  -4 >:  -9.279645299793213e-6
< 5  0  -5 >:  9.279645299793213e-6
ctilde_basis_func: rank=3 ndens=1 mu0=0 mu=( 0  0  0 )
n=( 2  6  7 )
l=( 1  1  0 )
num_ms=3
< -1  1  0 >:  5.7809563787818785e-6
< 0  0  0 >:  -5.7809563787818785e-6
< 1  -1  0 >:  5.7809563787818785e-6
ctilde_basis_func: rank=3 ndens=1 mu0=0 mu=( 0  0  0 )
n=( 1  1  4 )
l=( 1  3  4 )
num_ms=21
< -1  -3  4 >:  -1.1246684184598574e-5
< -1  -2  3 >:  9.739914212203039e-6
< -1  -1  2 >:  -8.231729937134146e-6
< -1  0  1 >:  6.7211793487904335e-6
< -1  1  0 >:  -5.2062031369477136e-6
< -1  2  -1 >:  3.6813415423704036e-6
< -1  3  -2 >:  -2.125423530466505e-6
< 0  -3  3 >:  5.6233420922992845e-6
< 0  -2  2 >:  -7.362683084740807e-6
< 0  -1  1 >:  8.231729937134146e-6
< 0  0  0 >:  -8.50169412186602e-6
< 0  1  -1 >:  8.231729937134146e-6
< 0  2  -2 >:  -7.362683084740807e-6
< 0  3  -3 >:  5.6233420922992845e-6
< 1  -3  2 >:  -2.125423530466505e-6
< 1  -2  1 >:  3.6813415423704036e-6
< 1  -1  0 >:  -5.2062031369477136e-6
< 1  0  -1 >:  6.7211793487904335e-6
< 1  1  -2 >:  -8.231729937134146e-6
< 1  2  -3 >:  9.739914212203039e-6
< 1  3  -4 >:  -1.1246684184598569e-5
ctilde_basis_func: rank=3 ndens=1 mu0=0 mu=( 0  0  0 )
n=( 1  1  6 )
l=( 1  3  2 )
num_ms=15
< -1  -1  2 >:  1.75826799072351e-6
< -1  0  1 >:  -3.0454094932551633e-6
< -1  1  0 >:  4.306859408341225e-6
< -1  2  -1 >:  -5.560131587654098e-6
< -1  3  -2 >:  6.8097426462417315e-6
< 0  -2  2 >:  -3.931606749919739e-6
< 0  -1  1 >:  4.973132877535358e-6
< 0  0  0 >:  -5.27480397217053e-6
< 0  1  -1 >:  4.973132877535358e-6
< 0  2  -2 >:  -3.931606749919739e-6
< 1  -3  2 >:  6.809742646241732e-6
< 1  -2  1 >:  -5.560131587654098e-6
< 1  -1  0 >:  4.306859408341225e-6
< 1  0  -1 >:  -3.0454094932551633e-6
< 1  1  -2 >:  1.75826799072351e-6
ctilde_basis_func: rank=3 ndens=1 mu0=0 mu=( 0  0  0 )
n=( 1  1  4 )
l=( 2  2  2 )
num_ms=11
< -2  0  2 >:  0.00016094314117880127
< -2  1  1 >:  -0.00019711428674438943
< -2  2  0 >:  0.00016094314117880132
< -1  -1  2 >:  -9.855714337219472e-5
< -1  0  1 >:  8.047157058940066e-5
< -1  1  0 >:  8.047157058940066e-5
< -1  2  -1 >:  -0.00019711428674438943
< 0  0  0 >:  -8.047157058940066e-5
< 0  1  -1 >:  8.047157058940066e-5
< 0  2  -2 >:  0.00016094314117880132
< 1  1  -2 >:  -9.855714337219472e-5
ctilde_basis_func: rank=3 ndens=1 mu0=0 mu=( 0  0  0 )
n=( 1  1  2 )
l=( 4  5  1 )
num_ms=27
< -4  3  1 >:  2.987942443057299e-6
< -4  4  0 >:  -8.963827329171895e-6
< -4  5  -1 >:  2.0043727246598748e-5
< -3  2  1 >:  -5.1752681214667195e-6
< -3  3  0 >:  1.1951769772229196e-5
< -3  4  -1 >:  -1.792765465834379e-5
< -2  1  1 >:  7.318934366295365e-6
< -2  2  0 >:  -1.3692472417481354e-5
< -2  3  -1 >:  1.581070527220877e-5
< -1  0  1 >:  -9.448703637549028e-6
< -1  1  0 >:  1.463786873259073e-5
< -1  2  -1 >:  -1.3692472417481354e-5
< 0  -1  1 >:  1.1572251321387225e-5
< 0  0  0 >:  -1.4939712215286495e-5
< 0  1  -1 >:  1.1572251321387225e-5
< 1  -2  1 >:  -1.3692472417481354e-5
< 1  -1  0 >:  1.463786873259073e-5
< 1  0  -1 >:  -9.448703637549028e-6
< 2  -3  1 >:  1.581070527220877e-5
< 2  -2  0 >:  -1.3692472417481354e-5
< 2  -1  -1 >:  7.318934366295365e-6
< 3  -4  1 >:  -1.792765465834379e-5
< 3  -3  0 >:  1.1951769772229196e-5
< 3  -2  -1 >:  -5.1752681214667195e-6
< 4  -5  1 >:  2.0043727246598738e-5
< 4  -4  0 >:  -8.963827329171895e-6
< 4  -3  -1 >:  2.987942443057299e-6
ctilde_basis_func: rank=3 ndens=1 mu0=0 mu=( 0  0  0 )
n=( 1  2  2 )
l=( 4  1  3 )
num_ms=21
< -4  1  3 >:  1.545479059297381e-5
< -3  0  3 >:  -7.727395296486905e-6
< -3  1  2 >:  -1.3384241263684087e-5
< -2  -1  3 >:  2.9206808909706584e-6
< -2  0  2 >:  1.011753539171342e-5
< -2  1  1 >:  1.1311748450315583e-5
< -1  -1  2 >:  -5.05876769585671e-6
< -1  0  1 >:  -1.1311748450315583e-5
< -1  1  0 >:  -9.236003933997177e-6
< 0  -1  1 >:  7.154177884375451e-6
< 0  0  0 >:  1.1682723563882618e-5
< 0  1  -1 >:  7.154177884375451e-6
< 1  -1  0 >:  -9.236003933997177e-6
< 1  0  -1 >:  -1.1311748450315583e-5
< 1  1  -2 >:  -5.05876769585671e-6
< 2  -1  -1 >:  1.1311748450315583e-5
< 2  0  -2 >:  1.011753539171342e-5
< 2  1  -3 >:  2.9206808909706546e-6
< 3  -1  -2 >:  -1.3384241263684087e-5
< 3  0  -3 >:  -7.727395296486905e-6
< 4  -1  -3 >:  1.545479059297381e-5
ctilde_basis_func: rank=3 ndens=1 mu0=0 mu=( 0  0  0 )
n=( 1  1  11 )
l=( 1  1  0 )
num_ms=2
< -1  1  0 >:  -6.493882126413878e-6
< 0  0  0 >:  3.246941063206939e-6
ctilde_basis_func: rank=3 ndens=1 mu0=0 mu=( 0  0  0 )
n=( 2  3  3 )
l=( 3  1  2 )
num_ms=15
< -3  1  2 >:  -1.4964828785599792e-5
< -2  0  2 >:  8.6399479277427e-6
< -2  1  1 >:  1.2218731537611048e-5
< -1  -1  2 >:  -3.86390217769822e-6
< -1  0  1 >:  -1.092876572676753e-5
< -1  1  0 >:  -9.464588751389385e-6
< 0  -1  1 >:  6.692474887249353e-6
< 0  0  0 >:  1.1591706533094676e-5
< 0  1  -1 >:  6.692474887249353e-6
< 1  -1  0 >:  -9.464588751389385e-6
< 1  0  -1 >:  -1.092876572676753e-5
< 1  1  -2 >:  -3.863902177698225e-6
< 2  -1  -1 >:  1.2218731537611048e-5
< 2  0  -2 >:  8.6399479277427e-6
< 3  -1  -2 >:  -1.4964828785599792e-5
ctilde_basis_func: rank=3 ndens=1 mu0=0 mu=( 0  0  0 )
n=( 1  2  3 )
l=( 4  1  3 )
num_ms=21
< -4  1  3 >:  -1.0531336229112528e-5
< -3  0  3 >:  5.265668114556264e-6
< -3  1  2 >:  9.120404710206864e-6
< -2  -1  3 >:  -1.9902354739597525e-6
< -2  0  2 >:  -6.894377919848423e-6
< -2  1  1 >:  -7.708148845677335e-6
< -1  -1  2 >:  3.4471889599242117e-6
< -1  0  1 >:  7.708148845677335e-6
< -1  1  0 >:  6.293677177777542e-6
< 0  -1  1 >:  -4.875061379187623e-6
< 0  0  0 >:  -7.960941895838998e-6
< 0  1  -1 >:  -4.875061379187623e-6
< 1  -1  0 >:  6.293677177777542e-6
< 1  0  -1 >:  7.708148845677335e-6
< 1  1  -2 >:  3.4471889599242117e-6
< 2  -1  -1 >:  -7.708148845677335e-6
< 2  0  -2 >:  -6.894377919848423e-6
< 2  1  -3 >:  -1.9902354739597496e-6
< 3  -1  -2 >:  9.120404710206864e-6
< 3  0  -3 >:  5.265668114556264e-6
< 4  -1  -3 >:  -1.0531336229112528e-5
ctilde_basis_func: rank=3 ndens=1 mu0=0 mu=( 0  0  0 )
n=( 1  2  5 )
l=( 3  1  2 )
num_ms=15
< -3  1  2 >:  3.586832223856485e-6
< -2  0  2 >:  -2.0708585499815657e-6
< -2  1  1 >:  -2.9286362471402124e-6
< -1  -1  2 >:  9.261160979090844e-7
< -1  0  1 >:  2.6194518919901554e-6
< -1  1  0 >:  2.268511882454686e-6
< 0  -1  1 >:  -1.6040801352859688e-6
< 0  0  0 >:  -2.7783482937272564e-6
< 0  1  -1 >:  -1.6040801352859688e-6
< 1  -1  0 >:  2.268511882454686e-6
< 1  0  -1 >:  2.6194518919901554e-6
< 1  1  -2 >:  9.261160979090856e-7
< 2  -1  -1 >:  -2.9286362471402124e-6
< 2  0  -2 >:  -2.0708585499815657e-6
< 3  -1  -2 >:  3.586832223856485e-6
ctilde_basis_func: rank=3 ndens=1 mu0=0 mu=( 0  0  0 )
n=( 3  3  3 )
l=( 1  1  2 )
num_ms=6
< -1  -1  2 >:  -1.337003271746553e-5
< -1  0  1 >:  1.890808159841176e-5
< -1  1  0 >:  -1.091658600070244e-5
< 0  0  0 >:  -1.091658600070244e-5
< 0  1  -1 >:  1.890808159841176e-5
< 1  1  -2 >:  -1.337003271746553e-5
ctilde_basis_func: rank=3 ndens=1 mu0=0 mu=( 0  0  0 )
n=( 4  5  5 )
l=( 1  0  1 )
num_ms=3
< -1  0  1 >:  -1.8059130428095084e-6
< 0  0  0 >:  1.8059130428095084e-6
< 1  0  -1 >:  -1.8059130428095084e-6
ctilde_basis_func: rank=3 ndens=1 mu0=0 mu=( 0  0  0 )
n=( 1  1  2 )
l=( 1  4  5 )
num_ms=27
< -1  -4  5 >:  -3.580206635896653e-8
< -1  -3  4 >:  3.202234164544304e-8
< -1  -2  3 >:  -2.8241050797263062e-8
< -1  -1  2 >:  2.445746741999659e-8
< -1  0  1 >:  -2.0670332649894187e-8
< -1  1  0 >:  1.687725593527735e-8
< -1  2  -1 >:  -1.3073066233401893e-8
< -1  3  -2 >:  9.244053784539355e-9
< -1  4  -3 >:  -5.337056940907175e-9
< 0  -4  4 >:  1.601117082272152e-8
< 0  -3  3 >:  -2.13482277636287e-8
< 0  -2  2 >:  2.445746741999659e-8
< 0  -1  1 >:  -2.6146132466803785e-8
< 0  0  0 >:  2.6685284704535875e-8
< 0  1  -1 >:  -2.6146132466803785e-8
< 0  2  -2 >:  2.445746741999659e-8
< 0  3  -3 >:  -2.13482277636287e-8
< 0  4  -4 >:  1.601117082272152e-8
< 1  -4  3 >:  -5.337056940907175e-9
< 1  -3  2 >:  9.244053784539355e-9
< 1  -2  1 >:  -1.3073066233401893e-8
< 1  -1  0 >:  1.687725593527735e-8
< 1  0  -1 >:  -2.0670332649894187e-8
< 1  1  -2 >:  2.445746741999659e-8
< 1  2  -3 >:  -2.8241050797263062e-8
< 1  3  -4 >:  3.202234164544304e-8
< 1  4  -5 >:  -3.580206635896656e-8
ctilde_basis_func: rank=3 ndens=1 mu0=0 mu=( 0  0  0 )
n=( 1  4  5 )
l=( 1  3  2 )
num_ms=15
< -1  -1  2 >:  1.3581834423814515e-5
< -1  0  1 >:  -2.352442728203471e-5
< -1  1  0 >:  3.326856410931312e-5
< -1  2  -1 >:  -4.294953158253451e-5
< -1  3  -2 >:  5.260221853438023e-5
< 0  -2  2 >:  -3.036990503079595e-5
< 0  -1  1 >:  3.8415228888128514e-5
< 0  0  0 >:  -4.0745503271443546e-5
< 0  1  -1 >:  3.8415228888128514e-5
< 0  2  -2 >:  -3.036990503079595e-5
< 1  -3  2 >:  5.260221853438024e-5
< 1  -2  1 >:  -4.294953158253451e-5
< 1  -1  0 >:  3.326856410931312e-5
< 1  0  -1 >:  -2.352442728203471e-5
< 1  1  -2 >:  1.3581834423814515e-5
ctilde_basis_func: rank=3 ndens=1 mu0=0 mu=( 0  0  0 )
n=( 1  2  3 )
l=( 4  3  1 )
num_ms=21
< -4  3  1 >:  5.620406575410781e-6
< -3  2  1 >:  -4.867414873902835e-6
< -3  3  0 >:  -2.8102032877053904e-6
< -2  1  1 >:  4.113716390207848e-6
< -2  2  0 >:  3.6794197954639193e-6
< -2  3  -1 >:  1.062157004686366e-6
< -1  0  1 >:  -3.3588353675110544e-6
< -1  1  0 >:  -4.113716390207848e-6
< -1  2  -1 >:  -1.8397098977319597e-6
< 0  -1  1 >:  2.601742688204556e-6
< 0  0  0 >:  4.248628018745464e-6
< 0  1  -1 >:  2.601742688204556e-6
< 1  -2  1 >:  -1.8397098977319597e-6
< 1  -1  0 >:  -4.113716390207848e-6
< 1  0  -1 >:  -3.3588353675110544e-6
< 2  -3  1 >:  1.0621570046863672e-6
< 2  -2  0 >:  3.6794197954639193e-6
< 2  -1  -1 >:  4.113716390207848e-6
< 3  -3  0 >:  -2.8102032877053904e-6
< 3  -2  -1 >:  -4.867414873902835e-6
< 4  -3  -1 >:  5.620406575410781e-6
ctilde_basis_func: rank=3 ndens=1 mu0=0 mu=( 0  0  0 )
n=( 1  1  1 )
l=( 0  5  5 )
num_ms=6
< 0  -5  5 >:  -6.556109996877525e-5
< 0  -4  4 >:  6.556109996877526e-5
< 0  -3  3 >:  -6.556109996877526e-5
< 0  -2  2 >:  6.556109996877526e-5
< 0  -1  1 >:  -6.556109996877526e-5
< 0  0  0 >:  3.278054998438763e-5
ctilde_basis_func: rank=3 ndens=1 mu0=0 mu=( 0  0  0 )
n=( 1  1  2 )
l=( 5  5  0 )
num_ms=6
< -5  5  0 >:  -8.598047890079754e-6
< -4  4  0 >:  8.598047890079756e-6
< -3  3  0 >:  -8.598047890079756e-6
< -2  2  0 >:  8.598047890079756e-6
< -1  1  0 >:  -8.598047890079756e-6
< 0  0  0 >:  4.299023945039878e-6
ctilde_basis_func: rank=3 ndens=1 mu0=0 mu=( 0  0  0 )
n=( 1  1  2 )
l=( 4  4  2 )
num_ms=21
< -4  2  2 >:  -0.0001032840092310876
< -4  3  1 >:  0.00019322668803756343
< -4  4  0 >:  -0.00022311896070621414
< -3  1  2 >:  0.0001549260138466314
< -3  2  1 >:  -0.00018258205828859003
< -3  3  0 >:  5.5779740176553535e-5
< -3  4  -1 >:  0.00019322668803756343
< -2  0  2 >:  -0.0001851720040796302
< -2  1  1 >:  0.00012421715659557647
< -2  2  0 >:  6.374827448748974e-5
< -2  3  -1 >:  -0.00018258205828859003
< -2  4  -2 >:  -0.00010328400923108757
< -1  -1  2 >:  9.759421529827045e-5
< -1  0  1 >:  -4.3645459923536525e-5
< -1  1  0 >:  -0.0001354650832859157
< -1  2  -1 >:  0.00012421715659557647
< -1  3  -2 >:  0.0001549260138466314
< 0  0  0 >:  7.968534310936219e-5
< 0  1  -1 >:  -4.3645459923536525e-5
< 0  2  -2 >:  -0.0001851720040796302
< 1  1  -2 >:  9.759421529827045e-5
ctilde_basis_func: rank=3 ndens=1 mu0=0 mu=( 0  0  0 )
n=( 1  4  5 )
l=( 1  2  1 )
num_ms=9
< -1  0  1 >:  -4.3178870131744795e-6
< -1  1  0 >:  7.478799688160022e-6
< -1  2  -1 >:  -1.0576619949267581e-5
< 0  -1  1 >:  7.478799688160022e-6
< 0  0  0 >:  -8.635774026348959e-6
< 0  1  -1 >:  7.478799688160022e-6
< 1  -2  1 >:  -1.0576619949267578e-5
< 1  -1  0 >:  7.478799688160022e-6
< 1  0  -1 >:  -4.3178870131744795e-6
ctilde_basis_func: rank=3 ndens=1 mu0=0 mu=( 0  0  0 )
n=( 2  2  2 )
l=( 0  2  2 )
num_ms=3
< 0  -2  2 >:  -0.0001200335926028701
< 0  -1  1 >:  0.0001200335926028701
< 0  0  0 >:  -6.001679630143505e-5
ctilde_basis_func: rank=3 ndens=1 mu0=0 mu=( 0  0  0 )
n=( 1  4  4 )
l=( 0  2  2 )
num_ms=3
< 0  -2  2 >:  9.676649028539629e-6
< 0  -1  1 >:  -9.676649028539629e-6
< 0  0  0 >:  4.838324514269814e-6
ctilde_basis_func: rank=3 ndens=1 mu0=0 mu=( 0  0  0 )
n=( 1  3  3 )
l=( 1  3  4 )
num_ms=21
< -1  -3  4 >:  1.8938043863745536e-5
< -1  -2  3 >:  -1.6400827083987634e-5
< -1  -1  2 >:  1.3861228791098837e-5
< -1  0  1 >:  -1.1317645915389156e-5
< -1  1  0 >:  8.766610829714922e-6
< -1  2  -1 >:  -6.198929965714846e-6
< -1  3  -2 >:  3.578953884393105e-6
< 0  -3  3 >:  -9.469021931872763e-6
< 0  -2  2 >:  1.2397859931429692e-5
< 0  -1  1 >:  -1.3861228791098837e-5
< 0  0  0 >:  1.431581553757242e-5
< 0  1  -1 >:  -1.3861228791098837e-5
< 0  2  -2 >:  1.2397859931429692e-5
< 0  3  -3 >:  -9.469021931872763e-6
< 1  -3  2 >:  3.578953884393105e-6
< 1  -2  1 >:  -6.198929965714846e-6
< 1  -1  0 >:  8.766610829714922e-6
< 1  0  -1 >:  -1.1317645915389156e-5
< 1  1  -2 >:  1.3861228791098837e-5
< 1  2  -3 >:  -1.6400827083987634e-5
< 1  3  -4 >:  1.8938043863745526e-5
ctilde_basis_func: rank=3 ndens=1 mu0=0 mu=( 0  0  0 )
n=( 1  2  4 )
l=( 4  3  1 )
num_ms=21
< -4  3  1 >:  -3.8967556015769504e-6
< -3  2  1 >:  3.374689343304952e-6
< -3  3  0 >:  1.9483778007884752e-6
< -2  1  1 >:  -2.8521330568811635e-6
< -2  2  0 >:  -2.5510253584242226e-6
< -2  3  -1 >:  -7.364175886978932e-7
< -1  0  1 >:  2.3287568892944132e-6
< -1  1  0 >:  2.8521330568811635e-6
< -1  2  -1 >:  1.2755126792121113e-6
< 0  -1  1 >:  -1.8038473299206103e-6
< 0  0  0 >:  -2.945670354791573e-6
< 0  1  -1 >:  -1.8038473299206103e-6
< 1  -2  1 >:  1.2755126792121113e-6
< 1  -1  0 >:  2.8521330568811635e-6
< 1  0  -1 >:  2.3287568892944132e-6
< 2  -3  1 >:  -7.364175886978942e-7
< 2  -2  0 >:  -2.5510253584242226e-6
< 2  -1  -1 >:  -2.8521330568811635e-6
< 3  -3  0 >:  1.9483778007884752e-6
< 3  -2  -1 >:  3.374689343304952e-6
< 4  -3  -1 >:  -3.8967556015769504e-6
ctilde_basis_func: rank=3 ndens=1 mu0=0 mu=( 0  0  0 )
n=( 1  1  3 )
l=( 3  4  1 )
num_ms=21
< -3  2  1 >:  5.258548037485514e-6
< -3  3  0 >:  -1.3912810364473428e-5
< -3  4  -1 >:  2.7825620728946856e-5
< -2  1  1 >:  -9.108072374966519e-6
< -2  2  0 >:  1.8216144749933038e-5
< -2  3  -1 >:  -2.4097694427338847e-5
< -1  0  1 >:  1.2880759479753378e-5
< -1  1  0 >:  -2.036626897441309e-5
< -1  2  -1 >:  2.036626897441309e-5
< 0  -1  1 >:  -1.6628988983862714e-5
< 0  0  0 >:  2.1034192149942058e-5
< 0  1  -1 >:  -1.6628988983862714e-5
< 1  -2  1 >:  2.036626897441309e-5
< 1  -1  0 >:  -2.036626897441309e-5
< 1  0  -1 >:  1.2880759479753378e-5
< 2  -3  1 >:  -2.4097694427338847e-5
< 2  -2  0 >:  1.8216144749933038e-5
< 2  -1  -1 >:  -9.108072374966519e-6
< 3  -4  1 >:  2.7825620728946873e-5
< 3  -3  0 >:  -1.3912810364473428e-5
< 3  -2  -1 >:  5.258548037485514e-6
ctilde_basis_func: rank=3 ndens=1 mu0=0 mu=( 0  0  0 )
n=( 1  3  4 )
l=( 3  3  0 )
num_ms=7
< -3  3  0 >:  3.091135792178706e-5
< -2  2  0 >:  -3.091135792178706e-5
< -1  1  0 >:  3.091135792178706e-5
< 0  0  0 >:  -3.091135792178706e-5
< 1  -1  0 >:  3.091135792178706e-5
< 2  -2  0 >:  -3.091135792178706e-5
< 3  -3  0 >:  3.091135792178706e-5
ctilde_basis_func: rank=3 ndens=1 mu0=0 mu=( 0  0  0 )
n=( 1  1  3 )
l=( 2  3  1 )
num_ms=15
< -2  1  1 >:  -1.0992871886008936e-5
< -2  2  0 >:  2.4580808805062308e-5
< -2  3  -1 >:  -4.257520974150433e-5
< -1  0  1 >:  1.904021262766299e-5
< -1  1  0 >:  -3.1092537021247485e-5
< -1  2  -1 >:  3.47625131862191e-5
< 0  -1  1 >:  -2.6926926928508463e-5
< 0  0  0 >:  3.297861565802681e-5
< 0  1  -1 >:  -2.6926926928508463e-5
< 1  -2  1 >:  3.47625131862191e-5
< 1  -1  0 >:  -3.1092537021247485e-5
< 1  0  -1 >:  1.904021262766299e-5
< 2  -3  1 >:  -4.257520974150434e-5
< 2  -2  0 >:  2.4580808805062308e-5
< 2  -1  -1 >:  -1.0992871886008936e-5
ctilde_basis_func: rank=3 ndens=1 mu0=0 mu=( 0  0  0 )
n=( 1  1  3 )
l=( 1  2  1 )
num_ms=9
< -1  0  1 >:  -1.435562603338306e-5
< -1  1  0 >:  2.486467366427792e-5
< -1  2  -1 >:  -3.516395872000297e-5
< 0  -1  1 >:  2.486467366427792e-5
< 0  0  0 >:  -2.871125206676612e-5
